<?xml version="1.0"?>
<opencv_storage>
<my_svm type_id="opencv-ml-svm">
  <svm_type>C_SVC</svm_type>
  <kernel><type>RBF</type>
    <gamma>3.3750000000000002e-002</gamma></kernel>
  <C>3.1250000000000000e+002</C>
  <term_criteria><epsilon>1.1920928955078125e-007</epsilon>
    <iterations>1000</iterations></term_criteria>
  <var_all>131</var_all>
  <var_count>131</var_count>
  <class_count>2</class_count>
  <class_labels type_id="opencv-matrix">
    <rows>1</rows>
    <cols>2</cols>
    <dt>i</dt>
    <data>
      -1 1</data></class_labels>
  <class_weights type_id="opencv-matrix">
    <rows>1</rows>
    <cols>2</cols>
    <dt>d</dt>
    <data>
      1.7663042992353439e+002 1.3586956076323986e+002</data></class_weights>
  <sv_total>35</sv_total>
  <support_vectors>
    <_>
      1.43499002e-001 9.97617006e-001 9.93102014e-001 9.86348987e-001
      9.77575004e-001 9.67463017e-001 9.56201017e-001 9.44226027e-001
      9.31904018e-001 9.19502974e-001 9.07311022e-001 8.95182014e-001
      8.84209991e-001 8.74154985e-001 8.64995003e-001 8.57383013e-001
      8.50902975e-001 8.45842004e-001 8.42166007e-001 8.40236008e-001
      8.39550018e-001 4.99884002e-002 5.55244014e-002 5.27741984e-002
      6.91974014e-002 2.47830003e-001 2.55118012e-001 2.55118012e-001
      9.78225991e-002 5.89964017e-002 4.84656990e-002 4.53925990e-002
      8.56236964e-002 2.55118012e-001 2.55118012e-001 2.55118012e-001
      2.36911997e-001 1.19028002e-001 6.36458993e-002 4.71537001e-002
      4.34536003e-002 2.69791000e-002 3.38049009e-002 1.28606007e-001
      2.55118012e-001 2.55118012e-001 1.68459997e-001 1.01940997e-001
      7.00549036e-002 5.88074997e-002 7.35922977e-002 2.55118012e-001
      2.55118012e-001 2.55118012e-001 2.55118012e-001 1.55634001e-001
      9.22409967e-002 2.22221994e+000 2.93749988e-001 8.83333027e-001
      2.86995006e+000 5.07544018e-002 2.50342991e-002 2.40055006e-003
      3.29217985e-002 0. 3.42935993e-004 1.37174001e-003 4.25239988e-002
      1.01508997e-001 1.02880998e-002 2.02332009e-002 3.12070996e-002
      7.68174976e-002 1.02880998e-002 6.13854006e-002 5.32923996e-001
      5.45832999e-002 4.58332989e-003 4.16666997e-004 9.58332978e-003 0.
      4.16666997e-004 0. 3.37500013e-002 8.62499028e-002 1.83332991e-002
      1.54167004e-002 4.79165986e-002 3.50000001e-002 8.33333004e-003
      4.95833009e-002 6.35842025e-001 7.28572011e-002 1.64285991e-002
      2.14286009e-003 4.14285995e-002 0. 0. 0. 9.57143977e-002
      1.21428996e-001 2.50000004e-002 1.64285991e-002 5.42857014e-002
      2.07142998e-002 6.42857002e-003 1.64285991e-002 5.10710001e-001
      1.05617002e-001 2.44200006e-002 1.83149998e-003 2.56409999e-002 0.
      0. 0. 1.07447997e-001 1.30647004e-001 4.45665009e-002
      2.80830003e-002 4.02930006e-002 3.47984992e-002 9.76801012e-003
      2.56409999e-002 4.21245009e-001 7.22446978e-001 2.00179994e-001
      4.40846011e-002 1.48448003e-002 1.23707000e-002 6.07286999e-003</_>
    <_>
      1.54609993e-001 9.97718990e-001 9.92164016e-001 9.83070016e-001
      9.70960975e-001 9.56291974e-001 9.39490974e-001 9.21060979e-001
      9.01679993e-001 8.81411016e-001 8.61141980e-001 8.41116011e-001
      8.21931005e-001 8.03843975e-001 7.87315011e-001 7.72764027e-001
      7.60258973e-001 7.50497997e-001 7.43214011e-001 7.38798022e-001
      7.37345994e-001 8.43247995e-002 9.30496976e-002 9.57378000e-002
      1.16540000e-001 1.63130999e-001 1.71931997e-001 2.08998993e-001
      2.27320999e-001 1.94122002e-001 7.37856999e-002 6.68653995e-002
      1.48212999e-001 2.27320999e-001 2.27320999e-001 2.01867998e-001
      1.68987006e-001 2.10272998e-001 1.41963005e-001 1.55193001e-001
      1.34644002e-001 1.49589002e-001 1.55186996e-001 1.23464003e-001
      1.00971997e-001 1.41323999e-001 2.13377997e-001 2.19628006e-001
      1.16102003e-001 8.07775036e-002 1.63644001e-001 2.27320999e-001
      2.27320999e-001 2.08582997e-001 1.87950000e-001 1.45604998e-001
      1.51902005e-001 2.75000000e+000 2.10084006e-001 8.74073982e-001 0.
      0. 0. 0. 0. 0. 0. 0. 0. 0. 0. 0. 0. 0. 0. 0. 0. 4.79531996e-002
      2.33918009e-003 0. 2.33918009e-003 0. 0. 1.16959005e-003
      5.84795000e-003 9.00586024e-002 3.39181013e-002 3.74269001e-002
      5.02923988e-002 3.15788984e-002 1.05263004e-002 3.27485017e-002
      6.53797984e-001 5.78946993e-002 8.77192989e-003 3.50876991e-003
      3.15789990e-002 0. 1.75438996e-003 0. 7.54385963e-002
      1.40350997e-001 3.85964997e-002 4.56140004e-002 5.43859005e-002
      1.92981996e-002 3.50876991e-003 1.57894995e-002 5.03507018e-001
      1.06409997e-001 2.17949003e-002 0. 4.10256013e-002 0. 0. 0.
      6.15384988e-002 1.29486993e-001 2.94872001e-002 3.71794999e-002
      7.56409988e-002 2.30768993e-002 1.02564003e-002 2.30768993e-002
      4.41027999e-001 6.84747994e-001 2.10593000e-001 5.10529988e-002
      2.04211995e-002 2.23357007e-002 1.08487997e-002</_>
    <_>
      2.01263994e-001 9.98144984e-001 9.93323982e-001 9.85898972e-001
      9.76382971e-001 9.65171993e-001 9.52341974e-001 9.38467979e-001
      9.23910022e-001 9.09210026e-001 8.95013988e-001 8.81492972e-001
      8.69018972e-001 8.57524991e-001 8.47015977e-001 8.37786973e-001
      8.29916000e-001 8.23849976e-001 8.19581985e-001 8.17102015e-001
      8.16386998e-001 9.92989987e-002 1.09154999e-001 1.65185004e-001
      2.57631987e-001 2.58996993e-001 1.61417007e-001 6.89231977e-002
      6.15309998e-002 8.92146975e-002 8.66815969e-002 1.26935005e-001
      2.58996993e-001 2.58996993e-001 2.57912010e-001 1.04133002e-001
      5.80406003e-002 2.47482993e-002 5.47672994e-002 1.17108002e-001
      2.58996993e-001 2.58996993e-001 2.58996993e-001 2.58996993e-001
      8.19991007e-002 5.06598987e-002 5.50476983e-002 7.75503963e-002
      1.02720000e-001 2.58996993e-001 2.58996993e-001 2.58996993e-001
      1.16786003e-001 3.90858985e-002 2.47146003e-002 2.20644996e-002
      4.23865989e-002 3.66667008e+000 2.11454004e-001 8.86274993e-001 0.
      0. 0. 0. 0. 0. 0. 0. 0. 0. 0. 0. 0. 0. 0. 0. 0. 2.99319997e-002
      3.06122005e-003 0. 8.84354021e-003 3.40136001e-004 0.
      6.80272002e-004 2.04082001e-002 8.57143030e-002 9.18367039e-003
      1.63265001e-002 3.84353995e-002 2.34693997e-002 8.16326961e-003
      3.94558012e-002 7.16000974e-001 7.73525983e-002 7.69539028e-002
      6.37958013e-003 6.89793974e-002 3.98723991e-004 0. 2.39233999e-003
      5.22328988e-002 9.96811986e-002 4.10685986e-002 2.27272995e-002
      4.90431003e-002 2.59170998e-002 1.87400002e-002 2.59170998e-002
      4.32217985e-001 1.32116005e-001 5.04833013e-002 6.44468004e-003
      5.11993989e-002 3.58038000e-004 0. 7.16076000e-004 9.91763994e-002
      1.26029000e-001 3.54457013e-002 2.00500991e-002 3.93841006e-002
      2.61368006e-002 1.75439008e-002 2.11242009e-002 3.73795986e-001
      6.68300986e-001 2.74556011e-001 3.17835994e-002 1.01437001e-002
      1.06509002e-002 4.56466991e-003</_>
    <_>
      1.15796998e-001 9.97408986e-001 9.91071999e-001 9.81455028e-001
      9.68751013e-001 9.53288972e-001 9.35512006e-001 9.15830016e-001
      8.94383013e-001 8.72138023e-001 8.49824011e-001 8.27901006e-001
      8.06811988e-001 7.86942005e-001 7.68810987e-001 7.52605021e-001
      7.38696992e-001 7.27729976e-001 7.20115006e-001 7.15712011e-001
      7.14074016e-001 8.54035020e-002 6.51931986e-002 1.41445994e-001
      1.39883995e-001 2.13918000e-001 1.82054996e-001 1.26840994e-001
      1.34642005e-001 1.30177006e-001 7.50563964e-002 1.06007002e-001
      2.76262999e-001 2.76262999e-001 1.45395994e-001 7.72254020e-002
      8.84810984e-002 1.51577994e-001 1.33817002e-001 4.78067994e-002
      1.47521004e-001 2.76262999e-001 2.76262999e-001 2.76262999e-001
      2.29865998e-001 9.47446972e-002 5.58420010e-002 5.07095009e-002
      4.91841994e-002 2.07420006e-001 2.76262999e-001 2.76262999e-001
      2.05438003e-001 6.53048977e-002 3.70349996e-002 4.89153005e-002
      4.34424989e-002 2.79999995e+000 2.43055999e-001 8.82716000e-001
      2.69066000e+000 6.09418005e-002 1.93905998e-002 1.38504000e-003
      3.80886011e-002 0. 0. 3.46260006e-003 3.67036015e-002
      8.44876021e-002 2.21606996e-002 2.83933003e-002 3.80886011e-002
      6.23268001e-002 1.45429000e-002 7.27147013e-002 5.17311990e-001
      3.13390009e-002 2.13674991e-003 7.12251000e-004 7.12251011e-003 0.
      0. 0. 1.63818002e-002 9.18804035e-002 2.35043000e-002
      3.27634998e-002 4.27349992e-002 3.49003002e-002 1.13960002e-002
      5.19943014e-002 6.53137028e-001 1.47726998e-001 2.27272995e-002 0.
      2.27272995e-002 0. 0. 0. 5.80807999e-002 1.02273002e-001
      2.02019997e-002 2.27272995e-002 6.56566024e-002 2.65151002e-002
      3.78788006e-003 3.03029995e-002 4.77274001e-001 8.65304992e-002
      7.18367025e-002 2.44898000e-003 7.02039972e-002 0. 8.16326996e-004
      0. 1.01223998e-001 9.95917022e-002 3.18366997e-002 2.93878000e-002
      5.30611984e-002 2.85714008e-002 1.22448998e-002 3.59183997e-002
      3.76325011e-001 7.45171010e-001 2.11366996e-001 3.52897011e-002
      5.94354002e-003 2.22883001e-003 0.</_>
    <_>
      1.32067993e-001 9.96232986e-001 9.90015984e-001 9.81002986e-001
      9.69763994e-001 9.56234992e-001 9.41236019e-001 9.23855007e-001
      9.05251026e-001 8.85845006e-001 8.66814971e-001 8.47931981e-001
      8.29297006e-001 8.11788976e-001 7.95691013e-001 7.81413972e-001
      7.69074976e-001 7.59445012e-001 7.51635015e-001 7.47141004e-001
      7.46080995e-001 1.22088999e-001 8.42681974e-002 1.04866996e-001
      1.53844997e-001 1.92926005e-001 1.75457001e-001 1.42609000e-001
      1.30935997e-001 1.55410007e-001 1.49158001e-001 1.59914002e-001
      2.08312005e-001 2.28300005e-001 2.28300005e-001 1.35435000e-001
      8.06519017e-002 1.04542002e-001 1.31219998e-001 1.35414004e-001
      8.80628005e-002 1.02311000e-001 1.21847004e-001 1.94815993e-001
      2.28300005e-001 2.28300005e-001 1.80667996e-001 1.49454996e-001
      1.78853005e-001 2.28300005e-001 2.28300005e-001 2.28300005e-001
      2.28300005e-001 1.45447999e-001 1.12222999e-001 1.24656998e-001
      1.56901002e-001 1.84615004e+000 2.67856985e-001 8.74015987e-001 0.
      0. 0. 0. 0. 0. 0. 0. 0. 0. 0. 0. 0. 0. 0. 0. 0. 4.25239988e-002
      1.37174001e-003 2.74348003e-003 9.60219000e-003 0. 0. 0.
      2.46913992e-002 1.31687000e-001 1.23456996e-002 3.84088010e-002
      5.21261990e-002 1.59122005e-001 1.92044005e-002 8.50479975e-002
      4.21124995e-001 1.17857002e-001 2.67856997e-002 3.57142999e-003
      4.28570993e-002 0. 0. 5.35714021e-003 6.25000000e-002
      8.75001028e-002 3.21428999e-002 2.85714008e-002 7.50000030e-002
      2.50000004e-002 1.42857004e-002 1.07143000e-002 4.67857987e-001
      8.93997997e-002 4.59770001e-002 1.02171004e-002 4.85313013e-002
      1.27713999e-003 1.27713999e-003 2.55427998e-003 1.08557001e-001
      1.20050997e-001 1.14943003e-002 3.57598998e-002 4.59770001e-002
      5.23626991e-002 1.91571005e-002 6.00254983e-002 3.47382009e-001
      6.71225011e-001 1.83259994e-001 5.25164008e-002 4.15754989e-002
      3.66520993e-002 1.47701995e-002</_>
    <_>
      1.57534003e-001 9.97775972e-001 9.94395018e-001 9.89803016e-001
      9.83489990e-001 9.76463974e-001 9.68629003e-001 9.59962010e-001
      9.50987995e-001 9.41065013e-001 9.30887997e-001 9.21024024e-001
      9.11575019e-001 9.03195977e-001 8.95341992e-001 8.88800025e-001
      8.83347988e-001 8.78304005e-001 8.74723971e-001 8.72555971e-001
      8.71209025e-001 1.91993997e-001 2.28676006e-001 1.94370002e-001
      1.09800003e-001 2.28676006e-001 2.28676006e-001 1.80573002e-001
      1.74198002e-001 2.28676006e-001 1.17959000e-001 1.06133997e-001
      1.13954000e-001 1.32211000e-001 2.28676006e-001 2.28676006e-001
      1.83274001e-001 1.97647005e-001 2.28676006e-001 9.26773995e-002
      1.17005996e-001 1.14987001e-001 6.85741976e-002 9.57916975e-002
      1.78935006e-001 2.28676006e-001 1.79348007e-001 1.50005996e-001
      9.97480005e-002 1.68060005e-001 1.59995005e-001 1.37328997e-001
      1.36502996e-001 1.22018002e-001 1.29831001e-001 1.13609001e-001
      1.39367998e-001 2. 2.75862008e-001 8.77551019e-001 0. 0. 0. 0. 0.
      0. 0. 0. 0. 0. 0. 0. 0. 0. 0. 0. 0. 7.85714015e-002
      2.38094991e-003 2.38094991e-003 9.52380989e-003 0. 2.38094991e-003
      2.38094991e-003 7.14285998e-003 1.59523994e-001 1.90475993e-002
      2.38095000e-002 7.61905015e-002 6.90476000e-002 7.14285998e-003
      5.23810014e-002 4.88097012e-001 1.32035002e-001 6.92640990e-002
      8.65800958e-003 7.57576004e-002 0. 0. 2.16450007e-003
      1.06060997e-001 1.23377003e-001 2.81384997e-002 4.54544984e-002
      5.62769994e-002 4.11254987e-002 6.49351021e-003 5.19479997e-002
      2.53246993e-001 1.62879005e-001 1.13636004e-002 0. 1.32576004e-002
      0. 0. 0. 1.25000000e-001 2.91666001e-001 1.89394001e-002
      4.35606018e-002 5.30303009e-002 2.84090992e-002 1.32576004e-002
      1.70454998e-002 2.21590996e-001 5.82942009e-001 2.74648011e-001
      5.86853996e-002 5.24257012e-002 2.42567006e-002 7.04225013e-003</_>
    <_>
      1.39002994e-001 9.97932017e-001 9.92851973e-001 9.84652996e-001
      9.73747015e-001 9.60456014e-001 9.45302010e-001 9.28559005e-001
      9.10736024e-001 8.91929984e-001 8.72915030e-001 8.53838027e-001
      8.35705996e-001 8.18390012e-001 8.02721024e-001 7.88882017e-001
      7.77004004e-001 7.67385006e-001 7.60424972e-001 7.55994022e-001
      7.54653990e-001 7.56295025e-002 6.85842037e-002 1.07574999e-001
      1.73796996e-001 2.15044007e-001 2.15044007e-001 1.85879007e-001
      1.58768997e-001 1.52566999e-001 1.49994001e-001 1.67623997e-001
      2.15044007e-001 2.15044007e-001 1.83679998e-001 1.19949996e-001
      9.96647999e-002 1.04799002e-001 1.83954999e-001 1.39779001e-001
      1.29178002e-001 1.23972997e-001 1.95510998e-001 2.15044007e-001
      2.15044007e-001 1.60352007e-001 1.60363004e-001 1.83234006e-001
      1.79318994e-001 2.15044007e-001 2.15044007e-001 1.89069003e-001
      1.72995001e-001 1.39533997e-001 1.01395003e-001 9.13302973e-002
      1.68645993e-001 2.23077011e+000 2.33333007e-001 8.88059974e-001
      2.72523999e+000 7.17592016e-002 6.94443984e-003 2.31480994e-003
      2.39196997e-002 1.54321000e-003 0. 5.40122995e-003 4.70678993e-002
      7.17592016e-002 2.77778003e-002 1.46605000e-002 6.01852015e-002
      4.62962985e-002 9.25926026e-003 6.94444031e-002 5.41669011e-001
      4.37063016e-002 2.62237992e-003 8.74125981e-004 1.13636004e-002 0.
      0. 8.74125981e-004 1.66084003e-002 5.06993011e-002 1.83566008e-002
      2.18531992e-002 7.43006021e-002 2.88462006e-002 7.86713045e-003
      4.02098000e-002 6.81815982e-001 5.33333011e-002 1.66666992e-002 0.
      1.49999997e-002 0. 0. 0. 3.50000001e-002 5.99999987e-002
      4.16667014e-002 4.33332995e-002 9.00000036e-002 6.66667009e-003
      9.99999978e-003 1.99999996e-002 6.08332992e-001 4.72541004e-002
      2.17113998e-002 0. 4.59770001e-002 0. 0. 0. 3.95913012e-002
      5.74712008e-002 2.80971006e-002 3.44827995e-002 7.15197995e-002
      2.17113998e-002 1.14943003e-002 3.57598998e-002 5.84932029e-001
      9.53032017e-001 3.41587998e-002 8.53971019e-003 2.56191008e-003
      1.70794001e-003 0.</_>
    <_>
      1.22299999e-001 9.97398019e-001 9.91320014e-001 9.81921971e-001
      9.69117999e-001 9.53348994e-001 9.35128987e-001 9.14968014e-001
      8.93656015e-001 8.71716976e-001 8.49165022e-001 8.26847017e-001
      8.05415988e-001 7.85143971e-001 7.66381979e-001 7.49532998e-001
      7.35221982e-001 7.23721981e-001 7.15270996e-001 7.09887981e-001
      7.08003998e-001 1.67655006e-001 1.38587996e-001 1.19381003e-001
      1.51653007e-001 2.27859005e-001 1.28802001e-001 1.31165996e-001
      1.70548007e-001 1.58484995e-001 2.27859005e-001 1.19822003e-001
      8.91394988e-002 8.94280002e-002 1.88839003e-001 1.73903003e-001
      1.79456994e-001 2.27859005e-001 2.27859005e-001 1.47992000e-001
      8.81240964e-002 1.29159003e-001 1.74263000e-001 2.27859005e-001
      1.89012006e-001 1.89269006e-001 1.55494004e-001 1.56917006e-001
      2.27859005e-001 1.21165000e-001 1.42462999e-001 1.08813003e-001
      2.13944003e-001 1.06743000e-001 1.24562003e-001 1.29408002e-001
      2.27859005e-001 1.88889003e+000 2.28260994e-001 8.27273011e-001 0.
      0. 0. 0. 0. 0. 0. 0. 0. 0. 0. 0. 0. 0. 0. 0. 0. 4.74255010e-002
      4.06504003e-003 4.06504003e-003 1.62601992e-002 0. 0.
      1.35500997e-003 2.30352003e-002 7.04606995e-002 1.49052003e-002
      4.33604009e-002 5.01355007e-002 6.23305999e-002 8.13008007e-003
      5.96206002e-002 5.94851017e-001 6.52173981e-002 0. 0.
      2.17390992e-002 3.10558989e-003 0. 0. 1.86334997e-002
      2.79502999e-002 2.48447005e-002 5.27950004e-002 8.38508978e-002
      3.10558993e-002 3.10558989e-003 4.34782989e-002 6.24222994e-001
      5.50239012e-002 2.63158008e-002 0. 1.67463999e-002 0. 0. 0.
      2.39234008e-002 2.15310995e-002 2.63158008e-002 4.78468984e-002
      9.33014005e-002 2.15310995e-002 1.19617004e-002 2.15310995e-002
      6.33973002e-001 8.33954990e-001 9.51493010e-002 3.35820988e-002
      2.79850997e-002 9.32835974e-003 0.</_>
    <_>
      1.66271999e-001 9.97614980e-001 9.91939008e-001 9.82541025e-001
      9.69962001e-001 9.54640985e-001 9.37097013e-001 9.17500973e-001
      8.96721005e-001 8.74894023e-001 8.52804005e-001 8.30810010e-001
      8.09292972e-001 7.88917005e-001 7.69994974e-001 7.53140986e-001
      7.38815010e-001 7.26939023e-001 7.18465984e-001 7.13102996e-001
      7.11199999e-001 1.42465994e-001 1.21250004e-001 1.25588998e-001
      1.69229999e-001 2.11664006e-001 2.12951005e-001 1.88773006e-001
      1.69952005e-001 1.40848994e-001 1.77472994e-001 1.74603999e-001
      2.12951005e-001 1.98340997e-001 2.06867993e-001 1.40725002e-001
      1.19194999e-001 1.25884995e-001 1.40265003e-001 1.25216007e-001
      1.37643993e-001 1.44787997e-001 9.23027024e-002 1.78977996e-001
      2.12951005e-001 2.07748994e-001 1.82692006e-001 1.37407005e-001
      2.10135996e-001 2.12951005e-001 2.12951005e-001 2.12951005e-001
      1.56248003e-001 9.88921002e-002 7.74428025e-002 1.14302002e-001
      1.20805003e-001 2. 1.79104000e-001 8.98648977e-001 0. 0. 0. 0. 0.
      0. 0. 0. 0. 0. 0. 0. 0. 0. 0. 0. 0. 4.05267999e-002
      1.01317000e-003 1.01317000e-003 5.06586023e-003 0. 0. 0.
      1.62106995e-002 1.17527999e-001 1.82371009e-002 3.85004990e-002
      4.66058999e-002 5.97770996e-002 8.10537022e-003 3.85004990e-002
      6.08911991e-001 9.28791985e-002 2.32197996e-002 1.54799002e-003
      2.63158008e-002 0. 0. 0. 5.10835983e-002 9.90711972e-002
      5.72756007e-002 4.48917001e-002 7.12073967e-002 3.56036983e-002
      7.73994019e-003 3.25076990e-002 4.56656992e-001 1.47726998e-001
      5.30303009e-002 0. 3.15656997e-002 0. 0. 0. 8.58585984e-002
      1.79293007e-001 2.77778003e-002 3.91414016e-002 5.17676994e-002
      1.64141003e-002 6.31312979e-003 1.64141003e-002 3.44696999e-001
      6.57427013e-001 2.48953998e-001 4.55021001e-002 1.56903993e-002
      2.51045991e-002 7.32218008e-003</_>
    <_>
      1.62494004e-001 9.97443974e-001 9.91123974e-001 9.81374979e-001
      9.68689024e-001 9.53279972e-001 9.35702980e-001 9.16198015e-001
      8.95440996e-001 8.73848021e-001 8.51908982e-001 8.30045998e-001
      8.08930993e-001 7.89039016e-001 7.70694017e-001 7.54432976e-001
      7.40629971e-001 7.29571998e-001 7.21816003e-001 7.17382014e-001
      7.16053009e-001 6.40927022e-003 6.89115003e-002 2.11711004e-001
      1.48077995e-001 3.10012996e-001 2.45737001e-001 2.12382004e-002
      8.73070024e-003 5.18846978e-003 7.10166991e-003 7.62739033e-002
      3.14936996e-001 3.14936996e-001 7.71626011e-002 7.82946032e-003
      2.98066996e-003 4.00938978e-003 5.44301979e-003 3.46651003e-002
      3.14936996e-001 3.14936996e-001 8.74684006e-002 2.67850012e-001
      2.80822992e-001 7.67970011e-002 3.70353982e-002 3.31409015e-002
      1.95196997e-002 2.48436004e-001 3.14936996e-001 1.71563998e-001
      2.35440992e-002 1.15403002e-002 7.21290009e-003 1.21302996e-002
      1.23305004e-002 3.23529005e+000 1.74033001e-001 8.95781994e-001 0.
      0. 0. 0. 0. 0. 0. 0. 0. 0. 0. 0. 0. 0. 0. 0. 0. 2.17639003e-002
      3.73559003e-003 6.49666996e-004 8.28325003e-003 0. 0.
      6.49666996e-004 1.80283003e-002 8.26696977e-002 1.38053996e-002
      1.62416995e-002 3.00471000e-002 2.09518000e-002 9.09534004e-003
      4.01168987e-002 7.33982980e-001 1.52274996e-001 4.08164002e-002
      6.72796974e-004 1.77170001e-002 0. 0. 0. 8.00627023e-002
      6.39157966e-002 2.19780002e-002 1.81655008e-002 3.81251983e-002
      8.74636043e-003 7.40077021e-003 1.34559004e-002 5.36665976e-001
      7.13540986e-002 1.23263998e-002 1.04166998e-003 1.40624996e-002 0.
      1.73610999e-004 3.47221998e-004 7.88194984e-002 1.38715997e-001
      1.12846997e-002 1.38889002e-002 2.20486000e-002 1.78820007e-002
      6.07638992e-003 1.54513996e-002 5.96521020e-001 5.91269016e-001
      3.38299006e-001 4.17688005e-002 1.99887007e-002 7.44860992e-003
      1.22572004e-003</_>
    <_>
      1.22619003e-001 9.97776985e-001 9.92347002e-001 9.83662009e-001
      9.72456992e-001 9.58709002e-001 9.43313003e-001 9.26092982e-001
      9.08075988e-001 8.89207006e-001 8.70360970e-001 8.51522028e-001
      8.33693981e-001 8.16686988e-001 8.01384985e-001 7.87760019e-001
      7.76508987e-001 7.67418981e-001 7.61307001e-001 7.57619977e-001
      7.56627023e-001 4.25195992e-002 7.04569966e-002 1.41032994e-001
      1.91906005e-001 2.78201997e-001 2.78201997e-001 9.59495977e-002
      3.94462012e-002 4.78730984e-002 4.60727997e-002 7.39025995e-002
      2.78201997e-001 2.78201997e-001 2.00754002e-001 1.45089000e-001
      5.41957989e-002 3.19698006e-002 5.97576015e-002 4.18629982e-002
      1.30530998e-001 2.78201997e-001 2.78201997e-001 2.78201997e-001
      2.78201997e-001 1.03294000e-001 3.92646007e-002 3.67829986e-002
      3.27017009e-002 9.89257023e-002 2.78201997e-001 2.78201997e-001
      1.35865003e-001 5.40867001e-002 4.21209000e-002 3.66075002e-002
      5.03702015e-002 2. 2.22222000e-001 7.84256995e-001 1.33736002e+000
      7.47599006e-002 2.46913005e-002 2.05761008e-003 5.10974005e-002
      1.02881005e-003 0. 2.40055006e-003 7.57886991e-002 9.97942016e-002
      1.54320998e-002 1.98903009e-002 2.77778003e-002 5.38408011e-002
      8.57338961e-003 6.99587986e-002 4.72907990e-001 4.10389006e-002
      3.37661989e-003 1.94804999e-003 1.11688003e-002 7.79221009e-004 0.
      1.16882997e-003 2.68830005e-002 9.97406021e-002 1.40260002e-002
      1.15583995e-002 3.31167988e-002 2.40259003e-002 8.18181969e-003
      3.12986001e-002 6.91711009e-001 1.12967998e-001 3.24198008e-002
      2.33957008e-003 2.90775001e-002 3.34225013e-004 0. 3.34224990e-003
      7.58690983e-002 8.79011974e-002 3.64305004e-002 1.60428006e-002
      5.11364006e-002 2.30615009e-002 1.13636004e-002 3.17513011e-002
      4.85965997e-001 8.15917999e-002 4.70148996e-002 6.46765996e-003
      5.42288981e-002 7.46269012e-004 4.97511995e-004 2.23881006e-003
      8.15917999e-002 1.15920000e-001 3.63183990e-002 1.89055000e-002
      3.58209014e-002 3.05969995e-002 1.54229002e-002 4.22886014e-002
      4.30352002e-001 8.31843019e-001 1.30949005e-001 1.72099005e-002
      1.16335005e-002 6.44169003e-003 1.92288996e-003</_>
    <_>
      4.38273996e-002 9.93030012e-001 9.87991989e-001 9.83123004e-001
      9.79961991e-001 9.76584971e-001 9.70843971e-001 9.65982974e-001
      9.63957012e-001 9.62638021e-001 9.62067008e-001 9.60870028e-001
      9.61336017e-001 9.64432001e-001 9.68819022e-001 9.73111987e-001
      9.75247979e-001 9.79887009e-001 9.82607007e-001 9.84673977e-001
      9.85033989e-001 1.47945002e-001 1.37367994e-001 1.72200993e-001
      2.43761003e-001 2.43761003e-001 2.43761003e-001 2.43761003e-001
      1.57659993e-001 2.05480993e-001 5.08488007e-002 1.22043997e-001
      2.41889998e-001 2.43761003e-001 2.26526007e-001 1.06601998e-001
      1.19976997e-001 9.32544023e-002 6.48254007e-002 5.81762008e-002
      7.13379979e-002 1.64213002e-001 2.43761003e-001 2.43761003e-001
      2.21128002e-001 2.43761003e-001 1.20525002e-001 7.51030967e-002
      4.10016999e-002 5.76489009e-002 9.53269005e-002 2.43761003e-001
      1.58576995e-001 7.73579031e-002 6.76715970e-002 5.70578016e-002
      4.21480983e-002 2.08332992e+000 2.37624004e-001 8.84956002e-001 0.
      0. 0. 0. 0. 0. 0. 0. 0. 0. 0. 0. 0. 0. 0. 0. 0. 6.88406006e-002 0.
      0. 9.05796979e-003 1.81159005e-003 0. 0. 3.62319015e-002
      1.66666999e-001 1.99274998e-002 2.35507004e-002 7.78985023e-002
      5.79710007e-002 7.24638021e-003 5.25362007e-002 4.78260994e-001
      1.41975001e-001 8.64197016e-002 6.17284002e-003 9.25925970e-002 0.
      0. 0. 7.40740970e-002 6.17283992e-002 2.46913992e-002
      7.40740970e-002 8.64197016e-002 6.17284002e-003 0. 4.93827015e-002
      2.96296000e-001 7.07693025e-002 0. 1.53846003e-003 6.15384988e-003
      1.53846003e-003 0. 0. 6.76923022e-002 2.69230008e-001
      2.46153995e-002 3.84614989e-002 5.38461991e-002 8.15384984e-002
      1.07691996e-002 2.46153995e-002 3.49229991e-001 8.66192997e-001
      9.37298015e-002 2.71492992e-002 1.16354004e-002 1.29281997e-003 0.</_>
    <_>
      1.60266995e-001 9.98089015e-001 9.92844999e-001 9.84322011e-001
      9.72854972e-001 9.58859980e-001 9.42788005e-001 9.25036013e-001
      9.06041980e-001 8.86265993e-001 8.66195023e-001 8.46149981e-001
      8.26731026e-001 8.08310986e-001 7.91354001e-001 7.76157022e-001
      7.63237000e-001 7.52731979e-001 7.45074987e-001 7.40379989e-001
      7.38807023e-001 9.65048969e-002 1.13310002e-001 1.13329001e-001
      2.41922006e-001 2.49598995e-001 2.49598995e-001 2.43724003e-001
      1.32954001e-001 7.85626024e-002 1.22400999e-001 1.20310001e-001
      1.56267002e-001 2.49598995e-001 2.49598995e-001 1.96753994e-001
      1.22525997e-001 1.01911999e-001 9.49305966e-002 4.23116013e-002
      7.51487985e-002 9.31255966e-002 1.26036003e-001 1.67610005e-001
      2.49598995e-001 2.49598995e-001 1.64473996e-001 5.88270016e-002
      6.35150000e-002 1.10679001e-001 2.49598995e-001 2.49598995e-001
      2.22406998e-001 1.47247002e-001 1.04162998e-001 6.61396980e-002
      4.56152000e-002 1.78946996e+000 2.06185997e-001 8.89401019e-001 0.
      0. 0. 0. 0. 0. 0. 0. 0. 0. 0. 0. 0. 0. 0. 0. 0. 2.66864002e-002
      8.15419015e-003 0. 5.55966981e-003 0. 0. 0. 1.40845003e-002
      5.15195988e-002 1.48258004e-002 2.33506002e-002 4.26241010e-002
      3.78056988e-002 7.78354006e-003 3.40992995e-002 7.33497977e-001
      1.56462997e-001 4.82993014e-002 3.40136001e-003 5.85034005e-002 0.
      2.72109010e-003 6.80272002e-004 1.53061002e-001 9.59184989e-002
      2.44897995e-002 2.92517003e-002 3.46939005e-002 7.48299016e-003
      6.80272002e-003 1.36054000e-002 3.64625007e-001 1.73244998e-001
      2.68639997e-002 4.38595982e-003 3.45394984e-002 5.48246026e-004
      5.48246026e-004 2.19297991e-003 1.18421003e-001 1.44188002e-001
      1.80920996e-002 1.91885997e-002 5.04386015e-002 2.52193008e-002
      9.32016969e-003 4.87939008e-002 3.24012011e-001 5.86174011e-001
      3.33207995e-001 4.99151982e-002 1.43152997e-002 1.16782999e-002
      4.70898021e-003</_>
    <_>
      9.71136987e-002 9.95590985e-001 9.86073971e-001 9.72115993e-001
      9.54954028e-001 9.35297012e-001 9.14400995e-001 8.91740024e-001
      8.68196011e-001 8.44365001e-001 8.20564985e-001 7.97810018e-001
      7.76151001e-001 7.56215990e-001 7.38386989e-001 7.23419011e-001
      7.11740971e-001 7.03666985e-001 6.99114025e-001 6.96491003e-001
      6.95762992e-001 4.81912009e-002 9.20464024e-002 1.96265996e-001
      2.45885000e-001 2.45885000e-001 2.45885000e-001 1.84699997e-001
      9.82311964e-002 1.35180995e-001 5.28948009e-002 7.50984997e-002
      2.20399007e-001 2.45885000e-001 2.45885000e-001 1.39687002e-001
      7.28785992e-002 4.62947004e-002 7.21895024e-002 6.34514987e-002
      8.45201984e-002 1.60763994e-001 2.45885000e-001 2.45885000e-001
      2.45885000e-001 2.11061999e-001 9.72720012e-002 1.10087000e-001
      5.81138991e-002 9.91695970e-002 2.21609995e-001 2.45885000e-001
      2.45885000e-001 1.19994998e-001 6.66728020e-002 4.87674996e-002
      7.56061971e-002 6.71429014e+000 2.45454997e-001 8.17164004e-001 0.
      0. 0. 0. 0. 0. 0. 0. 0. 0. 0. 0. 0. 0. 0. 0. 0. 8.11337978e-002
      4.69207987e-002 9.77516989e-004 4.30107005e-002 0. 0.
      1.46627997e-003 4.98532988e-002 6.35386035e-002 1.95503002e-003
      2.24828999e-002 2.63928995e-002 4.59433012e-002 1.46627997e-003
      5.66959009e-002 5.58161974e-001 7.53248036e-002 2.64068991e-002
      1.73160003e-003 2.81384997e-002 0. 0. 2.16450007e-003
      7.96537995e-002 8.96105021e-002 3.72295007e-002 2.20778994e-002
      3.85282002e-002 3.03029995e-002 9.09090973e-003 3.33333984e-002
      5.26409984e-001 4.70370986e-002 1.74074005e-002 3.70369991e-003
      3.85184996e-002 3.70369991e-004 3.70369991e-004 1.48147997e-003
      5.11111990e-002 7.18519017e-002 2.40741000e-002 2.37036999e-002
      3.92592996e-002 5.77779002e-002 1.25925997e-002 5.48149012e-002
      5.55935979e-001 9.06672001e-001 7.47407973e-002 1.19350003e-002
      3.32615990e-003 2.73918989e-003 5.86969021e-004</_>
    <_>
      1.40604004e-001 9.96748984e-001 9.90063012e-001 9.80059028e-001
      9.67225015e-001 9.51617002e-001 9.33881998e-001 9.14034009e-001
      8.93401027e-001 8.71695995e-001 8.49569023e-001 8.27564001e-001
      8.06213975e-001 7.85820007e-001 7.66844988e-001 7.49423027e-001
      7.34378994e-001 7.21825004e-001 7.12230980e-001 7.05878019e-001
      7.03912973e-001 1.30784005e-001 1.81375995e-001 2.20255002e-001
      1.77330002e-001 1.90482005e-001 1.05328001e-001 1.10933997e-001
      8.81915987e-002 1.15192004e-001 2.20255002e-001 2.20255002e-001
      2.20255002e-001 1.22764997e-001 1.14987999e-001 6.13606013e-002
      8.89263973e-002 9.01734978e-002 1.41130000e-001 1.67448997e-001
      1.77588999e-001 2.18234003e-001 2.15932995e-001 2.20255002e-001
      1.21600002e-001 1.76355004e-001 1.78994000e-001 1.74671993e-001
      2.20255002e-001 2.20255002e-001 2.20255002e-001 2.07912996e-001
      1.56483993e-001 8.06962028e-002 7.42925033e-002 9.12211984e-002
      1.70797005e-001 1.76923001e+000 2.10526004e-001 8.82812977e-001 0.
      0. 0. 0. 0. 0. 0. 0. 0. 0. 0. 0. 0. 0. 0. 0. 0. 3.86905000e-002
      4.96031996e-003 0. 5.95238013e-003 0. 0. 0. 1.48809999e-002
      4.66270000e-002 2.77778003e-002 3.67063992e-002 4.76190001e-002
      3.67063992e-002 9.92063992e-003 6.05158992e-002 6.69641018e-001
      5.98911010e-002 1.45191001e-002 1.81487994e-003 2.17786003e-002 0.
      0. 0. 3.62976007e-002 3.62976007e-002 3.08529995e-002
      4.53720987e-002 7.07803965e-002 1.08893001e-002 1.08893001e-002
      2.35935003e-002 6.37023985e-001 5.65476008e-002 2.97618993e-002
      2.97619007e-003 4.16667014e-002 0. 0. 2.97619007e-003
      3.27381007e-002 1.93451997e-002 3.12500000e-002 2.67856997e-002
      1.07143000e-001 1.48809999e-002 1.04166996e-002 2.38095000e-002
      5.99700987e-001 8.89289975e-001 5.89651018e-002 2.28640009e-002
      1.32371001e-002 1.44403996e-002 1.20337005e-003</_>
    <_>
      1.70137003e-001 9.98080015e-001 9.93251979e-001 9.85781014e-001
      9.76221025e-001 9.64832008e-001 9.52126026e-001 9.38437998e-001
      9.24082994e-001 9.09373999e-001 8.94475996e-001 8.79896998e-001
      8.65671992e-001 8.52531016e-001 8.40582013e-001 8.30021977e-001
      8.21066022e-001 8.14100981e-001 8.09219003e-001 8.06286991e-001
      8.05325985e-001 2.26154998e-001 1.47396997e-001 1.07541002e-001
      9.15537998e-002 9.22854990e-002 1.07665002e-001 1.61166996e-001
      1.59828007e-001 1.80592000e-001 1.53877005e-001 1.01779997e-001
      9.64073986e-002 8.07712972e-002 1.08782001e-001 1.55834004e-001
      2.26034001e-001 1.38366997e-001 1.16727002e-001 2.26154998e-001
      1.68329999e-001 1.13792002e-001 1.04994997e-001 1.28958002e-001
      1.38833001e-001 2.16870993e-001 2.26154998e-001 2.26154998e-001
      2.26154998e-001 1.39541000e-001 1.25149995e-001 1.54335007e-001
      2.13925004e-001 2.26154998e-001 2.26154998e-001 1.89052999e-001
      2.19687000e-001 2.54544997e+000 2.42423996e-001 8.79194975e-001 0.
      0. 0. 0. 0. 0. 0. 0. 0. 0. 0. 0. 0. 0. 0. 0. 0. 6.97116032e-002
      1.08172996e-002 2.40384997e-003 1.92307997e-002 0. 0. 0.
      2.40384992e-002 1.21394001e-001 1.08172996e-002 2.16345992e-002
      5.40865995e-002 2.16345992e-002 7.21153989e-003 6.12980984e-002
      5.75722992e-001 8.50815997e-002 4.54545990e-002 0. 8.04196000e-002
      0. 0. 1.16550003e-003 9.09091011e-002 1.16549999e-001
      4.19581011e-002 3.26340012e-002 5.82750998e-002 4.07925993e-002
      1.04895001e-002 4.77855988e-002 3.48484993e-001 1.14583001e-001
      7.38636032e-002 1.89394003e-003 3.97727005e-002 0. 0. 0.
      6.81817979e-002 1.27840996e-001 4.54544984e-002 2.08333004e-002
      7.00756982e-002 3.31439003e-002 2.55682003e-002 3.88256982e-002
      3.39962006e-001 7.73320973e-001 1.94030002e-001 2.61193998e-002
      6.06343010e-003 4.66417987e-004 0.</_>
    <_>
      1.81033999e-001 9.98148978e-001 9.94814992e-001 9.89704013e-001
      9.84224021e-001 9.78241026e-001 9.72944975e-001 9.67418015e-001
      9.61844981e-001 9.56134975e-001 9.50141013e-001 9.43545997e-001
      9.36532021e-001 9.29678023e-001 9.22980011e-001 9.17186022e-001
      9.12460983e-001 9.09196019e-001 9.06333029e-001 9.05094028e-001
      9.04497981e-001 2.72026006e-002 5.30183986e-002 1.18869998e-001
      2.78212011e-001 2.78212011e-001 2.24058002e-001 1.09750003e-001
      3.85452993e-002 1.96892992e-002 4.50095013e-002 5.80888987e-002
      1.06974997e-001 2.78212011e-001 2.78212011e-001 1.70834005e-001
      8.11728984e-002 3.18292007e-002 3.17066982e-002 4.40580994e-002
      1.14198998e-001 1.74245998e-001 2.78212011e-001 2.78212011e-001
      2.78212011e-001 1.31235003e-001 5.04184999e-002 3.48871984e-002
      4.71616015e-002 1.10376000e-001 2.33772993e-001 2.78212011e-001
      2.78212011e-001 1.49054006e-001 4.88536991e-002 4.09973003e-002
      5.00018001e-002 1.68750000e+000 2.64705986e-001 8.78261030e-001 0.
      0. 0. 0. 0. 0. 0. 0. 0. 0. 0. 0. 0. 0. 0. 0. 0. 3.28947008e-002
      9.39849997e-004 0. 9.39849997e-004 0. 0. 0. 9.39849997e-004
      3.94737013e-002 1.22180004e-002 3.47744003e-002 4.04134989e-002
      6.67292997e-002 3.75939999e-003 7.61277974e-002 6.90787017e-001
      1.23076998e-001 4.15384993e-002 0. 4.61538993e-002 0. 0. 0.
      8.76924023e-002 1.15385003e-001 2.92307995e-002 4.30768989e-002
      5.23076989e-002 3.53845991e-002 7.69231003e-003 1.84614994e-002
      3.99998993e-001 1.17241003e-001 3.44827995e-002 0. 2.48275995e-002
      0. 0. 0. 9.37931016e-002 1.98621005e-001 2.75861993e-002
      3.58620994e-002 4.68965992e-002 1.93102993e-002 4.13792999e-003
      2.06896998e-002 3.76551986e-001 8.28198016e-001 1.65732995e-001
      6.06909022e-003 0. 0. 0.</_>
    <_>
      1.91977993e-001 9.97946978e-001 9.93367016e-001 9.85966980e-001
      9.76791978e-001 9.65749025e-001 9.53535020e-001 9.40239012e-001
      9.26349998e-001 9.12284970e-001 8.98473978e-001 8.84931028e-001
      8.71801019e-001 8.59124005e-001 8.47114027e-001 8.36319983e-001
      8.26937973e-001 8.19365025e-001 8.13775003e-001 8.10360014e-001
      8.09247017e-001 1.46267995e-001 1.28997996e-001 1.62414998e-001
      2.48822004e-001 2.48822004e-001 2.48822004e-001 2.48822004e-001
      1.78277001e-001 9.97088030e-002 1.18248001e-001 1.31036997e-001
      1.17417999e-001 1.31763995e-001 2.04301000e-001 1.50002003e-001
      1.38537005e-001 7.17711002e-002 6.15643002e-002 1.49283007e-001
      1.15635999e-001 1.51061997e-001 2.48822004e-001 2.48822004e-001
      2.40628004e-001 2.41293997e-001 1.99665993e-001 1.40141994e-001
      7.45107979e-002 8.78674015e-002 1.36531994e-001 2.08997995e-001
      1.79711998e-001 9.11844000e-002 7.80894011e-002 6.34647980e-002
      6.91922978e-002 2.50000000e+000 1.79244995e-001 8.89831007e-001 0.
      0. 0. 0. 0. 0. 0. 0. 0. 0. 0. 0. 0. 0. 0. 0. 0. 4.93420996e-002 0.
      1.64474000e-003 6.57895021e-003 0. 0. 0. 4.93420986e-003
      1.00328997e-001 4.93420986e-003 4.60526012e-002 5.42762987e-002
      3.78288999e-002 9.86841973e-003 4.44079004e-002 6.39801025e-001
      1.62963003e-001 5.00000007e-002 7.40741007e-003 4.81481999e-002
      3.70369991e-003 1.85184996e-003 1.85184996e-003 1.18518002e-001
      1.24073997e-001 2.03703996e-002 4.25926000e-002 5.18518984e-002
      4.81481999e-002 1.66666992e-002 2.03703996e-002 2.81482011e-001
      1.15385003e-001 1.83149998e-003 0. 5.49450982e-003 0.
      1.83149998e-003 0. 4.76190001e-002 3.26007009e-001 1.28204999e-002
      4.02930006e-002 4.57874984e-002 2.93039996e-002 7.32601015e-003
      1.46519998e-002 3.51648003e-001 5.83267987e-001 1.84518993e-001
      1.61063001e-001 4.53478992e-002 2.26739999e-002 3.12744011e-003</_>
    <_>
      1.36806995e-001 9.99073982e-001 9.97305989e-001 9.94674981e-001
      9.91308987e-001 9.87429976e-001 9.83559012e-001 9.79503989e-001
      9.75697994e-001 9.72144008e-001 9.68861997e-001 9.66063976e-001
      9.63837981e-001 9.62028027e-001 9.60716009e-001 9.60069001e-001
      9.59837973e-001 9.59832013e-001 9.59960997e-001 9.60183024e-001
      9.60219979e-001 9.05952975e-003 2.67709997e-002 4.58255000e-002
      1.15518004e-001 2.79738992e-001 2.79738992e-001 1.55968994e-001
      1.92428995e-002 1.04742004e-002 1.43451998e-002 8.67241994e-002
      1.94297999e-001 2.79738992e-001 2.79738992e-001 1.88020006e-001
      4.65001017e-002 9.09464993e-003 7.61040021e-003 5.54590002e-002
      9.06096995e-002 7.75403976e-002 1.58479005e-001 2.79738992e-001
      2.79738992e-001 1.94931000e-001 1.17813997e-001 4.95723002e-002
      5.72815016e-002 1.54900998e-001 2.41978005e-001 2.79738992e-001
      2.79738992e-001 2.21075997e-001 9.05292034e-002 7.75704011e-002
      3.64190005e-002 5.59999990e+000 3.94558012e-001 8.95705998e-001 0.
      0. 0. 0. 0. 0. 0. 0. 0. 0. 0. 0. 0. 0. 0. 0. 0. 4.65587005e-002
      1.11336000e-002 3.03643988e-003 1.67004000e-002 0. 0.
      1.01214997e-003 2.32794005e-002 4.70647998e-002 1.26518002e-002
      1.56883001e-002 5.36438003e-002 2.37853993e-002 1.56883001e-002
      7.18623996e-002 6.57886028e-001 1.43169001e-001 6.03197999e-002
      2.18023011e-003 8.57558027e-002 0. 7.26744009e-004 1.45349000e-003
      1.30814001e-001 3.56105007e-002 3.05233002e-002 1.23546999e-002
      7.48547018e-002 7.26744020e-003 9.44766961e-003 1.16279004e-002
      3.93893003e-001 9.72971022e-002 2.11711992e-002 2.70269997e-003
      1.62161998e-002 9.00900981e-004 4.50449996e-004 9.00900981e-004
      7.07207024e-002 1.02701999e-001 3.19820009e-002 2.38738991e-002
      4.18918990e-002 1.53152999e-002 9.00901016e-003 1.48649001e-002
      5.50002992e-001 5.76177001e-001 2.35044003e-001 1.25232995e-001
      4.70619984e-002 1.40920002e-002 2.39298004e-003</_>
    <_>
      1.64996997e-001 9.98564005e-001 9.95020986e-001 9.89482999e-001
      9.82089996e-001 9.73133028e-001 9.62956011e-001 9.52028990e-001
      9.40293014e-001 9.28180993e-001 9.16050971e-001 9.04196978e-001
      8.92870009e-001 8.82454991e-001 8.73095989e-001 8.65033984e-001
      8.58321011e-001 8.53084028e-001 8.49312007e-001 8.46971989e-001
      8.46276999e-001 2.33416006e-001 1.78358003e-001 9.19321030e-002
      1.10175997e-001 1.55202001e-001 1.20922998e-001 5.94143011e-002
      7.28268027e-002 1.97816998e-001 2.33416006e-001 2.33416006e-001
      2.27596998e-001 2.19840005e-001 1.29626006e-001 6.69735000e-002
      4.56955992e-002 6.13438003e-002 2.32382998e-001 2.33416006e-001
      2.33416006e-001 2.33416006e-001 1.70784995e-001 1.11876003e-001
      9.48155001e-002 8.52549002e-002 1.11760996e-001 1.59168005e-001
      2.33416006e-001 2.26132005e-001 2.33416006e-001 2.33416006e-001
      1.10094003e-001 4.06449996e-002 4.19737995e-002 6.57076016e-002
      1.42178997e-001 2.28571010e+000 2.93233007e-001 8.85905981e-001
      2.15633011e+000 9.12697017e-002 4.42176983e-002 7.36961002e-003
      4.93196994e-002 0. 1.13379001e-003 1.13379001e-003 7.36960992e-002
      7.99318999e-002 1.75736994e-002 2.66440008e-002 3.79819013e-002
      2.49432996e-002 1.07709998e-002 5.27211018e-002 4.81296003e-001
      4.84693982e-002 1.27550997e-002 3.82652995e-003 1.40306000e-002 0.
      0. 0. 3.38010006e-002 6.50509968e-002 1.27550997e-002
      2.67856997e-002 4.33673002e-002 4.46427986e-002 8.29081982e-003
      7.84438029e-002 6.07788980e-001 1.10784002e-001 6.86274990e-002
      1.07843000e-002 6.76470995e-002 0. 1.96078001e-003 1.96078001e-003
      7.84313977e-002 6.76470995e-002 1.56862997e-002 3.62745002e-002
      4.21569012e-002 2.94118002e-002 1.17646996e-002 6.86274990e-002
      3.88237000e-001 1.26793995e-001 1.99362002e-002 4.78469022e-003
      2.47208998e-002 0. 0. 2.39233999e-003 8.93142000e-002
      1.77034006e-001 2.55183000e-002 2.79107001e-002 3.90749983e-002
      5.66187985e-002 9.56938043e-003 3.58851999e-002 3.60446990e-001
      7.37598002e-001 2.17161000e-001 2.80811004e-002 1.15444995e-002
      4.99220006e-003 6.24025008e-004</_>
    <_>
      1.75567001e-001 9.97461975e-001 9.92852986e-001 9.85378981e-001
      9.76696014e-001 9.65788007e-001 9.54083979e-001 9.40889001e-001
      9.27407980e-001 9.12971973e-001 8.98841023e-001 8.84274006e-001
      8.70010018e-001 8.56097996e-001 8.43613029e-001 8.31687987e-001
      8.21991980e-001 8.13759029e-001 8.08818996e-001 8.05381000e-001
      8.04741025e-001 2.24907994e-001 1.44151002e-001 1.35438994e-001
      2.24907994e-001 2.24907994e-001 1.78903997e-001 2.24907994e-001
      2.24907994e-001 2.24907994e-001 9.55130011e-002 1.33863002e-001
      2.24907994e-001 2.24907994e-001 2.24907994e-001 1.32363006e-001
      1.30137995e-001 8.82143006e-002 7.32648969e-002 1.98618993e-001
      2.24647999e-001 1.25753000e-001 1.94105998e-001 2.13018000e-001
      1.20489001e-001 1.13228999e-001 1.13167003e-001 1.73392996e-001
      8.33865032e-002 1.66549996e-001 1.86747000e-001 2.19484001e-001
      1.13145001e-001 5.32899983e-002 5.02838008e-002 1.85957998e-002
      3.83946002e-002 2.20000005e+000 2.11008996e-001 8.85245979e-001 0.
      0. 0. 0. 0. 0. 0. 0. 0. 0. 0. 0. 0. 0. 0. 0. 0. 5.87499999e-002
      9.99999978e-003 0. 4.99999989e-003 0. 0. 0. 1.37499999e-002
      1.11249998e-001 3.75000015e-002 2.50000004e-002 5.99999987e-002
      5.00000007e-002 9.99999978e-003 4.50000018e-002 5.73750973e-001
      1.74999997e-001 8.39286000e-002 1.25000002e-002 6.42857030e-002 0.
      0. 0. 9.64286029e-002 6.42857030e-002 1.96429007e-002
      2.50000004e-002 6.25000000e-002 2.50000004e-002 7.14285998e-003
      3.39285992e-002 3.30356985e-001 1.29629999e-001 3.56125012e-002
      4.27349983e-003 3.98860015e-002 1.42450002e-003 0. 1.42450002e-003
      6.55270964e-002 1.70939997e-001 1.42449997e-002 3.70370001e-002
      4.13105004e-002 2.70655006e-002 8.54700990e-003 3.13390009e-002
      3.91737014e-001 6.50927007e-001 2.37212002e-001 4.49691005e-002
      2.75436006e-002 3.03540993e-002 8.99382029e-003</_>
    <_>
      1.21578000e-001 9.98112977e-001 9.93934989e-001 9.87213016e-001
      9.78936017e-001 9.69286025e-001 9.58711028e-001 9.47207987e-001
      9.35164988e-001 9.22734022e-001 9.10524011e-001 8.98985028e-001
      8.88395011e-001 8.79010975e-001 8.70829999e-001 8.64075005e-001
      8.58488023e-001 8.54414999e-001 8.51468027e-001 8.49825978e-001
      8.49412024e-001 3.15577984e-002 5.35978004e-002 7.06541017e-002
      1.46698996e-001 2.50676990e-001 2.50676990e-001 1.53776005e-001
      6.57185018e-002 2.91434005e-002 5.40550016e-002 2.21836001e-001
      2.50676990e-001 2.50676990e-001 2.50676990e-001 2.50676990e-001
      1.54697001e-001 1.11647002e-001 5.05453981e-002 7.88234025e-002
      7.28608966e-002 7.07188025e-002 1.33108005e-001 2.50676990e-001
      2.50676990e-001 1.29877999e-001 8.22966024e-002 5.63561991e-002
      1.07032001e-001 1.81402996e-001 1.80314004e-001 2.50676990e-001
      2.50676990e-001 2.19907001e-001 1.37252003e-001 8.75701010e-002
      7.76270032e-002 3.20000005e+000 2.91339010e-001 8.87323976e-001 0.
      0. 0. 0. 0. 0. 0. 0. 0. 0. 0. 0. 0. 0. 0. 0. 0. 7.00483993e-002
      3.22061009e-003 5.63606992e-003 1.69082005e-002 0. 0.
      1.61031005e-003 2.97906008e-002 9.66185033e-002 1.36876004e-002
      3.38164009e-002 4.34782989e-002 4.50886004e-002 1.44928005e-002
      5.79711013e-002 5.67628026e-001 1.69312000e-001 5.02645001e-002
      5.29100979e-003 6.21692985e-002 0. 0. 1.32275000e-003
      1.40211999e-001 7.53967986e-002 4.10052985e-002 1.98413003e-002
      6.34920001e-002 1.85185000e-002 1.05820000e-002 1.05820000e-002
      3.32010001e-001 1.34867996e-001 9.86841973e-003 0. 1.06907999e-002
      1.64474000e-003 0. 8.22368020e-004 7.40130991e-002 1.21710002e-001
      3.53619009e-002 1.56250000e-002 6.00329004e-002 1.56250000e-002
      6.57895021e-003 1.64474007e-002 4.96708989e-001 4.86014992e-001
      2.13620007e-001 1.90514997e-001 8.43129009e-002 1.90514997e-002
      6.48560980e-003</_>
    <_>
      2.93761007e-002 9.87802982e-001 9.77496028e-001 9.62390006e-001
      9.48020995e-001 9.31038976e-001 9.15449977e-001 9.03340995e-001
      8.90658975e-001 8.80966008e-001 8.68112028e-001 8.57020020e-001
      8.45435977e-001 8.37351978e-001 8.29980016e-001 8.23293984e-001
      8.22421014e-001 8.19395006e-001 8.20550978e-001 8.19728017e-001
      8.23348999e-001 1.12424999e-001 1.08585998e-001 6.70114011e-002
      5.80434017e-002 2.62311012e-001 2.62311012e-001 1.31188005e-001
      1.44437999e-001 1.61918998e-001 2.62311012e-001 2.62311012e-001
      2.37498000e-001 2.56965011e-001 2.62311012e-001 2.27970004e-001
      2.02858999e-001 2.62311012e-001 2.62311012e-001 2.70636994e-002
      3.95187996e-002 6.94734976e-002 8.92084017e-002 2.62311012e-001
      1.82506993e-001 5.16728014e-002 3.49747017e-002 3.03118005e-002
      5.50489984e-002 7.19750002e-002 1.15120001e-001 1.00403003e-001
      1.76969007e-001 8.71571004e-002 6.74754009e-002 5.63637987e-002
      5.82520999e-002 2.87500000e+000 2.13591993e-001 8.86956990e-001 0.
      0. 0. 0. 0. 0. 0. 0. 0. 0. 0. 0. 0. 0. 0. 0. 0. 1.89815000e-001
      1.38889002e-002 2.31480994e-003 1.85185000e-002 2.31480994e-003
      4.62963013e-003 4.62963013e-003 1.08796000e-001 1.82870001e-001
      6.94443984e-003 3.24073993e-002 6.94444031e-002 2.08333004e-002
      9.25926026e-003 3.00926007e-002 3.03241014e-001 1.29629999e-001
      5.55556007e-002 0. 1.20370001e-001 0. 0. 0. 8.33332986e-002
      5.55556007e-002 9.25926026e-003 1.01852000e-001 1.38889000e-001
      1.85185000e-002 9.25926026e-003 2.77778003e-002 2.50000000e-001
      1.42307997e-001 1.92307995e-003 5.76922996e-003 5.76922996e-003
      1.92307995e-003 0. 1.92307995e-003 1.07692003e-001 2.73077011e-001
      1.73077006e-002 5.76923005e-002 5.19230999e-002 4.61537987e-002
      1.92307997e-002 1.53845996e-002 2.51924008e-001 4.30527002e-001
      1.95071995e-001 1.80698007e-001 1.43052995e-001 4.44900990e-002
      6.16016006e-003</_>
    <_>
      1.58028007e-001 9.98642981e-001 9.94961977e-001 9.89144027e-001
      9.81433988e-001 9.72168028e-001 9.61664975e-001 9.50227022e-001
      9.38121974e-001 9.25602973e-001 9.13043976e-001 9.00752008e-001
      8.88970017e-001 8.78050983e-001 8.68158996e-001 8.59502017e-001
      8.52247000e-001 8.46585989e-001 8.42522025e-001 8.40080976e-001
      8.39267015e-001 2.21398994e-001 1.00353003e-001 6.98634982e-002
      1.29798993e-001 1.54341996e-001 1.52208999e-001 9.17795971e-002
      8.30895007e-002 1.63631007e-001 2.21398994e-001 1.37940004e-001
      2.06267998e-001 2.21398994e-001 1.51478007e-001 5.64928018e-002
      4.58241999e-002 9.80139002e-002 2.08375007e-001 1.89346001e-001
      2.03659996e-001 1.99166998e-001 1.38736993e-001 1.78808004e-001
      2.21398994e-001 2.21398994e-001 1.34148002e-001 1.47846997e-001
      2.16153994e-001 1.73323005e-001 2.21398994e-001 2.21398994e-001
      1.82293996e-001 1.11270003e-001 1.07364997e-001 1.29089996e-001
      1.79717004e-001 2. 2.63999999e-001 8.76761019e-001 0. 0. 0. 0. 0.
      0. 0. 0. 0. 0. 0. 0. 0. 0. 0. 0. 0. 3.67145017e-002
      2.56147003e-003 2.39070994e-003 1.26366001e-002 0. 0.
      1.02458999e-003 2.62979008e-002 6.88181967e-002 9.73360986e-003
      1.22950999e-002 3.63730006e-002 5.31078018e-002 6.48907013e-003
      8.81149024e-002 6.43450022e-001 1.11709997e-001 5.39084002e-002
      4.49236017e-003 7.24767968e-002 0. 8.98473023e-004 4.49236017e-003
      1.20695002e-001 7.27763027e-002 2.18627993e-002 1.79695003e-002
      3.29440013e-002 3.74363996e-002 9.58370976e-003 5.98982014e-002
      3.78850013e-001 1.15346998e-001 2.41934992e-002 5.86509984e-003
      3.47018018e-002 2.19941000e-003 2.44379014e-004 2.68816995e-003
      1.06549002e-001 1.72042996e-001 2.44379006e-002 1.73509009e-002
      2.88366992e-002 4.59433012e-002 1.34408996e-002 4.37439010e-002
      3.62414002e-001 4.96013999e-001 3.26196015e-001 1.07712001e-001
      4.87578996e-002 1.97442006e-002 1.57582003e-003</_>
    <_>
      1.81408003e-001 9.97708023e-001 9.94542003e-001 9.89521980e-001
      9.83521998e-001 9.76786971e-001 9.70076978e-001 9.62607026e-001
      9.55416977e-001 9.47806001e-001 9.39688981e-001 9.32883024e-001
      9.26020026e-001 9.19758976e-001 9.14205015e-001 9.09741998e-001
      9.05571997e-001 9.02536988e-001 8.99682999e-001 8.98227990e-001
      8.97715986e-001 1.28444999e-001 1.72612995e-001 2.61891991e-001
      2.61891991e-001 2.61891991e-001 2.18421996e-001 1.49462000e-001
      1.37382999e-001 1.66418999e-001 5.01029007e-002 1.41672000e-001
      2.61891991e-001 2.61891991e-001 2.29671001e-001 7.49116018e-002
      4.06562984e-002 3.95479016e-002 3.77653986e-002 5.36617003e-002
      2.19932005e-001 2.61891991e-001 2.61891991e-001 1.74495995e-001
      5.80581985e-002 4.86995988e-002 6.13153987e-002 6.85776025e-002
      2.42072996e-002 1.57670006e-001 2.61891991e-001 2.61891991e-001
      9.60908979e-002 1.85348000e-002 1.25826998e-002 1.47566004e-002
      1.72431003e-002 1.76923001e+000 3.04877996e-001 8.90110016e-001 0.
      0. 0. 0. 0. 0. 0. 0. 0. 0. 0. 0. 0. 0. 0. 0. 0. 4.88505997e-002
      7.18390988e-003 2.87355995e-003 2.72988006e-002 0. 0.
      1.43677997e-003 3.16091999e-002 7.47127011e-002 1.58046000e-002
      3.87930982e-002 4.45402004e-002 6.89655021e-002 2.87355995e-003
      1.06321998e-001 5.28734028e-001 1.88406006e-001 1.20082997e-001
      4.14079009e-003 3.93375009e-002 0. 0. 0. 6.21117987e-002
      7.03933984e-002 2.69150995e-002 4.34782989e-002 5.79710007e-002
      3.10558993e-002 1.03519997e-002 3.72671001e-002 3.08488995e-001
      1.72000006e-001 5.20000011e-002 8.00000038e-003 7.59999976e-002 0.
      0. 2.00000009e-003 8.39999989e-002 9.99998972e-002 1.20000001e-002
      1.99999996e-002 7.19999969e-002 3.99999991e-002 1.60000008e-002
      5.00000007e-002 2.96000004e-001 6.63093984e-001 2.00268000e-001
      6.02812991e-002 3.41593996e-002 3.34895998e-002 8.70729983e-003</_>
    <_>
      1.81003004e-001 9.97139990e-001 9.91571009e-001 9.81700003e-001
      9.68490005e-001 9.52566981e-001 9.33296978e-001 9.12330985e-001
      8.89299989e-001 8.65368009e-001 8.40875030e-001 8.16322029e-001
      7.92245984e-001 7.69254982e-001 7.48306990e-001 7.29106009e-001
      7.13375986e-001 7.00370014e-001 6.90681994e-001 6.85307026e-001
      6.82657003e-001 5.28116003e-002 3.61961015e-002 7.89116025e-002
      1.48583993e-001 2.22003996e-001 2.22003996e-001 8.53922963e-002
      9.30380002e-002 8.95126015e-002 7.95151964e-002 4.49917987e-002
      6.39908016e-002 9.05845016e-002 1.52493000e-001 1.13812000e-001
      8.74089003e-002 1.26687005e-001 1.18988998e-001 2.04716995e-001
      1.11250997e-001 1.79361001e-001 2.22003996e-001 2.22003996e-001
      2.22003996e-001 2.22003996e-001 2.04859003e-001 2.22003996e-001
      2.22003996e-001 1.77377000e-001 2.22003996e-001 2.01848999e-001
      2.22003996e-001 1.98725000e-001 1.52268007e-001 2.03133002e-001
      2.22003996e-001 2.09090996e+000 1.94690004e-001 8.88889015e-001 0.
      0. 0. 0. 0. 0. 0. 0. 0. 0. 0. 0. 0. 0. 0. 0. 0. 6.87830970e-002
      8.81833956e-003 0. 2.11640000e-002 0. 0. 0. 3.52733992e-002
      1.86949000e-001 1.94003005e-002 4.23280001e-002 5.29100001e-002
      6.87830970e-002 1.05820000e-002 5.82010001e-002 4.26808000e-001
      1.35775998e-001 4.52586003e-002 0. 2.80172005e-002 0. 0. 0.
      9.91379023e-002 1.76724002e-001 6.46551978e-003 4.74137999e-002
      5.17240986e-002 5.81897013e-002 0. 2.80172005e-002 3.23276013e-001
      1.14661999e-001 1.87970009e-002 0. 2.25563999e-002 0. 0. 0.
      1.12782001e-001 1.71051994e-001 1.50376000e-002 2.63158008e-002
      6.95488974e-002 9.39850044e-003 5.63909998e-003 2.06767004e-002
      4.13533002e-001 7.35836983e-001 2.12603003e-001 2.60979999e-002
      1.08211003e-002 1.14577003e-002 3.18268989e-003</_>
    <_>
      2.69734003e-002 9.97538984e-001 9.93457019e-001 9.88075018e-001
      9.80490983e-001 9.71819997e-001 9.62486982e-001 9.52386975e-001
      9.41565990e-001 9.30051029e-001 9.17403996e-001 9.04178023e-001
      8.91080976e-001 8.78646016e-001 8.67177010e-001 8.56908977e-001
      8.49125981e-001 8.43502998e-001 8.39034975e-001 8.36701989e-001
      8.36546004e-001 1.06573999e-002 7.91687984e-003 2.94886006e-004
      8.98325015e-006 4.90319990e-002 2.87198007e-001 2.87198007e-001
      2.23050997e-001 2.99768001e-002 1.97868004e-001 2.49314994e-001
      8.93108025e-002 3.66920009e-002 2.21124999e-002 2.83587009e-001
      2.87198007e-001 2.14064002e-001 1.41386002e-001 1.77648999e-002
      1.33333998e-002 7.44529022e-003 1.10439002e-003 4.48056012e-002
      2.33704001e-001 2.87198007e-001 1.77515000e-001 4.36123982e-002
      1.61066994e-001 1.38633996e-001 6.90331012e-002 1.02335997e-002
      8.53511970e-003 1.01870000e-001 2.87198007e-001 2.87198007e-001
      2.01435000e-001 1.70833004e+000 2.32557997e-001 8.90625000e-001
      8.49965000e+000 7.87981004e-002 1.19048003e-002 1.13379001e-003
      1.75736994e-002 1.13379001e-003 0. 3.96825001e-003 4.87527996e-002
      8.61677006e-002 1.53061002e-002 2.66440008e-002 3.68481018e-002
      4.36507985e-002 1.41722998e-002 7.82312006e-002 5.35718977e-001
      1.53932005e-001 3.15615013e-002 4.98339022e-003 2.87928991e-002
      1.66112999e-003 1.10741996e-003 4.42967983e-003 3.76522988e-002
      8.80398974e-002 2.87928991e-002 2.65781004e-002 4.15281989e-002
      3.10078003e-002 1.49502000e-002 3.04540992e-002 4.74525005e-001
      1.36719003e-001 1.56250000e-001 0. 4.41406012e-001 0. 0. 0.
      6.25000000e-002 0. 0. 1.56250000e-002 1.32813007e-001 0. 0. 0.
      5.46875000e-002 3.49205993e-002 1.58729998e-003 5.29101002e-004
      2.64550000e-003 5.29101002e-004 0. 1.58729998e-003 1.17990002e-001
      1.57142997e-001 6.87830988e-003 2.32804008e-002 2.80422997e-002
      2.69840993e-002 4.76191007e-003 2.11640000e-002 5.71963012e-001
      3.76295000e-001 2.47156993e-001 1.48597002e-001 1.01338997e-001
      9.55268964e-002 3.10842004e-002</_>
    <_>
      1.51208997e-001 9.97649014e-001 9.91743982e-001 9.82191026e-001
      9.68886971e-001 9.52717006e-001 9.33852017e-001 9.12680984e-001
      8.89872015e-001 8.66032004e-001 8.41609001e-001 8.17323029e-001
      7.93780029e-001 7.71372974e-001 7.50653982e-001 7.32241988e-001
      7.16560006e-001 7.03822970e-001 6.94626987e-001 6.89108014e-001
      6.87111020e-001 4.09982987e-002 9.54156965e-002 1.21363997e-001
      1.25738993e-001 2.21318007e-001 1.37172997e-001 7.29691014e-002
      4.61123995e-002 4.65920009e-002 4.72116992e-002 6.38941005e-002
      7.75604025e-002 1.88837007e-001 2.21493006e-001 1.77333996e-001
      9.63637978e-002 6.86770976e-002 5.73098995e-002 1.26875997e-001
      2.21493006e-001 2.04799995e-001 1.71267003e-001 2.21493006e-001
      2.21493006e-001 1.87693000e-001 1.66569993e-001 2.21493006e-001
      1.88415006e-001 2.13751003e-001 1.40347004e-001 2.21493006e-001
      2.21493006e-001 2.21493006e-001 2.21493006e-001 2.01240003e-001
      2.21493006e-001 1.90909004e+000 1.93547994e-001 8.72340024e-001 0.
      0. 0. 0. 0. 0. 0. 0. 0. 0. 0. 0. 0. 0. 0. 0. 0. 5.87120987e-002
      4.73485002e-003 9.46970016e-004 1.89394001e-002 9.46970016e-004
      9.46970016e-004 4.73485002e-003 5.20832986e-002 5.49242012e-002
      5.68182021e-003 2.27272995e-002 4.82954010e-002 5.87120987e-002
      6.62878994e-003 9.56439003e-002 5.65342009e-001 1.29032001e-001
      3.22581008e-002 1.89753005e-003 6.26185983e-002 0. 0.
      1.89753005e-003 1.10056996e-001 2.04933003e-001 5.69259981e-003
      4.55407985e-002 4.55407985e-002 1.13851996e-002 5.69259981e-003
      2.08729003e-002 3.22580993e-001 1.26388997e-001 1.94444004e-002
      1.38888997e-003 1.80555992e-002 0. 0. 1.38888997e-003
      1.23611003e-001 2.52777994e-001 1.94444004e-002 3.61111015e-002
      3.88889015e-002 1.94444004e-002 5.55555988e-003 1.25000002e-002
      3.24999988e-001 6.71687007e-001 2.66781002e-001 2.58175991e-002
      1.50602004e-002 1.50602004e-002 5.59379999e-003</_>
    <_>
      1.80425003e-001 9.97977018e-001 9.92565989e-001 9.84036028e-001
      9.72828984e-001 9.59212005e-001 9.43468988e-001 9.26133990e-001
      9.07651007e-001 8.88498008e-001 8.68987978e-001 8.49560022e-001
      8.30722988e-001 8.13042998e-001 7.96806991e-001 7.82478988e-001
      7.70217001e-001 7.60419011e-001 7.53498971e-001 7.49400020e-001
      7.48129010e-001 1.95674002e-001 1.21298000e-001 1.55524001e-001
      1.57167003e-001 2.04990998e-001 2.10670993e-001 1.86278000e-001
      1.68541998e-001 1.63525999e-001 1.68128997e-001 1.32869005e-001
      1.21215001e-001 1.74881995e-001 1.60585001e-001 1.20765001e-001
      8.40791985e-002 1.54587999e-001 1.50929004e-001 2.09516004e-001
      1.54174998e-001 2.03517005e-001 8.56107026e-002 1.68156996e-001
      2.10670993e-001 2.10670993e-001 1.99937001e-001 2.08378002e-001
      1.80332005e-001 1.50833994e-001 1.66426003e-001 1.29097998e-001
      1.41084999e-001 1.31455004e-001 1.17011003e-001 1.82587996e-001
      1.83668002e-001 2.18181992e+000 1.72757000e-001 8.79764974e-001
      1.15671003e+000 8.80177021e-002 3.25444005e-002 5.17752022e-003
      5.47336005e-002 1.47928996e-003 1.10947003e-003 4.06805007e-003
      1.16123997e-001 6.76774010e-002 1.33135999e-002 1.22041004e-002
      4.28994000e-002 6.32394999e-002 1.18343001e-002 6.24998994e-002
      4.23072994e-001 2.07215995e-002 2.77520996e-003 0. 5.92043996e-003
      3.70027992e-004 0. 9.25068976e-004 1.96115002e-002 4.77335006e-002
      7.58557022e-003 1.68363005e-002 1.97965000e-002 4.56984006e-002
      4.07030992e-003 5.55040985e-002 7.52447009e-001 1.06209002e-001
      3.66013013e-002 4.90196003e-003 5.84966987e-002 1.96078001e-003
      9.80391982e-004 4.57515987e-003 1.36274993e-001 9.31373015e-002
      1.43790999e-002 1.43790999e-002 3.88889015e-002 6.99345991e-002
      1.14379004e-002 6.24183007e-002 3.45429003e-001 9.08638984e-002
      2.14814991e-002 3.95062007e-003 2.04937998e-002 2.22221995e-003
      2.46913987e-004 2.96295993e-003 7.72837028e-002 1.67900994e-001
      1.80246998e-002 1.82716008e-002 3.18518989e-002 7.48146027e-002
      1.11111002e-002 5.65431006e-002 4.01973009e-001 6.16661012e-001
      2.78149992e-001 7.58913010e-002 1.90610997e-002 6.94199000e-003
      3.29451007e-003</_>
    <_>
      1.92578003e-001 9.98673975e-001 9.95410025e-001 9.90400016e-001
      9.83879983e-001 9.76231992e-001 9.67526972e-001 9.58180010e-001
      9.48478997e-001 9.38746989e-001 9.29192007e-001 9.20186996e-001
      9.12043989e-001 9.04694021e-001 8.98274004e-001 8.92633975e-001
      8.87995005e-001 8.84418011e-001 8.81748974e-001 8.80115986e-001
      8.79540980e-001 1.93217006e-002 1.38422996e-002 1.62847005e-002
      2.63343994e-002 2.82164991e-001 2.82164991e-001 7.94192031e-002
      1.69811994e-002 1.35366004e-002 7.72150978e-002 6.60533011e-002
      9.80444029e-002 2.82164991e-001 2.82164991e-001 1.15218997e-001
      2.72856001e-002 1.49555998e-002 6.13383017e-002 7.09379017e-002
      6.15248010e-002 1.34369001e-001 8.47631991e-002 2.56801009e-001
      2.82164991e-001 2.82164991e-001 1.10104002e-001 4.14093994e-002
      1.45225003e-001 1.60315007e-001 2.82164991e-001 2.82164991e-001
      2.82164991e-001 1.77300006e-001 1.57444999e-001 8.78451988e-002
      9.90253985e-002 3.50000000e+000 2.56098002e-001 8.94160986e-001 0.
      0. 0. 0. 0. 0. 0. 0. 0. 0. 0. 0. 0. 0. 0. 0. 0. 3.27715017e-002
      3.51124001e-003 2.34081992e-003 1.17041003e-002 4.68165003e-004 0.
      1.87266001e-003 2.13015005e-002 5.71160987e-002 7.49064004e-003
      1.73221007e-002 2.59831008e-002 3.74532007e-002 5.14981011e-003
      5.82864992e-002 7.17230022e-001 8.14654008e-002 2.87041999e-002
      3.55385011e-003 4.40131016e-002 5.46747004e-004 0. 1.09349005e-003
      1.27119005e-001 5.13941012e-002 2.73372997e-002 1.80425998e-002
      3.96391004e-002 1.17551005e-002 7.65446015e-003 1.99561995e-002
      5.37726998e-001 5.77551983e-002 5.29634021e-003 1.76545000e-003
      8.82724021e-003 2.52207014e-004 5.04414027e-004 5.04414027e-004
      4.06051986e-002 1.07188001e-001 1.74023006e-002 1.66455992e-002
      2.74905004e-002 2.26985998e-002 6.55737985e-003 1.96720995e-002
      6.66830003e-001 5.35102010e-001 2.78544009e-001 1.16907001e-001
      4.67020012e-002 1.98634993e-002 2.88097002e-003</_>
    <_>
      1.57839000e-001 9.98507023e-001 9.94262993e-001 9.87493992e-001
      9.78384972e-001 9.67168987e-001 9.54204023e-001 9.39783990e-001
      9.24297988e-001 9.08137023e-001 8.91700983e-001 8.75347018e-001
      8.59453022e-001 8.44368994e-001 8.30496013e-001 8.18193018e-001
      8.07726979e-001 7.99278975e-001 7.93098986e-001 7.89299011e-001
      7.88022995e-001 9.20758992e-002 9.12759975e-002 1.01342000e-001
      1.99086994e-001 2.72125006e-001 2.22342998e-001 1.50232002e-001
      1.27829999e-001 1.05797999e-001 1.23214005e-002 6.61924994e-003
      4.39735986e-002 2.72125006e-001 2.09035993e-001 5.21536991e-002
      2.17777006e-002 1.13741998e-002 1.56587008e-002 1.28637001e-001
      8.15837979e-002 1.03872001e-001 2.13653997e-001 2.72125006e-001
      2.72125006e-001 2.72125006e-001 2.72125006e-001 2.10527003e-001
      4.85324003e-002 1.33322001e-001 2.72125006e-001 2.72125006e-001
      1.72747999e-001 4.47859988e-002 7.91682005e-002 6.61005005e-002
      5.13581000e-002 4.38462019e+000 1.53034002e-001 8.97862017e-001 0.
      0. 0. 0. 0. 0. 0. 0. 0. 0. 0. 0. 0. 0. 0. 0. 0. 4.57316004e-002
      1.36297997e-002 1.25537999e-003 1.04016997e-002 0. 1.79340001e-004
      5.38019987e-004 3.65853012e-002 1.06707998e-001 2.02654004e-002
      1.48852002e-002 3.40745002e-002 3.01290993e-002 1.00429999e-002
      3.46124992e-002 6.40981019e-001 8.97504985e-002 3.90108004e-002
      3.31463991e-003 3.44212018e-002 5.09943988e-004 2.54971994e-004
      3.31463991e-003 9.33201984e-002 4.89546992e-002 8.15910008e-003
      1.83579996e-002 2.93218009e-002 1.07087996e-002 8.66905041e-003
      2.11626999e-002 5.90764999e-001 7.01754987e-002 1.07017998e-002
      2.28070002e-003 1.63157992e-002 8.77193001e-004 1.05263002e-003
      1.22807000e-003 6.59649968e-002 9.89475027e-002 7.36843003e-003
      1.61403995e-002 2.28070002e-002 1.56140001e-002 8.77194013e-003
      2.17544008e-002 6.39988005e-001 4.38845992e-001 3.12404007e-001
      1.35768995e-001 6.36537969e-002 3.58654000e-002 1.34615004e-002</_>
    <_>
      1.55515999e-001 9.98076975e-001 9.93750989e-001 9.87012982e-001
      9.77889001e-001 9.66764987e-001 9.54334974e-001 9.40769970e-001
      9.26497996e-001 9.11889970e-001 8.97400975e-001 8.83369982e-001
      8.70038986e-001 8.57737005e-001 8.46812010e-001 8.37077975e-001
      8.29062998e-001 8.22722971e-001 8.18131030e-001 8.15201998e-001
      8.14372003e-001 2.24658996e-001 1.58241004e-001 9.47533995e-002
      8.84020030e-002 1.57929003e-001 1.18979000e-001 1.25072002e-001
      1.01065002e-001 1.85802996e-001 2.33440995e-001 2.33440995e-001
      2.16326997e-001 1.69320002e-001 1.14928998e-001 7.35893026e-002
      7.41266012e-002 7.50958994e-002 2.25697994e-001 2.33440995e-001
      2.33440995e-001 2.06715003e-001 1.29170001e-001 1.30992994e-001
      9.14544016e-002 1.31734997e-001 8.95211026e-002 1.96020007e-001
      2.33440995e-001 2.33440995e-001 2.33440995e-001 2.03769997e-001
      1.15075998e-001 6.05404004e-002 7.36458972e-002 7.71258995e-002
      2.22986996e-001 1.92307997e+000 2.54097998e-001 8.76811981e-001 0.
      0. 0. 0. 0. 0. 0. 0. 0. 0. 0. 0. 0. 0. 0. 0. 0. 5.87761998e-002
      7.24638021e-003 8.05152988e-004 1.12720998e-002 0. 0.
      1.61031005e-003 3.62319015e-002 5.95813990e-002 2.09340006e-002
      3.05957999e-002 4.50886004e-002 4.26730998e-002 1.04670003e-002
      5.55556007e-002 6.19157016e-001 1.09677002e-001 7.22580031e-002
      3.87097010e-003 6.70967028e-002 2.58064992e-003 0. 2.58064992e-003
      7.99999982e-002 7.22580031e-002 2.06451993e-002 3.87097001e-002
      4.90322001e-002 2.32257992e-002 1.54839000e-002 7.48386979e-002
      3.67742002e-001 1.07527003e-001 3.44085991e-002 3.22580989e-003
      2.47312002e-002 0. 0. 3.22580989e-003 6.55914024e-002
      1.83871001e-001 3.01075000e-002 3.33333015e-002 4.73118015e-002
      4.40860018e-002 1.82796009e-002 3.97849008e-002 3.64515990e-001
      6.81038022e-001 2.48569995e-001 4.31148000e-002 1.67180002e-002
      6.15925994e-003 4.39947005e-003</_>
    <_>
      9.50883031e-002 9.97223973e-001 9.90204990e-001 9.79619026e-001
      9.65502977e-001 9.48647022e-001 9.29588020e-001 9.08101022e-001
      8.85151982e-001 8.61090004e-001 8.36165011e-001 8.11254978e-001
      7.87047029e-001 7.63727009e-001 7.42157996e-001 7.22980976e-001
      7.06909001e-001 6.94364011e-001 6.85495019e-001 6.80226028e-001
      6.78529024e-001 1.21919997e-001 2.27096006e-001 1.53547004e-001
      1.75128996e-001 2.27096006e-001 2.27096006e-001 2.27096006e-001
      2.27096006e-001 2.27096006e-001 1.28419995e-001 1.95781007e-001
      2.12108999e-001 1.69841006e-001 1.64747000e-001 1.65166005e-001
      2.27096006e-001 1.89505994e-001 2.27096006e-001 9.48107988e-002
      1.11289002e-001 9.67221037e-002 1.04372002e-001 1.34133995e-001
      1.48960993e-001 1.21754996e-001 1.48141995e-001 1.23434998e-001
      9.09461975e-002 1.59067005e-001 2.27096006e-001 2.19890997e-001
      9.86555964e-002 5.42789996e-002 5.34272008e-002 7.13249967e-002
      9.54826996e-002 2.18181992e+000 1.55172005e-001 8.91753018e-001 0.
      0. 0. 0. 0. 0. 0. 0. 0. 0. 0. 0. 0. 0. 0. 0. 0. 4.76191007e-002
      4.14079009e-003 1.38025999e-003 1.24223996e-002 0. 6.90130983e-004
      6.90130983e-004 2.13941000e-002 5.93512990e-002 1.44928005e-002
      3.24361995e-002 4.96895015e-002 3.24361995e-002 1.24223996e-002
      4.83091995e-002 6.62519991e-001 1.45161003e-001 3.76343988e-002
      3.58423009e-003 3.22581008e-002 1.79211004e-003 0. 0.
      9.31899995e-002 8.78136978e-002 1.79210994e-002 4.30107005e-002
      4.65949997e-002 3.76343988e-002 8.96057021e-003 3.94265018e-002
      4.05016989e-001 7.38712996e-002 1.57319009e-002 6.83995022e-004
      1.91519000e-002 0. 0. 0. 5.54035008e-002 1.90149993e-001
      2.12037992e-002 2.87277997e-002 4.10397016e-002 2.46238001e-002
      1.09438999e-002 2.94118002e-002 4.89055008e-001 7.36801982e-001
      2.42309004e-001 1.10141002e-002 5.31713013e-003 3.79794999e-003
      7.59590010e-004</_>
    <_>
      1.73357993e-001 9.97205973e-001 9.91575003e-001 9.83308017e-001
      9.73223984e-001 9.61194992e-001 9.47251022e-001 9.32262003e-001
      9.16163027e-001 8.99872005e-001 8.83010030e-001 8.66611004e-001
      8.50705028e-001 8.35946977e-001 8.22631001e-001 8.10616016e-001
      8.00330997e-001 7.91894972e-001 7.85799980e-001 7.82195985e-001
      7.80911028e-001 6.30650967e-002 2.78165013e-001 3.05956990e-001
      3.05956990e-001 1.17969997e-001 7.66196996e-002 4.68275994e-002
      5.50886989e-002 6.18465990e-002 3.94754000e-002 1.56962007e-001
      3.05956990e-001 3.05956990e-001 1.71704993e-001 6.21756017e-002
      5.04053012e-002 3.23030017e-002 3.83644998e-002 1.47216007e-001
      3.05956990e-001 3.05956990e-001 1.72631994e-001 6.54024035e-002
      6.32160977e-002 4.76938002e-002 5.25798984e-002 7.43231028e-002
      4.84137014e-002 1.88443005e-001 3.05956990e-001 2.37671003e-001
      3.54412012e-002 1.40079996e-002 8.50613043e-003 1.14855003e-002
      2.39524003e-002 2.57142997e+000 2.39130005e-001 8.92683029e-001 0.
      0. 0. 0. 0. 0. 0. 0. 0. 0. 0. 0. 0. 0. 0. 0. 0. 7.68254027e-002
      5.07936021e-003 2.53968011e-003 5.07936021e-003 0. 0.
      6.34921016e-004 4.44444008e-002 2.01269999e-001 8.88889004e-003
      3.17460001e-002 3.30158994e-002 4.50792983e-002 7.61904987e-003
      5.26983999e-002 4.85076010e-001 1.58384994e-001 8.88198018e-002
      2.48446991e-003 5.71428016e-002 6.21118001e-004 2.48446991e-003
      2.48446991e-003 7.26708025e-002 4.22360003e-002 1.80124007e-002
      3.10558993e-002 4.96894009e-002 9.31677036e-003 6.83230022e-003
      2.91924998e-002 4.28570986e-001 7.83068985e-002 9.52380989e-003
      5.29101002e-004 1.95767004e-002 5.29101002e-004 1.05820002e-003
      2.64550000e-003 9.31217968e-002 1.48148000e-001 1.74602997e-002
      2.48677004e-002 3.59788015e-002 1.79894008e-002 6.34921016e-003
      1.85185000e-002 5.25400996e-001 5.10380983e-001 2.88711011e-001
      1.30407006e-001 4.95241992e-002 1.90311000e-002 1.94637000e-003</_>
    <_>
      1.30606994e-001 9.97732997e-001 9.91894007e-001 9.82554018e-001
      9.70215023e-001 9.55018997e-001 9.37417984e-001 9.18268025e-001
      8.97853971e-001 8.76814008e-001 8.55363011e-001 8.34261000e-001
      8.13863993e-001 7.94492006e-001 7.76701987e-001 7.60837972e-001
      7.47443974e-001 7.36609995e-001 7.28735030e-001 7.23928988e-001
      7.22293973e-001 7.34141981e-003 5.32697979e-003 3.11657004e-002
      1.01617999e-001 3.16891998e-001 3.16891998e-001 1.06728002e-001
      2.93649994e-002 4.34789015e-003 2.02386007e-002 1.69201996e-002
      1.00207999e-001 2.27007002e-001 3.16891998e-001 3.16891998e-001
      5.06094992e-002 1.36698997e-002 5.53495018e-003 4.38771993e-002
      2.36922000e-002 4.51072007e-002 7.54877999e-002 3.16891998e-001
      3.16891998e-001 1.92028001e-001 7.61206970e-002 2.56114006e-002
      6.49361014e-002 3.85502987e-002 9.43159983e-002 1.75557002e-001
      3.16891998e-001 2.88091004e-001 1.36292994e-001 6.16381988e-002
      2.92614009e-002 1.72221994e+000 1.58416003e-001 8.97320986e-001 0.
      0. 0. 0. 0. 0. 0. 0. 0. 0. 0. 0. 0. 0. 0. 0. 0. 3.36701013e-002
      4.20875003e-004 0. 5.89226000e-003 8.41750996e-004 4.20875003e-004
      2.52524996e-003 2.48316992e-002 3.87206003e-002 1.26262999e-003
      1.51514998e-002 3.07238996e-002 3.82996984e-002 2.10437994e-003
      3.19866017e-002 7.73136973e-001 1.32381007e-001 1.52380997e-002
      3.80952004e-003 2.66667008e-002 9.52381000e-004 9.52381000e-004
      9.52381000e-004 1.40952006e-001 1.07619002e-001 1.90475993e-002
      3.33333015e-002 4.85714003e-002 1.14286002e-002 1.14286002e-002
      1.90475993e-002 4.27621007e-001 1.03635997e-001 6.06061006e-003
      3.03029991e-003 9.09090973e-003 6.06061018e-004 6.06061018e-004
      3.03029991e-003 7.03030005e-002 1.29696995e-001 1.45455003e-002
      2.90909000e-002 3.87879014e-002 2.90909000e-002 1.69696994e-002
      2.60605998e-002 5.19393981e-001 5.43986022e-001 2.61078000e-001
      1.34031996e-001 4.25671004e-002 1.65902991e-002 1.74633996e-003</_></support_vectors>
  <decision_functions>
    <_>
      <sv_count>35</sv_count>
      <rho>7.6753739920624797e-001</rho>
      <alpha>
        3.1382075641987006e+000 7.5349288909201775e+001
        8.3480900386811143e+001 5.9490666208015259e+000
        1.7663042992353439e+002 1.7663042992353439e+002
        3.0164125296142243e+000 7.3372979026990830e+000
        7.7484918548645567e+001 1.7663042992353439e+002
        5.1192372318931319e+001 1.5949806549617090e+001
        1.7663042992353439e+002 2.9648302093809686e+000
        4.6694217440839786e+001 1.6267143599704167e+002
        8.8843483435596070e+001 -5.9543301384133891e+001
        -7.6256232963760207e+000 -1.1448308713598951e+001
        -1.3586956076323986e+002 -1.9004550190613870e+001
        -2.7999696365672136e+001 -2.0353594964293766e+001
        -1.3586956076323986e+002 -1.3195909140709333e+002
        -6.6305103067146398e-001 -1.3586956076323986e+002
        -6.5746586648235066e+001 -1.3586956076323986e+002
        -3.3809019221295259e+001 -1.3586956076323986e+002
        -1.3586956076323986e+002 -5.2113166803494451e+001
        -8.5110603502599176e+001</alpha>
      <index>
        0 1 2 3 4 5 6 7 8 9 10 11 12 13 14 15 16 17 18 19 20 21 22 23 24
        25 26 27 28 29 30 31 32 33 34</index></_></decision_functions></my_svm>
</opencv_storage>
