<?xml version="1.0"?>
<opencv_storage>
<my_svm type_id="opencv-ml-svm">
  <svm_type>C_SVC</svm_type>
  <kernel><type>RBF</type>
    <gamma>3.3750000000000002e-002</gamma></kernel>
  <C>3.1250000000000000e+002</C>
  <term_criteria><epsilon>1.1920928955078125e-007</epsilon>
    <iterations>1000</iterations></term_criteria>
  <var_all>131</var_all>
  <var_count>131</var_count>
  <class_count>2</class_count>
  <class_labels type_id="opencv-matrix">
    <rows>1</rows>
    <cols>2</cols>
    <dt>i</dt>
    <data>
      -1 1</data></class_labels>
  <class_weights type_id="opencv-matrix">
    <rows>1</rows>
    <cols>2</cols>
    <dt>d</dt>
    <data>
      1.7613636329770088e+002 1.3636363670229912e+002</data></class_weights>
  <sv_total>40</sv_total>
  <support_vectors>
    <_>
      1.38999999e-001 9.97929990e-001 9.92850006e-001 9.84650016e-001
      9.73749995e-001 9.60460007e-001 9.45299983e-001 9.28560019e-001
      9.10740018e-001 8.91929984e-001 8.72919977e-001 8.53839993e-001
      8.35709989e-001 8.18390012e-001 8.02720010e-001 7.88879991e-001
      7.77000010e-001 7.67379999e-001 7.60429978e-001 7.55990028e-001
      7.54649997e-001 7.56300017e-002 6.85840026e-002 1.07579999e-001
      1.73800007e-001 2.15039998e-001 2.15039998e-001 1.85880005e-001
      1.58769995e-001 1.52569994e-001 1.49990007e-001 1.67620003e-001
      2.15039998e-001 2.15039998e-001 1.83679998e-001 1.19949996e-001
      9.96650010e-002 1.04800001e-001 1.83960006e-001 1.39780000e-001
      1.29179999e-001 1.23970002e-001 1.95510000e-001 2.15039998e-001
      2.15039998e-001 1.60349995e-001 1.60359994e-001 1.83229998e-001
      1.79319993e-001 2.15039998e-001 2.15039998e-001 1.89070001e-001
      1.72999993e-001 1.39530003e-001 1.01400003e-001 9.13299993e-002
      1.68650001e-001 2.23079991e+000 2.33329996e-001 8.88059974e-001
      2.72519994e+000 7.17590004e-002 6.94439979e-003 2.31479993e-003
      2.39199996e-002 1.54319999e-003 0. 5.40120015e-003 4.70679998e-002
      7.17590004e-002 2.77779996e-002 1.46610001e-002 6.01850003e-002
      4.62960005e-002 9.25930031e-003 6.94440007e-002 5.41670024e-001
      4.37059999e-002 2.62239994e-003 8.74129997e-004 1.13639999e-002 0.
      0. 8.74129997e-004 1.66079998e-002 5.06989993e-002 1.83569994e-002
      2.18529999e-002 7.43009970e-002 2.88459994e-002 7.86709972e-003
      4.02100012e-002 6.81819975e-001 5.33329993e-002 1.66669991e-002 0.
      1.49999997e-002 0. 0. 0. 3.50000001e-002 5.99999987e-002
      4.16669995e-002 4.33330014e-002 9.00000036e-002 6.66669989e-003
      9.99999978e-003 1.99999996e-002 6.08330011e-001 4.72539999e-002
      2.17109993e-002 0. 4.59770001e-002 0. 0. 0. 3.95909995e-002
      5.74709997e-002 2.80970000e-002 3.44830006e-002 7.15200007e-002
      2.17109993e-002 1.14940004e-002 3.57600003e-002 5.84930003e-001
      9.53029990e-001 3.41590010e-002 8.53969995e-003 2.56190007e-003
      1.70789997e-003 0.</_>
    <_>
      9.71139967e-002 9.95589972e-001 9.86069977e-001 9.72119987e-001
      9.54949975e-001 9.35299993e-001 9.14399981e-001 8.91740024e-001
      8.68200004e-001 8.44370008e-001 8.20559978e-001 7.97810018e-001
      7.76149988e-001 7.56219983e-001 7.38390028e-001 7.23420024e-001
      7.11740017e-001 7.03670025e-001 6.99109972e-001 6.96489990e-001
      6.95760012e-001 4.81909998e-002 9.20460001e-002 1.96270004e-001
      2.45879993e-001 2.45879993e-001 2.45879993e-001 1.84699997e-001
      9.82310027e-002 1.35179996e-001 5.28949983e-002 7.50980005e-002
      2.20400006e-001 2.45879993e-001 2.45879993e-001 1.39689997e-001
      7.28790015e-002 4.62949984e-002 7.21900016e-002 6.34509996e-002
      8.45199972e-002 1.60760000e-001 2.45879993e-001 2.45879993e-001
      2.45879993e-001 2.11060002e-001 9.72720012e-002 1.10090002e-001
      5.81139997e-002 9.91699994e-002 2.21609995e-001 2.45879993e-001
      2.45879993e-001 1.19999997e-001 6.66730031e-002 4.87670004e-002
      7.56060034e-002 6.71430016e+000 2.45460004e-001 8.17160010e-001 0.
      0. 0. 0. 0. 0. 0. 0. 0. 0. 0. 0. 0. 0. 0. 0. 0. 8.11339989e-002
      4.69209999e-002 9.77520016e-004 4.30109985e-002 0. 0.
      1.46629999e-003 4.98530008e-002 6.35389984e-002 1.95499999e-003
      2.24830005e-002 2.63930000e-002 4.59429994e-002 1.46629999e-003
      5.66960014e-002 5.58160007e-001 7.53249973e-002 2.64069997e-002
      1.73160003e-003 2.81390008e-002 0. 0. 2.16450007e-003
      7.96540007e-002 8.96100029e-002 3.72290015e-002 2.20780000e-002
      3.85279991e-002 3.03029995e-002 9.09090042e-003 3.33329998e-002
      5.26409984e-001 4.70370017e-002 1.74070001e-002 3.70369991e-003
      3.85180004e-002 3.70369991e-004 3.70369991e-004 1.48149999e-003
      5.11110015e-002 7.18519986e-002 2.40739994e-002 2.37039998e-002
      3.92590016e-002 5.77780008e-002 1.25930002e-002 5.48150018e-002
      5.55939972e-001 9.06669974e-001 7.47409984e-002 1.19350003e-002
      3.32619995e-003 2.73919990e-003 5.86970011e-004</_>
    <_>
      1.32070005e-001 9.96230006e-001 9.90019977e-001 9.81000006e-001
      9.69760001e-001 9.56229985e-001 9.41240013e-001 9.23850000e-001
      9.05250013e-001 8.85839999e-001 8.66819978e-001 8.47930014e-001
      8.29299986e-001 8.11789989e-001 7.95690000e-001 7.81409979e-001
      7.69070029e-001 7.59450018e-001 7.51640022e-001 7.47139990e-001
      7.46079981e-001 1.22089997e-001 8.42680037e-002 1.04869999e-001
      1.53850004e-001 1.92929998e-001 1.75459996e-001 1.42609999e-001
      1.30940005e-001 1.55410007e-001 1.49159998e-001 1.59909993e-001
      2.08309993e-001 2.28300005e-001 2.28300005e-001 1.35440007e-001
      8.06519985e-002 1.04539998e-001 1.31219998e-001 1.35409996e-001
      8.80630016e-002 1.02310002e-001 1.21849999e-001 1.94820002e-001
      2.28300005e-001 2.28300005e-001 1.80669993e-001 1.49460003e-001
      1.78849995e-001 2.28300005e-001 2.28300005e-001 2.28300005e-001
      2.28300005e-001 1.45449996e-001 1.12219997e-001 1.24660000e-001
      1.56900004e-001 1.84619999e+000 2.67859995e-001 8.74019980e-001 0.
      0. 0. 0. 0. 0. 0. 0. 0. 0. 0. 0. 0. 0. 0. 0. 0. 4.25239988e-002
      1.37169997e-003 2.74350005e-003 9.60220024e-003 0. 0. 0.
      2.46910006e-002 1.31689996e-001 1.23460004e-002 3.84089984e-002
      5.21260016e-002 1.59119993e-001 1.92040000e-002 8.50479975e-002
      4.21130002e-001 1.17859997e-001 2.67859995e-002 3.57139995e-003
      4.28569987e-002 0. 0. 5.35710016e-003 6.25000000e-002
      8.74999985e-002 3.21430005e-002 2.85710003e-002 7.50000030e-002
      2.50000004e-002 1.42860003e-002 1.07140001e-002 4.67860013e-001
      8.94000009e-002 4.59770001e-002 1.02169998e-002 4.85309996e-002
      1.27709995e-003 1.27709995e-003 2.55430001e-003 1.08560003e-001
      1.20049998e-001 1.14940004e-002 3.57600003e-002 4.59770001e-002
      5.23630008e-002 1.91569999e-002 6.00260012e-002 3.47380012e-001
      6.71220005e-001 1.83259994e-001 5.25159985e-002 4.15760018e-002
      3.66519988e-002 1.47700002e-002</_>
    <_>
      1.66270003e-001 9.97619987e-001 9.91940022e-001 9.82540011e-001
      9.69959974e-001 9.54639971e-001 9.37099993e-001 9.17500019e-001
      8.96719992e-001 8.74890029e-001 8.52800012e-001 8.30810010e-001
      8.09289992e-001 7.88919985e-001 7.69990027e-001 7.53139973e-001
      7.38820016e-001 7.26939976e-001 7.18469977e-001 7.13100016e-001
      7.11199999e-001 1.42470002e-001 1.21250004e-001 1.25589997e-001
      1.69229999e-001 2.11659998e-001 2.12950006e-001 1.88769996e-001
      1.69949993e-001 1.40849993e-001 1.77469999e-001 1.74600005e-001
      2.12950006e-001 1.98339999e-001 2.06870005e-001 1.40719995e-001
      1.19199999e-001 1.25890002e-001 1.40269995e-001 1.25220001e-001
      1.37639999e-001 1.44789994e-001 9.23030004e-002 1.78979993e-001
      2.12950006e-001 2.07749993e-001 1.82689995e-001 1.37410000e-001
      2.10140005e-001 2.12950006e-001 2.12950006e-001 2.12950006e-001
      1.56250000e-001 9.88920033e-002 7.74430037e-002 1.14299998e-001
      1.20810002e-001 2. 1.79100007e-001 8.98649991e-001 0. 0. 0. 0. 0.
      0. 0. 0. 0. 0. 0. 0. 0. 0. 0. 0. 0. 4.05270010e-002
      1.01320003e-003 1.01320003e-003 5.06589981e-003 0. 0. 0.
      1.62109993e-002 1.17530003e-001 1.82370003e-002 3.85009982e-002
      4.66060005e-002 5.97769991e-002 8.10540002e-003 3.85009982e-002
      6.08910024e-001 9.28789973e-002 2.32200008e-002 1.54800003e-003
      2.63160001e-002 0. 0. 0. 5.10840006e-002 9.90710035e-002
      5.72759993e-002 4.48919982e-002 7.12070018e-002 3.56040001e-002
      7.73990015e-003 3.25080007e-002 4.56660002e-001 1.47729993e-001
      5.30299991e-002 0. 3.15660015e-002 0. 0. 0. 8.58590007e-002
      1.79289997e-001 2.77779996e-002 3.91409993e-002 5.17680012e-002
      1.64139997e-002 6.31309999e-003 1.64139997e-002 3.44700009e-001
      6.57429993e-001 2.48950005e-001 4.55019996e-002 1.56900007e-002
      2.51049995e-002 7.32220011e-003</_>
    <_>
      2.01260000e-001 9.98139977e-001 9.93319988e-001 9.85899985e-001
      9.76379991e-001 9.65170026e-001 9.52340007e-001 9.38470006e-001
      9.23910022e-001 9.09210026e-001 8.95009995e-001 8.81489992e-001
      8.69019985e-001 8.57519984e-001 8.47019970e-001 8.37790012e-001
      8.29919994e-001 8.23849976e-001 8.19580019e-001 8.17099988e-001
      8.16389978e-001 9.92989987e-002 1.09159999e-001 1.65189996e-001
      2.57629991e-001 2.59000003e-001 1.61420003e-001 6.89229965e-002
      6.15309998e-002 8.92150030e-002 8.66819993e-002 1.26929998e-001
      2.59000003e-001 2.59000003e-001 2.57910013e-001 1.04130000e-001
      5.80409989e-002 2.47479994e-002 5.47670014e-002 1.17109999e-001
      2.59000003e-001 2.59000003e-001 2.59000003e-001 2.59000003e-001
      8.19989964e-002 5.06599993e-002 5.50480001e-002 7.75500014e-002
      1.02720000e-001 2.59000003e-001 2.59000003e-001 2.59000003e-001
      1.16789997e-001 3.90859991e-002 2.47150008e-002 2.20650006e-002
      4.23870012e-002 3.66669989e+000 2.11449996e-001 8.86280000e-001 0.
      0. 0. 0. 0. 0. 0. 0. 0. 0. 0. 0. 0. 0. 0. 0. 0. 2.99319997e-002
      3.06120003e-003 0. 8.84350017e-003 3.40139988e-004 0.
      6.80270023e-004 2.04080008e-002 8.57139975e-002 9.18370020e-003
      1.63269993e-002 3.84350009e-002 2.34689992e-002 8.16330034e-003
      3.94559987e-002 7.16000021e-001 7.73530006e-002 7.69539997e-002
      6.37960015e-003 6.89790025e-002 3.98720003e-004 0. 2.39229994e-003
      5.22329994e-002 9.96809974e-002 4.10690010e-002 2.27269996e-002
      4.90429997e-002 2.59169992e-002 1.87400002e-002 2.59169992e-002
      4.32220012e-001 1.32119998e-001 5.04829995e-002 6.44470006e-003
      5.11990003e-002 3.58040008e-004 0. 7.16080016e-004 9.91759971e-002
      1.26029998e-001 3.54459994e-002 2.00500004e-002 3.93840000e-002
      2.61369999e-002 1.75439995e-002 2.11239997e-002 3.73800009e-001
      6.68299973e-001 2.74560004e-001 3.17840017e-002 1.01439999e-002
      1.06509998e-002 4.56470018e-003</_>
    <_>
      9.82299969e-002 9.97739971e-001 9.93669987e-001 9.88940001e-001
      9.83950019e-001 9.78659987e-001 9.73010004e-001 9.67670023e-001
      9.63540018e-001 9.60910022e-001 9.59299982e-001 9.58930016e-001
      9.59949970e-001 9.62660015e-001 9.67019975e-001 9.71620023e-001
      9.75839972e-001 9.79610026e-001 9.82959986e-001 9.85539973e-001
      9.86899972e-001 9.56970006e-002 8.50540027e-002 7.87940025e-002
      1.22450002e-001 1.81360006e-001 1.44679993e-001 2.09319994e-001
      1.62770003e-001 1.07929997e-001 6.43600002e-002 6.99020028e-002
      1.35690004e-001 2.03130007e-001 2.20300004e-001 2.17189997e-001
      2.20300004e-001 1.57820001e-001 9.56820026e-002 1.82270005e-001
      2.07320005e-001 1.24059997e-001 1.68970004e-001 2.00029999e-001
      1.36380002e-001 1.83039993e-001 1.95720002e-001 1.95989996e-001
      9.54739973e-002 9.27909985e-002 1.03639998e-001 2.20300004e-001
      2.20300004e-001 2.20300004e-001 2.20300004e-001 2.20300004e-001
      1.31620005e-001 2.18750000e+000 2.55640000e-001 8.91889989e-001
      2.40510011e+000 7.00690001e-002 1.81660000e-002 8.65050009e-004
      5.19029982e-002 1.73010002e-003 8.65050009e-004 3.46020004e-003
      6.74740002e-002 1.07270002e-001 1.21109998e-002 3.11420001e-002
      3.97920012e-002 9.08299983e-002 6.92040008e-003 5.79590015e-002
      4.39440012e-001 4.03649993e-002 3.25520011e-003 1.30210002e-003
      1.04170004e-002 0. 6.51039998e-004 0. 1.88800003e-002
      5.79430014e-002 1.17189996e-002 1.88800003e-002 5.72919995e-002
      5.46879992e-002 9.76559985e-003 4.88279983e-002 6.66019976e-001
      5.06910011e-002 1.07530002e-002 4.60830005e-003 5.83719984e-002 0.
      0. 0. 7.21969977e-002 6.14439994e-002 2.91859992e-002
      4.14750017e-002 5.99079989e-002 1.53610006e-003 4.60830005e-003
      3.07220011e-003 6.02150023e-001 5.34290001e-002 3.03029995e-002
      7.97450019e-004 2.31260005e-002 0. 0. 0. 5.82140014e-002
      1.14040002e-001 3.50879990e-002 2.95059998e-002 4.22650017e-002
      2.47210003e-002 1.43539999e-002 3.66830006e-002 5.37479997e-001
      9.37560022e-001 5.22589982e-002 5.75730018e-003 1.77149998e-003
      2.65719998e-003 0.</_>
    <_>
      1.60270005e-001 9.98090029e-001 9.92839992e-001 9.84319985e-001
      9.72859979e-001 9.58859980e-001 9.42789972e-001 9.25040007e-001
      9.06040013e-001 8.86269987e-001 8.66199970e-001 8.46149981e-001
      8.26730013e-001 8.08309972e-001 7.91350007e-001 7.76160002e-001
      7.63239980e-001 7.52730012e-001 7.45079994e-001 7.40379989e-001
      7.38810003e-001 9.65050012e-002 1.13310002e-001 1.13329999e-001
      2.41919994e-001 2.49599993e-001 2.49599993e-001 2.43719995e-001
      1.32949993e-001 7.85629973e-002 1.22400001e-001 1.20310001e-001
      1.56269997e-001 2.49599993e-001 2.49599993e-001 1.96750000e-001
      1.22529998e-001 1.01910003e-001 9.49309990e-002 4.23119999e-002
      7.51489997e-002 9.31259990e-002 1.26039997e-001 1.67610005e-001
      2.49599993e-001 2.49599993e-001 1.64470002e-001 5.88270016e-002
      6.35150000e-002 1.10679999e-001 2.49599993e-001 2.49599993e-001
      2.22409993e-001 1.47249997e-001 1.04160003e-001 6.61400035e-002
      4.56149988e-002 1.78950000e+000 2.06190005e-001 8.89400005e-001 0.
      0. 0. 0. 0. 0. 0. 0. 0. 0. 0. 0. 0. 0. 0. 0. 0. 2.66859997e-002
      8.15420039e-003 0. 5.55970008e-003 0. 0. 0. 1.40850004e-002
      5.15200011e-002 1.48259997e-002 2.33510006e-002 4.26240005e-002
      3.78060006e-002 7.78350001e-003 3.40990014e-002 7.33500004e-001
      1.56460002e-001 4.82989997e-002 3.40140006e-003 5.85029982e-002 0.
      2.72110011e-003 6.80270023e-004 1.53060004e-001 9.59189981e-002
      2.44900007e-002 2.92520002e-002 3.46940011e-002 7.48299994e-003
      6.80269999e-003 1.36050005e-002 3.64620000e-001 1.73250005e-001
      2.68639997e-002 4.38599987e-003 3.45400013e-002 5.48249984e-004
      5.48249984e-004 2.19299993e-003 1.18419997e-001 1.44189999e-001
      1.80920009e-002 1.91890001e-002 5.04390001e-002 2.52190009e-002
      9.32020042e-003 4.87940013e-002 3.24010015e-001 5.86170018e-001
      3.33209991e-001 4.99150008e-002 1.43149998e-002 1.16780000e-002
      4.70899977e-003</_>
    <_>
      4.38270010e-002 9.93030012e-001 9.87990022e-001 9.83120024e-001
      9.79960024e-001 9.76589978e-001 9.70839977e-001 9.65979993e-001
      9.63959992e-001 9.62639987e-001 9.62069988e-001 9.60870028e-001
      9.61340010e-001 9.64429975e-001 9.68819976e-001 9.73110020e-001
      9.75250006e-001 9.79889989e-001 9.82609987e-001 9.84669983e-001
      9.85029995e-001 1.47939995e-001 1.37370005e-001 1.72199994e-001
      2.43760005e-001 2.43760005e-001 2.43760005e-001 2.43760005e-001
      1.57659993e-001 2.05479994e-001 5.08490019e-002 1.22040004e-001
      2.41889998e-001 2.43760005e-001 2.26530001e-001 1.06600001e-001
      1.19980000e-001 9.32539999e-002 6.48249984e-002 5.81759997e-002
      7.13379979e-002 1.64210007e-001 2.43760005e-001 2.43760005e-001
      2.21129999e-001 2.43760005e-001 1.20520003e-001 7.51029998e-002
      4.10020016e-002 5.76490015e-002 9.53269973e-002 2.43760005e-001
      1.58580005e-001 7.73580000e-002 6.76719993e-002 5.70579991e-002
      4.21480015e-002 2.08330011e+000 2.37619996e-001 8.84959996e-001 0.
      0. 0. 0. 0. 0. 0. 0. 0. 0. 0. 0. 0. 0. 0. 0. 0. 6.88410029e-002 0.
      0. 9.05799959e-003 1.81160006e-003 0. 0. 3.62319984e-002
      1.66669995e-001 1.99280009e-002 2.35510003e-002 7.78980032e-002
      5.79710007e-002 7.24640023e-003 5.25359996e-002 4.78260010e-001
      1.41969994e-001 8.64199996e-002 6.17279997e-003 9.25929993e-002 0.
      0. 0. 7.40740001e-002 6.17280006e-002 2.46910006e-002
      7.40740001e-002 8.64199996e-002 6.17279997e-003 0. 4.93829995e-002
      2.96299994e-001 7.07689971e-002 0. 1.53849996e-003 6.15380006e-003
      1.53849996e-003 0. 0. 6.76919967e-002 2.69230008e-001
      2.46149991e-002 3.84620018e-002 5.38460016e-002 8.15389976e-002
      1.07690003e-002 2.46149991e-002 3.49229991e-001 8.66190016e-001
      9.37300026e-002 2.71489993e-002 1.16349999e-002 1.29279995e-003 0.</_>
    <_>
      1.15800001e-001 9.97409999e-001 9.91069973e-001 9.81450021e-001
      9.68750000e-001 9.53289986e-001 9.35509980e-001 9.15830016e-001
      8.94379973e-001 8.72139990e-001 8.49820018e-001 8.27899992e-001
      8.06810021e-001 7.86939979e-001 7.68809974e-001 7.52600014e-001
      7.38699973e-001 7.27729976e-001 7.20109999e-001 7.15709984e-001
      7.14070022e-001 8.54030028e-002 6.51929975e-002 1.41450003e-001
      1.39880002e-001 2.13919997e-001 1.82050005e-001 1.26839995e-001
      1.34639993e-001 1.30180001e-001 7.50560015e-002 1.06009997e-001
      2.76259989e-001 2.76259989e-001 1.45400003e-001 7.72249997e-002
      8.84810016e-002 1.51580006e-001 1.33819997e-001 4.78070006e-002
      1.47520006e-001 2.76259989e-001 2.76259989e-001 2.76259989e-001
      2.29870006e-001 9.47450027e-002 5.58420010e-002 5.07090017e-002
      4.91839983e-002 2.07420006e-001 2.76259989e-001 2.76259989e-001
      2.05440000e-001 6.53050020e-002 3.70349996e-002 4.89149988e-002
      4.34430018e-002 2.79999995e+000 2.43059993e-001 8.82719994e-001
      2.69070005e+000 6.09420016e-002 1.93910003e-002 1.38499995e-003
      3.80889997e-002 0. 0. 3.46260006e-003 3.67040001e-002
      8.44879970e-002 2.21609995e-002 2.83930004e-002 3.80889997e-002
      6.23270012e-002 1.45429997e-002 7.27149993e-002 5.17310023e-001
      3.13390009e-002 2.13679997e-003 7.12250010e-004 7.12249987e-003 0.
      0. 0. 1.63819995e-002 9.18800011e-002 2.35040002e-002
      3.27639990e-002 4.27349992e-002 3.48999985e-002 1.13960002e-002
      5.19939996e-002 6.53140008e-001 1.47729993e-001 2.27269996e-002 0.
      2.27269996e-002 0. 0. 0. 5.80810010e-002 1.02270000e-001
      2.02019997e-002 2.27269996e-002 6.56569973e-002 2.65149996e-002
      3.78790009e-003 3.03029995e-002 4.77270007e-001 8.65300000e-002
      7.18370005e-002 2.44900002e-003 7.02039972e-002 0. 8.16330023e-004
      0. 1.01219997e-001 9.95920002e-002 3.18370014e-002 2.93879993e-002
      5.30610010e-002 2.85710003e-002 1.22450003e-002 3.59180011e-002
      3.76329988e-001 7.45169997e-001 2.11370006e-001 3.52899991e-002
      5.94349997e-003 2.22879997e-003 0.</_>
    <_>
      1.70139998e-001 9.98080015e-001 9.93250012e-001 9.85780001e-001
      9.76220012e-001 9.64829981e-001 9.52130020e-001 9.38440025e-001
      9.24080014e-001 9.09370005e-001 8.94479990e-001 8.79899979e-001
      8.65670025e-001 8.52530003e-001 8.40579987e-001 8.30020010e-001
      8.21070015e-001 8.14100027e-001 8.09220016e-001 8.06289971e-001
      8.05329978e-001 2.26150006e-001 1.47400007e-001 1.07539997e-001
      9.15540010e-002 9.22859982e-002 1.07670002e-001 1.61170006e-001
      1.59830004e-001 1.80590004e-001 1.53880000e-001 1.01779997e-001
      9.64070037e-002 8.07709992e-002 1.08779997e-001 1.55829996e-001
      2.26030007e-001 1.38370007e-001 1.16729997e-001 2.26150006e-001
      1.68329999e-001 1.13789998e-001 1.04999997e-001 1.28959998e-001
      1.38830006e-001 2.16869995e-001 2.26150006e-001 2.26150006e-001
      2.26150006e-001 1.39540002e-001 1.25149995e-001 1.54339999e-001
      2.13929996e-001 2.26150006e-001 2.26150006e-001 1.89050004e-001
      2.19689995e-001 2.54550004e+000 2.42420003e-001 8.79190028e-001 0.
      0. 0. 0. 0. 0. 0. 0. 0. 0. 0. 0. 0. 0. 0. 0. 0. 6.97119981e-002
      1.08169997e-002 2.40379991e-003 1.92310009e-002 0. 0. 0.
      2.40390003e-002 1.21390000e-001 1.08169997e-002 2.16349997e-002
      5.40870018e-002 2.16349997e-002 7.21149985e-003 6.12980016e-002
      5.75720012e-001 8.50820020e-002 4.54550013e-002 0. 8.04200023e-002
      0. 0. 1.16550003e-003 9.09089968e-002 1.16549999e-001
      4.19580005e-002 3.26340012e-002 5.82749993e-002 4.07930017e-002
      1.04900002e-002 4.77860011e-002 3.48479986e-001 1.14579998e-001
      7.38639981e-002 1.89389999e-003 3.97729985e-002 0. 0. 0.
      6.81819990e-002 1.27839997e-001 4.54550013e-002 2.08330005e-002
      7.00760037e-002 3.31440009e-002 2.55679991e-002 3.88259999e-002
      3.39960009e-001 7.73320019e-001 1.94030002e-001 2.61189993e-002
      6.06339984e-003 4.66419995e-004 0.</_>
    <_>
      1.81030005e-001 9.98149991e-001 9.94819999e-001 9.89700019e-001
      9.84220028e-001 9.78240013e-001 9.72940028e-001 9.67419982e-001
      9.61839974e-001 9.56130028e-001 9.50139999e-001 9.43549991e-001
      9.36529994e-001 9.29679990e-001 9.22980011e-001 9.17190015e-001
      9.12460029e-001 9.09200013e-001 9.06329989e-001 9.05089974e-001
      9.04500008e-001 2.72029992e-002 5.30180000e-002 1.18869998e-001
      2.78210014e-001 2.78210014e-001 2.24059999e-001 1.09750003e-001
      3.85450013e-002 1.96889993e-002 4.50100005e-002 5.80889992e-002
      1.06980003e-001 2.78210014e-001 2.78210014e-001 1.70829996e-001
      8.11730027e-002 3.18289995e-002 3.17070000e-002 4.40579988e-002
      1.14200003e-001 1.74250007e-001 2.78210014e-001 2.78210014e-001
      2.78210014e-001 1.31229997e-001 5.04180007e-002 3.48870009e-002
      4.71620001e-002 1.10380001e-001 2.33769998e-001 2.78210014e-001
      2.78210014e-001 1.49049997e-001 4.88540009e-002 4.09969985e-002
      5.00020012e-002 1.68750000e+000 2.64710009e-001 8.78260016e-001 0.
      0. 0. 0. 0. 0. 0. 0. 0. 0. 0. 0. 0. 0. 0. 0. 0. 3.28949988e-002
      9.39849997e-004 0. 9.39849997e-004 0. 0. 0. 9.39849997e-004
      3.94739993e-002 1.22180004e-002 3.47740017e-002 4.04129997e-002
      6.67290017e-002 3.75939999e-003 7.61279985e-002 6.90789998e-001
      1.23080000e-001 4.15380001e-002 0. 4.61539999e-002 0. 0. 0.
      8.76920000e-002 1.15390003e-001 2.92310007e-002 4.30769995e-002
      5.23080006e-002 3.53850015e-002 7.69229978e-003 1.84610002e-002
      4.00000006e-001 1.17239997e-001 3.44830006e-002 0. 2.48280000e-002
      0. 0. 0. 9.37929973e-002 1.98620006e-001 2.75860000e-002
      3.58619988e-002 4.68970016e-002 1.93099994e-002 4.13790019e-003
      2.06899997e-002 3.76549989e-001 8.28199983e-001 1.65730000e-001
      6.06910000e-003 0. 0. 0.</_>
    <_>
      1.32870004e-001 9.97520030e-001 9.91500020e-001 9.81670022e-001
      9.68270004e-001 9.51870024e-001 9.32980001e-001 9.12109971e-001
      8.89689982e-001 8.66439998e-001 8.42760026e-001 8.19209993e-001
      7.96239972e-001 7.74450004e-001 7.54279971e-001 7.36190021e-001
      7.20610023e-001 7.07960010e-001 6.98769987e-001 6.93090022e-001
      6.91120028e-001 2.15739995e-001 1.74529999e-001 1.34189993e-001
      9.91669968e-002 1.08759999e-001 1.20320000e-001 1.77939996e-001
      2.11280003e-001 2.22540006e-001 1.57269999e-001 2.29900002e-001
      2.29900002e-001 2.27699995e-001 1.96579993e-001 8.30650032e-002
      6.29969984e-002 8.90209973e-002 1.49049997e-001 1.49949998e-001
      1.31129995e-001 1.24420002e-001 1.06389999e-001 1.69259995e-001
      2.29900002e-001 1.99939996e-001 1.70249999e-001 1.88659996e-001
      1.25540003e-001 2.29900002e-001 2.29900002e-001 2.29900002e-001
      1.44319996e-001 6.34069964e-002 5.21580018e-002 7.50340000e-002
      1.36869997e-001 1.61539996e+000 1.98670000e-001 8.47459972e-001 0.
      0. 0. 0. 0. 0. 0. 0. 0. 0. 0. 0. 0. 0. 0. 0. 0. 2.82189995e-002
      1.76370004e-003 5.87889983e-004 5.87890018e-003 0. 0.
      1.17579999e-003 1.64609998e-002 8.93590003e-002 9.99409985e-003
      2.64550000e-002 3.40979993e-002 6.11409992e-002 1.05820000e-002
      4.76190001e-002 6.66660011e-001 6.97370023e-002 1.97369996e-002
      5.26320003e-003 1.84209999e-002 0. 0. 0. 3.81579995e-002
      9.73680019e-002 5.13160005e-002 4.60529998e-002 8.02630037e-002
      1.31580001e-002 9.21049993e-003 3.42100002e-002 5.17109990e-001
      5.17540015e-002 1.31580001e-002 8.77189974e-004 3.59649993e-002 0.
      0. 0. 5.61399981e-002 1.08769998e-001 3.15789990e-002
      3.07020005e-002 6.14040010e-002 1.66669991e-002 8.77190009e-003
      2.45609991e-002 5.59650004e-001 8.34469974e-001 7.42719993e-002
      3.15530002e-002 2.37860009e-002 2.08739992e-002 1.50480000e-002</_>
    <_>
      1.57529995e-001 9.97780025e-001 9.94400024e-001 9.89799976e-001
      9.83489990e-001 9.76459980e-001 9.68630016e-001 9.59959984e-001
      9.50990021e-001 9.41070020e-001 9.30890024e-001 9.21019971e-001
      9.11580026e-001 9.03199971e-001 8.95340025e-001 8.88800025e-001
      8.83350015e-001 8.78300011e-001 8.74719977e-001 8.72560024e-001
      8.71209979e-001 1.91990003e-001 2.28680000e-001 1.94370002e-001
      1.09800003e-001 2.28680000e-001 2.28680000e-001 1.80570006e-001
      1.74199998e-001 2.28680000e-001 1.17959999e-001 1.06129996e-001
      1.13949999e-001 1.32210001e-001 2.28680000e-001 2.28680000e-001
      1.83270007e-001 1.97650000e-001 2.28680000e-001 9.26769972e-002
      1.17009997e-001 1.14990003e-001 6.85739964e-002 9.57920030e-002
      1.78939998e-001 2.28680000e-001 1.79350004e-001 1.50010005e-001
      9.97480005e-002 1.68060005e-001 1.59999996e-001 1.37329996e-001
      1.36500001e-001 1.22019999e-001 1.29830003e-001 1.13609999e-001
      1.39369994e-001 2. 2.75860012e-001 8.77550006e-001 0. 0. 0. 0. 0.
      0. 0. 0. 0. 0. 0. 0. 0. 0. 0. 0. 0. 7.85709992e-002
      2.38099997e-003 2.38099997e-003 9.52379964e-003 0. 2.38099997e-003
      2.38099997e-003 7.14290002e-003 1.59520000e-001 1.90479998e-002
      2.38099992e-002 7.61900023e-002 6.90480024e-002 7.14290002e-003
      5.23810014e-002 4.88099992e-001 1.32039994e-001 6.92640021e-002
      8.65800027e-003 7.57580027e-002 0. 0. 2.16450007e-003
      1.06059998e-001 1.23379998e-001 2.81390008e-002 4.54550013e-002
      5.62769994e-002 4.11260016e-002 6.49349997e-003 5.19479997e-002
      2.53250003e-001 1.62880003e-001 1.13639999e-002 0. 1.32579999e-002
      0. 0. 0. 1.25000000e-001 2.91669995e-001 1.89389996e-002
      4.35610004e-002 5.30299991e-002 2.84090005e-002 1.32579999e-002
      1.70460008e-002 2.21589997e-001 5.82939982e-001 2.74650007e-001
      5.86850010e-002 5.24259992e-002 2.42570005e-002 7.04219984e-003</_>
    <_>
      1.45280004e-001 9.96020019e-001 9.88380015e-001 9.77670014e-001
      9.64370012e-001 9.48629975e-001 9.31219995e-001 9.12530005e-001
      8.92620027e-001 8.71640027e-001 8.50090027e-001 8.28899980e-001
      8.08080018e-001 7.88339972e-001 7.70039976e-001 7.53319979e-001
      7.37869978e-001 7.24720001e-001 7.14550018e-001 7.07840025e-001
      7.05320001e-001 9.34500024e-002 1.32420003e-001 2.25559995e-001
      2.74930000e-001 2.11199999e-001 5.75250015e-002 6.67480007e-002
      6.61149994e-002 6.52149990e-002 7.40820020e-002 1.80559993e-001
      2.74930000e-001 2.74930000e-001 1.65959999e-001 3.29900011e-002
      3.88609990e-002 3.87259983e-002 3.93089987e-002 1.24909997e-001
      1.79240003e-001 2.69279987e-001 2.74930000e-001 1.54579997e-001
      1.00290000e-001 1.32149994e-001 1.64749995e-001 1.39239997e-001
      9.38879997e-002 2.74930000e-001 2.74930000e-001 2.74930000e-001
      1.43989995e-001 4.83889990e-002 4.93079983e-002 6.10699989e-002
      4.98819984e-002 2.57890010e+000 2.18109995e-001 8.92989993e-001 0.
      0. 0. 0. 0. 0. 0. 0. 0. 0. 0. 0. 0. 0. 0. 0. 0. 2.53100004e-002
      1.80790003e-003 2.58260011e-003 1.34300003e-002 2.58259999e-004 0.
      5.16530010e-004 1.00720003e-002 7.12810010e-002 1.29129998e-002
      1.31710004e-002 3.58989984e-002 2.86669992e-002 5.94010018e-003
      4.36469987e-002 7.34510005e-001 1.00409999e-001 5.81969991e-002
      4.50820010e-003 5.94259985e-002 4.09839995e-004 0. 1.22950005e-003
      5.98360002e-002 7.45899975e-002 5.57379983e-002 2.25409996e-002
      5.08200005e-002 1.68030001e-002 1.39340004e-002 2.00820006e-002
      4.61479992e-001 1.31770000e-001 5.13460003e-002 4.02100012e-003
      4.94900011e-002 0. 0. 3.09310009e-004 9.99070033e-002
      1.05480000e-001 4.39219996e-002 1.94869991e-002 3.83550003e-002
      1.76309999e-002 9.58860014e-003 1.76309999e-002 4.11080003e-001
      6.11240029e-001 3.42170000e-001 2.77139992e-002 1.00499997e-002
      7.30929989e-003 1.52279995e-003</_>
    <_>
      1.22620001e-001 9.97780025e-001 9.92349982e-001 9.83659983e-001
      9.72459972e-001 9.58710015e-001 9.43310022e-001 9.26090002e-001
      9.08079982e-001 8.89209986e-001 8.70360017e-001 8.51520002e-001
      8.33689988e-001 8.16690028e-001 8.01389992e-001 7.87760019e-001
      7.76510000e-001 7.67419994e-001 7.61309981e-001 7.57619977e-001
      7.56630003e-001 4.25200015e-002 7.04569966e-002 1.41029999e-001
      1.91909999e-001 2.78200001e-001 2.78200001e-001 9.59500000e-002
      3.94460000e-002 4.78730015e-002 4.60730009e-002 7.39030018e-002
      2.78200001e-001 2.78200001e-001 2.00749993e-001 1.45089999e-001
      5.41960001e-002 3.19700018e-002 5.97580001e-002 4.18629982e-002
      1.30530000e-001 2.78200001e-001 2.78200001e-001 2.78200001e-001
      2.78200001e-001 1.03289999e-001 3.92649993e-002 3.67829986e-002
      3.27019989e-002 9.89260003e-002 2.78200001e-001 2.78200001e-001
      1.35869995e-001 5.40870018e-002 4.21210006e-002 3.66079994e-002
      5.03700003e-002 2. 2.22220004e-001 7.84259975e-001 1.33739996e+000
      7.47599974e-002 2.46910006e-002 2.05760007e-003 5.10969982e-002
      1.02880003e-003 0. 2.40059989e-003 7.57889971e-002 9.97940004e-002
      1.54320002e-002 1.98899992e-002 2.77779996e-002 5.38409986e-002
      8.57339986e-003 6.99589998e-002 4.72909987e-001 4.10390012e-002
      3.37660010e-003 1.94810005e-003 1.11689996e-002 7.79220019e-004 0.
      1.16880005e-003 2.68830005e-002 9.97409970e-002 1.40260002e-002
      1.15580000e-002 3.31170000e-002 2.40260009e-002 8.18180013e-003
      3.12989987e-002 6.91709995e-001 1.12970002e-001 3.24199982e-002
      2.33959989e-003 2.90770009e-002 3.34229990e-004 0. 3.34229995e-003
      7.58690014e-002 8.79010037e-002 3.64300013e-002 1.60429999e-002
      5.11359982e-002 2.30609998e-002 1.13639999e-002 3.17509994e-002
      4.85969990e-001 8.15920010e-002 4.70150001e-002 6.46770000e-003
      5.42289987e-002 7.46270001e-004 4.97510016e-004 2.23880005e-003
      8.15920010e-002 1.15920000e-001 3.63180004e-002 1.89050008e-002
      3.58209983e-002 3.05969995e-002 1.54229999e-002 4.22890000e-002
      4.30350006e-001 8.31839979e-001 1.30950004e-001 1.72099993e-002
      1.16339996e-002 6.44169981e-003 1.92289997e-003</_>
    <_>
      1.42600000e-001 9.96540010e-001 9.90819991e-001 9.82129991e-001
      9.71059978e-001 9.57930028e-001 9.43229973e-001 9.27579999e-001
      9.11000013e-001 8.93890023e-001 8.77030015e-001 8.60419989e-001
      8.44150007e-001 8.29970002e-001 8.16980004e-001 8.05750012e-001
      7.97089994e-001 7.90310025e-001 7.85290003e-001 7.82670021e-001
      7.81220019e-001 1.76550001e-001 9.15480033e-002 9.19450000e-002
      6.21230006e-002 1.41550004e-001 1.19960003e-001 2.14739993e-001
      2.14739993e-001 2.14739993e-001 1.92560002e-001 1.72509998e-001
      2.14739993e-001 2.14739993e-001 1.76510006e-001 8.39599967e-002
      1.43769994e-001 1.70059994e-001 2.14739993e-001 1.83760002e-001
      1.65639997e-001 1.31620005e-001 8.81059989e-002 1.70169994e-001
      1.17930003e-001 1.68799996e-001 1.25510007e-001 2.01700002e-001
      1.29669994e-001 2.14739993e-001 2.14739993e-001 2.14739993e-001
      2.14739993e-001 1.27360001e-001 1.42110005e-001 1.08929999e-001
      1.28950000e-001 2.29999995e+000 2.33009994e-001 8.86960030e-001 0.
      0. 0. 0. 0. 0. 0. 0. 0. 0. 0. 0. 0. 0. 0. 0. 0. 3.86100002e-002
      2.57400004e-003 0. 3.86100006e-003 1.28700002e-003 0. 0.
      1.02960002e-002 3.34619991e-002 2.57400004e-003 3.60359997e-002
      4.24709991e-002 5.66280000e-002 1.28700002e-003 6.82109967e-002
      7.02700019e-001 5.19229993e-002 9.61539987e-003 1.92309998e-003
      1.15390001e-002 0. 0. 0. 1.92310009e-002 2.69230008e-002
      3.65389995e-002 4.23079990e-002 8.46149996e-002 1.92310009e-002
      1.15390001e-002 5.38460016e-002 6.30770028e-001 5.53850010e-002
      9.23079997e-003 3.07690003e-003 2.92310007e-002 0. 0. 0.
      2.46149991e-002 5.07690012e-002 2.46149991e-002 4.15380001e-002
      6.15390018e-002 1.84610002e-002 9.23079997e-003 1.38459997e-002
      6.58460021e-001 7.98430026e-001 1.65350005e-001 2.20470000e-002
      6.29920000e-003 7.87399989e-003 0.</_>
    <_>
      1.03799999e-001 9.98340011e-001 9.95679975e-001 9.91670012e-001
      9.86400008e-001 9.80400026e-001 9.73749995e-001 9.66610014e-001
      9.59290028e-001 9.51960027e-001 9.44729984e-001 9.37380016e-001
      9.30580020e-001 9.24530029e-001 9.18730021e-001 9.13730025e-001
      9.09389973e-001 9.06059980e-001 9.03599977e-001 9.02329981e-001
      9.01740015e-001 2.22670004e-001 8.89210030e-002 6.96479976e-002
      1.07050002e-001 2.20159993e-001 2.22670004e-001 2.22670004e-001
      1.76569998e-001 2.22670004e-001 2.22670004e-001 1.29010007e-001
      1.41819999e-001 2.22670004e-001 2.22670004e-001 2.03740001e-001
      1.56039998e-001 1.62650004e-001 2.22670004e-001 2.02329993e-001
      6.52389973e-002 2.62550004e-002 2.03770008e-002 7.82620013e-002
      1.82510003e-001 1.64269999e-001 1.52600005e-001 1.98899999e-001
      1.96410000e-001 6.87490031e-002 5.18760011e-002 1.60439998e-001
      1.59050003e-001 1.32229999e-001 1.70110002e-001 1.42859995e-001
      1.69569999e-001 2.66669989e+000 2.16220006e-001 8.94309998e-001 0.
      0. 0. 0. 0. 0. 0. 0. 0. 0. 0. 0. 0. 0. 0. 0. 0. 4.42310013e-002 0.
      0. 1.92309998e-003 0. 0. 0. 5.76920016e-003 1.25000000e-001
      1.73080005e-002 4.42310013e-002 4.80769984e-002 3.46149988e-002
      7.69229978e-003 3.07689998e-002 6.40389979e-001 1.21050000e-001
      3.42100002e-002 0. 9.47370008e-002 2.63160001e-003 0.
      2.63160001e-003 1.10529996e-001 1.23680003e-001 1.84209999e-002
      5.00000007e-002 6.31579980e-002 4.73680012e-002 5.26320003e-003
      2.10529994e-002 3.05260003e-001 7.71429986e-002 2.85709999e-003 0.
      5.71430009e-003 0. 1.42860005e-003 1.42860005e-003 5.99999987e-002
      2.22859994e-001 3.14290002e-002 2.14290004e-002 8.28569978e-002
      3.71429995e-002 1.42860003e-002 2.14290004e-002 4.19999987e-001
      9.34769988e-001 6.37509972e-002 1.48260000e-003 0. 0. 0.</_>
    <_>
      1.40599996e-001 9.96749997e-001 9.90059972e-001 9.80059981e-001
      9.67230022e-001 9.51619983e-001 9.33879972e-001 9.14030015e-001
      8.93400013e-001 8.71699989e-001 8.49569976e-001 8.27560008e-001
      8.06209981e-001 7.85820007e-001 7.66849995e-001 7.49419987e-001
      7.34380007e-001 7.21830010e-001 7.12230027e-001 7.05879986e-001
      7.03909993e-001 1.30779997e-001 1.81380004e-001 2.20259994e-001
      1.77330002e-001 1.90479994e-001 1.05329998e-001 1.10930003e-001
      8.81920010e-002 1.15189999e-001 2.20259994e-001 2.20259994e-001
      2.20259994e-001 1.22769997e-001 1.14990003e-001 6.13609999e-002
      8.89260024e-002 9.01739970e-002 1.41130000e-001 1.67449996e-001
      1.77589998e-001 2.18229994e-001 2.15930000e-001 2.20259994e-001
      1.21600002e-001 1.76359996e-001 1.78990006e-001 1.74669996e-001
      2.20259994e-001 2.20259994e-001 2.20259994e-001 2.07910001e-001
      1.56479999e-001 8.06960016e-002 7.42919967e-002 9.12209973e-002
      1.70800000e-001 1.76919997e+000 2.10529998e-001 8.82809997e-001 0.
      0. 0. 0. 0. 0. 0. 0. 0. 0. 0. 0. 0. 0. 0. 0. 0. 3.86909992e-002
      4.96029994e-003 0. 5.95240016e-003 0. 0. 0. 1.48809999e-002
      4.66270000e-002 2.77779996e-002 3.67060006e-002 4.76190001e-002
      3.67060006e-002 9.92059987e-003 6.05159998e-002 6.69640005e-001
      5.98910004e-002 1.45190004e-002 1.81489997e-003 2.17790008e-002 0.
      0. 0. 3.62979993e-002 3.62979993e-002 3.08529995e-002
      4.53720018e-002 7.07800016e-002 1.08890003e-002 1.08890003e-002
      2.35939994e-002 6.37019992e-001 5.65479994e-002 2.97619998e-002
      2.97620008e-003 4.16669995e-002 0. 0. 2.97620008e-003
      3.27380002e-002 1.93450004e-002 3.12500000e-002 2.67859995e-002
      1.07139997e-001 1.48809999e-002 1.04170004e-002 2.38099992e-002
      5.99699974e-001 8.89289975e-001 5.89650013e-002 2.28640009e-002
      1.32370004e-002 1.44400001e-002 1.20339997e-003</_>
    <_>
      1.22299999e-001 9.97399986e-001 9.91320014e-001 9.81920004e-001
      9.69120026e-001 9.53350008e-001 9.35130000e-001 9.14969981e-001
      8.93660009e-001 8.71720016e-001 8.49160016e-001 8.26849997e-001
      8.05419981e-001 7.85139978e-001 7.66380012e-001 7.49530017e-001
      7.35220015e-001 7.23720014e-001 7.15269983e-001 7.09890008e-001
      7.08000004e-001 1.67659998e-001 1.38589993e-001 1.19379997e-001
      1.51649997e-001 2.27860004e-001 1.28800005e-001 1.31170005e-001
      1.70550004e-001 1.58480003e-001 2.27860004e-001 1.19819999e-001
      8.91389996e-002 8.94280002e-002 1.88840002e-001 1.73899993e-001
      1.79460004e-001 2.27860004e-001 2.27860004e-001 1.47990003e-001
      8.81239995e-002 1.29160002e-001 1.74260005e-001 2.27860004e-001
      1.89009994e-001 1.89270005e-001 1.55489996e-001 1.56920001e-001
      2.27860004e-001 1.21160001e-001 1.42460003e-001 1.08810000e-001
      2.13939995e-001 1.06739998e-001 1.24559999e-001 1.29409999e-001
      2.27860004e-001 1.88890004e+000 2.28259996e-001 8.27269971e-001 0.
      0. 0. 0. 0. 0. 0. 0. 0. 0. 0. 0. 0. 0. 0. 0. 0. 4.74260002e-002
      4.06499999e-003 4.06499999e-003 1.62599999e-002 0. 0.
      1.35499996e-003 2.30349991e-002 7.04609975e-002 1.49050001e-002
      4.33599986e-002 5.01359999e-002 6.23309985e-002 8.13009962e-003
      5.96209988e-002 5.94850004e-001 6.52170032e-002 0. 0.
      2.17390005e-002 3.10559990e-003 0. 0. 1.86340008e-002
      2.79500000e-002 2.48450004e-002 5.27950004e-002 8.38510022e-002
      3.10559999e-002 3.10559990e-003 4.34780009e-002 6.24220014e-001
      5.50240017e-002 2.63160001e-002 0. 1.67459995e-002 0. 0. 0.
      2.39230003e-002 2.15310007e-002 2.63160001e-002 4.78469990e-002
      9.33009982e-002 2.15310007e-002 1.19620003e-002 2.15310007e-002
      6.33970022e-001 8.33959997e-001 9.51490030e-002 3.35819982e-002
      2.79849991e-002 9.32839978e-003 0.</_>
    <_>
      1.60390005e-001 9.97720003e-001 9.92219985e-001 9.83550012e-001
      9.71790016e-001 9.57859993e-001 9.41420019e-001 9.23240006e-001
      9.03840005e-001 8.83469999e-001 8.62969995e-001 8.42710018e-001
      8.23159993e-001 8.04979980e-001 7.88349986e-001 7.73570001e-001
      7.61120021e-001 7.50880003e-001 7.43350029e-001 7.38820016e-001
      7.37169981e-001 2.14479994e-002 2.81099994e-002 6.91789985e-002
      2.38260001e-001 2.92580009e-001 2.43699998e-001 9.02149975e-002
      3.13699991e-002 1.67629998e-002 2.70939991e-002 6.73160031e-002
      2.34669998e-001 2.92580009e-001 2.92580009e-001 1.36170000e-001
      4.69920002e-002 2.21100003e-002 2.07610000e-002 1.79999992e-002
      3.47339995e-002 1.39229998e-001 2.02470005e-001 2.64860004e-001
      2.92580009e-001 1.79590002e-001 8.56999978e-002 2.42630001e-002
      2.21050009e-002 6.54760003e-002 2.92580009e-001 2.92580009e-001
      2.45250002e-001 1.47650003e-001 8.46080035e-002 5.63060008e-002
      2.37050001e-002 1.64999998e+000 1.94999993e-001 8.84440005e-001 0.
      0. 0. 0. 0. 0. 0. 0. 0. 0. 0. 0. 0. 0. 0. 0. 0. 7.25030005e-002
      2.41679996e-002 3.75939999e-003 2.30930001e-002 5.37060027e-004
      1.07410003e-003 3.22229997e-003 6.87429979e-002 1.48230001e-001
      1.12779997e-002 2.41679996e-002 3.43719982e-002 5.15570007e-002
      1.07410001e-002 6.82059973e-002 4.54349995e-001 1.58749998e-001
      2.50000004e-002 3.74999992e-003 2.68750004e-002 1.24999997e-003
      6.24999986e-004 0. 1.35629997e-001 6.56249970e-002 2.31250003e-002
      2.62499992e-002 3.99999991e-002 9.99999978e-003 4.37500002e-003
      8.12499970e-003 4.70629990e-001 1.53060004e-001 2.47050002e-002
      2.14820006e-003 3.27600017e-002 1.61120004e-003 0. 3.22229997e-003
      1.20839998e-001 1.12250000e-001 1.55750001e-002 2.30930001e-002
      3.81309986e-002 2.79270001e-002 9.13000014e-003 3.59830000e-002
      3.99569988e-001 6.33729994e-001 2.62589991e-001 7.26180002e-002
      2.04000007e-002 6.17629988e-003 4.49190009e-003</_>
    <_>
      1.75569996e-001 9.97460008e-001 9.92850006e-001 9.85379994e-001
      9.76700008e-001 9.65789974e-001 9.54079986e-001 9.40890014e-001
      9.27410007e-001 9.12970006e-001 8.98840010e-001 8.84270012e-001
      8.70010018e-001 8.56100023e-001 8.43609989e-001 8.31690013e-001
      8.21990013e-001 8.13759983e-001 8.08820009e-001 8.05379987e-001
      8.04740012e-001 2.24910006e-001 1.44150004e-001 1.35440007e-001
      2.24910006e-001 2.24910006e-001 1.78900003e-001 2.24910006e-001
      2.24910006e-001 2.24910006e-001 9.55130011e-002 1.33860007e-001
      2.24910006e-001 2.24910006e-001 2.24910006e-001 1.32359996e-001
      1.30140007e-001 8.82140025e-002 7.32650012e-002 1.98620006e-001
      2.24649996e-001 1.25750005e-001 1.94110006e-001 2.13019997e-001
      1.20490000e-001 1.13229997e-001 1.13169998e-001 1.73390001e-001
      8.33870023e-002 1.66549996e-001 1.86749995e-001 2.19479993e-001
      1.13150001e-001 5.32899983e-002 5.02839983e-002 1.85959991e-002
      3.83949988e-002 2.20000005e+000 2.11009994e-001 8.85249972e-001 0.
      0. 0. 0. 0. 0. 0. 0. 0. 0. 0. 0. 0. 0. 0. 0. 0. 5.87499999e-002
      9.99999978e-003 0. 4.99999989e-003 0. 0. 0. 1.37499999e-002
      1.11249998e-001 3.75000015e-002 2.50000004e-002 5.99999987e-002
      5.00000007e-002 9.99999978e-003 4.50000018e-002 5.73750019e-001
      1.74999997e-001 8.39290023e-002 1.25000002e-002 6.42860010e-002 0.
      0. 0. 9.64289978e-002 6.42860010e-002 1.96429994e-002
      2.50000004e-002 6.25000000e-002 2.50000004e-002 7.14290002e-003
      3.39290015e-002 3.30359995e-001 1.29629999e-001 3.56119983e-002
      4.27349983e-003 3.98860015e-002 1.42450002e-003 0. 1.42450002e-003
      6.55269995e-002 1.70939997e-001 1.42449997e-002 3.70370001e-002
      4.13109995e-002 2.70649996e-002 8.54699966e-003 3.13390009e-002
      3.91739994e-001 6.50929987e-001 2.37210006e-001 4.49689999e-002
      2.75439993e-002 3.03540006e-002 8.99379980e-003</_>
    <_>
      1.81410000e-001 9.97709990e-001 9.94539976e-001 9.89520013e-001
      9.83519971e-001 9.76790011e-001 9.70080018e-001 9.62610006e-001
      9.55420017e-001 9.47809994e-001 9.39689994e-001 9.32879984e-001
      9.26020026e-001 9.19759989e-001 9.14210021e-001 9.09739971e-001
      9.05569971e-001 9.02540028e-001 8.99680018e-001 8.98230016e-001
      8.97719979e-001 1.28450006e-001 1.72610000e-001 2.61889994e-001
      2.61889994e-001 2.61889994e-001 2.18419999e-001 1.49460003e-001
      1.37380004e-001 1.66419998e-001 5.01030013e-002 1.41670004e-001
      2.61889994e-001 2.61889994e-001 2.29670003e-001 7.49119967e-002
      4.06560004e-002 3.95479985e-002 3.77650000e-002 5.36619984e-002
      2.19929993e-001 2.61889994e-001 2.61889994e-001 1.74500003e-001
      5.80580011e-002 4.87000011e-002 6.13150001e-002 6.85779974e-002
      2.42069997e-002 1.57670006e-001 2.61889994e-001 2.61889994e-001
      9.60910022e-002 1.85349993e-002 1.25829997e-002 1.47569999e-002
      1.72429997e-002 1.76919997e+000 3.04879993e-001 8.90110016e-001 0.
      0. 0. 0. 0. 0. 0. 0. 0. 0. 0. 0. 0. 0. 0. 0. 0. 4.88509983e-002
      7.18390010e-003 2.87359999e-003 2.72990000e-002 0. 0.
      1.43680000e-003 3.16089988e-002 7.47129992e-002 1.58050004e-002
      3.87930013e-002 4.45399992e-002 6.89650029e-002 2.87359999e-003
      1.06320001e-001 5.28729975e-001 1.88409999e-001 1.20080002e-001
      4.14079987e-003 3.93370017e-002 0. 0. 0. 6.21119998e-002
      7.03930035e-002 2.69150008e-002 4.34780009e-002 5.79710007e-002
      3.10559999e-002 1.03519997e-002 3.72669995e-002 3.08490008e-001
      1.72000006e-001 5.20000011e-002 8.00000038e-003 7.59999976e-002 0.
      0. 2.00000009e-003 8.39999989e-002 1.00000001e-001 1.20000001e-002
      1.99999996e-002 7.19999969e-002 3.99999991e-002 1.60000008e-002
      5.00000007e-002 2.96000004e-001 6.63089991e-001 2.00269997e-001
      6.02810010e-002 3.41590010e-002 3.34899984e-002 8.70729983e-003</_>
    <_>
      1.51209995e-001 9.97650027e-001 9.91739988e-001 9.82190013e-001
      9.68890011e-001 9.52719986e-001 9.33849990e-001 9.12679970e-001
      8.89869988e-001 8.66029978e-001 8.41610014e-001 8.17319989e-001
      7.93780029e-001 7.71369994e-001 7.50649989e-001 7.32240021e-001
      7.16560006e-001 7.03819990e-001 6.94630027e-001 6.89109981e-001
      6.87110007e-001 4.09980007e-002 9.54160020e-002 1.21359996e-001
      1.25740007e-001 2.21320003e-001 1.37170002e-001 7.29689971e-002
      4.61120009e-002 4.65920009e-002 4.72120009e-002 6.38940036e-002
      7.75600001e-002 1.88840002e-001 2.21489996e-001 1.77330002e-001
      9.63639989e-002 6.86770007e-002 5.73100001e-002 1.26880005e-001
      2.21489996e-001 2.04799995e-001 1.71269998e-001 2.21489996e-001
      2.21489996e-001 1.87690005e-001 1.66569993e-001 2.21489996e-001
      1.88419998e-001 2.13750005e-001 1.40349999e-001 2.21489996e-001
      2.21489996e-001 2.21489996e-001 2.21489996e-001 2.01240003e-001
      2.21489996e-001 1.90910006e+000 1.93550006e-001 8.72340024e-001 0.
      0. 0. 0. 0. 0. 0. 0. 0. 0. 0. 0. 0. 0. 0. 0. 0. 5.87119982e-002
      4.73480020e-003 9.46970016e-004 1.89389996e-002 9.46970016e-004
      9.46970016e-004 4.73480020e-003 5.20830005e-002 5.49240001e-002
      5.68180019e-003 2.27269996e-002 4.82949987e-002 5.87119982e-002
      6.62880018e-003 9.56439972e-002 5.65339983e-001 1.29030004e-001
      3.22580002e-002 1.89750001e-003 6.26190007e-002 0. 0.
      1.89750001e-003 1.10059999e-001 2.04929993e-001 5.69259981e-003
      4.55409996e-002 4.55409996e-002 1.13850003e-002 5.69259981e-003
      2.08730008e-002 3.22580010e-001 1.26389995e-001 1.94440000e-002
      1.38889998e-003 1.80559997e-002 0. 0. 1.38889998e-003
      1.23609997e-001 2.52779990e-001 1.94440000e-002 3.61110009e-002
      3.88889983e-002 1.94440000e-002 5.55559993e-003 1.25000002e-002
      3.24999988e-001 6.71689987e-001 2.66779989e-001 2.58179996e-002
      1.50600001e-002 1.50600001e-002 5.59379999e-003</_>
    <_>
      1.65000007e-001 9.98560011e-001 9.95019972e-001 9.89480019e-001
      9.82089996e-001 9.73129988e-001 9.62960005e-001 9.52030003e-001
      9.40289974e-001 9.28179979e-001 9.16050017e-001 9.04200017e-001
      8.92870009e-001 8.82449985e-001 8.73099983e-001 8.65029991e-001
      8.58319998e-001 8.53079975e-001 8.49309981e-001 8.46970022e-001
      8.46279979e-001 2.33419999e-001 1.78360000e-001 9.19319987e-002
      1.10179998e-001 1.55200005e-001 1.20920002e-001 5.94139993e-002
      7.28269964e-002 1.97819993e-001 2.33419999e-001 2.33419999e-001
      2.27599993e-001 2.19840005e-001 1.29629999e-001 6.69739991e-002
      4.56960015e-002 6.13440014e-002 2.32380003e-001 2.33419999e-001
      2.33419999e-001 2.33419999e-001 1.70780003e-001 1.11879997e-001
      9.48150009e-002 8.52549970e-002 1.11759998e-001 1.59170002e-001
      2.33419999e-001 2.26129994e-001 2.33419999e-001 2.33419999e-001
      1.10090002e-001 4.06449996e-002 4.19740006e-002 6.57079965e-002
      1.42179996e-001 2.28570008e+000 2.93229997e-001 8.85909975e-001
      2.15630007e+000 9.12699997e-002 4.42180000e-002 7.36959977e-003
      4.93200012e-002 0. 1.13380002e-003 1.13380002e-003 7.36960024e-002
      7.99319968e-002 1.75739992e-002 2.66440008e-002 3.79819982e-002
      2.49429997e-002 1.07709998e-002 5.27210012e-002 4.81299996e-001
      4.84689996e-002 1.27550000e-002 3.82649992e-003 1.40310004e-002 0.
      0. 0. 3.38010006e-002 6.50509968e-002 1.27550000e-002
      2.67859995e-002 4.33669984e-002 4.46429998e-002 8.29080027e-003
      7.84439966e-002 6.07789993e-001 1.10780001e-001 6.86269999e-002
      1.07840002e-002 6.76470026e-002 0. 1.96080003e-003 1.96080003e-003
      7.84310028e-002 6.76470026e-002 1.56859998e-002 3.62749994e-002
      4.21570018e-002 2.94119995e-002 1.17650004e-002 6.86269999e-002
      3.88240010e-001 1.26790002e-001 1.99360009e-002 4.78470000e-003
      2.47210003e-002 0. 0. 2.39229994e-003 8.93139988e-002
      1.77029997e-001 2.55180001e-002 2.79110000e-002 3.90749983e-002
      5.66189997e-002 9.56939999e-003 3.58849987e-002 3.60450000e-001
      7.37600029e-001 2.17160001e-001 2.80809999e-002 1.15440004e-002
      4.99220006e-003 6.24020002e-004</_>
    <_>
      1.55520007e-001 9.98080015e-001 9.93749976e-001 9.87010002e-001
      9.77890015e-001 9.66759980e-001 9.54339981e-001 9.40769970e-001
      9.26500022e-001 9.11889970e-001 8.97400022e-001 8.83369982e-001
      8.70039999e-001 8.57739985e-001 8.46809983e-001 8.37080002e-001
      8.29060018e-001 8.22719991e-001 8.18130016e-001 8.15199971e-001
      8.14369977e-001 2.24659994e-001 1.58240005e-001 9.47529972e-002
      8.84020030e-002 1.57930002e-001 1.18979998e-001 1.25070006e-001
      1.01070002e-001 1.85800001e-001 2.33439997e-001 2.33439997e-001
      2.16330007e-001 1.69320002e-001 1.14929996e-001 7.35889971e-002
      7.41270036e-002 7.50960037e-002 2.25700006e-001 2.33439997e-001
      2.33439997e-001 2.06719995e-001 1.29170001e-001 1.30989999e-001
      9.14539993e-002 1.31730005e-001 8.95209983e-002 1.96020007e-001
      2.33439997e-001 2.33439997e-001 2.33439997e-001 2.03769997e-001
      1.15079999e-001 6.05400018e-002 7.36460015e-002 7.71259964e-002
      2.22990006e-001 1.92309999e+000 2.54099995e-001 8.76810014e-001 0.
      0. 0. 0. 0. 0. 0. 0. 0. 0. 0. 0. 0. 0. 0. 0. 0. 5.87759987e-002
      7.24640023e-003 8.05150019e-004 1.12720001e-002 0. 0.
      1.61030004e-003 3.62319984e-002 5.95810004e-002 2.09340006e-002
      3.05959992e-002 4.50889990e-002 4.26729992e-002 1.04670003e-002
      5.55559993e-002 6.19159997e-001 1.09679997e-001 7.22580031e-002
      3.87099991e-003 6.70970008e-002 2.58060009e-003 0. 2.58060009e-003
      7.99999982e-002 7.22580031e-002 2.06450000e-002 3.87100019e-002
      4.90319990e-002 2.32260004e-002 1.54839996e-002 7.48390034e-002
      3.67740005e-001 1.07529998e-001 3.44090015e-002 3.22580012e-003
      2.47310009e-002 0. 0. 3.22580012e-003 6.55910000e-002
      1.83870003e-001 3.01070008e-002 3.33329998e-002 4.73119989e-002
      4.40860018e-002 1.82799995e-002 3.97850014e-002 3.64520013e-001
      6.81039989e-001 2.48569995e-001 4.31150012e-002 1.67180002e-002
      6.15929998e-003 4.39949986e-003</_>
    <_>
      9.50879976e-002 9.97219980e-001 9.90209997e-001 9.79619980e-001
      9.65499997e-001 9.48650002e-001 9.29589987e-001 9.08100009e-001
      8.85150015e-001 8.61090004e-001 8.36170018e-001 8.11249971e-001
      7.87050009e-001 7.63729990e-001 7.42160022e-001 7.22980022e-001
      7.06910014e-001 6.94360018e-001 6.85490012e-001 6.80230021e-001
      6.78529978e-001 1.21919997e-001 2.27100000e-001 1.53549999e-001
      1.75129995e-001 2.27100000e-001 2.27100000e-001 2.27100000e-001
      2.27100000e-001 2.27100000e-001 1.28419995e-001 1.95779994e-001
      2.12109998e-001 1.69839993e-001 1.64749995e-001 1.65169999e-001
      2.27100000e-001 1.89510003e-001 2.27100000e-001 9.48109999e-002
      1.11290000e-001 9.67219993e-002 1.04369998e-001 1.34130001e-001
      1.48959994e-001 1.21760003e-001 1.48139998e-001 1.23439997e-001
      9.09459963e-002 1.59070000e-001 2.27100000e-001 2.19889998e-001
      9.86559987e-002 5.42789996e-002 5.34269996e-002 7.13249967e-002
      9.54829976e-002 2.18179989e+000 1.55169994e-001 8.91749978e-001 0.
      0. 0. 0. 0. 0. 0. 0. 0. 0. 0. 0. 0. 0. 0. 0. 0. 4.76190001e-002
      4.14079987e-003 1.38030003e-003 1.24220001e-002 0. 6.90129993e-004
      6.90129993e-004 2.13939995e-002 5.93510009e-002 1.44929998e-002
      3.24359983e-002 4.96889986e-002 3.24359983e-002 1.24220001e-002
      4.83089983e-002 6.62519991e-001 1.45160004e-001 3.76340002e-002
      3.58420005e-003 3.22580002e-002 1.79210003e-003 0. 0.
      9.31899995e-002 8.78140032e-002 1.79210007e-002 4.30109985e-002
      4.65949997e-002 3.76340002e-002 8.96060001e-003 3.94270010e-002
      4.05019999e-001 7.38710016e-002 1.57319997e-002 6.83990016e-004
      1.91520005e-002 0. 0. 0. 5.54040000e-002 1.90149993e-001
      2.12040003e-002 2.87280008e-002 4.10399996e-002 2.46239994e-002
      1.09440004e-002 2.94119995e-002 4.89060014e-001 7.36800015e-001
      2.42310002e-001 1.10139996e-002 5.31709986e-003 3.79800005e-003
      7.59590010e-004</_>
    <_>
      1.80999994e-001 9.97139990e-001 9.91569996e-001 9.81700003e-001
      9.68490005e-001 9.52570021e-001 9.33300018e-001 9.12329972e-001
      8.89299989e-001 8.65369976e-001 8.40879977e-001 8.16320002e-001
      7.92249978e-001 7.69259989e-001 7.48310030e-001 7.29110003e-001
      7.13379979e-001 7.00370014e-001 6.90680027e-001 6.85310006e-001
      6.82659984e-001 5.28119989e-002 3.61960009e-002 7.89119974e-002
      1.48580000e-001 2.22000003e-001 2.22000003e-001 8.53919983e-002
      9.30380002e-002 8.95129964e-002 7.95150027e-002 4.49919999e-002
      6.39910027e-002 9.05840024e-002 1.52490005e-001 1.13810003e-001
      8.74089971e-002 1.26690000e-001 1.18989997e-001 2.04720005e-001
      1.11249998e-001 1.79360002e-001 2.22000003e-001 2.22000003e-001
      2.22000003e-001 2.22000003e-001 2.04860002e-001 2.22000003e-001
      2.22000003e-001 1.77379996e-001 2.22000003e-001 2.01849997e-001
      2.22000003e-001 1.98730007e-001 1.52270004e-001 2.03130007e-001
      2.22000003e-001 2.09089994e+000 1.94690004e-001 8.88890028e-001 0.
      0. 0. 0. 0. 0. 0. 0. 0. 0. 0. 0. 0. 0. 0. 0. 0. 6.87830001e-002
      8.81830044e-003 0. 2.11640000e-002 0. 0. 0. 3.52730006e-002
      1.86949998e-001 1.94000006e-002 4.23280001e-002 5.29100001e-002
      6.87830001e-002 1.05820000e-002 5.82010001e-002 4.26809996e-001
      1.35780007e-001 4.52589989e-002 0. 2.80169994e-002 0. 0. 0.
      9.91379991e-002 1.76719993e-001 6.46550022e-003 4.74140011e-002
      5.17240018e-002 5.81899993e-002 0. 2.80169994e-002 3.23280007e-001
      1.14660002e-001 1.87970009e-002 0. 2.25559995e-002 0. 0. 0.
      1.12779997e-001 1.71049997e-001 1.50380004e-002 2.63160001e-002
      6.95490018e-002 9.39850044e-003 5.63909998e-003 2.06770003e-002
      4.13529992e-001 7.35840023e-001 2.12599993e-001 2.60979999e-002
      1.08209997e-002 1.14580002e-002 3.18269990e-003</_>
    <_>
      1.92580000e-001 9.98669982e-001 9.95410025e-001 9.90400016e-001
      9.83879983e-001 9.76230025e-001 9.67530012e-001 9.58180010e-001
      9.48480010e-001 9.38750029e-001 9.29189980e-001 9.20189977e-001
      9.12039995e-001 9.04690027e-001 8.98270011e-001 8.92629981e-001
      8.87989998e-001 8.84419978e-001 8.81749988e-001 8.80119979e-001
      8.79540026e-001 1.93220004e-002 1.38419997e-002 1.62850004e-002
      2.63340008e-002 2.82169998e-001 2.82169998e-001 7.94190019e-002
      1.69810001e-002 1.35369999e-002 7.72150010e-002 6.60530031e-002
      9.80440006e-002 2.82169998e-001 2.82169998e-001 1.15220003e-001
      2.72860005e-002 1.49560003e-002 6.13380000e-002 7.09379986e-002
      6.15249984e-002 1.34369999e-001 8.47629979e-002 2.56799996e-001
      2.82169998e-001 2.82169998e-001 1.10100001e-001 4.14090008e-002
      1.45219997e-001 1.60319999e-001 2.82169998e-001 2.82169998e-001
      2.82169998e-001 1.77300006e-001 1.57450005e-001 8.78449976e-002
      9.90250036e-002 3.50000000e+000 2.56099999e-001 8.94159973e-001 0.
      0. 0. 0. 0. 0. 0. 0. 0. 0. 0. 0. 0. 0. 0. 0. 0. 3.27720009e-002
      3.51119996e-003 2.34079990e-003 1.17039997e-002 4.68159997e-004 0.
      1.87270006e-003 2.13019997e-002 5.71160018e-002 7.49059999e-003
      1.73220001e-002 2.59830002e-002 3.74529995e-002 5.14979986e-003
      5.82860000e-002 7.17230022e-001 8.14649984e-002 2.87040006e-002
      3.55380005e-003 4.40130010e-002 5.46749972e-004 0. 1.09349994e-003
      1.27120003e-001 5.13940006e-002 2.73369998e-002 1.80430003e-002
      3.96389998e-002 1.17549999e-002 7.65450019e-003 1.99560001e-002
      5.37729979e-001 5.77550009e-002 5.29630017e-003 1.76550006e-003
      8.82720016e-003 2.52210011e-004 5.04410011e-004 5.04410011e-004
      4.06050012e-002 1.07189998e-001 1.74020007e-002 1.66459996e-002
      2.74909995e-002 2.26990003e-002 6.55739987e-003 1.96720008e-002
      6.66830003e-001 5.35099983e-001 2.78539985e-001 1.16910003e-001
      4.67020012e-002 1.98630001e-002 2.88100005e-003</_>
    <_>
      1.85369998e-001 9.97799993e-001 9.92829978e-001 9.85050023e-001
      9.74340022e-001 9.61610019e-001 9.47009981e-001 9.30930018e-001
      9.13929999e-001 8.96279991e-001 8.78549993e-001 8.61500025e-001
      8.44860017e-001 8.29039991e-001 8.15100014e-001 8.02269995e-001
      7.91480005e-001 7.82999992e-001 7.76690006e-001 7.72859991e-001
      7.71610022e-001 2.15949997e-001 1.85149997e-001 1.71000004e-001
      1.01879999e-001 8.06119964e-002 8.84570032e-002 1.00830004e-001
      1.02789998e-001 1.34949997e-001 1.93279997e-001 2.22800002e-001
      2.22800002e-001 2.03789994e-001 1.52239993e-001 1.06980003e-001
      6.81940019e-002 9.34330001e-002 1.39219999e-001 2.22800002e-001
      2.22800002e-001 2.22800002e-001 1.35810003e-001 1.41709998e-001
      1.41980007e-001 1.37500003e-001 1.42759994e-001 2.22800002e-001
      2.22800002e-001 2.22800002e-001 2.22800002e-001 2.22800002e-001
      1.42509997e-001 9.88700017e-002 6.98790029e-002 1.13779999e-001
      1.88219994e-001 1.90910006e+000 2.13679999e-001 8.78790021e-001 0.
      0. 0. 0. 0. 0. 0. 0. 0. 0. 0. 0. 0. 0. 0. 0. 0. 6.92149997e-002
      1.23969996e-002 2.06610002e-003 1.75620001e-002 0. 0.
      2.06610002e-003 5.57850003e-002 5.57850003e-002 1.13639999e-002
      2.47930009e-002 5.88839985e-002 4.75209989e-002 7.23139988e-003
      9.40079987e-002 5.41320026e-001 1.17459998e-001 5.87299988e-002
      6.34919992e-003 3.80950011e-002 0. 1.58729998e-003 0.
      6.98409975e-002 7.61900023e-002 1.74599998e-002 3.96829993e-002
      5.23810014e-002 3.33329998e-002 2.06349995e-002 6.66669980e-002
      4.01589990e-001 7.95760006e-002 1.59150008e-002 6.63129985e-003
      2.12200005e-002 1.32629997e-003 0. 0. 6.49869964e-002
      1.20690003e-001 4.77450006e-002 3.84620018e-002 6.76390007e-002
      5.17240018e-002 1.72409993e-002 5.03979996e-002 4.16449994e-001
      8.93959999e-001 1.00000001e-001 6.04029978e-003 0. 0. 0.</_>
    <_>
      1.73360005e-001 9.97210026e-001 9.91569996e-001 9.83309984e-001
      9.73219991e-001 9.61199999e-001 9.47250009e-001 9.32259977e-001
      9.16159987e-001 8.99869978e-001 8.83010030e-001 8.66609991e-001
      8.50709975e-001 8.35950017e-001 8.22629988e-001 8.10620010e-001
      8.00329983e-001 7.91899979e-001 7.85799980e-001 7.82199979e-001
      7.80910015e-001 6.30649999e-002 2.78169990e-001 3.05960000e-001
      3.05960000e-001 1.17969997e-001 7.66199976e-002 4.68280017e-002
      5.50890006e-002 6.18470013e-002 3.94750014e-002 1.56959996e-001
      3.05960000e-001 3.05960000e-001 1.71709999e-001 6.21760003e-002
      5.04049994e-002 3.23030017e-002 3.83649990e-002 1.47220001e-001
      3.05960000e-001 3.05960000e-001 1.72629997e-001 6.54020011e-002
      6.32160008e-002 4.76940013e-002 5.25799990e-002 7.43229985e-002
      4.84139994e-002 1.88439995e-001 3.05960000e-001 2.37670004e-001
      3.54410000e-002 1.40079996e-002 8.50609969e-003 1.14850001e-002
      2.39519998e-002 2.57139993e+000 2.39130005e-001 8.92679989e-001 0.
      0. 0. 0. 0. 0. 0. 0. 0. 0. 0. 0. 0. 0. 0. 0. 0. 7.68250003e-002
      5.07939979e-003 2.53969990e-003 5.07939979e-003 0. 0.
      6.34920027e-004 4.44439985e-002 2.01269999e-001 8.88890028e-003
      3.17460001e-002 3.30159999e-002 4.50790003e-002 7.61900004e-003
      5.26980013e-002 4.85080004e-001 1.58390000e-001 8.88200030e-002
      2.48449994e-003 5.71429990e-002 6.21119980e-004 2.48449994e-003
      2.48449994e-003 7.26710036e-002 4.22360003e-002 1.80120002e-002
      3.10559999e-002 4.96889986e-002 9.31680016e-003 6.83230022e-003
      2.91930009e-002 4.28570002e-001 7.83070028e-002 9.52379964e-003
      5.29100012e-004 1.95770003e-002 5.29100012e-004 1.05820002e-003
      2.64550000e-003 9.31219980e-002 1.48149997e-001 1.74599998e-002
      2.48680003e-002 3.59789990e-002 1.79890003e-002 6.34919992e-003
      1.85189992e-002 5.25399983e-001 5.10380030e-001 2.88709998e-001
      1.30410001e-001 4.95240018e-002 1.90309994e-002 1.94640004e-003</_>
    <_>
      1.80429995e-001 9.97979999e-001 9.92569983e-001 9.84040022e-001
      9.72829998e-001 9.59209979e-001 9.43470001e-001 9.26129997e-001
      9.07649994e-001 8.88499975e-001 8.68990004e-001 8.49560022e-001
      8.30720007e-001 8.13040018e-001 7.96809971e-001 7.82480001e-001
      7.70219982e-001 7.60420024e-001 7.53499985e-001 7.49400020e-001
      7.48130023e-001 1.95669994e-001 1.21299997e-001 1.55520007e-001
      1.57169998e-001 2.04990000e-001 2.10669994e-001 1.86279997e-001
      1.68540001e-001 1.63530007e-001 1.68129995e-001 1.32870004e-001
      1.21220000e-001 1.74879998e-001 1.60589993e-001 1.20770000e-001
      8.40789974e-002 1.54589996e-001 1.50930002e-001 2.09519997e-001
      1.54180005e-001 2.03520000e-001 8.56110007e-002 1.68160006e-001
      2.10669994e-001 2.10669994e-001 1.99939996e-001 2.08379999e-001
      1.80329993e-001 1.50830001e-001 1.66429996e-001 1.29099995e-001
      1.41080007e-001 1.31449997e-001 1.17009997e-001 1.82589993e-001
      1.83669999e-001 2.18179989e+000 1.72759995e-001 8.79769981e-001
      1.15670002e+000 8.80180001e-002 3.25439982e-002 5.17750019e-003
      5.47339991e-002 1.47929997e-003 1.10949995e-003 4.06809989e-003
      1.16120003e-001 6.76769987e-002 1.33140003e-002 1.22039998e-002
      4.28990014e-002 6.32399991e-002 1.18340002e-002 6.25000000e-002
      4.23070014e-001 2.07219999e-002 2.77519994e-003 0. 5.92039991e-003
      3.70030000e-004 0. 9.25070024e-004 1.96119994e-002 4.77330014e-002
      7.58560002e-003 1.68360006e-002 1.97969992e-002 4.56979983e-002
      4.07030014e-003 5.55040017e-002 7.52449989e-001 1.06210001e-001
      3.66009995e-002 4.90200007e-003 5.84970005e-002 1.96080003e-003
      9.80390003e-004 4.57519991e-003 1.36280000e-001 9.31370035e-002
      1.43790003e-002 1.43790003e-002 3.88889983e-002 6.99350014e-002
      1.14380000e-002 6.24179989e-002 3.45429987e-001 9.08640027e-002
      2.14820001e-002 3.95060005e-003 2.04939991e-002 2.22219992e-003
      2.46910000e-004 2.96299998e-003 7.72840008e-002 1.67899996e-001
      1.80249996e-002 1.82719994e-002 3.18519995e-002 7.48149976e-002
      1.11109996e-002 5.65430000e-002 4.01969999e-001 6.16659999e-001
      2.78149992e-001 7.58910030e-002 1.90609992e-002 6.94199977e-003
      3.29450006e-003</_>
    <_>
      1.21579997e-001 9.98109996e-001 9.93939996e-001 9.87209976e-001
      9.78940010e-001 9.69290018e-001 9.58710015e-001 9.47210014e-001
      9.35169995e-001 9.22730029e-001 9.10520017e-001 8.98989975e-001
      8.88400018e-001 8.79010022e-001 8.70829999e-001 8.64080012e-001
      8.58489990e-001 8.54420006e-001 8.51469994e-001 8.49829972e-001
      8.49409997e-001 3.15579996e-002 5.35980016e-002 7.06539974e-002
      1.46699995e-001 2.50680000e-001 2.50680000e-001 1.53779998e-001
      6.57180026e-002 2.91430000e-002 5.40550016e-002 2.21839994e-001
      2.50680000e-001 2.50680000e-001 2.50680000e-001 2.50680000e-001
      1.54699996e-001 1.11649998e-001 5.05449995e-002 7.88230002e-002
      7.28610009e-002 7.07190037e-002 1.33110002e-001 2.50680000e-001
      2.50680000e-001 1.29879996e-001 8.22969973e-002 5.63560016e-002
      1.07029997e-001 1.81400001e-001 1.80309996e-001 2.50680000e-001
      2.50680000e-001 2.19909996e-001 1.37250006e-001 8.75699967e-002
      7.76270032e-002 3.20000005e+000 2.91339993e-001 8.87319982e-001 0.
      0. 0. 0. 0. 0. 0. 0. 0. 0. 0. 0. 0. 0. 0. 0. 0. 7.00479969e-002
      3.22060008e-003 5.63610019e-003 1.69079993e-002 0. 0.
      1.61030004e-003 2.97909994e-002 9.66179967e-002 1.36879999e-002
      3.38159986e-002 4.34780009e-002 4.50889990e-002 1.44929998e-002
      5.79710007e-002 5.67629993e-001 1.69310004e-001 5.02640009e-002
      5.29100001e-003 6.21690005e-002 0. 0. 1.32269994e-003
      1.40210003e-001 7.53969997e-002 4.10050005e-002 1.98410004e-002
      6.34920001e-002 1.85189992e-002 1.05820000e-002 1.05820000e-002
      3.32010001e-001 1.34869993e-001 9.86840017e-003 0. 1.06910001e-002
      1.64469995e-003 0. 8.22369999e-004 7.40130022e-002 1.21710002e-001
      3.53620015e-002 1.56250000e-002 6.00330010e-002 1.56250000e-002
      6.57900004e-003 1.64470002e-002 4.96710002e-001 4.86009985e-001
      2.13620007e-001 1.90510005e-001 8.43129978e-002 1.90510005e-002
      6.48560002e-003</_>
    <_>
      1.36810005e-001 9.99069989e-001 9.97309983e-001 9.94669974e-001
      9.91310000e-001 9.87429976e-001 9.83560026e-001 9.79499996e-001
      9.75700021e-001 9.72140014e-001 9.68859971e-001 9.66059983e-001
      9.63840008e-001 9.62029994e-001 9.60720003e-001 9.60070014e-001
      9.59840000e-001 9.59829986e-001 9.59959984e-001 9.60179985e-001
      9.60219979e-001 9.05949995e-003 2.67709997e-002 4.58250009e-002
      1.15520000e-001 2.79740006e-001 2.79740006e-001 1.55970007e-001
      1.92430001e-002 1.04740001e-002 1.43449996e-002 8.67239982e-002
      1.94299996e-001 2.79740006e-001 2.79740006e-001 1.88020006e-001
      4.65000011e-002 9.09459963e-003 7.61040021e-003 5.54590002e-002
      9.06099975e-002 7.75400028e-002 1.58480003e-001 2.79740006e-001
      2.79740006e-001 1.94930002e-001 1.17810003e-001 4.95719984e-002
      5.72809987e-002 1.54899999e-001 2.41980001e-001 2.79740006e-001
      2.79740006e-001 2.21080005e-001 9.05290022e-002 7.75699988e-002
      3.64190005e-002 5.59999990e+000 3.94560009e-001 8.95709991e-001 0.
      0. 0. 0. 0. 0. 0. 0. 0. 0. 0. 0. 0. 0. 0. 0. 0. 4.65589985e-002
      1.11339996e-002 3.03640007e-003 1.66999996e-002 0. 0.
      1.01220002e-003 2.32790001e-002 4.70650010e-002 1.26520004e-002
      1.56880002e-002 5.36440015e-002 2.37850007e-002 1.56880002e-002
      7.18619972e-002 6.57890022e-001 1.43169999e-001 6.03200011e-002
      2.18020007e-003 8.57559964e-002 0. 7.26739992e-004 1.45350001e-003
      1.30809993e-001 3.56109999e-002 3.05230003e-002 1.23549998e-002
      7.48549998e-002 7.26740016e-003 9.44770034e-003 1.16280001e-002
      3.93889993e-001 9.72969979e-002 2.11709999e-002 2.70269997e-003
      1.62160005e-002 9.00899991e-004 4.50449996e-004 9.00899991e-004
      7.07210004e-002 1.02700002e-001 3.19820009e-002 2.38739997e-002
      4.18919995e-002 1.53150000e-002 9.00899991e-003 1.48649998e-002
      5.50000012e-001 5.76179981e-001 2.35039994e-001 1.25229999e-001
      4.70619984e-002 1.40920002e-002 2.39300006e-003</_>
    <_>
      1.58030003e-001 9.98640001e-001 9.94960010e-001 9.89139974e-001
      9.81429994e-001 9.72169995e-001 9.61660028e-001 9.50230002e-001
      9.38120008e-001 9.25599992e-001 9.13039982e-001 9.00749981e-001
      8.88970017e-001 8.78050029e-001 8.68160009e-001 8.59499991e-001
      8.52249980e-001 8.46589983e-001 8.42519999e-001 8.40080023e-001
      8.39269996e-001 2.21399993e-001 1.00350000e-001 6.98629990e-002
      1.29800007e-001 1.54339999e-001 1.52209997e-001 9.17799994e-002
      8.30890015e-002 1.63629994e-001 2.21399993e-001 1.37940004e-001
      2.06269994e-001 2.21399993e-001 1.51480004e-001 5.64929992e-002
      4.58239987e-002 9.80139971e-002 2.08379999e-001 1.89349994e-001
      2.03659996e-001 1.99169993e-001 1.38740003e-001 1.78810000e-001
      2.21399993e-001 2.21399993e-001 1.34149998e-001 1.47850007e-001
      2.16150001e-001 1.73319995e-001 2.21399993e-001 2.21399993e-001
      1.82290003e-001 1.11270003e-001 1.07369997e-001 1.29089996e-001
      1.79719999e-001 2. 2.63999999e-001 8.76760006e-001 0. 0. 0. 0. 0.
      0. 0. 0. 0. 0. 0. 0. 0. 0. 0. 0. 0. 3.67139988e-002
      2.56150006e-003 2.39069993e-003 1.26369996e-002 0. 0.
      1.02460000e-003 2.62979995e-002 6.88180029e-002 9.73359961e-003
      1.22950003e-002 3.63730006e-002 5.31079993e-002 6.48909993e-003
      8.81149992e-002 6.43450022e-001 1.11709997e-001 5.39080016e-002
      4.49240021e-003 7.24769980e-002 0. 8.98469996e-004 4.49240021e-003
      1.20700002e-001 7.27759972e-002 2.18630005e-002 1.79689992e-002
      3.29440013e-002 3.74360010e-002 9.58370045e-003 5.98980002e-002
      3.78850013e-001 1.15350001e-001 2.41940003e-002 5.86509984e-003
      3.47019993e-002 2.19939998e-003 2.44380004e-004 2.68819998e-003
      1.06550001e-001 1.72040001e-001 2.44379994e-002 1.73509996e-002
      2.88369991e-002 4.59429994e-002 1.34410001e-002 4.37440015e-002
      3.62410009e-001 4.96010005e-001 3.26200008e-001 1.07709996e-001
      4.87580001e-002 1.97439995e-002 1.57580001e-003</_>
    <_>
      1.98980004e-001 9.96949971e-001 9.90530014e-001 9.81060028e-001
      9.68680024e-001 9.53719974e-001 9.36810017e-001 9.18110013e-001
      8.97970021e-001 8.77179980e-001 8.56019974e-001 8.34469974e-001
      8.13870013e-001 7.94499993e-001 7.76560009e-001 7.60550022e-001
      7.47290015e-001 7.36570001e-001 7.28820026e-001 7.24129975e-001
      7.22840011e-001 1.36470005e-001 2.12559998e-001 1.83469996e-001
      1.61669999e-001 1.87099993e-001 1.20240003e-001 8.38709995e-002
      9.45120007e-002 9.96560007e-002 1.59219995e-001 1.62770003e-001
      2.31419995e-001 2.31419995e-001 2.31419995e-001 1.21359996e-001
      1.00110002e-001 1.05549999e-001 1.24789998e-001 2.31419995e-001
      2.31419995e-001 2.31419995e-001 1.93299994e-001 1.52590007e-001
      9.56270024e-002 1.26279995e-001 1.71220005e-001 1.73179999e-001
      1.36759996e-001 2.31419995e-001 2.31419995e-001 2.31419995e-001
      1.52940005e-001 7.39599988e-002 7.04379976e-002 8.13369974e-002
      9.61190015e-002 2.37500000e+000 1.73230007e-001 8.87319982e-001 0.
      0. 0. 0. 0. 0. 0. 0. 0. 0. 0. 0. 0. 0. 0. 0. 0. 4.95169982e-002
      4.83090011e-003 2.41550012e-003 1.32849999e-002 0. 0. 0.
      3.14010009e-002 5.55559993e-002 1.32849999e-002 3.86469997e-002
      5.43479994e-002 4.22709994e-002 1.08700003e-002 8.45410004e-002
      5.99030018e-001 1.73299998e-001 6.81819990e-002 2.84090010e-003
      7.10230023e-002 2.84090010e-003 1.42049999e-003 5.68180019e-003
      7.10230023e-002 5.82390018e-002 1.70460008e-002 2.41480004e-002
      5.68180010e-002 2.69889999e-002 7.10229995e-003 3.83520015e-002
      3.75000000e-001 1.33750007e-001 2.62499992e-002 3.74999992e-003
      2.37499997e-002 1.24999997e-003 1.24999997e-003 1.24999997e-003
      5.49999997e-002 1.09999999e-001 9.99999978e-003 2.12500002e-002
      5.75000010e-002 1.99999996e-002 8.75000004e-003 3.12500000e-002
      4.95000005e-001 6.27189994e-001 3.16610008e-001 4.36530001e-002
      1.05370004e-002 2.00699992e-003 0.</_>
    <_>
      1.30610004e-001 9.97730017e-001 9.91890013e-001 9.82550025e-001
      9.70220029e-001 9.55020010e-001 9.37420011e-001 9.18269992e-001
      8.97849977e-001 8.76810014e-001 8.55359972e-001 8.34259987e-001
      8.13859999e-001 7.94489980e-001 7.76700020e-001 7.60839999e-001
      7.47439981e-001 7.36609995e-001 7.28739977e-001 7.23930001e-001
      7.22289979e-001 7.34139979e-003 5.32699982e-003 3.11660003e-002
      1.01620004e-001 3.16890001e-001 3.16890001e-001 1.06729999e-001
      2.93649994e-002 4.34789993e-003 2.02389993e-002 1.69200003e-002
      1.00210004e-001 2.27009997e-001 3.16890001e-001 3.16890001e-001
      5.06099984e-002 1.36700002e-002 5.53500000e-003 4.38770019e-002
      2.36920007e-002 4.51069996e-002 7.54880011e-002 3.16890001e-001
      3.16890001e-001 1.92029998e-001 7.61210024e-002 2.56110001e-002
      6.49359971e-002 3.85500006e-002 9.43159983e-002 1.75559998e-001
      3.16890001e-001 2.88089991e-001 1.36289999e-001 6.16380014e-002
      2.92610005e-002 1.72220004e+000 1.58419997e-001 8.97319973e-001 0.
      0. 0. 0. 0. 0. 0. 0. 0. 0. 0. 0. 0. 0. 0. 0. 0. 3.36700007e-002
      4.20880009e-004 0. 5.89230005e-003 8.41750007e-004 4.20880009e-004
      2.52530002e-003 2.48319991e-002 3.87209989e-002 1.26259995e-003
      1.51519999e-002 3.07240002e-002 3.83000001e-002 2.10439996e-003
      3.19870003e-002 7.73140013e-001 1.32379994e-001 1.52380001e-002
      3.80950002e-003 2.66670007e-002 9.52380011e-004 9.52380011e-004
      9.52380011e-004 1.40949994e-001 1.07620001e-001 1.90479998e-002
      3.33329998e-002 4.85710017e-002 1.14289997e-002 1.14289997e-002
      1.90479998e-002 4.27619994e-001 1.03639998e-001 6.06059982e-003
      3.03029991e-003 9.09090042e-003 6.06060028e-004 6.06060028e-004
      3.03029991e-003 7.03030005e-002 1.29700005e-001 1.45450002e-002
      2.90910006e-002 3.87879983e-002 2.90910006e-002 1.69699993e-002
      2.60610003e-002 5.19389987e-001 5.43990016e-001 2.61079997e-001
      1.34029999e-001 4.25669998e-002 1.65899992e-002 1.74630003e-003</_>
    <_>
      2.69729998e-002 9.97539997e-001 9.93460000e-001 9.88080025e-001
      9.80490029e-001 9.71819997e-001 9.62490022e-001 9.52390015e-001
      9.41569984e-001 9.30050015e-001 9.17400002e-001 9.04179990e-001
      8.91080022e-001 8.78650010e-001 8.67179990e-001 8.56909990e-001
      8.49129975e-001 8.43500018e-001 8.39030027e-001 8.36700022e-001
      8.36549997e-001 1.06570004e-002 7.91690033e-003 2.94889993e-004
      8.98330018e-006 4.90319990e-002 2.87200004e-001 2.87200004e-001
      2.23049998e-001 2.99769994e-002 1.97870001e-001 2.49320000e-001
      8.93110037e-002 3.66920009e-002 2.21129991e-002 2.83589989e-001
      2.87200004e-001 2.14059994e-001 1.41389996e-001 1.77650005e-002
      1.33330002e-002 7.44530000e-003 1.10440003e-003 4.48059998e-002
      2.33700007e-001 2.87200004e-001 1.77520007e-001 4.36119996e-002
      1.61070004e-001 1.38630003e-001 6.90329969e-002 1.02340002e-002
      8.53510015e-003 1.01870000e-001 2.87200004e-001 2.87200004e-001
      2.01440006e-001 1.70829999e+000 2.32559994e-001 8.90630007e-001
      8.49969959e+000 7.87980035e-002 1.19049996e-002 1.13380002e-003
      1.75739992e-002 1.13380002e-003 0. 3.96829983e-003 4.87530008e-002
      8.61679986e-002 1.53059997e-002 2.66440008e-002 3.68480012e-002
      4.36509997e-002 1.41719999e-002 7.82309994e-002 5.35719991e-001
      1.53929994e-001 3.15609984e-002 4.98339999e-003 2.87929997e-002
      1.66109996e-003 1.10740005e-003 4.42969985e-003 3.76520008e-002
      8.80400017e-002 2.87929997e-002 2.65779998e-002 4.15280014e-002
      3.10079996e-002 1.49499997e-002 3.04540005e-002 4.74519998e-001
      1.36720002e-001 1.56250000e-001 0. 4.41410005e-001 0. 0. 0.
      6.25000000e-002 0. 0. 1.56250000e-002 1.32809997e-001 0. 0. 0.
      5.46879992e-002 3.49210016e-002 1.58729998e-003 5.29100012e-004
      2.64550000e-003 5.29100012e-004 0. 1.58729998e-003 1.17990002e-001
      1.57140002e-001 6.87830010e-003 2.32800003e-002 2.80419998e-002
      2.69840006e-002 4.76189982e-003 2.11640000e-002 5.71959972e-001
      3.76289994e-001 2.47160003e-001 1.48599997e-001 1.01340003e-001
      9.55270007e-002 3.10839992e-002</_>
    <_>
      2.93760002e-002 9.87800002e-001 9.77500021e-001 9.62390006e-001
      9.48019981e-001 9.31039989e-001 9.15449977e-001 9.03339982e-001
      8.90659988e-001 8.80970001e-001 8.68110001e-001 8.57020020e-001
      8.45439970e-001 8.37350011e-001 8.29980016e-001 8.23289990e-001
      8.22420001e-001 8.19389999e-001 8.20550025e-001 8.19729984e-001
      8.23350012e-001 1.12429999e-001 1.08589999e-001 6.70109987e-002
      5.80429994e-002 2.62309998e-001 2.62309998e-001 1.31190002e-001
      1.44439995e-001 1.61919996e-001 2.62309998e-001 2.62309998e-001
      2.37499997e-001 2.56969988e-001 2.62309998e-001 2.27970004e-001
      2.02859998e-001 2.62309998e-001 2.62309998e-001 2.70639993e-002
      3.95190008e-002 6.94729984e-002 8.92079994e-002 2.62309998e-001
      1.82510003e-001 5.16729988e-002 3.49749997e-002 3.03119998e-002
      5.50489984e-002 7.19750002e-002 1.15120001e-001 1.00400001e-001
      1.76970005e-001 8.71570036e-002 6.74749985e-002 5.63639998e-002
      5.82519993e-002 2.87500000e+000 2.13589996e-001 8.86960030e-001 0.
      0. 0. 0. 0. 0. 0. 0. 0. 0. 0. 0. 0. 0. 0. 0. 0. 1.89820006e-001
      1.38889998e-002 2.31479993e-003 1.85189992e-002 2.31479993e-003
      4.62959986e-003 4.62959986e-003 1.08800001e-001 1.82870001e-001
      6.94439979e-003 3.24070007e-002 6.94440007e-002 2.08330005e-002
      9.25930031e-003 3.00929993e-002 3.03240001e-001 1.29629999e-001
      5.55559993e-002 0. 1.20370001e-001 0. 0. 0. 8.33330005e-002
      5.55559993e-002 9.25930031e-003 1.01850003e-001 1.38889998e-001
      1.85189992e-002 9.25930031e-003 2.77779996e-002 2.50000000e-001
      1.42309994e-001 1.92309998e-003 5.76920016e-003 5.76920016e-003
      1.92309998e-003 0. 1.92309998e-003 1.07689999e-001 2.73079991e-001
      1.73080005e-002 5.76919988e-002 5.19229993e-002 4.61539999e-002
      1.92310009e-002 1.53850000e-002 2.51920015e-001 4.30530012e-001
      1.95069999e-001 1.80700004e-001 1.43050000e-001 4.44899984e-002
      6.16020011e-003</_>
    <_>
      1.91980004e-001 9.97950017e-001 9.93369997e-001 9.85970020e-001
      9.76790011e-001 9.65749979e-001 9.53540027e-001 9.40240026e-001
      9.26349998e-001 9.12289977e-001 8.98469985e-001 8.84930015e-001
      8.71800005e-001 8.59120011e-001 8.47109973e-001 8.36319983e-001
      8.26940000e-001 8.19369972e-001 8.13780010e-001 8.10360014e-001
      8.09249997e-001 1.46270007e-001 1.28999993e-001 1.62420005e-001
      2.48820007e-001 2.48820007e-001 2.48820007e-001 2.48820007e-001
      1.78279996e-001 9.97089967e-002 1.18249997e-001 1.31040007e-001
      1.17420003e-001 1.31760001e-001 2.04300001e-001 1.50000006e-001
      1.38540000e-001 7.17710033e-002 6.15639985e-002 1.49279997e-001
      1.15640000e-001 1.51060000e-001 2.48820007e-001 2.48820007e-001
      2.40630001e-001 2.41290003e-001 1.99670002e-001 1.40139997e-001
      7.45109990e-002 8.78669992e-002 1.36529997e-001 2.09000006e-001
      1.79710001e-001 9.11839977e-002 7.80889988e-002 6.34649992e-002
      6.91919997e-002 2.50000000e+000 1.79240003e-001 8.89829993e-001 0.
      0. 0. 0. 0. 0. 0. 0. 0. 0. 0. 0. 0. 0. 0. 0. 0. 4.93419990e-002 0.
      1.64469995e-003 6.57900004e-003 0. 0. 0. 4.93420009e-003
      1.00330003e-001 4.93420009e-003 4.60529998e-002 5.42760007e-002
      3.78290005e-002 9.86840017e-003 4.44080010e-002 6.39800012e-001
      1.62959993e-001 5.00000007e-002 7.40739983e-003 4.81479988e-002
      3.70369991e-003 1.85180001e-003 1.85180001e-003 1.18519999e-001
      1.24070004e-001 2.03699991e-002 4.25929986e-002 5.18519990e-002
      4.81479988e-002 1.66669991e-002 2.03699991e-002 2.81480014e-001
      1.15390003e-001 1.83149998e-003 0. 5.49450004e-003 0.
      1.83149998e-003 0. 4.76190001e-002 3.26009989e-001 1.28210001e-002
      4.02930006e-002 4.57880013e-002 2.93039996e-002 7.32599990e-003
      1.46519998e-002 3.51650000e-001 5.83270013e-001 1.84520006e-001
      1.61060005e-001 4.53479998e-002 2.26739999e-002 3.12740006e-003</_>
    <_>
      1.57839999e-001 9.98510003e-001 9.94260013e-001 9.87489998e-001
      9.78380024e-001 9.67170000e-001 9.54200029e-001 9.39779997e-001
      9.24300015e-001 9.08140004e-001 8.91700029e-001 8.75349998e-001
      8.59449983e-001 8.44370008e-001 8.30500007e-001 8.18189979e-001
      8.07730019e-001 7.99279988e-001 7.93099999e-001 7.89300025e-001
      7.88020015e-001 9.20760036e-002 9.12759975e-002 1.01340003e-001
      1.99090004e-001 2.72130013e-001 2.22340003e-001 1.50230005e-001
      1.27829999e-001 1.05800003e-001 1.23210000e-002 6.61930023e-003
      4.39740010e-002 2.72130013e-001 2.09040001e-001 5.21540008e-002
      2.17780005e-002 1.13740005e-002 1.56590007e-002 1.28639996e-001
      8.15839991e-002 1.03869997e-001 2.13650003e-001 2.72130013e-001
      2.72130013e-001 2.72130013e-001 2.72130013e-001 2.10529998e-001
      4.85320017e-002 1.33320004e-001 2.72130013e-001 2.72130013e-001
      1.72749996e-001 4.47859988e-002 7.91679993e-002 6.61009997e-002
      5.13579994e-002 4.38460016e+000 1.53029993e-001 8.97859991e-001 0.
      0. 0. 0. 0. 0. 0. 0. 0. 0. 0. 0. 0. 0. 0. 0. 0. 4.57319990e-002
      1.36299999e-002 1.25540001e-003 1.04019996e-002 0. 1.79340001e-004
      5.38019987e-004 3.65849994e-002 1.06710002e-001 2.02649999e-002
      1.48850000e-002 3.40749994e-002 3.01290005e-002 1.00429999e-002
      3.46120000e-002 6.40980005e-001 8.97499993e-002 3.90110016e-002
      3.31460009e-003 3.44210006e-002 5.09939971e-004 2.54969986e-004
      3.31460009e-003 9.33199972e-002 4.89550009e-002 8.15910008e-003
      1.83579996e-002 2.93220002e-002 1.07089998e-002 8.66900012e-003
      2.11629998e-002 5.90759993e-001 7.01759979e-002 1.07020000e-002
      2.28070002e-003 1.63160004e-002 8.77189974e-004 1.05259998e-003
      1.22810004e-003 6.59649968e-002 9.89470035e-002 7.36840023e-003
      1.61400009e-002 2.28070002e-002 1.56140001e-002 8.77190009e-003
      2.17540003e-002 6.39989972e-001 4.38849986e-001 3.12400013e-001
      1.35769993e-001 6.36539981e-002 3.58650014e-002 1.34619996e-002</_></support_vectors>
  <decision_functions>
    <_>
      <sv_count>40</sv_count>
      <rho>5.8214557412603574e-001</rho>
      <alpha>
        6.5350597179234509e+000 1.2509613315058637e+001
        5.0208677307422619e+001 1.0140204769986589e+002
        1.6212006100726904e+002 3.3007923038680214e+000
        8.0844230610953460e+001 7.4866983568271683e+000
        2.1806074634729665e+001 1.7613636329770088e+002
        4.7734000303596794e+001 1.0872572704034668e+002
        1.7613636329770088e+002 9.2050310153821968e+001
        3.4313526540335189e+001 1.3459360853880995e+001
        3.9163698216369674e+001 2.5170674660958728e+001
        1.1098868048124261e+001 1.7613636329770088e+002
        -1.3636363670229912e+002 -1.3636363670229912e+002
        -9.4233651011224964e+001 -5.4480936411339222e+001
        -5.1251439635195716e+001 -1.3636363670229912e+002
        -1.3636363670229912e+002 -6.5655332732747027e+001
        -1.3636363670229912e+002 -2.1120163561496078e+001
        -9.9742331594399385e+000 -4.0725015484001910e+000
        -3.0900353280424774e+001 -6.3000823281618999e+001
        -5.4497727340613684e+000 -1.2053506073838979e+002
        -4.0829737229240642e-001 -3.2117741985736068e+001
        -7.0177367023875760e+001 -4.1142652676716864e+001</alpha>
      <index>
        0 1 2 3 4 5 6 7 8 9 10 11 12 13 14 15 16 17 18 19 20 21 22 23 24
        25 26 27 28 29 30 31 32 33 34 35 36 37 38 39</index></_></decision_functions></my_svm>
</opencv_storage>
