<?xml version="1.0"?>
<opencv_storage>
<my_svm type_id="opencv-ml-svm">
  <svm_type>C_SVC</svm_type>
  <kernel><type>RBF</type>
    <gamma>5.0625000000000009e-001</gamma></kernel>
  <C>3.1250000000000000e+002</C>
  <term_criteria><epsilon>2.2204460492503131e-016</epsilon>
    <iterations>3000</iterations></term_criteria>
  <var_all>38</var_all>
  <var_count>38</var_count>
  <class_count>2</class_count>
  <class_labels type_id="opencv-matrix">
    <rows>1</rows>
    <cols>2</cols>
    <dt>i</dt>
    <data>
      -1 1</data></class_labels>
  <class_weights type_id="opencv-matrix">
    <rows>1</rows>
    <cols>2</cols>
    <dt>d</dt>
    <data>
      1.7387218773365021e+002 1.3862782157957554e+002</data></class_weights>
  <sv_total>50</sv_total>
  <support_vectors>
    <_>
      2.54237000e-002 1.26526996e-001 2.40000010e+000 5.49229002e+000
      8.89952004e-001 0. 0. 0. 0. 0. 0. 0. 0. 0. 0. 0. 0. 0. 0. 0. 0. 0.
      1.21211998e-001 5.15151992e-002 0. 6.06061006e-003 0. 0. 0.
      9.69697013e-002 1.60605997e-001 5.45454994e-002 0. 6.06061006e-003
      2.18181998e-001 9.09090973e-003 6.06061006e-003 2.69697011e-001</_>
    <_>
      2.74995007e-002 1.33127004e-001 3.42857003e+000 5.39778996e+000
      8.91026020e-001 0. 0. 0. 0. 0. 0. 0. 0. 0. 0. 0. 0. 0. 0. 0. 0. 0.
      6.94443984e-003 0. 0. 0. 0. 0. 0. 6.94443984e-003 1.94444999e-001
      2.08333004e-002 0. 1.38889002e-002 3.40278000e-001 6.94443984e-003
      1.38889002e-002 3.95832986e-001</_>
    <_>
      3.81563008e-002 1.28988996e-001 2. 5.81607008e+000 8.90909016e-001
      0. 0. 0. 0. 0. 0. 0. 0. 0. 0. 0. 0. 0. 0. 0. 0. 0. 4.90196003e-003
      0. 0. 0. 0. 0. 0. 1.47059001e-002 2.54902005e-001 0. 0. 0.
      3.82353008e-001 4.90196003e-003 4.41175997e-002 2.94117987e-001</_>
    <_>
      5.77777997e-002 1.24444000e-001 1.39999998e+000 2.96177006e+000
      8.50745976e-001 0. 0. 0. 0. 0. 0. 0. 0. 0. 0. 0. 0. 0. 0. 0. 0. 0.
      0. 0. 0. 3.33333015e-002 0. 0. 0. 6.66666999e-002 5.83333001e-002
      6.66666999e-002 0. 2.50000004e-002 3.66667002e-001 0.
      8.33333004e-003 3.75000000e-001</_>
    <_>
      4.69846018e-002 1.47733003e-001 2.09090996e+000 4.70073986e+000
      8.88889015e-001 0. 0. 0. 0. 0. 0. 0. 0. 0. 0. 0. 0. 0. 0. 0. 0. 0.
      1.77515000e-002 0. 0. 0. 0. 0. 0. 1.18343001e-002 1.83431998e-001
      0. 0. 5.91715984e-003 3.37278008e-001 1.18343001e-002
      2.95857992e-002 4.02366996e-001</_>
    <_>
      5.53984009e-002 1.83758005e-001 2. 3.33387995e+000 8.79999995e-001
      0. 0. 0. 0. 0. 0. 0. 0. 0. 0. 0. 0. 0. 0. 0. 0. 0. 2.80112005e-003
      2.80112005e-003 2.80112005e-003 0. 0. 0. 0. 1.96077991e-002
      9.52380970e-002 1.12044998e-002 0. 8.40335991e-003 3.44538003e-001
      1.12044998e-002 7.56302997e-002 4.25770015e-001</_>
    <_>
      4.21518013e-002 1.30414993e-001 1.71429002e+000 4.99105978e+000
      8.90829980e-001 0. 0. 0. 0. 0. 0. 0. 0. 0. 0. 0. 0. 0. 0. 0. 0. 0.
      1.22152999e-001 5.79710007e-002 2.07038992e-003 6.00414015e-002 0.
      0. 2.07038992e-003 9.10973996e-002 4.34782989e-002 3.31262983e-002
      0. 2.07039006e-002 1.82194993e-001 8.28156993e-003 4.14079009e-003
      3.72671008e-001</_>
    <_>
      7.19588995e-002 9.93717983e-002 1.87500000e+000 6.01973009e+000
      8.42697024e-001 0. 0. 0. 0. 0. 0. 0. 0. 0. 0. 0. 0. 0. 0. 0. 0. 0.
      2.30768993e-002 3.07691991e-002 0. 4.61537987e-002 0. 0. 0.
      7.69231021e-002 4.61537987e-002 1.53845996e-002 7.69231003e-003
      1.53845996e-002 3.53846014e-001 3.07691991e-002 7.69231003e-003
      3.46154004e-001</_>
    <_>
      2.62292996e-002 1.41369998e-001 2.33332992e+000 7.16396999e+000
      8.96440029e-001 0. 0. 0. 0. 0. 0. 0. 0. 0. 0. 0. 0. 0. 0. 0. 0. 0.
      1.14943003e-002 0. 2.29885010e-003 0. 0. 0. 2.29885010e-003
      2.75861993e-002 1.90804005e-001 4.59770020e-003 2.29885010e-003
      2.29885010e-003 2.34482005e-001 6.89654984e-003 2.52874009e-002
      4.89656001e-001</_>
    <_>
      2.97752991e-002 1.47253007e-001 2.61538005e+000 6.44504023e+000
      8.93877983e-001 0. 0. 0. 0. 0. 0. 0. 0. 0. 0. 0. 0. 0. 0. 0. 0. 0.
      7.46667013e-002 1.60000008e-002 0. 2.66666990e-003 0. 0.
      2.66666990e-003 8.00000038e-003 1.41332999e-001 2.40000002e-002 0.
      1.33333001e-002 2.24000007e-001 2.66666990e-003 2.93333009e-002
      4.61331993e-001</_>
    <_>
      3.74036990e-002 1.37513995e-001 1.33333004e+000 3.18308997e+000
      8.75000000e-001 0. 0. 0. 0. 0. 0. 0. 0. 0. 0. 0. 0. 0. 0. 0. 0. 0.
      3.06122005e-002 1.02041001e-002 1.02041001e-002 4.08162996e-002 0.
      0. 1.02041001e-002 3.06122005e-002 5.10203987e-002 1.02041001e-002
      0. 0. 5.51020026e-001 0. 6.12245016e-002 1.93877995e-001</_>
    <_>
      8.30388963e-002 1.37366995e-001 2.22221994e+000 4.58170986e+000
      8.33333015e-001 0. 0. 0. 0. 0. 0. 0. 0. 0. 0. 0. 0. 0. 0. 0. 0. 0.
      5.95238013e-003 0. 0. 4.76190001e-002 0. 0. 0. 7.73809999e-002
      1.01190001e-001 2.38095000e-002 0. 2.38095000e-002 3.45238000e-001
      0. 4.76190001e-002 3.27381015e-001</_>
    <_>
      3.68841998e-002 1.40314996e-001 2.45455003e+000 6.35060978e+000
      8.91089022e-001 0. 0. 0. 0. 0. 0. 0. 0. 0. 0. 0. 0. 0. 0. 0. 0. 0.
      1.58730000e-002 3.96825001e-003 0. 1.19048003e-002 0. 0. 0.
      1.58730000e-002 2.57937014e-001 7.93651026e-003 0. 3.96825001e-003
      2.81746000e-001 7.93651026e-003 2.38095000e-002 3.69047999e-001</_>
    <_>
      4.06161994e-002 9.55881998e-002 2. 4.08166981e+000 8.85416985e-001
      0. 0. 0. 0. 0. 0. 0. 0. 0. 0. 0. 0. 0. 0. 0. 0. 0. 3.63636017e-002
      6.36363998e-002 0. 9.09090973e-003 0. 0. 0. 4.54544984e-002
      8.18182006e-002 5.45454994e-002 0. 2.72726994e-002 3.54544997e-001
      0. 2.72726994e-002 3.00000012e-001</_>
    <_>
      3.64606008e-002 1.36727005e-001 1.25000000e+001 4.90885019e+000
      8.85496020e-001 0. 0. 0. 0. 0. 0. 0. 0. 0. 0. 0. 0. 0. 0. 0. 0. 0.
      5.95238013e-003 0. 0. 5.95238013e-003 0. 0. 0. 2.97618993e-002
      6.54762015e-002 1.19048003e-002 0. 0. 3.45238000e-001 0.
      4.76190001e-002 4.88095999e-001</_>
    <_>
      4.37431000e-002 1.19158000e-001 2.05882001e+000 3.87262988e+000
      8.95349026e-001 0. 0. 0. 0. 0. 0. 0. 0. 0. 0. 0. 0. 0. 0. 0. 0. 0.
      6.57439008e-002 1.03805996e-002 0. 1.03805996e-002 0. 0.
      6.92042010e-003 5.88234998e-002 1.45328999e-001 6.92042010e-003 0.
      6.92042010e-003 2.62975991e-001 1.38408002e-002 7.61244968e-002
      3.35640013e-001</_>
    <_>
      5.40136993e-002 1.64428994e-001 1.76923001e+000 4.22186995e+000
      8.85713995e-001 0. 0. 0. 0. 0. 0. 0. 0. 0. 0. 0. 0. 0. 0. 0. 0. 0.
      6.49351021e-003 0. 0. 6.49351021e-003 0. 0. 0. 0. 3.89610007e-002
      3.24674994e-002 0. 3.24674994e-002 4.09090996e-001 6.49351021e-003
      6.49351031e-002 4.02597994e-001</_>
    <_>
      1.30070001e-001 1.23388000e-001 1.52173996e+000 3.63316989e+000
      8.24818015e-001 0. 0. 0. 0. 0. 0. 0. 0. 0. 0. 0. 0. 0. 0. 0. 0. 0.
      1.13636004e-002 4.87013021e-003 1.62338000e-003 3.24674998e-003 0.
      0. 0. 1.94805004e-002 7.62986988e-002 3.08442004e-002
      8.11688043e-003 3.08442004e-002 2.04546005e-001 9.74026043e-003
      4.05844003e-002 5.58440030e-001</_>
    <_>
      4.88196015e-002 1.60302997e-001 2.14285994e+000 5.22678995e+000
      8.94410014e-001 0. 0. 0. 0. 0. 0. 0. 0. 0. 0. 0. 0. 0. 0. 0. 0. 0.
      1.95313003e-002 0. 3.90625000e-003 7.81250000e-003 0. 0. 0.
      4.68750000e-002 2.03125000e-001 3.90625000e-003 3.90625000e-003
      7.81250000e-003 2.85156012e-001 1.17188003e-002 3.51562984e-002
      3.71093988e-001</_>
    <_>
      5.03024012e-002 1.19782001e-001 1.66666996e+000 6.76195002e+000
      8.91753018e-001 0. 0. 0. 0. 0. 0. 0. 0. 0. 0. 0. 0. 0. 0. 0. 0. 0.
      0. 0. 0. 0. 0. 0. 0. 1.33333001e-002 1.70000002e-001
      6.66667009e-003 0. 3.33332992e-003 2.66667008e-001 3.33332992e-003
      5.33333011e-002 4.83332992e-001</_>
    <_>
      4.01312001e-002 1.12387002e-001 3.05262995e+000 2.27200007e+000
      8.92616987e-001 0. 0. 0. 0. 0. 0. 0. 0. 0. 0. 0. 0. 0. 0. 0. 0. 0.
      0. 0. 0. 2.91667003e-002 0. 0. 1.25000002e-002 7.29167014e-002
      1.45832999e-002 0. 0. 6.25000009e-003 3.12500000e-001
      2.08332995e-003 2.58332998e-001 2.91666001e-001</_>
    <_>
      3.62131000e-002 1.23641998e-001 2.71428990e+000 5.01686001e+000
      8.90110016e-001 0. 0. 0. 0. 0. 0. 0. 0. 0. 0. 0. 0. 0. 0. 0. 0. 0.
      0. 0. 0. 0. 0. 0. 0. 0. 2.36111000e-001 0. 0. 0. 4.30555999e-001
      0. 1.38889002e-002 3.19445014e-001</_>
    <_>
      3.70003991e-002 1.34588003e-001 1.94117999e+000 5.79449987e+000
      8.95455003e-001 0. 0. 0. 0. 0. 0. 0. 0. 0. 0. 0. 0. 0. 0. 0. 0. 0.
      1.60428006e-002 5.34758996e-003 0. 5.34758996e-003 0. 0. 0.
      8.02139007e-003 2.11229995e-001 1.06952004e-002 2.67380010e-003
      1.33689996e-002 3.60962987e-001 5.34758996e-003 4.01070006e-002
      3.20856005e-001</_>
    <_>
      1.24831997e-001 1.20341003e-001 2.44443989e+000 4.34389019e+000
      7.80219972e-001 0. 0. 0. 0. 0. 0. 0. 0. 0. 0. 0. 0. 0. 0. 0. 0. 0.
      1.28204999e-002 8.54700990e-003 0. 3.41879986e-002 0. 0. 0.
      9.40171033e-002 1.45299003e-001 4.27349983e-003 4.27349983e-003
      1.28204999e-002 2.69230992e-001 1.28204999e-002 8.11965987e-002
      3.20513010e-001</_>
    <_>
      3.35450992e-002 1.46887004e-001 2.59999990e+000 6.57952976e+000
      8.90411019e-001 0. 0. 0. 0. 0. 0. 0. 0. 0. 0. 0. 0. 0. 0. 0. 0. 0.
      1.58102997e-002 7.90513959e-003 0. 3.95256979e-003 0. 0. 0.
      3.95256979e-003 2.52963990e-001 7.90513959e-003 0. 0.
      2.92490005e-001 3.95256979e-003 0. 4.11067009e-001</_>
    <_>
      1.10811003e-001 4.32431996e-002 1.42857003e+000 3.57640004e+000
      8.28571022e-001 0. 0. 0. 0. 0. 0. 0. 0. 0. 0. 0. 0. 0. 0. 0. 0. 0.
      0. 0. 0. 0. 0. 0. 0. 2.50000004e-002 1.74999997e-001 0. 0. 0.
      6.25000000e-001 0. 5.00000007e-002 1.25000000e-001</_>
    <_>
      2.34482996e-002 1.33862004e-001 4.59999990e+000 2.18903995e+000
      8.91565979e-001 0. 0. 0. 0. 0. 0. 0. 0. 0. 0. 0. 0. 0. 0. 0. 0. 0.
      5.09804003e-002 1.96077991e-002 7.84313958e-003 1.96077991e-002 0.
      0. 3.92156979e-003 7.84313977e-002 1.92157000e-001 1.17646996e-002
      0. 3.92156979e-003 2.94117987e-001 3.92156979e-003 1.01961002e-001
      2.11765006e-001</_>
    <_>
      4.22422998e-002 1.62327006e-001 2.59999990e+000 5.16955996e+000
      8.81889999e-001 0. 0. 0. 0. 0. 0. 0. 0. 0. 0. 0. 0. 0. 0. 0. 0. 0.
      7.14285970e-002 0. 0. 2.97618993e-002 0. 5.95238013e-003
      5.95238013e-003 8.92857015e-002 1.42857000e-001 5.95238013e-003 0.
      0. 3.57143015e-001 0. 3.57142985e-002 2.55953014e-001</_>
    <_>
      4.05857004e-002 1.69791996e-001 2.09999990e+000 6.34191990e+000
      8.84891987e-001 0. 0. 0. 0. 0. 0. 0. 0. 0. 0. 0. 0. 0. 0. 0. 0. 0.
      5.45454994e-002 1.21211996e-002 6.06061006e-003 6.06061006e-003 0.
      0. 0. 3.63636017e-002 1.81817994e-001 3.63636017e-002 0. 0.
      3.39394003e-001 6.06061006e-003 3.03029995e-002 2.90908992e-001</_>
    <_>
      3.89920995e-002 1.25437006e-001 2.40909004e+000 2.50294995e+000
      8.84353995e-001 0. 0. 0. 0. 0. 0. 0. 0. 0. 0. 0. 0. 0. 0. 0. 0. 0.
      4.54545990e-002 0. 0. 1.13636004e-002 2.84091011e-003 0.
      8.52273032e-003 9.09091011e-002 1.87500000e-001 1.13636004e-002
      1.13636004e-002 0. 2.72727013e-001 1.13636004e-002 1.13636002e-001
      2.32953995e-001</_>
    <_>
      4.49891016e-002 1.32461995e-001 2. 3.90976000e+000 8.83720994e-001
      0. 0. 0. 0. 0. 0. 0. 0. 0. 0. 0. 0. 0. 0. 0. 0. 0. 5.81717007e-002
      3.04709002e-002 8.31025001e-003 1.38504002e-002 0. 0.
      2.77008000e-003 2.49307007e-002 1.41274005e-001 8.31025001e-003
      8.31025001e-003 5.54016978e-003 3.26869994e-001 1.10803004e-002
      5.26316017e-002 3.07478994e-001</_>
    <_>
      6.63354993e-002 1.40065998e-001 2.42857003e+000 4.88284016e+000
      8.82353008e-001 0. 0. 0. 0. 0. 0. 0. 0. 0. 0. 0. 0. 0. 0. 0. 0. 0.
      1.18095003e-001 7.61904987e-003 1.90476002e-003 1.33333001e-002
      1.90476002e-003 0. 7.61904987e-003 1.04762003e-001 6.85714036e-002
      1.14286002e-002 7.61904987e-003 9.52380989e-003 2.45713994e-001
      1.33333001e-002 1.14285998e-001 2.74284989e-001</_>
    <_>
      4.66200002e-002 1.43123999e-001 2.12500000e+000 5.78018999e+000
      8.85416985e-001 0. 0. 0. 0. 0. 0. 0. 0. 0. 0. 0. 0. 0. 0. 0. 0. 0.
      1.25000002e-002 0. 0. 0. 0. 0. 0. 0. 2.50000000e-001 0. 0. 0.
      4.37500000e-001 0. 3.75000015e-002 2.62499988e-001</_>
    <_>
      5.23540005e-002 1.72494993e-001 2.40000010e+000 6.64053011e+000
      8.85349989e-001 0. 0. 0. 0. 0. 0. 0. 0. 0. 0. 0. 0. 0. 0. 0. 0. 0.
      3.92156988e-002 9.80392005e-003 0. 9.80392005e-003 0. 0. 0.
      1.96077991e-002 1.32352993e-001 4.90196003e-003 0. 9.80392005e-003
      2.74509996e-001 1.47059001e-002 1.96077991e-002 4.65687007e-001</_>
    <_>
      1.40442997e-001 1.64801002e-001 1.91666996e+000 7.86599016e+000
      8.57142985e-001 0. 0. 0. 0. 0. 0. 0. 0. 0. 0. 0. 0. 0. 0. 0. 0. 0.
      1.44445002e-001 6.66667009e-003 4.44443990e-003 2.44443994e-002
      2.22221995e-003 0. 2.22221995e-003 8.88888985e-002 1.24444999e-001
      1.33333001e-002 4.44443990e-003 6.66667009e-003 2.28889003e-001
      4.44443990e-003 1.11111000e-001 2.33334005e-001</_>
    <_>
      8.06258023e-002 1.47413000e-001 1.25000000e+000 5.55852985e+000
      8.75000000e-001 0. 0. 0. 0. 0. 0. 0. 0. 0. 0. 0. 0. 0. 0. 0. 0. 0.
      2.56409999e-002 0. 0. 0. 0. 0. 0. 8.54700990e-003 2.64957011e-001
      0. 0. 0. 3.76067996e-001 0. 3.41879986e-002 2.90598005e-001</_>
    <_>
      5.86917996e-002 1.70250997e-001 1.50000000e+000 4.35247993e+000
      8.84298027e-001 0. 0. 0. 0. 0. 0. 0. 0. 0. 0. 0. 0. 0. 0. 0. 0. 0.
      9.61538032e-003 4.80769016e-003 0. 0. 0. 0. 0. 2.88462006e-002
      1.87500000e-001 4.80769016e-003 4.80769016e-003 4.80769016e-003
      2.59615004e-001 4.80769016e-003 1.92307997e-002 4.71152991e-001</_>
    <_>
      5.55397011e-002 1.50777996e-001 2. 5.87080002e+000 8.84443998e-001
      0. 0. 0. 0. 0. 0. 0. 0. 0. 0. 0. 0. 0. 0. 0. 0. 0. 1.18095003e-001
      4.95238006e-002 1.90476002e-003 6.47618994e-002 0. 0.
      1.90476002e-003 1.58095002e-001 9.14286003e-002 1.52380997e-002
      3.80952004e-003 1.52380997e-002 1.79048002e-001 9.52380989e-003
      9.52380989e-003 2.81904012e-001</_>
    <_>
      3.60587984e-002 1.47202998e-001 2.38461995e+000 5.55080986e+000
      8.90173018e-001 0. 0. 0. 0. 0. 0. 0. 0. 0. 0. 0. 0. 0. 0. 0. 0. 0.
      7.23982006e-002 0. 0. 0. 0. 0. 0. 1.80994999e-002 2.08144993e-001
      0. 0. 4.52488987e-003 2.80543000e-001 0. 2.71492992e-002
      3.89140010e-001</_>
    <_>
      3.80682014e-002 1.52841002e-001 3.22221994e+000 4.66792011e+000
      8.88158023e-001 0. 0. 0. 0. 0. 0. 0. 0. 0. 0. 0. 0. 0. 0. 0. 0. 0.
      6.25000000e-002 6.25000009e-003 0. 4.37499993e-002 0. 0.
      6.25000009e-003 5.00000007e-002 1.74999997e-001 2.50000004e-002 0.
      6.25000009e-003 3.68750006e-001 0. 4.37499993e-002 2.12500006e-001</_>
    <_>
      3.01804002e-002 1.78660005e-001 3.09999990e+000 6.52313995e+000
      8.96395981e-001 0. 0. 0. 0. 0. 0. 0. 0. 0. 0. 0. 0. 0. 0. 0. 0. 0.
      3.71900983e-002 6.19834987e-003 2.06612004e-003 1.13636004e-002 0.
      0. 1.03306002e-003 5.88843003e-002 2.38636002e-001 1.75620001e-002
      6.19834987e-003 8.26445967e-003 1.84917003e-001 1.13636004e-002
      5.99173009e-002 3.56404990e-001</_>
    <_>
      5.77250011e-002 9.16808024e-002 1.29999995e+000 3.00934005e+000
      8.37837994e-001 0. 0. 0. 0. 0. 0. 0. 0. 0. 0. 0. 0. 0. 0. 0. 0. 0.
      8.88888985e-002 2.22222004e-002 0. 0. 0. 0. 0. 1.11111000e-001
      6.66666999e-002 2.22222004e-002 2.22222004e-002 0. 5.33333004e-001
      2.22222004e-002 0. 1.11111000e-001</_>
    <_>
      5.89376017e-002 1.58800006e-001 2.20832992e+000 5.47353983e+000
      8.90845001e-001 0. 0. 0. 0. 0. 0. 0. 0. 0. 0. 0. 0. 0. 0. 0. 0. 0.
      7.51231983e-002 7.75863007e-002 3.69457994e-003 1.69951007e-001
      1.23152998e-003 0. 2.46304995e-003 1.57635003e-001 7.38916993e-002
      2.58620996e-002 0. 2.21675001e-002 1.37931004e-001 2.46304995e-003
      4.92611015e-003 2.45073006e-001</_>
    <_>
      3.63580994e-002 1.02862999e-001 2.21428990e+000 3.35246992e+000
      8.78570974e-001 0. 0. 0. 0. 0. 0. 0. 0. 0. 0. 0. 0. 0. 0. 0. 0. 0.
      1.38393000e-001 0. 0. 4.46429010e-003 0. 4.46429010e-003 0.
      8.03570971e-002 1.69643000e-001 8.92856997e-003 0. 0.
      2.63393015e-001 0. 5.35713993e-002 2.76786000e-001</_>
    <_>
      4.77537997e-002 1.63623005e-001 2.66667008e+000 4.78317022e+000
      8.75000000e-001 0. 0. 0. 0. 0. 0. 0. 0. 0. 0. 0. 0. 0. 0. 0. 0. 0.
      1.51709005e-001 3.20512988e-002 6.41026022e-003 5.98291010e-002
      2.13674991e-003 0. 8.54700990e-003 1.79487005e-001 5.98291010e-002
      8.54700990e-003 0. 8.54700990e-003 1.90171003e-001 8.54700990e-003
      1.28204999e-002 2.71367997e-001</_>
    <_>
      9.63281989e-002 1.39180005e-001 2.79999995e+000 4.03782988e+000
      8.40426028e-001 2.00677007e-001 0. 0. 0. 0. 0. 0. 0. 0.
      4.99999989e-003 0. 0. 2.49999994e-003 1.89999998e-001 0.
      2.99999993e-002 7.72499025e-001 5.30302003e-002 1.26262996e-002
      2.52524996e-003 1.96969993e-002 5.05050994e-004 0. 1.51514995e-003
      1.08080998e-001 1.03534997e-001 7.57576013e-003 1.51514995e-003
      7.57576013e-003 2.18180999e-001 4.54545999e-003 1.25253007e-001
      3.33838999e-001</_>
    <_>
      4.92396988e-002 1.49891004e-001 2.22221994e+000 4.43299007e+000
      8.88889015e-001 0. 0. 0. 0. 0. 0. 0. 0. 0. 0. 0. 0. 0. 0. 0. 0. 0.
      9.09090973e-003 0. 0. 0. 0. 0. 0. 4.54544984e-002 2.27273002e-001
      0. 0. 0. 4.00000006e-001 0. 4.54544984e-002 2.72727013e-001</_>
    <_>
      9.11030024e-002 1.37419000e-001 2. 4.13044977e+000 8.54237020e-001
      0. 0. 0. 0. 0. 0. 0. 0. 0. 0. 0. 0. 0. 0. 0. 0. 0. 4.76191007e-002
      5.01252990e-003 6.26566005e-004 6.26565982e-003 1.25313003e-003 0.
      6.26566005e-004 3.19548994e-002 1.21554002e-001 5.01252990e-003
      1.25313003e-003 3.75939999e-003 2.21176997e-001 6.26566005e-004
      1.41604006e-001 4.11653012e-001</_>
    <_>
      5.81156015e-002 1.39807001e-001 2.22221994e+000 4.07871008e+000
      8.81772995e-001 0. 0. 0. 0. 0. 0. 0. 0. 0. 0. 0. 0. 0. 0. 0. 0. 0.
      3.04348003e-002 2.02898998e-002 1.44927995e-003 1.26086995e-001
      1.44927995e-003 0. 2.89854989e-003 2.27535993e-001 8.69565010e-002
      8.69564991e-003 0. 1.88405998e-002 1.88406006e-001 4.34783008e-003
      1.73912998e-002 2.65217006e-001</_>
    <_>
      5.87196015e-002 1.11699998e-001 2.11110997e+000 5.48361015e+000
      8.72340024e-001 0. 0. 0. 0. 0. 0. 0. 0. 0. 0. 0. 0. 0. 0. 0. 0. 0.
      1.65289007e-002 0. 0. 0. 0. 0. 0. 2.47933995e-002 3.22313994e-001
      0. 0. 0. 3.55372012e-001 0. 4.13222983e-002 2.39668995e-001</_></support_vectors>
  <decision_functions>
    <_>
      <sv_count>50</sv_count>
      <rho>1.6509633016216465e+000</rho>
      <alpha>
        1.7387218773365021e+002 9.5653138336260763e+000
        1.7387218773365021e+002 1.9247343650734056e+001
        1.0476665272391877e+002 1.7851127626675700e+000
        1.8170181889144807e+001 3.8442756958236622e+001
        3.5171286530640657e+001 7.9068839337192657e+001
        4.7716897076112012e+001 1.0758493205749065e+001
        8.3175084258429521e+001 7.1518104045768709e+001
        2.6442910268999036e+000 1.7387218773365021e+002
        3.2711621068683567e+000 1.6680630456887482e+000
        2.0357002238691955e+001 1.0530496814779996e+001
        4.8897724465155905e+000 4.1703806952211153e+001
        8.9717163692431825e+001 1.1995163069772902e+002
        4.1087873753136506e+001 2.0386400724941495e+001
        -4.3621207338294782e-001 -1.6777058669907756e+001
        -7.8583327670082056e+001 -1.5163602077965390e+000
        -1.3862782157957554e+002 -2.9586559211617601e+001
        -1.3862782157957554e+002 -1.3862782157957554e+002
        -3.5129858842630886e+000 -2.4384217835247703e+001
        -9.2697331005124859e+000 -7.3785947494701844e+001
        -1.3862782157957554e+002 -1.6174720656008226e+001
        -4.4666806249608101e+001 -6.5153224063534395e+001
        -2.1420664571205350e+001 -2.1680163779234366e+001
        -4.6938503713951370e+001 -2.3696463132593126e+000
        -1.1111299458003140e+002 -1.3862782157957554e+002
        -2.7318817744537917e+001 -1.0938324125630527e+002</alpha>
      <index>
        0 1 2 3 4 5 6 7 8 9 10 11 12 13 14 15 16 17 18 19 20 21 22 23 24
        25 26 27 28 29 30 31 32 33 34 35 36 37 38 39 40 41 42 43 44 45
        46 47 48 49</index></_></decision_functions></my_svm>
</opencv_storage>
