<?xml version="1.0"?>
<opencv_storage>
<my_svm type_id="opencv-ml-svm">
  <svm_type>C_SVC</svm_type>
  <kernel><type>RBF</type>
    <gamma>5.0625000000000009e-01</gamma></kernel>
  <C>3.1250000000000000e+02</C>
  <term_criteria><epsilon>2.2204460492503131e-16</epsilon>
    <iterations>3000</iterations></term_criteria>
  <var_all>131</var_all>
  <var_count>131</var_count>
  <class_count>2</class_count>
  <class_labels type_id="opencv-matrix">
    <rows>1</rows>
    <cols>2</cols>
    <dt>i</dt>
    <data>
      -1 1</data></class_labels>
  <class_weights type_id="opencv-matrix">
    <rows>1</rows>
    <cols>2</cols>
    <dt>d</dt>
    <data>
      1.0697306133806705e+02 2.0552694797515869e+02</data></class_weights>
  <sv_total>130</sv_total>
  <support_vectors>
    <_>
      1.31590426e-01 9.97380435e-01 9.92592096e-01 9.85994935e-01
      9.77734983e-01 9.68309879e-01 9.57690179e-01 9.46216822e-01
      9.33947444e-01 9.21210825e-01 9.08398807e-01 8.95831764e-01
      8.83852363e-01 8.72636914e-01 8.62147689e-01 8.53090227e-01
      8.45529139e-01 8.39320540e-01 8.34838808e-01 8.32222939e-01
      8.31417918e-01 2.26640366e-02 9.99816209e-02 3.01037401e-01
      2.99687684e-01 1.83191121e-01 9.78251100e-02 2.86753383e-02
      1.18765952e-02 2.18437519e-02 1.30559495e-02 1.34746358e-01
      3.01037401e-01 3.01037401e-01 5.07835262e-02 7.96777941e-03
      6.99822744e-03 5.17620007e-03 1.09024961e-02 1.33789152e-01
      2.41590425e-01 3.01037401e-01 1.74982101e-01 1.44853383e-01
      1.97814316e-01 1.42727986e-01 1.22275226e-01 1.18483216e-01
      5.70439287e-02 2.16358617e-01 3.01037401e-01 2.92223990e-01
      1.30570471e-01 5.48128113e-02 4.70093600e-02 3.20604630e-02
      5.20537645e-02 2.03448272e+00 3.01310033e-01 8.73563230e-01 0. 0.
      0. 0. 0. 0. 0. 0. 0. 0. 0. 0. 0. 0. 0. 0. 0. 3.28016616e-02
      2.89960182e-03 2.89960182e-03 5.98042877e-03 1.63102592e-03
      1.08735054e-03 2.35592644e-03 3.86008359e-02 3.78759392e-02
      5.25552826e-03 1.08735054e-03 3.44327721e-03 3.55200246e-02
      3.62450234e-03 3.82383876e-02 7.86662042e-01 1.07530855e-01
      1.07919052e-01 0. 3.53260972e-02 2.79503260e-02 0. 0.
      5.31831868e-02 6.40527233e-02 6.67701066e-02 0. 3.33851092e-02
      1.66925415e-02 2.71739135e-03 1.35869514e-02 4.70890433e-01
      4.79814522e-02 2.51532253e-02 2.53646169e-03 1.73324943e-02
      5.70704043e-03 2.32508988e-03 1.69097446e-03 6.02410845e-02
      9.11015347e-02 2.28281431e-02 5.49566839e-03 1.14140855e-02
      3.25512253e-02 2.32508988e-03 6.12979494e-02 6.09996796e-01
      9.34311867e-01 6.39441907e-02 1.74393260e-03 0. 0. 0.</_>
    <_>
      1.41699761e-01 9.98630047e-01 9.95640993e-01 9.91273642e-01
      9.85831022e-01 9.79469478e-01 9.72278357e-01 9.64857042e-01
      9.57450747e-01 9.49916065e-01 9.42394316e-01 9.35075402e-01
      9.28329885e-01 9.22215641e-01 9.16514397e-01 9.11547065e-01
      9.07623470e-01 9.04768467e-01 9.02856648e-01 9.01820719e-01
      9.01328802e-01 9.27245319e-02 1.45427018e-01 2.18542844e-01
      2.56325006e-01 2.56325006e-01 2.56325006e-01 2.56325006e-01
      1.47409618e-01 1.36993900e-01 6.65600896e-02 8.54765177e-02
      1.44620806e-01 2.56325006e-01 2.56325006e-01 1.66348651e-01
      1.45148322e-01 7.79743642e-02 8.23884830e-02 5.90279214e-02
      1.15759730e-01 1.18968368e-01 1.96680486e-01 2.32581750e-01
      1.95810050e-01 1.92231908e-01 1.11610353e-01 1.10443965e-01
      4.11810689e-02 1.10734113e-01 1.87778205e-01 2.38594070e-01
      1.93181559e-01 1.12754501e-01 8.75483155e-02 4.27004844e-02
      3.90851051e-02 5.06250000e+00 3.25842708e-01 8.95622909e-01
      8.87455523e-01 8.55998844e-02 4.51999530e-02 8.79999809e-03
      9.55998674e-02 3.99999972e-03 2.79999990e-03 7.19999801e-03
      1.79600745e-01 4.99999449e-02 1.68000013e-02 2.39999988e-03
      1.15999999e-02 3.59999686e-02 9.99999885e-03 3.27999741e-02
      4.11604673e-01 6.87856674e-02 8.97988502e-04 7.18390802e-04
      9.69827827e-03 0. 0. 5.38793101e-04 3.68175320e-02 8.81820619e-02
      1.25718480e-02 1.61637925e-03 9.51868016e-03 3.82543020e-02
      7.36350380e-03 5.44179641e-02 6.70600414e-01 1.62238374e-01
      5.90728670e-02 4.80497582e-03 8.02712590e-02 5.37026720e-03
      3.10910167e-03 5.93555858e-03 1.45844951e-01 7.29224831e-02
      1.78066622e-02 2.82645575e-04 1.30016925e-02 3.87224108e-02
      7.91407842e-03 3.05256974e-02 3.52175981e-01 7.44590834e-02
      2.12980099e-02 7.37883942e-03 6.15463443e-02 8.04964267e-03
      2.51551275e-03 5.36642829e-03 1.20743640e-01 1.56295553e-01
      1.45899607e-02 3.85712017e-03 1.15713524e-02 4.66209203e-02
      1.12359514e-02 6.65772930e-02 3.87886047e-01 6.93418086e-01
      2.04158783e-01 5.07819206e-02 3.04175969e-02 1.68413818e-02
      4.38219635e-03</_>
    <_>
      1.61519587e-01 9.98673201e-01 9.95698094e-01 9.91623878e-01
      9.86657798e-01 9.80881572e-01 9.74615097e-01 9.67839599e-01
      9.60590601e-01 9.52994227e-01 9.45253551e-01 9.37559903e-01
      9.30132866e-01 9.23060298e-01 9.16643143e-01 9.11227524e-01
      9.07062590e-01 9.04140711e-01 9.02237713e-01 9.01262045e-01
      9.00956988e-01 9.20106471e-02 1.06666915e-01 1.13883004e-01
      1.68215290e-01 2.13339627e-01 2.21570730e-01 1.99296951e-01
      1.77652121e-01 1.59261733e-01 9.95329991e-02 9.73498747e-02
      1.40167162e-01 2.02580094e-01 1.52644813e-01 1.31245226e-01
      1.48556978e-01 1.37995854e-01 1.24328308e-01 1.05685391e-01
      1.65623024e-01 1.66648775e-01 2.07489744e-01 2.21570730e-01
      2.21570730e-01 2.21570730e-01 2.21570730e-01 1.99938387e-01
      9.07498300e-02 1.17934160e-01 2.21570730e-01 2.21570730e-01
      1.76128313e-01 1.35346845e-01 1.49545059e-01 1.27403647e-01
      1.19245328e-01 4.47826099e+00 3.85350317e-01 8.94285738e-01
      7.75645792e-01 2.58789063e-02 3.85742188e-02 5.37109375e-03
      9.13085938e-02 2.44140625e-03 1.70898438e-03 1.95312500e-03
      9.66796875e-02 2.36816406e-02 1.41601563e-02 3.17382813e-03
      1.51367188e-02 1.66015625e-02 5.12695313e-03 2.70996094e-02
      6.31103516e-01 5.04922941e-02 9.62772698e-04 4.27899009e-04
      2.03252025e-03 0. 0. 3.20924271e-04 1.51904058e-02 3.89389470e-02
      5.56269009e-03 1.06974749e-03 5.02781523e-03 1.67950336e-02
      1.92554540e-03 5.05992696e-02 8.10668170e-01 1.02063008e-01
      3.81971858e-02 4.58365161e-04 5.88237084e-02 0. 1.52788387e-04
      3.05576774e-04 8.35755318e-02 5.85181303e-02 1.98625010e-02
      1.06951862e-03 1.61955636e-02 1.63483527e-02 3.36134410e-03
      2.29182821e-02 5.78148365e-01 4.48206551e-02 5.84615394e-03
      6.15384604e-04 1.15897339e-02 0. 0. 3.07692302e-04 5.75386770e-02
      1.34257063e-01 1.13846064e-02 1.33333332e-03 1.30256265e-02
      3.55898328e-02 4.41025477e-03 4.14360203e-02 6.37833416e-01
      8.97597790e-01 8.89282450e-02 1.00862337e-02 2.30982434e-03
      1.00092392e-03 7.69941471e-05</_>
    <_>
      1.65268451e-01 9.98237133e-01 9.93785560e-01 9.87161100e-01
      9.78876412e-01 9.69084322e-01 9.57928002e-01 9.45851088e-01
      9.33350265e-01 9.20828462e-01 9.08493161e-01 8.96625280e-01
      8.85485530e-01 8.75315845e-01 8.66417706e-01 8.58954906e-01
      8.53005111e-01 8.48452806e-01 8.45205843e-01 8.43145072e-01
      8.42436671e-01 6.31344989e-02 2.92285830e-02 6.58850446e-02
      1.23028569e-01 2.69984454e-01 2.69984454e-01 2.69984454e-01
      1.29869625e-01 1.27038434e-01 3.50796841e-02 3.13840844e-02
      1.25578240e-01 2.69984454e-01 2.69984454e-01 1.51320845e-01
      1.01653770e-01 6.21578582e-02 5.22898436e-02 4.00272496e-02
      3.01446896e-02 3.89925838e-02 5.87054603e-02 2.63867974e-01
      2.69984454e-01 2.69984454e-01 1.62049666e-01 8.35810974e-02
      3.79395448e-02 7.80036822e-02 1.92938060e-01 2.69984454e-01
      2.67836869e-01 1.98403999e-01 1.62209406e-01 6.85607269e-02
      4.26658951e-02 3.07692313e+00 2.98412710e-01 8.92045438e-01
      5.74098170e-01 8.68053585e-02 1.51909776e-02 2.60416674e-03
      5.64235263e-02 4.34027798e-03 2.60416674e-03 1.30208337e-03
      1.36284336e-01 6.20658658e-02 1.25868097e-02 2.17013899e-03
      1.43229216e-02 5.16492389e-02 4.34027798e-03 3.60242985e-02
      5.11291862e-01 4.38405685e-02 2.89855106e-03 2.53623212e-03
      4.34782682e-03 3.62318824e-04 3.62318824e-04 4.83091775e-04
      3.86473490e-03 2.65699700e-02 9.78261046e-03 1.20772945e-03
      6.28019450e-03 9.05797258e-03 2.53623212e-03 2.62076538e-02
      8.59593093e-01 1.18171379e-01 2.15533171e-02 1.11482723e-03
      4.25493307e-02 0. 3.71609058e-04 5.57413558e-04 1.13154709e-01
      1.00334331e-01 3.17725651e-02 5.57413558e-04 2.54552104e-02
      3.41880471e-02 5.38833020e-03 1.93236638e-02 4.85521972e-01
      5.94934635e-02 1.39240604e-02 3.79746838e-04 1.13924090e-02 0. 0.
      1.26582279e-04 7.13924021e-02 1.29874840e-01 6.96202228e-03
      1.01265823e-03 8.86075757e-03 3.93669829e-02 4.05063387e-03
      5.30377999e-02 6.00121796e-01 9.02895451e-01 9.41913873e-02
      2.11864407e-03 7.06214691e-04 8.82768363e-05 0.</_>
    <_>
      1.14130273e-01 9.98841524e-01 9.96142745e-01 9.92136836e-01
      9.87061322e-01 9.81200635e-01 9.74657834e-01 9.67602670e-01
      9.60340559e-01 9.53185558e-01 9.46122050e-01 9.39375877e-01
      9.33030128e-01 9.27225232e-01 9.22120869e-01 9.17553365e-01
      9.13655341e-01 9.10587847e-01 9.08488095e-01 9.07374918e-01
      9.07049119e-01 4.89269830e-02 1.19716562e-01 2.67816156e-01
      2.38677263e-01 2.52430290e-01 2.14334458e-01 1.39587581e-01
      5.09669594e-02 3.48369665e-02 2.21804436e-02 6.73969686e-02
      2.67816156e-01 2.67816156e-01 1.76833570e-01 3.77776027e-02
      1.58206485e-02 7.89098069e-03 1.12716192e-02 4.96091135e-02
      1.49880245e-01 2.67816156e-01 1.94912553e-01 2.67816156e-01
      2.52094477e-01 2.34624743e-01 4.58619744e-02 2.01310087e-02
      3.50451581e-02 1.59181505e-01 2.67816156e-01 2.67816156e-01
      1.76506951e-01 7.67486170e-02 4.77937423e-02 1.75421890e-02
      1.40037164e-02 3.96551728e+00 3.09711277e-01 8.94117653e-01
      7.26566434e-01 2.47222409e-02 2.75000222e-02 3.88888828e-03
      7.52777383e-02 1.02777788e-02 5.55555429e-03 6.11110963e-03
      1.59166381e-01 4.19444144e-02 1.02777788e-02 3.88888828e-03
      1.25000039e-02 4.02777568e-02 5.27777663e-03 3.36111262e-02
      5.39726019e-01 4.70522158e-02 1.73654198e-03 3.30769864e-04
      4.54808446e-03 1.65384932e-04 8.26924661e-05 0. 2.02596076e-02
      6.78084046e-02 1.20730866e-02 1.65384950e-03 1.15769338e-02
      2.69576702e-02 4.79616225e-03 5.63139431e-02 7.44603872e-01
      1.27414390e-01 6.36274964e-02 2.84900330e-03 4.21018749e-02
      2.37416918e-03 9.49667592e-04 2.37416918e-03 1.05730012e-01
      7.18580633e-02 1.83602609e-02 2.05761311e-03 1.94682088e-02
      2.24754959e-02 5.06489398e-03 2.35834438e-02 4.89717603e-01
      6.98806047e-02 1.67182498e-02 5.39584691e-03 3.13136578e-02
      1.23839010e-03 2.65369308e-04 2.74215033e-03 7.04113245e-02
      8.35908651e-02 9.90711991e-03 2.38832412e-03 5.57276001e-03
      2.62716077e-02 4.24591172e-03 3.97170745e-02 6.30320668e-01
      7.24724174e-01 1.73520565e-01 6.17853552e-02 2.28686053e-02
      1.49949845e-02 2.10631895e-03</_>
    <_>
      1.44346595e-01 9.97689188e-01 9.93550241e-01 9.87957656e-01
      9.80979502e-01 9.72887695e-01 9.64217186e-01 9.55376863e-01
      9.46056664e-01 9.36724782e-01 9.27525938e-01 9.18783963e-01
      9.10560727e-01 9.03043449e-01 8.96506727e-01 8.90973449e-01
      8.86462748e-01 8.83102953e-01 8.81115854e-01 8.80232334e-01
      8.79898667e-01 4.91609499e-02 9.69591960e-02 1.39695004e-01
      8.77499804e-02 1.83092862e-01 2.47718990e-01 2.09727973e-01
      1.35819316e-01 7.27024004e-02 5.70433661e-02 2.36664519e-01
      3.11813533e-01 3.11813533e-01 8.41931328e-02 4.58854809e-02
      9.10442770e-02 8.02993774e-02 5.25685102e-02 1.17010631e-01
      2.79420257e-01 3.11813533e-01 8.46129358e-02 9.50620621e-02
      1.15943849e-01 1.40560091e-01 1.34864196e-01 1.30444735e-01
      7.64739737e-02 3.11813533e-01 3.11813533e-01 1.86674923e-01
      2.73547117e-02 1.28841614e-02 2.76810769e-02 4.28177342e-02
      5.07075973e-02 1.90697670e+00 2.70440251e-01 8.61413062e-01 0. 0.
      0. 0. 0. 0. 0. 0. 0. 0. 0. 0. 0. 0. 0. 0. 0. 3.31964158e-02
      1.64158712e-03 2.73597805e-04 1.24942791e-02 1.91518501e-03
      1.09439134e-03 5.47195610e-04 4.48698662e-02 2.47149225e-02
      3.64797073e-04 0. 6.38394849e-04 8.08941573e-02 3.64797073e-04
      3.20108309e-02 7.64952302e-01 9.42466259e-02 9.42466259e-02
      4.56349226e-03 4.92063500e-02 7.93650805e-04 9.92063549e-04
      1.98412710e-03 8.82941335e-02 1.82539690e-02 2.34126989e-02
      1.98412710e-03 2.46031750e-02 9.32539720e-03 3.57142859e-03
      1.66666675e-02 5.67873836e-01 1.02354012e-01 9.25547909e-03
      1.36109971e-04 6.39716955e-03 0. 8.16659885e-04 5.44439885e-04
      2.04164665e-02 1.55435830e-01 2.96718832e-02 1.76942989e-03
      1.19776791e-02 2.24581026e-02 5.03606955e-03 3.40274125e-02
      5.99711597e-01 8.52716625e-01 1.39963403e-01 6.12103241e-03
      1.19896512e-03 0. 0.</_>
    <_>
      1.39598131e-01 9.98835027e-01 9.95664656e-01 9.90755737e-01
      9.84420300e-01 9.76969600e-01 9.68715608e-01 9.59980488e-01
      9.50936854e-01 9.41847742e-01 9.32871521e-01 9.24215198e-01
      9.16048169e-01 9.08588171e-01 9.02082562e-01 8.96598697e-01
      8.92215073e-01 8.88998568e-01 8.86897802e-01 8.85728180e-01
      8.85356665e-01 1.36742041e-01 2.35178769e-01 2.41410881e-01
      2.41410881e-01 2.41410881e-01 2.41410881e-01 2.41410881e-01
      1.67815581e-01 1.79943562e-01 5.43929748e-02 1.24246731e-01
      2.41410881e-01 2.41410881e-01 2.17500508e-01 1.21504948e-01
      8.44633728e-02 6.58560619e-02 7.21341223e-02 6.54114708e-02
      1.18838936e-01 1.45393416e-01 1.02270044e-01 1.49679095e-01
      2.41410881e-01 2.41410881e-01 8.46154615e-02 7.41260946e-02
      2.80017294e-02 9.76130217e-02 2.41410881e-01 2.41410881e-01
      1.21737577e-01 1.04097910e-01 5.24845384e-02 2.23699622e-02
      2.33363584e-02 3.23333335e+00 3.41040462e-01 8.51851881e-01
      1.12581205e+00 8.96811485e-02 2.37188656e-02 1.03878113e-03
      2.11219005e-02 1.73130189e-04 0. 0. 2.54501756e-02 1.11495420e-01
      3.79155353e-02 6.92520756e-04 2.00831145e-02 1.03878062e-02
      4.15512314e-03 1.76592804e-02 6.36435211e-01 5.09357229e-02
      2.00534752e-03 1.33689842e-04 2.00534752e-03 0. 1.47058826e-03
      2.67379684e-04 1.00267371e-02 9.97334272e-02 6.28342619e-03
      8.02139053e-04 5.61497640e-03 6.41710311e-02 4.41176677e-03
      5.77538870e-02 6.94400847e-01 1.04149804e-01 4.80797142e-02
      9.81216668e-04 5.64902276e-02 5.60695247e-04 4.20521421e-04
      7.00869074e-04 1.01907000e-01 3.67255211e-02 1.28959743e-02
      9.81216668e-04 2.00448167e-02 1.20549342e-02 3.22399777e-03
      1.90636031e-02 5.81708908e-01 6.02896139e-02 1.72952954e-02
      4.88567515e-04 3.13661620e-02 1.95427012e-04 1.07484858e-03
      3.90854024e-04 6.64456189e-02 1.26637548e-01 1.17256138e-02
      1.95427053e-03 1.17256138e-02 3.42975929e-02 3.61539889e-03
      5.22770360e-02 5.80218911e-01 8.49631608e-01 1.15420945e-01
      2.19129771e-02 7.49323098e-03 4.47075116e-03 1.07046159e-03</_>
    <_>
      1.41953230e-01 9.98079896e-01 9.93332148e-01 9.86267924e-01
      9.77361023e-01 9.66907024e-01 9.55288529e-01 9.42705870e-01
      9.29407775e-01 9.15581346e-01 9.01431084e-01 8.87252271e-01
      8.73230338e-01 8.59473407e-01 8.46526027e-01 8.35115314e-01
      8.25461030e-01 8.17768633e-01 8.12219083e-01 8.08951378e-01
      8.07877958e-01 1.58846229e-02 4.27081212e-02 3.96172367e-02
      7.09559619e-02 2.67452091e-01 2.67452091e-01 1.55906454e-01
      2.72118561e-02 1.50939403e-02 7.38544613e-02 1.77808404e-01
      2.24403694e-01 2.42395833e-01 2.67452091e-01 1.51333153e-01
      6.96397573e-02 8.63794461e-02 1.15882754e-01 1.42916990e-02
      2.97902282e-02 3.15551795e-02 4.97799814e-02 1.75879732e-01
      2.67452091e-01 2.67452091e-01 1.75349414e-01 1.97224859e-02
      6.63604885e-02 1.30184531e-01 1.49220869e-01 2.15397909e-01
      2.67452091e-01 2.67452091e-01 2.67452091e-01 1.79307967e-01
      8.66027102e-02 1.87234044e+00 3.27485383e-01 8.95013094e-01
      4.50319052e-01 5.34026809e-02 2.17391308e-02 2.83553894e-03
      4.63138260e-02 4.72589803e-04 9.45179607e-04 1.41776935e-03
      6.19093068e-02 2.88279857e-02 1.65406372e-02 2.83553894e-03
      1.55954575e-02 2.12665405e-02 4.72589815e-03 3.26087065e-02
      6.88562095e-01 2.96451915e-02 2.61437912e-02 8.16993474e-04
      1.64565835e-02 5.83566783e-04 7.00280129e-04 7.00280129e-04
      5.31045757e-02 1.41224191e-01 1.10877687e-02 1.05042022e-03
      7.23622786e-03 4.82026152e-02 2.56769382e-03 5.36881424e-02
      6.06777906e-01 4.43314128e-02 1.68968085e-02 2.36191857e-03
      5.03270552e-02 1.27180223e-03 1.09011622e-03 2.54360470e-03
      9.75647271e-02 1.05013706e-01 2.07122173e-02 1.99854630e-03
      2.68895458e-02 2.12572757e-02 4.90552420e-03 1.36264581e-02
      5.89188516e-01 8.57286677e-02 1.54291112e-02 8.67888040e-04
      1.29218809e-02 5.78592066e-04 1.92864027e-04 9.64320032e-04
      2.82546803e-02 1.08004659e-01 2.09257826e-02 4.82160074e-04
      1.43683599e-02 2.38187686e-02 2.89295986e-03 2.16008127e-02
      6.62998021e-01 9.36286390e-01 6.25438690e-02 1.16977305e-03 0. 0.
      0.</_>
    <_>
      9.71032083e-02 9.98773098e-01 9.95663285e-01 9.90821838e-01
      9.84539390e-01 9.76983070e-01 9.68253195e-01 9.58611131e-01
      9.48364973e-01 9.37756002e-01 9.27014828e-01 9.16422546e-01
      9.06380117e-01 8.96994472e-01 8.88628900e-01 8.81299078e-01
      8.75270069e-01 8.70508015e-01 8.66999924e-01 8.64800394e-01
      8.64062071e-01 8.18296596e-02 8.97735506e-02 1.20119236e-01
      2.52469510e-01 2.52469510e-01 2.52469510e-01 1.35428920e-01
      8.05799663e-02 9.67687368e-02 8.66293386e-02 1.33109853e-01
      1.51170880e-01 2.52469510e-01 2.52469510e-01 1.59360513e-01
      9.23479050e-02 8.40678141e-02 9.85476300e-02 7.58046731e-02
      1.10178277e-01 9.37929600e-02 1.37842491e-01 2.33162358e-01
      2.52469510e-01 2.52469510e-01 1.27229184e-01 9.92987230e-02
      8.44119564e-02 2.05022976e-01 2.52469510e-01 2.52469510e-01
      2.52469510e-01 1.03449836e-01 7.01252446e-02 5.46765625e-02
      6.35868609e-02 4.66666651e+00 2.71698117e-01 8.91891897e-01 0. 0.
      0. 0. 0. 0. 0. 0. 0. 0. 0. 0. 0. 0. 0. 0. 0. 4.72340882e-02
      4.25531948e-03 1.91489374e-03 2.12765974e-03 5.74467983e-03
      5.95744560e-03 1.27659575e-03 2.97872373e-03 2.78723631e-02
      8.08510371e-03 6.38297875e-04 5.95744560e-03 1.19148958e-02
      1.91489374e-03 2.14893762e-02 8.50663066e-01 1.18806750e-01
      4.19616066e-02 3.03336722e-03 6.97675124e-02 1.01112237e-03
      2.02224473e-03 1.51668349e-03 1.03134416e-01 6.87563941e-02
      3.13447863e-02 3.03336722e-03 3.33670378e-02 1.41557101e-02
      4.04448947e-03 9.10010003e-03 4.94948208e-01 1.71990171e-02
      9.21376143e-03 7.98525941e-03 3.46027166e-02 7.57575873e-03
      1.63800165e-03 1.84275187e-03 1.27354279e-01 1.68305650e-01
      1.51515212e-02 4.50450368e-03 1.12612648e-02 5.40539101e-02
      5.52825537e-03 7.30956048e-02 4.60683107e-01 8.77303660e-01
      1.16512060e-01 5.93692018e-03 2.47371674e-04 0. 0.</_>
    <_>
      1.46068186e-01 9.98488486e-01 9.94433641e-01 9.88263011e-01
      9.80240524e-01 9.70803738e-01 9.60402369e-01 9.49373722e-01
      9.38024759e-01 9.26712513e-01 9.15695488e-01 9.05273080e-01
      8.95784914e-01 8.87450635e-01 8.80380452e-01 8.74670923e-01
      8.70326400e-01 8.67175400e-01 8.64997983e-01 8.63748431e-01
      8.63354981e-01 1.05754159e-01 7.83551186e-02 5.56777716e-02
      2.15739220e-01 2.68269390e-01 2.68269390e-01 2.22335532e-01
      1.24935821e-01 1.07784100e-01 7.98344091e-02 8.44551548e-02
      2.55857706e-01 2.68269390e-01 2.65802592e-01 1.88506901e-01
      9.83764455e-02 6.94992915e-02 4.86077964e-02 8.40650350e-02
      7.76420981e-02 9.89342481e-02 1.47830650e-01 2.68269390e-01
      2.68269390e-01 1.66695997e-01 1.12682827e-01 6.64037913e-02
      6.25806153e-02 1.09939307e-01 2.68269390e-01 2.68269390e-01
      1.65798619e-01 9.82887968e-02 5.48442900e-02 3.75383459e-02
      2.61943340e-02 3.23809528e+00 2.60073274e-01 8.91803265e-01
      5.36986232e-01 2.77008172e-02 1.73130129e-02 6.23268681e-03
      7.96399340e-02 1.38504151e-03 4.84764529e-03 2.77008303e-03
      1.29501611e-01 3.32409814e-02 1.59279723e-02 6.23268681e-03
      2.56232563e-02 2.21606549e-02 4.84764529e-03 1.86980534e-02
      6.03879929e-01 3.65454331e-02 1.81818160e-03 2.36363616e-03
      9.81818791e-03 5.45454561e-04 3.63636354e-04 5.45454561e-04
      2.16363817e-02 4.19999287e-02 3.27272690e-03 1.63636345e-03
      3.45454505e-03 2.20000185e-02 2.90909060e-03 3.43636349e-02
      8.16696525e-01 1.32968545e-01 4.08534333e-02 7.80640054e-04
      6.06295094e-02 2.60213361e-04 2.60213361e-04 2.60213361e-04
      9.15946811e-02 4.29351255e-02 2.00364292e-02 7.80640054e-04
      2.21181363e-02 1.17096016e-02 4.16341377e-03 1.22300284e-02
      5.58415592e-01 6.15684353e-02 6.86274236e-03 5.88235271e-04
      2.13725697e-02 5.88235271e-04 1.96078428e-04 1.96078428e-04
      5.66665120e-02 1.74706712e-01 1.05882371e-02 7.84313714e-04
      1.15686310e-02 2.58823819e-02 4.11764579e-03 5.11763580e-02
      5.73136687e-01 8.55270565e-01 1.31510571e-01 1.14111397e-02
      1.58174220e-03 2.25963173e-04 0.</_>
    <_>
      1.05968662e-01 9.97684479e-01 9.92792845e-01 9.86023426e-01
      9.78553116e-01 9.70708907e-01 9.63085294e-01 9.55690503e-01
      9.49118733e-01 9.43113863e-01 9.37747896e-01 9.33141708e-01
      9.29908991e-01 9.28053379e-01 9.27502453e-01 9.28056121e-01
      9.28437233e-01 9.28803027e-01 9.29045558e-01 9.29204941e-01
      9.29230332e-01 1.84551775e-01 2.03056112e-01 1.36018455e-01
      1.75087228e-01 1.53945878e-01 1.41178295e-01 1.54273957e-01
      2.24988282e-01 2.42139205e-01 6.64785877e-02 1.22465938e-01
      2.42139205e-01 2.42139205e-01 1.45753503e-01 1.13712311e-01
      7.85970241e-02 8.66046175e-02 7.12760463e-02 1.50139734e-01
      2.42139205e-01 2.26048663e-01 2.42139205e-01 2.18646929e-01
      1.45743072e-01 1.07562333e-01 1.74199417e-01 1.93502247e-01
      4.07193862e-02 1.45121694e-01 2.42139205e-01 2.42139205e-01
      1.46879703e-01 4.74797487e-02 3.38968523e-02 3.54115106e-02
      3.62855904e-02 3.45454550e+00 3.01204830e-01 8.95306885e-01 0. 0.
      0. 0. 0. 0. 0. 0. 0. 0. 0. 0. 0. 0. 0. 0. 0. 5.61301038e-02
      7.85440393e-03 2.87356344e-03 1.83908194e-02 7.66283541e-04
      7.66283541e-04 1.34099612e-03 2.26053856e-02 4.23371121e-02
      8.04597512e-03 4.78927186e-03 1.28352549e-02 2.87356637e-02
      6.70497911e-03 5.57469651e-02 7.30071008e-01 8.64446089e-02
      7.79219568e-02 5.27597405e-03 1.03084072e-01 8.11688416e-03
      6.49350695e-03 1.62337662e-03 6.73701018e-02 2.88149435e-02
      3.12500075e-02 2.43506487e-03 3.20616961e-02 2.31331233e-02
      7.30519556e-03 3.40909176e-02 4.84580815e-01 6.39259890e-02
      1.61290225e-02 3.14712874e-03 2.04563197e-02 1.37686869e-03
      1.77025981e-03 3.93391034e-04 6.53028563e-02 1.11329563e-01
      2.22265776e-02 1.57356425e-03 1.88827571e-02 5.03540114e-02
      9.63807572e-03 7.98583105e-02 5.33634484e-01 9.42478538e-01
      5.54133430e-02 1.80695683e-03 3.01159453e-04 0. 0.</_>
    <_>
      1.65895820e-01 9.98801887e-01 9.95449662e-01 9.90311503e-01
      9.83808100e-01 9.76337969e-01 9.68274057e-01 9.59899485e-01
      9.51396286e-01 9.42876160e-01 9.34428096e-01 9.26201701e-01
      9.18344259e-01 9.11074877e-01 9.04598713e-01 8.99082184e-01
      8.94572794e-01 8.91097069e-01 8.88710499e-01 8.87332499e-01
      8.86893630e-01 1.53618008e-01 2.25924715e-01 2.25924715e-01
      2.25924715e-01 2.25924715e-01 2.14154869e-01 1.78208068e-01
      2.25924715e-01 1.64799884e-01 7.82558173e-02 1.35454029e-01
      2.25924715e-01 2.25924715e-01 1.47000983e-01 7.56649151e-02
      6.64487556e-02 6.34330586e-02 7.12080672e-02 9.65633020e-02
      1.64632499e-01 2.25924715e-01 2.25924715e-01 2.14276820e-01
      2.06891730e-01 1.39790356e-01 1.99838862e-01 1.43601581e-01
      5.66701517e-02 1.14915691e-01 2.25924715e-01 2.25924715e-01
      1.22018911e-01 5.71898147e-02 2.30896864e-02 2.86096670e-02
      3.75861116e-02 4.21052647e+00 2.98245609e-01 8.93081784e-01
      1.41888976e+00 6.26931638e-02 4.59106080e-02 2.50771595e-03
      5.13118915e-02 4.24382603e-03 1.15740742e-03 7.71604944e-04
      6.11499436e-02 2.75848620e-02 2.16049273e-02 1.92901236e-03
      2.00617183e-02 1.90972127e-02 5.20833163e-03 2.50771474e-02
      6.49684370e-01 4.72758263e-02 5.44871809e-03 6.41025661e-04
      2.72435904e-03 4.80769260e-04 0. 0. 7.69230770e-03 3.10897436e-02
      5.44871809e-03 6.41025661e-04 7.69230770e-03 7.53205130e-03
      1.60256412e-03 2.17948724e-02 8.59971285e-01 1.03285849e-01
      5.51644228e-02 9.78090800e-04 5.12520485e-02 0. 1.95618151e-04
      3.91236303e-04 5.51644228e-02 4.98827174e-02 3.56025510e-02
      1.76056335e-03 2.52347589e-02 1.93661973e-02 5.67292841e-03
      2.42566653e-02 5.71800768e-01 7.31432810e-02 1.20038455e-02
      6.40204875e-04 2.92894077e-02 0. 0. 1.60051219e-04 3.45710702e-02
      9.47504863e-02 1.69654414e-02 1.28040975e-03 1.95262656e-02
      2.43278109e-02 4.32138331e-03 6.12993613e-02 6.27693057e-01
      9.20006573e-01 6.83788657e-02 6.87060365e-03 3.43530183e-03
      1.30868645e-03 0.</_>
    <_>
      1.33320540e-01 9.99554515e-01 9.98728216e-01 9.97655332e-01
      9.96387780e-01 9.94888067e-01 9.93276298e-01 9.91603315e-01
      9.89934146e-01 9.88498330e-01 9.87259686e-01 9.86296415e-01
      9.85704720e-01 9.85395372e-01 9.85288680e-01 9.85310674e-01
      9.85464156e-01 9.85670924e-01 9.85827565e-01 9.86042917e-01
      9.86097693e-01 7.78899863e-02 8.99413601e-02 8.41959119e-02
      1.19895630e-01 2.39701793e-01 2.42221788e-01 1.81622580e-01
      7.71099925e-02 6.16349429e-02 9.65534300e-02 1.69365793e-01
      2.01172799e-01 2.38862008e-01 1.71569958e-01 1.04385868e-01
      7.51366019e-02 7.22994357e-02 5.51404133e-02 1.41063809e-01
      1.67293966e-01 2.17547089e-01 2.42221788e-01 2.42221788e-01
      2.42221788e-01 2.42221788e-01 1.15294844e-01 1.36279568e-01
      1.11285463e-01 1.85964599e-01 2.42221788e-01 2.42221788e-01
      1.93409681e-01 1.55525878e-01 1.14186503e-01 7.55213425e-02
      8.31198394e-02 3.74074078e+00 5.09523809e-01 7.41134763e-01 0. 0.
      0. 0. 0. 0. 0. 0. 0. 0. 0. 0. 0. 0. 0. 0. 0. 3.54927219e-02
      2.15934571e-02 5.46041271e-03 2.15934571e-02 1.98560418e-03
      4.46760980e-03 3.22660664e-03 5.13775982e-02 9.80394185e-02
      2.38272678e-02 6.94961706e-03 1.68776345e-02 6.92480803e-02
      1.11690229e-02 8.88559744e-02 5.39825082e-01 1.14063136e-01
      6.14582859e-02 2.86458340e-03 8.64586011e-02 1.56250002e-03
      2.60416680e-04 2.08333344e-03 1.28906965e-01 7.65626356e-02
      2.76041515e-02 2.34375009e-03 2.03124918e-02 3.95833068e-02
      8.85416847e-03 4.11458053e-02 3.85934293e-01 7.97204301e-02
      2.60489937e-02 3.14685260e-03 4.12587486e-02 2.09790212e-03
      1.22377626e-03 4.02097823e-03 5.94404601e-02 8.96856189e-02
      2.23776475e-02 5.06992871e-03 2.74476018e-02 4.31818143e-02
      1.06643317e-02 6.78321347e-02 5.16773462e-01 9.39997792e-01
      5.61488494e-02 3.19277775e-03 6.60574704e-04 0. 0.</_>
    <_>
      4.98524420e-02 9.95200932e-01 9.87337172e-01 9.76558924e-01
      9.63838458e-01 9.49926436e-01 9.35520709e-01 9.21661317e-01
      9.09479260e-01 8.98963153e-01 8.90755773e-01 8.86120498e-01
      8.83961737e-01 8.84093821e-01 8.86051238e-01 8.89537752e-01
      8.93988013e-01 8.98136139e-01 9.01532054e-01 9.03927624e-01
      9.04782474e-01 5.98347606e-03 8.10373295e-03 3.85304354e-02
      3.05581897e-01 3.05581897e-01 1.91112548e-01 2.20864899e-02
      5.85032720e-03 5.25907008e-03 9.95260198e-03 1.03251087e-02
      4.00526114e-02 3.05581897e-01 3.05581897e-01 1.68761715e-01
      4.11083326e-02 1.30257262e-02 1.31483926e-02 2.74761971e-02
      3.49140503e-02 1.12230271e-01 3.05581897e-01 3.05581897e-01
      3.05581897e-01 9.04000103e-02 5.00883348e-02 2.21775007e-02
      2.57820953e-02 3.37298922e-02 8.96406695e-02 3.05581897e-01
      3.05581897e-01 2.09017679e-01 7.42013156e-02 2.00343095e-02
      1.91166904e-02 2.87500000e+00 3.16758752e-01 8.97350967e-01 0. 0.
      0. 0. 0. 0. 0. 0. 0. 0. 0. 0. 0. 0. 0. 0. 0. 2.01187972e-02
      2.92375702e-02 1.66449521e-03 1.86351873e-02 2.53292819e-04
      1.80923438e-04 3.98031523e-04 3.35435383e-02 7.36362711e-02
      1.39311012e-02 9.40801692e-04 1.16152819e-02 3.92967537e-02
      5.46388654e-03 5.40959053e-02 6.96920037e-01 8.73327330e-02
      4.22239378e-02 2.22921604e-03 3.76343802e-02 9.17912403e-04
      5.24521398e-04 7.86782068e-04 1.08444698e-01 1.11985214e-01
      3.08156069e-02 9.17912403e-04 1.59978922e-02 2.79307421e-02
      6.29425561e-03 2.28166636e-02 5.03146708e-01 3.58577818e-02
      8.68985057e-03 1.00267364e-03 2.75975447e-02 1.05041999e-03
      6.20702805e-04 5.25210111e-04 5.61025292e-02 1.02748252e-01
      1.19365864e-02 7.16195500e-04 1.57085303e-02 3.91523279e-02
      2.96027400e-03 4.98954132e-02 6.45398855e-01 9.25357938e-01
      7.37978816e-02 8.44208407e-04 0. 0. 0.</_>
    <_>
      1.54062539e-01 9.97263491e-01 9.91793334e-01 9.84420419e-01
      9.75188851e-01 9.64992404e-01 9.53684628e-01 9.41566825e-01
      9.29627657e-01 9.18075323e-01 9.06847358e-01 8.96129429e-01
      8.86051655e-01 8.77223432e-01 8.69634986e-01 8.63483787e-01
      8.58652115e-01 8.55060995e-01 8.52795660e-01 8.51707816e-01
      8.51376593e-01 9.50702429e-02 9.90471020e-02 1.58053264e-01
      1.36749491e-01 2.46651322e-01 2.46651322e-01 2.46651322e-01
      1.92809746e-01 9.84181538e-02 5.64189889e-02 7.10477829e-02
      1.02685876e-01 2.46651322e-01 2.46651322e-01 1.90592080e-01
      1.64075598e-01 1.07607976e-01 7.17974231e-02 6.89481273e-02
      5.70143089e-02 7.75951296e-02 5.84311038e-02 1.70908645e-01
      2.46651322e-01 2.46651322e-01 1.89382762e-01 8.89059454e-02
      4.16849554e-02 6.69657737e-02 9.87187326e-02 2.46651322e-01
      2.46651322e-01 2.39075840e-01 2.46651322e-01 1.12655871e-01
      6.91595674e-02 3.61904764e+00 2.74576277e-01 8.96341443e-01 0. 0.
      0. 0. 0. 0. 0. 0. 0. 0. 0. 0. 0. 0. 0. 0. 0. 5.95913567e-02
      4.87421406e-03 1.25786162e-03 5.81761124e-03 5.18867979e-03
      1.57232702e-04 1.10062887e-03 1.63521916e-02 2.53144912e-02
      7.86163844e-03 1.88679260e-03 5.81761124e-03 2.62578912e-02
      4.71698120e-03 4.30818573e-02 7.90740609e-01 8.97320285e-02
      2.14285739e-02 1.56250002e-03 5.31251170e-02 2.45535723e-03
      6.69642875e-04 3.12500005e-03 1.23660244e-01 8.88391808e-02
      2.85714157e-02 2.23214296e-03 2.18750015e-02 1.31696537e-02
      3.79464286e-03 1.25000095e-02 5.33267736e-01 4.83556800e-02
      1.79094989e-02 5.04721515e-03 1.83979403e-02 0. 0. 0.
      9.29659680e-02 1.53694138e-01 7.16378866e-03 4.88440273e-04
      7.97785632e-03 3.15858573e-02 3.58189479e-03 4.18431275e-02
      5.70989370e-01 8.61570656e-01 1.28636628e-01 8.55675992e-03
      1.23597647e-03 0. 0.</_>
    <_>
      1.58855036e-01 9.95164514e-01 9.86891925e-01 9.75370765e-01
      9.60779607e-01 9.43681240e-01 9.25129652e-01 9.04820263e-01
      8.82902145e-01 8.60263526e-01 8.37274015e-01 8.14054310e-01
      7.90914714e-01 7.68789113e-01 7.48275816e-01 7.29881883e-01
      7.13110447e-01 6.99029922e-01 6.88267887e-01 6.80894911e-01
      6.78216100e-01 2.02479377e-01 1.35155946e-01 9.17185992e-02
      5.37188388e-02 8.83508250e-02 1.02838852e-01 2.04865158e-01
      2.21649006e-01 2.21649006e-01 1.97445452e-01 1.54620275e-01
      1.61045998e-01 2.21649006e-01 2.21649006e-01 1.27527088e-01
      1.35221347e-01 1.54730022e-01 2.06186518e-01 1.64455280e-01
      9.48273093e-02 9.39590260e-02 7.89117813e-02 1.00870118e-01
      7.59939328e-02 1.79901317e-01 2.21649006e-01 2.12686881e-01
      2.21649006e-01 2.21649006e-01 2.02492177e-01 2.21649006e-01
      1.42073616e-01 4.46421467e-02 8.57876912e-02 1.46202445e-01
      2.17841849e-01 2.23809528e+00 2.55555570e-01 8.90728474e-01 0. 0.
      0. 0. 0. 0. 0. 0. 0. 0. 0. 0. 0. 0. 0. 0. 0. 7.48220086e-02
      1.87055767e-03 5.61167253e-04 4.86344844e-03 0. 0. 0.
      1.10362936e-02 3.14254127e-02 6.35989383e-03 2.05761334e-03
      4.86344844e-03 1.38421357e-02 2.61878036e-03 4.22745608e-02
      8.03394139e-01 5.18048368e-02 1.16978623e-02 2.67379708e-03
      4.27807458e-02 1.67112309e-03 6.68449211e-04 1.67112309e-03
      6.21658303e-02 1.11965440e-01 3.14170755e-02 2.33957241e-03
      4.11096178e-02 1.47058843e-02 3.34224640e-03 4.41176482e-02
      5.75868249e-01 6.54585510e-02 6.60980912e-03 0. 1.87633224e-02
      4.05117171e-03 6.39658829e-04 8.52878438e-04 7.14287311e-02
      1.21748820e-01 2.51598880e-02 1.91897620e-03 2.02558544e-02
      1.94029789e-02 7.03624869e-03 2.68656388e-02 6.09785914e-01
      9.50831950e-01 4.87941690e-02 3.73901654e-04 0. 0. 0.</_>
    <_>
      1.74287200e-01 9.99161243e-01 9.97169197e-01 9.94385123e-01
      9.91241157e-01 9.88008797e-01 9.84939039e-01 9.81832206e-01
      9.78670299e-01 9.75151598e-01 9.71302807e-01 9.67199028e-01
      9.63178515e-01 9.59516943e-01 9.56596613e-01 9.54302847e-01
      9.52745497e-01 9.51774538e-01 9.51297343e-01 9.51060176e-01
      9.51056719e-01 1.70273662e-01 1.44391954e-01 1.03982873e-01
      6.93693087e-02 1.18008979e-01 1.33183330e-01 2.22108170e-01
      2.04035863e-01 1.70251563e-01 2.22108170e-01 1.98972255e-01
      1.55386463e-01 2.06417978e-01 2.22108170e-01 1.74917355e-01
      1.18215613e-01 1.67519346e-01 2.22108170e-01 9.76647213e-02
      1.02839977e-01 6.30987659e-02 5.09029143e-02 7.96908736e-02
      1.20299116e-01 2.22108170e-01 2.22108170e-01 1.62376091e-01
      1.83452621e-01 1.58411220e-01 1.59911394e-01 2.16748610e-01
      1.61417261e-01 7.61930943e-02 1.70302272e-01 2.22108170e-01
      1.99228182e-01 2.36666656e+00 3.52678567e-01 8.07971001e-01 0. 0.
      0. 0. 0. 0. 0. 0. 0. 0. 0. 0. 0. 0. 0. 0. 0. 5.48748821e-02
      5.31045627e-03 5.44662296e-04 5.71895251e-03 6.80827885e-04
      4.08496708e-04 6.80827885e-04 1.66122094e-02 2.50544362e-02
      6.80827582e-03 1.08932459e-03 6.80827582e-03 3.07733640e-02
      3.81263671e-03 7.63892382e-02 7.64382243e-01 6.70290291e-02
      2.58799493e-02 3.62318847e-03 8.33331719e-02 1.03519671e-03
      1.03519671e-03 2.07039341e-03 8.35919678e-02 8.38507637e-02
      3.49379368e-02 3.10559012e-03 2.66563483e-02 2.69151479e-02
      9.83437151e-03 8.15216005e-02 4.65584546e-01 6.28508106e-02
      3.18743177e-02 1.12233439e-03 1.95286125e-02 2.69360258e-03
      6.73400646e-04 6.73400646e-04 5.85859343e-02 1.12008348e-01
      2.89562419e-02 1.79573509e-03 2.53647640e-02 1.07744047e-02
      4.48933756e-03 1.50392670e-02 6.23577535e-01 9.46383655e-01
      5.15723266e-02 2.04402511e-03 0. 0. 0.</_>
    <_>
      1.66855067e-01 9.96619940e-01 9.88540769e-01 9.76581216e-01
      9.62222397e-01 9.46597517e-01 9.30816472e-01 9.15707469e-01
      9.01864469e-01 8.89372766e-01 8.78006935e-01 8.67694557e-01
      8.58507037e-01 8.50490391e-01 8.43290627e-01 8.36942196e-01
      8.31824422e-01 8.28200758e-01 8.25750828e-01 8.24451506e-01
      8.24186265e-01 2.13855743e-01 2.34517261e-01 6.85412437e-02
      7.10342824e-02 2.11238325e-01 1.35205388e-01 9.89994705e-02
      1.47118315e-01 2.34517261e-01 1.67643428e-01 2.34517261e-01
      1.48784548e-01 7.53762797e-02 2.01062664e-01 2.34517261e-01
      2.34517261e-01 1.07764855e-01 2.34517261e-01 1.39878735e-01
      1.63016692e-01 5.92675060e-02 5.46914488e-02 1.33044168e-01
      2.27874637e-01 2.34517261e-01 1.51456028e-01 1.36441633e-01
      1.08925626e-01 1.17302693e-01 4.59982306e-02 4.68117073e-02
      1.13587558e-01 2.34517261e-01 2.27144152e-01 1.49465799e-01
      1.38876691e-01 2.09090900e+00 3.18518519e-01 8.67741942e-01 0. 0.
      0. 0. 0. 0. 0. 0. 0. 0. 0. 0. 0. 0. 0. 0. 0. 1.89899206e-02
      1.25252614e-02 1.41414138e-03 2.64646839e-02 5.85858524e-03
      1.41414138e-03 1.61616155e-03 2.50505395e-02 1.32525593e-01
      1.47474883e-02 3.03030270e-03 1.39394058e-02 5.35352416e-02
      9.29293130e-03 3.51515338e-02 6.44439459e-01 6.39836267e-02
      2.81218067e-02 0. 6.21776357e-02 0. 0. 0. 7.24975839e-02
      8.64295140e-02 1.52218724e-02 2.06398382e-03 2.78638080e-02
      1.90918520e-02 4.64396318e-03 1.98658481e-02 5.98029613e-01
      7.48464465e-02 1.29499482e-02 4.38981573e-04 1.25109674e-02
      6.14574319e-03 1.53643568e-03 6.58472360e-04 4.56540175e-02
      1.15452856e-01 1.99736413e-02 3.51185328e-03 1.31694386e-02
      1.11940252e-02 2.19490821e-03 6.36523403e-03 6.73383296e-01
      9.36495066e-01 5.66834509e-02 5.68458671e-03 1.13691739e-03 0. 0.</_>
    <_>
      1.29414186e-01 9.98161972e-01 9.92991090e-01 9.84991491e-01
      9.74710584e-01 9.62678015e-01 9.49294150e-01 9.34969842e-01
      9.20035362e-01 9.04853284e-01 8.89758468e-01 8.75105143e-01
      8.61245155e-01 8.48522305e-01 8.37288201e-01 8.27817976e-01
      8.20333540e-01 8.14875305e-01 8.11269164e-01 8.09283733e-01
      8.08667421e-01 8.99445042e-02 9.37514156e-02 9.46679488e-02
      1.91903487e-01 2.79177308e-01 2.41596714e-01 2.11234391e-01
      1.27173290e-01 9.51304957e-02 3.84207033e-02 4.94440459e-02
      2.79177308e-01 2.79177308e-01 1.76067054e-01 6.41461313e-02
      5.46488650e-02 4.49118502e-02 4.05831896e-02 3.42126675e-02
      4.48360629e-02 1.12133801e-01 1.45941272e-01 2.67241925e-01
      2.79177308e-01 2.79177308e-01 1.42890662e-01 6.60668537e-02
      3.84702459e-02 6.42466173e-02 2.79177308e-01 2.79177308e-01
      1.91948533e-01 1.48713648e-01 9.30017158e-02 6.84041604e-02
      6.25642762e-02 3.51219511e+00 2.67272741e-01 8.44615400e-01 0. 0.
      0. 0. 0. 0. 0. 0. 0. 0. 0. 0. 0. 0. 0. 0. 0. 2.75897086e-02
      3.57886613e-03 2.01717787e-03 4.81519941e-03 2.08224822e-03
      3.25351401e-04 1.95210829e-04 1.76340528e-02 1.17714331e-01
      9.30504780e-03 1.62675651e-03 8.26391857e-03 6.50049001e-02
      3.38365510e-03 6.57857805e-02 6.70689642e-01 9.54493433e-02
      2.77814008e-02 3.56824091e-03 4.60683852e-02 1.91155914e-03
      1.91155850e-04 2.29387032e-03 1.00929037e-01 6.84968978e-02
      1.93067435e-02 7.00904871e-04 1.89244282e-02 3.88046056e-02
      4.84261476e-03 2.44042818e-02 5.46313465e-01 4.32268679e-02
      5.02416817e-03 1.04275276e-03 1.71580352e-02 7.58365728e-04
      9.47957160e-05 3.31785006e-04 6.85846731e-02 1.35419503e-01
      1.06171090e-02 1.09015056e-03 1.21812364e-02 3.52167971e-02
      4.12360998e-03 4.24685180e-02 6.22580469e-01 8.70628178e-01
      1.19129911e-01 7.19789462e-03 1.74398324e-03 1.01468118e-03
      2.85379065e-04</_>
    <_>
      1.24763779e-01 9.98999000e-01 9.96507168e-01 9.92527723e-01
      9.87329602e-01 9.81078863e-01 9.74177063e-01 9.66699362e-01
      9.58974779e-01 9.51222003e-01 9.43579197e-01 9.36112702e-01
      9.29053128e-01 9.22379434e-01 9.16336656e-01 9.11022842e-01
      9.06572700e-01 9.02980864e-01 9.00380611e-01 8.98739696e-01
      8.98173690e-01 1.71420097e-01 2.03539699e-01 2.41536558e-01
      2.65376925e-01 2.65376925e-01 2.61063993e-01 1.17517374e-01
      9.56083611e-02 5.70061989e-02 2.04268560e-01 1.91238210e-01
      2.65376925e-01 2.65376925e-01 2.65376925e-01 9.85935107e-02
      6.05222285e-02 6.06379919e-02 5.38424961e-02 3.85677144e-02
      8.41997787e-02 1.31180689e-01 1.41457662e-01 2.00691253e-01
      1.98282316e-01 1.16681546e-01 8.01776871e-02 4.51663285e-02
      4.01423611e-02 1.10040992e-01 2.65376925e-01 2.65376925e-01
      1.27906710e-01 3.82646099e-02 3.78107838e-02 3.66673321e-02
      2.85881571e-02 4.78947353e+00 2.77142853e-01 8.94871771e-01
      4.56187814e-01 7.87981153e-02 1.07709737e-02 5.66893397e-03
      4.08163257e-02 2.83446722e-03 5.66893432e-04 6.23582723e-03
      7.31291920e-02 9.01359618e-02 2.55102143e-02 3.40136071e-03
      2.89115794e-02 6.51926994e-02 1.30385468e-02 5.27210645e-02
      5.02271593e-01 5.12684435e-02 1.21564465e-02 1.40944321e-03
      1.79703925e-02 5.28541219e-04 1.76180401e-04 1.93798437e-03
      1.56800505e-02 6.20154329e-02 2.07892749e-02 3.52360797e-03
      2.62508597e-02 3.99929136e-02 9.68992431e-03 5.51444069e-02
      6.81490898e-01 7.60869905e-02 2.00341046e-02 1.27877237e-03
      2.02472340e-02 5.54134557e-03 4.26257466e-04 0. 3.04774474e-02
      5.41346148e-02 5.66921458e-02 1.70502986e-03 5.22164665e-02
      8.31201673e-03 9.59078781e-03 1.76896807e-02 6.45566523e-01
      5.01151010e-02 1.28735751e-02 2.64367787e-03 2.90804151e-02
      6.89655193e-04 9.19540296e-04 6.89655193e-04 3.66666727e-02
      9.08043012e-02 2.79309954e-02 2.87356274e-03 3.01148929e-02
      3.91954370e-02 1.06896600e-02 4.37931903e-02 6.20908856e-01
      9.76141095e-01 1.59059484e-02 4.66804998e-03 2.76625180e-03
      5.18672226e-04 0.</_>
    <_>
      1.61631197e-01 9.98897731e-01 9.95919943e-01 9.91365850e-01
      9.85526621e-01 9.78620827e-01 9.70976949e-01 9.62862194e-01
      9.54412878e-01 9.45685804e-01 9.36845005e-01 9.28096533e-01
      9.19635296e-01 9.11626041e-01 9.04251754e-01 8.97777319e-01
      8.92322481e-01 8.88018787e-01 8.84891152e-01 8.83000851e-01
      8.82341266e-01 1.96389928e-01 1.24834999e-01 1.85806453e-01
      1.69119239e-01 1.47307709e-01 1.27771989e-01 2.34209046e-01
      2.12652072e-01 2.26866528e-01 7.15093389e-02 7.31820688e-02
      2.34209046e-01 2.34209046e-01 1.76796421e-01 1.12873331e-01
      9.35341641e-02 8.58464837e-02 9.76721868e-02 1.78999975e-01
      1.52988225e-01 2.31034935e-01 1.66687816e-01 1.82213008e-01
      1.98706210e-01 2.34209046e-01 1.73853368e-01 2.12225899e-01
      7.70531297e-02 1.30895734e-01 2.34209046e-01 2.34209046e-01
      1.39240742e-01 4.90279905e-02 5.32693192e-02 3.93911116e-02
      5.10646515e-02 3.07692313e+00 2.88079470e-01 8.95833313e-01
      8.24490368e-01 5.88586703e-02 1.96195003e-02 2.08085612e-03
      5.55887334e-02 3.86444689e-03 0. 1.48632575e-03 8.70987251e-02
      9.51248500e-03 3.26991663e-03 2.08085612e-03 1.24851363e-02
      1.69441141e-02 2.08085612e-03 1.81331746e-02 7.06894755e-01
      5.72043546e-02 1.45709543e-02 2.42849439e-03 2.11818796e-02
      1.21424720e-03 2.69832701e-04 1.21424720e-03 3.95304747e-02
      7.24497661e-02 1.60550345e-02 1.88882917e-03 1.69994533e-02
      3.84511538e-02 8.09498411e-03 6.17914684e-02 6.46680892e-01
      7.91999251e-02 3.81710902e-02 1.42886315e-03 6.38906583e-02
      2.04123295e-04 2.24535633e-03 4.28658910e-03 6.75648823e-02
      4.34783027e-02 2.61278003e-02 2.44947965e-03 3.18432599e-02
      2.28618234e-02 7.96080474e-03 2.22494528e-02 5.86034477e-01
      4.37452719e-02 7.49063306e-03 1.49812747e-03 2.44194511e-02
      2.09737848e-03 5.99250954e-04 7.49063678e-04 6.36703670e-02
      1.52960867e-01 1.82771366e-02 2.09737848e-03 1.76778864e-02
      3.38576436e-02 6.89138286e-03 5.93257770e-02 5.64643145e-01
      9.25724268e-01 7.20975846e-02 1.30690483e-03 7.62361160e-04
      1.08908731e-04 0.</_>
    <_>
      1.88259602e-01 9.98930633e-01 9.96243894e-01 9.92645264e-01
      9.88730729e-01 9.84983385e-01 9.81929123e-01 9.79843020e-01
      9.78850305e-01 9.78955925e-01 9.80092883e-01 9.81832325e-01
      9.83565450e-01 9.84877408e-01 9.85693693e-01 9.86028016e-01
      9.85880613e-01 9.85406458e-01 9.84851956e-01 9.84399974e-01
      9.84221876e-01 3.85648422e-02 3.55696976e-02 6.04362935e-02
      1.04659498e-01 2.38752916e-01 2.38752916e-01 1.63376451e-01
      8.61939639e-02 4.96602133e-02 1.15721948e-01 1.90109074e-01
      2.26243466e-01 2.38752916e-01 2.38752916e-01 1.57534942e-01
      5.69931157e-02 5.49059585e-02 8.92557055e-02 6.78004324e-02
      7.22283646e-02 1.61581054e-01 2.02928379e-01 2.38752916e-01
      2.38752916e-01 2.33633861e-01 1.50192842e-01 1.00744009e-01
      1.70172438e-01 2.38752916e-01 2.38752916e-01 2.38752916e-01
      1.66787818e-01 1.65483385e-01 8.39883089e-02 1.10533878e-01
      1.51814878e-01 2.30434775e+00 4.18224305e-01 8.97058845e-01
      2.77246028e-01 3.32986712e-02 9.88553651e-03 9.88553651e-03
      3.90218496e-02 1.63891744e-02 7.80437083e-04 1.04058278e-03
      1.82101987e-02 1.40478630e-02 6.24349760e-03 1.56087405e-03
      1.22268451e-02 1.27471359e-02 1.04058278e-03 1.10041291e-01
      7.13600934e-01 2.56579742e-02 1.10563636e-02 1.08160079e-03
      2.78812647e-02 3.48515809e-03 7.81156123e-04 5.40800393e-04
      3.52121145e-02 8.43648612e-02 8.71289521e-03 1.62240118e-03
      9.97476280e-03 5.05948812e-02 4.68693674e-03 6.11104444e-02
      6.73168421e-01 2.38259546e-02 3.34601589e-02 1.73070247e-03
      8.80347565e-02 1.61532231e-03 6.34590921e-04 1.67301239e-03
      6.54780269e-02 5.23824282e-02 2.29029171e-02 1.90377270e-03
      3.01141478e-02 1.97876655e-02 4.49982891e-03 3.27101909e-02
      6.19306684e-01 3.63656431e-02 3.84737225e-03 5.27036958e-04
      1.27015682e-02 0. 0. 5.27037009e-05 3.45209539e-02 9.65552181e-02
      1.60745960e-02 1.15948135e-03 1.38610462e-02 3.25708538e-02
      3.90007603e-03 4.68013138e-02 7.00958729e-01 9.00954068e-01
      7.60794729e-02 1.08193178e-02 5.85226715e-03 5.11458656e-03
      1.18028920e-03</_>
    <_>
      1.46081790e-01 9.98135328e-01 9.93173718e-01 9.85833526e-01
      9.76611495e-01 9.65893030e-01 9.54202473e-01 9.41803992e-01
      9.28780496e-01 9.15342450e-01 9.02011693e-01 8.89252603e-01
      8.77175033e-01 8.65967572e-01 8.55968416e-01 8.47545683e-01
      8.40964377e-01 8.36239219e-01 8.33303928e-01 8.31816494e-01
      8.31422508e-01 6.57281354e-02 5.07937223e-02 9.96422917e-02
      2.04893932e-01 2.75966913e-01 2.75966913e-01 1.83226496e-01
      1.75581232e-01 1.41778767e-01 5.18917814e-02 4.89172377e-02
      1.69811681e-01 2.75966913e-01 2.75966913e-01 1.55931532e-01
      6.76977187e-02 5.69514595e-02 5.23402765e-02 2.79367678e-02
      1.91318542e-02 6.67236447e-02 1.21447764e-01 2.63768345e-01
      2.75966913e-01 2.28755936e-01 8.09090585e-02 5.03668748e-02
      3.72728370e-02 4.41373363e-02 2.75966913e-01 2.75966913e-01
      2.37683475e-01 1.71879172e-01 9.47494805e-02 3.76993679e-02
      3.02905887e-02 2.56666660e+00 3.31103683e-01 8.94894898e-01 0. 0.
      0. 0. 0. 0. 0. 0. 0. 0. 0. 0. 0. 0. 0. 0. 0. 4.25009578e-02
      1.93185813e-03 2.80997553e-03 2.98559899e-03 1.75623468e-03
      7.02493882e-04 7.02493882e-04 1.00105396e-02 9.65934843e-02
      7.37618981e-03 1.75623468e-03 4.56621079e-03 5.14578372e-02
      2.63435207e-03 4.95259613e-02 7.22659111e-01 1.31110877e-01
      2.94445027e-02 9.25925910e-04 4.33333330e-02 3.70370370e-04 0.
      5.55555569e-04 8.66664350e-02 4.75925691e-02 2.01852005e-02
      9.25925910e-04 1.79629680e-02 1.31481439e-02 2.96296272e-03
      1.38888843e-02 5.90941668e-01 5.60518764e-02 9.19093657e-03
      9.06148809e-04 1.85113437e-02 1.29449836e-04 1.29449836e-04
      6.47249166e-04 7.10678399e-02 1.09901756e-01 8.15533567e-03
      2.33009737e-03 8.02588556e-03 3.84466611e-02 4.14239522e-03
      5.50162755e-02 6.17373884e-01 8.68207395e-01 1.15552783e-01
      1.07224649e-02 3.33125121e-03 1.87382882e-03 3.12304823e-04</_>
    <_>
      1.67199403e-01 9.96441662e-01 9.90904927e-01 9.84053314e-01
      9.76642966e-01 9.68562484e-01 9.60128367e-01 9.52341795e-01
      9.45450842e-01 9.39277172e-01 9.33924437e-01 9.29781735e-01
      9.26781714e-01 9.25200701e-01 9.24678206e-01 9.25233781e-01
      9.26516831e-01 9.28646207e-01 9.30683553e-01 9.32464898e-01
      9.33058619e-01 7.02765286e-02 1.66003123e-01 2.27144584e-01
      2.68863589e-01 1.53589740e-01 1.30059183e-01 7.33108670e-02
      7.30289519e-02 5.35308309e-02 8.73145312e-02 2.71535307e-01
      3.05703223e-01 3.05703223e-01 2.19410583e-01 7.52943605e-02
      4.00135592e-02 5.08957542e-02 5.40473945e-02 1.19049966e-01
      3.05703223e-01 3.05703223e-01 1.69320360e-01 6.31786659e-02
      5.86967506e-02 3.77708562e-02 5.61204180e-02 6.02599233e-02
      6.73637018e-02 3.05703223e-01 3.05703223e-01 1.26426280e-01
      4.47823405e-02 1.68460775e-02 1.82062518e-02 2.19945144e-02
      3.70337181e-02 2.72000003e+00 3.88059705e-01 8.92857134e-01 0. 0.
      0. 0. 0. 0. 0. 0. 0. 0. 0. 0. 0. 0. 0. 0. 0. 6.52315933e-03
      2.17438582e-03 1.95694715e-03 4.78364993e-03 9.13242344e-03
      2.17438582e-03 2.60926317e-03 1.50032677e-02 2.65274700e-02
      3.91389523e-03 2.82670185e-03 6.74059801e-03 3.47901061e-02
      2.82670185e-03 5.76210693e-02 8.20392728e-01 1.02083132e-01
      9.61804017e-02 1.38888892e-03 7.60416761e-02 0. 1.04166672e-03
      3.47222231e-04 5.34723215e-02 1.94444545e-02 1.56250000e-02
      1.38888892e-03 2.18750164e-02 5.20833349e-03 1.73611112e-03
      2.22222395e-02 5.81943095e-01 1.26824111e-01 1.64705850e-02
      1.64705887e-03 1.29411723e-02 4.70588246e-04 4.70588246e-04
      1.88235298e-03 5.05881943e-02 8.30589607e-02 2.42353175e-02
      7.05882383e-04 1.50588183e-02 3.08235753e-02 5.41176461e-03
      7.83530250e-02 5.51057220e-01 8.71845543e-01 1.23593800e-01
      2.28032842e-03 1.82426267e-03 4.56065667e-04 0.</_>
    <_>
      1.65758610e-01 9.99023557e-01 9.96382415e-01 9.92350221e-01
      9.87159848e-01 9.81155217e-01 9.74677026e-01 9.68037367e-01
      9.61462796e-01 9.55116630e-01 9.49126899e-01 9.43447232e-01
      9.38076675e-01 9.33066666e-01 9.28447783e-01 9.24259603e-01
      9.20615017e-01 9.17585909e-01 9.15324390e-01 9.13874447e-01
      9.13351655e-01 9.58880782e-02 7.72146210e-02 6.00336976e-02
      6.03543520e-02 1.05588861e-01 1.31885797e-01 2.43482932e-01
      2.38139182e-01 1.75651208e-01 9.73271728e-02 1.22447506e-01
      1.94073230e-01 2.43482932e-01 2.12479532e-01 8.52921009e-02
      1.99816018e-01 2.01653168e-01 1.43619269e-01 1.32141232e-01
      8.68582353e-02 1.97636053e-01 1.90860793e-01 1.49059743e-01
      1.35762319e-01 2.42705151e-01 2.43482932e-01 1.96217611e-01
      8.88032019e-02 1.73219070e-01 2.43482932e-01 2.43482932e-01
      1.56123772e-01 7.84511939e-02 1.24271534e-01 1.29466459e-01
      8.77018422e-02 3. 2.87234038e-01 8.94904435e-01 4.21478122e-01
      8.43749419e-02 1.62500013e-02 3.12499981e-03 8.56249407e-02
      1.24999997e-03 1.87499996e-03 1.87499996e-03 1.06874920e-01
      1.74374864e-01 3.31249870e-02 6.24999986e-04 3.18749882e-02
      1.43750021e-02 2.49999994e-03 5.24999686e-02 3.89377981e-01
      1.87028665e-02 1.96078443e-03 3.31825041e-03 3.31825041e-03
      5.73152350e-03 9.04977380e-04 7.54147826e-04 9.20060370e-03
      4.23831083e-02 8.14479683e-03 1.50829565e-03 5.27903484e-03
      4.13273014e-02 4.97737573e-03 3.28808464e-02 8.19670975e-01
      7.06760585e-02 4.10447195e-02 8.77963146e-04 8.23092461e-02
      1.47058712e-02 2.19490787e-04 4.17032558e-03 1.07770562e-01
      5.94819114e-02 2.04126220e-02 1.31694484e-03 1.84372086e-02
      6.58472488e-03 2.41439906e-03 2.65583526e-02 5.43021500e-01
      5.12907952e-02 9.29432269e-03 2.58175563e-03 1.84165277e-02
      5.16351138e-04 3.44234082e-04 8.60585191e-04 5.16350269e-02
      1.80552214e-01 2.32358240e-02 8.60585191e-04 2.15146467e-02
      2.32358240e-02 3.27022374e-03 4.18244228e-02 5.70568085e-01
      8.82396996e-01 1.11182451e-01 6.20652735e-03 2.14018190e-04 0. 0.</_>
    <_>
      1.44155100e-01 9.98773873e-01 9.95456815e-01 9.90385771e-01
      9.83831584e-01 9.76074696e-01 9.67490196e-01 9.58366156e-01
      9.48923051e-01 9.39453542e-01 9.30153728e-01 9.21196699e-01
      9.12745535e-01 9.05012727e-01 8.98077548e-01 8.92027795e-01
      8.87007475e-01 8.83059204e-01 8.80289018e-01 8.78710032e-01
      8.78229499e-01 6.07486442e-02 1.21820830e-01 1.77964747e-01
      2.31337175e-01 2.77911037e-01 2.20990196e-01 1.82515100e-01
      1.38783276e-01 8.16468671e-02 4.02220823e-02 1.19704984e-01
      2.77911037e-01 2.77911037e-01 2.35109866e-01 6.93146065e-02
      5.05192280e-02 4.06905413e-02 4.52030934e-02 4.44692336e-02
      8.97123292e-02 2.10021153e-01 1.95773736e-01 2.26961732e-01
      2.77911037e-01 2.21303195e-01 5.24472706e-02 2.47524176e-02
      3.17673162e-02 1.14257261e-01 2.77911037e-01 2.77911037e-01
      1.49967179e-01 7.23782629e-02 3.74896973e-02 8.56444798e-03
      1.25719365e-02 3.52941179e+00 2.92134821e-01 8.68884563e-01
      1.40454137e+00 4.03168872e-02 2.59878524e-02 1.69099309e-03
      4.69029546e-02 1.33499457e-03 1.24599494e-03 9.78996046e-04
      8.88212845e-02 3.49768326e-02 9.43396520e-03 2.22499133e-03
      1.44179640e-02 1.92239247e-02 3.29298829e-03 2.90138200e-02
      6.80093050e-01 3.92596945e-02 1.15300319e-03 1.15300354e-04
      1.67185452e-03 2.30600708e-04 9.80052748e-04 1.72950531e-04
      8.93577840e-03 1.98893081e-02 1.72950467e-03 4.61201416e-04
      2.47895764e-03 1.40089607e-02 1.67185452e-03 3.80490683e-02
      8.69064867e-01 9.97166261e-02 4.86790910e-02 5.66037721e-04
      4.49055210e-02 1.69811293e-03 5.66037721e-04 8.49056523e-04
      8.88676122e-02 4.37734500e-02 1.82075128e-02 1.03773572e-03
      1.58490315e-02 1.64150670e-02 3.58490692e-03 2.07546726e-02
      5.94580412e-01 4.57275584e-02 2.79825367e-03 6.82500686e-05
      2.07479633e-02 0. 6.82500686e-05 1.36500137e-04 5.93095161e-02
      1.37248129e-01 8.94076377e-03 1.09200098e-03 1.12612676e-02
      3.03710978e-02 2.38875300e-03 5.46684451e-02 6.25148237e-01
      8.65558326e-01 9.77308452e-02 2.34104693e-02 8.49247351e-03
      4.80790855e-03 0.</_>
    <_>
      1.40789479e-01 9.98234689e-01 9.95278358e-01 9.90723014e-01
      9.84441817e-01 9.77181435e-01 9.69226837e-01 9.60552096e-01
      9.51869249e-01 9.43172157e-01 9.34970558e-01 9.26711082e-01
      9.18953478e-01 9.12042439e-01 9.06026602e-01 9.00443316e-01
      8.96313369e-01 8.92554998e-01 8.90163779e-01 8.88838589e-01
      8.88317406e-01 1.07362993e-01 1.66307315e-01 2.37756535e-01
      2.37756535e-01 2.10466400e-01 1.82097510e-01 1.69126257e-01
      2.13013947e-01 1.43439621e-01 8.94802436e-02 9.38489586e-02
      2.05699384e-01 2.37756535e-01 2.37756535e-01 1.34056211e-01
      1.50902182e-01 9.56850275e-02 8.97843614e-02 5.63168712e-02
      8.90843794e-02 2.16018617e-01 1.90703914e-01 2.12864608e-01
      1.94233567e-01 1.37416124e-01 1.10299945e-01 8.97530839e-02
      5.93644567e-02 1.11982077e-01 2.37756535e-01 2.37756535e-01
      2.37756535e-01 1.26638979e-01 1.09027691e-01 8.20104927e-02
      8.15445110e-02 2.54545450e+00 4.18604642e-01 8.67346942e-01 0. 0.
      0. 0. 0. 0. 0. 0. 0. 0. 0. 0. 0. 0. 0. 0. 0. 1.62337646e-02
      1.08225094e-02 6.49350602e-03 2.59740222e-02 3.24675324e-03
      6.49350602e-03 1.08225108e-03 1.19047603e-02 7.25108460e-02
      1.94805171e-02 6.49350602e-03 3.24675292e-02 4.22078036e-02
      1.08225094e-02 7.14285970e-02 6.62334561e-01 2.71739185e-01
      5.65217286e-02 2.17391294e-03 5.21739051e-02 0. 0. 0.
      8.69565383e-02 5.21739051e-02 3.04347854e-02 2.17391294e-03
      2.82608718e-02 1.30434772e-02 8.69565178e-03 2.82608718e-02
      3.67390811e-01 1.55726984e-01 2.44530290e-02 9.00900923e-03
      8.10810700e-02 0. 0. 2.57400260e-03 8.49420652e-02 1.08108036e-01
      2.18790248e-02 5.14800521e-03 5.14800521e-03 3.08880396e-02
      7.72200758e-03 7.07850829e-02 3.92536342e-01 9.44093764e-01
      5.04959412e-02 5.41027961e-03 0. 0. 0.</_>
    <_>
      8.47994015e-02 9.98592198e-01 9.94924605e-01 9.89335179e-01
      9.82346475e-01 9.74367976e-01 9.65705812e-01 9.56806660e-01
      9.48100448e-01 9.39983070e-01 9.32752252e-01 9.26585793e-01
      9.21605647e-01 9.17819560e-01 9.15232003e-01 9.13676858e-01
      9.12890553e-01 9.12781417e-01 9.13093805e-01 9.13461208e-01
      9.13689494e-01 5.49202189e-02 9.98183191e-02 1.59756556e-01
      2.74736911e-01 2.79446095e-01 1.67760476e-01 1.13636717e-01
      1.01121329e-01 7.67977983e-02 6.30430654e-02 1.44795612e-01
      2.85982549e-01 2.85982549e-01 2.08753854e-01 1.09555751e-01
      5.99823855e-02 9.78550836e-02 9.23111737e-02 8.22129846e-02
      1.33467868e-01 2.85982549e-01 2.47290939e-01 2.60063618e-01
      1.74700588e-01 8.31659138e-02 4.46469449e-02 5.39364740e-02
      6.06036820e-02 1.66116729e-01 2.85982549e-01 2.85982549e-01
      6.81291744e-02 2.62736343e-02 3.12872082e-02 3.51429321e-02
      4.72488627e-02 3.19354844e+00 2.65582651e-01 8.34467113e-01 0. 0.
      0. 0. 0. 0. 0. 0. 0. 0. 0. 0. 0. 0. 0. 0. 0. 4.14479673e-02
      2.00679176e-03 7.71843188e-05 2.31552892e-03 0. 7.71843188e-05 0.
      1.79839414e-02 2.99475063e-02 5.17134788e-03 1.38931745e-03
      6.32911222e-03 2.26921830e-02 3.16455611e-03 4.68508676e-02
      8.20582747e-01 4.53355871e-02 6.19004928e-02 3.26939882e-03
      6.84392750e-02 1.04620773e-02 2.39755888e-03 3.26939882e-03
      7.78115243e-02 2.68090460e-02 2.59372089e-02 3.92327877e-03
      2.76808832e-02 1.48212817e-02 4.79511777e-03 2.26678196e-02
      6.00501835e-01 6.69946820e-02 4.07608738e-03 3.13545141e-04
      1.00334361e-02 0. 0. 0. 3.94022614e-02 1.49667427e-01
      1.79765671e-02 8.36120395e-04 1.45275760e-02 1.64088439e-02
      3.65802739e-03 3.50125581e-02 6.41064882e-01 8.79113436e-01
      9.95246023e-02 1.93863064e-02 1.97567442e-03 0. 0.</_>
    <_>
      1.51422292e-01 9.98737574e-01 9.95808899e-01 9.91386652e-01
      9.85885918e-01 9.79274035e-01 9.72070098e-01 9.64343488e-01
      9.56495762e-01 9.48618412e-01 9.40859139e-01 9.33508992e-01
      9.26817954e-01 9.21016932e-01 9.16074753e-01 9.12104666e-01
      9.08934414e-01 9.06586409e-01 9.04840469e-01 9.03856695e-01
      9.03468370e-01 1.00554474e-01 1.74674138e-01 2.29757667e-01
      1.54241160e-01 2.29757667e-01 2.11814925e-01 2.29757667e-01
      1.15858488e-01 1.56239018e-01 8.57070312e-02 1.17421471e-01
      2.29757667e-01 2.29757667e-01 2.29757667e-01 1.30298868e-01
      1.37526378e-01 7.09074438e-02 7.65997991e-02 8.62413049e-02
      1.43863127e-01 2.19453007e-01 1.08513214e-01 2.29757667e-01
      2.16896832e-01 2.29757667e-01 1.27056718e-01 1.29668087e-01
      7.57137090e-02 1.42339662e-01 2.29757667e-01 2.29757667e-01
      1.92982301e-01 9.98966843e-02 8.76473635e-02 4.47632447e-02
      6.17646463e-02 3.75000000e+00 3.35078537e-01 8.00420165e-01
      3.62687498e-01 1.57174274e-01 1.02810726e-01 4.80769295e-03
      7.02661723e-02 1.84911245e-03 2.21893494e-03 5.17751556e-03
      1.18343353e-01 6.28696829e-02 2.03402415e-02 3.69822513e-03
      2.10798867e-02 2.03402415e-02 9.98520944e-03 4.77070324e-02
      3.51328224e-01 1.69312526e-02 3.23029701e-03 1.72653899e-03
      6.18212670e-03 4.62266803e-03 9.46811284e-04 1.39236997e-03
      1.54274888e-02 8.33178982e-02 2.24450529e-02 2.84043397e-03
      1.69869475e-02 2.81816330e-02 7.29602575e-03 4.71173860e-02
      7.41285026e-01 1.24293365e-01 5.96686229e-02 6.16909750e-03
      5.68368658e-02 8.09061457e-04 1.01132679e-03 2.73058307e-03
      1.16404898e-01 9.02111456e-02 2.56876424e-02 1.51699013e-03
      1.72936600e-02 4.10599336e-02 8.49514827e-03 4.52064350e-02
      4.02592123e-01 1.04454480e-01 3.30363736e-02 7.53035955e-03
      5.85428402e-02 1.05263141e-03 8.09716526e-04 5.02024265e-03
      9.57094058e-02 1.32471099e-01 1.86234843e-02 2.59109330e-03
      1.10931247e-02 4.70446870e-02 1.26315923e-02 7.18223974e-02
      3.97576392e-01 7.87467480e-01 1.68465674e-01 2.40461677e-02
      1.12215457e-02 5.94920013e-03 2.84991623e-03</_>
    <_>
      1.23901896e-01 9.98522401e-01 9.94938016e-01 9.89529312e-01
      9.82779086e-01 9.74742889e-01 9.65680003e-01 9.55749750e-01
      9.45117354e-01 9.34143543e-01 9.23059464e-01 9.12127137e-01
      9.01638091e-01 8.91843498e-01 8.82789910e-01 8.74765277e-01
      8.68051589e-01 8.62931669e-01 8.59410405e-01 8.57617676e-01
      8.57024968e-01 1.77649051e-01 1.82954147e-01 1.70878083e-01
      1.35021314e-01 1.34489536e-01 1.71285197e-01 1.97272032e-01
      1.63453490e-01 1.70619592e-01 7.82509968e-02 1.59117818e-01
      2.37567574e-01 2.37567574e-01 1.07325517e-01 7.57094398e-02
      9.77369174e-02 6.25180081e-02 4.75801714e-02 2.32693851e-01
      2.37567574e-01 2.37567574e-01 2.37567574e-01 1.63133517e-01
      1.55372977e-01 2.35723272e-01 1.88064158e-01 2.10162207e-01
      5.85790202e-02 1.48127615e-01 2.37567574e-01 2.37567574e-01
      9.85382646e-02 4.22443748e-02 6.64195120e-02 3.47359553e-02
      3.19522694e-02 3.07999992e+00 3.17164183e-01 8.75409842e-01
      1.08980298e+00 6.17283620e-02 4.69821431e-02 4.80109686e-03
      5.00685610e-02 6.85871055e-04 2.40054866e-03 3.08641978e-03
      6.55006543e-02 3.22359242e-02 2.67489590e-02 2.74348422e-03
      2.09190585e-02 2.02331878e-02 5.14403218e-03 3.29217948e-02
      6.23810112e-01 1.67540796e-02 3.20512871e-03 3.20512871e-03
      8.88694916e-03 9.17832460e-03 1.01981359e-03 1.74825161e-03
      2.36013588e-02 3.05943247e-02 5.97319519e-03 2.62237783e-03
      6.99300924e-03 2.09789965e-02 2.47669010e-03 5.02622835e-02
      8.12447786e-01 1.07276760e-01 5.83835691e-02 3.73885548e-03
      5.17686866e-02 2.87604256e-04 5.75208513e-04 1.72562560e-03
      5.20562902e-02 5.17686866e-02 3.65256965e-02 2.87604262e-03
      2.50215530e-02 2.07074992e-02 7.76531221e-03 3.50876786e-02
      5.44424653e-01 7.97630474e-02 7.83699378e-03 8.70776712e-04
      2.47300733e-02 8.70776712e-04 1.74155342e-04 1.74155342e-04
      3.86624299e-02 7.08810240e-02 2.99547371e-02 3.13479686e-03
      2.10728087e-02 2.66457833e-02 6.79206150e-03 6.49596751e-02
      6.23492837e-01 9.20374334e-01 7.63421431e-02 2.29847315e-03
      9.85059887e-04 0. 0.</_>
    <_>
      1.37868479e-01 9.97306168e-01 9.91750240e-01 9.83920395e-01
      9.74379301e-01 9.63447273e-01 9.51437950e-01 9.38761473e-01
      9.25763905e-01 9.12316799e-01 8.98620665e-01 8.84674966e-01
      8.70314658e-01 8.56103063e-01 8.42638850e-01 8.30694497e-01
      8.20502520e-01 8.12409997e-01 8.06687772e-01 8.03694844e-01
      8.02642345e-01 7.32169114e-03 2.23567281e-02 5.40337414e-02
      8.39006603e-02 1.65638417e-01 2.92399704e-01 2.92399704e-01
      2.56781280e-02 5.68642328e-03 3.25880870e-02 1.24892645e-01
      2.50293136e-01 2.15562567e-01 2.27748737e-01 1.74748719e-01
      1.58864453e-01 5.37464656e-02 2.67959293e-02 4.11379850e-03
      8.87663942e-03 1.75720174e-02 3.93087305e-02 1.20225057e-01
      2.92399704e-01 2.92399704e-01 1.20566852e-01 7.82103557e-03
      3.56328525e-02 5.18858992e-02 8.50079432e-02 1.06786557e-01
      2.83992797e-01 2.92399704e-01 2.92399704e-01 2.67221987e-01
      5.26789129e-02 2.09230781e+00 2.82608688e-01 8.95390093e-01
      8.66138101e-01 9.80624277e-03 1.66588016e-02 8.27032200e-04
      4.14697938e-02 1.18147451e-04 0. 9.45179665e-04 8.60106871e-02
      3.79253663e-02 1.06332758e-02 4.72589803e-04 1.67769492e-02
      1.34688178e-02 2.95368559e-03 2.82372646e-02 7.33652711e-01
      4.13037091e-02 1.29185012e-02 2.96296290e-04 1.54666435e-02
      5.92592587e-05 0. 1.77777780e-04 3.04001756e-02 1.24920942e-01
      9.18517634e-03 8.88888782e-04 9.83702671e-03 3.05186957e-02
      3.20000178e-03 5.41034788e-02 6.66647851e-01 3.36286575e-02
      2.06693020e-02 4.10104985e-04 3.06759346e-02 8.20209971e-05 0.
      1.14829396e-03 1.44685298e-01 1.11549616e-01 3.11680641e-02
      5.74146979e-04 2.41142083e-02 1.68963093e-02 3.52690509e-03
      9.92454030e-03 5.70922434e-01 2.03174390e-02 7.11110514e-03
      3.17460333e-04 1.25714159e-02 0. 6.34920652e-05 0. 2.52698138e-02
      1.39495060e-01 1.86666474e-02 8.88888782e-04 1.54920472e-02
      1.80317275e-02 3.42856999e-03 2.31745783e-02 7.15084612e-01
      8.74142587e-01 1.14148133e-01 8.79927911e-03 1.48964184e-03
      1.38571335e-03 3.46428315e-05</_>
    <_>
      1.04027078e-01 9.98555303e-01 9.94929135e-01 9.89500284e-01
      9.82549548e-01 9.74510670e-01 9.65671897e-01 9.56197381e-01
      9.46230769e-01 9.36145723e-01 9.26231205e-01 9.16684151e-01
      9.07836795e-01 8.99833918e-01 8.92771125e-01 8.86616111e-01
      8.81583929e-01 8.77729237e-01 8.74986410e-01 8.73360455e-01
      8.72862637e-01 7.67318085e-02 7.50688314e-02 8.66549388e-02
      2.23601118e-01 2.89893955e-01 2.78969198e-01 1.22984312e-01
      6.12435266e-02 4.83121052e-02 6.69934154e-02 8.31692815e-02
      2.89893955e-01 2.89893955e-01 1.71053156e-01 7.25782365e-02
      4.20983545e-02 3.40497978e-02 3.88625637e-02 1.25595614e-01
      1.58955455e-01 1.82971850e-01 1.96409211e-01 2.89893955e-01
      2.63615012e-01 1.31351233e-01 7.45052248e-02 7.64761642e-02
      9.12784338e-02 1.58177614e-01 2.89893955e-01 2.89893955e-01
      1.57794297e-01 4.36579548e-02 2.47690789e-02 2.74227988e-02
      4.08689380e-02 3.04761910e+00 2.55395681e-01 8.99350643e-01 0. 0.
      0. 0. 0. 0. 0. 0. 0. 0. 0. 0. 0. 0. 0. 0. 0. 6.17077500e-02
      5.32598887e-03 1.83654731e-04 3.48943984e-03 5.50964207e-04
      3.67309462e-04 3.67309462e-04 9.18273639e-04 2.18549334e-02
      4.22405917e-03 7.34618923e-04 2.93847569e-03 5.87695371e-03
      9.18273639e-04 1.65289398e-02 8.73971224e-01 1.21294059e-01
      6.73855320e-02 1.54023874e-03 4.92876731e-02 7.70119368e-04
      1.92529848e-03 1.15517899e-03 6.89257756e-02 4.31266986e-02
      2.31035724e-02 1.54023874e-03 2.84943990e-02 3.85059719e-03
      3.46553745e-03 7.70119252e-03 5.76423407e-01 6.42110184e-02
      4.42834012e-03 0. 1.12721454e-02 0. 0. 0. 7.52816871e-02
      1.73508719e-01 6.23993343e-03 2.01288247e-04 7.64895044e-03
      2.59662140e-02 1.61030598e-03 3.40177566e-02 5.95603168e-01
      9.07304645e-01 8.94590840e-02 2.77392520e-03 4.62320837e-04 0. 0.</_>
    <_>
      1.36565223e-01 9.97327805e-01 9.90587175e-01 9.80914235e-01
      9.69357431e-01 9.57136869e-01 9.45356250e-01 9.34817374e-01
      9.25906599e-01 9.19786632e-01 9.17149305e-01 9.17678535e-01
      9.20926929e-01 9.26071763e-01 9.32096362e-01 9.38206851e-01
      9.44055438e-01 9.49424803e-01 9.53665257e-01 9.56457078e-01
      9.57452714e-01 2.18871146e-01 2.18871146e-01 2.17040867e-01
      2.18871146e-01 2.18871146e-01 1.61141381e-01 9.01913345e-02
      9.65099260e-02 1.41576052e-01 1.34548515e-01 1.68971404e-01
      1.88495129e-01 1.53348729e-01 1.22920066e-01 1.02988206e-01
      6.77116588e-02 7.39663988e-02 7.82126859e-02 1.91009924e-01
      1.81394786e-01 2.14851424e-01 2.18871146e-01 2.18871146e-01
      2.03652337e-01 1.79014668e-01 1.63626701e-01 2.18871146e-01
      1.10844314e-01 1.65059701e-01 2.18871146e-01 2.18871146e-01
      1.58219993e-01 8.09790418e-02 6.45855218e-02 6.58054277e-02
      1.14224724e-01 5.53333330e+00 3.30935240e-01 8.96440148e-01 0. 0.
      0. 0. 0. 0. 0. 0. 0. 0. 0. 0. 0. 0. 0. 0. 0. 4.90741506e-02
      6.94444403e-04 0. 5.55555616e-03 0. 0. 0. 2.40740869e-02
      4.88426685e-02 6.48148265e-03 4.62962955e-04 4.62962966e-03
      1.85185168e-02 2.31481483e-03 3.12500298e-02 8.08121562e-01
      3.00469417e-02 4.90610227e-02 5.16431872e-03 6.97184056e-02
      4.69483528e-03 4.46009357e-03 5.63380215e-03 5.02347313e-02
      4.06103209e-02 3.52112614e-02 5.63380215e-03 4.27229963e-02
      2.39436571e-02 1.07981199e-02 4.48356718e-02 5.77234626e-01
      6.95650578e-02 1.26620894e-02 6.10221177e-04 2.88328715e-02 0. 0.
      4.57665883e-04 2.41036862e-02 5.33941239e-02 2.41036862e-02
      2.59344000e-03 2.59343386e-02 2.88328715e-02 9.76353884e-03
      6.69715703e-02 6.52154684e-01 9.64814842e-01 2.74691358e-02
      5.55555569e-03 2.16049375e-03 0. 0.</_>
    <_>
      1.46591395e-01 9.99063194e-01 9.96678472e-01 9.93088841e-01
      9.88435507e-01 9.82886672e-01 9.76519346e-01 9.69648063e-01
      9.62370634e-01 9.54861224e-01 9.47309554e-01 9.39913750e-01
      9.32903111e-01 9.26362813e-01 9.20397222e-01 9.15124595e-01
      9.10771549e-01 9.07356083e-01 9.04866278e-01 9.03308272e-01
      9.02724266e-01 1.41306177e-01 1.07611276e-01 2.13540435e-01
      2.41271496e-01 2.41271496e-01 2.41271496e-01 2.41271496e-01
      9.11218822e-02 1.29979447e-01 8.09688717e-02 6.01514131e-02
      2.26797298e-01 2.41271496e-01 2.41271496e-01 1.86479956e-01
      1.80131420e-01 1.23302802e-01 9.28718969e-02 7.91946575e-02
      1.03172228e-01 1.73447773e-01 1.76291212e-01 2.41271496e-01
      2.41271496e-01 1.59528062e-01 7.17578083e-02 7.14936033e-02
      6.69068843e-02 1.03523843e-01 2.41271496e-01 2.41271496e-01
      1.43055812e-01 6.62634373e-02 5.24210148e-02 4.28219438e-02
      4.51891609e-02 3.90909100e+00 2.86666662e-01 8.54285717e-01
      4.48363215e-01 9.58048850e-02 4.93197106e-02 6.80272048e-03
      9.52379927e-02 1.13378686e-03 1.70068024e-03 7.36961374e-03
      1.70635268e-01 4.36507873e-02 1.47392265e-02 2.83446722e-03
      1.07709737e-02 2.89115794e-02 1.30385468e-02 3.85487564e-02
      4.19504255e-01 5.26247658e-02 5.49999764e-03 3.62500036e-03
      1.22500025e-02 6.25000044e-04 2.50000012e-04 2.37500016e-03
      7.08745345e-02 1.16248950e-01 2.36250255e-02 2.00000009e-03
      1.80000141e-02 6.72495812e-02 5.37499785e-03 6.08746596e-02
      5.58482349e-01 1.08759433e-01 5.99832833e-02 4.56620986e-03
      7.92861581e-02 2.49065994e-03 1.45288499e-03 3.94354481e-03
      1.25364095e-01 6.39268458e-02 1.95101444e-02 2.28310493e-03
      1.45288352e-02 2.15856899e-02 1.22457352e-02 3.71522829e-02
      4.42914397e-01 1.11447550e-01 2.42939573e-02 7.28818728e-03
      5.75459898e-02 9.11023410e-04 7.59186165e-04 4.55511687e-03
      1.12662233e-01 1.37867540e-01 1.33616766e-02 2.88490742e-03
      1.13877924e-02 4.73730192e-02 1.10841179e-02 7.42478818e-02
      3.82334501e-01 7.29555726e-01 2.03090787e-01 4.29491289e-02
      1.56471338e-02 6.37475867e-03 2.38248543e-03</_>
    <_>
      1.47640795e-01 9.98923957e-01 9.96674418e-01 9.93627608e-01
      9.89969075e-01 9.86356616e-01 9.83001232e-01 9.79880869e-01
      9.76876080e-01 9.74082708e-01 9.71255004e-01 9.68237936e-01
      9.65067267e-01 9.61818159e-01 9.58513558e-01 9.55310345e-01
      9.52609241e-01 9.50385869e-01 9.48614001e-01 9.47672546e-01
      9.47475374e-01 1.11122645e-01 1.78836584e-01 2.58087724e-01
      2.58087724e-01 2.02164412e-01 1.83168381e-01 1.57966554e-01
      1.26215205e-01 1.12358801e-01 6.06331490e-02 9.67705101e-02
      2.58087724e-01 2.58087724e-01 1.45187229e-01 1.13706388e-01
      6.82367906e-02 7.07980320e-02 4.24798839e-02 1.15398988e-01
      1.74371019e-01 2.58087724e-01 2.58087724e-01 2.05634281e-01
      1.62318975e-01 1.47273764e-01 1.51183650e-01 1.58231243e-01
      6.17569797e-02 1.14870749e-01 2.58087724e-01 2.58087724e-01
      1.46201313e-01 7.44253695e-02 5.94555587e-02 5.20138852e-02
      4.07699607e-02 4.90000010e+00 3.52112681e-01 8.49397600e-01
      1.31169593e+00 3.85802314e-02 5.01542985e-02 8.48765485e-03
      8.48765001e-02 2.31481483e-03 4.62962966e-03 3.08641978e-03
      8.95061269e-02 3.24073955e-02 2.23765355e-02 4.62962966e-03
      4.24382538e-02 2.62345579e-02 1.00308638e-02 3.00925802e-02
      5.50156116e-01 4.93519306e-02 4.48653987e-03 3.48953111e-03
      6.48055738e-03 1.99401798e-03 2.99102673e-03 1.99401798e-03
      1.24626104e-02 3.58923376e-02 2.29312163e-02 3.98803549e-03
      3.09073012e-02 2.29312163e-02 6.97906176e-03 3.63908410e-02
      7.56743670e-01 6.16776608e-02 7.64802396e-02 8.22368450e-03
      6.57894909e-02 2.30263174e-02 3.28947371e-03 5.75657934e-03
      8.63486230e-02 6.00329228e-02 3.20723765e-02 7.40131643e-03
      2.79605314e-02 5.09868637e-02 1.15131568e-02 2.71381624e-02
      4.52301174e-01 5.60224093e-02 2.74509806e-02 2.24089646e-03
      5.04201688e-02 0. 1.12044823e-03 7.28291320e-03 7.50700310e-02
      1.04201682e-01 1.51260504e-02 1.68067240e-03 8.96358583e-03
      6.27451017e-02 6.72268914e-03 8.12324956e-02 4.99719888e-01
      9.21598375e-01 6.32271096e-02 8.09307024e-03 2.52908445e-03
      3.54071823e-03 1.01163378e-03</_>
    <_>
      1.40894085e-01 9.98678029e-01 9.95228827e-01 9.90155756e-01
      9.83929336e-01 9.76735890e-01 9.68712807e-01 9.60039794e-01
      9.51070309e-01 9.42045212e-01 9.33334529e-01 9.25068796e-01
      9.17351723e-01 9.10209417e-01 9.03753459e-01 8.98157537e-01
      8.93625617e-01 8.90068114e-01 8.87518167e-01 8.85928988e-01
      8.85384202e-01 3.67415287e-02 5.42534478e-02 1.13040902e-01
      1.46874413e-01 2.58320928e-01 2.58320928e-01 2.53819644e-01
      1.14079632e-01 5.68422414e-02 3.56386751e-02 8.67887959e-02
      2.58320928e-01 2.58320928e-01 2.58320928e-01 1.83698788e-01
      1.85610071e-01 1.06552228e-01 8.14422742e-02 7.46296197e-02
      9.07934457e-02 1.95777759e-01 2.27765679e-01 2.58320928e-01
      1.98016718e-01 1.47552133e-01 1.01520620e-01 7.25731850e-02
      5.48121855e-02 1.47021070e-01 2.58320928e-01 2.58320928e-01
      1.51028469e-01 5.33106811e-02 7.13452473e-02 7.96535462e-02
      8.36761892e-02 3.36363626e+00 2.37012982e-01 8.69688392e-01 0. 0.
      0. 0. 0. 0. 0. 0. 0. 0. 0. 0. 0. 0. 0. 0. 0. 5.98219372e-02
      2.58843787e-03 2.30083382e-03 5.75208524e-03 4.31406370e-04
      4.31406370e-04 1.29421917e-03 1.00661460e-02 3.59505303e-02
      6.90250332e-03 1.43802131e-03 5.03307395e-03 1.66810285e-02
      2.58843787e-03 4.51539643e-02 8.03602219e-01 9.47579816e-02
      4.13306095e-02 1.00806449e-03 5.16632609e-02 3.27620958e-03
      1.00806449e-03 7.56048365e-04 8.79535526e-02 4.46068160e-02
      2.64616720e-02 1.51209673e-03 1.89011954e-02 1.18447505e-02
      3.52822570e-03 1.68850683e-02 5.94498992e-01 2.03508977e-02
      5.43859834e-03 1.22807024e-03 9.82456841e-03 1.00000072e-02
      4.38596541e-03 1.57894741e-03 5.01754954e-02 1.66665107e-01
      1.70175601e-02 4.91228187e-03 1.52631719e-02 3.52631956e-02
      7.19298655e-03 3.96491662e-02 6.11044526e-01 8.93719316e-01
      1.03145577e-01 3.13512376e-03 0. 0. 0.</_>
    <_>
      1.14487298e-01 9.98858929e-01 9.96320367e-01 9.92956221e-01
      9.89056885e-01 9.84890997e-01 9.80647385e-01 9.76323128e-01
      9.72143710e-01 9.67983425e-01 9.63961542e-01 9.60070908e-01
      9.56234813e-01 9.52621281e-01 9.49327469e-01 9.46463883e-01
      9.44392979e-01 9.43215013e-01 9.42466021e-01 9.42008018e-01
      9.41854000e-01 5.87979332e-02 6.17701821e-02 6.60617426e-02
      7.42266625e-02 1.45341054e-01 2.29101703e-01 2.31795579e-01
      2.31795579e-01 1.08341977e-01 1.00075155e-01 9.43667814e-02
      1.29036948e-01 2.31795579e-01 2.18583062e-01 1.36750966e-01
      2.31795579e-01 2.31795579e-01 1.49378985e-01 7.96404406e-02
      5.18956147e-02 5.94975911e-02 1.02213226e-01 1.35816514e-01
      2.14470208e-01 2.31795579e-01 2.22675785e-01 1.48580492e-01
      1.19501702e-01 1.18008338e-01 2.13423327e-01 2.31795579e-01
      2.31795579e-01 1.38466433e-01 1.62628934e-01 1.84123918e-01
      1.69066101e-01 2.97142863e+00 3.19402993e-01 8.52040827e-01 0. 0.
      0. 0. 0. 0. 0. 0. 0. 0. 0. 0. 0. 0. 0. 0. 0. 4.67158630e-02
      1.72413769e-03 4.10509005e-04 3.53037938e-03 7.38916162e-04
      9.85221588e-04 4.10509005e-04 1.46141062e-02 3.44827138e-02
      7.38915894e-03 1.97044318e-03 6.97865058e-03 2.50410195e-02
      3.03776795e-03 5.12314551e-02 8.00661922e-01 2.12399866e-02
      1.22464709e-02 7.27133546e-03 4.82203700e-02 1.54994447e-02
      5.74052799e-04 3.82701866e-03 6.77381232e-02 6.27629384e-02
      3.84615436e-02 2.10486026e-03 4.03750390e-02 1.47340391e-02
      8.22809152e-03 3.38691548e-02 6.22844458e-01 4.86108959e-02
      1.21252341e-02 5.51146339e-04 2.12742798e-02 1.54320954e-03
      6.61375583e-04 8.81834072e-04 4.14461009e-02 1.28638133e-01
      3.54938097e-02 1.65343878e-03 2.65652947e-02 1.17945457e-02
      5.73192490e-03 1.71957891e-02 6.45822704e-01 9.46050763e-01
      5.36169261e-02 3.32336320e-04 0. 0. 0.</_>
    <_>
      1.13894522e-01 9.98139918e-01 9.93797719e-01 9.87458825e-01
      9.79273200e-01 9.69437480e-01 9.58118320e-01 9.45879161e-01
      9.33189452e-01 9.20272589e-01 9.07585859e-01 8.95392060e-01
      8.83905351e-01 8.73473465e-01 8.64290416e-01 8.56606662e-01
      8.50195467e-01 8.45138133e-01 8.41469705e-01 8.39413166e-01
      8.38781953e-01 9.19567719e-02 7.44675547e-02 1.35939062e-01
      2.01824591e-01 2.06968129e-01 1.36154547e-01 1.79298282e-01
      1.61339074e-01 1.40072927e-01 1.22887522e-01 1.75010979e-01
      2.66661495e-01 2.66661495e-01 1.24120407e-01 5.85729741e-02
      9.94224548e-02 1.13810860e-01 1.23770267e-01 1.15122415e-01
      1.74587488e-01 2.56392121e-01 2.02043131e-01 1.63015142e-01
      1.39936760e-01 1.25739992e-01 1.12322249e-01 1.44584820e-01
      1.13144599e-01 2.66661495e-01 2.66661495e-01 2.66661495e-01
      1.85702369e-01 1.10664323e-01 8.50671753e-02 7.99867287e-02
      8.79495665e-02 1.97297299e+00 2.85266459e-01 8.93258452e-01 0. 0.
      0. 0. 0. 0. 0. 0. 0. 0. 0. 0. 0. 0. 0. 0. 0. 4.10811715e-02
      9.04639810e-03 2.12856545e-03 1.74541958e-02 3.19284794e-04
      6.38569647e-04 1.17071101e-03 4.51254286e-02 7.19455704e-02
      1.18135214e-02 2.02213717e-03 1.09620988e-02 6.01317510e-02
      5.95998345e-03 6.72625825e-02 6.52961254e-01 7.03264028e-02
      4.65470292e-02 3.54161323e-03 5.84367737e-02 2.27675145e-03
      3.79458559e-03 3.03566852e-03 8.19630027e-02 4.42702696e-02
      2.85859257e-02 2.78269616e-03 3.76929641e-02 1.11307846e-02
      7.84214400e-03 1.01188952e-02 5.87642908e-01 7.85196498e-02
      7.16019515e-03 9.70873865e-04 1.17718317e-02 3.15534021e-03
      9.70873865e-04 1.09223311e-03 4.95144129e-02 1.05947576e-01
      2.00242288e-02 1.69902935e-03 1.39562897e-02 2.45145038e-02
      5.21844719e-03 4.39319089e-02 6.31537497e-01 9.09027517e-01
      9.01882201e-02 7.84245378e-04 0. 0. 0.</_>
    <_>
      1.50885135e-01 9.98529673e-01 9.95239675e-01 9.90550935e-01
      9.84683454e-01 9.77734447e-01 9.70254958e-01 9.62426007e-01
      9.54495907e-01 9.46652114e-01 9.39374328e-01 9.32953477e-01
      9.27173197e-01 9.22161877e-01 9.18034077e-01 9.14861202e-01
      9.12525296e-01 9.11042809e-01 9.10269737e-01 9.10118520e-01
      9.10094678e-01 1.13428257e-01 1.91665858e-01 2.50224859e-01
      2.51190037e-01 2.51190037e-01 2.51190037e-01 2.51190037e-01
      2.25827426e-01 1.05452605e-01 6.87419772e-02 1.04513943e-01
      2.24859238e-01 2.51190037e-01 2.51190037e-01 1.41674489e-01
      9.00373608e-02 6.55461699e-02 5.29208519e-02 6.69068322e-02
      7.34223872e-02 1.05741151e-01 1.63432211e-01 1.63165882e-01
      2.19362780e-01 1.65521353e-01 1.31353781e-01 4.90928069e-02
      4.23578247e-02 6.49763942e-02 2.51190037e-01 2.51190037e-01
      1.59097597e-01 1.07630737e-01 5.18345386e-02 3.28317285e-02
      2.56831516e-02 4.61111116e+00 2.95918375e-01 8.96024466e-01
      8.40043902e-01 7.74872154e-02 3.53953950e-02 1.27551018e-03
      6.44132420e-02 1.27551018e-03 1.27551018e-03 2.86989799e-03
      9.63009819e-02 3.76275368e-02 1.30739762e-02 2.55102036e-03
      1.56249953e-02 1.94515251e-02 1.59438769e-03 3.25254984e-02
      5.97268403e-01 6.08492233e-02 3.45911901e-03 1.57232702e-04
      2.83018849e-03 0. 0. 0. 5.34591265e-03 1.69811249e-02
      7.38993986e-03 7.86163495e-04 7.23270699e-03 1.52515611e-02
      2.04402534e-03 2.90880911e-02 8.48603845e-01 1.24014817e-01
      4.25609127e-02 3.66905151e-04 4.62299511e-02 0. 1.83452576e-04
      7.33810302e-04 7.28306919e-02 4.60464992e-02 1.68776419e-02
      3.66905151e-04 1.32085904e-02 1.21078733e-02 1.46762072e-03
      1.90790650e-02 6.03944063e-01 3.72042283e-02 4.82565304e-03
      1.55666246e-04 3.05106267e-02 1.55666246e-04 1.55666246e-04
      1.55666246e-04 6.56909198e-02 1.28579736e-01 1.07409665e-02
      2.02366128e-03 1.61892772e-02 2.91096251e-02 1.55666249e-03
      6.66249096e-02 6.06324673e-01 8.70260179e-01 1.03371836e-01
      1.29506476e-02 6.41698763e-03 5.71695250e-03 1.28339755e-03</_>
    <_>
      1.29034311e-01 9.98806894e-01 9.96265471e-01 9.92789805e-01
      9.88562524e-01 9.83645916e-01 9.78505671e-01 9.73377645e-01
      9.68146861e-01 9.62897897e-01 9.57966208e-01 9.53418970e-01
      9.49315012e-01 9.45654750e-01 9.42669868e-01 9.40416038e-01
      9.38782036e-01 9.37804937e-01 9.37506855e-01 9.37539339e-01
      9.37635243e-01 1.49026439e-01 1.48321733e-01 1.25755563e-01
      8.81437883e-02 1.19321778e-01 2.22165450e-01 1.94452822e-01
      7.74790868e-02 4.71370667e-02 1.55164376e-01 1.80084318e-01
      1.94991782e-01 2.32153893e-01 1.81751758e-01 6.14239015e-02
      5.83956316e-02 5.84018677e-02 7.22913891e-02 2.32057020e-01
      2.32153893e-01 1.54350579e-01 1.08319633e-01 1.78779334e-01
      2.32153893e-01 2.32153893e-01 1.39621139e-01 1.33058116e-01
      2.02317774e-01 2.32153893e-01 2.32153893e-01 2.32153893e-01
      2.32153893e-01 1.08451650e-01 1.09776974e-01 8.79198909e-02
      1.21108793e-01 3.50000000e+00 4.23197478e-01 7.98994958e-01 0. 0.
      0. 0. 0. 0. 0. 0. 0. 0. 0. 0. 0. 0. 0. 0. 0. 3.13353837e-02
      2.41995533e-03 9.30751907e-04 2.54405546e-03 2.66815559e-03
      2.48200551e-04 3.72300798e-04 8.87318049e-03 3.12112868e-02
      5.70861576e-03 1.24100281e-03 5.46041457e-03 2.10350379e-02
      4.46760980e-03 3.56167257e-02 8.45845222e-01 8.45634192e-02
      3.49679813e-02 1.11451664e-03 7.04930127e-02 0. 0. 4.17943753e-04
      8.14985782e-02 2.36834940e-02 1.56032424e-02 6.96572883e-04
      1.99219976e-02 1.21203754e-02 3.20423604e-03 2.70270463e-02
      6.24685407e-01 6.62679672e-02 1.24081112e-02 1.37867650e-03
      2.65625939e-02 0. 0. 2.75735307e-04 5.10108434e-02 8.83264542e-02
      1.63603369e-02 1.83823530e-03 1.84743181e-02 1.87500548e-02
      5.23897074e-03 4.17278968e-02 6.51369333e-01 8.89878988e-01
      1.03335515e-01 6.62197499e-03 1.63505552e-04 0. 0.</_>
    <_>
      1.29505560e-01 9.98486638e-01 9.94349122e-01 9.88041043e-01
      9.80050027e-01 9.70970631e-01 9.61272955e-01 9.51300919e-01
      9.41330135e-01 9.31627989e-01 9.22429919e-01 9.14028168e-01
      9.06701803e-01 9.00604188e-01 8.95810843e-01 8.92204940e-01
      8.89619172e-01 8.87784719e-01 8.86552632e-01 8.85872245e-01
      8.85661900e-01 9.94533002e-02 9.62745920e-02 1.31839707e-01
      1.41580448e-01 2.92908132e-01 2.92908132e-01 2.63228327e-01
      1.38096765e-01 7.89608359e-02 3.88265848e-02 6.53013512e-02
      2.24613696e-01 2.92908132e-01 2.07410246e-01 1.00540087e-01
      5.22723310e-02 2.78017931e-02 2.59687938e-02 2.33899076e-02
      1.73993092e-02 6.53340295e-02 8.13880637e-02 1.72425300e-01
      2.92908132e-01 2.92908132e-01 7.09607825e-02 1.92671157e-02
      2.92754639e-02 4.22589928e-02 2.92908132e-01 2.92908132e-01
      1.53197393e-01 2.09442034e-01 1.17246144e-01 3.03502642e-02
      1.64361596e-02 2.84615374e+00 3.24000001e-01 8.95683467e-01 0. 0.
      0. 0. 0. 0. 0. 0. 0. 0. 0. 0. 0. 0. 0. 0. 0. 4.82050255e-02
      4.10256302e-03 1.19658117e-03 7.35042430e-03 0. 8.54700862e-04
      2.39316211e-03 9.40170977e-03 4.88887802e-02 1.00854719e-02
      1.70940172e-03 1.04273530e-02 2.99145728e-02 5.47008356e-03
      3.86324599e-02 7.81389594e-01 1.18611418e-01 3.08333598e-02
      1.11111114e-03 3.05555817e-02 2.44444627e-02 2.77777785e-04
      1.66666671e-03 9.11111981e-02 3.94444279e-02 2.50000190e-02
      1.38888892e-03 2.50000190e-02 6.38888730e-03 3.05555528e-03
      8.61111004e-03 5.92499971e-01 4.37233411e-02 1.26311751e-02
      2.33190833e-03 3.88651900e-02 7.96735007e-03 2.72055948e-03
      2.13758275e-03 8.72523710e-02 1.23008363e-01 1.01049365e-02
      3.10921064e-03 1.20481970e-02 4.17800806e-02 6.02409430e-03
      5.63545339e-02 5.49919665e-01 8.88576508e-01 8.80438015e-02
      1.06540397e-02 8.73039383e-03 3.25540104e-03 7.39863841e-04</_>
    <_>
      1.06986552e-01 9.98412132e-01 9.94856656e-01 9.90138650e-01
      9.84956384e-01 9.79830205e-01 9.75235879e-01 9.71226454e-01
      9.67859387e-01 9.64928389e-01 9.61974204e-01 9.58864868e-01
      9.55125570e-01 9.51022685e-01 9.46941257e-01 9.43353713e-01
      9.40475702e-01 9.38493729e-01 9.37147975e-01 9.36166048e-01
      9.35825169e-01 1.88845709e-01 1.42963037e-01 1.05211131e-01
      8.79367143e-02 1.28679842e-01 1.00338511e-01 1.51176780e-01
      1.67933360e-01 1.71815678e-01 1.21159762e-01 1.91659793e-01
      2.40294099e-01 2.40294099e-01 1.15454845e-01 5.56567609e-02
      8.12713504e-02 7.65926093e-02 9.76948664e-02 2.40294099e-01
      2.40294099e-01 2.40294099e-01 1.65740356e-01 1.99129492e-01
      1.29877537e-01 2.00515121e-01 2.06111252e-01 2.10807517e-01
      1.04456969e-01 2.40294099e-01 2.40294099e-01 2.40294099e-01
      1.38585761e-01 6.45534843e-02 8.64447951e-02 7.83780739e-02
      6.84625506e-02 3.72413802e+00 3.86996895e-01 8.94444466e-01 0. 0.
      0. 0. 0. 0. 0. 0. 0. 0. 0. 0. 0. 0. 0. 0. 0. 3.62772718e-02
      6.93257898e-03 2.46913522e-03 1.50997378e-02 5.69800555e-04
      1.42450118e-03 9.49667534e-04 1.81386806e-02 3.01045179e-02
      6.55271113e-03 1.04463426e-03 7.02754594e-03 2.20323261e-02
      2.65906868e-03 4.78630140e-02 8.00833285e-01 7.81247690e-02
      4.64637056e-02 3.90624930e-03 6.45557418e-02 1.23355270e-03
      4.11184214e-04 1.23355270e-03 5.30426279e-02 4.25574705e-02
      2.73437127e-02 2.67269718e-03 3.41282263e-02 1.97368339e-02
      7.81250186e-03 3.82400528e-02 5.78546464e-01 5.21579869e-02
      2.15331186e-02 1.33984117e-03 3.31131481e-02 2.87108822e-04
      3.82811762e-04 1.81835587e-03 3.34959589e-02 8.48883167e-02
      2.22030375e-02 2.20116763e-03 2.35428754e-02 2.54569296e-02
      7.08200969e-03 6.03884198e-02 6.30127311e-01 9.51821387e-01
      4.68860157e-02 1.29259692e-03 0. 0. 0.</_>
    <_>
      1.82570428e-01 9.98900235e-01 9.96547401e-01 9.93350089e-01
      9.89786386e-01 9.86423790e-01 9.83578146e-01 9.81378615e-01
      9.79961097e-01 9.79158103e-01 9.78726923e-01 9.78571296e-01
      9.78284419e-01 9.78021801e-01 9.77764130e-01 9.77503479e-01
      9.77371156e-01 9.77582097e-01 9.77913380e-01 9.78235483e-01
      9.78386223e-01 1.86458435e-02 1.74344927e-02 2.98670977e-02
      4.83264588e-02 1.96291178e-01 2.83011883e-01 2.83011883e-01
      1.05583854e-01 3.11796218e-02 3.13510485e-02 6.89690337e-02
      2.06887871e-01 1.96712077e-01 2.25472972e-01 2.31235087e-01
      1.19625010e-01 6.20763376e-02 2.43013855e-02 1.31977927e-02
      2.24957913e-02 2.71962732e-02 5.45038953e-02 1.81412831e-01
      2.83011883e-01 2.83011883e-01 1.66039750e-01 5.60927764e-02
      5.38642704e-02 8.53612870e-02 2.83011883e-01 2.83011883e-01
      2.13247478e-01 2.83011883e-01 2.05473319e-01 5.77160604e-02
      4.94270958e-02 2.22222233e+00 4.46384043e-01 8.92857134e-01
      3.69545907e-01 3.61224003e-02 4.20407951e-02 4.08163248e-03
      8.34691748e-02 3.46938777e-03 4.08163265e-04 1.83673471e-03
      7.97957554e-02 4.97959331e-02 1.42857144e-02 5.30612236e-03
      1.77550931e-02 5.26530892e-02 5.71428565e-03 7.65304938e-02
      5.26743114e-01 2.60731373e-02 1.61616281e-02 2.33585900e-03
      2.83458401e-02 2.33585900e-03 1.01010117e-03 2.52525299e-03
      5.44826053e-02 9.31178853e-02 9.40655917e-03 2.08333367e-03
      7.13382801e-03 7.21591339e-02 4.22979752e-03 8.03658739e-02
      5.98184824e-01 4.63487729e-02 3.40344943e-02 9.28218011e-04
      6.96782619e-02 1.23762380e-04 0. 6.80693192e-04 1.04395479e-01
      3.52102295e-02 1.82548910e-02 7.42574397e-04 2.97647193e-02
      1.64603479e-02 2.97029782e-03 2.40098052e-02 6.16339803e-01
      4.31249626e-02 1.13636348e-03 1.87499914e-03 2.58522499e-02
      5.68181822e-05 0. 1.81818102e-03 8.25567469e-02 1.09943084e-01
      9.54544637e-03 1.24999974e-03 1.31818065e-02 4.97158654e-02
      6.59090374e-03 6.94317594e-02 5.83963394e-01 8.81913781e-01
      9.40692946e-02 1.26305474e-02 4.78829676e-03 5.16532827e-03
      1.43271883e-03</_>
    <_>
      1.46129444e-01 9.98308957e-01 9.93844926e-01 9.87353146e-01
      9.79358792e-01 9.70161021e-01 9.59930897e-01 9.48986053e-01
      9.37563181e-01 9.25979376e-01 9.14563954e-01 9.03772235e-01
      8.93750131e-01 8.84394348e-01 8.75874341e-01 8.68410468e-01
      8.62415791e-01 8.58024836e-01 8.55100453e-01 8.53496373e-01
      8.52971435e-01 8.12696368e-02 6.92796558e-02 1.53549537e-01
      2.31498420e-01 2.64284045e-01 2.37172872e-01 1.98575363e-01
      1.07935622e-01 8.53936449e-02 6.29831329e-02 1.41852424e-01
      2.64284045e-01 2.64284045e-01 1.99367478e-01 1.43870801e-01
      1.37007862e-01 8.35037529e-02 7.51634836e-02 1.12222262e-01
      1.11808367e-01 2.58066535e-01 2.16759086e-01 2.60042757e-01
      2.00161278e-01 9.43962112e-02 7.56481364e-02 1.02134325e-01
      6.62976205e-02 2.05806181e-01 2.64284045e-01 2.61437207e-01
      7.30430111e-02 4.08767797e-02 3.36363874e-02 3.87182906e-02
      5.17700724e-02 3.65000010e+00 2.32704401e-01 8.98016989e-01 0. 0.
      0. 0. 0. 0. 0. 0. 0. 0. 0. 0. 0. 0. 0. 0. 0. 1.56641752e-02
      2.19298247e-03 2.19298247e-03 3.60275782e-03 1.33145461e-02
      1.09649124e-03 1.56641600e-03 8.61528795e-03 3.99435312e-02
      8.45864601e-03 1.72305759e-03 1.01817073e-02 1.56641752e-02
      3.44611611e-03 2.58458406e-02 8.46488118e-01 1.01909533e-01
      4.78491634e-02 1.61030586e-03 4.60088104e-02 9.20174818e-04
      1.15021854e-03 4.60087409e-04 8.85669738e-02 4.78491634e-02
      2.09340006e-02 9.20174818e-04 2.34644860e-02 1.31125003e-02
      2.99056782e-03 1.47228092e-02 5.87521315e-01 4.51364778e-02
      3.83077958e-03 4.99666901e-04 1.13257933e-02 9.99334641e-03
      1.66555634e-04 0. 4.43037078e-02 1.69719264e-01 2.33178157e-02
      2.83144577e-03 1.73218045e-02 2.49833744e-02 3.49766831e-03
      3.64756696e-02 6.06593430e-01 8.84030223e-01 1.09367527e-01
      5.16696973e-03 1.33958471e-03 9.56846270e-05 0.</_>
    <_>
      1.93341136e-01 9.98259604e-01 9.95650411e-01 9.92480874e-01
      9.89112556e-01 9.85699177e-01 9.82578814e-01 9.79924917e-01
      9.77803111e-01 9.76073325e-01 9.75282431e-01 9.75135028e-01
      9.75785732e-01 9.76821780e-01 9.78584290e-01 9.81009126e-01
      9.83681977e-01 9.86220479e-01 9.88300145e-01 9.89366591e-01
      9.90024388e-01 3.22002470e-02 5.44630252e-02 9.45830345e-02
      1.03144906e-01 1.53376058e-01 2.59054542e-01 2.59054542e-01
      9.58056748e-02 4.28785421e-02 7.10563213e-02 1.46257386e-01
      2.59054542e-01 2.59054542e-01 2.59054542e-01 1.28948018e-01
      8.50889459e-02 4.91655283e-02 5.99137023e-02 1.72002856e-02
      3.33838537e-02 6.86085522e-02 6.41281232e-02 8.78781751e-02
      2.19065115e-01 2.59054542e-01 2.09727213e-01 3.60234044e-02
      8.49348903e-02 1.65295511e-01 2.59054542e-01 2.59054542e-01
      2.59054542e-01 1.67761773e-01 2.59054542e-01 1.82102412e-01
      6.93331212e-02 3.60526323e+00 4.88524586e-01 8.02110791e-01 0. 0.
      0. 0. 0. 0. 0. 0. 0. 0. 0. 0. 0. 0. 0. 0. 0. 3.74771394e-02
      6.60660677e-04 6.00600615e-05 1.08108111e-03 0. 0. 6.00600615e-05
      7.68768787e-03 2.23422386e-02 2.76276283e-03 4.20420431e-04
      2.70270277e-03 1.21321324e-02 1.86186191e-03 3.39937098e-02
      8.76868129e-01 6.12104461e-02 3.22157666e-02 2.11416557e-03
      7.47005716e-02 3.02023574e-04 4.02698090e-04 1.10741984e-03
      8.14456120e-02 2.28530578e-02 1.50004774e-02 1.10741984e-03
      2.31550802e-02 9.06070508e-03 2.81888759e-03 2.07389016e-02
      6.51753902e-01 4.51247506e-02 1.45074120e-02 1.77125481e-03
      3.12922858e-02 2.78340047e-03 8.43454676e-04 5.06072829e-04
      4.89202440e-02 7.07657784e-02 1.45074120e-02 1.77125481e-03
      2.31950544e-02 2.10864004e-02 5.22942236e-03 3.51721235e-02
      6.82492733e-01 8.57155442e-01 1.31043598e-01 1.13606341e-02
      4.40334668e-04 0. 0.</_>
    <_>
      1.61885425e-01 9.98298287e-01 9.93798018e-01 9.86910760e-01
      9.78100836e-01 9.67741072e-01 9.56219673e-01 9.43594694e-01
      9.30263340e-01 9.16546285e-01 9.02817726e-01 8.89334142e-01
      8.76420557e-01 8.64494681e-01 8.53814662e-01 8.44757497e-01
      8.37356865e-01 8.31534564e-01 8.27211618e-01 8.24569821e-01
      8.23619604e-01 5.05800992e-02 4.16719727e-02 9.83951911e-02
      1.04997396e-01 2.24912271e-01 2.47018695e-01 2.47018695e-01
      1.78346694e-01 1.10279933e-01 7.75123462e-02 8.59733447e-02
      2.47018695e-01 2.47018695e-01 2.02180699e-01 1.57491997e-01
      1.60568163e-01 1.78736076e-01 1.35885313e-01 6.54860660e-02
      6.24013245e-02 1.14403345e-01 1.30265251e-01 2.47018695e-01
      2.47018695e-01 2.47018695e-01 1.79007813e-01 1.05302520e-01
      8.91857892e-02 1.29107237e-01 2.47018695e-01 2.47018695e-01
      1.31582871e-01 1.05228543e-01 1.32993326e-01 1.14344940e-01
      9.16181728e-02 3.15151525e+00 2.69230783e-01 8.46449137e-01
      1.57120407e-01 7.00692311e-02 3.37370187e-02 6.92041544e-03
      3.80622856e-02 1.73010386e-03 3.46020772e-03 1.73010386e-03
      3.71972322e-02 1.26297474e-01 2.24913433e-02 1.29757766e-02
      3.54671255e-02 6.66090325e-02 6.05536345e-03 7.00692311e-02
      4.67126220e-01 6.33763820e-02 1.62218120e-02 8.72143835e-04
      1.89545080e-02 6.39572099e-04 9.30286769e-04 9.88429645e-04
      3.43042165e-02 7.43656605e-02 1.31984027e-02 1.86057365e-03
      1.01749944e-02 3.00597195e-02 5.75615000e-03 4.46539074e-02
      6.83565974e-01 8.40458423e-02 2.18285229e-02 6.32711162e-04
      3.95444259e-02 1.05451858e-04 0. 1.05451858e-04 9.20604616e-02
      6.52747601e-02 1.99303906e-02 5.27259312e-04 2.86828894e-02
      6.22165762e-03 2.95265182e-03 1.20215062e-02 6.26034081e-01
      5.62878288e-02 5.07575506e-03 3.78787867e-04 8.63635819e-03 0. 0.
      7.57575763e-05 6.73484281e-02 1.52727142e-01 1.46212010e-02
      3.03030305e-04 1.13636283e-02 4.12878431e-02 3.86363501e-03
      4.25757207e-02 5.95454037e-01 8.90843570e-01 1.01904273e-01
      6.12922851e-03 9.82548110e-04 1.40364005e-04 0.</_>
    <_>
      1.54864877e-01 9.98366416e-01 9.94075537e-01 9.87589478e-01
      9.79179919e-01 9.69245493e-01 9.58272755e-01 9.46523607e-01
      9.34353828e-01 9.22088146e-01 9.10074115e-01 8.98583949e-01
      8.87905955e-01 8.78087580e-01 8.69395018e-01 8.61983001e-01
      8.55914235e-01 8.51166129e-01 8.47899616e-01 8.46059322e-01
      8.45475733e-01 2.39898711e-01 2.39898711e-01 2.39898711e-01
      2.39898711e-01 1.90151900e-01 1.65184721e-01 1.74031094e-01
      1.65086016e-01 1.93864167e-01 1.18669584e-01 2.39898711e-01
      2.39898711e-01 2.39898711e-01 1.29033491e-01 8.23122859e-02
      6.72147274e-02 7.85489604e-02 8.45630988e-02 7.29612485e-02
      1.22665286e-01 2.28543654e-01 2.29121372e-01 1.36654437e-01
      1.32718161e-01 1.47036046e-01 1.48178235e-01 1.47042453e-01
      5.45281358e-02 1.26559913e-01 2.39898711e-01 2.39898711e-01
      9.87974107e-02 5.07894456e-02 4.53578644e-02 4.73277569e-02
      5.92676587e-02 3.72222233e+00 3.13167274e-01 8.91719759e-01
      1.30723989e+00 7.93442428e-02 3.87617052e-02 7.28408108e-03
      5.77522516e-02 2.08116532e-03 5.20291389e-04 3.12174787e-03
      6.26949966e-02 2.49740034e-02 2.47138571e-02 3.12174787e-03
      2.44537108e-02 2.08116621e-02 6.76378934e-03 3.82414162e-02
      6.05368435e-01 5.42040505e-02 4.23056586e-03 5.28820744e-03
      4.49497625e-03 5.28820732e-04 7.93231069e-04 1.05764146e-03
      2.00951677e-02 5.97566590e-02 2.03595776e-02 2.64410366e-04
      1.11052301e-02 1.98307578e-02 2.37969332e-03 4.70649824e-02
      7.48536646e-01 8.47269520e-02 5.25968894e-02 7.70246703e-03
      6.62412569e-02 2.86091492e-03 6.60211255e-04 2.42077420e-03
      6.13997504e-02 4.26936708e-02 3.16900946e-02 2.64084456e-03
      2.70686299e-02 2.02464703e-02 8.14260822e-03 3.56513821e-02
      5.53245246e-01 5.79456687e-02 1.63723771e-02 3.53130070e-03
      3.38683724e-02 4.81540896e-03 9.63081955e-04 1.12359563e-03
      4.57465053e-02 7.31946230e-02 2.24718880e-02 5.93900308e-03
      2.19903477e-02 3.21027040e-02 9.95183922e-03 6.59714341e-02
      6.04018748e-01 9.48947608e-01 4.03045230e-02 7.16524851e-03
      2.46305414e-03 6.71742077e-04 4.47828032e-04</_>
    <_>
      1.40763879e-01 9.93460715e-01 9.86209333e-01 9.79709804e-01
      9.71141517e-01 9.62875247e-01 9.55009937e-01 9.47207272e-01
      9.39181268e-01 9.31506693e-01 9.23580170e-01 9.16804790e-01
      9.09220159e-01 9.02808249e-01 8.96582246e-01 8.89587760e-01
      8.83490384e-01 8.77309859e-01 8.72338474e-01 8.68937075e-01
      8.67778718e-01 4.17525358e-02 7.82367438e-02 1.91644639e-01
      2.21382022e-01 2.86292344e-01 1.84073284e-01 1.25930980e-01
      5.29378913e-02 3.97467390e-02 2.70208698e-02 8.80300850e-02
      2.91221708e-01 2.91221708e-01 2.91153878e-01 7.71653429e-02
      3.72748338e-02 2.59380676e-02 2.35244390e-02 2.87875198e-02
      7.98621178e-02 1.38690457e-01 1.74248576e-01 2.91221708e-01
      2.49639079e-01 1.45844504e-01 5.37209027e-02 3.86685133e-02
      3.35205421e-02 1.23353131e-01 2.91221708e-01 2.91221708e-01
      2.49688655e-01 1.15714826e-01 5.34644872e-02 3.02404575e-02
      3.01276352e-02 2.66666675e+00 4.00000006e-01 8.85714293e-01
      3.90822697e+00 4.45815958e-02 9.25925653e-03 3.42935533e-03
      9.94512718e-03 6.85871055e-04 2.05761311e-03 1.37174211e-03
      4.59533371e-02 1.30315438e-01 1.61179639e-02 3.77229089e-03
      1.33744804e-02 5.52125908e-02 8.91632121e-03 4.69821431e-02
      6.08033717e-01 7.35787004e-02 9.47603211e-03 2.78706802e-03
      8.91861878e-03 1.67224091e-03 2.78706802e-03 6.13155030e-03
      3.51170562e-02 1.29320160e-01 1.11482721e-02 1.67224091e-03
      1.22630987e-02 9.81049687e-02 1.11482721e-02 5.18395118e-02
      5.44039369e-01 1.28136337e-01 8.24373588e-02 7.16845784e-03
      6.45161793e-02 4.48028650e-03 8.06451496e-03 1.79211469e-03
      1.33512646e-01 5.28674163e-02 1.88172013e-02 7.16845784e-03
      4.12186496e-02 3.94265316e-02 1.43369148e-02 4.30107675e-02
      3.53046983e-01 1.16005145e-01 3.03970017e-02 1.86104211e-03
      9.55335870e-02 3.10173701e-03 1.24069478e-03 1.86104211e-03
      1.06079541e-01 1.29032493e-01 1.24069480e-02 6.20347389e-04
      9.92555823e-03 4.52853180e-02 8.06451589e-03 4.83870506e-02
      3.90196562e-01 7.77186573e-01 1.84569344e-01 1.96208842e-02
      1.46325240e-02 3.99068836e-03 0.</_>
    <_>
      1.19692191e-01 9.98953879e-01 9.96857107e-01 9.93778586e-01
      9.89965737e-01 9.85414147e-01 9.80474532e-01 9.75573063e-01
      9.70954478e-01 9.66554165e-01 9.62584674e-01 9.59312260e-01
      9.56732035e-01 9.54788148e-01 9.53423917e-01 9.52681959e-01
      9.52394366e-01 9.52438533e-01 9.52558517e-01 9.52836692e-01
      9.52924907e-01 7.37833977e-02 1.05351299e-01 2.05122247e-01
      2.91097254e-01 2.85609752e-01 1.91359967e-01 9.08325613e-02
      4.36906777e-02 5.86442575e-02 2.63263322e-02 6.56618327e-02
      2.91097254e-01 2.91097254e-01 1.02349967e-01 2.42057275e-02
      1.03982957e-02 6.65620575e-03 1.21807586e-02 2.63808891e-02
      7.19023570e-02 2.91097254e-01 2.91097254e-01 2.91097254e-01
      2.78591067e-01 1.17136411e-01 1.76468547e-02 2.29986589e-02
      1.52756032e-02 6.34434372e-02 2.91097254e-01 2.91097254e-01
      9.67963263e-02 2.14891303e-02 1.35915196e-02 3.88155738e-03
      9.25356057e-03 3.05405402e+00 3.93491119e-01 8.61892581e-01 0. 0.
      0. 0. 0. 0. 0. 0. 0. 0. 0. 0. 0. 0. 0. 0. 0. 3.64963822e-02
      5.00930357e-04 5.72491845e-04 1.06626721e-02 1.43122947e-04 0.
      1.43122947e-04 1.98225398e-02 2.75511239e-02 2.79089645e-03
      1.07342214e-03 2.50465074e-03 2.46171243e-02 2.79089645e-03
      4.78748716e-02 8.22532594e-01 8.12112838e-02 1.03105418e-01
      1.39751565e-03 4.13044468e-02 7.29813380e-03 9.31677059e-04
      2.32919259e-03 8.12112838e-02 1.87888108e-02 2.53105462e-02
      4.81366320e-03 2.39130314e-02 8.54036957e-03 3.72670731e-03
      1.72360167e-02 5.78866065e-01 4.44106869e-02 1.90814249e-02
      2.02634209e-03 2.29652897e-02 8.52752291e-03 5.06585580e-04
      5.91016491e-04 4.28909473e-02 9.11004692e-02 1.44376867e-02
      3.29280575e-03 1.18203284e-02 3.28437798e-02 4.81256237e-03
      7.59030730e-02 6.24826431e-01 8.47586215e-01 1.19195402e-01
      2.24712640e-02 6.43678149e-03 3.39080463e-03 9.19540238e-04</_>
    <_>
      1.56110704e-01 9.98615205e-01 9.94832575e-01 9.88953769e-01
      9.81388330e-01 9.72612381e-01 9.62882280e-01 9.52558458e-01
      9.41862583e-01 9.31010962e-01 9.20236170e-01 9.09699798e-01
      8.99705410e-01 8.90488625e-01 8.82318020e-01 8.75489593e-01
      8.70065391e-01 8.66067588e-01 8.63370359e-01 8.61795664e-01
      8.61267745e-01 1.55613855e-01 2.35699013e-01 2.35699013e-01
      2.06327423e-01 1.37658805e-01 1.64344177e-01 1.68296158e-01
