<?xml version="1.0"?>
<opencv_storage>
<my_svm type_id="opencv-ml-svm">
  <svm_type>C_SVC</svm_type>
  <kernel><type>RBF</type>
    <gamma>5.0625000000000009e-001</gamma></kernel>
  <C>6.2500000000000000e+001</C>
  <term_criteria><epsilon>2.2204460492503131e-016</epsilon>
    <iterations>3000</iterations></term_criteria>
  <var_all>131</var_all>
  <var_count>131</var_count>
  <class_count>2</class_count>
  <class_labels type_id="opencv-matrix">
    <rows>1</rows>
    <cols>2</cols>
    <dt>i</dt>
    <data>
      -1 1</data></class_labels>
  <class_weights type_id="opencv-matrix">
    <rows>1</rows>
    <cols>2</cols>
    <dt>d</dt>
    <data>
      4.4354837387800217e+001 1.8145160749554634e+001</data></class_weights>
  <sv_total>61</sv_total>
  <support_vectors>
    <_>
      1.34849995e-001 9.97539997e-001 9.92030025e-001 9.84399974e-001
      9.75149989e-001 9.65309978e-001 9.55370009e-001 9.45410013e-001
      9.35180008e-001 9.24019992e-001 9.11970019e-001 8.99619997e-001
      8.87449980e-001 8.76139998e-001 8.66770029e-001 8.59610021e-001
      8.54300022e-001 8.50860000e-001 8.48670006e-001 8.47819984e-001
      8.47829998e-001 6.43469989e-002 9.83999968e-002 1.89180002e-001
      2.41080001e-001 2.41080001e-001 2.41080001e-001 2.41080001e-001
      1.17689997e-001 5.40859997e-002 8.36480036e-002 8.99289995e-002
      2.41080001e-001 2.41080001e-001 2.41080001e-001 1.67860001e-001
      1.61829993e-001 1.38750002e-001 8.42140019e-002 3.60760018e-002
      6.89070001e-002 1.40000001e-001 1.88580006e-001 1.80690005e-001
      1.97229996e-001 1.99389994e-001 8.48969966e-002 5.61010018e-002
      5.79559989e-002 1.11330003e-001 2.41080001e-001 2.41080001e-001
      2.36090004e-001 1.60349995e-001 1.45940006e-001 8.48589987e-002
      6.11729994e-002 2.45830011e+000 2.31619999e-001 8.91449988e-001
      9.38929975e-001 1.06810004e-001 4.77319993e-002 5.19850012e-003
      6.56900033e-002 4.72590007e-004 9.45180014e-004 3.30809993e-003
      1.48870006e-001 6.42720014e-002 1.89040005e-002 2.31570005e-002
      3.82799990e-002 3.30809988e-002 8.97920039e-003 2.41020005e-002
      4.10200000e-001 5.61110005e-002 1.14820004e-002 6.48149988e-003
      1.55560002e-002 9.25929984e-004 1.85190002e-004 3.70369991e-003
      3.59259993e-002 7.55549967e-002 2.11110003e-002 1.18519999e-002
      3.16670015e-002 4.55549993e-002 1.25930002e-002 6.40740022e-002
      6.07240021e-001 1.38710007e-001 4.25219983e-002 4.39879997e-003
      5.63049987e-002 8.79770028e-004 5.86509996e-004 2.93250009e-003
      1.18770003e-001 8.15249979e-002 2.11139992e-002 1.78890005e-002
      3.40179987e-002 3.57769988e-002 1.05569996e-002 2.69799996e-002
      4.07040000e-001 1.00280002e-001 2.33210009e-002 6.76310016e-003
      2.86849998e-002 1.86570000e-003 2.33209998e-004 2.09890003e-003
      5.99349998e-002 1.71639994e-001 3.10169999e-002 1.86570007e-002
      2.75190007e-002 4.19780016e-002 1.70239992e-002 3.31160016e-002
      4.35860008e-001 4.16440010e-001 2.93839991e-001 1.43120006e-001
      8.36139992e-002 5.31000011e-002 9.88159981e-003</_>
    <_>
      6.97700009e-002 9.98839974e-001 9.96140003e-001 9.92240012e-001
      9.87259984e-001 9.81500030e-001 9.75199997e-001 9.68569994e-001
      9.61589992e-001 9.54590023e-001 9.47660029e-001 9.40959990e-001
      9.34979975e-001 9.29840028e-001 9.25509989e-001 9.21869993e-001
      9.18850005e-001 9.16410029e-001 9.14579988e-001 9.13489997e-001
      9.13079977e-001 1.19970003e-002 4.01510000e-002 1.75880000e-001
      2.94450015e-001 2.94450015e-001 1.94389999e-001 5.11670001e-002
      1.66989993e-002 1.45560000e-002 6.70439983e-003 3.13160010e-002
      2.48669997e-001 2.94450015e-001 2.45539993e-001 3.59230004e-002
      1.33189997e-002 3.51119996e-003 6.73650019e-003 3.07260007e-002
      8.29999968e-002 2.16270000e-001 2.94450015e-001 2.94450015e-001
      2.88879991e-001 1.18440002e-001 4.99179997e-002 2.23680008e-002
      2.10909992e-002 5.94099984e-002 2.94450015e-001 2.94450015e-001
      1.68640003e-001 6.04179986e-002 2.21190006e-002 1.12770004e-002
      1.07589997e-002 1.50000000e+000 1.85320005e-001 8.96229982e-001 0.
      0. 0. 0. 0. 0. 0. 0. 0. 0. 0. 0. 0. 0. 0. 0. 0. 1.87810007e-002
      6.04810007e-003 7.95800006e-004 6.68470003e-003 1.59160001e-004 0.
      1.59160001e-004 1.73480008e-002 5.26820011e-002 8.75379983e-003
      1.38470000e-002 2.30780002e-002 4.18590009e-002 4.29729978e-003
      3.83570008e-002 7.67149985e-001 2.04349995e-001 8.43769982e-002 0.
      6.52600005e-002 0. 0. 0. 1.13380000e-001 5.07580005e-002
      2.57089995e-002 2.63679996e-002 4.28479984e-002 6.59199990e-003
      5.27360011e-003 8.56960006e-003 3.66510004e-001 7.21559972e-002
      1.66849997e-002 3.25029995e-003 2.12350003e-002 4.33370005e-004
      2.16679997e-004 4.11699992e-003 6.80390000e-002 1.80930004e-001
      2.08020005e-002 1.60349999e-002 2.81690005e-002 2.36189999e-002
      6.71719993e-003 4.48540002e-002 4.92749989e-001 7.74389982e-001
      1.86189994e-001 2.39230003e-002 1.08180000e-002 4.57669981e-003
      1.04020000e-004</_>
    <_>
      1.51899993e-001 9.97150004e-001 9.90419984e-001 9.80549991e-001
      9.68129992e-001 9.52979982e-001 9.35180008e-001 9.15099978e-001
      8.93289983e-001 8.70289981e-001 8.46989989e-001 8.24000001e-001
      8.01590025e-001 7.80309975e-001 7.60680020e-001 7.43470013e-001
      7.28569984e-001 7.16139972e-001 7.06860006e-001 7.01049984e-001
      6.99100018e-001 2.89890002e-002 3.36720012e-002 1.87219996e-002
      5.42909987e-002 2.96979994e-001 2.96979994e-001 2.51659989e-001
      4.42910008e-002 3.24280001e-002 3.44839990e-002 4.46010008e-002
      3.42210010e-002 1.03150003e-001 2.96979994e-001 2.96979994e-001
      2.44629994e-001 3.80589999e-002 4.41780016e-002 8.83100033e-002
      7.81299993e-002 5.53269982e-002 4.91110012e-002 1.62009999e-001
      2.96979994e-001 2.24869996e-001 1.31359994e-001 1.02260001e-001
      1.23559996e-001 1.02310002e-001 6.23559989e-002 4.79450002e-002
      1.66639999e-001 2.87169993e-001 2.96979994e-001 1.42350003e-001
      1.77990004e-001 2.71429992e+000 2.18559995e-001 8.97570014e-001 0.
      0. 0. 0. 0. 0. 0. 0. 0. 0. 0. 0. 0. 0. 0. 0. 0. 3.81099992e-002
      7.83970021e-003 3.26659996e-003 2.41730008e-002 8.71079974e-004
      2.17769993e-004 2.61320011e-003 6.31529987e-002 1.91640005e-001
      4.57319990e-003 1.63330007e-002 2.04700008e-002 5.37890010e-002
      3.91989993e-003 4.70380001e-002 5.21990001e-001 4.98649999e-002
      2.08889991e-002 8.98469996e-004 4.35759984e-002 0. 0.
      2.24620002e-004 1.20169997e-001 1.21739998e-001 1.93169992e-002
      1.21290004e-002 4.22279984e-002 3.18959989e-002 6.73859986e-003
      2.60559991e-002 5.04270017e-001 8.56389999e-002 2.05150004e-002
      1.46529998e-003 1.92120001e-002 1.62810000e-004 0. 1.46529998e-003
      5.50310016e-002 1.15270004e-001 2.08400004e-002 1.40020000e-002
      3.61450016e-002 2.55619995e-002 6.51249988e-003 3.43540013e-002
      5.63820004e-001 6.93090022e-001 2.33889997e-001 5.03830016e-002
      1.88519992e-002 3.78690008e-003 0.</_>
    <_>
      1.66199997e-001 9.97860014e-001 9.92389977e-001 9.84780014e-001
      9.76230025e-001 9.67360020e-001 9.58490014e-001 9.49699998e-001
      9.40819979e-001 9.31599975e-001 9.21829998e-001 9.11700010e-001
      9.01579976e-001 8.91929984e-001 8.82939994e-001 8.74660015e-001
      8.67100000e-001 8.60620022e-001 8.55629981e-001 8.52440000e-001
      8.51329982e-001 1.12489998e-001 7.59420022e-002 1.73869997e-001
      2.25240007e-001 2.25240007e-001 1.79670006e-001 1.62400007e-001
      1.46770000e-001 1.59840003e-001 1.58680007e-001 1.32819995e-001
      2.25240007e-001 2.25240007e-001 2.25240007e-001 1.49509996e-001
      1.15769997e-001 1.16760001e-001 1.40389994e-001 1.14739999e-001
      9.17090029e-002 2.17050001e-001 2.22039998e-001 1.85729995e-001
      1.54210001e-001 1.68369994e-001 1.92760006e-001 1.60860002e-001
      1.05169997e-001 1.30390003e-001 2.25240007e-001 2.25240007e-001
      1.71090007e-001 1.17930003e-001 1.07450001e-001 1.15570001e-001
      1.11860000e-001 3.17650008e+000 2.28139997e-001 8.94200027e-001 0.
      0. 0. 0. 0. 0. 0. 0. 0. 0. 0. 0. 0. 0. 0. 0. 0. 4.14189994e-002
      1.71629991e-002 4.34779981e-003 1.64759997e-002 2.28830002e-004
      4.57669987e-004 1.14419998e-003 3.82150002e-002 5.65220006e-002
      2.05949992e-002 1.96800008e-002 3.66129987e-002 4.16480005e-002
      1.02970004e-002 7.55150020e-002 6.19660020e-001 1.38650000e-001
      5.40309995e-002 2.85880012e-003 6.37509972e-002 5.71749988e-004 0.
      2.00109999e-003 9.23390016e-002 8.46199989e-002 2.48709992e-002
      1.68670006e-002 3.43049988e-002 1.51519999e-002 6.28930004e-003
      3.45910005e-002 4.29100007e-001 9.68699977e-002 1.11769997e-002
      3.47739994e-003 2.55839992e-002 2.48389988e-004 2.48389988e-004
      2.73220008e-003 8.81770030e-002 1.46799996e-001 1.06809996e-002
      1.63930003e-002 2.21059993e-002 2.60809995e-002 8.19670036e-003
      1.93739999e-002 5.21849990e-001 3.60100001e-001 3.52310002e-001
      1.60569996e-001 7.96580017e-002 4.14620005e-002 5.90529991e-003</_>
    <_>
      2.01670006e-001 9.95119989e-001 9.87339973e-001 9.76260006e-001
      9.62509990e-001 9.46690023e-001 9.29489970e-001 9.11379993e-001
      8.92000020e-001 8.71869981e-001 8.51260006e-001 8.30720007e-001
      8.10280025e-001 7.90650010e-001 7.72750020e-001 7.56839991e-001
      7.43390024e-001 7.32680023e-001 7.24799991e-001 7.20870018e-001
      7.19879985e-001 2.05479994e-001 2.00440004e-001 2.25350007e-001
      2.38769993e-001 2.38769993e-001 1.68709993e-001 1.75819993e-001
      1.52779996e-001 1.40059993e-001 1.87189996e-001 1.95899993e-001
      2.38769993e-001 2.38769993e-001 2.06180006e-001 7.04130009e-002
      6.31259978e-002 8.67500007e-002 1.07349999e-001 1.48330003e-001
      2.38539994e-001 2.38769993e-001 2.00760007e-001 1.32689998e-001
      8.60479996e-002 1.37510002e-001 1.40570000e-001 8.78110006e-002
      6.94179982e-002 1.24410003e-001 2.38769993e-001 2.33569995e-001
      8.29859972e-002 2.34949999e-002 2.00340003e-002 3.81629989e-002
      3.70300002e-002 2.12500000e+000 1.46550000e-001 8.95349979e-001 0.
      0. 0. 0. 0. 0. 0. 0. 0. 0. 0. 0. 0. 0. 0. 0. 0. 6.17559999e-002
      6.32440019e-003 2.60420004e-003 9.30059981e-003 0. 7.44050019e-004
      7.44050019e-004 1.22769997e-002 4.76190001e-002 1.48809999e-002
      1.74850002e-002 4.72470000e-002 2.71579996e-002 6.32440019e-003
      6.13839999e-002 6.84159994e-001 1.66229993e-001 5.39349988e-002
      2.65250006e-003 4.33249995e-002 4.42090008e-004 1.76829996e-003
      3.97880003e-003 9.19540003e-002 7.33859986e-002 1.85679998e-002
      2.12200005e-002 3.35990004e-002 2.21040007e-002 7.95760006e-003
      5.30500002e-002 4.05840009e-001 1.56859994e-001 2.94119995e-002
      3.61200003e-003 3.45720015e-002 5.15999971e-004 5.15999971e-004
      2.58000009e-003 9.80390012e-002 1.82659999e-001 2.21880004e-002
      2.42519993e-002 2.94119995e-002 3.50879990e-002 9.80389956e-003
      2.27039997e-002 3.47779989e-001 3.39309990e-001 3.70240003e-001
      1.55129999e-001 8.93559977e-002 4.08339985e-002 5.12559991e-003</_>
    <_>
      1.35289997e-001 9.98279989e-001 9.94180024e-001 9.87739980e-001
      9.79330003e-001 9.68869984e-001 9.56870019e-001 9.43660021e-001
      9.29530025e-001 9.14919972e-001 9.00219977e-001 8.85749996e-001
      8.71689975e-001 8.58680010e-001 8.47140014e-001 8.36910009e-001
      8.28190029e-001 8.21389973e-001 8.16460013e-001 8.13449979e-001
      8.12319994e-001 8.67670029e-002 7.60269985e-002 5.37689999e-002
      8.99770036e-002 1.13030002e-001 7.89349973e-002 6.62349984e-002
      6.05549999e-002 6.37520030e-002 6.01009987e-002 9.81549993e-002
      2.24040002e-001 3.37260008e-001 3.37260008e-001 2.94340014e-001
      1.59630001e-001 5.18900007e-002 4.63889986e-002 6.23270012e-002
      1.05070002e-001 1.61980003e-001 2.28009999e-001 1.63650006e-001
      9.06860009e-002 7.51779974e-002 7.19370022e-002 5.68949990e-002
      5.57189994e-002 1.31540000e-001 3.37260008e-001 3.37260008e-001
      3.37260008e-001 1.37180001e-001 7.61990026e-002 5.09940013e-002
      4.70689982e-002 2.57139993e+000 3.37020010e-001 8.91089976e-001
      1.99689996e+000 5.62129989e-002 5.54729998e-003 2.58879992e-003
      2.92160008e-002 0. 0. 1.10949995e-003 5.36240004e-002
      1.43859997e-001 1.59019995e-002 1.14650000e-002 4.17900011e-002
      3.25439982e-002 9.61539987e-003 4.36390005e-002 5.52879989e-001
      1.02729999e-001 3.09090000e-002 2.72729993e-003 3.18179987e-002
      9.09089984e-004 4.54539986e-004 3.18180001e-003 6.27269968e-002
      1.84090003e-001 9.09090042e-003 1.09090004e-002 4.13639992e-002
      6.36359975e-002 9.09090042e-003 6.86360002e-002 3.77730012e-001
      1.18680000e-001 1.88010000e-002 4.70029982e-003 3.05519998e-002
      1.17509998e-003 0. 2.93769990e-003 6.63919970e-002 5.58170006e-002
      1.70389991e-002 2.52640005e-002 4.11279984e-002 1.82140004e-002
      8.81319959e-003 3.40769999e-002 5.56410015e-001 8.45320001e-002
      3.52940001e-002 3.05010006e-003 5.31589985e-002 0. 0. 0.
      7.66889974e-002 1.56859994e-001 2.61439998e-002 2.26579998e-002
      4.00869995e-002 1.74289998e-002 6.10020012e-003 1.56859998e-002
      4.62309986e-001 5.12149990e-001 2.86920011e-001 1.08390003e-001
      5.63500002e-002 3.11910007e-002 4.99740010e-003</_>
    <_>
      1.55049995e-001 9.96110022e-001 9.86190021e-001 9.72060025e-001
      9.55129981e-001 9.36749995e-001 9.18569982e-001 9.02459979e-001
      8.90269995e-001 8.83560002e-001 8.82449985e-001 8.86129975e-001
      8.94039989e-001 9.05709982e-001 9.20090020e-001 9.35630023e-001
      9.50619996e-001 9.63729978e-001 9.73969996e-001 9.80620027e-001
      9.83009994e-001 3.72279994e-002 4.51540016e-002 9.20360014e-002
      2.01059997e-001 2.82620013e-001 2.60560006e-001 6.63819984e-002
      6.31999969e-002 3.83789986e-002 8.43409970e-002 7.08699971e-002
      1.59740001e-001 2.42829993e-001 2.82620013e-001 1.31589994e-001
      4.20820005e-002 3.43209989e-002 5.43619990e-002 5.53399995e-002
      6.89620003e-002 1.53040007e-001 2.65819997e-001 2.82620013e-001
      2.82620013e-001 1.30270004e-001 9.35629979e-002 5.64649999e-002
      9.73799974e-002 1.30400002e-001 2.82620013e-001 2.82620013e-001
      2.82620013e-001 1.45530000e-001 6.16770014e-002 3.80050018e-002
      6.64319992e-002 2.19569993e+000 3.65449995e-001 8.95519972e-001
      4.94809985e-001 6.21300004e-002 1.99699998e-002 5.91719989e-003
      5.02960011e-002 0. 7.39649986e-004 7.76629988e-003 7.13760033e-002
      8.06209967e-002 1.03550004e-002 1.29439998e-002 3.69819999e-002
      7.32249990e-002 1.07249999e-002 9.24559981e-002 4.64489996e-001
      7.23590031e-002 2.29729991e-002 7.61670014e-003 3.84519994e-002
      9.82800033e-004 2.45700008e-004 4.66830004e-003 6.42499998e-002
      1.58840001e-001 1.48649998e-002 1.37590002e-002 2.13760007e-002
      7.01470003e-002 1.42510002e-002 7.54299983e-002 4.19770002e-001
      1.45620003e-001 4.70140018e-002 7.68780010e-003 5.44059984e-002
      1.18270004e-003 5.91369986e-004 3.84390005e-003 1.00390002e-001
      1.09260000e-001 2.27680001e-002 8.72270018e-003 3.48909982e-002
      3.66650000e-002 1.46359997e-002 4.42049988e-002 3.68129998e-001
      1.07780002e-001 5.43209985e-002 8.51850025e-003 4.93829995e-002
      7.40739983e-004 1.23459997e-003 4.69140010e-003 8.70369971e-002
      9.61719975e-002 1.72840003e-002 1.38269998e-002 2.39509996e-002
      3.53090018e-002 1.39509998e-002 5.88890016e-002 4.26930010e-001
      4.73410010e-001 2.79740006e-001 1.11780003e-001 7.02779964e-002
      5.38039990e-002 1.09829996e-002</_>
    <_>
      9.78249982e-002 9.99029994e-001 9.96659994e-001 9.93290007e-001
      9.88900006e-001 9.83479977e-001 9.77110028e-001 9.69990015e-001
      9.62379992e-001 9.54670012e-001 9.47139978e-001 9.39800024e-001
      9.32609975e-001 9.25870001e-001 9.19820011e-001 9.14640009e-001
      9.10430014e-001 9.07119989e-001 9.04600024e-001 9.02880013e-001
      9.02279973e-001 1.80610001e-001 1.99609995e-001 2.48140007e-001
      2.48140007e-001 2.48140007e-001 2.48140007e-001 6.44870028e-002
      7.89849982e-002 1.43509999e-001 1.30290002e-001 1.91430002e-001
      2.48140007e-001 2.48140007e-001 2.48140007e-001 1.04759999e-001
      5.08989990e-002 6.14410006e-002 9.94170010e-002 8.05889964e-002
      1.49309993e-001 2.48140007e-001 2.48140007e-001 2.36589998e-001
      7.87210017e-002 4.73549999e-002 4.74929996e-002 5.51729985e-002
      5.11140004e-002 1.12350002e-001 2.48140007e-001 2.48140007e-001
      1.39809996e-001 2.56120004e-002 1.57999992e-002 2.03189999e-002
      3.60170007e-002 7.61110020e+000 2.62039989e-001 8.97750020e-001
      2.30710006e+000 8.07750002e-002 6.21090010e-002 1.49579998e-003
      5.16390018e-002 1.95109998e-004 3.90219997e-004 1.04060001e-003
      6.04190007e-002 5.59309982e-002 1.74950007e-002 5.20290015e-003
      2.70550009e-002 2.66650002e-002 4.55249986e-003 4.74109985e-002
      5.57600021e-001 1.01290001e-002 1.32120005e-003 2.51649995e-004
      4.71850019e-003 0. 0. 6.29130009e-005 1.15759997e-002
      2.56680008e-002 4.46680002e-003 8.87070037e-003 1.39669999e-002
      8.99649970e-003 1.69860001e-003 2.62349993e-002 8.82219970e-001
      1.26540005e-001 9.30730030e-002 1.30719994e-003 5.00649996e-002
      1.30720000e-004 5.22880000e-004 1.04580005e-003 6.37909994e-002
      7.20259994e-002 2.61439998e-002 1.25489999e-002 2.73199994e-002
      2.24840008e-002 5.09800017e-003 3.88230011e-002 4.59069997e-001
      4.50779982e-002 3.51269990e-002 3.87299992e-003 5.18030003e-002
      2.68959993e-004 1.61379998e-004 1.93649996e-003 4.40029986e-002
      1.06670000e-001 1.98490005e-002 1.04360003e-002 2.37230007e-002
      4.79829982e-002 9.09090042e-003 8.56389999e-002 5.14360011e-001
      8.20649981e-001 1.37630001e-001 2.50109993e-002 1.06729995e-002
      5.71369985e-003 3.23420012e-004</_>
    <_>
      9.52840000e-002 9.98480022e-001 9.95620012e-001 9.92060006e-001
      9.87519979e-001 9.82179999e-001 9.76589978e-001 9.70239997e-001
      9.64169979e-001 9.58720028e-001 9.53620017e-001 9.49199975e-001
      9.45450008e-001 9.41950023e-001 9.39019978e-001 9.36999977e-001
      9.35500026e-001 9.34800029e-001 9.34400022e-001 9.33860004e-001
      9.33399975e-001 1.33929998e-001 1.12939999e-001 2.33170003e-001
      2.33170003e-001 2.33170003e-001 2.33170003e-001 1.58859998e-001
      1.78399995e-001 1.16269998e-001 1.60520002e-001 2.29760006e-001
      2.33170003e-001 2.33170003e-001 1.72350004e-001 9.19609964e-002
      9.48200002e-002 1.11860000e-001 1.21200003e-001 1.80370003e-001
      1.56159997e-001 2.33170003e-001 2.33170003e-001 2.33170003e-001
      1.92399994e-001 1.06490001e-001 1.06360003e-001 9.57020000e-002
      9.29099992e-002 1.15809999e-001 1.55320004e-001 1.80910006e-001
      1.60530001e-001 7.99919963e-002 7.77300000e-002 6.67629987e-002
      8.29190016e-002 5.63640022e+000 3.48569989e-001 8.52940023e-001
      2.80730009e+000 1.32330000e-001 5.52930012e-002 1.27600003e-002
      6.09639995e-002 2.36289995e-003 2.83550005e-003 3.78070003e-003
      9.87709984e-002 9.12100002e-002 2.17390005e-002 2.59920005e-002
      3.59169990e-002 4.01699990e-002 1.65410005e-002 5.95460013e-002
      3.39789987e-001 1.13190003e-001 2.08330005e-002 3.47219990e-003
      1.87500007e-002 0. 6.94439979e-004 1.38889998e-003 2.95139998e-002
      7.29169995e-002 2.43059993e-002 1.42360004e-002 4.34029996e-002
      3.43750007e-002 1.07640000e-002 4.68750000e-002 5.65280020e-001
      1.57560006e-001 8.29830021e-002 1.15550002e-002 5.88239990e-002
      2.10079993e-003 6.30250014e-003 5.25210006e-003 9.55879986e-002
      7.35289976e-002 2.52100006e-002 1.68069992e-002 6.09240010e-002
      4.51680012e-002 1.36550004e-002 6.40759990e-002 2.80460000e-001
      1.23530000e-001 4.32550013e-002 5.13199996e-003 4.54550013e-002
      1.09969999e-003 1.46629999e-003 4.03229985e-003 8.17449987e-002
      1.22429997e-001 2.19940003e-002 1.20970001e-002 4.10559997e-002
      4.98530008e-002 1.42959999e-002 5.57180010e-002 3.76830012e-001
      4.48060006e-001 1.99919999e-001 1.33760005e-001 1.00780003e-001
      8.82110000e-002 2.92659998e-002</_>
    <_>
      1.63739994e-001 9.97900009e-001 9.92810011e-001 9.85069990e-001
      9.74990010e-001 9.62939978e-001 9.49270010e-001 9.34199989e-001
      9.18280005e-001 9.01889980e-001 8.85060012e-001 8.68189991e-001
      8.51750016e-001 8.35870028e-001 8.21280003e-001 8.08470011e-001
      7.97469974e-001 7.88709998e-001 7.82549977e-001 7.78840005e-001
      7.77639985e-001 5.71190007e-002 3.52840014e-002 1.29559994e-001
      1.43999994e-001 2.55919993e-001 7.01529980e-002 6.83280006e-002
      7.06579983e-002 9.25329998e-002 3.48679982e-002 1.61449999e-001
      2.85210013e-001 2.85210013e-001 2.00810000e-001 2.97550000e-002
      2.44880002e-002 6.86269999e-003 2.59140003e-002 1.55890003e-001
      2.09110007e-001 2.85210013e-001 2.38869995e-001 2.85210013e-001
      1.76390007e-001 1.25459999e-001 1.42480001e-001 1.95010006e-001
      5.95339984e-002 2.23000005e-001 2.85210013e-001 2.85210013e-001
      1.45820007e-001 3.08359992e-002 2.47019995e-002 1.93000007e-002
      4.32749987e-002 2.41669989e+000 2.09879994e-001 8.97220016e-001 0.
      0. 0. 0. 0. 0. 0. 0. 0. 0. 0. 0. 0. 0. 0. 0. 0. 3.05889994e-002
      6.59770006e-003 1.94930006e-003 9.59660020e-003 1.49950007e-004
      1.49950007e-004 1.79939996e-003 1.85930002e-002 5.17320000e-002
      1.88929997e-002 1.55950002e-002 3.52380015e-002 2.80399993e-002
      8.09719972e-003 6.55269995e-002 7.07459986e-001 1.28169999e-001
      5.18519990e-002 2.69360002e-003 4.13019992e-002 2.24470001e-004
      1.12230005e-003 2.02020002e-003 6.39730021e-002 5.14030010e-002
      2.26709992e-002 1.70590002e-002 3.47919986e-002 1.50389997e-002
      6.73400005e-003 2.94049997e-002 5.31539977e-001 1.19589999e-001
      2.55600009e-002 8.20900034e-003 4.44030017e-002 9.32839990e-004
      9.32839990e-004 3.91789991e-003 1.03170000e-001 1.22199997e-001
      2.05220003e-002 1.02610001e-002 3.19029987e-002 3.76860015e-002
      1.43660000e-002 4.57089990e-002 4.10629988e-001 3.84860009e-001
      3.49000007e-001 1.54679999e-001 7.50140026e-002 3.38240005e-002
      2.61679990e-003</_>
    <_>
      1.57619998e-001 9.98359978e-001 9.95480001e-001 9.92150009e-001
      9.88910019e-001 9.86010015e-001 9.83550012e-001 9.81769979e-001
      9.80459988e-001 9.80040014e-001 9.80470002e-001 9.81580019e-001
      9.82710004e-001 9.83770013e-001 9.84740019e-001 9.85610008e-001
      9.86670017e-001 9.88139987e-001 9.89489973e-001 9.90379989e-001
      9.90639985e-001 1.09430000e-001 1.49169996e-001 2.13679999e-001
      2.46769994e-001 2.46769994e-001 2.46769994e-001 1.82980001e-001
      1.23669997e-001 8.22509974e-002 5.00440001e-002 8.03349987e-002
      9.52590033e-002 1.78220004e-001 2.33569995e-001 1.15160003e-001
      7.06870034e-002 5.39800003e-002 4.90319990e-002 2.41579995e-001
      2.05390006e-001 1.62829995e-001 2.46769994e-001 2.46769994e-001
      2.45150000e-001 1.84469998e-001 1.28570005e-001 1.53209999e-001
      8.04750025e-002 9.39249992e-002 1.28089994e-001 2.07680002e-001
      2.46769994e-001 1.39780000e-001 7.05230013e-002 6.42499998e-002
      6.44679964e-002 1.53450000e+000 5.62340021e-001 8.97019982e-001
      2.01620007e+000 3.20449993e-002 1.61179993e-002 2.85780011e-003
      3.06739993e-002 1.52420005e-004 1.14310002e-004 1.79090002e-003
      5.52879982e-002 3.95519994e-002 1.51650002e-002 8.64959974e-003
      2.36629993e-002 3.24649997e-002 7.39220018e-003 4.98009995e-002
      6.84270024e-001 3.48219983e-002 1.32879997e-002 2.52000010e-003
      2.56130006e-002 2.29090001e-004 9.16380013e-005 1.19129999e-003
      4.94839996e-002 8.50860029e-002 1.91980004e-002 1.05839996e-002
      2.63459999e-002 5.35620004e-002 1.04930000e-002 7.13850036e-002
      5.96080005e-001 4.55409996e-002 3.51679996e-002 3.60530009e-003
      6.19230010e-002 2.53000006e-004 2.53000006e-004 1.32829999e-003
      5.61669990e-002 5.23089990e-002 2.30870005e-002 1.06889997e-002
      3.58639993e-002 4.26950008e-002 1.11320000e-002 5.93929999e-002
      5.60549974e-001 3.10679991e-002 2.40070000e-002 3.14319995e-003
      6.68729991e-002 1.36660005e-004 9.11079987e-005 1.77660002e-003
      7.02439994e-002 6.41390011e-002 2.28230003e-002 1.01589998e-002
      3.50769982e-002 4.18640003e-002 9.97630041e-003 6.41390011e-002
      5.54530025e-001 8.11129987e-001 1.57580003e-001 2.34910008e-002
      6.32080017e-003 1.47799996e-003 0.</_>
    <_>
      1.81119993e-001 9.95010018e-001 9.85989988e-001 9.73900020e-001
      9.59749997e-001 9.43589985e-001 9.25700009e-001 9.06899989e-001
      8.87269974e-001 8.67630005e-001 8.47989976e-001 8.28310013e-001
      8.07650030e-001 7.86710024e-001 7.67329991e-001 7.49790013e-001
      7.34380007e-001 7.21369982e-001 7.10759997e-001 7.03880012e-001
      7.01439977e-001 9.41099972e-002 1.49649993e-001 1.89530000e-001
      2.14849994e-001 2.52420008e-001 2.52420008e-001 1.47929996e-001
      1.26130000e-001 8.27360004e-002 1.25689998e-001 2.15179995e-001
      2.52420008e-001 2.52420008e-001 2.48539999e-001 1.47489995e-001
      1.42780006e-001 1.68430001e-001 1.46420002e-001 6.32089972e-002
      2.52420008e-001 2.52420008e-001 1.81030005e-001 1.29800007e-001
      1.09470002e-001 8.13189968e-002 6.39280006e-002 4.75529991e-002
      4.50260006e-002 2.25759998e-001 2.52420008e-001 1.87570006e-001
      5.75990006e-002 4.35459986e-002 4.96169999e-002 4.70889993e-002
      3.24909985e-002 1.88240004e+000 1.55169994e-001 8.95349979e-001 0.
      0. 0. 0. 0. 0. 0. 0. 0. 0. 0. 0. 0. 0. 0. 0. 0. 5.35710007e-002
      1.01539996e-002 1.75069994e-003 1.19049996e-002 3.50140006e-004 0.
      1.40059995e-003 3.46640013e-002 6.86269999e-002 2.20589992e-002
      1.61060002e-002 4.51680012e-002 3.18630002e-002 1.08540002e-002
      6.47760034e-002 6.26749992e-001 1.64269999e-001 5.45979999e-002
      5.74709987e-003 4.26249988e-002 1.91570004e-003 4.78929986e-004
      2.39460007e-003 7.56710023e-002 6.80079982e-002 2.87360009e-002
      2.49039996e-002 3.78349982e-002 2.05940008e-002 6.70500007e-003
      3.59200016e-002 4.29600000e-001 1.35340005e-001 2.40599997e-002
      5.01250010e-003 4.76190001e-002 1.50380004e-003 1.00249995e-003
      2.50630011e-003 7.66920000e-002 1.67420000e-001 2.10529994e-002
      2.45609991e-002 3.00750006e-002 4.76190001e-002 1.10280002e-002
      4.11030017e-002 3.63409996e-001 4.70409989e-001 3.28940004e-001
      1.17559999e-001 5.20329997e-002 2.91060004e-002 1.95119996e-003</_>
    <_>
      1.47400007e-001 9.98059988e-001 9.93659973e-001 9.87720013e-001
      9.80759978e-001 9.73100007e-001 9.65279996e-001 9.57740009e-001
      9.50280011e-001 9.42319989e-001 9.33759987e-001 9.24989998e-001
      9.16239977e-001 9.07769978e-001 8.99529994e-001 8.91879976e-001
      8.85249972e-001 8.80010009e-001 8.76139998e-001 8.73560011e-001
      8.72460008e-001 2.33339995e-001 2.33339995e-001 2.33339995e-001
      2.33339995e-001 2.11300001e-001 1.38610005e-001 1.12089999e-001
      1.25249997e-001 1.39160007e-001 1.90750003e-001 1.69190004e-001
      2.32400000e-001 2.33339995e-001 2.22409993e-001 8.07560012e-002
      3.75749990e-002 9.68919992e-002 1.07000001e-001 6.66849986e-002
      1.01779997e-001 2.33339995e-001 2.33339995e-001 2.16189995e-001
      1.36069998e-001 1.25119999e-001 1.53290004e-001 9.41570029e-002
      6.54549971e-002 8.43200013e-002 2.14900002e-001 2.33339995e-001
      1.91780001e-001 9.24360007e-002 6.43439963e-002 1.09310001e-001
      7.92889968e-002 2.77780008e+000 2.89999992e-001 8.92379999e-001
      8.37599993e-001 1.13569997e-001 1.73129998e-002 5.54020004e-003
      2.07759999e-002 2.07759999e-003 0. 4.15509986e-003 5.19389994e-002
      2.68700004e-001 2.00830009e-002 2.97780000e-002 3.80889997e-002
      6.16340004e-002 1.10799996e-002 5.19389994e-002 3.03319991e-001
      3.81180011e-002 6.25369977e-003 2.97799997e-004 8.33829958e-003
      2.97799997e-004 0. 0. 1.39960004e-002 7.92139992e-002
      1.78679992e-002 1.90590005e-002 3.57359983e-002 3.75219993e-002
      6.25369977e-003 5.86659983e-002 6.78369999e-001 1.57830000e-001
      7.00000003e-002 1.30430004e-003 8.43480006e-002 0. 0.
      3.04350001e-003 9.00000036e-002 9.04349983e-002 3.91299985e-002
      2.21740007e-002 3.73909995e-002 2.30439994e-002 5.65219996e-003
      3.78260016e-002 3.37830007e-001 1.01680003e-001 1.09329997e-002
      1.09329994e-003 1.71280000e-002 0. 0. 7.28859974e-004
      7.79879987e-002 1.14430003e-001 1.60349999e-002 1.93150006e-002
      2.58750003e-002 1.23910001e-002 3.64429993e-003 1.23910001e-002
      5.86359978e-001 3.85199994e-001 3.39089990e-001 1.42729998e-001
      8.55989978e-002 4.44529988e-002 2.93900003e-003</_>
    <_>
      1.12860002e-001 9.96550024e-001 9.91609991e-001 9.85109985e-001
      9.75709975e-001 9.64789987e-001 9.53279972e-001 9.40439999e-001
      9.27429974e-001 9.14020002e-001 9.00539994e-001 8.86950016e-001
      8.73669982e-001 8.60620022e-001 8.48829985e-001 8.38050008e-001
      8.28469992e-001 8.20800006e-001 8.15389991e-001 8.11950028e-001
      8.11230004e-001 9.01490003e-002 1.12810001e-001 1.90430000e-001
      2.71389991e-001 2.71389991e-001 1.87460005e-001 1.41100004e-001
      9.08150002e-002 6.41969964e-002 5.42870015e-002 6.35100007e-002
      2.71389991e-001 2.71389991e-001 2.71389991e-001 9.93970037e-002
      6.64760023e-002 5.20460010e-002 3.65890004e-002 8.60819966e-002
      1.51089996e-001 2.71389991e-001 2.71389991e-001 2.71389991e-001
      1.78360000e-001 6.94900006e-002 5.93109988e-002 4.93480004e-002
      4.23640013e-002 1.18749999e-001 2.71389991e-001 2.71389991e-001
      1.26019999e-001 6.13990016e-002 3.13040018e-002 2.83259992e-002
      2.69690007e-002 2.79999995e+000 1.42110005e-001 8.79069984e-001 0.
      0. 0. 0. 0. 0. 0. 0. 0. 0. 0. 0. 0. 0. 0. 0. 0. 7.13379979e-002
      7.57580018e-003 6.31309988e-004 1.38889998e-002 1.26259995e-003 0.
      1.26259995e-003 3.59850004e-002 9.28030014e-002 1.89389996e-002
      2.46210005e-002 4.48229983e-002 4.41920012e-002 8.83840024e-003
      4.22980003e-002 5.91539979e-001 1.96300000e-001 5.55559993e-002
      1.23459997e-003 4.69140001e-002 0. 1.23459997e-003 1.23459997e-003
      1.11110002e-001 7.16049969e-002 2.22219992e-002 3.45680006e-002
      4.19749990e-002 1.85189992e-002 9.87649988e-003 2.59259995e-002
      3.61730009e-001 1.03060000e-001 1.39629999e-002 2.65960000e-003
      1.66219994e-002 6.64889987e-004 0. 0. 5.85110001e-002
      2.51329988e-001 1.86170004e-002 2.72610001e-002 3.78989987e-002
      2.46009994e-002 3.32450005e-003 2.19410006e-002 4.19550002e-001
      7.02069998e-001 2.33850002e-001 3.68110016e-002 1.82729997e-002
      6.35589985e-003 2.64830003e-003</_>
    <_>
      5.70629984e-002 9.94979978e-001 9.89520013e-001 9.83389974e-001
      9.75700021e-001 9.68859971e-001 9.62090015e-001 9.55690026e-001
      9.49209988e-001 9.42910016e-001 9.37439978e-001 9.31599975e-001
      9.26800013e-001 9.23030019e-001 9.20580029e-001 9.19189990e-001
      9.18460011e-001 9.19189990e-001 9.19550002e-001 9.19099987e-001
      9.19000030e-001 4.31400016e-002 1.20250002e-001 3.41720015e-001
      3.41720015e-001 2.53560007e-001 7.56020024e-002 3.13789994e-002
      2.54710000e-002 3.54879983e-002 1.59729999e-002 7.00730011e-002
      3.41720015e-001 3.41720015e-001 9.45150033e-002 2.79050004e-002
      1.34830000e-002 8.27359967e-003 6.99779997e-003 8.01569968e-002
      1.76939994e-001 3.41720015e-001 2.61130005e-001 1.53750002e-001
      8.63320008e-002 4.44490016e-002 4.75939997e-002 5.19540012e-002
      2.97860000e-002 8.43859985e-002 3.41720015e-001 1.76609993e-001
      7.49420002e-002 4.09759991e-002 2.16329992e-002 2.01299991e-002
      1.52479997e-002 2.13330007e+000 1.47620007e-001 8.93159986e-001 0.
      0. 0. 0. 0. 0. 0. 0. 0. 0. 0. 0. 0. 0. 0. 0. 0. 5.35390005e-002
      8.62069987e-003 4.53719986e-004 7.71320006e-003 0. 4.53719986e-004
      1.36120000e-003 2.22319998e-002 8.84749964e-002 1.86030008e-002
      1.86030008e-002 4.21960019e-002 3.40289995e-002 4.99089994e-003
      4.12890017e-002 6.57429993e-001 1.69520006e-001 1.59999996e-001
      1.90479995e-003 6.28570020e-002 0. 0. 0. 6.66669980e-002
      3.23810019e-002 2.28569992e-002 4.38099988e-002 5.90480007e-002
      9.52379964e-003 3.80950002e-003 5.71430009e-003 3.61900002e-001
      1.17519997e-001 2.67089996e-002 4.80769994e-003 2.77779996e-002 0.
      5.34189981e-004 2.67089996e-003 6.14320002e-002 1.95510000e-001
      2.19020005e-002 1.76279992e-002 4.48720008e-002 4.00639996e-002
      1.33549999e-002 3.20510007e-002 3.93159986e-001 5.43160021e-001
      3.22420001e-001 7.98460022e-002 3.71939987e-002 1.63739994e-002
      1.01070001e-003</_>
    <_>
      1.59850001e-001 9.97619987e-001 9.91500020e-001 9.81970012e-001
      9.69600022e-001 9.54750001e-001 9.37409997e-001 9.17739987e-001
      8.96440029e-001 8.74180019e-001 8.51599991e-001 8.29240024e-001
      8.07500005e-001 7.87050009e-001 7.68400013e-001 7.52049983e-001
      7.38319993e-001 7.27060020e-001 7.18640029e-001 7.13320017e-001
      7.11459994e-001 4.23670001e-002 4.89340015e-002 4.65160012e-002
      1.03780001e-001 2.54060000e-001 2.54060000e-001 2.04390004e-001
      6.91689998e-002 5.79189993e-002 1.81760006e-002 2.50100009e-002
      4.51459996e-002 1.73600003e-001 2.54060000e-001 2.53329992e-001
      1.34379998e-001 5.13410009e-002 1.92740001e-002 1.22180000e-001
      7.82430023e-002 1.41460001e-001 2.06829995e-001 2.54060000e-001
      2.54060000e-001 2.54060000e-001 1.27350003e-001 1.24540001e-001
      1.02580003e-001 8.19709972e-002 1.31170005e-001 1.66180000e-001
      2.54060000e-001 2.54060000e-001 2.54060000e-001 2.02639997e-001
      1.11520000e-001 2.09430003e+000 2.38940001e-001 8.96659970e-001
      1.06899999e-001 5.96890002e-002 4.93079983e-002 1.12460004e-002
      5.53629994e-002 8.65050009e-004 8.65050009e-004 1.03810001e-002
      4.32530008e-002 3.54669988e-002 4.32529999e-003 3.02770007e-002
      3.80619988e-002 4.32530008e-002 3.46020004e-003 1.20240003e-001
      4.93939996e-001 4.45379987e-002 1.83669999e-002 5.16209984e-003
      4.51980010e-002 1.80069997e-004 1.80069997e-004 3.48139997e-003
      8.42140019e-002 1.19810000e-001 1.05640003e-002 6.90279994e-003
      2.34689992e-002 5.33020012e-002 8.16330034e-003 6.57270029e-002
      5.10730028e-001 6.74770027e-002 3.30550000e-002 3.88039998e-003
      6.64710030e-002 2.87439994e-004 2.87439994e-004 3.09000001e-003
      1.22089997e-001 1.25249997e-001 1.27189998e-002 1.00600002e-002
      1.74620003e-002 4.16789986e-002 6.75480021e-003 3.49240005e-002
      4.54479992e-001 8.60129967e-002 3.59149985e-002 6.18440006e-003
      5.41270003e-002 7.94329972e-004 2.83689995e-004 5.21990005e-003
      9.20839980e-002 9.70200002e-002 1.90069992e-002 9.70210042e-003
      2.16739997e-002 3.48940007e-002 1.00990003e-002 4.94749993e-002
      4.77539986e-001 6.73539996e-001 2.43570000e-001 5.38979992e-002
      1.94819998e-002 9.14950017e-003 3.68079985e-004</_>
    <_>
      1.59180000e-001 9.97950017e-001 9.93740022e-001 9.87630010e-001
      9.80880022e-001 9.74049985e-001 9.68200028e-001 9.64160025e-001
      9.61589992e-001 9.60839987e-001 9.61619973e-001 9.63789999e-001
      9.66449976e-001 9.68959987e-001 9.71279979e-001 9.72890019e-001
      9.73999977e-001 9.74960029e-001 9.75719988e-001 9.76350009e-001
      9.76480007e-001 1.59360006e-001 2.44450003e-001 2.44450003e-001
      2.44450003e-001 2.44450003e-001 2.15049997e-001 1.69330001e-001
      1.12450004e-001 1.57299995e-001 1.03510000e-001 1.53520003e-001
      1.74640000e-001 2.11840004e-001 1.46039993e-001 1.40550002e-001
      1.33959994e-001 8.31329972e-002 9.93620008e-002 6.56189993e-002
      1.52300000e-001 2.14430004e-001 2.44450003e-001 2.44450003e-001
      2.03419998e-001 1.19309999e-001 5.83209991e-002 4.93320003e-002
      6.43249974e-002 8.81490037e-002 1.25029996e-001 2.00660005e-001
      2.25040004e-001 1.97999999e-001 1.08989999e-001 8.16449970e-002
      6.88019991e-002 3.90000010e+000 3.87760013e-001 8.81820023e-001 0.
      0. 0. 0. 0. 0. 0. 0. 0. 0. 0. 0. 0. 0. 0. 0. 0. 8.33330005e-002
      1.09130004e-002 3.96829983e-003 2.48019993e-002 3.96829983e-003 0.
      1.98410009e-003 4.96030003e-002 9.82140005e-002 9.92059987e-003
      2.08330005e-002 5.35710007e-002 5.85319996e-002 1.09130004e-002
      4.46429998e-002 5.24800003e-001 1.73329994e-001 9.93940011e-002
      8.48490000e-003 8.96970034e-002 0. 1.21210003e-003 4.84849978e-003
      1.13940001e-001 6.78789988e-002 2.30299998e-002 3.51519994e-002
      4.72729988e-002 2.06060000e-002 1.81820001e-002 4.84849997e-002
      2.48490006e-001 1.03009999e-001 1.85189992e-002 2.31479993e-003
      2.89350003e-002 0. 0. 2.31479993e-003 5.43980002e-002
      2.02549994e-001 2.31480002e-002 1.96759999e-002 6.59720004e-002
      3.35649997e-002 9.25930031e-003 2.31480002e-002 4.13190007e-001
      5.02210021e-001 2.08039999e-001 1.10870004e-001 8.56890008e-002
      7.46470019e-002 1.85509995e-002</_>
    <_>
      1.98440000e-001 9.96450007e-001 9.88479972e-001 9.77779984e-001
      9.65279996e-001 9.52180028e-001 9.39450026e-001 9.27969992e-001
      9.17309999e-001 9.08379972e-001 9.01849985e-001 8.97159994e-001
      8.93840015e-001 8.90990019e-001 8.88130009e-001 8.84130001e-001
      8.79369974e-001 8.75289977e-001 8.72349977e-001 8.70310009e-001
      8.69520009e-001 7.52720013e-002 1.05630003e-001 1.21140003e-001
      2.64160007e-001 2.77280003e-001 2.77280003e-001 1.70410007e-001
      1.66010007e-001 1.19159997e-001 3.87360007e-002 8.53239968e-002
      1.13210000e-001 1.53080001e-001 2.32899994e-001 1.12240002e-001
      6.04510009e-002 4.43219990e-002 3.97940017e-002 7.45289996e-002
      1.13679998e-001 1.97840005e-001 2.77280003e-001 2.77280003e-001
      2.77280003e-001 2.60749996e-001 1.60420001e-001 9.94620025e-002
      5.38149998e-002 1.03950001e-001 1.38889998e-001 1.81299999e-001
      2.44729996e-001 1.46909997e-001 8.70610029e-002 5.58089986e-002
      4.88939993e-002 2.90910006e+000 2.29300007e-001 8.29789996e-001
      1.75779998e+000 8.05779994e-002 2.22110003e-002 4.13220003e-003
      2.73759998e-002 0. 0. 1.54960004e-003 5.63019998e-002
      1.25520006e-001 1.85950007e-002 1.29129998e-002 4.85539995e-002
      4.59709987e-002 1.18800001e-002 3.82229984e-002 5.06200016e-001
      7.14289993e-002 1.58159994e-002 1.02039997e-003 2.44900007e-002 0.
      5.10199985e-004 1.02039997e-003 6.83669969e-002 6.83669969e-002
      1.47960000e-002 2.60199998e-002 3.92859988e-002 5.56120016e-002
      9.69390012e-003 7.34689981e-002 5.30110002e-001 9.85720009e-002
      3.42859998e-002 2.14289990e-003 5.92859983e-002 0. 0.
      2.14289990e-003 9.64289978e-002 1.58570006e-001 2.14290004e-002
      1.49999997e-002 5.49999997e-002 3.99999991e-002 1.07140001e-002
      3.21430005e-002 3.74280006e-001 7.33620003e-002 3.20510007e-002
      6.41029980e-003 5.12819998e-002 0. 7.12250010e-004 0.
      7.05130026e-002 1.23219997e-001 2.70649996e-002 3.06269992e-002
      4.77209985e-002 7.69229978e-002 1.85189992e-002 6.33900017e-002
      3.78199995e-001 7.33770013e-001 1.77279994e-001 4.53730002e-002
      2.61419993e-002 1.53249996e-002 2.10339995e-003</_>
    <_>
      2.04349995e-001 9.96349990e-001 9.89480019e-001 9.79920030e-001
      9.67610002e-001 9.53480005e-001 9.37510014e-001 9.19780016e-001
      9.01329994e-001 8.81799996e-001 8.62100005e-001 8.42909992e-001
      8.24370027e-001 8.06829989e-001 7.90530026e-001 7.76289999e-001
      7.64330029e-001 7.54960001e-001 7.48329997e-001 7.44949996e-001
      7.43960023e-001 1.03030004e-001 2.65949994e-001 2.65949994e-001
      2.65949994e-001 1.90530002e-001 1.30400002e-001 1.22319996e-001
      1.18709996e-001 1.10799998e-001 3.20429988e-002 1.87460005e-001
      2.65949994e-001 2.65949994e-001 2.11640000e-001 1.00620002e-001
      3.81820016e-002 1.23290000e-002 1.61969997e-002 1.57910004e-001
      2.65949994e-001 2.65949994e-001 2.65949994e-001 1.21969998e-001
      7.04710037e-002 6.60019964e-002 9.33640003e-002 1.16669998e-001
      4.48409989e-002 2.24309996e-001 2.65949994e-001 1.88620001e-001
      5.08170016e-002 9.70800035e-003 1.02080004e-002 8.97310022e-003
      1.85839999e-002 3.29999995e+000 1.59089997e-001 8.97539973e-001 0.
      0. 0. 0. 0. 0. 0. 0. 0. 0. 0. 0. 0. 0. 0. 0. 0. 4.96100001e-002
      7.80380005e-003 1.11479999e-003 1.17060002e-002 0. 0.
      1.11479999e-003 1.61649995e-002 4.79380004e-002 8.36119987e-003
      2.73129996e-002 3.34450006e-002 2.50840001e-002 3.34449997e-003
      6.80039972e-002 6.99000001e-001 1.81299999e-001 8.41559991e-002
      1.03900000e-003 4.83120009e-002 0. 5.19479974e-004 2.07790011e-003
      5.29870018e-002 1.14289999e-001 3.06490008e-002 2.44159997e-002
      4.31170017e-002 1.81820001e-002 5.71430009e-003 1.76619999e-002
      3.75589997e-001 8.69340003e-002 8.23049992e-003 3.08639999e-003
      1.33739999e-002 5.14400017e-004 0. 5.14400017e-004 4.98970002e-002
      1.87759995e-001 3.18930000e-002 2.41769999e-002 3.08640003e-002
      2.72630006e-002 6.17279997e-003 3.34360003e-002 4.95889992e-001
      6.24549985e-001 2.25730002e-001 8.48169997e-002 4.63339984e-002
      1.72320008e-002 1.34019996e-003</_>
    <_>
      8.39150026e-002 9.98300016e-001 9.95260000e-001 9.90909994e-001
      9.85360026e-001 9.78720009e-001 9.71409976e-001 9.63639975e-001
      9.55680013e-001 9.47459996e-001 9.39509988e-001 9.31959987e-001
      9.25189972e-001 9.19269979e-001 9.14049983e-001 9.09439981e-001
      9.05849993e-001 9.03119981e-001 9.01650012e-001 9.00629997e-001
      9.00020003e-001 1.50110006e-001 2.41390005e-001 1.94900006e-001
      1.23140000e-001 1.89319998e-001 2.52189994e-001 2.52189994e-001
      2.52189994e-001 1.48949996e-001 1.40459999e-001 2.15560004e-001
      2.52189994e-001 2.52189994e-001 1.70340002e-001 9.12450030e-002
      7.45930001e-002 6.80859983e-002 6.73879981e-002 6.70190006e-002
      1.18069999e-001 2.38079995e-001 2.05050007e-001 1.80380002e-001
      1.89089999e-001 9.33929980e-002 8.31170008e-002 7.89100006e-002
      6.31889999e-002 9.41860005e-002 2.52189994e-001 2.52189994e-001
      1.12680003e-001 6.47659972e-002 3.23599987e-002 4.03259993e-002
      4.78670001e-002 5. 1.90239996e-001 8.90829980e-001 0. 0. 0. 0. 0.
      0. 0. 0. 0. 0. 0. 0. 0. 0. 0. 0. 0. 7.94870034e-002
      1.53850000e-002 7.17950007e-003 2.25639995e-002 0. 5.12820028e-004
      1.53849996e-003 4.56410013e-002 4.20509987e-002 1.58970002e-002
      2.71790009e-002 3.99999991e-002 4.82049994e-002 6.66669989e-003
      5.64099997e-002 5.91279984e-001 1.56090006e-001 8.86240005e-002
      3.96829983e-003 8.20109993e-002 0. 0. 2.64550000e-003
      9.12699997e-002 4.62960005e-002 3.17460001e-002 3.83599997e-002
      5.55559993e-002 5.29100001e-003 1.19049996e-002 1.71959996e-002
      3.69049996e-001 6.65759966e-002 8.66390020e-003 1.82400004e-003
      1.00320000e-002 0. 0. 4.56000009e-004 2.82719992e-002
      1.68259993e-001 2.55360007e-002 2.37119999e-002 2.96400003e-002
      3.83040011e-002 7.75189977e-003 3.10079996e-002 5.59960008e-001
      7.08720028e-001 1.66449994e-001 7.69030005e-002 3.34470011e-002
      1.31679997e-002 1.31680002e-003</_>
    <_>
      1.40239999e-001 9.98369992e-001 9.94419992e-001 9.88780022e-001
      9.82089996e-001 9.74470019e-001 9.66040015e-001 9.57080007e-001
      9.47700024e-001 9.38290000e-001 9.28740025e-001 9.19449985e-001
      9.10470009e-001 9.02040005e-001 8.94240022e-001 8.87340009e-001
      8.81669998e-001 8.77499998e-001 8.74880016e-001 8.73510003e-001
      8.73170018e-001 1.82679996e-001 1.60319999e-001 1.94560006e-001
      2.21790001e-001 2.11070001e-001 2.21790001e-001 1.51710004e-001
      1.61119998e-001 1.21260002e-001 2.02340007e-001 1.81209996e-001
      2.21790001e-001 2.21790001e-001 2.21790001e-001 1.21110000e-001
      8.02209973e-002 1.15829997e-001 1.07749999e-001 1.32090002e-001
      1.79629996e-001 1.66539997e-001 2.21790001e-001 1.82099998e-001
      1.37400001e-001 1.20650001e-001 1.40110001e-001 1.15510002e-001
      1.12259999e-001 1.98180005e-001 2.21790001e-001 2.21790001e-001
      1.69919997e-001 9.32070017e-002 5.10290004e-002 6.99379966e-002
      7.24219978e-002 2.02500010e+000 3.25419992e-001 8.96340013e-001 0.
      0. 0. 0. 0. 0. 0. 0. 0. 0. 0. 0. 0. 0. 0. 0. 0. 1.85429994e-002
      5.74709987e-003 9.75930016e-004 1.08439997e-002 1.08439999e-004 0.
      4.33740002e-004 2.50489991e-002 6.01820014e-002 8.13269988e-003
      1.20360004e-002 1.96269993e-002 4.47839983e-002 6.28930004e-003
      5.92060015e-002 7.28039980e-001 9.86120030e-002 1.01530001e-001
      3.46969999e-003 8.10810030e-002 0. 1.09569996e-003 1.09569996e-003
      8.50979984e-002 7.76109993e-002 2.44699996e-002 1.55220004e-002
      3.01309992e-002 2.84880009e-002 7.66979996e-003 4.09060009e-002
      4.03219998e-001 9.05120000e-002 7.54510015e-002 2.95610004e-003
      5.72919995e-002 7.03829981e-004 5.63059992e-004 1.26689998e-003
      7.58730024e-002 1.01350002e-001 2.16780007e-002 1.40770003e-002
      2.37889998e-002 4.94089983e-002 1.09799998e-002 7.54510015e-002
      3.98640007e-001 6.99819982e-001 2.54610002e-001 3.19809988e-002
      9.46499966e-003 3.93889984e-003 1.76369998e-004</_>
    <_>
      1.26599997e-001 9.96559978e-001 9.88479972e-001 9.76339996e-001
      9.60910022e-001 9.42569971e-001 9.21660006e-001 8.98360014e-001
      8.73310030e-001 8.47130001e-001 8.20680022e-001 7.94570029e-001
      7.69219995e-001 7.45180011e-001 7.22809970e-001 7.02319980e-001
      6.84849977e-001 6.71060026e-001 6.61329985e-001 6.55510008e-001
      6.53770030e-001 3.82400006e-002 3.14439982e-002 4.86299992e-002
      6.63739964e-002 1.98860005e-001 2.31500000e-001 8.69989991e-002
      4.83519994e-002 3.42390016e-002 9.19829980e-002 1.03650004e-001
      1.50580004e-001 1.50030002e-001 2.31500000e-001 2.31500000e-001
      2.29100004e-001 1.38380006e-001 1.50959998e-001 2.31500000e-001
      1.92149997e-001 1.89109996e-001 1.65040001e-001 1.48980007e-001
      8.65549967e-002 1.14060000e-001 8.35070014e-002 1.93580002e-001
      2.31500000e-001 2.28269994e-001 2.31500000e-001 1.93250000e-001
      1.98220000e-001 1.78450003e-001 1.82750002e-001 1.51079997e-001
      2.31500000e-001 2.09380007e+000 2.18820006e-001 8.70230019e-001
      2.47529998e-001 7.87200034e-002 2.50870008e-002 1.73010002e-003
      3.46020013e-002 8.65050009e-004 8.65050009e-004 5.19029982e-003
      7.43950009e-002 1.40139997e-001 7.78550003e-003 2.94119995e-002
      3.28719988e-002 1.07270002e-001 6.92040008e-003 8.91000032e-002
      3.65049988e-001 5.84510006e-002 1.92290004e-002 3.71460011e-003
      4.03149985e-002 7.64779979e-004 2.18510002e-004 5.02570020e-003
      1.01609997e-001 1.55029997e-001 1.32200001e-002 1.33290002e-002
      2.07579993e-002 4.88369986e-002 9.06809978e-003 6.04179986e-002
      4.50019985e-001 7.25030005e-002 3.60749997e-002 2.11520004e-003
      4.39490005e-002 1.17509997e-004 3.52530013e-004 1.76260003e-003
      8.93070027e-002 9.49480012e-002 1.76260006e-002 1.28079997e-002
      2.12689992e-002 3.16100009e-002 5.99300023e-003 3.48999985e-002
      5.34659982e-001 9.97679979e-002 3.63559984e-002 4.01609996e-003
      4.47049998e-002 5.28429984e-004 5.28429984e-004 1.90230005e-003
      1.21959999e-001 1.42890006e-001 1.65929999e-002 1.12030003e-002
      2.11369991e-002 3.48760001e-002 7.92639982e-003 3.03320009e-002
      4.25260007e-001 6.44010007e-001 2.70249993e-001 5.69019988e-002
      2.03130003e-002 7.95220025e-003 5.76840015e-004</_>
    <_>
      7.48910010e-002 9.98009980e-001 9.94390011e-001 9.88870025e-001
      9.82150018e-001 9.74150002e-001 9.65160012e-001 9.55479980e-001
      9.44750011e-001 9.34059978e-001 9.23219979e-001 9.12989974e-001
      9.03400004e-001 8.94710004e-001 8.86860013e-001 8.79639983e-001
      8.73660028e-001 8.68749976e-001 8.65530014e-001 8.63529980e-001
      8.62950027e-001 6.39040023e-002 1.04780003e-001 1.36490002e-001
      2.56460011e-001 2.56460011e-001 2.55820006e-001 1.88510001e-001
      5.85660003e-002 4.86630015e-002 1.19259998e-001 1.91239998e-001
      2.45959997e-001 2.56460011e-001 2.32830003e-001 1.07869998e-001
      8.81190002e-002 4.33420017e-002 7.23619983e-002 5.58470003e-002
      1.16509996e-001 1.55149996e-001 1.66199997e-001 2.56460011e-001
      2.56460011e-001 2.20809996e-001 3.10919993e-002 2.94860005e-002
      1.10930003e-001 2.04640001e-001 2.56460011e-001 2.56460011e-001
      1.37850001e-001 8.25949982e-002 5.96430004e-002 2.28170007e-002
      3.86799984e-002 4.22219992e+000 1.53530002e-001 8.88890028e-001 0.
      0. 0. 0. 0. 0. 0. 0. 0. 0. 0. 0. 0. 0. 0. 0. 0. 5.27230017e-002
      7.77869998e-003 0. 6.91440003e-003 4.32150002e-004 8.64300004e-004
      0. 2.80900002e-002 1.36559993e-001 1.94470007e-002 2.59290002e-002
      3.75970006e-002 2.98190005e-002 5.61799994e-003 4.49439995e-002
      6.03280008e-001 1.90119997e-001 9.13579985e-002 0. 6.54319972e-002
      0. 0. 0. 1.14820004e-001 5.67900017e-002 2.34570000e-002
      3.45680006e-002 4.69140001e-002 9.87649988e-003 2.46910006e-003
      1.48149999e-002 3.49379987e-001 1.01709999e-001 4.70090006e-003
      1.28209998e-003 1.36749996e-002 0. 0. 1.28209998e-003
      7.64959976e-002 2.97010005e-001 1.15390001e-002 1.41030001e-002
      3.58970016e-002 1.88030005e-002 2.56410008e-003 1.96579993e-002
      4.01289999e-001 4.67799991e-001 3.40669990e-001 1.29449993e-001
      4.78399992e-002 1.10910004e-002 3.14519997e-003</_>
    <_>
      9.55590010e-002 9.97650027e-001 9.91410017e-001 9.81809974e-001
      9.69449997e-001 9.55009997e-001 9.39059973e-001 9.21580017e-001
      9.03110027e-001 8.84159982e-001 8.65260005e-001 8.46849978e-001
      8.29429984e-001 8.13019991e-001 7.98179984e-001 7.85210013e-001
      7.74659991e-001 7.66730011e-001 7.61520028e-001 7.58570015e-001
      7.57679999e-001 1.18749999e-001 2.14100003e-001 2.72720009e-001
      2.72720009e-001 2.72720009e-001 1.79020002e-001 6.89349994e-002
      7.29949996e-002 5.45720011e-002 3.73630002e-002 8.77069980e-002
      2.72720009e-001 2.72720009e-001 1.81909993e-001 5.14400005e-002
      1.65630002e-002 1.79639999e-002 1.34640001e-002 6.11659996e-002
      1.71430007e-001 2.72720009e-001 2.72720009e-001 2.72720009e-001
      1.50769994e-001 1.19159997e-001 6.50900006e-002 6.77819997e-002
      2.74379998e-002 9.89779979e-002 2.72720009e-001 2.72720009e-001
      1.05439998e-001 4.21309993e-002 1.60789993e-002 1.05769997e-002
      1.32309999e-002 2.25000000e+000 1.57680005e-001 8.92189980e-001 0.
      0. 0. 0. 0. 0. 0. 0. 0. 0. 0. 0. 0. 0. 0. 0. 0. 3.20859998e-002
      1.67110004e-003 1.67110004e-003 9.35829990e-003 0. 0. 0.
      1.83819998e-002 8.35559964e-002 1.10290004e-002 1.87170003e-002
      3.94390002e-002 5.88239990e-002 9.69250035e-003 5.71519993e-002
      6.58420026e-001 1.92499995e-001 6.58330023e-002 8.33329977e-004
      4.25000004e-002 0. 0. 8.33329977e-004 7.41669983e-002
      8.91669989e-002 2.41669994e-002 1.66669991e-002 5.58330007e-002
      1.75000001e-002 5.83329983e-003 2.41669994e-002 3.89999986e-001
      6.74799979e-002 8.94310046e-003 1.62600004e-003 1.99190006e-002
      1.21949997e-003 0. 2.43899995e-003 6.78860024e-002 1.87810004e-001
      2.52030008e-002 1.42280003e-002 4.30889986e-002 7.03250021e-002
      1.17889997e-002 5.32520004e-002 4.24800009e-001 7.82050014e-001
      1.53850004e-001 4.25209999e-002 1.58120003e-002 5.76920016e-003 0.</_>
    <_>
      1.90060005e-001 9.97219980e-001 9.90190029e-001 9.79399979e-001
      9.65659976e-001 9.49490011e-001 9.31110024e-001 9.10939991e-001
      8.89469981e-001 8.67150009e-001 8.44399989e-001 8.21900010e-001
      7.99880028e-001 7.78930008e-001 7.59469986e-001 7.41900027e-001
      7.26760030e-001 7.14500010e-001 7.05399990e-001 6.99800014e-001
      6.97899997e-001 1.20990001e-001 9.37450007e-002 2.13780001e-001
      2.18579993e-001 2.14949995e-001 1.69139996e-001 2.46549994e-001
      2.46549994e-001 1.61100000e-001 8.68709981e-002 9.46500003e-002
      2.46549994e-001 2.46549994e-001 2.46549994e-001 8.04890022e-002
      6.36830032e-002 9.55459997e-002 5.20149991e-002 1.61980003e-001
      2.46549994e-001 2.46549994e-001 1.43769994e-001 1.41790003e-001
      7.93239996e-002 1.27020001e-001 1.70010000e-001 1.28639996e-001
      6.62819967e-002 2.07929999e-001 2.46549994e-001 2.43230000e-001
      7.44929984e-002 3.34650017e-002 4.62649986e-002 5.65540008e-002
      3.18149999e-002 2.25000000e+000 1.52940005e-001 8.97530019e-001 0.
      0. 0. 0. 0. 0. 0. 0. 0. 0. 0. 0. 0. 0. 0. 0. 0. 5.81770018e-002
      8.72659963e-003 2.26240000e-003 1.29279997e-002 0. 0.
      1.61599996e-003 3.58759984e-002 8.01550001e-002 1.61600001e-002
      2.48869993e-002 3.00580002e-002 4.75110002e-002 8.72659963e-003
      9.14670005e-002 5.81459999e-001 1.77359998e-001 6.08110018e-002
      8.44590017e-004 5.65880015e-002 4.22300014e-004 0. 2.53379997e-003
      9.62840021e-002 8.53039995e-002 2.28039995e-002 1.47799999e-002
      4.30740006e-002 2.44929995e-002 9.29049961e-003 4.18069996e-002
      3.63599986e-001 1.07089996e-001 1.41009996e-002 3.42989992e-003
      2.13409998e-002 0. 0. 2.28659995e-003 7.43139982e-002
      1.94360003e-001 1.63870007e-002 1.44819999e-002 3.73470001e-002
      1.41009996e-002 4.57319990e-003 1.86739992e-002 4.77519989e-001
      3.91609997e-001 3.12759995e-001 1.70750007e-001 9.04809982e-002
      3.00030001e-002 4.39839996e-003</_>
    <_>
      1.59779996e-001 9.97259974e-001 9.91439998e-001 9.82890010e-001
      9.72050011e-001 9.58920002e-001 9.43780005e-001 9.27169979e-001
      9.09150004e-001 8.90060008e-001 8.70720029e-001 8.51589978e-001
      8.33190024e-001 8.15829992e-001 8.00010026e-001 7.86029994e-001
      7.74010003e-001 7.63599992e-001 7.55779982e-001 7.51129985e-001
      7.49490023e-001 3.07810004e-003 2.51230001e-002 1.72710001e-001
      2.93920010e-001 2.93920010e-001 1.13839999e-001 3.61220017e-002
      1.41099999e-002 2.20280001e-003 6.31910004e-003 3.82790007e-002
      2.93920010e-001 2.93920010e-001 2.38509998e-001 5.45339994e-002
      9.81330033e-003 8.48449999e-004 2.06109998e-003 2.01709997e-002
      1.95039995e-002 1.18900001e-001 2.93920010e-001 2.93920010e-001
      2.63709992e-001 1.61210001e-001 2.07870007e-001 5.25639988e-002
      1.52530000e-002 3.53469998e-002 1.65749997e-001 2.93920010e-001
      2.93920010e-001 9.78339985e-002 5.03589995e-002 3.68969999e-002
      2.61809994e-002 1.93330002e+000 2.41009995e-001 8.93549979e-001
      2.85730004e-001 1.76019996e-001 1.27550000e-002 0. 8.92859977e-003
      0. 0. 0. 2.67859995e-002 2.61480004e-001 2.29589995e-002
      2.16840003e-002 6.37750030e-002 3.44390012e-002 6.37760013e-003
      5.10200001e-002 3.13780010e-001 6.40420020e-002 1.25709996e-002
      2.37190002e-003 2.39560008e-002 2.37190005e-004 0. 9.48769972e-004
      1.15510002e-001 1.43739998e-001 8.77610035e-003 9.48769972e-003
      2.98859999e-002 4.95730005e-002 4.50660009e-003 3.10720000e-002
      5.03329992e-001 1.07369997e-001 3.19430009e-002 8.87310016e-004
      4.85059991e-002 0. 0. 5.91540011e-004 7.66049996e-002
      9.84919965e-002 4.64360006e-002 1.98170003e-002 5.35340011e-002
      1.39009999e-002 1.06480001e-002 1.30139999e-002 4.78249997e-001
      9.17870030e-002 2.98260003e-002 4.20080003e-004 1.47030000e-002 0.
      0. 4.20080003e-004 4.80990000e-002 1.05439998e-001 2.56249998e-002
      1.53329996e-002 2.70949993e-002 7.35139987e-003 6.09119982e-003
      9.03169997e-003 6.18789971e-001 6.33520007e-001 2.75629997e-001
      6.22060001e-002 2.15879995e-002 6.54800003e-003 5.11560007e-004</_>
    <_>
      2.28619993e-001 9.95480001e-001 9.87439990e-001 9.76249993e-001
      9.62660015e-001 9.46659982e-001 9.29090023e-001 9.10149992e-001
      8.90169978e-001 8.69740009e-001 8.48609984e-001 8.27449977e-001
      8.06230009e-001 7.85849988e-001 7.67419994e-001 7.51290023e-001
      7.37559974e-001 7.26880014e-001 7.19810009e-001 7.15950012e-001
      7.15080023e-001 2.44729996e-001 2.64070004e-001 2.64070004e-001
      2.64070004e-001 1.43810004e-001 8.57110023e-002 8.38719979e-002
      7.28949979e-002 1.46550000e-001 1.30679995e-001 2.57820010e-001
      2.64070004e-001 2.64070004e-001 1.15800001e-001 5.70599996e-002
      5.67749999e-002 3.98130007e-002 7.55449980e-002 1.49169996e-001
      2.64070004e-001 2.64070004e-001 2.64070004e-001 1.21880002e-001
      5.70079982e-002 4.54099998e-002 3.42749991e-002 6.63900003e-002
      4.85129990e-002 1.87659994e-001 2.64070004e-001 2.19359994e-001
      5.04230000e-002 1.82339996e-002 1.16740000e-002 9.80850030e-003
      2.20519993e-002 2.64289999e+000 1.43399999e-001 8.88890028e-001 0.
      0. 0. 0. 0. 0. 0. 0. 0. 0. 0. 0. 0. 0. 0. 0. 0. 3.82650010e-002
      5.73980017e-003 1.27550005e-003 1.62630007e-002 6.37759978e-004 0.
      1.27550005e-003 3.09309997e-002 6.05870001e-002 1.65819991e-002
      2.23210007e-002 3.89030017e-002 2.83799991e-002 9.88520030e-003
      4.91070002e-002 6.79859996e-001 1.54339999e-001 7.56449997e-002
      4.40979982e-003 5.12209982e-002 6.78430020e-004 1.01759995e-003
      2.37450004e-003 6.20759986e-002 9.02310014e-002 2.64589991e-002
      2.00139992e-002 3.79920006e-002 2.78159995e-002 9.83719993e-003
      5.25779985e-002 3.83309990e-001 9.48960036e-002 1.95370000e-002
      5.18340012e-003 3.34930010e-002 7.97450019e-004 0. 4.38599987e-003
      6.45930022e-002 1.74239993e-001 1.95370000e-002 2.51199994e-002
      2.79110000e-002 3.70809995e-002 1.35570001e-002 3.50879990e-002
      4.44579989e-001 5.11870027e-001 3.16130012e-001 8.64249989e-002
      4.57709990e-002 3.41150016e-002 5.68589987e-003</_>
    <_>
      1.87069997e-001 9.97060001e-001 9.90960002e-001 9.81970012e-001
      9.70170021e-001 9.56139982e-001 9.39880013e-001 9.22349989e-001
      9.03500021e-001 8.84039998e-001 8.64149988e-001 8.44280005e-001
      8.24899971e-001 8.06559980e-001 7.89690018e-001 7.74680018e-001
      7.61969984e-001 7.51810014e-001 7.44700015e-001 7.40830004e-001
      7.39880025e-001 1.11270003e-001 1.48310006e-001 2.41129994e-001
      2.41129994e-001 2.41129994e-001 1.77780002e-001 2.35960007e-001
      1.79550007e-001 2.02250004e-001 7.40830004e-002 1.28069997e-001
      2.41129994e-001 2.41129994e-001 2.08499998e-001 1.40929997e-001
      9.17539969e-002 2.92419996e-002 6.95390031e-002 1.54029995e-001
      2.03400001e-001 2.41129994e-001 1.41240001e-001 9.48859975e-002
      8.34029987e-002 1.76100001e-001 1.80969998e-001 2.18889996e-001
      8.79279971e-002 1.60070002e-001 2.41129994e-001 2.05899999e-001
      5.82269989e-002 1.60760004e-002 2.16210000e-002 2.32079998e-002
      5.82010001e-002 2.18750000e+000 1.61829993e-001 8.57140005e-001 0.
      0. 0. 0. 0. 0. 0. 0. 0. 0. 0. 0. 0. 0. 0. 0. 0. 6.00120015e-002
      1.03979995e-002 2.67380010e-003 1.33689996e-002 1.18829997e-003 0.
      2.97089992e-003 2.70349998e-002 5.67440018e-002 1.81220006e-002
      2.25789994e-002 3.44620012e-002 3.44620012e-002 8.02140031e-003
      5.70410006e-002 6.50919974e-001 1.44520000e-001 5.95339984e-002
      2.58839992e-003 5.52200004e-002 4.31410008e-004 8.62810004e-004
      3.01979994e-003 7.72219971e-002 1.06559999e-001 3.23560014e-002
      2.20020004e-002 4.70229983e-002 2.24329997e-002 9.92230047e-003
      2.07080003e-002 3.95599991e-001 9.64910015e-002 1.44739999e-002
      2.19299993e-003 1.35960001e-002 0. 0. 8.77189974e-004
      6.53510019e-002 1.86839998e-001 2.36840006e-002 1.62279997e-002
      3.90349999e-002 3.02629992e-002 4.82460018e-003 2.89469995e-002
      4.77200001e-001 6.28910005e-001 2.08370000e-001 8.67459998e-002
      5.18650003e-002 2.01699995e-002 3.94299999e-003</_>
    <_>
      1.50120005e-001 9.95540023e-001 9.87649977e-001 9.76880014e-001
      9.62830007e-001 9.46449995e-001 9.28170025e-001 9.08309996e-001
      8.87139976e-001 8.65079999e-001 8.42419982e-001 8.19450021e-001
      7.96670020e-001 7.75039971e-001 7.55180001e-001 7.37600029e-001
      7.22670019e-001 7.10959971e-001 7.02610016e-001 6.97390020e-001
      6.95469975e-001 1.93440005e-001 1.30840003e-001 1.06509998e-001
      1.10749997e-001 1.05319999e-001 8.45070034e-002 1.43370003e-001
      2.29980007e-001 2.29980007e-001 1.16839997e-001 7.17590004e-002
      1.04120001e-001 1.69180006e-001 1.56540006e-001 1.07570000e-001
      1.22589998e-001 1.77139997e-001 2.29980007e-001 2.29980007e-001
      2.29980007e-001 2.29980007e-001 2.25500003e-001 1.87079996e-001
      9.85430032e-002 1.16449997e-001 2.23920003e-001 2.29980007e-001
      1.40210003e-001 1.77880004e-001 2.29980007e-001 2.29980007e-001
      1.24210000e-001 6.11630008e-002 5.25159985e-002 8.09980035e-002
      1.58050001e-001 1.93750000e+000 2.15189993e-001 8.62640023e-001 0.
      0. 0. 0. 0. 0. 0. 0. 0. 0. 0. 0. 0. 0. 0. 0. 0. 4.81150001e-002
      7.93650001e-003 2.97620008e-003 1.28969997e-002 0. 0.
      1.98410009e-003 4.86110002e-002 8.38290006e-002 1.53770000e-002
      2.82739997e-002 4.11709994e-002 4.91070002e-002 5.95240016e-003
      8.13490003e-002 5.72420001e-001 1.95189998e-001 6.92310035e-002
      2.88460008e-003 6.82689995e-002 9.61539976e-004 9.61539976e-004
      2.88460008e-003 5.86539991e-002 1.19230002e-001 2.40390003e-002
      2.11539995e-002 5.28849997e-002 4.42310013e-002 1.92309998e-003
      4.23079990e-002 2.95190006e-001 1.07139997e-001 1.83150005e-002
      9.15749988e-004 2.47249994e-002 0. 0. 1.83149998e-003
      5.49449995e-002 1.94140002e-001 3.11360005e-002 3.02200001e-002
      3.20510007e-002 4.21250015e-002 3.66299995e-003 1.19049996e-002
      4.46889997e-001 4.02779996e-001 2.84579992e-001 1.64680004e-001
      8.81519988e-002 5.01700006e-002 9.63720027e-003</_>
    <_>
      1.46489993e-001 9.97669995e-001 9.91909981e-001 9.83269989e-001
      9.72180009e-001 9.59129989e-001 9.44610000e-001 9.28830028e-001
      9.12119985e-001 8.94800007e-001 8.77219975e-001 8.59570026e-001
      8.42320025e-001 8.25469971e-001 8.09610009e-001 7.95390010e-001
      7.83259988e-001 7.73580015e-001 7.66550004e-001 7.62319982e-001
      7.61020005e-001 8.85419995e-002 7.55150020e-002 1.66170001e-001
      1.44800007e-001 2.15859994e-001 1.97349995e-001 1.17109999e-001
      4.47649993e-002 6.68990016e-002 3.37000005e-002 1.44950002e-001
      2.74910003e-001 2.74910003e-001 2.66380012e-001 9.49930027e-002
      4.63850014e-002 6.76630018e-003 7.47929979e-003 1.75940007e-001
      1.99890003e-001 2.74910003e-001 1.86480001e-001 2.15269998e-001
      2.74910003e-001 2.26650000e-001 9.18050036e-002 1.19960003e-001
      4.19149995e-002 1.83459997e-001 2.74910003e-001 2.74910003e-001
      7.61059970e-002 4.56340015e-002 3.60849984e-002 2.01200005e-002
      1.87330004e-002 1.47619998e+000 2.23399997e-001 8.90479982e-001
      1.55760002e+000 1.49090007e-001 4.36509997e-002 3.40140006e-003
      4.53520007e-002 0. 0. 1.13380002e-003 1.03739999e-001
      4.36509997e-002 1.64400004e-002 2.60770004e-002 4.25169989e-002
      1.47390002e-002 5.10200020e-003 1.19049996e-002 4.93200004e-001
      4.31249999e-002 1.20179998e-002 1.41390006e-003 1.37860002e-002 0.
      0. 7.06959981e-004 1.73209999e-002 8.41289982e-002 1.94419995e-002
      2.40369998e-002 3.60549986e-002 3.28739993e-002 5.65569988e-003
      6.39799982e-002 6.45449996e-001 2.07090005e-001 5.81559986e-002
      3.54610011e-003 3.68800014e-002 0. 0. 1.41839997e-003
      8.01419988e-002 7.94330016e-002 2.05669999e-002 2.83690002e-002
      4.32620011e-002 1.06380004e-002 3.54610011e-003 9.92910005e-003
      4.17019993e-001 1.14129998e-001 1.82809997e-002 9.88140004e-004
      1.63039993e-002 0. 9.88140004e-004 2.47039995e-003 6.12649992e-002
      1.81319997e-001 2.51979996e-002 2.42090002e-002 3.01380008e-002
      2.86560003e-002 9.38730035e-003 2.61860006e-002 4.60469991e-001
      4.41639990e-001 2.82169998e-001 1.76009998e-001 6.91640005e-002
      2.73439996e-002 3.67649994e-003</_>
    <_>
      1.49990007e-001 9.98300016e-001 9.93799984e-001 9.87049997e-001
      9.78340030e-001 9.68320012e-001 9.57409978e-001 9.45689976e-001
      9.33300018e-001 9.20220017e-001 9.06799972e-001 8.93339992e-001
      8.80249977e-001 8.68110001e-001 8.57330024e-001 8.48209977e-001
      8.40889990e-001 8.35370004e-001 8.31640005e-001 8.29509974e-001
      8.28800023e-001 1.18610002e-001 1.16420001e-001 1.25650004e-001
      1.32799998e-001 2.44320005e-001 2.44320005e-001 2.44320005e-001
      9.40909982e-002 1.27910003e-001 1.09959997e-001 1.67209998e-001
      2.20479995e-001 2.44320005e-001 2.44320005e-001 1.75870001e-001
      1.16290003e-001 7.77819976e-002 8.87280032e-002 9.62620005e-002
      1.22730002e-001 1.81979999e-001 1.66060001e-001 2.44320005e-001
      2.39480004e-001 1.40300006e-001 9.10329968e-002 1.08050004e-001
      1.04769997e-001 1.49639994e-001 2.44320005e-001 2.44320005e-001
      1.90129995e-001 1.33010000e-001 8.35279971e-002 7.21839964e-002
      7.29530007e-002 2.78950000e+000 2.51100004e-001 8.93280029e-001 0.
      0. 0. 0. 0. 0. 0. 0. 0. 0. 0. 0. 0. 0. 0. 0. 0. 3.79110016e-002
      3.44650005e-003 2.91620009e-003 1.19300000e-002 0. 0.
      2.38600001e-003 2.51860004e-002 9.54400003e-002 1.64369997e-002
      1.88229997e-002 3.12829986e-002 3.36689986e-002 7.68820010e-003
      3.87060009e-002 6.74189985e-001 1.45009995e-001 6.15819991e-002
      5.37060015e-003 4.58290018e-002 0. 7.16080016e-004 2.50630011e-003
      9.20159966e-002 5.94340004e-002 2.18400005e-002 2.14820001e-002
      3.79519984e-002 2.14820001e-002 9.66699980e-003 1.68280005e-002
      4.58299994e-001 8.99519995e-002 1.56299993e-002 1.59490004e-003
      2.00960003e-002 6.37959980e-004 3.18979990e-004 2.55180011e-003
      7.20890015e-002 1.31420001e-001 1.65870003e-002 1.94579996e-002
      2.64749993e-002 3.50879990e-002 8.93140025e-003 3.76389995e-002
      5.21529973e-001 3.98259997e-001 3.18919986e-001 1.64529994e-001
      7.71180019e-002 3.83220017e-002 2.85040005e-003</_>
    <_>
      1.68139994e-001 9.98529971e-001 9.95700002e-001 9.91770029e-001
      9.86930013e-001 9.80809987e-001 9.73649979e-001 9.65770006e-001
      9.57690001e-001 9.49599981e-001 9.41609979e-001 9.33920026e-001
      9.26980019e-001 9.20719981e-001 9.15009975e-001 9.09950018e-001
      9.06210005e-001 9.03490007e-001 9.01530027e-001 8.99909973e-001
      8.99429977e-001 1.02949999e-001 2.39879996e-001 2.94779986e-001
      2.94779986e-001 1.81669995e-001 6.23899996e-002 3.88230011e-002
      3.16129997e-002 3.78209986e-002 1.29169999e-002 5.23260012e-002
      2.94779986e-001 2.94779986e-001 1.38730004e-001 1.97620001e-002
      7.52640003e-003 1.06849996e-002 1.18500004e-002 3.89310010e-002
      1.63360000e-001 2.94779986e-001 2.94779986e-001 2.94779986e-001
      1.62379995e-001 6.43680021e-002 2.12999992e-002 2.65319999e-002
      1.66699998e-002 1.17109999e-001 2.94779986e-001 2.94779986e-001
      9.21960026e-002 1.95530001e-002 1.17070004e-002 1.02070002e-002
      1.33300005e-002 7.57140017e+000 2.61059999e-001 8.92859995e-001
      7.96100020e-001 7.06249997e-002 1.93750001e-002 1.87499996e-003
      3.62499990e-002 1.24999997e-003 6.24999986e-004 1.87499996e-003
      7.24999979e-002 3.37500013e-002 1.06250001e-002 1.43750003e-002
      4.81249988e-002 3.31249982e-002 4.99999989e-003 7.93749988e-002
      5.71259975e-001 3.37980017e-002 2.64810007e-002 1.74219999e-003
      1.21950004e-002 0. 0. 0. 1.56789999e-002 4.04179990e-002
      2.68290006e-002 2.22999994e-002 4.21600007e-002 1.53310001e-002
      8.71079974e-003 5.85369989e-002 6.95819974e-001 1.50639996e-001
      5.78720011e-002 2.97869998e-003 4.51060012e-002 1.70210004e-003
      1.70210004e-003 1.27660006e-003 8.12769979e-002 5.53190000e-002
      2.29790006e-002 2.38300003e-002 4.55319993e-002 1.65960006e-002
      4.68089990e-003 5.19150011e-002 4.36589986e-001 9.67269987e-002
      3.48210000e-002 5.35710016e-003 8.09530020e-002 5.95239981e-004
      8.92860000e-004 4.46429988e-003 8.09530020e-002 1.35419995e-001
      1.27980001e-002 9.22620017e-003 3.30360010e-002 4.64290008e-002
      8.03569984e-003 6.75600022e-002 3.82730007e-001 5.27310014e-001
      2.96920002e-001 7.80590028e-002 3.78100015e-002 3.88940014e-002
      2.10059993e-002</_>
    <_>
      1.32039994e-001 9.98300016e-001 9.94369984e-001 9.88340020e-001
      9.80490029e-001 9.71329987e-001 9.61269975e-001 9.50680017e-001
      9.39679980e-001 9.28650022e-001 9.17729974e-001 9.07190025e-001
      8.97440016e-001 8.88670027e-001 8.80990028e-001 8.74670029e-001
      8.69639993e-001 8.65859985e-001 8.63309979e-001 8.61819983e-001
      8.61419976e-001 8.54860023e-002 1.43470004e-001 1.03309996e-001
      1.43189996e-001 2.71660000e-001 2.71660000e-001 1.87580004e-001
      1.81079999e-001 7.69869983e-002 6.42130002e-002 7.98309967e-002
      1.39520004e-001 2.71660000e-001 2.71660000e-001 8.88710022e-002
      5.98759986e-002 8.85239989e-002 5.07929996e-002 7.18749985e-002
      9.18089971e-002 1.37500003e-001 1.79700002e-001 2.71660000e-001
      2.71660000e-001 1.43020004e-001 8.65809992e-002 6.00310005e-002
      8.18729997e-002 8.72249976e-002 2.71660000e-001 2.71660000e-001
      2.71660000e-001 1.71939999e-001 5.98610006e-002 4.17920016e-002
      5.19349985e-002 4.38460016e+000 2.60089993e-001 8.97180021e-001
      1.80000007e-001 7.00690001e-002 3.37370001e-002 8.65050009e-004
      1.81660000e-002 0. 0. 3.46020004e-003 5.27679995e-002
      1.29759997e-001 1.98960006e-002 2.94119995e-002 3.63320000e-002
      8.04499984e-002 6.92040008e-003 4.93079983e-002 4.68860000e-001
      2.34229993e-002 7.78270001e-003 9.72840004e-004 9.87800024e-003 0.
      7.48340026e-005 8.23170005e-004 1.97560005e-002 3.19540016e-002
      1.18239997e-002 1.10750003e-002 2.18509994e-002 2.97839995e-002
      5.31319994e-003 6.09150007e-002 7.64469981e-001 7.67220035e-002
      2.23549996e-002 3.03849997e-003 3.06020007e-002 4.34079993e-004
      4.34079993e-004 2.06189998e-003 8.69230032e-002 4.68799993e-002
      1.80140007e-002 1.18290000e-002 2.82150004e-002 1.93160009e-002
      9.00710002e-003 2.35489998e-002 6.20630026e-001 6.33680001e-002
      1.57280006e-002 9.39069968e-003 2.68740002e-002 1.83229998e-003
      6.87130028e-004 5.42070018e-003 5.15340008e-002 9.50519964e-002
      9.54349991e-003 1.13000004e-002 1.43529996e-002 3.34400013e-002
      1.11469999e-002 3.41270007e-002 6.16240025e-001 5.70559978e-001
      2.79920012e-001 7.86349997e-002 4.12530005e-002 2.19390001e-002
      7.69879995e-003</_>
    <_>
      1.59219995e-001 9.96800005e-001 9.90180016e-001 9.79680002e-001
      9.65600014e-001 9.48599994e-001 9.29520011e-001 9.08599973e-001
      8.86680007e-001 8.64009976e-001 8.41539979e-001 8.19469988e-001
      7.98340023e-001 7.78339982e-001 7.60230005e-001 7.44000018e-001
      7.30149984e-001 7.19309986e-001 7.11390018e-001 7.06789970e-001
      7.05410004e-001 1.91909999e-001 1.02949999e-001 6.69760033e-002
      1.01240002e-001 2.25319996e-001 2.47229993e-001 2.47229993e-001
      2.47229993e-001 2.13890001e-001 8.34050030e-002 6.53339997e-002
      6.21410012e-002 1.65619999e-001 2.47229993e-001 2.47229993e-001
      2.42310002e-001 1.78169996e-001 8.05910006e-002 5.05769998e-002
      1.89789999e-002 1.07159996e-002 2.65009999e-002 7.86409974e-002
      1.40450001e-001 2.47229993e-001 2.47229993e-001 9.16590020e-002
      3.54189985e-002 1.36000002e-002 1.78490002e-002 4.94330004e-002
      2.29389995e-001 2.47229993e-001 2.47229993e-001 2.23000005e-001
      6.83230013e-002 2.33330011e+000 1.68029994e-001 8.93379986e-001 0.
      0. 0. 0. 0. 0. 0. 0. 0. 0. 0. 0. 0. 0. 0. 0. 0. 1.11709997e-001
      2.88290009e-002 4.95499978e-003 1.62160005e-002 1.80179998e-003
      1.80179998e-003 5.85589977e-003 9.18919966e-002 2.02250004e-001
      1.39640002e-002 1.80179998e-002 4.00899984e-002 3.87389995e-002
      1.17119998e-002 6.53150007e-002 3.46850008e-001 8.19670036e-002
      2.73219999e-002 2.52210000e-003 5.80069982e-002 4.20339988e-004
      4.20339988e-004 2.52210000e-003 1.74020007e-001 1.65619999e-001
      1.76550001e-002 2.26990003e-002 3.11060008e-002 4.20340002e-002
      3.78310005e-003 2.52209995e-002 3.44680011e-001 1.22359999e-001
      2.76420005e-002 1.62600004e-003 3.94309983e-002 8.13009974e-004
      1.21949997e-003 2.43899995e-003 1.18699998e-001 1.41059995e-001
      1.01629999e-002 1.50410002e-002 3.65849994e-002 3.13009992e-002
      4.87810001e-003 2.92680003e-002 4.17479992e-001 4.18460011e-001
      3.91689986e-001 1.02679998e-001 5.26550002e-002 2.83749998e-002
      6.14299998e-003</_>
    <_>
      7.98460022e-002 9.98780012e-001 9.96140003e-001 9.92150009e-001
      9.86790001e-001 9.80210006e-001 9.73179996e-001 9.65610027e-001
      9.57710028e-001 9.49819982e-001 9.42290008e-001 9.35150027e-001
      9.28520024e-001 9.22640026e-001 9.17680025e-001 9.13600028e-001
      9.10229981e-001 9.07720029e-001 9.06130016e-001 9.05070007e-001
      9.04659986e-001 3.49330008e-002 6.89710006e-002 2.56839991e-001
      2.79709995e-001 2.79709995e-001 1.81730002e-001 9.22000036e-002
      8.86640027e-002 4.46050018e-002 2.46200003e-002 3.69829983e-002
      2.79709995e-001 2.79709995e-001 2.17969999e-001 3.11019998e-002
      1.33710001e-002 1.70740001e-002 2.04690006e-002 3.69380005e-002
      8.27390030e-002 2.32869998e-001 2.58760005e-001 2.79709995e-001
      2.79709995e-001 1.54339999e-001 1.08120002e-001 3.90579998e-002
      4.08810005e-002 7.25120008e-002 2.79709995e-001 2.79709995e-001
      1.18699998e-001 6.26439974e-002 4.67119999e-002 4.48530018e-002
      3.24099995e-002 5.77780008e+000 2.11620003e-001 8.88890028e-001
      2.05100012e+000 5.04529998e-002 7.93650001e-003 2.26760004e-003
      2.04080008e-002 0. 0. 2.26760004e-003 7.14289993e-002
      1.61559999e-001 7.36959977e-003 2.43759993e-002 3.00450008e-002
      8.84350017e-002 1.19049996e-002 5.55559993e-002 4.65990007e-001
      4.73270006e-002 5.78820007e-003 2.38339999e-003 1.42999999e-002 0.
      0. 1.02139998e-003 3.71129997e-002 4.08580005e-002 1.05550000e-002
      2.21309997e-002 3.60909998e-002 4.32410017e-002 7.15020020e-003
      6.60540015e-002 6.65979981e-001 2.10299999e-001 6.67229965e-002
      3.37840011e-003 9.03720036e-002 8.44590017e-004 8.44590017e-004
      2.53379997e-003 1.29219994e-001 4.47629988e-002 2.02699993e-002
      1.68919992e-002 6.16549999e-002 2.28039995e-002 1.01349996e-002
      2.53379997e-002 2.93920010e-001 1.09229997e-001 5.35710016e-003
      2.67859991e-003 1.04170004e-002 8.92860000e-004 8.92860000e-004
      2.08329991e-003 6.69640005e-002 1.61909997e-001 1.04170004e-002
      1.19049996e-002 3.33329998e-002 2.79760007e-002 8.92859977e-003
      3.77979986e-002 5.09220004e-001 4.82080013e-001 2.98799992e-001
      1.36120006e-001 5.51440008e-002 2.45249998e-002 3.33769992e-003</_>
    <_>
      3.92160006e-002 9.96999979e-001 9.91930008e-001 9.83690023e-001
      9.73360002e-001 9.60479975e-001 9.46269989e-001 9.30499971e-001
      9.14179981e-001 8.97220016e-001 8.80349994e-001 8.63870025e-001
      8.47890019e-001 8.33199978e-001 8.19980025e-001 8.08939993e-001
      7.99260020e-001 7.92270005e-001 7.86379993e-001 7.83420026e-001
      7.82270014e-001 4.18940000e-002 8.16830024e-002 1.58089995e-001
      2.53329992e-001 2.83470005e-001 2.83470005e-001 1.23259999e-001
      3.52710001e-002 2.45379992e-002 3.67109999e-002 9.88290012e-002
      2.83470005e-001 2.83470005e-001 2.41109997e-001 6.80899993e-002
      1.76640004e-002 2.19589993e-002 2.58590002e-002 9.85310003e-002
      2.10800007e-001 2.83470005e-001 1.91589996e-001 2.29780003e-001
      1.54980004e-001 1.15900002e-001 8.42159986e-002 7.05230013e-002
      4.66170013e-002 1.82040006e-001 2.83470005e-001 2.83470005e-001
      1.07910000e-001 5.65680005e-002 2.23120004e-002 2.16559991e-002
      1.98979992e-002 2.81250000e+000 1.61170006e-001 8.91799986e-001 0.
      0. 0. 0. 0. 0. 0. 0. 0. 0. 0. 0. 0. 0. 0. 0. 0. 7.35130012e-002
      1.86490007e-002 5.40539972e-004 2.24319994e-002 5.40539972e-004 0.
      8.10810016e-004 3.94590013e-002 6.86490014e-002 2.02699993e-002
      1.51350005e-002 3.45950015e-002 3.67569998e-002 6.21620007e-003
      6.54049963e-002 5.97029984e-001 2.57499993e-001 1.02289997e-001
      1.76370004e-003 7.40740001e-002 0. 0. 0. 9.52380002e-002
      8.28920007e-002 2.82189995e-002 4.23280001e-002 5.11460006e-002
      7.05470005e-003 5.29100001e-003 7.05470005e-003 2.45150000e-001
      1.00649998e-001 8.49669985e-003 3.26799997e-003 2.09149998e-002
      9.80390003e-004 0. 3.92160006e-003 1.44439995e-001 2.51630008e-001
      1.40519999e-002 1.27450004e-002 3.30069996e-002 3.69280018e-002
      1.07840002e-002 2.90849991e-002 3.29089999e-001 4.57899988e-001
      3.86090010e-001 8.89149979e-002 3.72640006e-002 2.52359994e-002
      4.59909998e-003</_>
    <_>
      1.41039997e-001 9.98600006e-001 9.94859993e-001 9.89000022e-001
      9.81360018e-001 9.72230017e-001 9.62090015e-001 9.51380014e-001
      9.40370023e-001 9.29419994e-001 9.18709993e-001 9.08479989e-001
      8.98909986e-001 8.90129983e-001 8.82210016e-001 8.75289977e-001
      8.69419992e-001 8.64719987e-001 8.61289978e-001 8.59179974e-001
      8.58479977e-001 1.07859999e-001 9.07410011e-002 1.63640007e-001
      1.32550001e-001 1.17069997e-001 1.82990000e-001 1.59150004e-001
      1.04510002e-001 1.59889996e-001 1.83540002e-001 1.60239995e-001
      2.33019993e-001 2.35630006e-001 1.95339993e-001 1.31099999e-001
      1.54139996e-001 1.87329993e-001 2.20080003e-001 1.47210002e-001
      7.92860016e-002 1.41700000e-001 1.21069998e-001 9.88719985e-002
      1.88069999e-001 1.86130002e-001 1.19700000e-001 1.72150001e-001
      1.77019998e-001 1.50900006e-001 2.35630006e-001 2.35630006e-001
      1.98589996e-001 1.53760001e-001 1.43979996e-001 1.48819998e-001
      1.87209994e-001 2.59999990e+000 2.86330014e-001 8.09360027e-001
      3.86680007e-001 1.60280004e-001 5.27779981e-002 7.49999983e-003
      7.69440010e-002 1.66670000e-003 8.33329977e-004 3.33329989e-003
      7.02779964e-002 7.58330002e-002 2.38889996e-002 1.13890003e-002
      4.19440009e-002 5.52779995e-002 1.33330002e-002 7.33330026e-002
      3.31389993e-001 2.72259992e-002 1.02049997e-002 1.15599995e-003
      1.46300001e-002 3.18900013e-004 1.59450006e-004 1.15599995e-003
      4.30920012e-002 5.31780012e-002 2.35990006e-002 8.69010016e-003
      3.10529992e-002 5.27790003e-002 8.33129976e-003 8.61430019e-002
      6.38400018e-001 8.97049978e-002 4.00130004e-002 7.15680001e-003
      7.52279982e-002 6.50619972e-004 6.50619972e-004 3.09040002e-003
      9.27949995e-002 5.06669991e-002 2.15520002e-002 6.91280002e-003
      3.40760015e-002 3.54579985e-002 1.14669995e-002 5.13990000e-002
      4.79200006e-001 4.77650017e-002 1.18140001e-002 3.44830006e-003
      2.26050001e-002 4.46999999e-004 8.30140023e-004 2.17109988e-003
      4.83390018e-002 5.56190014e-002 1.21970000e-002 6.06640009e-003
      2.20309999e-002 1.47510003e-002 7.47130020e-003 1.94760002e-002
      7.24919975e-001 4.71269995e-001 2.94990003e-001 1.16120003e-001
      6.33039996e-002 4.28260006e-002 1.14930002e-002</_>
    <_>
      2.00440004e-001 9.96609986e-001 9.90369976e-001 9.80639994e-001
      9.68649983e-001 9.53859985e-001 9.36999977e-001 9.18540001e-001
      8.98389995e-001 8.77629995e-001 8.56280029e-001 8.35619986e-001
      8.15310001e-001 7.96169996e-001 7.78509974e-001 7.63050020e-001
      7.50000000e-001 7.39340007e-001 7.31719971e-001 7.27209985e-001
      7.25600004e-001 1.60559997e-001 2.28900000e-001 2.38609999e-001
      2.38609999e-001 1.98029995e-001 1.05339997e-001 1.09449998e-001
      1.71709999e-001 1.54780000e-001 1.05269998e-001 1.24470003e-001
      2.38609999e-001 2.38609999e-001 1.99709997e-001 1.03610002e-001
      6.61600009e-002 7.69559965e-002 9.07500014e-002 1.15240000e-001
      2.27530003e-001 2.38609999e-001 2.38609999e-001 1.86560005e-001
      1.38400003e-001 1.58859998e-001 1.73260003e-001 1.68950006e-001
      3.67669985e-002 1.25860006e-001 2.38609999e-001 2.38609999e-001
      1.61249995e-001 5.89470007e-002 2.69140005e-002 3.62930000e-002
      3.15160006e-002 2.09089994e+000 1.45459995e-001 8.91300023e-001 0.
      0. 0. 0. 0. 0. 0. 0. 0. 0. 0. 0. 0. 0. 0. 0. 0. 1.30679995e-001
      5.68180019e-003 1.13640004e-003 4.54550004e-003 0. 0. 0.
      5.56819998e-002 3.09089988e-001 1.93179995e-002 2.27269996e-002
      5.56819998e-002 3.75000015e-002 1.13640004e-003 1.70460008e-002
      3.39769989e-001 1.77880004e-001 8.84620026e-002 3.84619995e-003
      5.86539991e-002 0. 0. 0. 6.05770014e-002 1.16350003e-001
      1.53850000e-002 2.11539995e-002 5.86539991e-002 3.94230001e-002
      1.05769997e-002 3.55769992e-002 3.13459992e-001 1.52199998e-001
      4.78050001e-002 0. 2.73170006e-002 0. 9.75609990e-004
      9.75609990e-004 8.39020014e-002 2.02930003e-001 1.95119996e-002
      3.31710018e-002 4.19510007e-002 4.87800017e-002 5.85369999e-003
      2.43900008e-002 3.10240000e-001 4.53709990e-001 3.69670004e-001
      1.20810002e-001 4.76030000e-002 8.20749998e-003 0.</_>
    <_>
      7.52260014e-002 9.97489989e-001 9.94140029e-001 9.89780009e-001
      9.83770013e-001 9.77020025e-001 9.68980014e-001 9.59379971e-001
      9.49240029e-001 9.39740002e-001 9.29830015e-001 9.20340002e-001
      9.12029982e-001 9.03599977e-001 8.95950019e-001 8.89900029e-001
      8.84790003e-001 8.80270004e-001 8.77610028e-001 8.75999987e-001
      8.74589980e-001 6.16240017e-002 8.61599967e-002 1.12570003e-001
      1.77169994e-001 2.75680006e-001 2.75680006e-001 2.75680006e-001
      9.24339965e-002 4.30970006e-002 7.25120008e-002 1.67970002e-001
      2.75680006e-001 2.75680006e-001 2.75680006e-001 1.65800005e-001
      1.34639993e-001 3.72200012e-002 2.71150004e-002 3.96189988e-002
      3.79819982e-002 6.20150007e-002 8.91780034e-002 2.04150006e-001
      2.75680006e-001 2.33600006e-001 6.44130036e-002 2.54590008e-002
      5.73260002e-002 7.60539994e-002 2.24680007e-001 2.75680006e-001
      1.81150004e-001 1.45730004e-001 1.01829998e-001 4.37549986e-002
      2.45229993e-002 2.55559993e+000 1.77420005e-001 8.42469990e-001 0.
      0. 0. 0. 0. 0. 0. 0. 0. 0. 0. 0. 0. 0. 0. 0. 0. 8.77190009e-002
      7.01749977e-003 1.75439997e-003 3.50879994e-003 0. 0.
      3.50879994e-003 4.38599996e-002 2.31580004e-001 3.50879994e-003
      4.03509997e-002 4.38599996e-002 2.80699991e-002 5.26320003e-003
      1.75439995e-002 4.82459992e-001 2.90439993e-001 8.08819979e-002 0.
      4.41179983e-002 3.67649994e-003 0. 0. 1.80150002e-001
      3.30879986e-002 1.47059998e-002 2.94119995e-002 9.19120014e-002
      3.67649994e-003 3.67649994e-003 3.67649994e-003 2.20589995e-001
      1.08700000e-001 8.69559962e-003 0. 1.44929998e-002 2.89859995e-003
      0. 1.44929998e-003 6.95649981e-002 1.59419999e-001 2.89859995e-003
      3.76809984e-002 3.91299985e-002 2.02900004e-002 5.79709979e-003
      1.88410003e-002 5.10150015e-001 3.46280009e-001 4.11540002e-001
      1.46709993e-001 6.04100004e-002 2.80479994e-002 7.01190019e-003</_>
    <_>
      2.93760002e-002 9.87800002e-001 9.77500021e-001 9.62390006e-001
      9.48019981e-001 9.31039989e-001 9.15449977e-001 9.03339982e-001
      8.90659988e-001 8.80970001e-001 8.68110001e-001 8.57020020e-001
      8.45439970e-001 8.37350011e-001 8.29980016e-001 8.23289990e-001
      8.22420001e-001 8.19389999e-001 8.20550025e-001 8.19729984e-001
      8.23350012e-001 1.12429999e-001 1.08589999e-001 6.70109987e-002
      5.80429994e-002 2.62309998e-001 2.62309998e-001 1.31190002e-001
      1.44439995e-001 1.61919996e-001 2.62309998e-001 2.62309998e-001
      2.37499997e-001 2.56969988e-001 2.62309998e-001 2.27970004e-001
      2.02859998e-001 2.62309998e-001 2.62309998e-001 2.70639993e-002
      3.95190008e-002 6.94729984e-002 8.92079994e-002 2.62309998e-001
      1.82510003e-001 5.16729988e-002 3.49749997e-002 3.03119998e-002
      5.50489984e-002 7.19750002e-002 1.15120001e-001 1.00400001e-001
      1.76970005e-001 8.71570036e-002 6.74749985e-002 5.63639998e-002
      5.82519993e-002 2.87500000e+000 2.13589996e-001 8.86960030e-001 0.
      0. 0. 0. 0. 0. 0. 0. 0. 0. 0. 0. 0. 0. 0. 0. 0. 1.89820006e-001
      1.38889998e-002 2.31479993e-003 1.85189992e-002 2.31479993e-003
      4.62959986e-003 4.62959986e-003 1.08800001e-001 1.82870001e-001
      6.94439979e-003 3.24070007e-002 6.94440007e-002 2.08330005e-002
      9.25930031e-003 3.00929993e-002 3.03240001e-001 1.29629999e-001
      5.55559993e-002 0. 1.20370001e-001 0. 0. 0. 8.33330005e-002
      5.55559993e-002 9.25930031e-003 1.01850003e-001 1.38889998e-001
      1.85189992e-002 9.25930031e-003 2.77779996e-002 2.50000000e-001
      1.42309994e-001 1.92309998e-003 5.76920016e-003 5.76920016e-003
      1.92309998e-003 0. 1.92309998e-003 1.07689999e-001 2.73079991e-001
      1.73080005e-002 5.76919988e-002 5.19229993e-002 4.61539999e-002
      1.92310009e-002 1.53850000e-002 2.51920015e-001 4.30530012e-001
      1.95069999e-001 1.80700004e-001 1.43050000e-001 4.44899984e-002
      6.16020011e-003</_>
    <_>
      1.85709998e-001 9.98179972e-001 9.93730009e-001 9.86720026e-001
      9.77680027e-001 9.66949999e-001 9.54670012e-001 9.40980017e-001
      9.26029980e-001 9.10480022e-001 8.94450009e-001 8.78709972e-001
      8.63499999e-001 8.49189997e-001 8.35810006e-001 8.24000001e-001
      8.13759983e-001 8.05580020e-001 7.99790025e-001 7.96159983e-001
      7.95069993e-001 3.58720012e-002 7.38940015e-002 1.28879994e-001
      2.31700003e-001 2.31700003e-001 2.31700003e-001 2.26260006e-001
      1.42330006e-001 6.62370026e-002 7.90740028e-002 1.38119996e-001
      1.65950000e-001 2.28000000e-001 2.05219999e-001 1.37950003e-001
      1.30119994e-001 1.14490002e-001 9.43349972e-002 9.46620032e-002
      1.33579999e-001 1.98670000e-001 2.31700003e-001 2.31700003e-001
      2.08149999e-001 1.99200004e-001 2.05430001e-001 1.18079998e-001
      1.36040002e-001 1.73270002e-001 2.31700003e-001 2.31700003e-001
      1.82109997e-001 7.96839967e-002 5.01639992e-002 9.16379988e-002
      1.15670003e-001 2.14289999e+000 2.14289993e-001 8.27030003e-001
      5.27960002e-001 2.35540003e-001 5.57850003e-002 8.26449972e-003
      3.92559990e-002 0. 0. 0. 5.37189990e-002 1.75620005e-001
      3.09919994e-002 4.33880016e-002 4.95870002e-002 5.16530015e-002
      1.65289994e-002 3.92559990e-002 2.00409994e-001 8.44580010e-002
      1.49929998e-002 1.49920001e-003 1.09949997e-002 9.99500044e-004
      4.99750022e-004 5.49730007e-003 4.44779992e-002 1.16439998e-001
      1.89909991e-002 2.74860002e-002 4.04799990e-002 4.14789990e-002
      1.44929998e-002 7.29639977e-002 5.04249990e-001 1.70650005e-001
      4.59770001e-002 6.18920010e-003 4.68610004e-002 1.76829996e-003 0.
      3.53670004e-003 1.18479997e-001 1.17600001e-001 1.76839996e-002
      3.00619993e-002 3.80190015e-002 3.53670008e-002 1.59150008e-002
      4.15560007e-002 3.10339987e-001 1.20540000e-001 3.39560001e-003 0.
      5.94229996e-003 0. 8.48900003e-004 8.48900003e-004 6.62140027e-002
      2.63159990e-001 2.37690005e-002 2.88619995e-002 3.56540009e-002
      2.03729998e-002 1.18850004e-002 2.71649994e-002 3.91339988e-001
      3.73679996e-001 2.40820006e-001 2.40510002e-001 9.80089977e-002
      3.60919982e-002 1.08899996e-002</_>
    <_>
      1.83369994e-001 9.98290002e-001 9.94040012e-001 9.87550020e-001
      9.79160011e-001 9.68810022e-001 9.56770003e-001 9.43499982e-001
      9.29329991e-001 9.14659977e-001 8.99730027e-001 8.84930015e-001
      8.70480001e-001 8.56959999e-001 8.44479978e-001 8.33310008e-001
      8.23520005e-001 8.15620005e-001 8.09970021e-001 8.06670010e-001
      8.05620015e-001 1.30700007e-001 1.11769997e-001 2.27259994e-001
      2.27259994e-001 2.27259994e-001 2.27259994e-001 1.93480000e-001
      1.85990006e-001 2.01350003e-001 9.69809964e-002 1.06590003e-001
      2.25319996e-001 2.08880007e-001 1.58429995e-001 1.28199995e-001
      1.04000002e-001 7.48459995e-002 8.12759995e-002 1.28900006e-001
      1.37689993e-001 2.27259994e-001 2.26689994e-001 2.27259994e-001
      1.81160003e-001 1.46310002e-001 1.74500003e-001 2.27259994e-001
      9.88319963e-002 1.17519997e-001 2.27259994e-001 1.64189994e-001
      1.25510007e-001 6.93430007e-002 5.64609990e-002 7.24629983e-002
      1.07380003e-001 2.70000005e+000 2.31879994e-001 8.83870006e-001 0.
      0. 0. 0. 0. 0. 0. 0. 0. 0. 0. 0. 0. 0. 0. 0. 0. 5.49019985e-002
      1.96080003e-002 4.70589986e-003 2.74509992e-002 0. 0.
      7.84309988e-004 2.74509992e-002 7.92160034e-002 2.98040006e-002
      3.29409987e-002 5.09800017e-002 3.92160006e-002 1.09799998e-002
      5.96080013e-002 5.62349975e-001 1.72529995e-001 6.48349971e-002
      3.29670007e-003 5.71429990e-002 0. 3.29670007e-003 3.29670007e-003
      1.02200001e-001 9.23079997e-002 2.19780002e-002 3.51650007e-002
      4.50549982e-002 2.85710003e-002 1.53850000e-002 4.06589992e-002
      3.14289987e-001 1.26190007e-001 8.53889994e-003 9.48769972e-004
      4.74380003e-003 0. 0. 9.48769972e-004 6.26190007e-002
      2.57120013e-001 3.03600002e-002 3.32069993e-002 4.17460017e-002
      4.26950008e-002 6.64140005e-003 2.08730008e-002 3.63380015e-001
      4.33899999e-001 2.71189988e-001 2.15820000e-001 4.97170016e-002
      2.29749996e-002 6.40300009e-003</_>
    <_>
      1.61980003e-001 9.98090029e-001 9.92940009e-001 9.85310018e-001
      9.75880027e-001 9.65170026e-001 9.53419983e-001 9.40850019e-001
      9.27500010e-001 9.13320005e-001 8.98590028e-001 8.83780003e-001
      8.69329989e-001 8.55679989e-001 8.42949986e-001 8.31309974e-001
      8.20990026e-001 8.12269986e-001 8.05540025e-001 8.01169991e-001
      7.99619973e-001 1.55880004e-001 1.06069997e-001 4.25000004e-002
      1.09959997e-001 2.36829996e-001 1.28179997e-001 1.37199998e-001
      1.16049998e-001 1.67080000e-001 8.41839984e-002 9.27549973e-002
      1.85090005e-001 2.36829996e-001 2.36829996e-001 9.84240025e-002
      7.26279989e-002 4.58079986e-002 1.02329999e-001 2.36829996e-001
      2.08320007e-001 1.02779999e-001 1.63000003e-001 1.87729999e-001
      1.25489995e-001 2.20880002e-001 2.02160001e-001 2.36829996e-001
      9.78650004e-002 1.24880001e-001 1.95480004e-001 2.36829996e-001
      2.36829996e-001 1.84770003e-001 1.87000006e-001 1.43350005e-001
      1.64989993e-001 2.50000000e+000 2.28809997e-001 8.54550004e-001
      1.42600000e+000 1.01850003e-001 3.63509990e-002 7.54459994e-003
      7.30450004e-002 1.37169997e-003 0. 4.80110012e-003 1.20370001e-001
      7.95610026e-002 1.54320002e-002 2.05760002e-002 3.46370004e-002
      4.76679988e-002 1.09740002e-002 3.29219997e-002 4.12889987e-001
      4.47590016e-002 7.65309995e-003 1.39150000e-003 1.57699995e-002
      6.95729977e-004 0. 1.15959998e-003 7.58349970e-002 1.19439997e-001
      8.11689999e-003 1.80890001e-002 2.75970008e-002 1.13640003e-001
      7.88499974e-003 9.39240009e-002 4.64060009e-001 1.15750000e-001
      4.09259982e-002 7.02770008e-003 6.98639974e-002 1.24020001e-003 0.
      2.89379992e-003 1.14919998e-001 8.06119964e-002 1.52960001e-002
      2.23229993e-002 3.47249992e-002 2.89379992e-002 1.07479999e-002
      2.64570005e-002 4.28270012e-001 9.46649984e-002 1.26870004e-002
      2.27720011e-003 1.85429994e-002 9.75930016e-004 6.50619972e-004
      1.62660005e-003 4.42419983e-002 6.57119974e-002 1.26870004e-002
      1.95189994e-002 3.15550007e-002 2.50489991e-002 8.45799968e-003
      3.51330005e-002 6.26230001e-001 3.29609990e-001 3.32239985e-001
      1.79670006e-001 9.13119987e-002 5.73160015e-002 9.85379983e-003</_>
    <_>
      1.80999994e-001 9.97139990e-001 9.91569996e-001 9.81700003e-001
      9.68490005e-001 9.52570021e-001 9.33300018e-001 9.12329972e-001
      8.89299989e-001 8.65369976e-001 8.40879977e-001 8.16320002e-001
      7.92249978e-001 7.69259989e-001 7.48310030e-001 7.29110003e-001
      7.13379979e-001 7.00370014e-001 6.90680027e-001 6.85310006e-001
      6.82659984e-001 5.28119989e-002 3.61960009e-002 7.89119974e-002
      1.48580000e-001 2.22000003e-001 2.22000003e-001 8.53919983e-002
      9.30380002e-002 8.95129964e-002 7.95150027e-002 4.49919999e-002
      6.39910027e-002 9.05840024e-002 1.52490005e-001 1.13810003e-001
      8.74089971e-002 1.26690000e-001 1.18989997e-001 2.04720005e-001
      1.11249998e-001 1.79360002e-001 2.22000003e-001 2.22000003e-001
      2.22000003e-001 2.22000003e-001 2.04860002e-001 2.22000003e-001
      2.22000003e-001 1.77379996e-001 2.22000003e-001 2.01849997e-001
      2.22000003e-001 1.98730007e-001 1.52270004e-001 2.03130007e-001
      2.22000003e-001 2.09089994e+000 1.94690004e-001 8.88890028e-001 0.
      0. 0. 0. 0. 0. 0. 0. 0. 0. 0. 0. 0. 0. 0. 0. 0. 6.87830001e-002
      8.81830044e-003 0. 2.11640000e-002 0. 0. 0. 3.52730006e-002
      1.86949998e-001 1.94000006e-002 4.23280001e-002 5.29100001e-002
      6.87830001e-002 1.05820000e-002 5.82010001e-002 4.26809996e-001
      1.35780007e-001 4.52589989e-002 0. 2.80169994e-002 0. 0. 0.
      9.91379991e-002 1.76719993e-001 6.46550022e-003 4.74140011e-002
      5.17240018e-002 5.81899993e-002 0. 2.80169994e-002 3.23280007e-001
      1.14660002e-001 1.87970009e-002 0. 2.25559995e-002 0. 0. 0.
      1.12779997e-001 1.71049997e-001 1.50380004e-002 2.63160001e-002
      6.95490018e-002 9.39850044e-003 5.63909998e-003 2.06770003e-002
      4.13529992e-001 7.35840023e-001 2.12599993e-001 2.60979999e-002
      1.08209997e-002 1.14580002e-002 3.18269990e-003</_>
    <_>
      1.65000007e-001 9.98560011e-001 9.95019972e-001 9.89480019e-001
      9.82089996e-001 9.73129988e-001 9.62960005e-001 9.52030003e-001
      9.40289974e-001 9.28179979e-001 9.16050017e-001 9.04200017e-001
      8.92870009e-001 8.82449985e-001 8.73099983e-001 8.65029991e-001
      8.58319998e-001 8.53079975e-001 8.49309981e-001 8.46970022e-001
      8.46279979e-001 2.33419999e-001 1.78360000e-001 9.19319987e-002
      1.10179998e-001 1.55200005e-001 1.20920002e-001 5.94139993e-002
      7.28269964e-002 1.97819993e-001 2.33419999e-001 2.33419999e-001
      2.27599993e-001 2.19840005e-001 1.29629999e-001 6.69739991e-002
      4.56960015e-002 6.13440014e-002 2.32380003e-001 2.33419999e-001
      2.33419999e-001 2.33419999e-001 1.70780003e-001 1.11879997e-001
      9.48150009e-002 8.52549970e-002 1.11759998e-001 1.59170002e-001
      2.33419999e-001 2.26129994e-001 2.33419999e-001 2.33419999e-001
      1.10090002e-001 4.06449996e-002 4.19740006e-002 6.57079965e-002
      1.42179996e-001 2.28570008e+000 2.93229997e-001 8.85909975e-001
      2.15630007e+000 9.12699997e-002 4.42180000e-002 7.36959977e-003
      4.93200012e-002 0. 1.13380002e-003 1.13380002e-003 7.36960024e-002
      7.99319968e-002 1.75739992e-002 2.66440008e-002 3.79819982e-002
      2.49429997e-002 1.07709998e-002 5.27210012e-002 4.81299996e-001
      4.84689996e-002 1.27550000e-002 3.82649992e-003 1.40310004e-002 0.
      0. 0. 3.38010006e-002 6.50509968e-002 1.27550000e-002
      2.67859995e-002 4.33669984e-002 4.46429998e-002 8.29080027e-003
      7.84439966e-002 6.07789993e-001 1.10780001e-001 6.86269999e-002
      1.07840002e-002 6.76470026e-002 0. 1.96080003e-003 1.96080003e-003
      7.84310028e-002 6.76470026e-002 1.56859998e-002 3.62749994e-002
      4.21570018e-002 2.94119995e-002 1.17650004e-002 6.86269999e-002
      3.88240010e-001 1.26790002e-001 1.99360009e-002 4.78470000e-003
      2.47210003e-002 0. 0. 2.39229994e-003 8.93139988e-002
      1.77029997e-001 2.55180001e-002 2.79110000e-002 3.90749983e-002
      5.66189997e-002 9.56939999e-003 3.58849987e-002 3.60450000e-001
      7.37600029e-001 2.17160001e-001 2.80809999e-002 1.15440004e-002
      4.99220006e-003 6.24020002e-004</_>
    <_>
      1.90410003e-001 9.98179972e-001 9.93789971e-001 9.86999989e-001
      9.78060007e-001 9.67190027e-001 9.54460025e-001 9.40249979e-001
      9.25059974e-001 9.09150004e-001 8.92799973e-001 8.76349986e-001
      8.60549986e-001 8.45780015e-001 8.32310021e-001 8.20370018e-001
      8.10079992e-001 8.01720023e-001 7.95580029e-001 7.91840017e-001
      7.90570021e-001 5.22040017e-002 1.59380004e-001 2.23309994e-001
      2.23309994e-001 2.23309994e-001 2.23309994e-001 1.36769995e-001
      1.49880007e-001 1.00620002e-001 8.11119974e-002 1.55630007e-001
      2.23309994e-001 2.13660002e-001 2.16289997e-001 9.90929976e-002
      9.36880037e-002 7.18870014e-002 6.10820018e-002 1.31650001e-001
      1.38449997e-001 2.23309994e-001 2.17529997e-001 2.23309994e-001
      2.23309994e-001 2.16600001e-001 2.23309994e-001 1.60600007e-001
      1.06349997e-001 1.10809997e-001 1.91520005e-001 1.60970002e-001
      1.89860001e-001 1.15139998e-001 1.01620004e-001 9.07789990e-002
      9.07289982e-002 2.77780008e+000 2.13740006e-001 8.84350002e-001 0.
      0. 0. 0. 0. 0. 0. 0. 0. 0. 0. 0. 0. 0. 0. 0. 0. 7.95449987e-002
      1.60990003e-002 1.89389999e-003 1.98860001e-002 9.46970016e-004 0.
      5.68180019e-003 2.74620000e-002 7.48109967e-002 1.42050004e-002
      2.55679991e-002 6.15530014e-002 3.78790013e-002 9.46970005e-003
      6.06059991e-002 5.64390004e-001 1.88130006e-001 3.91409993e-002
      7.57580018e-003 5.30299991e-002 3.78790009e-003 3.78790009e-003
      6.31309999e-003 9.97480005e-002 1.14900000e-001 1.51519999e-002
      3.53539996e-002 4.54550013e-002 1.89389996e-002 1.38889998e-002
      2.65149996e-002 3.28280002e-001 1.27480000e-001 1.88090000e-002
      3.13479989e-003 1.25390003e-002 0. 0. 5.22470009e-003
      8.77740011e-002 2.73770005e-001 2.82129999e-002 3.44830006e-002
      4.07520011e-002 3.65730003e-002 1.14940004e-002 3.97070013e-002
      2.80039996e-001 4.01320010e-001 2.41540000e-001 2.45660007e-001
      7.22540021e-002 3.30310017e-002 6.19320013e-003</_>
    <_>
      1.82740003e-001 9.98520017e-001 9.94750023e-001 9.88820016e-001
      9.80880022e-001 9.71210003e-001 9.59990025e-001 9.47589993e-001
      9.34199989e-001 9.20270026e-001 9.06050026e-001 8.91900003e-001
      8.78229976e-001 8.65400016e-001 8.53529990e-001 8.42989981e-001
      8.34280014e-001 8.27430010e-001 8.22470009e-001 8.19469988e-001
      8.18470001e-001 6.47630021e-002 4.81740013e-002 6.92989975e-002
      1.27120003e-001 2.30169997e-001 2.31539994e-001 1.51710004e-001
      1.00830004e-001 5.30049987e-002 1.09789997e-001 1.03100002e-001
      1.58260003e-001 2.31539994e-001 2.31539994e-001 1.36710003e-001
      1.48780003e-001 1.92259997e-001 1.26650006e-001 1.19790003e-001
      1.30710006e-001 2.27449998e-001 1.41910002e-001 2.30540007e-001
      2.31539994e-001 2.18779996e-001 1.51910007e-001 8.85469988e-002
      1.72570005e-001 1.79110005e-001 2.31539994e-001 2.31539994e-001
      1.93599999e-001 1.17930003e-001 1.32280007e-001 1.73209995e-001
      1.48379996e-001 2.17650008e+000 2.17140004e-001 8.61389995e-001
      1.31949997e+000 1.16779998e-001 7.31289983e-002 6.23580022e-003
      4.98870015e-002 1.13380002e-003 5.66889998e-004 4.53509996e-003
      1.03170000e-001 7.65310004e-002 1.98410004e-002 2.94790007e-002
      4.08160016e-002 2.55100001e-002 9.63720027e-003 2.72109993e-002
      4.15540010e-001 6.40819967e-002 4.16329987e-002 4.48979996e-003
      1.91840008e-002 8.16330023e-004 4.08160005e-004 2.44900002e-003
      4.77549993e-002 1.01230003e-001 1.75509993e-002 2.44900007e-002
      3.67349982e-002 4.32650000e-002 9.38779954e-003 8.04079995e-002
      5.06129980e-001 1.56020001e-001 6.08110018e-002 1.10569997e-002
      5.22110015e-002 1.84279995e-003 6.14250021e-004 4.29969979e-003
      1.32679999e-001 8.23099986e-002 1.78130008e-002 1.90420002e-002
      4.97540012e-002 2.88699996e-002 1.10569997e-002 2.76410002e-002
      3.43980014e-001 1.44889995e-001 1.42050004e-002 5.11359982e-003
      1.42050004e-002 1.13640004e-003 1.13640004e-003 2.27269996e-003
      8.06820020e-002 1.51140004e-001 1.30679999e-002 1.53409997e-002
      4.43180017e-002 1.64770000e-002 1.19319996e-002 1.93179995e-002
