<?xml version="1.0"?>
<opencv_storage>
<my_svm type_id="opencv-ml-svm">
  <svm_type>C_SVC</svm_type>
  <kernel><type>RBF</type>
    <gamma>5.0625000000000009e-01</gamma></kernel>
  <C>3.1250000000000000e+02</C>
  <term_criteria><epsilon>2.2204460492503131e-16</epsilon>
    <iterations>3000</iterations></term_criteria>
  <var_all>131</var_all>
  <var_count>131</var_count>
  <class_count>2</class_count>
  <class_labels type_id="opencv-matrix">
    <rows>1</rows>
    <cols>2</cols>
    <dt>i</dt>
    <data>
      -1 1</data></class_labels>
  <class_weights type_id="opencv-matrix">
    <rows>1</rows>
    <cols>2</cols>
    <dt>d</dt>
    <data>
      2.5776052847504616e+02 5.4739466868340969e+01</data></class_weights>
  <sv_total>212</sv_total>
  <support_vectors>
    <_>
      1.62885234e-01 9.98199046e-01 9.93287504e-01 9.85484898e-01
      9.75068450e-01 9.62446749e-01 9.47983384e-01 9.32140946e-01
      9.15204942e-01 8.97687674e-01 8.79908621e-01 8.62362564e-01
      8.45466256e-01 8.29491317e-01 8.14800322e-01 8.01656663e-01
      7.90425599e-01 7.81390309e-01 7.74747074e-01 7.70664155e-01
      7.69264221e-01 1.72934949e-01 1.50677040e-01 2.05506250e-01
      1.81557491e-01 2.22669825e-01 2.31849596e-01 1.29840255e-01
      1.10002175e-01 1.42183021e-01 1.54612422e-01 1.46504894e-01
      2.44944721e-01 2.44944721e-01 2.26172164e-01 1.86359406e-01
      1.35567173e-01 1.12784795e-01 1.28375351e-01 9.79254693e-02
      8.81660357e-02 1.51933864e-01 1.88571125e-01 2.22289115e-01
      2.27696344e-01 1.14661857e-01 6.98826462e-02 9.73342061e-02
      9.30901915e-02 1.73969701e-01 2.44944721e-01 2.44944721e-01
      1.72649220e-01 1.14417173e-01 8.14164802e-02 3.23002487e-02
      6.43500164e-02 4.50000000e+00 2.29729727e-01 8.94949496e-01
      2.23757505e-01 6.64819777e-02 4.43213060e-02 9.69528966e-03
      7.89474100e-02 1.38504151e-03 5.54016605e-03 4.15512454e-03
      8.72576982e-02 9.07203183e-02 3.39335017e-02 8.31024908e-03
      3.73961031e-02 4.08587046e-02 1.66204926e-02 4.84764278e-02
      4.25898701e-01 5.68787232e-02 2.46031266e-02 2.91005336e-03
      3.20987180e-02 3.52733681e-04 1.05820119e-03 1.14638463e-03
      2.93650199e-02 4.24163714e-02 2.29276456e-02 5.20281959e-03
      3.73016372e-02 2.38094777e-02 1.56084383e-02 5.35276905e-02
      6.50754213e-01 6.51901588e-02 5.69319017e-02 5.75575372e-03
      4.14163955e-02 5.38037857e-03 2.25225231e-03 2.00200221e-03
      5.94344027e-02 7.06956610e-02 2.80280132e-02 3.62862786e-03
      2.72772629e-02 2.07707603e-02 1.12612564e-02 3.25325169e-02
      5.67463815e-01 9.17828456e-02 3.69755551e-02 3.23426467e-03
      5.02624735e-02 1.04895106e-03 9.61538521e-04 3.05943959e-03
      7.16784969e-02 9.56288949e-02 2.44755056e-02 4.54545300e-03
      2.20279675e-02 4.09091823e-02 1.33741489e-02 6.05773181e-02
      4.79447156e-01 9.32198703e-01 6.50848225e-02 2.49473331e-03
      2.21754075e-04 0. 0.</_>
    <_>
      1.63218319e-01 9.98765349e-01 9.95339334e-01 9.89790320e-01
      9.82383549e-01 9.73357081e-01 9.63047624e-01 9.51779008e-01
      9.39863920e-01 9.27688479e-01 9.15505409e-01 9.03597593e-01
      8.92281532e-01 8.81750822e-01 8.72272074e-01 8.63923371e-01
      8.56912017e-01 8.51308763e-01 8.47227514e-01 8.44780922e-01
      8.43947172e-01 2.14634553e-01 2.34996662e-01 1.90101683e-01
      1.27081007e-01 1.64589614e-01 2.34996662e-01 2.34996662e-01
      2.34996662e-01 2.34996662e-01 8.69138762e-02 8.96174833e-02
      2.14682624e-01 2.34996662e-01 2.21252993e-01 1.71137452e-01
      1.71417058e-01 1.53399080e-01 1.63776517e-01 9.61890668e-02
      1.33034691e-01 1.49786949e-01 1.31277949e-01 1.80615470e-01
      2.11605683e-01 1.30277321e-01 6.42300099e-02 8.27517360e-02
      5.13010249e-02 7.37149641e-02 2.34996662e-01 2.34996662e-01
      1.40488595e-01 6.53184801e-02 4.67785448e-02 3.66736464e-02
      5.65486625e-02 2.12121201e+00 2.88194448e-01 8.91304374e-01
      5.42949796e-01 8.62602666e-02 3.82231399e-02 7.74793234e-03
      1.05371743e-01 5.16528904e-04 3.61570250e-03 3.09917354e-03
      1.32747754e-01 4.18388508e-02 1.44628119e-02 2.06611562e-03
      1.44628119e-02 1.60123985e-02 8.26446153e-03 2.73760203e-02
      4.97937173e-01 2.90772486e-02 2.58464785e-03 1.03385886e-03
      8.65856279e-03 1.68002094e-03 6.46161789e-04 2.58464715e-04
      1.09847421e-02 4.35514301e-02 2.00309958e-02 3.87697201e-03
      1.93848349e-02 2.95941774e-02 9.56318807e-03 4.79453877e-02
      7.71095872e-01 1.00637898e-01 8.46996158e-02 2.23132819e-02
      6.83059543e-02 0. 6.83060091e-04 1.59380690e-03 1.02231726e-01
      6.92167133e-02 2.29963399e-02 1.82149361e-03 2.20855959e-02
      1.75318755e-02 6.60291174e-03 2.25409679e-02 4.56744641e-01
      8.90059546e-02 2.19092406e-02 5.47731016e-03 3.89280692e-02
      3.12989112e-03 1.36932707e-03 5.28169191e-03 7.58997500e-02
      1.61189258e-01 2.34741904e-02 3.91236413e-03 1.38888806e-02
      7.37479851e-02 1.27151739e-02 6.02505095e-02 4.09825385e-01
      7.93377995e-01 1.59164369e-01 2.69609783e-02 1.25344899e-02
      6.77966094e-03 1.18249899e-03</_>
    <_>
      9.43430811e-02 9.98403132e-01 9.95185375e-01 9.90124643e-01
      9.83619392e-01 9.75807011e-01 9.66965854e-01 9.57506955e-01
      9.47672844e-01 9.37665284e-01 9.27582562e-01 9.17947710e-01
      9.08820033e-01 9.00387287e-01 8.92918169e-01 8.86729658e-01
      8.81572366e-01 8.77619445e-01 8.74804556e-01 8.73319209e-01
      8.72746885e-01 1.14171602e-01 1.22381605e-01 1.55932546e-01
      2.12966383e-01 2.68054515e-01 2.68054515e-01 1.39844775e-01
      8.54338631e-02 9.04770046e-02 1.01325199e-01 1.63405821e-01
      2.68054515e-01 2.68054515e-01 2.54544050e-01 1.25453740e-01
      6.01311140e-02 4.85403948e-02 6.95811138e-02 5.91423884e-02
      1.51992545e-01 2.48298705e-01 1.67824492e-01 2.66861349e-01
      2.48326063e-01 8.12618211e-02 4.70571481e-02 3.80814187e-02
      5.39328344e-02 1.86724454e-01 2.68054515e-01 2.68054515e-01
      6.42893985e-02 3.94851342e-02 2.91591696e-02 2.46597398e-02
      2.59664021e-02 4.83333349e+00 2.12686568e-01 8.89999986e-01 0. 0.
      0. 0. 0. 0. 0. 0. 0. 0. 0. 0. 0. 0. 0. 0. 0. 8.59878883e-02
      2.33100238e-03 5.18000510e-04 6.99300831e-03 0. 0. 2.59000255e-04
      1.42450063e-02 6.34551421e-02 1.01010082e-02 2.07200204e-03
      1.08780079e-02 2.66770404e-02 7.25200865e-03 4.29940894e-02
      7.26230025e-01 2.17188299e-01 9.29152742e-02 3.48432059e-03
      6.62021264e-02 5.80720080e-04 5.80720080e-04 1.16144016e-03
      1.38792023e-01 4.76190709e-02 2.90360115e-02 0. 2.61324085e-02
      1.39372777e-02 6.96864119e-03 1.80023201e-02 3.37398171e-01
      1.04545072e-01 3.03030363e-03 7.32323388e-03 1.08585879e-02
      2.77777831e-03 2.52525299e-03 1.26262638e-03 7.34848008e-02
      1.83586344e-01 1.01010120e-02 1.76767702e-03 5.55555662e-03
      2.47474462e-02 5.80808194e-03 2.65151169e-02 5.36105573e-01
      6.72024608e-01 2.75763780e-01 3.76196988e-02 1.25398999e-02
      1.93798449e-03 1.13999085e-04</_>
    <_>
      1.42319962e-01 9.98909473e-01 9.95952010e-01 9.91283596e-01
      9.85052645e-01 9.77478802e-01 9.68817294e-01 9.59416330e-01
      9.49505448e-01 9.39440489e-01 9.29388523e-01 9.19517934e-01
      9.10127103e-01 9.01459277e-01 8.93721879e-01 8.86942863e-01
      8.81261945e-01 8.76751304e-01 8.73509705e-01 8.71624887e-01
      8.71002078e-01 1.25363767e-01 2.19834760e-01 2.27658257e-01
      1.15151055e-01 2.21713632e-01 2.39259154e-01 2.39259154e-01
      2.39259154e-01 1.42138466e-01 1.00993916e-01 1.09162845e-01
      2.13013783e-01 2.39259154e-01 2.39259154e-01 1.59213707e-01
      1.24867707e-01 1.26175955e-01 9.40688401e-02 8.32791924e-02
      1.39148712e-01 1.25676081e-01 9.41905603e-02 1.77417010e-01
      2.39259154e-01 1.90911368e-01 1.02986217e-01 1.06148809e-01
      6.63069040e-02 8.33190978e-02 2.39259154e-01 2.39259154e-01
      1.62074730e-01 1.19667642e-01 8.75728205e-02 6.04048409e-02
      6.28446415e-02 5.53846169e+00 2.26299688e-01 8.90710354e-01
      1.25764310e-01 2.89999813e-01 9.74999741e-02 1.74999982e-02
      1.14999957e-01 9.99999978e-03 0. 2.49999994e-03 1.07499965e-01
      1.17499955e-01 2.49999966e-02 2.74999961e-02 1.49999987e-02
      1.24999993e-02 1.49999987e-02 1.99999977e-02 1.27499953e-01
      4.62584719e-02 7.14285532e-03 3.91156552e-03 1.36054354e-02
      1.70068012e-03 1.36054412e-03 1.70068012e-03 2.50000358e-02
      5.35713509e-02 1.92176960e-02 3.06122494e-03 2.44898293e-02
      3.38435844e-02 8.33333097e-03 4.93196771e-02 7.07482517e-01
      1.17866494e-01 4.16873395e-02 4.71464032e-03 7.76675567e-02
      3.47394613e-03 2.97766807e-03 4.96277912e-03 1.29777148e-01
      6.57567605e-02 2.55583376e-02 4.21836274e-03 2.25806609e-02
      1.86104253e-02 6.69975067e-03 2.30769403e-02 4.50366467e-01
      6.16259649e-02 2.22764071e-02 2.73170527e-02 3.78861502e-02
      4.22764290e-03 2.43902439e-03 2.27642269e-03 8.84552076e-02
      1.82113662e-01 1.99999865e-02 1.30081305e-03 1.07317017e-02
      5.36584929e-02 1.08943032e-02 4.56910208e-02 4.29105312e-01
      7.20943511e-01 2.22831890e-01 3.28511372e-02 1.53922895e-02
      6.69849617e-03 1.28269079e-03</_>
    <_>
      1.55291870e-01 9.98112023e-01 9.93384421e-01 9.86220300e-01
      9.76993084e-01 9.66223180e-01 9.54189360e-01 9.41171587e-01
      9.27589893e-01 9.13747251e-01 8.99927735e-01 8.86574805e-01
      8.73866081e-01 8.62030089e-01 8.51379275e-01 8.41973424e-01
      8.34093511e-01 8.27995539e-01 8.23737800e-01 8.21428120e-01
      8.20762455e-01 6.42676950e-02 4.60637659e-02 1.04001306e-01
      2.86395550e-01 2.86395550e-01 2.42245898e-01 1.10400066e-01
      6.51405826e-02 8.82101655e-02 7.73750991e-02 1.15688756e-01
      2.86395550e-01 2.86395550e-01 1.60498261e-01 5.34250811e-02
      3.06170899e-02 3.58939320e-02 7.08433092e-02 7.04751015e-02
      1.28923342e-01 2.70965576e-01 2.29978353e-01 2.78837740e-01
      2.34344974e-01 1.17842719e-01 6.49756342e-02 9.51795578e-02
      4.71387580e-02 1.74507380e-01 2.86395550e-01 2.86395550e-01
      8.17095786e-02 2.42231563e-02 1.82085838e-02 1.76808778e-02
      3.86243500e-02 3.15789485e+00 2.35087723e-01 8.95899057e-01 0. 0.
      0. 0. 0. 0. 0. 0. 0. 0. 0. 0. 0. 0. 0. 0. 0. 2.65968200e-02
      1.55309658e-03 1.16482237e-03 4.27101459e-03 8.15375429e-03
      9.70685272e-04 2.32964475e-03 5.82411047e-03 4.30984274e-02
      7.76548032e-03 2.13550776e-03 6.01824746e-03 1.28130419e-02
      2.91205570e-03 2.83440612e-02 8.46032500e-01 1.35956675e-01
      6.40432611e-02 2.71370431e-04 4.28764783e-02 0. 0. 2.71370431e-04
      6.18722923e-02 5.02034351e-02 2.46947240e-02 8.14111321e-04
      1.84531994e-02 6.78426260e-03 1.08548172e-03 6.24152133e-03
      5.86441100e-01 4.57236618e-02 4.69483528e-03 1.83710980e-03
      1.12267816e-02 1.40845114e-02 2.04123295e-04 6.12369855e-04
      6.16452992e-02 2.01671258e-01 9.79791675e-03 8.16493179e-04
      5.91957383e-03 3.61298546e-02 6.12369692e-03 4.98061329e-02
      5.49696505e-01 9.15379882e-01 8.42495337e-02 3.70599126e-04 0. 0.
      0.</_>
    <_>
      1.44346595e-01 9.97689188e-01 9.93550241e-01 9.87957656e-01
      9.80979502e-01 9.72887695e-01 9.64217186e-01 9.55376863e-01
      9.46056664e-01 9.36724782e-01 9.27525938e-01 9.18783963e-01
      9.10560727e-01 9.03043449e-01 8.96506727e-01 8.90973449e-01
      8.86462748e-01 8.83102953e-01 8.81115854e-01 8.80232334e-01
      8.79898667e-01 4.91609499e-02 9.69591960e-02 1.39695004e-01
      8.77499804e-02 1.83092862e-01 2.47718990e-01 2.09727973e-01
      1.35819316e-01 7.27024004e-02 5.70433661e-02 2.36664519e-01
      3.11813533e-01 3.11813533e-01 8.41931328e-02 4.58854809e-02
      9.10442770e-02 8.02993774e-02 5.25685102e-02 1.17010631e-01
      2.79420257e-01 3.11813533e-01 8.46129358e-02 9.50620621e-02
      1.15943849e-01 1.40560091e-01 1.34864196e-01 1.30444735e-01
      7.64739737e-02 3.11813533e-01 3.11813533e-01 1.86674923e-01
      2.73547117e-02 1.28841614e-02 2.76810769e-02 4.28177342e-02
      5.07075973e-02 1.90697670e+00 2.70440251e-01 8.61413062e-01 0. 0.
      0. 0. 0. 0. 0. 0. 0. 0. 0. 0. 0. 0. 0. 0. 0. 3.31964158e-02
      1.64158712e-03 2.73597805e-04 1.24942791e-02 1.91518501e-03
      1.09439134e-03 5.47195610e-04 4.48698662e-02 2.47149225e-02
      3.64797073e-04 0. 6.38394849e-04 8.08941573e-02 3.64797073e-04
      3.20108309e-02 7.64952302e-01 9.42466259e-02 9.42466259e-02
      4.56349226e-03 4.92063500e-02 7.93650805e-04 9.92063549e-04
      1.98412710e-03 8.82941335e-02 1.82539690e-02 2.34126989e-02
      1.98412710e-03 2.46031750e-02 9.32539720e-03 3.57142859e-03
      1.66666675e-02 5.67873836e-01 1.02354012e-01 9.25547909e-03
      1.36109971e-04 6.39716955e-03 0. 8.16659885e-04 5.44439885e-04
      2.04164665e-02 1.55435830e-01 2.96718832e-02 1.76942989e-03
      1.19776791e-02 2.24581026e-02 5.03606955e-03 3.40274125e-02
      5.99711597e-01 8.52716625e-01 1.39963403e-01 6.12103241e-03
      1.19896512e-03 0. 0.</_>
    <_>
      1.37868479e-01 9.97306168e-01 9.91750240e-01 9.83920395e-01
      9.74379301e-01 9.63447273e-01 9.51437950e-01 9.38761473e-01
      9.25763905e-01 9.12316799e-01 8.98620665e-01 8.84674966e-01
      8.70314658e-01 8.56103063e-01 8.42638850e-01 8.30694497e-01
      8.20502520e-01 8.12409997e-01 8.06687772e-01 8.03694844e-01
      8.02642345e-01 7.32169114e-03 2.23567281e-02 5.40337414e-02
      8.39006603e-02 1.65638417e-01 2.92399704e-01 2.92399704e-01
      2.56781280e-02 5.68642328e-03 3.25880870e-02 1.24892645e-01
      2.50293136e-01 2.15562567e-01 2.27748737e-01 1.74748719e-01
      1.58864453e-01 5.37464656e-02 2.67959293e-02 4.11379850e-03
      8.87663942e-03 1.75720174e-02 3.93087305e-02 1.20225057e-01
      2.92399704e-01 2.92399704e-01 1.20566852e-01 7.82103557e-03
      3.56328525e-02 5.18858992e-02 8.50079432e-02 1.06786557e-01
      2.83992797e-01 2.92399704e-01 2.92399704e-01 2.67221987e-01
      5.26789129e-02 2.09230781e+00 2.82608688e-01 8.95390093e-01
      8.66138101e-01 9.80624277e-03 1.66588016e-02 8.27032200e-04
      4.14697938e-02 1.18147451e-04 0. 9.45179665e-04 8.60106871e-02
      3.79253663e-02 1.06332758e-02 4.72589803e-04 1.67769492e-02
      1.34688178e-02 2.95368559e-03 2.82372646e-02 7.33652711e-01
      4.13037091e-02 1.29185012e-02 2.96296290e-04 1.54666435e-02
      5.92592587e-05 0. 1.77777780e-04 3.04001756e-02 1.24920942e-01
      9.18517634e-03 8.88888782e-04 9.83702671e-03 3.05186957e-02
      3.20000178e-03 5.41034788e-02 6.66647851e-01 3.36286575e-02
      2.06693020e-02 4.10104985e-04 3.06759346e-02 8.20209971e-05 0.
      1.14829396e-03 1.44685298e-01 1.11549616e-01 3.11680641e-02
      5.74146979e-04 2.41142083e-02 1.68963093e-02 3.52690509e-03
      9.92454030e-03 5.70922434e-01 2.03174390e-02 7.11110514e-03
      3.17460333e-04 1.25714159e-02 0. 6.34920652e-05 0. 2.52698138e-02
      1.39495060e-01 1.86666474e-02 8.88888782e-04 1.54920472e-02
      1.80317275e-02 3.42856999e-03 2.31745783e-02 7.15084612e-01
      8.74142587e-01 1.14148133e-01 8.79927911e-03 1.48964184e-03
      1.38571335e-03 3.46428315e-05</_>
    <_>
      1.96972713e-01 9.97705162e-01 9.91912544e-01 9.82578039e-01
      9.70633984e-01 9.56192076e-01 9.39650416e-01 9.21450317e-01
      9.01823282e-01 8.81529748e-01 8.60624671e-01 8.40025485e-01
      8.19804966e-01 8.00869703e-01 7.83464909e-01 7.68155515e-01
      7.55326748e-01 7.45038271e-01 7.37670720e-01 7.33021259e-01
      7.31603861e-01 1.68182820e-01 1.17626220e-01 1.03223123e-01
      1.55910641e-01 1.80018559e-01 2.25116923e-01 2.25116923e-01
      2.25116923e-01 2.25116923e-01 1.06631994e-01 1.19568139e-01
      1.91213980e-01 2.25116923e-01 2.25116923e-01 1.25964239e-01
      1.06757164e-01 1.17572136e-01 1.38488904e-01 1.29318520e-01
      1.44030541e-01 1.53342471e-01 2.03004122e-01 1.78966224e-01
      2.25116923e-01 2.17346936e-01 1.14603780e-01 9.44326371e-02
      1.15107641e-01 1.98386043e-01 2.25116923e-01 2.25116923e-01
      1.94396019e-01 7.83790126e-02 6.82713613e-02 4.19335254e-02
      5.64963855e-02 4. 1.65829152e-01 8.95927608e-01 0. 0. 0. 0. 0. 0.
      0. 0. 0. 0. 0. 0. 0. 0. 0. 0. 0. 8.38947594e-02 3.67421890e-03
      3.06184916e-03 1.22473957e-02 3.06184916e-03 1.83710956e-03
      2.44947942e-03 8.57317727e-03 6.06246740e-02 9.79791675e-03
      4.28658864e-03 1.59216151e-02 1.83710977e-02 6.73606759e-03
      3.79669592e-02 7.27500618e-01 1.10967658e-01 6.58064112e-02
      9.67741944e-03 8.58063921e-02 3.87096801e-03 2.58064526e-03
      7.09677394e-03 8.25805888e-02 1.22580551e-01 3.09677310e-02
      3.87096801e-03 4.32257839e-02 4.25806232e-02 8.38709623e-03
      3.29032131e-02 3.47096473e-01 1.53333217e-01 6.66666590e-03
      4.84848442e-03 1.09090917e-02 3.03030293e-03 1.81818183e-03
      1.81818183e-03 1.11515068e-01 2.52727062e-01 2.06060596e-02
      2.42424244e-03 7.87878688e-03 2.06060596e-02 3.03030293e-03
      1.39393965e-02 3.84848148e-01 5.86429358e-01 2.49388203e-01
      1.26362622e-01 3.53726372e-02 2.44716345e-03 0.</_>
    <_>
      1.31345451e-01 9.97138858e-01 9.91533041e-01 9.83101010e-01
      9.72517133e-01 9.59961355e-01 9.44955051e-01 9.28430855e-01
      9.10877049e-01 8.92817020e-01 8.74792635e-01 8.57043028e-01
      8.40324938e-01 8.24593186e-01 8.10457468e-01 7.98091650e-01
      7.87854612e-01 7.79816329e-01 7.74024367e-01 7.70725906e-01
      7.69630373e-01 1.11697480e-01 1.20035022e-01 1.76189095e-01
      1.93712816e-01 2.66973764e-01 2.08336622e-01 9.30642411e-02
      7.44114369e-02 6.52853698e-02 1.05282374e-01 1.47867262e-01
      2.66973764e-01 2.66973764e-01 2.66973764e-01 1.67004794e-01
      9.50136408e-02 6.81680068e-02 5.84669299e-02 6.33729547e-02
      1.09165072e-01 2.21197411e-01 2.66973764e-01 2.66973764e-01
      1.79548785e-01 8.79897028e-02 4.09290157e-02 6.64743483e-02
      4.96726036e-02 1.81968585e-01 2.66973764e-01 2.66973764e-01
      1.88645408e-01 7.35684559e-02 5.22277132e-02 2.92756744e-02
      2.79926285e-02 2.64705873e+00 2.86486477e-01 8.93203855e-01 0. 0.
      0. 0. 0. 0. 0. 0. 0. 0. 0. 0. 0. 0. 0. 0. 0. 7.99572691e-02
      1.06609811e-03 2.48756213e-03 1.10163456e-02 0. 0. 0.
      8.88415147e-03 5.65032586e-02 1.67021994e-02 2.48756213e-03
      2.02558655e-02 4.37100604e-02 9.59488284e-03 7.92465433e-02
      6.68082893e-01 1.66565508e-01 4.86322455e-02 7.90273491e-03
      4.86322455e-02 5.47112431e-03 4.86322166e-03 2.43161083e-03
      6.50456399e-02 9.72643569e-02 4.01215889e-02 1.21580542e-03
      3.16109322e-02 9.72644426e-03 8.51063803e-03 1.27659598e-02
      4.49242622e-01 1.06382780e-01 2.86771320e-02 6.01295149e-03
      7.12303445e-02 9.25069384e-04 1.38760405e-03 2.77520809e-03
      1.15170889e-01 2.20628202e-01 2.08140556e-02 1.38760405e-03
      1.34135084e-02 3.74653004e-02 1.06382994e-02 3.28399427e-02
      3.30248296e-01 7.21528888e-01 2.04953194e-01 4.56318259e-02
      2.02808119e-02 7.60530401e-03 0.</_>
    <_>
      1.57530934e-01 9.98242915e-01 9.94333088e-01 9.88396168e-01
      9.80932415e-01 9.72004592e-01 9.61690784e-01 9.50383067e-01
      9.38416243e-01 9.26084518e-01 9.13579106e-01 9.01290536e-01
      8.89617562e-01 8.78712416e-01 8.68830442e-01 8.60143781e-01
      8.52962613e-01 8.47512126e-01 8.43719423e-01 8.41664255e-01
      8.40950072e-01 8.79236609e-02 1.33089915e-01 1.42765433e-01
      1.07963085e-01 1.55014873e-01 1.96731538e-01 1.63499758e-01
      1.20695494e-01 7.96289816e-02 1.53289467e-01 1.44300953e-01
      1.58520669e-01 2.16784135e-01 1.90257937e-01 1.30443126e-01
      1.31820410e-01 1.45053744e-01 1.30307570e-01 1.70690462e-01
      1.34496480e-01 1.23393372e-01 1.77356407e-01 1.66850150e-01
      2.18472704e-01 2.05805704e-01 1.37633786e-01 1.85506865e-01
      2.18472704e-01 1.87495425e-01 2.18472704e-01 2.18472704e-01
      2.18472704e-01 1.86492294e-01 1.19143084e-01 1.30148649e-01
      2.18472704e-01 3.11111116e+00 3.07909608e-01 8.86934698e-01
      3.59676123e-01 5.83678149e-02 1.80785116e-02 5.16528869e-03
      4.49380316e-02 1.03305781e-03 3.09917354e-03 2.58264458e-03
      8.36776346e-02 4.33884412e-02 1.49793411e-02 5.68181742e-03
      1.65289268e-02 4.44215015e-02 6.19834615e-03 9.40081626e-02
      5.57855070e-01 4.31034081e-02 6.60919119e-03 2.15517241e-03
      7.75861461e-03 7.47125875e-03 2.01149425e-03 2.72988505e-03
      2.74425671e-02 1.19539574e-01 9.91378352e-03 2.29885057e-03
      7.75861461e-03 5.83331697e-02 8.76436010e-03 6.32181913e-02
      6.30913138e-01 8.02781060e-02 3.00118756e-02 4.58308496e-03
      5.30752055e-02 3.54819512e-03 7.39207549e-04 1.47841510e-03
      6.31284490e-02 6.83029145e-02 2.14370470e-02 2.36546388e-03
      2.29154658e-02 2.97161918e-02 7.83559587e-03 4.08043303e-02
      5.69778264e-01 9.87286270e-02 3.65929902e-02 3.96163622e-03
      4.71224673e-02 1.25104247e-03 2.08507088e-04 1.66805659e-03
      8.92413333e-02 1.03941426e-01 2.84612663e-02 2.08507082e-03
      2.09549703e-02 2.11634785e-02 1.16763888e-02 2.76272334e-02
      5.05299747e-01 8.17771614e-01 1.45289376e-01 2.74936836e-02
      8.06160551e-03 1.38370832e-03 0.</_>
    <_>
      9.28984284e-02 9.98318911e-01 9.94199455e-01 9.87967789e-01
      9.79808688e-01 9.70044732e-01 9.59380865e-01 9.48167682e-01
      9.36394989e-01 9.24414098e-01 9.12518322e-01 9.00778651e-01
      8.89654994e-01 8.79312992e-01 8.70193720e-01 8.62351596e-01
      8.56207013e-01 8.51622045e-01 8.48538816e-01 8.46775770e-01
      8.46174538e-01 1.26453713e-01 1.77736819e-01 2.34329224e-01
      1.77983359e-01 2.48449236e-01 2.48449236e-01 2.48449236e-01
      2.22828597e-01 1.77814841e-01 7.05917701e-02 1.88923329e-01
      2.48449236e-01 2.48449236e-01 2.08358571e-01 1.07282773e-01
      9.65247080e-02 8.42487216e-02 9.49756056e-02 4.86647263e-02
      1.06502913e-01 1.80824101e-01 1.35186821e-01 1.59502417e-01
      2.48449236e-01 1.46169782e-01 8.78156945e-02 5.45492917e-02
      4.21620160e-02 1.63538396e-01 2.48449236e-01 2.48449236e-01
      9.98234525e-02 5.77310026e-02 3.72087955e-02 3.02474443e-02
      3.05019598e-02 3.15384626e+00 1.97044328e-01 8.93805325e-01 0. 0.
      0. 0. 0. 0. 0. 0. 0. 0. 0. 0. 0. 0. 0. 0. 0. 4.79451530e-02
      2.56849313e-03 2.14041094e-03 1.19863050e-02 8.56164377e-04
      1.71232875e-03 2.14041094e-03 1.32705523e-02 7.91950375e-02
      1.02739753e-02 3.85273970e-03 1.28424698e-02 3.38184945e-02
      7.27739837e-03 4.15239446e-02 7.28593290e-01 2.09091038e-01
      8.88888091e-02 9.09091067e-03 9.59594920e-02 0. 0. 1.01010106e-03
      1.06060468e-01 5.65656684e-02 4.24242504e-02 2.02020211e-03
      1.71717200e-02 9.09091067e-03 3.03030317e-03 5.05050551e-03
      3.54544610e-01 8.89526159e-02 1.24342404e-02 4.78240149e-03
      2.77379118e-02 9.56480158e-04 4.78240079e-04 1.91296032e-03
      6.16930500e-02 2.90769011e-01 1.43471994e-02 2.39120051e-03
      5.26064169e-03 2.63031926e-02 3.34768090e-03 2.29555145e-02
      4.35675085e-01 7.72369504e-01 1.71085343e-01 3.99751440e-02
      9.94200539e-03 6.00662781e-03 6.21375337e-04</_>
    <_>
      1.45279616e-01 9.96021032e-01 9.88380015e-01 9.77666199e-01
      9.64367330e-01 9.48632717e-01 9.31222260e-01 9.12526011e-01
      8.92618477e-01 8.71638954e-01 8.50094378e-01 8.28903437e-01
      8.08076262e-01 7.88337946e-01 7.70036340e-01 7.53316522e-01
      7.37868547e-01 7.24720776e-01 7.14548409e-01 7.07836628e-01
      7.05316484e-01 9.34504494e-02 1.32414505e-01 2.25563079e-01
      2.74930000e-01 2.11201131e-01 5.75253852e-02 6.67475611e-02
      6.61144853e-02 6.52150512e-02 7.40820467e-02 1.80564165e-01
      2.74930000e-01 2.74930000e-01 1.65960267e-01 3.29897963e-02
      3.88608202e-02 3.87255326e-02 3.93085293e-02 1.24911234e-01
      1.79236993e-01 2.69281566e-01 2.74930000e-01 1.54579043e-01
      1.00292578e-01 1.32146895e-01 1.64753258e-01 1.39243901e-01
      9.38882902e-02 2.74930000e-01 2.74930000e-01 2.74930000e-01
      1.43994078e-01 4.83894125e-02 4.93077487e-02 6.10695742e-02
      4.98819649e-02 2.57894731e+00 2.18107000e-01 8.92988920e-01 0. 0.
      0. 0. 0. 0. 0. 0. 0. 0. 0. 0. 0. 0. 0. 0. 0. 4.93284501e-02
      1.80785125e-03 2.58264435e-03 1.34297460e-02 1.29132229e-03
      3.61570180e-03 4.64875996e-03 1.11053688e-02 7.20557496e-02
      1.39462743e-02 2.32437998e-03 1.47210667e-02 2.97004376e-02
      6.97314134e-03 4.59710285e-02 7.26504087e-01 1.41803324e-01
      6.14755303e-02 5.32786781e-03 6.31148741e-02 2.04918021e-03
      1.63934426e-03 7.78688351e-03 6.02460168e-02 7.45902285e-02
      5.61476387e-02 2.04918021e-03 3.11475340e-02 1.72131117e-02
      1.39344232e-02 2.00819634e-02 4.41397488e-01 1.83729202e-01
      5.13455644e-02 4.02103271e-03 4.94896993e-02 0. 0. 3.09310242e-04
      9.99073684e-02 1.05474964e-01 4.39221039e-02 2.16517178e-03
      2.10331008e-02 1.76306814e-02 9.58861690e-03 1.76306814e-02
      3.93753141e-01 6.11238003e-01 3.42165381e-01 2.77143288e-02
      1.00502511e-02 7.30927382e-03 1.52276538e-03</_>
    <_>
      1.87857881e-01 9.98162866e-01 9.94591475e-01 9.90253687e-01
      9.85172808e-01 9.79298592e-01 9.72952187e-01 9.66461301e-01
      9.59993601e-01 9.52883124e-01 9.45347428e-01 9.37363684e-01
      9.29628789e-01 9.22298014e-01 9.15601611e-01 9.09849048e-01
      9.05569375e-01 9.02038574e-01 8.99433255e-01 8.97847295e-01
      8.97412062e-01 3.61272544e-02 3.87957208e-02 8.06961507e-02
      2.23671943e-01 3.24461669e-01 1.35952353e-01 9.18499008e-02
      6.26264066e-02 3.38040665e-02 3.42565961e-02 6.70017451e-02
      1.68357804e-01 3.24461669e-01 3.24461669e-01 1.48006648e-01
      4.63502742e-02 3.47750299e-02 3.09913512e-02 4.98709828e-02
      5.27532585e-02 1.19983174e-01 2.65670031e-01 3.24461669e-01
      1.18736133e-01 5.58279306e-02 3.70535441e-02 2.66416725e-02
      3.88791785e-02 8.85310024e-02 2.85337448e-01 3.24461669e-01
      3.24461669e-01 1.06658809e-01 3.42787281e-02 1.54487230e-02
      2.09358204e-02 2. 3.46820801e-01 8.91191721e-01 8.70548725e-01
      7.06249550e-02 8.74999911e-03 7.49999890e-03 2.37499941e-02
      1.24999997e-03 3.12499981e-03 5.62499929e-03 5.87499626e-02
      4.24999781e-02 8.12499877e-03 3.12499981e-03 1.06250001e-02
      4.37499769e-02 4.99999942e-03 8.99999365e-02 6.17508173e-01
      3.17460410e-02 2.69541796e-03 2.99490895e-03 1.31776026e-02
      9.58371069e-03 1.79694523e-03 2.09643599e-03 1.61725115e-02
      3.32434960e-02 9.58371069e-03 2.99490895e-03 2.15633493e-02
      2.48577502e-02 5.39083686e-03 4.10302617e-02 7.81084120e-01
      8.20963457e-02 3.06122154e-02 6.02968456e-03 5.61223701e-02
      4.63821896e-04 9.27643792e-04 1.85528758e-03 5.14841601e-02
      1.11780889e-01 5.24118021e-02 3.24675324e-03 4.03524563e-02
      1.94805115e-02 1.15955472e-02 2.08719745e-02 5.10665417e-01
      1.08983375e-01 4.74236608e-02 5.47195645e-03 5.65436184e-02
      3.19197425e-03 1.36798900e-03 4.55996348e-03 5.24396375e-02
      1.40902966e-01 4.05836925e-02 4.55996348e-03 2.78157648e-02
      4.65116650e-02 1.32238911e-02 3.64797115e-02 4.09942538e-01
      6.67769432e-01 2.18526900e-01 4.96256314e-02 3.48250046e-02
      2.52481289e-02 4.00487566e-03</_>
    <_>
      1.52838111e-01 9.98181045e-01 9.93928969e-01 9.86925840e-01
      9.77876246e-01 9.66932952e-01 9.54440832e-01 9.40588355e-01
      9.25716281e-01 9.09969926e-01 8.93792391e-01 8.77557218e-01
      8.61696362e-01 8.46777201e-01 8.32926691e-01 8.20611835e-01
      8.10158849e-01 8.01881731e-01 7.95681298e-01 7.92167604e-01
      7.90753245e-01 2.29485020e-01 2.27185607e-01 1.88871190e-01
      1.44943744e-01 1.45154059e-01 1.61065310e-01 1.77161977e-01
      2.29485020e-01 2.29485020e-01 8.86975229e-02 7.29994476e-02
      1.35565192e-01 1.87237769e-01 2.05534786e-01 1.37647048e-01
      1.42739415e-01 2.01180413e-01 2.02881142e-01 2.29485020e-01
      1.97677150e-01 1.60300270e-01 9.37438533e-02 1.07104994e-01
      1.46010131e-01 1.32733569e-01 2.03845114e-01 2.29485020e-01
      7.81743452e-02 1.10188447e-01 2.29485020e-01 1.82276919e-01
      1.01415887e-01 7.52449557e-02 7.65054524e-02 1.02462687e-01
      1.26110092e-01 2.22222233e+00 2.78688520e-01 8.87804866e-01
      1.19056094e+00 1.49999887e-01 4.99999709e-02 6.24999916e-03
      7.49999508e-02 1.87499996e-03 1.87499996e-03 4.99999942e-03
      1.31874904e-01 6.87499568e-02 1.68750007e-02 1.24999997e-03
      2.06249971e-02 1.99999977e-02 8.74999911e-03 2.49999929e-02
      4.16878611e-01 4.79744598e-02 3.90902674e-03 3.55366059e-03
      1.35039054e-02 1.06609811e-03 7.10732071e-04 7.10732071e-04
      1.70575660e-02 8.35108981e-02 2.09665988e-02 4.26439289e-03
      2.38095317e-02 4.54868935e-02 1.10163456e-02 6.32552132e-02
      6.59198821e-01 1.93675980e-01 5.92885502e-02 1.25164716e-02
      6.65349066e-02 2.63504665e-02 6.58761535e-04 5.92885446e-03
      1.19894303e-01 1.08695418e-01 1.77865643e-02 3.29380762e-03
      1.38339950e-02 3.68906520e-02 7.90513959e-03 2.96442751e-02
      2.97101080e-01 9.67167094e-02 1.46406414e-02 3.99290165e-03
      2.12954804e-02 7.54214590e-03 3.99290165e-03 3.10559012e-03
      1.01153232e-01 1.61933601e-01 1.86335444e-02 7.98580144e-03
      1.68589205e-02 5.32387123e-02 1.10913934e-02 3.81544083e-02
      4.39666301e-01 6.09939754e-01 2.36445785e-01 1.04480423e-01
      3.59563269e-02 1.14834337e-02 1.69427716e-03</_>
    <_>
      1.54408351e-01 9.97842371e-01 9.91957664e-01 9.82387424e-01
      9.69401598e-01 9.53525126e-01 9.34983969e-01 9.14532125e-01
      8.92564058e-01 8.69561553e-01 8.46294641e-01 8.23172808e-01
      8.00853431e-01 7.79834986e-01 7.60504305e-01 7.43453681e-01
      7.28885293e-01 7.17253745e-01 7.08737612e-01 7.03486145e-01
      7.01755404e-01 1.98035270e-01 1.23245776e-01 1.92223713e-01
      2.21846655e-01 2.21846655e-01 2.21846655e-01 2.21846655e-01
      2.21846655e-01 2.21846655e-01 2.21846655e-01 2.17532098e-01
      2.21846655e-01 2.15267330e-01 2.02223301e-01 1.83714002e-01
      1.96624771e-01 1.96858883e-01 1.89727023e-01 4.79131378e-02
      6.19491711e-02 1.70621216e-01 1.79140061e-01 1.49220943e-01
      1.40139192e-01 8.53051245e-02 9.08320621e-02 5.25494181e-02
      7.68223032e-02 8.19094926e-02 1.42867476e-01 1.43746182e-01
      1.77815884e-01 1.05131365e-01 5.02455272e-02 4.94226813e-02
      4.61208150e-02 2.30769229e+00 1.76136360e-01 8.92857134e-01 0. 0.
      0. 0. 0. 0. 0. 0. 0. 0. 0. 0. 0. 0. 0. 0. 0. 1.63652003e-02
      8.61326326e-03 7.75193702e-03 2.75624413e-02 3.44530586e-03
      4.30663209e-03 2.58397940e-03 1.55038731e-02 1.18001640e-01
      2.92850938e-02 1.03359157e-02 3.10077462e-02 4.04823534e-02
      1.37812207e-02 3.53143848e-02 6.35660052e-01 1.48181692e-01
      2.27272660e-02 3.63636366e-03 4.18181568e-02 0. 1.81818183e-03
      1.81818183e-03 7.36363083e-02 1.42727152e-01 3.36363465e-02
      3.63636366e-03 2.18181759e-02 2.09090859e-02 8.18181783e-03
      2.36363560e-02 4.51817781e-01 4.57848981e-02 1.59883741e-02
      1.01744188e-02 4.21511754e-02 1.45348837e-03 2.90697673e-03
      3.63372080e-03 5.45058325e-02 1.89680308e-01 3.92441973e-02
      9.44767427e-03 3.27034965e-02 7.55814239e-02 1.52616305e-02
      5.66860661e-02 4.04793501e-01 8.89801204e-01 7.86516890e-02
      1.55574763e-02 1.12359552e-02 3.88936908e-03 8.64304253e-04</_>
    <_>
      1.80183545e-01 9.98801231e-01 9.95576620e-01 9.90621388e-01
      9.84156907e-01 9.76348877e-01 9.67389107e-01 9.57633615e-01
      9.47294950e-01 9.36437547e-01 9.25368428e-01 9.14386392e-01
      9.03980613e-01 8.94317091e-01 8.85416985e-01 8.77454698e-01
      8.70634973e-01 8.65076005e-01 8.60859454e-01 8.58126760e-01
      8.57192874e-01 8.57999027e-02 7.09122121e-02 1.26516446e-01
      1.28950685e-01 2.74495333e-01 2.74495333e-01 1.92819536e-01
      1.29778177e-01 1.25873193e-01 2.24711634e-02 1.97887626e-02
      9.13990662e-02 2.74495333e-01 2.74495333e-01 3.70364003e-02
      2.97808703e-02 2.68500745e-02 3.51526998e-02 6.32730722e-02
      8.15097988e-02 1.29826695e-01 9.66854095e-02 2.74495333e-01
      2.74495333e-01 2.74495333e-01 1.73959479e-01 1.23804502e-01
      3.97596732e-02 1.48463830e-01 2.74495333e-01 2.74495333e-01
      2.60179162e-01 8.79909098e-02 7.50428438e-02 4.45601158e-02
      4.07023318e-02 2.75999999e+00 3.33333343e-01 8.93678188e-01 0. 0.
      0. 0. 0. 0. 0. 0. 0. 0. 0. 0. 0. 0. 0. 0. 0. 4.70915362e-02
      5.65558858e-03 1.50046160e-03 7.61773204e-03 1.15420134e-03
      1.15420131e-04 5.77100669e-04 1.80055276e-02 2.98938565e-02
      1.29270405e-02 2.42382288e-03 2.03139409e-02 1.81209482e-02
      7.38689164e-03 4.91691083e-02 7.77997851e-01 1.07277527e-01
      2.60180999e-02 1.88536954e-03 3.73303182e-02 5.65610884e-04
      3.77073913e-04 1.50829565e-03 1.05015084e-01 4.31749634e-02
      1.80995483e-02 1.88536954e-03 2.39441935e-02 1.09351436e-02
      9.04977415e-03 9.80392192e-03 6.03120685e-01 9.46195051e-02
      1.22139715e-02 2.16450240e-03 2.05627494e-02 7.73036503e-04
      4.63821925e-04 2.62832409e-03 9.18365791e-02 1.53680757e-01
      1.36054344e-02 3.24675301e-03 1.08225085e-02 3.50958072e-02
      1.06679015e-02 4.73097600e-02 5.00326335e-01 6.37121022e-01
      2.35207900e-01 7.77597800e-02 3.07027698e-02 1.65856667e-02
      2.62284954e-03</_>
    <_>
      1.25165120e-01 9.97537076e-01 9.91400599e-01 9.82385993e-01
      9.70991731e-01 9.57471490e-01 9.42174911e-01 9.25700009e-01
      9.08398211e-01 8.90792847e-01 8.73267949e-01 8.55775774e-01
      8.38010788e-01 8.20686579e-01 8.04494500e-01 7.89960265e-01
      7.77292848e-01 7.66648650e-01 7.58607864e-01 7.53395915e-01
      7.51529276e-01 7.72255138e-02 6.60919845e-02 6.37461469e-02
      8.13212469e-02 1.18383199e-01 2.49476403e-01 2.62578338e-01
      1.87225774e-01 9.81989801e-02 9.46255699e-02 1.41112715e-01
      2.62578338e-01 2.62578338e-01 2.03072965e-01 8.97419527e-02
      1.32901698e-01 1.06989846e-01 1.06965393e-01 1.40519589e-01
      2.39326090e-01 2.62578338e-01 1.80026203e-01 1.16531827e-01
      1.63104638e-01 2.18905404e-01 1.19319968e-01 1.05090424e-01
      1.04112424e-01 2.37199277e-01 2.62578338e-01 2.62578338e-01
      1.26813293e-01 6.01271056e-02 7.23777041e-02 4.93963435e-02
      7.56901726e-02 3.16666675e+00 1.64000005e-01 8.89285743e-01 0. 0.
      0. 0. 0. 0. 0. 0. 0. 0. 0. 0. 0. 0. 0. 0. 0. 5.92567362e-02
      4.55820467e-03 2.80504883e-03 7.71388644e-03 1.05189346e-03
      1.40252453e-03 1.75315561e-03 1.29733495e-02 7.60870576e-02
      7.36325514e-03 2.45441776e-03 1.29733495e-02 3.61150391e-02
      6.66199252e-03 5.43478914e-02 7.12489307e-01 1.71717569e-01
      6.89244792e-02 8.91265739e-03 4.81283069e-02 5.94177051e-04 0.
      2.37670820e-03 1.06951766e-01 9.32857096e-02 2.31729001e-02
      1.18835410e-03 1.78253129e-02 2.19845474e-02 3.56506230e-03
      3.32738981e-02 3.98097873e-01 1.21905066e-01 1.68792233e-02
      2.62565631e-03 3.48837115e-02 2.62565631e-03 7.50187552e-04
      4.50112578e-03 1.16278686e-01 2.19053909e-01 1.65041294e-02
      1.87546888e-03 1.23780975e-02 9.00225248e-03 3.00075021e-03
      1.20030036e-02 4.25729632e-01 5.50030768e-01 3.71151477e-01
      7.21982792e-02 6.46551745e-03 1.53940884e-04 0.</_>
    <_>
      8.91337544e-02 9.97577727e-01 9.95091379e-01 9.91412044e-01
      9.87067759e-01 9.83167887e-01 9.78513181e-01 9.74103153e-01
      9.69474316e-01 9.64930534e-01 9.60689247e-01 9.56850231e-01
      9.53330159e-01 9.50348616e-01 9.48308051e-01 9.46492732e-01
      9.45014834e-01 9.44076955e-01 9.43361223e-01 9.43254113e-01
      9.43057060e-01 1.58927485e-01 2.30319470e-01 2.61616290e-01
      2.61616290e-01 2.61616290e-01 2.45733589e-01 2.09153771e-01
      1.48102760e-01 1.17988512e-01 4.50669602e-02 1.04805440e-01
      2.61616290e-01 2.61616290e-01 1.68375686e-01 9.62350294e-02
      6.36727214e-02 4.00852561e-02 2.77192742e-02 8.31431821e-02
      1.04816735e-01 2.26728797e-01 1.30378097e-01 2.14749739e-01
      2.01348618e-01 1.33536980e-01 7.58248940e-02 7.15557858e-02
      4.48868796e-02 1.14915773e-01 2.61616290e-01 2.61616290e-01
      1.27758279e-01 8.25555399e-02 4.33556028e-02 2.24454682e-02
      2.30372194e-02 4.90000010e+00 1.98347107e-01 8.60714257e-01 0. 0.
      0. 0. 0. 0. 0. 0. 0. 0. 0. 0. 0. 0. 0. 0. 0. 5.34154736e-02
      1.43810939e-02 3.59527464e-03 2.67077647e-02 2.05444265e-03
      2.05444265e-03 1.54083199e-03 4.57113311e-02 5.64971305e-02
      1.38674835e-02 5.64971659e-03 1.59219261e-02 3.08166556e-02
      7.70415831e-03 3.95480171e-02 6.80537105e-01 1.28151268e-01
      9.38375369e-02 8.40336177e-03 1.03641458e-01 4.20168089e-03
      5.60224103e-03 9.80392192e-03 1.14145659e-01 3.71148475e-02
      1.82072837e-02 6.30252110e-03 4.20168079e-02 1.40056023e-02
      1.05042020e-02 3.36134471e-02 3.70450735e-01 1.16666220e-01
      2.77777910e-02 1.54320989e-03 2.06790213e-02 6.17283978e-04
      3.39506147e-03 1.85185182e-03 5.77159226e-02 2.01544151e-01
      2.65432224e-02 4.32098750e-03 1.11111151e-02 5.30863181e-02
      1.20370416e-02 4.87653539e-02 4.12342727e-01 7.68795609e-01
      1.84159592e-01 3.12639587e-02 9.37918760e-03 6.25279127e-03
      1.48875988e-04</_>
    <_>
      1.10965230e-01 9.98605490e-01 9.95608568e-01 9.91367042e-01
      9.86160934e-01 9.79889929e-01 9.72616971e-01 9.64743018e-01
      9.56795752e-01 9.49184299e-01 9.41766322e-01 9.34558690e-01
      9.27775562e-01 9.21855748e-01 9.16923046e-01 9.12955880e-01
      9.09699976e-01 9.07199144e-01 9.05832946e-01 9.05059159e-01
      9.04900134e-01 6.76624253e-02 7.35623315e-02 8.95850435e-02
      2.51227498e-01 2.96932667e-01 1.87617540e-01 1.17611818e-01
      7.67299235e-02 7.28658363e-02 4.47753929e-02 8.19317326e-02
      2.96932667e-01 2.96932667e-01 2.59853065e-01 8.62421840e-02
      4.69284356e-02 2.81012282e-02 3.88526879e-02 3.72758508e-02
      4.13453653e-02 2.41674677e-01 2.96932667e-01 2.96932667e-01
      1.87269896e-01 9.73867103e-02 5.14546856e-02 2.25977469e-02
      4.17633541e-02 5.79593591e-02 2.96932667e-01 2.96932667e-01
      1.71449780e-01 6.64737225e-02 3.38999592e-02 2.70591062e-02
      1.71062555e-02 4.42857122e+00 2.17081845e-01 8.66873085e-01
      1.76623070e+00 1.36479795e-01 2.67857052e-02 5.10204071e-03
      4.49617170e-02 3.18877544e-04 9.56632663e-04 1.91326521e-03
      1.05548427e-01 6.72831386e-02 1.11607118e-02 3.50765325e-03
      1.37117309e-02 2.26402991e-02 5.73979551e-03 3.06122340e-02
      5.23287117e-01 6.64450899e-02 7.47508230e-03 1.66112941e-03
      1.59883723e-02 2.69933534e-03 4.15282382e-04 2.90697650e-03
      3.48837711e-02 5.31561114e-02 1.86877195e-02 2.49169418e-03
      1.82724353e-02 3.88289355e-02 8.92857090e-03 5.87623976e-02
      6.68407738e-01 1.73895538e-01 4.78722751e-02 4.90998430e-03
      5.76921999e-02 0. 2.86415732e-03 3.68248811e-03 1.05973497e-01
      3.27332243e-02 2.53682528e-02 7.77414208e-03 2.33224258e-02
      1.55482842e-02 4.90998430e-03 2.20949296e-02 4.71354783e-01
      4.44444567e-02 2.47165281e-02 4.76190634e-03 2.99319290e-02
      1.54195083e-02 4.98866383e-03 9.52381361e-03 6.12245798e-02
      1.37868509e-01 1.88208576e-02 4.76190634e-03 1.47392359e-02
      7.64173940e-02 1.38322059e-02 7.00681582e-02 4.68485773e-01
      7.18797505e-01 1.94920778e-01 5.28543517e-02 1.97525509e-02
      1.08530493e-02 2.82179285e-03</_>
    <_>
      1.23144440e-01 9.98451531e-01 9.94964242e-01 9.89452839e-01
      9.82099473e-01 9.73352015e-01 9.63398516e-01 9.52504218e-01
      9.40999627e-01 9.29516733e-01 9.17996466e-01 9.06878531e-01
      8.96361232e-01 8.86349201e-01 8.77512634e-01 8.69785607e-01
      8.63276422e-01 8.58027220e-01 8.54270756e-01 8.51912975e-01
      8.51075113e-01 1.49878353e-01 2.39427686e-01 2.39427686e-01
      2.25140378e-01 2.39427686e-01 2.39427686e-01 2.39427686e-01
      2.06771746e-01 1.48791492e-01 1.07968748e-01 1.89852551e-01
      2.39427686e-01 2.39427686e-01 2.04581529e-01 1.46359771e-01
      1.40465409e-01 9.55341011e-02 8.50351676e-02 6.36227354e-02
      9.86237898e-02 1.37316093e-01 1.34280339e-01 1.66168109e-01
      2.39427686e-01 1.40409306e-01 5.90683036e-02 5.61512746e-02
      3.63518111e-02 9.57497209e-02 2.39427686e-01 2.39427686e-01
      1.02533787e-01 9.50947702e-02 5.95833622e-02 2.27885377e-02
      2.22781077e-02 2.29999995e+00 2.14285716e-01 8.67219925e-01
      1.18879974e+00 7.47922659e-02 3.60110626e-02 9.00276937e-03
      8.51801261e-02 3.46260378e-03 3.46260378e-03 7.61772832e-03
      1.29501611e-01 5.47091104e-02 2.00830940e-02 2.77008303e-03
      2.00830940e-02 2.00830940e-02 9.00276937e-03 1.86980534e-02
      5.05538344e-01 7.66970292e-02 2.93858349e-03 8.81575048e-04
      5.87716699e-03 0. 0. 0. 9.69732553e-03 5.87716699e-02
      1.23420507e-02 8.81575048e-04 1.20481923e-02 3.34998518e-02
      4.70173359e-03 3.93770188e-02 7.42270589e-01 2.01127350e-01
      7.64411092e-02 6.26566401e-03 5.45113198e-02 1.25313282e-03
      1.25313282e-03 3.75939836e-03 1.22180283e-01 5.70175909e-02
      2.31829546e-02 1.25313282e-03 1.12781972e-02 1.62907299e-02
      4.38596494e-03 8.14536307e-03 4.11652863e-01 1.06791824e-01
      1.63666140e-02 3.68248811e-03 2.94599067e-02 1.63666124e-03
      7.36497669e-03 4.09165351e-03 7.69228861e-02 2.00900823e-01
      1.47299534e-02 2.86415732e-03 7.36497669e-03 5.19639105e-02
      6.13748049e-03 4.21439856e-02 4.27575082e-01 7.49407709e-01
      1.78968474e-01 3.79077829e-02 1.49444137e-02 1.45799164e-02
      4.19172598e-03</_>
    <_>
      1.61621004e-01 9.97117758e-01 9.89398420e-01 9.77464557e-01
      9.61873353e-01 9.43057179e-01 9.21466172e-01 8.97633135e-01
      8.72357488e-01 8.46210122e-01 8.19789410e-01 7.93639064e-01
      7.68024027e-01 7.43643463e-01 7.21317470e-01 7.01550424e-01
      6.84912622e-01 6.71739101e-01 6.61904693e-01 6.55769110e-01
      6.53600276e-01 2.21089870e-01 2.21089870e-01 2.21089870e-01
      1.59106866e-01 1.30306602e-01 7.08784908e-02 6.45658746e-02
      1.64533213e-01 2.21089870e-01 1.80044740e-01 2.03138545e-01
      2.21089870e-01 2.21089870e-01 2.21089870e-01 8.32826570e-02
      4.38927449e-02 9.23994556e-02 1.20371312e-01 1.82675779e-01
      2.21089870e-01 2.21089870e-01 1.60019621e-01 1.72565714e-01
      1.00361101e-01 8.50705281e-02 9.28502083e-02 1.43298581e-01
      1.51137277e-01 2.21089870e-01 2.21089870e-01 2.21089870e-01
      2.08284169e-01 8.92149359e-02 6.43474981e-02 7.00137541e-02
      9.29780677e-02 2.66666675e+00 2.01058194e-01 8.31858397e-01 0. 0.
      0. 0. 0. 0. 0. 0. 0. 0. 0. 0. 0. 0. 0. 0. 0. 3.62318791e-02
      3.26086991e-02 7.97101576e-03 4.49275114e-02 2.89855083e-03
      5.79710212e-03 5.07246424e-03 2.89855134e-02 7.97100440e-02
      4.20289673e-02 9.42029152e-03 4.20289673e-02 2.24637724e-02
      2.02898588e-02 3.91304232e-02 5.80434859e-01 4.11347821e-02
      5.60284182e-02 6.38297852e-03 9.07802358e-02 2.83687934e-03
      2.12765951e-03 3.54609918e-03 5.10638729e-02 7.09220544e-02
      4.04255614e-02 1.06382975e-02 4.68085483e-02 2.26950422e-02
      1.91489384e-02 5.60284182e-02 4.79428381e-01 8.12875181e-02
      3.16421203e-02 2.72776885e-03 3.98254283e-02 1.63666124e-03
      2.18221499e-03 5.45553747e-04 4.09165360e-02 1.24386273e-01
      3.98254283e-02 4.90998430e-03 2.67321374e-02 4.20076437e-02
      8.18330701e-03 4.36443053e-02 5.09549141e-01 9.94254947e-01
      5.74506260e-03 0. 0. 0. 0.</_>
    <_>
      1.68720827e-01 9.97782946e-01 9.91941929e-01 9.82623994e-01
      9.70343947e-01 9.55422521e-01 9.38171208e-01 9.19269025e-01
      8.99103403e-01 8.78266096e-01 8.57143342e-01 8.36169839e-01
      8.15949559e-01 7.96842933e-01 7.79595435e-01 7.64288127e-01
      7.51329362e-01 7.40973711e-01 7.33409822e-01 7.28962600e-01
      7.27471948e-01 1.62101209e-01 8.26799944e-02 1.31442919e-01
      1.44874930e-01 1.01137854e-01 1.34240195e-01 2.40101382e-01
      2.40101382e-01 2.40101382e-01 1.08932398e-01 9.37127173e-02
      2.05658630e-01 2.40101382e-01 2.40101382e-01 9.10273641e-02
      1.42454505e-01 1.68901995e-01 1.13544039e-01 1.24389939e-01
      1.98862731e-01 2.04593748e-01 1.69935003e-01 1.41887575e-01
      1.83139086e-01 2.01171055e-01 1.68756858e-01 8.63983408e-02
      9.65542793e-02 2.06751630e-01 2.40101382e-01 2.40101382e-01
      1.89880610e-01 6.52016923e-02 7.31512159e-02 7.63444826e-02
      4.57469523e-02 2.35714293e+00 1.94029853e-01 8.88888896e-01 0. 0.
      0. 0. 0. 0. 0. 0. 0. 0. 0. 0. 0. 0. 0. 0. 0. 7.01014847e-02
      3.80067574e-03 3.80067574e-03 9.29054152e-03 1.68918923e-03
      1.68918923e-03 2.11148662e-03 1.73141863e-02 5.32095321e-02
      2.32263450e-02 4.22297325e-03 1.98479686e-02 2.61824243e-02
      6.75675832e-03 5.15203364e-02 7.05238998e-01 1.03731662e-01
      5.12333624e-02 5.06008836e-03 6.38835579e-02 1.26502209e-03
      2.53004418e-03 5.06008836e-03 8.15938264e-02 1.32827103e-01
      3.22580747e-02 3.16255516e-03 2.53004525e-02 3.54206227e-02
      6.95762131e-03 2.02403609e-02 4.29478317e-01 1.31578997e-01
      1.15789436e-02 4.73684166e-03 9.47368145e-03 2.10526306e-03
      1.57894730e-03 2.10526306e-03 9.68421996e-02 2.52630085e-01
      1.99999996e-02 2.63157883e-03 1.15789436e-02 1.47368368e-02
      7.36841932e-03 1.78947337e-02 4.13154334e-01 6.54403567e-01
      2.11371243e-01 1.02564104e-01 3.03233005e-02 1.33779261e-03 0.</_>
    <_>
      1.22972757e-01 9.97614563e-01 9.91693795e-01 9.81946945e-01
      9.69157577e-01 9.53464150e-01 9.35634315e-01 9.15848970e-01
      8.94789219e-01 8.72920156e-01 8.50704193e-01 8.28728199e-01
      8.07291567e-01 7.87211895e-01 7.68596768e-01 7.52227664e-01
      7.38197088e-01 7.27188349e-01 7.19039202e-01 7.14317024e-01
      7.12732315e-01 2.15584841e-02 4.05674912e-02 9.63484794e-02
      2.37745285e-01 2.63998479e-01 2.63998479e-01 1.41263604e-01
      5.55185601e-02 1.66764967e-02 2.18835231e-02 5.06644920e-02
      2.63998479e-01 2.63998479e-01 2.63998479e-01 1.60526648e-01
      8.33813623e-02 2.58855838e-02 1.29451780e-02 2.11907700e-02
      4.52299938e-02 1.44029409e-01 2.57091850e-01 2.63998479e-01
      2.63998479e-01 2.03901470e-01 7.46205002e-02 3.14196981e-02
      3.11240144e-02 8.16165805e-02 2.63998479e-01 2.63998479e-01
      2.63998479e-01 1.39865190e-01 6.96203560e-02 4.45561484e-02
      3.28916572e-02 2.43750000e+00 2.11640209e-01 8.43049347e-01 0. 0.
      0. 0. 0. 0. 0. 0. 0. 0. 0. 0. 0. 0. 0. 0. 0. 8.04231316e-02
      6.34920737e-03 1.05820107e-03 1.16402134e-02 0. 0. 3.52733681e-04
      1.44620836e-02 2.36331411e-02 1.30511485e-02 1.05820107e-03
      2.46913396e-02 1.30511485e-02 8.81834328e-03 2.99823321e-02
      7.71440387e-01 5.89081012e-02 2.22701095e-02 5.74712642e-03
      3.23275812e-02 2.15517241e-03 7.18390802e-04 4.31034481e-03
      5.24425693e-02 1.35775968e-01 4.02298979e-02 7.18390755e-03
      4.16666828e-02 2.29885001e-02 1.50862038e-02 1.50862038e-02
      5.43102026e-01 1.67973097e-02 6.71892427e-03 1.23180263e-02
      1.45576671e-02 8.95856507e-03 3.35946260e-03 3.91937327e-03
      3.41545530e-02 8.23069066e-02 4.19933088e-02 4.47928347e-03
      3.91937532e-02 5.71109094e-02 2.91153546e-02 3.35946418e-02
      6.11419201e-01 9.95978534e-01 4.02144762e-03 0. 0. 0. 0.</_>
    <_>
      1.77063182e-01 9.98528659e-01 9.94420648e-01 9.88029718e-01
      9.79742229e-01 9.69845891e-01 9.58482563e-01 9.45893884e-01
      9.32311594e-01 9.18135107e-01 9.03883517e-01 8.89964044e-01
      8.76735926e-01 8.64465833e-01 8.53361070e-01 8.43666613e-01
      8.35481167e-01 8.28986347e-01 8.24296534e-01 8.21463108e-01
      8.20536196e-01 1.04455389e-01 1.76241174e-01 2.20214486e-01
      2.20214486e-01 2.20214486e-01 2.20214486e-01 2.20214486e-01
      9.44161564e-02 1.53182194e-01 6.95842132e-02 8.86101499e-02
      1.44313902e-01 2.06462830e-01 2.20214486e-01 1.75071970e-01
      1.52636960e-01 6.70933351e-02 9.17015150e-02 1.05511144e-01
      1.61796838e-01 2.20214486e-01 2.11957783e-01 2.20214486e-01
      2.20214486e-01 2.20214486e-01 1.31492704e-01 1.49103418e-01
      6.62124380e-02 9.13515240e-02 1.87731206e-01 2.20214486e-01
      2.03211769e-01 1.19772673e-01 1.15149818e-01 5.66867217e-02
      7.18226135e-02 3.52631569e+00 2.54777074e-01 8.94285738e-01
      4.45336670e-01 8.56008232e-02 5.83899878e-02 3.96825420e-03
      7.59636536e-02 5.66893432e-04 5.66893432e-04 2.26757373e-03
      1.01473808e-01 4.08163257e-02 1.02040805e-02 1.13378686e-03
      1.70068014e-02 2.49433201e-02 3.96825420e-03 1.47392265e-02
      5.58394670e-01 3.91710848e-02 1.04355766e-02 2.57108314e-03
      8.92317388e-03 6.95705088e-03 2.72232341e-03 2.57108314e-03
      1.02843363e-02 3.81124094e-02 1.16454987e-02 1.96612207e-03
      1.13430182e-02 2.31397133e-02 4.53720661e-03 4.74892482e-02
      7.78103828e-01 7.06088617e-02 5.08305505e-02 5.34019060e-03
      5.81485257e-02 6.72468543e-03 9.88924061e-04 1.58227864e-03
      8.22780654e-02 1.05220906e-01 3.40189859e-02 3.16455681e-03
      2.90743876e-02 4.15347442e-02 7.51582533e-03 3.38212028e-02
      4.69158351e-01 3.75000723e-02 1.81089751e-02 3.36538465e-03
      1.89102571e-02 8.33333377e-03 1.76282052e-03 3.52564105e-03
      9.75961015e-02 2.27887824e-01 2.37179492e-02 4.48717969e-03
      1.39423078e-02 4.50322106e-02 9.93589777e-03 2.27564108e-02
      4.63132590e-01 7.16962814e-01 2.03150243e-01 6.16316646e-02
      1.62358638e-02 2.01938604e-03 0.</_>
    <_>
      1.94946125e-01 9.98134732e-01 9.93264854e-01 9.85614359e-01
      9.75645185e-01 9.63651240e-01 9.49644804e-01 9.34098125e-01
      9.17186618e-01 8.99496615e-01 8.81532073e-01 8.63677979e-01
      8.46492410e-01 8.30195129e-01 8.15166414e-01 8.01786482e-01
      7.90380061e-01 7.81412482e-01 7.75023580e-01 7.71274745e-01
      7.70108938e-01 7.19743147e-02 6.70472533e-02 7.23537579e-02
      8.14466104e-02 1.51006207e-01 2.44286969e-01 2.44286969e-01
      2.27855861e-01 1.26312077e-01 7.85351843e-02 1.01206109e-01
      2.41045132e-01 2.44286969e-01 2.44286969e-01 1.56612948e-01
      1.92081168e-01 1.09881416e-01 1.00694224e-01 1.27992630e-01
      2.23756865e-01 2.25889042e-01 1.33488610e-01 1.55679539e-01
      2.31983230e-01 2.21369818e-01 9.47947428e-02 9.38805863e-02
      9.29658711e-02 2.15577051e-01 2.44286969e-01 2.44286969e-01
      1.28869921e-01 8.28665718e-02 8.17999542e-02 3.14587913e-02
      5.20612411e-02 3.54545450e+00 1.82242990e-01 8.91213417e-01 0. 0.
      0. 0. 0. 0. 0. 0. 0. 0. 0. 0. 0. 0. 0. 0. 0. 7.20601827e-02
      4.86295344e-03 3.09460680e-03 6.18921360e-03 1.32625992e-03
      4.42086661e-04 1.76834664e-03 1.06100803e-02 1.07869282e-01
      1.50309475e-02 3.53669352e-03 1.63572058e-02 3.58089991e-02
      4.86295344e-03 7.82494098e-02 6.37932360e-01 1.77469045e-01
      6.89300075e-02 5.65843657e-03 6.01851568e-02 0. 2.05761311e-03
      3.08641954e-03 1.56892926e-01 9.41357538e-02 2.67489608e-02
      3.60082276e-03 1.69753041e-02 2.93209758e-02 2.57201632e-03
      3.29217985e-02 3.19446266e-01 1.31603390e-01 1.08490568e-02
      2.35849060e-03 2.21698117e-02 2.35849060e-03 9.43396240e-04
      2.83018872e-03 8.25469717e-02 1.93867296e-01 8.01886804e-03
      2.35849060e-03 1.17924530e-02 1.27358492e-02 2.83018872e-03
      1.27358492e-02 5.00006020e-01 4.64421600e-01 4.06392694e-01
      1.00456618e-01 2.79680360e-02 7.61035015e-04 0.</_>
    <_>
      7.46756643e-02 9.98611808e-01 9.95116651e-01 9.89780545e-01
      9.82715011e-01 9.74207699e-01 9.64371145e-01 9.53529119e-01
      9.42075610e-01 9.30061221e-01 9.17882085e-01 9.05819356e-01
      8.94277751e-01 8.83562207e-01 8.73736024e-01 8.65164399e-01
      8.58087242e-01 8.52453768e-01 8.48473370e-01 8.46009254e-01
      8.45098197e-01 5.63797355e-02 7.87643641e-02 1.26752064e-01
      2.00322583e-01 2.40413144e-01 2.40413144e-01 2.40413144e-01
      2.27895483e-01 9.89048406e-02 8.86295810e-02 1.67557612e-01
      2.40413144e-01 2.40413144e-01 2.40413144e-01 2.09638268e-01
      1.80684492e-01 1.20732166e-01 8.83978084e-02 2.61474196e-02
      4.07292731e-02 4.54368517e-02 9.18312371e-02 1.37078762e-01
      1.89145699e-01 2.33989134e-01 1.72214776e-01 7.67720491e-02
      4.51045930e-02 1.00679204e-01 1.23723671e-01 2.26928577e-01
      2.06728786e-01 2.12158889e-01 1.85990065e-01 1.50317773e-01
      8.35081413e-02 2.71875000e+00 2.60606050e-01 8.89189184e-01 0. 0.
      0. 0. 0. 0. 0. 0. 0. 0. 0. 0. 0. 0. 0. 0. 0. 6.89022020e-02
      1.26793403e-02 4.83817002e-03 2.16883440e-02 1.00100099e-03
      2.50250218e-03 1.83516857e-03 3.57023515e-02 8.44177082e-02
      2.55255122e-02 3.33666918e-03 2.03536768e-02 3.98731865e-02
      8.17483850e-03 5.18851914e-02 6.17283642e-01 9.55278352e-02
      4.60269116e-02 3.90794547e-03 6.99088648e-02 1.08554037e-02 0.
      1.73686491e-03 1.32002294e-01 9.98700336e-02 3.21319960e-02
      1.73686491e-03 2.51845364e-02 2.99609136e-02 8.25010706e-03
      2.43161041e-02 4.18587387e-01 8.17191750e-02 2.11214554e-02
      7.54337711e-03 2.13729013e-02 1.88584393e-03 1.50867505e-03
      1.38295209e-03 6.49982691e-02 1.28738865e-01 1.99899487e-02
      3.26879648e-03 1.38295246e-02 5.00374585e-02 1.05607277e-02
      3.25622261e-02 5.39494634e-01 6.80194318e-01 2.07380131e-01
      6.16577864e-02 3.04763392e-02 1.71576310e-02 3.13381385e-03</_>
    <_>
      1.51422292e-01 9.98737574e-01 9.95808899e-01 9.91386652e-01
      9.85885918e-01 9.79274035e-01 9.72070098e-01 9.64343488e-01
      9.56495762e-01 9.48618412e-01 9.40859139e-01 9.33508992e-01
      9.26817954e-01 9.21016932e-01 9.16074753e-01 9.12104666e-01
      9.08934414e-01 9.06586409e-01 9.04840469e-01 9.03856695e-01
      9.03468370e-01 1.00554474e-01 1.74674138e-01 2.29757667e-01
      1.54241160e-01 2.29757667e-01 2.11814925e-01 2.29757667e-01
      1.15858488e-01 1.56239018e-01 8.57070312e-02 1.17421471e-01
      2.29757667e-01 2.29757667e-01 2.29757667e-01 1.30298868e-01
      1.37526378e-01 7.09074438e-02 7.65997991e-02 8.62413049e-02
      1.43863127e-01 2.19453007e-01 1.08513214e-01 2.29757667e-01
      2.16896832e-01 2.29757667e-01 1.27056718e-01 1.29668087e-01
      7.57137090e-02 1.42339662e-01 2.29757667e-01 2.29757667e-01
      1.92982301e-01 9.98966843e-02 8.76473635e-02 4.47632447e-02
      6.17646463e-02 3.75000000e+00 3.35078537e-01 8.00420165e-01
      3.62687498e-01 1.57174274e-01 1.02810726e-01 4.80769295e-03
      7.02661723e-02 1.84911245e-03 2.21893494e-03 5.17751556e-03
      1.18343353e-01 6.28696829e-02 2.03402415e-02 3.69822513e-03
      2.10798867e-02 2.03402415e-02 9.98520944e-03 4.77070324e-02
      3.51328224e-01 1.69312526e-02 3.23029701e-03 1.72653899e-03
      6.18212670e-03 4.62266803e-03 9.46811284e-04 1.39236997e-03
      1.54274888e-02 8.33178982e-02 2.24450529e-02 2.84043397e-03
      1.69869475e-02 2.81816330e-02 7.29602575e-03 4.71173860e-02
      7.41285026e-01 1.24293365e-01 5.96686229e-02 6.16909750e-03
      5.68368658e-02 8.09061457e-04 1.01132679e-03 2.73058307e-03
      1.16404898e-01 9.02111456e-02 2.56876424e-02 1.51699013e-03
      1.72936600e-02 4.10599336e-02 8.49514827e-03 4.52064350e-02
      4.02592123e-01 1.04454480e-01 3.30363736e-02 7.53035955e-03
      5.85428402e-02 1.05263141e-03 8.09716526e-04 5.02024265e-03
      9.57094058e-02 1.32471099e-01 1.86234843e-02 2.59109330e-03
      1.10931247e-02 4.70446870e-02 1.26315923e-02 7.18223974e-02
      3.97576392e-01 7.87467480e-01 1.68465674e-01 2.40461677e-02
      1.12215457e-02 5.94920013e-03 2.84991623e-03</_>
    <_>
      1.34426922e-01 9.98552620e-01 9.94869292e-01 9.89084959e-01
      9.81517017e-01 9.72229064e-01 9.61706579e-01 9.50153828e-01
      9.37974334e-01 9.25204515e-01 9.12380159e-01 8.99844110e-01
      8.88020456e-01 8.76840055e-01 8.66747558e-01 8.57900023e-01
      8.50432515e-01 8.44242454e-01 8.39776635e-01 8.37034047e-01
      8.36169302e-01 1.82384938e-01 1.16255261e-01 1.83362499e-01
      2.60297000e-01 2.60297000e-01 2.60297000e-01 2.60297000e-01
      2.60297000e-01 2.60297000e-01 9.88034904e-02 8.20464119e-02
      1.96479753e-01 2.60297000e-01 2.60297000e-01 1.49756864e-01
      1.52143374e-01 1.28444403e-01 1.09378561e-01 9.34483260e-02
      8.58130157e-02 1.09873913e-01 1.19120821e-01 1.48500592e-01
      1.44401193e-01 1.23390056e-01 9.58095416e-02 9.88760591e-02
      5.35597652e-02 7.75569752e-02 2.46061981e-01 2.08009496e-01
      7.70282894e-02 3.12503986e-02 4.13320884e-02 4.63847294e-02
      5.39921038e-02 3.27272725e+00 2.09302321e-01 8.95287931e-01 0. 0.
      0. 0. 0. 0. 0. 0. 0. 0. 0. 0. 0. 0. 0. 0. 0. 4.60829549e-02
      5.76036866e-04 2.88018445e-03 6.91244332e-03 2.88018445e-03
      5.76036866e-04 2.88018445e-03 6.33640634e-03 4.14746515e-02
      1.61290336e-02 5.18433237e-03 2.18893941e-02 4.14746515e-02
      9.21659078e-03 4.08986136e-02 7.54604995e-01 1.68571129e-01
      5.61905019e-02 1.90476188e-03 1.08571313e-01 0. 0. 2.85714283e-03
      1.02857046e-01 8.95237550e-02 2.85714343e-02 9.52380942e-04
      2.95238160e-02 1.33333309e-02 5.71428519e-03 8.57142732e-03
      3.82858247e-01 9.39509720e-02 1.41570177e-02 8.36550817e-03
      3.02445441e-02 6.43500651e-04 6.43500651e-04 4.50450461e-03
      4.89060245e-02 2.14929864e-01 1.48005188e-02 3.21750320e-03
      1.02960113e-02 4.63320278e-02 1.09395124e-02 4.31145318e-02
      4.54953104e-01 8.07516694e-01 1.02212854e-01 3.65296789e-02
      2.38847919e-02 2.28310507e-02 7.02493871e-03</_>
    <_>
      1.11416243e-01 9.98872280e-01 9.95852113e-01 9.91142511e-01
      9.84861970e-01 9.77282226e-01 9.68626738e-01 9.59318399e-01
      9.49704051e-01 9.39971089e-01 9.30429816e-01 9.21355188e-01
      9.12976086e-01 9.05443847e-01 8.98724854e-01 8.92958343e-01
      8.88282299e-01 8.84674907e-01 8.82107556e-01 8.80512476e-01
      8.79945397e-01 1.35102823e-01 1.71267748e-01 2.04884186e-01
      1.68881118e-01 2.56917059e-01 2.56917059e-01 1.89606860e-01
      1.05292253e-01 1.33727372e-01 1.11977175e-01 1.36753991e-01
      2.56917059e-01 2.56917059e-01 2.56917059e-01 1.68657377e-01
      8.07823017e-02 5.44759482e-02 9.35977772e-02 4.21265811e-02
      3.68075967e-02 5.27526513e-02 1.14266343e-01 2.56917059e-01
      2.56917059e-01 1.71462476e-01 6.37930334e-02 4.14922349e-02
      6.23185933e-02 8.08591396e-02 2.56917059e-01 2.56917059e-01
      2.07794130e-01 1.57761097e-01 7.99119025e-02 4.67488803e-02
      3.48066427e-02 3. 2.75999993e-01 8.95683467e-01 0. 0. 0. 0. 0. 0.
      0. 0. 0. 0. 0. 0. 0. 0. 0. 0. 0. 6.58772066e-02 8.19672085e-03
      6.37522759e-03 2.36793924e-02 2.12507579e-03 3.64298723e-03
      3.33940494e-03 5.00909723e-02 1.20218270e-01 2.18579043e-02
      5.16089844e-03 1.91256721e-02 6.52700439e-02 1.21432906e-02
      7.19488338e-02 5.20956874e-01 1.72308505e-01 6.38019741e-02
      1.21527817e-02 7.29165226e-02 1.73611112e-03 1.73611112e-03
      3.47222225e-03 1.53211355e-01 6.64061308e-02 1.90972295e-02
      3.03819450e-03 2.17013974e-02 7.37847388e-03 7.37847388e-03
      1.43229216e-02 3.79343390e-01 5.25282435e-02 1.56931225e-02
      8.28247517e-03 3.05143539e-02 6.97471527e-03 2.39755888e-03
      9.37227625e-03 7.43241757e-02 1.62597686e-01 1.74367968e-02
      2.83347885e-03 1.06800376e-02 6.77853972e-02 1.24237193e-02
      5.73233478e-02 4.68845427e-01 7.36993909e-01 2.03599036e-01
      3.65670770e-02 1.51113160e-02 6.45979913e-03 1.26888917e-03</_>
    <_>
      9.81023386e-02 9.98631299e-01 9.95278597e-01 9.90064204e-01
      9.83287036e-01 9.75210249e-01 9.66134965e-01 9.56128538e-01
      9.45690930e-01 9.34962273e-01 9.24304008e-01 9.13822234e-01
      9.04091895e-01 8.95013511e-01 8.87022197e-01 8.80133867e-01
      8.74423206e-01 8.70005965e-01 8.67088377e-01 8.65305901e-01
      8.64784896e-01 5.86389378e-02 6.54563233e-02 1.08651169e-01
      2.18172878e-01 2.60136187e-01 2.60136187e-01 1.28429219e-01
      9.93269980e-02 6.76281750e-02 7.31051490e-02 1.70110837e-01
      2.60136187e-01 2.60136187e-01 2.60136187e-01 2.43083134e-01
      9.77523848e-02 8.76443908e-02 4.90181819e-02 3.61674689e-02
      6.36516139e-02 8.36611167e-02 1.14210851e-01 2.60136187e-01
      2.60136187e-01 1.51501402e-01 7.67724589e-02 4.92924154e-02
      4.79059964e-02 1.43832311e-01 2.60136187e-01 2.60136187e-01
      2.55290657e-01 1.48500621e-01 6.67888597e-02 6.06990047e-02
      4.75151353e-02 4.71428585e+00 2.36363634e-01 8.81028950e-01 0. 0.
      0. 0. 0. 0. 0. 0. 0. 0. 0. 0. 0. 0. 0. 0. 0. 6.76616505e-02
      5.30680036e-03 3.98009969e-03 1.59203950e-02 1.99004984e-03
      9.95024922e-04 1.32669986e-03 7.13101029e-02 1.66168943e-01
      1.39303459e-02 3.98009969e-03 8.95522535e-03 3.44942138e-02
      6.96517620e-03 3.61525826e-02 5.60861766e-01 1.37878790e-01
      5.60605265e-02 5.05050598e-03 7.77777359e-02 1.01010106e-03
      3.53535404e-03 4.54545533e-03 1.46464556e-01 5.90908192e-02
      2.27272771e-02 3.03030340e-03 2.67676823e-02 8.58586002e-03
      5.55555662e-03 1.71717200e-02 4.24749523e-01 6.83538020e-02
      1.16807315e-02 5.19143464e-03 3.20137925e-02 1.51416834e-03
      1.94678793e-03 2.59571709e-03 8.45772550e-02 1.54445246e-01
      1.38438307e-02 3.89357517e-03 1.38438307e-02 3.67725901e-02
      1.03828721e-02 5.10489829e-02 5.07888079e-01 7.08601177e-01
      2.45843500e-01 3.19219679e-02 1.03081353e-02 3.32520506e-03 0.</_>
    <_>
      1.88259602e-01 9.98930633e-01 9.96243894e-01 9.92645264e-01
      9.88730729e-01 9.84983385e-01 9.81929123e-01 9.79843020e-01
      9.78850305e-01 9.78955925e-01 9.80092883e-01 9.81832325e-01
      9.83565450e-01 9.84877408e-01 9.85693693e-01 9.86028016e-01
      9.85880613e-01 9.85406458e-01 9.84851956e-01 9.84399974e-01
      9.84221876e-01 3.85648422e-02 3.55696976e-02 6.04362935e-02
      1.04659498e-01 2.38752916e-01 2.38752916e-01 1.63376451e-01
      8.61939639e-02 4.96602133e-02 1.15721948e-01 1.90109074e-01
      2.26243466e-01 2.38752916e-01 2.38752916e-01 1.57534942e-01
      5.69931157e-02 5.49059585e-02 8.92557055e-02 6.78004324e-02
      7.22283646e-02 1.61581054e-01 2.02928379e-01 2.38752916e-01
      2.38752916e-01 2.33633861e-01 1.50192842e-01 1.00744009e-01
      1.70172438e-01 2.38752916e-01 2.38752916e-01 2.38752916e-01
      1.66787818e-01 1.65483385e-01 8.39883089e-02 1.10533878e-01
      1.51814878e-01 2.30434775e+00 4.18224305e-01 8.97058845e-01
      2.77246028e-01 3.32986712e-02 9.88553651e-03 9.88553651e-03
      3.90218496e-02 1.63891744e-02 7.80437083e-04 1.04058278e-03
      1.82101987e-02 1.40478630e-02 6.24349760e-03 1.56087405e-03
      1.22268451e-02 1.27471359e-02 1.04058278e-03 1.10041291e-01
      7.13600934e-01 2.56579742e-02 1.10563636e-02 1.08160079e-03
      2.78812647e-02 3.48515809e-03 7.81156123e-04 5.40800393e-04
      3.52121145e-02 8.43648612e-02 8.71289521e-03 1.62240118e-03
      9.97476280e-03 5.05948812e-02 4.68693674e-03 6.11104444e-02
      6.73168421e-01 2.38259546e-02 3.34601589e-02 1.73070247e-03
      8.80347565e-02 1.61532231e-03 6.34590921e-04 1.67301239e-03
      6.54780269e-02 5.23824282e-02 2.29029171e-02 1.90377270e-03
      3.01141478e-02 1.97876655e-02 4.49982891e-03 3.27101909e-02
      6.19306684e-01 3.63656431e-02 3.84737225e-03 5.27036958e-04
      1.27015682e-02 0. 0. 5.27037009e-05 3.45209539e-02 9.65552181e-02
      1.60745960e-02 1.15948135e-03 1.38610462e-02 3.25708538e-02
      3.90007603e-03 4.68013138e-02 7.00958729e-01 9.00954068e-01
      7.60794729e-02 1.08193178e-02 5.85226715e-03 5.11458656e-03
      1.18028920e-03</_>
    <_>
      1.41953230e-01 9.98079896e-01 9.93332148e-01 9.86267924e-01
      9.77361023e-01 9.66907024e-01 9.55288529e-01 9.42705870e-01
      9.29407775e-01 9.15581346e-01 9.01431084e-01 8.87252271e-01
      8.73230338e-01 8.59473407e-01 8.46526027e-01 8.35115314e-01
      8.25461030e-01 8.17768633e-01 8.12219083e-01 8.08951378e-01
      8.07877958e-01 1.58846229e-02 4.27081212e-02 3.96172367e-02
      7.09559619e-02 2.67452091e-01 2.67452091e-01 1.55906454e-01
      2.72118561e-02 1.50939403e-02 7.38544613e-02 1.77808404e-01
      2.24403694e-01 2.42395833e-01 2.67452091e-01 1.51333153e-01
      6.96397573e-02 8.63794461e-02 1.15882754e-01 1.42916990e-02
      2.97902282e-02 3.15551795e-02 4.97799814e-02 1.75879732e-01
      2.67452091e-01 2.67452091e-01 1.75349414e-01 1.97224859e-02
      6.63604885e-02 1.30184531e-01 1.49220869e-01 2.15397909e-01
      2.67452091e-01 2.67452091e-01 2.67452091e-01 1.79307967e-01
      8.66027102e-02 1.87234044e+00 3.27485383e-01 8.95013094e-01
      4.50319052e-01 5.34026809e-02 2.17391308e-02 2.83553894e-03
      4.63138260e-02 4.72589803e-04 9.45179607e-04 1.41776935e-03
      6.19093068e-02 2.88279857e-02 1.65406372e-02 2.83553894e-03
      1.55954575e-02 2.12665405e-02 4.72589815e-03 3.26087065e-02
      6.88562095e-01 2.96451915e-02 2.61437912e-02 8.16993474e-04
      1.64565835e-02 5.83566783e-04 7.00280129e-04 7.00280129e-04
      5.31045757e-02 1.41224191e-01 1.10877687e-02 1.05042022e-03
      7.23622786e-03 4.82026152e-02 2.56769382e-03 5.36881424e-02
      6.06777906e-01 4.43314128e-02 1.68968085e-02 2.36191857e-03
      5.03270552e-02 1.27180223e-03 1.09011622e-03 2.54360470e-03
      9.75647271e-02 1.05013706e-01 2.07122173e-02 1.99854630e-03
      2.68895458e-02 2.12572757e-02 4.90552420e-03 1.36264581e-02
      5.89188516e-01 8.57286677e-02 1.54291112e-02 8.67888040e-04
      1.29218809e-02 5.78592066e-04 1.92864027e-04 9.64320032e-04
      2.82546803e-02 1.08004659e-01 2.09257826e-02 4.82160074e-04
      1.43683599e-02 2.38187686e-02 2.89295986e-03 2.16008127e-02
      6.62998021e-01 9.36286390e-01 6.25438690e-02 1.16977305e-03 0. 0.
      0.</_>
    <_>
      1.70564026e-01 9.98479962e-01 9.94794250e-01 9.89329100e-01
      9.82089818e-01 9.73532975e-01 9.63965654e-01 9.53341424e-01
      9.41985965e-01 9.30625141e-01 9.19300795e-01 9.08146918e-01
      8.97590339e-01 8.87789786e-01 8.78836691e-01 8.70938003e-01
      8.64251256e-01 8.58838320e-01 8.54903579e-01 8.52585256e-01
      8.51780355e-01 1.20349333e-01 1.64133906e-01 1.91327646e-01
      1.66527882e-01 2.12860733e-01 2.12860733e-01 2.11490169e-01
      2.12860733e-01 2.12860733e-01 1.01916946e-01 1.29490018e-01
      1.76817387e-01 1.89890504e-01 2.12860733e-01 1.85297027e-01
      1.70105666e-01 2.12860733e-01 1.81396380e-01 1.01456128e-01
      1.11283787e-01 1.28484830e-01 1.29761770e-01 1.39473587e-01
      2.12699324e-01 1.84276879e-01 1.59610152e-01 1.64791405e-01
      7.65488148e-02 1.24960661e-01 2.12860733e-01 1.91718206e-01
      1.29336834e-01 1.19738139e-01 1.14586629e-01 1.27787232e-01
      1.16183415e-01 6. 3.34745765e-01 8.83458674e-01 6.45256519e-01
      7.87499472e-02 1.81249995e-02 6.87499903e-03 3.68749835e-02
      7.49999890e-03 3.12499981e-03 7.49999890e-03 5.56249656e-02
      5.74999638e-02 6.24999916e-03 1.24999997e-03 1.06250001e-02
      7.37499520e-02 6.24999916e-03 1.10624917e-01 5.19380927e-01
      5.03166765e-02 1.93525683e-02 1.37227299e-02 3.83532718e-02
      1.19634056e-02 1.40745949e-03 3.16678383e-03 3.44827585e-02
      1.21042132e-01 3.13159749e-02 1.68895144e-02 1.79451089e-02
      4.78536226e-02 1.75932441e-02 7.14286640e-02 5.03173828e-01
      1.10329039e-01 7.25933686e-02 7.99488183e-03 7.51517192e-02
      3.19795334e-04 1.59897667e-03 1.91877200e-03 1.14806153e-01
      7.77100697e-02 1.59897730e-02 3.19795310e-03 2.14262996e-02
      2.23856866e-02 7.67508615e-03 2.84618046e-02 4.38446283e-01
      9.90830511e-02 2.05150712e-02 1.96420774e-03 3.92842367e-02
      4.80139535e-03 6.54735893e-04 1.52771710e-03 6.67831749e-02
      8.79526883e-02 2.07333174e-02 5.23788575e-03 1.92055944e-02
      4.75775898e-02 1.28764678e-02 5.95811270e-02 5.12217581e-01
      7.32423127e-01 1.81446984e-01 5.29539362e-02 2.33507715e-02
      8.29399005e-03 1.53119816e-03</_>
    <_>
      1.60266846e-01 9.98088717e-01 9.92844582e-01 9.84322190e-01
      9.72855449e-01 9.58859742e-01 9.42787707e-01 9.25036132e-01
      9.06041801e-01 8.86265695e-01 8.66194606e-01 8.46149564e-01
      8.26731265e-01 8.08311045e-01 7.91354358e-01 7.76156783e-01
      7.63236940e-01 7.52732396e-01 7.45074689e-01 7.40379989e-01
      7.38807082e-01 9.65048894e-02 1.13309622e-01 1.13329150e-01
      2.41922259e-01 2.49599367e-01 2.49599367e-01 2.43723929e-01
      1.32953510e-01 7.85626471e-02 1.22400545e-01 1.20310389e-01
      1.56267300e-01 2.49599367e-01 2.49599367e-01 1.96754083e-01
      1.22525916e-01 1.01911522e-01 9.49305817e-02 4.23116349e-02
      7.51488209e-02 9.31255668e-02 1.26035586e-01 1.67610154e-01
      2.49599367e-01 2.49599367e-01 1.64474338e-01 5.88269569e-02
      6.35149851e-02 1.10678785e-01 2.49599367e-01 2.49599367e-01
      2.22406834e-01 1.47246942e-01 1.04162626e-01 6.61396608e-02
      4.56152000e-02 1.78947365e+00 2.06185564e-01 8.89400899e-01 0. 0.
      0. 0. 0. 0. 0. 0. 0. 0. 0. 0. 0. 0. 0. 0. 0. 8.41362402e-02
      8.15418828e-03 0. 5.55967400e-03 0. 0. 0. 1.40845077e-02
      5.15195616e-02 1.48257976e-02 3.70644941e-03 2.29799692e-02
      3.78057323e-02 7.78354378e-03 3.40992920e-02 7.15337574e-01
      1.37415141e-01 5.10203838e-02 1.08843548e-02 7.55102336e-02
      3.40136047e-03 6.80272048e-03 4.08163248e-03 1.57142907e-01
      9.86395925e-02 3.46938670e-02 6.80272048e-03 2.85714213e-02
      1.08843548e-02 1.15646273e-02 2.04081628e-02 3.42175752e-01
      1.68859333e-01 2.79605165e-02 8.22368264e-03 4.00219448e-02
      2.74122809e-03 3.83771933e-03 6.03070110e-03 1.20613895e-01
      1.47477835e-01 1.91885903e-02 7.67543726e-03 1.91885903e-02
      2.52192896e-02 9.32017341e-03 4.93421480e-02 3.44297260e-01
      5.86174428e-01 3.33207756e-01 4.99152392e-02 1.43153137e-02
      1.16782822e-02 4.70898487e-03</_>
    <_>
      1.23568632e-01 9.98857081e-01 9.96211171e-01 9.92252052e-01
      9.87317562e-01 9.81428385e-01 9.74888146e-01 9.67933893e-01
      9.61002648e-01 9.53999698e-01 9.46923316e-01 9.39997673e-01
      9.33591902e-01 9.27780271e-01 9.22626674e-01 9.18200433e-01
      9.14586723e-01 9.11983371e-01 9.10154462e-01 9.09042299e-01
      9.08660531e-01 6.59025311e-02 7.40786120e-02 6.39311969e-02
      2.24101648e-01 2.81573206e-01 1.33933261e-01 1.25760704e-01
      7.41204619e-02 5.96848726e-02 7.71447122e-02 1.39062360e-01
      3.01876634e-01 3.04356962e-01 2.51889855e-01 9.59526300e-02
      6.18329197e-02 4.17555608e-02 6.27939403e-02 2.40993816e-02
      7.35997409e-02 1.83912486e-01 3.04356962e-01 3.04356962e-01
      1.67270809e-01 7.88030997e-02 2.83873696e-02 3.76247093e-02
      3.31644304e-02 9.08676311e-02 3.04356962e-01 3.04356962e-01
      2.26059318e-01 8.49439725e-02 5.16809262e-02 2.16091946e-02
      4.39342447e-02 5.07142878e+00 2.67657995e-01 8.87417197e-01
      1.65831876e+00 6.05554245e-02 4.38888483e-02 5.55555429e-03
      5.49998991e-02 1.50000071e-02 1.38888892e-03 3.61111062e-03
      9.41667780e-02 5.91665432e-02 1.02777788e-02 2.22222228e-03
      1.44444508e-02 6.97221383e-02 6.38888730e-03 6.61109984e-02
      4.92506444e-01 6.06123097e-02 9.79591813e-03 4.08163248e-03
      1.20408162e-02 2.85714283e-03 0. 8.16326530e-04 3.42856571e-02
      3.85713913e-02 1.32653061e-02 1.42857141e-03 1.67346895e-02
      2.95917746e-02 8.97959154e-03 5.81633188e-02 7.08788097e-01
      1.31559581e-01 7.39794672e-02 5.46647282e-03 5.13847917e-02
      1.82215753e-03 2.55102036e-03 1.45772600e-03 9.54808518e-02
      3.60787213e-02 2.25947592e-02 1.09329447e-03 2.58746482e-02
      1.42128244e-02 4.73760953e-03 2.55102161e-02 5.06191075e-01
      6.38806000e-02 1.77114438e-02 3.78109491e-03 4.03980128e-02
      1.19402993e-03 3.98009957e-04 5.17412974e-03 4.77611981e-02
      9.07462761e-02 1.81094538e-02 6.16915477e-03 1.83084588e-02
      7.12437853e-02 1.33333346e-02 8.00000057e-02 5.21774054e-01
      8.28754663e-01 1.14849329e-01 2.44463272e-02 1.70640200e-02
      1.07709067e-02 4.11472842e-03</_>
    <_>
      1.65066347e-01 9.97705042e-01 9.91165698e-01 9.80673611e-01
      9.66605067e-01 9.49360728e-01 9.29554582e-01 9.07691956e-01
      8.84301722e-01 8.59844983e-01 8.34896028e-01 8.10009122e-01
      7.85774052e-01 7.62720048e-01 7.41447389e-01 7.22498178e-01
      7.06290603e-01 6.93236768e-01 6.83690131e-01 6.77875161e-01
      6.75938666e-01 1.79890692e-01 1.48459211e-01 1.55137092e-01
      1.87599823e-01 1.68962404e-01 9.00541618e-02 1.29967123e-01
      1.23098642e-01 1.23460613e-01 1.86500072e-01 2.29662701e-01
      2.29662701e-01 1.98521465e-01 1.54136091e-01 6.35320097e-02
      8.16586539e-02 8.17076862e-02 1.30326346e-01 1.75885990e-01
      2.29662701e-01 2.29662701e-01 2.29662701e-01 2.10144356e-01
      1.40523553e-01 1.53231859e-01 1.20403387e-01 1.38105705e-01
      1.91464648e-01 2.29662701e-01 2.29662701e-01 2.29662701e-01
      1.73429102e-01 8.31693932e-02 6.34136945e-02 6.12198599e-02
      1.11825243e-01 3.33333325e+00 1.50442481e-01 8.92857134e-01 0. 0.
      0. 0. 0. 0. 0. 0. 0. 0. 0. 0. 0. 0. 0. 0. 0. 5.95121458e-02
      8.29268247e-03 2.43902439e-03 1.36585310e-02 3.90243903e-03
      2.92682927e-03 2.43902439e-03 1.60975531e-02 8.68291929e-02
      2.97560766e-02 4.87804879e-03 2.92682722e-02 1.80487707e-02
      1.46341398e-02 3.12194899e-02 6.76096976e-01 8.64661336e-02
      3.50877196e-02 3.13283200e-03 3.32080163e-02 1.25313282e-03
      2.50626565e-03 5.01253130e-03 4.82456423e-02 6.70426488e-02
      4.13533971e-02 3.75939836e-03 4.26065326e-02 1.56641640e-02
      1.31578976e-02 3.57142873e-02 5.65787613e-01 5.93487397e-02
      1.89075638e-02 3.15126055e-03 3.04621849e-02 2.10084044e-03
      1.57563039e-03 3.67647060e-03 4.30672280e-02 4.62184884e-02
      2.67857146e-02 7.87815172e-03 4.77941185e-02 2.83613447e-02
      1.41806724e-02 4.30672280e-02 6.23428226e-01 9.54353690e-01
      2.68507861e-02 1.15074795e-02 5.37015731e-03 1.91791332e-03 0.</_>
    <_>
      1.29483327e-01 9.98557687e-01 9.95096505e-01 9.90030706e-01
      9.83727932e-01 9.75966930e-01 9.67089951e-01 9.57339406e-01
      9.47276235e-01 9.37228203e-01 9.27329600e-01 9.17478859e-01
      9.08138931e-01 8.99683416e-01 8.92358780e-01 8.85949731e-01
      8.80677044e-01 8.76519918e-01 8.73744905e-01 8.72113049e-01
      8.71633053e-01 1.55509114e-01 1.69362456e-01 1.82054207e-01
      1.70326158e-01 2.61228293e-01 2.33309016e-01 2.61228293e-01
      1.52239159e-01 1.86658621e-01 7.82951117e-02 1.40940681e-01
      2.61228293e-01 2.61228293e-01 2.61228293e-01 1.18050717e-01
      1.26417294e-01 7.63890743e-02 7.53890201e-02 5.84155358e-02
      7.06167221e-02 1.34212106e-01 1.69596761e-01 1.86909959e-01
      1.81199819e-01 1.70609087e-01 9.55636352e-02 8.36032927e-02
      3.67894322e-02 1.03228442e-01 2.61228293e-01 2.61228293e-01
      1.77675933e-01 7.53742307e-02 6.01343922e-02 4.72638533e-02
      3.90114263e-02 5. 2.35649541e-01 8.94308925e-01 1.65609276e+00
      9.78015065e-02 4.22454514e-02 4.82252939e-03 5.96067198e-02
      1.15740742e-03 1.73611112e-03 3.85802379e-03 1.06289238e-01
      3.31790112e-02 1.63965970e-02 1.92901236e-03 2.39197407e-02
      1.65894981e-02 9.06635448e-03 2.37268396e-02 5.57680309e-01
      4.84277904e-02 4.55974834e-03 1.72955985e-03 9.74842720e-03
      6.28930808e-04 4.71698120e-04 1.41509436e-03 2.43710913e-02
      3.91510241e-02 1.55660259e-02 2.83018849e-03 2.10691914e-02
      1.96540914e-02 7.70440558e-03 4.57548238e-02 7.56934643e-01
      1.29808128e-01 4.85578179e-02 5.76923089e-03 6.41828775e-02
      2.64423084e-03 2.64423084e-03 5.04807709e-03 1.07692659e-01
      4.37501073e-02 2.25961804e-02 3.36538465e-03 2.88462043e-02
      2.04327106e-02 1.29807694e-02 2.76442766e-02 4.74040210e-01
      9.59276631e-02 1.93686318e-02 8.84550717e-03 3.41620669e-02
      1.37257890e-03 4.57526301e-04 3.81271867e-03 9.85202640e-02
      1.50983572e-01 1.15906643e-02 6.40536705e-03 7.32041942e-03
      4.68203686e-02 1.29632428e-02 6.20713346e-02 4.39367890e-01
      5.96041441e-01 2.68014371e-01 7.98055902e-02 3.57822068e-02
      1.69754177e-02 3.38099594e-03</_>
    <_>
      1.32537812e-01 9.96381938e-01 9.89723325e-01 9.80844855e-01
      9.70084846e-01 9.58197594e-01 9.45923388e-01 9.33508694e-01
      9.21475589e-01 9.10107732e-01 8.99886668e-01 8.91698837e-01
      8.86351764e-01 8.83337617e-01 8.81206214e-01 8.79671514e-01
      8.79391015e-01 8.79639864e-01 8.79920781e-01 8.80183816e-01
      8.80160451e-01 3.35935168e-02 4.79817986e-02 8.29560235e-02
      2.53323466e-01 2.88745493e-01 2.88745493e-01 2.07204714e-01
      6.07347302e-02 4.33006324e-02 4.00075801e-02 4.79666218e-02
      1.08671948e-01 2.33595282e-01 2.88745493e-01 2.88745493e-01
      1.24529555e-01 4.65980135e-02 3.77810001e-02 8.74816477e-02
      8.65155980e-02 8.63953009e-02 1.56809077e-01 2.88745493e-01
      2.45538101e-01 1.42428041e-01 8.52535963e-02 1.04380898e-01
      9.62233990e-02 8.50799233e-02 8.56601894e-02 1.72790810e-01
      2.88745493e-01 2.16378883e-01 1.10037886e-01 1.04419999e-01
      1.22682221e-01 4.44999981e+00 3.67647052e-01 8.43283594e-01
      3.66740704e-01 8.81249383e-02 2.93749887e-02 5.62499929e-03
      6.62499592e-02 1.24999997e-03 1.87499996e-03 3.74999968e-03
      1.21874906e-01 1.14374913e-01 1.87499989e-02 2.49999994e-03
      1.87499989e-02 2.56249923e-02 8.74999911e-03 4.43749763e-02
      4.48754340e-01 3.89686413e-02 1.25136329e-02 4.45116172e-03
      1.67128388e-02 2.09960528e-03 2.51952617e-04 1.17577903e-03
      2.77988333e-02 4.63591404e-02 2.40195170e-02 4.03124001e-03
      2.23398209e-02 2.53632739e-02 6.88670762e-03 6.37436137e-02
      7.03273773e-01 8.38671923e-02 2.97365040e-02 3.02706519e-03
      6.76636025e-02 7.65669765e-03 1.78062677e-04 2.13675224e-03
      1.03097826e-01 1.07193239e-01 2.29700990e-02 4.45156684e-03
      2.11894661e-02 2.88461875e-02 1.08618205e-02 4.64742929e-02
      4.60659206e-01 9.46219340e-02 3.21869031e-02 3.35097057e-03
      3.95944491e-02 2.64550268e-04 8.81834203e-05 2.29276926e-03
      6.85191527e-02 8.88017192e-02 1.92239508e-02 3.08642024e-03
      1.71075538e-02 3.33333090e-02 8.90651438e-03 4.27691117e-02
      5.45849442e-01 7.77391851e-01 1.74893364e-01 3.40645947e-02
      8.10481422e-03 3.10786115e-03 2.43753800e-03</_>
    <_>
      1.17989138e-01 9.98727679e-01 9.95546281e-01 9.90585089e-01
      9.83794451e-01 9.75774527e-01 9.66576099e-01 9.56432760e-01
      9.45809007e-01 9.34848428e-01 9.23904181e-01 9.13284242e-01
      9.03203130e-01 8.93935263e-01 8.85688663e-01 8.78600597e-01
      8.72699320e-01 8.68073404e-01 8.64739716e-01 8.62717211e-01
      8.62056434e-01 7.54779875e-02 1.10573590e-01 1.25461116e-01
      2.82415390e-01 2.82415390e-01 2.15585947e-01 8.24609175e-02
      5.12624234e-02 5.05118221e-02 4.06548344e-02 8.83098319e-02
      2.82415390e-01 2.82415390e-01 2.82415390e-01 1.17480658e-01
      6.49385974e-02 4.38397489e-02 3.04121561e-02 3.77291031e-02
      4.22750041e-02 1.35051146e-01 2.82415390e-01 2.82415390e-01
      2.25501522e-01 9.81066823e-02 3.40337232e-02 3.11056394e-02
      3.59219164e-02 6.06918931e-02 2.82415390e-01 2.82415390e-01
      2.41378382e-01 8.10239837e-02 4.34166603e-02 1.85424183e-02
      2.88457759e-02 3.31578946e+00 2.03947365e-01 8.96449685e-01
      1.71341074e+00 4.99406606e-02 2.79429238e-02 6.24256814e-03
      5.38051315e-02 1.12960758e-02 3.56718176e-03 5.05350763e-03
      1.03448205e-01 4.28062528e-02 1.48632573e-02 3.56718176e-03
      1.60523187e-02 2.58620679e-02 9.21521988e-03 2.46730074e-02
      6.01668835e-01 4.08163248e-03 7.23562157e-03 5.28754815e-02
      7.23562157e-03 1.85528756e-04 0. 9.27643792e-04 1.55844158e-02
      4.10017595e-02 9.83302388e-03 2.22634501e-03 1.59554724e-02
      1.59554724e-02 6.49350649e-03 3.30241024e-02 7.87406087e-01
      1.42464995e-01 4.86655645e-02 3.92464688e-03 5.69072887e-02
      2.74725282e-03 3.92464688e-03 4.70957626e-03 1.05573118e-01
      4.74881753e-02 1.80533826e-02 5.10204118e-03 2.35478915e-02
      1.49136642e-02 9.41915531e-03 1.88383125e-02 4.93722767e-01
      5.92593253e-02 1.65079348e-02 3.70370001e-02 4.02116179e-02
      1.48148159e-03 8.46560870e-04 2.32804264e-03 5.52381426e-02
      1.52593091e-01 2.13756394e-02 4.65608528e-03 9.73545108e-03
      6.58202022e-02 1.18518537e-02 8.08467269e-02 4.40200090e-01
      7.59028494e-01 1.75079197e-01 3.88595574e-02 1.72122493e-02
      8.76451936e-03 1.05596625e-03</_>
    <_>
      1.63394421e-01 9.97679114e-01 9.91915822e-01 9.83081102e-01
      9.71854329e-01 9.58347440e-01 9.43136215e-01 9.26222324e-01
      9.08121943e-01 8.89598489e-01 8.71045411e-01 8.52804482e-01
      8.35242987e-01 8.18984330e-01 8.04045260e-01 7.90899277e-01
      7.79783845e-01 7.70989716e-01 7.64496565e-01 7.60847449e-01
      7.59630680e-01 2.20067099e-01 1.92449614e-01 1.40692130e-01
      2.14401156e-01 2.20067099e-01 1.72890678e-01 1.16671480e-01
      8.94614086e-02 1.32016286e-01 2.19804138e-01 2.11692050e-01
      2.11517960e-01 2.20067099e-01 2.20067099e-01 1.23583898e-01
      6.22317716e-02 7.66989365e-02 1.20929077e-01 2.20067099e-01
      1.47405118e-01 7.44132698e-02 8.86394680e-02 1.11959517e-01
      1.19663261e-01 1.24989375e-01 1.66973501e-01 2.20067099e-01
      2.06586644e-01 1.65495098e-01 1.79033175e-01 2.20067099e-01
      2.19438896e-01 6.83551356e-02 8.76745507e-02 1.29500866e-01
      1.57029495e-01 3.55555558e+00 2.05555558e-01 8.73170733e-01 0. 0.
      0. 0. 0. 0. 0. 0. 0. 0. 0. 0. 0. 0. 0. 0. 0. 7.08791241e-02
      8.79120920e-03 3.29670333e-03 9.34065972e-03 1.64835178e-03
      1.09890115e-03 5.49450575e-04 1.26373628e-02 6.42857179e-02
      1.20879123e-02 3.84615385e-03 7.14285718e-03 1.75824184e-02
      3.84615385e-03 3.68131883e-02 7.46153891e-01 3.17460336e-02
      1.98412705e-02 8.73015914e-03 5.47619052e-02 2.38095247e-03
      3.96825420e-03 6.34920644e-03 4.04761918e-02 1.42857149e-01
      4.44444455e-02 3.17460322e-03 4.84126993e-02 1.98412705e-02
      5.55555569e-03 3.96825410e-02 5.27781904e-01 1.21843189e-01
      3.78788076e-02 5.05050505e-03 3.91414352e-02 6.31313131e-04
      2.52525252e-03 3.15656560e-03 9.15403068e-02 2.35480294e-01
      4.41919453e-02 3.15656560e-03 2.71464735e-02 2.33585909e-02
      1.64141394e-02 2.33585909e-02 3.25125605e-01 6.88260198e-01
      2.26070866e-01 6.79534674e-02 1.58646218e-02 1.85087253e-03 0.</_>
    <_>
      1.58387452e-01 9.97927189e-01 9.92211521e-01 9.83538985e-01
      9.72637713e-01 9.59951997e-01 9.45635080e-01 9.29809451e-01
      9.12695587e-01 8.94698262e-01 8.76340628e-01 8.58117998e-01
      8.40297401e-01 8.23126972e-01 8.07169139e-01 7.93008149e-01
      7.81294703e-01 7.72429228e-01 7.66403437e-01 7.63054490e-01
      7.61983395e-01 1.73825651e-01 1.26406565e-01 1.26590997e-01
      1.97681770e-01 1.89152583e-01 2.08942652e-01 1.90423429e-01
      2.00519547e-01 1.97573602e-01 1.54546440e-01 1.12576701e-01
      1.82514220e-01 1.88240677e-01 1.73810005e-01 2.08942652e-01
      1.88254237e-01 1.68543234e-01 1.56650111e-01 1.39196172e-01
      1.10535949e-01 1.45312861e-01 1.65019691e-01 1.61493689e-01
      1.94264010e-01 1.70973137e-01 1.65258959e-01 1.89984366e-01
      1.41414210e-01 1.55184343e-01 2.08942652e-01 2.08942652e-01
      1.47565931e-01 1.23699546e-01 9.39373448e-02 9.81770307e-02
      1.03858538e-01 2.85106373e+00 2.43066877e-01 8.98678422e-01
      1.32717922e-01 1.25283286e-01 6.74602687e-02 7.93650746e-03
      1.07709624e-01 3.96825420e-03 1.70068024e-03 4.53514745e-03
      1.09977193e-01 6.00906648e-02 1.41723333e-02 4.53514745e-03
      1.53061198e-02 5.38548492e-02 7.36961374e-03 7.59636536e-02
      3.40138286e-01 1.91553552e-02 3.54449474e-03 1.58371043e-03
      5.24132745e-03 2.63951742e-03 9.80392215e-04 9.80392215e-04
      1.27828056e-02 2.37556566e-02 6.59879344e-03 1.96078443e-03
      9.23831109e-03 1.81372557e-02 3.54449474e-03 3.77828069e-02
      8.52257848e-01 9.64581296e-02 5.38346060e-02 3.94050498e-03
      5.91625459e-02 9.99001088e-04 5.55000559e-04 1.60950189e-03
      7.19829053e-02 7.15944096e-02 2.48639323e-02 2.38650292e-03
      2.19779648e-02 4.58981954e-02 9.15750116e-03 5.01716472e-02
      4.85382915e-01 9.07978415e-02 3.88825499e-02 2.53944611e-03
      4.46275063e-02 3.33041913e-04 6.24453591e-04 1.41542812e-03
      6.56509995e-02 9.21717584e-02 2.01489944e-02 3.33042280e-03
      1.62773933e-02 3.75087559e-02 9.74146463e-03 5.54929674e-02
      5.20486057e-01 7.11597562e-01 2.22457260e-01 3.92817594e-02
      1.69474855e-02 8.60902760e-03 1.10687490e-03</_>
    <_>
      1.42198801e-01 9.98771906e-01 9.95322824e-01 9.90024507e-01
      9.83223021e-01 9.75215375e-01 9.66279924e-01 9.56683040e-01
      9.46721137e-01 9.36708570e-01 9.26935613e-01 9.17711794e-01
      9.09318268e-01 9.01866436e-01 8.95340323e-01 8.89738739e-01
      8.85153949e-01 8.81606042e-01 8.79076242e-01 8.77576292e-01
      8.77083719e-01 5.91561161e-02 7.85948709e-02 1.54505387e-01
      1.76414326e-01 1.93727344e-01 2.38388389e-01 1.95680052e-01
      1.61195844e-01 1.05795465e-01 4.60877195e-02 8.37168396e-02
      2.51568884e-01 2.51568884e-01 2.28462175e-01 2.00590715e-01
      1.27428800e-01 1.35194480e-01 1.00247137e-01 6.05805069e-02
      8.65058824e-02 2.04650953e-01 1.86495095e-01 2.31672809e-01
      2.51568884e-01 1.99081898e-01 1.19845852e-01 7.79477805e-02
      7.50115961e-02 1.66670099e-01 2.51568884e-01 2.51568884e-01
      1.63748607e-01 1.37040943e-01 8.64475444e-02 6.94671720e-02
      8.69818851e-02 3.44897962e+00 2.81350493e-01 8.62500012e-01
      1.24282219e-01 5.42355739e-02 2.22107377e-02 2.58264458e-03
      5.78512847e-02 5.16528904e-04 2.58264458e-03 1.03305781e-03
      9.81403738e-02 1.48760304e-01 3.51239592e-02 1.54958665e-03
      2.68594921e-02 4.95868027e-02 5.68181742e-03 2.58264355e-02
      4.67461675e-01 2.19002329e-02 2.02020304e-03 9.36905039e-04
      3.51339229e-03 5.85565795e-05 5.85565795e-05 1.75669746e-04
      1.72448847e-02 3.24112922e-02 2.37154169e-03 8.19791923e-04
      2.89854966e-03 1.64250750e-02 1.84453337e-03 3.33774351e-02
      8.63698483e-01 5.42318001e-02 3.14924046e-02 5.70857781e-04
      5.27094975e-02 1.90285908e-04 9.51429538e-05 4.28143307e-04
      9.88067240e-02 5.84657043e-02 1.80771146e-02 1.33200164e-03
      2.17877273e-02 2.29770262e-02 4.61443420e-03 3.17778364e-02
      6.02376282e-01 4.05525304e-02 4.84723924e-03 1.70677595e-04
      9.72861331e-03 1.70677595e-04 6.14439487e-04 1.36542076e-04
      3.31111364e-02 9.88246575e-02 1.33470045e-02 5.46168420e-04
      1.15036732e-02 2.16759667e-02 3.55009525e-03 3.19505520e-02
      7.29320586e-01 8.78034890e-01 8.70771930e-02 2.79881712e-02
      6.48474786e-03 4.15023853e-04 0.</_>
    <_>
      1.23344608e-01 9.98207033e-01 9.93891418e-01 9.87221777e-01
      9.78515804e-01 9.67675984e-01 9.55756485e-01 9.42919075e-01
      9.29294407e-01 9.14988458e-01 9.00745451e-01 8.86780143e-01
      8.73176157e-01 8.60442638e-01 8.49002182e-01 8.39057624e-01
      8.30511510e-01 8.23952317e-01 8.19156170e-01 8.16283643e-01
      8.15176189e-01 1.99931547e-01 1.93897069e-01 1.66063040e-01
      2.30537996e-01 2.30537996e-01 2.30537996e-01 2.06841290e-01
      1.46029025e-01 1.23141408e-01 4.82890457e-02 8.48275349e-02
      1.72689214e-01 2.30537996e-01 2.10132003e-01 9.53935236e-02
      7.26046786e-02 5.92569262e-02 4.65006642e-02 1.85963929e-01
      1.99166432e-01 1.99409500e-01 2.30537996e-01 2.01645955e-01
      2.15467975e-01 2.07779229e-01 1.82325602e-01 1.24855660e-01
      5.41473068e-02 9.72847119e-02 2.30537996e-01 2.30537996e-01
      1.47947654e-01 5.77020980e-02 4.68743183e-02 4.98611778e-02
      4.78721522e-02 7.83333349e+00 2.14611873e-01 8.97119343e-01
      1.58245838e+00 1.19047470e-01 4.42176796e-02 4.53514745e-03
      3.51474024e-02 1.13378686e-03 5.66893432e-04 3.96825420e-03
      7.42629766e-02 6.06575571e-02 2.15419549e-02 2.26757373e-03
      1.87074840e-02 1.92743782e-02 5.66893397e-03 1.92743782e-02
      5.69732666e-01 5.81501834e-02 4.12087934e-03 2.74725282e-03
      6.86813192e-03 2.28937739e-03 1.37362641e-03 2.74725282e-03
      1.19047621e-02 6.45604432e-02 1.78571437e-02 4.12087934e-03
      2.06043962e-02 2.15201471e-02 2.28937739e-03 2.74725277e-02
      7.51383781e-01 1.11627720e-01 5.84717020e-02 9.96677671e-03
      5.91361523e-02 3.98671068e-03 3.32225906e-03 5.31561393e-03
      8.30563605e-02 8.30563605e-02 2.92358864e-02 6.64451718e-03
      3.72092947e-02 2.65780780e-02 1.12956809e-02 2.12624613e-02
      4.49832052e-01 1.21590808e-01 2.65151355e-02 7.57575873e-03
      3.40908878e-02 3.78787867e-04 7.57575734e-04 4.16666688e-03
      7.72726685e-02 2.10227087e-01 1.81818102e-02 3.40909092e-03
      1.43939340e-02 4.73484509e-02 1.28787840e-02 3.06817982e-02
      3.90529960e-01 7.68364727e-01 1.60760432e-01 4.81727570e-02
      1.71650052e-02 5.53709874e-03 0.</_>
    <_>
      1.44396916e-01 9.97985184e-01 9.93131578e-01 9.85574007e-01
      9.75234628e-01 9.62645411e-01 9.48368847e-01 9.32188749e-01
      9.14873302e-01 8.96945596e-01 8.78522635e-01 8.60181451e-01
      8.42809319e-01 8.26279998e-01 8.11047971e-01 7.97686517e-01
      7.86246717e-01 7.76928008e-01 7.70255446e-01 7.65992582e-01
      7.64402986e-01 1.52623415e-01 1.00693665e-01 8.84127393e-02
      9.33920741e-02 1.15586281e-01 9.46421996e-02 1.56862095e-01
      1.52879938e-01 1.80264235e-01 1.14413470e-01 8.90122727e-02
      1.36930317e-01 1.80528760e-01 1.04859285e-01 7.45363757e-02
      1.18320785e-01 1.25358224e-01 1.43049955e-01 2.51585603e-01
      2.51585603e-01 2.42435366e-01 1.57197192e-01 1.68113306e-01
      1.40941948e-01 2.51585603e-01 2.12336317e-01 2.51585603e-01
      1.50691152e-01 2.10101113e-01 2.51585603e-01 2.51585603e-01
      1.39954194e-01 7.71252811e-02 1.27241120e-01 8.52414742e-02
      1.82555825e-01 1.79999995e+00 2.69005835e-01 8.85416687e-01
      1.20601428e+00 5.47839254e-02 3.54938135e-02 6.94444450e-03
      7.02160150e-02 7.71604944e-04 4.62962966e-03 4.62962966e-03
      6.24999702e-02 3.16357911e-02 2.70061623e-02 6.94444450e-03
      4.24382538e-02 2.31481399e-02 6.94444450e-03 2.62345579e-02
      5.95679462e-01 2.30536610e-02 1.51171582e-03 1.88964477e-03
      5.66893350e-03 3.77928955e-04 7.55857909e-04 1.13378686e-03
      7.55857769e-03 6.42480627e-02 7.55857769e-03 2.64550280e-03
      1.70067996e-02 2.94784512e-02 6.42479118e-03 4.57294621e-02
      7.84971356e-01 1.09011672e-01 3.05232648e-02 7.99418520e-03
      6.17732778e-02 1.45348837e-03 7.26744183e-04 5.08720893e-03
      7.34011903e-02 7.04942122e-02 2.61627976e-02 6.54069707e-03
      2.32558195e-02 2.83430312e-02 7.99418520e-03 4.72383872e-02
      4.99995083e-01 1.33721262e-01 3.48836966e-02 4.22832975e-03
      3.91120203e-02 2.06131041e-02 1.58562372e-03 1.58562372e-03
      1.21564746e-01 1.63848281e-01 2.06131041e-02 2.64270604e-03
      1.47991572e-02 1.16279088e-02 5.81395393e-03 8.98520183e-03
      4.14378226e-01 7.04498768e-01 2.21055031e-01 5.82324713e-02
      1.48435719e-02 1.37017586e-03 0.</_>
    <_>
      1.82913288e-01 9.98244405e-01 9.93542552e-01 9.86094594e-01
      9.76181090e-01 9.63973284e-01 9.49907899e-01 9.34275270e-01
      9.17530894e-01 9.00018334e-01 8.82113278e-01 8.64336669e-01
      8.47154438e-01 8.30965936e-01 8.16045582e-01 8.02807808e-01
      7.91561365e-01 7.82579362e-01 7.75866926e-01 7.71754920e-01
      7.70293534e-01 1.34503365e-01 1.05050951e-01 7.08105788e-02
      7.64065906e-02 1.26935661e-01 1.86481044e-01 2.33327150e-01
      2.33327150e-01 1.54432774e-01 1.44580245e-01 1.07776500e-01
      1.58740774e-01 2.33327150e-01 2.33327150e-01 1.15677796e-01
      1.96874991e-01 1.92473993e-01 1.60197183e-01 1.43948242e-01
      1.56006888e-01 1.47154316e-01 1.24203831e-01 1.55303001e-01
      2.26930887e-01 2.33327150e-01 2.14688286e-01 1.86185807e-01
      7.30847195e-02 1.44302711e-01 2.33327150e-01 2.33327150e-01
      1.81578860e-01 7.70844445e-02 1.11067623e-01 8.24997574e-02
      8.09903443e-02 3.58333325e+00 2.02479333e-01 8.99253726e-01 0. 0.
      0. 0. 0. 0. 0. 0. 0. 0. 0. 0. 0. 0. 0. 0. 0. 4.28570807e-02
      3.98671022e-03 3.32225859e-03 7.64119672e-03 1.66112953e-03
      1.66112953e-03 1.99335534e-03 2.19268985e-02 6.01327866e-02
      1.16279088e-02 3.32225859e-03 9.63455252e-03 3.52159031e-02
      5.64784044e-03 5.91361113e-02 7.30246305e-01 1.75820172e-01
      5.94263412e-02 4.50819591e-03 6.59837127e-02 5.73770376e-03
      2.04918021e-03 4.50819591e-03 1.32786810e-01 9.09835920e-02
      2.29508150e-02 2.04918021e-03 1.31147513e-02 2.25409791e-02
      1.27049154e-02 2.82786824e-02 3.56560290e-01 1.15305915e-01
      7.82313105e-03 6.12244988e-03 1.19047603e-02 1.02040824e-03
      1.02040824e-03 1.02040824e-03 1.07482836e-01 1.85713634e-01
      9.86394566e-03 1.02040824e-03 6.12244988e-03 8.16326682e-03
      4.76190494e-03 1.02040814e-02 5.22448182e-01 5.83205879e-01
      3.02844912e-01 9.02416632e-02 1.92719493e-02 3.97675112e-03
      4.58855910e-04</_>
    <_>
      1.82351708e-01 9.98083591e-01 9.92730916e-01 9.84385133e-01
      9.73455250e-01 9.60372567e-01 9.45379317e-01 9.28678751e-01
      9.10729587e-01 8.91990900e-01 8.72949600e-01 8.54124904e-01
      8.35988045e-01 8.18865299e-01 8.03121746e-01 7.89109349e-01
      7.77134538e-01 7.67606080e-01 7.60824800e-01 7.56782174e-01
      7.55438447e-01 8.14640000e-02 7.39162117e-02 8.54514390e-02
      1.10119440e-01 2.06011683e-01 2.34307244e-01 2.34307244e-01
      1.22873060e-01 9.59641933e-02 7.99677446e-02 1.24349564e-01
      2.12850556e-01 2.34307244e-01 2.34307244e-01 1.79549351e-01
      1.36681810e-01 9.71515998e-02 1.01466462e-01 1.34157240e-01
      2.34307244e-01 2.34307244e-01 1.75528526e-01 2.29023576e-01
      2.34307244e-01 2.34307244e-01 1.04873650e-01 8.04425701e-02
      7.32550174e-02 2.34307244e-01 2.34307244e-01 2.34307244e-01
      1.20723628e-01 1.02096096e-01 7.40196109e-02 4.35487777e-02
      3.46057825e-02 3.43750000e+00 1.69230774e-01 8.97506952e-01
      3.45808536e-01 3.80622856e-02 2.42214464e-02 5.19031147e-03
      4.49827127e-02 6.92041544e-03 3.46020772e-03 6.92041544e-03
      1.31487817e-01 2.59515494e-02 1.29757766e-02 6.05536345e-03
      2.33563948e-02 2.42214464e-02 8.65051895e-03 4.67128195e-02
      5.90827286e-01 6.57306761e-02 4.07000422e-04 2.03500211e-04
      2.64550326e-03 0. 2.03500211e-04 0. 1.20065156e-02 4.37525809e-02
      5.90150524e-03 1.42450165e-03 1.15995146e-02 2.42165066e-02
      3.25600407e-03 5.65731712e-02 7.72056699e-01 1.37137786e-01
      4.80901375e-02 4.83203074e-03 4.50988859e-02 1.15048327e-03
      9.20386577e-04 2.30096653e-03 1.09986037e-01 7.77725577e-02
      1.81776211e-02 2.30096653e-03 1.97882950e-02 2.39300281e-02
      4.37183725e-03 3.38241681e-02 4.70327973e-01 8.66323113e-02
      9.15283151e-03 4.46998747e-03 3.06512788e-02 6.38569589e-04
      1.91570900e-03 1.91570900e-03 8.87608677e-02 1.60707325e-01
      1.34099629e-02 1.70285243e-03 1.04299709e-02 1.61770955e-02
      8.30140524e-03 1.83056518e-02 5.46820223e-01 5.84152579e-01
      3.26582789e-01 6.17381036e-02 2.22178530e-02 4.52221790e-03
      7.86472694e-04</_>
    <_>
      1.53941229e-01 9.98264551e-01 9.93728578e-01 9.86763716e-01
      9.77730036e-01 9.66872156e-01 9.54369664e-01 9.40622628e-01
      9.26014364e-01 9.10741746e-01 8.95141125e-01 8.79645824e-01
      8.64639759e-01 8.50496948e-01 8.37538302e-01 8.26136470e-01
      8.16746652e-01 8.09481144e-01 8.04281950e-01 8.01156461e-01
      8.00018430e-01 6.15496822e-02 5.98909259e-02 4.18463014e-02
      6.59698248e-02 1.41965255e-01 2.31622696e-01 2.31622696e-01
      1.72229901e-01 7.34830573e-02 7.27115795e-02 8.93348157e-02
      1.15691103e-01 2.31622696e-01 2.31622696e-01 2.02909663e-01
      2.31622696e-01 1.27263352e-01 8.31029788e-02 1.23372585e-01
      1.84890702e-01 1.19857959e-01 1.62286952e-01 2.07753599e-01
      2.31622696e-01 2.31622696e-01 2.02222303e-01 1.21998385e-01
      6.61122203e-02 2.10355967e-01 2.31622696e-01 2.31622696e-01
      1.83325648e-01 1.68438330e-01 2.13196740e-01 7.92694837e-02
      6.19465001e-02 2.77777767e+00 2.78481007e-01 8.97338390e-01
      6.74466193e-01 4.29362655e-02 4.22437452e-02 4.15512454e-03
      7.27146938e-02 3.46260378e-03 3.46260378e-03 9.00276937e-03
      1.71745121e-01 2.63157766e-02 9.69528966e-03 5.54016605e-03
      2.90858578e-02 1.93905737e-02 7.61772832e-03 2.97783781e-02
      5.22852004e-01 7.45882764e-02 1.10588204e-02 1.41176477e-03
      1.15294084e-02 0. 0. 0. 1.27058784e-02 2.61176769e-02
      1.17647024e-02 9.41176491e-04 1.48235243e-02 2.09411886e-02
      2.82352977e-03 8.14118832e-02 7.29899764e-01 1.42391831e-01
      5.43477423e-02 3.62318894e-03 6.77535608e-02 2.17391318e-03
      1.81159424e-03 2.89855106e-03 1.69565961e-01 7.10144565e-02
      1.23188430e-02 2.89855106e-03 1.99275296e-02 2.17391197e-02
      6.15942152e-03 3.47825699e-02 3.86591047e-01 4.34515290e-02
      8.93682428e-03 3.38983070e-03 3.32820117e-02 2.46533123e-03
      3.08166404e-04 2.15716474e-03 1.37441918e-01 1.54699489e-01
      9.55315679e-03 1.23266561e-03 6.47149375e-03 1.75654851e-02
      3.69799719e-03 1.63328163e-02 5.59004784e-01 5.56112647e-01
      2.96121508e-01 1.01902373e-01 3.21486518e-02 1.25350244e-02
      1.17976696e-03</_>
    <_>
      9.14351866e-02 9.98928308e-01 9.96505201e-01 9.93027747e-01
      9.88804042e-01 9.83898103e-01 9.78424549e-01 9.72733676e-01
      9.67048466e-01 9.61548209e-01 9.56288397e-01 9.51777697e-01
      9.47924435e-01 9.44770455e-01 9.42176998e-01 9.40141439e-01
      9.38678265e-01 9.37663674e-01 9.36858416e-01 9.36192214e-01
      9.35974419e-01 2.44971737e-01 2.44971737e-01 2.44971737e-01
      2.44971737e-01 2.23004296e-01 2.44971737e-01 2.44971737e-01
      2.44971737e-01 2.44971737e-01 1.20447405e-01 1.69669315e-01
      2.44971737e-01 2.44971737e-01 1.87864944e-01 6.97915256e-02
      9.30494890e-02 6.70123324e-02 7.75244460e-02 1.09258823e-01
      8.66137818e-02 7.25609884e-02 6.42121211e-02 7.68188015e-02
      1.51466340e-01 1.58935785e-01 1.23556763e-01 1.34160474e-01
      4.96818572e-02 6.42357394e-02 1.95105538e-01 2.44971737e-01
      8.85405615e-02 8.97988677e-02 7.59040043e-02 3.73803787e-02
      3.40641141e-02 6.11111116e+00 3.11881185e-01 8.85462582e-01
      1.43658268e+00 7.17993304e-02 5.53633533e-02 1.21107250e-02
      1.12456664e-01 6.92041544e-03 4.32525948e-03 6.05536345e-03
      1.41868502e-01 6.57439828e-02 1.73010342e-02 6.92041544e-03
      2.85467040e-02 2.33563948e-02 7.78546743e-03 2.68166009e-02
      4.12628561e-01 6.59829676e-02 7.17948517e-03 1.02564099e-03
      1.19658075e-02 5.81196463e-03 4.10256395e-03 3.07692308e-03
      3.04273758e-02 3.72649953e-02 1.12820473e-02 4.78632422e-03
      1.29914479e-02 2.01709438e-02 6.83760503e-03 5.50428107e-02
      7.22066164e-01 2.00000316e-01 8.42592791e-02 5.55555569e-03
      7.87037089e-02 9.25925910e-04 0. 1.85185182e-03 1.15740843e-01
      4.16666605e-02 3.33333388e-02 7.40740774e-03 2.96296366e-02
      1.29629616e-02 9.25925933e-03 1.48148127e-02 3.63889635e-01
      1.19687401e-01 1.03124985e-02 2.49999971e-03 2.18749885e-02 0. 0.
      1.87499984e-03 8.46874341e-02 2.10001841e-01 1.53124938e-02
      1.87499984e-03 1.09374980e-02 4.21874709e-02 7.50000123e-03
      3.78124751e-02 4.33444440e-01 6.26727283e-01 2.76893467e-01
      5.09008206e-02 2.64124535e-02 1.62672736e-02 2.79867067e-03</_>
    <_>
      1.44438624e-01 9.97805774e-01 9.91795003e-01 9.82487142e-01
      9.70279455e-01 9.55423832e-01 9.38347816e-01 9.19572830e-01
      8.99613559e-01 8.78876865e-01 8.57761621e-01 8.36820006e-01
      8.16483080e-01 7.97306657e-01 7.79679656e-01 7.64034748e-01
      7.50732362e-01 7.40140557e-01 7.32572675e-01 7.28197515e-01
      7.26802051e-01 2.87209544e-02 1.56206712e-02 3.28345448e-02
      5.82426861e-02 2.23285869e-01 2.57350415e-01 2.57350415e-01
      1.91338271e-01 9.30600092e-02 1.00004360e-01 7.71020353e-02
      1.76477179e-01 2.15867907e-01 2.00463921e-01 2.57350415e-01
      2.57350415e-01 2.57350415e-01 1.42820984e-01 3.74170952e-02
      4.40732576e-02 1.54601395e-01 1.30026862e-01 2.57350415e-01
      2.57350415e-01 1.96249053e-01 8.36633295e-02 4.62047085e-02
      7.02856556e-02 8.10093805e-02 2.53204614e-01 1.94049254e-01
      1.47884727e-01 1.64787114e-01 1.30038217e-01 6.88384548e-02
      5.60532473e-02 2.05128217e+00 1.86475411e-01 8.96869242e-01 0. 0.
      0. 0. 0. 0. 0. 0. 0. 0. 0. 0. 0. 0. 0. 0. 0. 2.04886701e-02
