<?xml version="1.0"?>
<opencv_storage>
<my_svm type_id="opencv-ml-svm">
  <svm_type>C_SVC</svm_type>
  <kernel><type>RBF</type>
    <gamma>5.0625000000000009e-001</gamma></kernel>
  <C>1.2500000000000000e+001</C>
  <term_criteria><epsilon>1.1920928955078125e-007</epsilon>
    <iterations>1000</iterations></term_criteria>
  <var_all>131</var_all>
  <var_count>131</var_count>
  <class_count>2</class_count>
  <class_labels type_id="opencv-matrix">
    <rows>1</rows>
    <cols>2</cols>
    <dt>i</dt>
    <data>
      -1 1</data></class_labels>
  <class_weights type_id="opencv-matrix">
    <rows>1</rows>
    <cols>2</cols>
    <dt>d</dt>
    <data>
      5.7817589491605759e+000 6.7182406783103943e+000</data></class_weights>
  <sv_total>133</sv_total>
  <support_vectors>
    <_>
      1.30309999e-001 9.96990025e-001 9.89160001e-001 9.77050006e-001
      9.60879982e-001 9.41470027e-001 9.19350028e-001 8.94890010e-001
      8.68709981e-001 8.41340005e-001 8.13480020e-001 7.85560012e-001
      7.58239985e-001 7.32320011e-001 7.08419979e-001 6.87070012e-001
      6.68770015e-001 6.54229999e-001 6.43639982e-001 6.37310028e-001
      6.35249972e-001 2.35740006e-001 2.02639997e-001 1.88690007e-001
      1.18759997e-001 1.02629997e-001 1.64309993e-001 1.55430004e-001
      2.30049998e-001 2.35740006e-001 1.99070007e-001 1.99880004e-001
      2.35740006e-001 2.24500000e-001 1.57140002e-001 1.08829997e-001
      9.35169980e-002 8.41279998e-002 2.35740006e-001 2.35740006e-001
      2.32769996e-001 2.35740006e-001 1.32900000e-001 8.53049979e-002
      1.06059998e-001 7.70310014e-002 1.26220003e-001 2.35740006e-001
      6.39609993e-002 1.48379996e-001 2.35740006e-001 1.37319997e-001
      5.28559983e-002 2.85390001e-002 2.68140007e-002 3.02949995e-002
      5.37840016e-002 2.35710001e+000 1.46249995e-001 8.93620014e-001
      1.13220000e+000 1.35800004e-001 4.24380004e-002 3.85800004e-003
      4.86110002e-002 0. 0. 3.08639999e-003 9.18210000e-002
      9.64509994e-002 3.47220004e-002 1.69750005e-002 5.47839999e-002
      2.39199996e-002 9.25930031e-003 4.47530001e-002 3.93519998e-001
      6.66199997e-002 1.22720003e-002 1.40249997e-003 1.40249999e-002 0.
      0. 3.50629998e-004 4.17249985e-002 5.85560016e-002 1.68299992e-002
      1.82329994e-002 3.85700017e-002 4.41799983e-002 4.20759991e-003
      7.39829987e-002 6.09049976e-001 1.41230002e-001 5.16830012e-002
      3.00480006e-003 4.98800017e-002 0. 6.00959989e-004 4.80769994e-003
      7.75239989e-002 1.05169997e-001 3.60580012e-002 2.16349997e-002
      4.92790006e-002 2.94470005e-002 8.41350015e-003 4.08650003e-002
      3.80409986e-001 1.29390001e-001 3.36700007e-002 5.29100001e-003
      2.50119995e-002 4.80999995e-004 4.80999995e-004 2.88600009e-003
      1.07740000e-001 2.28949994e-001 3.31889987e-002 2.83790007e-002
      3.41509990e-002 3.31889987e-002 1.39490003e-002 1.58730000e-002
      3.07359993e-001 4.71659988e-001 2.53569990e-001 1.31090000e-001
      8.63049999e-002 4.82340008e-002 9.13009979e-003</_>
    <_>
      1.21500000e-001 9.98030007e-001 9.93409991e-001 9.86530006e-001
      9.77349997e-001 9.66250002e-001 9.53639984e-001 9.39790010e-001
      9.25360024e-001 9.10849988e-001 8.96350026e-001 8.82390022e-001
      8.69409978e-001 8.57379973e-001 8.46870005e-001 8.37830007e-001
      8.30540001e-001 8.24940026e-001 8.21020007e-001 8.18669975e-001
      8.17870021e-001 5.63779995e-002 1.32689998e-001 2.74459988e-001
      2.74459988e-001 2.74459988e-001 1.63320005e-001 9.66660008e-002
      8.23500007e-002 9.66669992e-002 4.14940007e-002 5.57160005e-002
      2.55419999e-001 2.74459988e-001 2.66200006e-001 6.24150001e-002
      3.58339995e-002 3.40359993e-002 3.98969986e-002 3.51389982e-002
      1.20190002e-001 2.74459988e-001 2.74459988e-001 2.74459988e-001
      1.58730000e-001 1.15330003e-001 9.83930007e-002 7.20160007e-002
      2.26029996e-002 6.53520003e-002 2.74459988e-001 2.74459988e-001
      1.40459999e-001 4.42489982e-002 2.97459997e-002 2.80380007e-002
      1.86770000e-002 2.15790009e+000 1.78259999e-001 8.51300001e-001 0.
      0. 0. 0. 0. 0. 0. 0. 0. 0. 0. 0. 0. 0. 0. 0. 0. 4.33109999e-002
      1.01429997e-002 2.46710004e-003 2.13820003e-002 2.74119986e-004
      5.48249984e-004 8.22369999e-004 4.33109999e-002 1.03890002e-001
      2.90569998e-002 1.42540000e-002 4.68750000e-002 4.38599996e-002
      6.30480004e-003 4.82460000e-002 5.85250020e-001 1.77630007e-001
      5.38280010e-002 2.39229994e-003 6.33969977e-002 0. 1.19620003e-003
      2.39229994e-003 1.13040000e-001 7.89479986e-002 2.39230003e-002
      1.43539999e-002 5.20340018e-002 1.43539999e-002 6.57900004e-003
      2.57179998e-002 3.70209992e-001 9.38209966e-002 1.83070004e-002
      4.57669981e-003 2.86040008e-002 7.62780022e-004 0. 6.10220013e-003
      1.08700000e-001 2.13960007e-001 2.13580001e-002 2.17390005e-002
      2.78409999e-002 5.98779991e-002 5.33939991e-003 4.46220003e-002
      3.44390005e-001 7.14179993e-001 2.07859993e-001 4.07470018e-002
      2.33890004e-002 1.23570003e-002 1.47100003e-003</_>
    <_>
      1.65390000e-001 9.96330023e-001 9.92219985e-001 9.88219976e-001
      9.85769987e-001 9.83860016e-001 9.82800007e-001 9.82110023e-001
      9.81819987e-001 9.81570005e-001 9.81159985e-001 9.80130017e-001
      9.78179991e-001 9.75589991e-001 9.73959982e-001 9.73990023e-001
      9.74340022e-001 9.73659992e-001 9.72419977e-001 9.71930027e-001
      9.71660018e-001 7.66609982e-002 1.44610003e-001 2.35389993e-001
      2.35389993e-001 2.35389993e-001 2.00010002e-001 7.49320015e-002
      5.37550002e-002 5.48989996e-002 5.92730008e-002 1.39019996e-001
      2.35389993e-001 2.35389993e-001 2.35389993e-001 2.35389993e-001
      1.78450003e-001 8.55370015e-002 8.35419968e-002 5.30349985e-002
      9.89049971e-002 1.49350002e-001 1.60469994e-001 2.35389993e-001
      2.35389993e-001 8.52280036e-002 4.98780012e-002 5.06719984e-002
      6.90649971e-002 1.51060000e-001 2.08939999e-001 2.35389993e-001
      2.35389993e-001 2.35389993e-001 1.45429999e-001 9.80189964e-002
      1.02310002e-001 6. 2.96240002e-001 8.97300005e-001 4.39810008e-001
      6.60429969e-002 8.63099992e-002 1.84239994e-003 1.36910006e-001 0.
      0. 9.92060057e-004 8.43259990e-002 1.11539997e-001 2.87699997e-002
      7.93650001e-003 3.76980007e-002 7.63889998e-002 1.13380002e-002
      6.54769987e-002 2.84440011e-001 3.08330003e-002 3.02269999e-002
      5.42610011e-004 3.35780010e-002 0. 3.19179999e-005 1.27670006e-004
      4.66969982e-002 7.29969963e-002 2.11299993e-002 7.21349986e-003
      2.11299993e-002 3.69290002e-002 4.62820008e-003 8.29880014e-002
      6.11050010e-001 5.17419986e-002 8.19159970e-002 2.07179994e-003
      1.10069998e-001 5.31240003e-005 2.12490006e-004 1.59370003e-003
      9.64180008e-002 7.03350008e-002 2.19930001e-002 3.98429995e-003
      2.95899995e-002 4.78640012e-002 7.80919986e-003 6.00290000e-002
      4.14350003e-001 4.06400003e-002 3.34470011e-002 3.02700000e-003
      4.20180000e-002 8.99119987e-005 1.19880002e-004 2.12790002e-003
      4.45059985e-002 6.93219975e-002 1.87020004e-002 7.79230008e-003
      1.96010005e-002 5.90110011e-002 9.56059992e-003 8.11010003e-002
      5.69029987e-001 7.27840006e-001 2.24920005e-001 3.31460014e-002
      9.86909959e-003 4.07129992e-003 1.49209998e-004</_>
    <_>
      1.98440000e-001 9.96450007e-001 9.88479972e-001 9.77779984e-001
      9.65279996e-001 9.52180028e-001 9.39450026e-001 9.27969992e-001
      9.17309999e-001 9.08379972e-001 9.01849985e-001 8.97159994e-001
      8.93840015e-001 8.90990019e-001 8.88130009e-001 8.84130001e-001
      8.79369974e-001 8.75289977e-001 8.72349977e-001 8.70310009e-001
      8.69520009e-001 7.52720013e-002 1.05630003e-001 1.21140003e-001
      2.64160007e-001 2.77280003e-001 2.77280003e-001 1.70410007e-001
      1.66010007e-001 1.19159997e-001 3.87360007e-002 8.53239968e-002
      1.13210000e-001 1.53080001e-001 2.32899994e-001 1.12240002e-001
      6.04510009e-002 4.43219990e-002 3.97940017e-002 7.45289996e-002
      1.13679998e-001 1.97840005e-001 2.77280003e-001 2.77280003e-001
      2.77280003e-001 2.60749996e-001 1.60420001e-001 9.94620025e-002
      5.38149998e-002 1.03950001e-001 1.38889998e-001 1.81299999e-001
      2.44729996e-001 1.46909997e-001 8.70610029e-002 5.58089986e-002
      4.88939993e-002 2.90910006e+000 2.29300007e-001 8.29789996e-001
      1.75779998e+000 8.05779994e-002 2.22110003e-002 4.13220003e-003
      2.73759998e-002 0. 0. 1.54960004e-003 5.63019998e-002
      1.25520006e-001 1.85950007e-002 1.29129998e-002 4.85539995e-002
      4.59709987e-002 1.18800001e-002 3.82229984e-002 5.06200016e-001
      7.14289993e-002 1.58159994e-002 1.02039997e-003 2.44900007e-002 0.
      5.10199985e-004 1.02039997e-003 6.83669969e-002 6.83669969e-002
      1.47960000e-002 2.60199998e-002 3.92859988e-002 5.56120016e-002
      9.69390012e-003 7.34689981e-002 5.30110002e-001 9.85720009e-002
      3.42859998e-002 2.14289990e-003 5.92859983e-002 0. 0.
      2.14289990e-003 9.64289978e-002 1.58570006e-001 2.14290004e-002
      1.49999997e-002 5.49999997e-002 3.99999991e-002 1.07140001e-002
      3.21430005e-002 3.74280006e-001 7.33620003e-002 3.20510007e-002
      6.41029980e-003 5.12819998e-002 0. 7.12250010e-004 0.
      7.05130026e-002 1.23219997e-001 2.70649996e-002 3.06269992e-002
      4.77209985e-002 7.69229978e-002 1.85189992e-002 6.33900017e-002
      3.78199995e-001 7.33770013e-001 1.77279994e-001 4.53730002e-002
      2.61419993e-002 1.53249996e-002 2.10339995e-003</_>
    <_>
      2.08010003e-001 9.97250021e-001 9.91129994e-001 9.82320011e-001
      9.71090019e-001 9.57660019e-001 9.42130029e-001 9.24880028e-001
      9.06769991e-001 8.87719989e-001 8.67850006e-001 8.47249985e-001
      8.27269971e-001 8.08430016e-001 7.91119993e-001 7.75430024e-001
      7.61839986e-001 7.50750005e-001 7.43080020e-001 7.38430023e-001
      7.36959994e-001 4.73680012e-002 1.03210002e-001 1.62400007e-001
      2.50790000e-001 2.50790000e-001 2.39150003e-001 1.24169998e-001
      6.23859987e-002 4.02179994e-002 6.95390031e-002 1.13339998e-001
      1.98689997e-001 2.50790000e-001 2.50790000e-001 2.04040006e-001
      1.14060000e-001 6.67919964e-002 4.31049988e-002 3.33350003e-002
      9.07870010e-002 2.17470005e-001 2.50790000e-001 2.50790000e-001
      2.50790000e-001 1.20640002e-001 5.79169989e-002 4.80410010e-002
      2.75500007e-002 9.22520012e-002 2.50790000e-001 2.50790000e-001
      2.50790000e-001 1.87529996e-001 9.54469964e-002 3.92590016e-002
      3.26349996e-002 2.33330011e+000 1.72409996e-001 8.66199970e-001 0.
      0. 0. 0. 0. 0. 0. 0. 0. 0. 0. 0. 0. 0. 0. 0. 0. 2.60029994e-002
      7.57580018e-003 4.77750000e-004 1.03740003e-002 0. 0.
      6.14250021e-004 2.32730005e-002 4.87990007e-002 9.21379961e-003
      1.01690004e-002 1.92469992e-002 1.69939995e-002 3.61729995e-003
      3.11220009e-002 7.92490005e-001 9.69630033e-002 4.02280018e-002
      2.37190002e-003 4.31689993e-002 1.89750004e-004 1.89750004e-004
      1.51800003e-003 7.99809992e-002 8.76659974e-002 1.88810006e-002
      7.49529991e-003 2.90319994e-002 2.81780008e-002 6.16700016e-003
      3.57690006e-002 5.22239983e-001 5.16709983e-002 1.40020000e-002
      1.08399999e-003 1.56280007e-002 0. 0. 4.51669999e-004
      4.11019996e-002 1.37850001e-001 2.15000007e-002 1.07500004e-002
      2.23130006e-002 3.25199999e-002 5.69109991e-003 4.56189997e-002
      5.99829972e-001 8.25709999e-001 1.53380007e-001 1.53550003e-002
      4.33759997e-003 1.17119995e-003 4.33759997e-005</_>
    <_>
      1.59219995e-001 9.96800005e-001 9.90180016e-001 9.79680002e-001
      9.65600014e-001 9.48599994e-001 9.29520011e-001 9.08599973e-001
      8.86680007e-001 8.64009976e-001 8.41539979e-001 8.19469988e-001
      7.98340023e-001 7.78339982e-001 7.60230005e-001 7.44000018e-001
      7.30149984e-001 7.19309986e-001 7.11390018e-001 7.06789970e-001
      7.05410004e-001 1.91909999e-001 1.02949999e-001 6.69760033e-002
      1.01240002e-001 2.25319996e-001 2.47229993e-001 2.47229993e-001
      2.47229993e-001 2.13890001e-001 8.34050030e-002 6.53339997e-002
      6.21410012e-002 1.65619999e-001 2.47229993e-001 2.47229993e-001
      2.42310002e-001 1.78169996e-001 8.05910006e-002 5.05769998e-002
      1.89789999e-002 1.07159996e-002 2.65009999e-002 7.86409974e-002
      1.40450001e-001 2.47229993e-001 2.47229993e-001 9.16590020e-002
      3.54189985e-002 1.36000002e-002 1.78490002e-002 4.94330004e-002
      2.29389995e-001 2.47229993e-001 2.47229993e-001 2.23000005e-001
      6.83230013e-002 2.33330011e+000 1.68029994e-001 8.93379986e-001 0.
      0. 0. 0. 0. 0. 0. 0. 0. 0. 0. 0. 0. 0. 0. 0. 0. 1.11709997e-001
      2.88290009e-002 4.95499978e-003 1.62160005e-002 1.80179998e-003
      1.80179998e-003 5.85589977e-003 9.18919966e-002 2.02250004e-001
      1.39640002e-002 1.80179998e-002 4.00899984e-002 3.87389995e-002
      1.17119998e-002 6.53150007e-002 3.46850008e-001 8.19670036e-002
      2.73219999e-002 2.52210000e-003 5.80069982e-002 4.20339988e-004
      4.20339988e-004 2.52210000e-003 1.74020007e-001 1.65619999e-001
      1.76550001e-002 2.26990003e-002 3.11060008e-002 4.20340002e-002
      3.78310005e-003 2.52209995e-002 3.44680011e-001 1.22359999e-001
      2.76420005e-002 1.62600004e-003 3.94309983e-002 8.13009974e-004
      1.21949997e-003 2.43899995e-003 1.18699998e-001 1.41059995e-001
      1.01629999e-002 1.50410002e-002 3.65849994e-002 3.13009992e-002
      4.87810001e-003 2.92680003e-002 4.17479992e-001 4.18460011e-001
      3.91689986e-001 1.02679998e-001 5.26550002e-002 2.83749998e-002
      6.14299998e-003</_>
    <_>
      1.16570003e-001 9.97399986e-001 9.90469992e-001 9.79449987e-001
      9.64649975e-001 9.46669996e-001 9.25779998e-001 9.02679980e-001
      8.77870023e-001 8.51960003e-001 8.25469971e-001 7.99080014e-001
      7.73280025e-001 7.48660028e-001 7.25849986e-001 7.05309987e-001
      6.87629998e-001 6.73250020e-001 6.62479997e-001 6.55709982e-001
      6.53330028e-001 4.52309996e-002 8.91510025e-002 1.57000005e-001
      2.79599994e-001 2.79599994e-001 2.13459998e-001 5.74910007e-002
      4.70490009e-002 4.69809994e-002 4.26860005e-002 7.54799992e-002
      2.56280005e-001 2.79599994e-001 2.79599994e-001 2.30179995e-001
      3.27560008e-002 4.25140001e-002 3.98820005e-002 1.25630006e-001
      1.39899999e-001 9.34669971e-002 1.37089998e-001 1.68270007e-001
      1.88170001e-001 7.83340037e-002 1.13229997e-001 1.53050005e-001
      1.23120002e-001 1.08139999e-001 1.25259995e-001 2.79599994e-001
      2.79599994e-001 2.29839996e-001 1.00189999e-001 1.17780000e-001
      1.45960003e-001 2.75000000e+000 1.65849999e-001 8.94739985e-001
      2.36420012e+000 9.69389975e-002 1.98410004e-002 6.23580022e-003
      3.62810008e-002 1.13380002e-003 5.66889998e-004 2.26760004e-003
      5.44219986e-002 6.51929975e-002 1.41719999e-002 2.43759993e-002
      3.17460001e-002 3.11789997e-002 6.23580022e-003 6.51929975e-002
      5.44219971e-001 4.92860004e-002 1.07140001e-002 1.42860005e-003
      4.92860004e-002 7.14290014e-004 7.14290014e-004 1.42860005e-003
      1.43570006e-001 6.71430007e-002 7.14290002e-003 2.85710003e-002
      3.78569998e-002 4.57139984e-002 4.28570015e-003 3.78569998e-002
      5.14280021e-001 1.55330002e-001 3.40140015e-002 4.53509996e-003
      5.44219986e-002 1.13380002e-003 0. 3.40140006e-003 1.19050004e-001
      1.28120005e-001 1.70070007e-002 3.40140015e-002 4.42180000e-002
      2.49429997e-002 3.40140006e-003 1.81409996e-002 3.58280003e-001
      1.33330002e-001 4.70589995e-002 7.84309953e-003 4.85289991e-002
      1.47060002e-003 1.47060002e-003 5.88229997e-003 7.54899979e-002
      1.16180003e-001 1.51960002e-002 2.50000004e-002 3.82350013e-002
      4.06860001e-002 1.27450004e-002 5.93140014e-002 3.71569991e-001
      4.66809988e-001 2.75530010e-001 1.05109997e-001 8.02130029e-002
      5.46809994e-002 1.76599994e-002</_>
    <_>
      6.97700009e-002 9.98839974e-001 9.96140003e-001 9.92240012e-001
      9.87259984e-001 9.81500030e-001 9.75199997e-001 9.68569994e-001
      9.61589992e-001 9.54590023e-001 9.47660029e-001 9.40959990e-001
      9.34979975e-001 9.29840028e-001 9.25509989e-001 9.21869993e-001
      9.18850005e-001 9.16410029e-001 9.14579988e-001 9.13489997e-001
      9.13079977e-001 1.19970003e-002 4.01510000e-002 1.75880000e-001
      2.94450015e-001 2.94450015e-001 1.94389999e-001 5.11670001e-002
      1.66989993e-002 1.45560000e-002 6.70439983e-003 3.13160010e-002
      2.48669997e-001 2.94450015e-001 2.45539993e-001 3.59230004e-002
      1.33189997e-002 3.51119996e-003 6.73650019e-003 3.07260007e-002
      8.29999968e-002 2.16270000e-001 2.94450015e-001 2.94450015e-001
      2.88879991e-001 1.18440002e-001 4.99179997e-002 2.23680008e-002
      2.10909992e-002 5.94099984e-002 2.94450015e-001 2.94450015e-001
      1.68640003e-001 6.04179986e-002 2.21190006e-002 1.12770004e-002
      1.07589997e-002 1.50000000e+000 1.85320005e-001 8.96229982e-001 0.
      0. 0. 0. 0. 0. 0. 0. 0. 0. 0. 0. 0. 0. 0. 0. 0. 1.87810007e-002
      6.04810007e-003 7.95800006e-004 6.68470003e-003 1.59160001e-004 0.
      1.59160001e-004 1.73480008e-002 5.26820011e-002 8.75379983e-003
      1.38470000e-002 2.30780002e-002 4.18590009e-002 4.29729978e-003
      3.83570008e-002 7.67149985e-001 2.04349995e-001 8.43769982e-002 0.
      6.52600005e-002 0. 0. 0. 1.13380000e-001 5.07580005e-002
      2.57089995e-002 2.63679996e-002 4.28479984e-002 6.59199990e-003
      5.27360011e-003 8.56960006e-003 3.66510004e-001 7.21559972e-002
      1.66849997e-002 3.25029995e-003 2.12350003e-002 4.33370005e-004
      2.16679997e-004 4.11699992e-003 6.80390000e-002 1.80930004e-001
      2.08020005e-002 1.60349999e-002 2.81690005e-002 2.36189999e-002
      6.71719993e-003 4.48540002e-002 4.92749989e-001 7.74389982e-001
      1.86189994e-001 2.39230003e-002 1.08180000e-002 4.57669981e-003
      1.04020000e-004</_>
    <_>
      1.77750006e-001 9.97359991e-001 9.90760028e-001 9.80520010e-001
      9.66809988e-001 9.50280011e-001 9.31379974e-001 9.10749972e-001
      8.88750017e-001 8.65599990e-001 8.41889977e-001 8.18270028e-001
      7.95170009e-001 7.72880018e-001 7.52269983e-001 7.33709991e-001
      7.17719972e-001 7.04789996e-001 6.95259988e-001 6.89480007e-001
      6.87650025e-001 1.90459996e-001 1.04670003e-001 1.26149997e-001
      2.02270001e-001 1.96490005e-001 1.15089998e-001 9.55990031e-002
      2.42939994e-001 2.42939994e-001 2.42939994e-001 1.73659995e-001
      1.28429994e-001 1.15640000e-001 1.50549993e-001 1.26249999e-001
      1.27279997e-001 2.42939994e-001 2.42939994e-001 2.30780005e-001
      1.46390006e-001 9.59810019e-002 6.29879981e-002 1.20430000e-001
      9.66190025e-002 6.12070002e-002 2.08560005e-001 2.42939994e-001
      1.89129993e-001 1.81130007e-001 1.69420004e-001 1.25190005e-001
      1.08159997e-001 7.74030015e-002 3.20889987e-002 1.31709993e-001
      2.35780001e-001 3.22219992e+000 1.48939997e-001 8.89729977e-001 0.
      0. 0. 0. 0. 0. 0. 0. 0. 0. 0. 0. 0. 0. 0. 0. 0. 5.16280010e-002
      3.72090004e-003 0. 3.25580011e-003 9.30230017e-004 0. 0.
      1.20930001e-002 7.06980005e-002 9.76740010e-003 2.60470007e-002
      3.62790003e-002 9.30230040e-003 7.90700037e-003 2.13949997e-002
      7.46969998e-001 1.42250001e-001 4.90310006e-002 9.68519971e-003
      8.23239982e-002 1.81599997e-003 0. 4.23729979e-003 6.96130022e-002
      1.08350001e-001 3.02660000e-002 2.72400007e-002 3.81360017e-002
      3.02660000e-002 1.81600004e-002 3.45040001e-002 3.54119986e-001
      1.09600000e-001 7.34459981e-003 3.38979997e-003 1.58190001e-002 0.
      5.64970018e-004 1.12989999e-003 8.41810033e-002 2.40109995e-001
      2.25990005e-002 2.54239999e-002 4.01129983e-002 2.14690007e-002
      8.47459957e-003 1.92089994e-002 4.00559992e-001 4.74900007e-001
      2.10199997e-001 1.86120003e-001 9.16329995e-002 2.91840006e-002
      7.95920007e-003</_>
    <_>
      1.75779998e-001 9.97340024e-001 9.91670012e-001 9.83959973e-001
      9.74709988e-001 9.65579987e-001 9.57140028e-001 9.49760020e-001
      9.44140017e-001 9.40389991e-001 9.38669980e-001 9.38220024e-001
      9.38849986e-001 9.39880013e-001 9.40609992e-001 9.41429973e-001
      9.41779971e-001 9.41609979e-001 9.41540003e-001 9.41380024e-001
      9.41190004e-001 1.46929994e-001 2.51100004e-001 2.63509989e-001
      2.63509989e-001 2.63509989e-001 1.77169994e-001 7.96210021e-002
      7.24240020e-002 1.02890000e-001 3.89790013e-002 9.46630016e-002
      2.45039999e-001 2.63509989e-001 1.83320001e-001 8.01950023e-002
      6.94110021e-002 5.20169996e-002 3.65770012e-002 1.23690002e-001
      1.14050001e-001 1.79480001e-001 2.63509989e-001 2.63509989e-001
      2.12029994e-001 1.48279995e-001 1.19819999e-001 1.23250000e-001
      4.44759987e-002 5.95940016e-002 1.21270001e-001 2.63509989e-001
      2.39350006e-001 1.01389997e-001 6.88290000e-002 5.09589985e-002
      3.89950015e-002 8.16670036e+000 3.47519994e-001 8.97440016e-001
      1.39409995e+000 1.09420002e-001 4.91690002e-002 1.38499995e-003
      6.30190000e-002 0. 0. 4.84769978e-003 1.26039997e-001
      4.77840006e-002 2.28530001e-002 2.63160001e-002 4.29360010e-002
      1.45429997e-002 5.54020004e-003 1.10799996e-002 4.75070000e-001
      7.31040016e-002 2.20689997e-002 3.44830006e-003 2.41379999e-002 0.
      6.89650013e-004 6.89650013e-004 3.31039988e-002 8.48279968e-002
      2.75860000e-002 2.82760002e-002 4.55170013e-002 2.89660003e-002
      1.03449998e-002 3.79309990e-002 5.79310000e-001 1.52170002e-001
      6.70289993e-002 2.41550012e-003 6.88410029e-002 0. 6.03860011e-004
      3.62320011e-003 1.20770000e-001 7.66910017e-002 3.62319984e-002
      1.26809999e-002 6.21979982e-002 2.05310006e-002 6.64249994e-003
      2.17390005e-002 3.47829998e-001 1.24490000e-001 1.83669999e-002 0.
      6.12240005e-003 0. 0. 6.80270023e-004 5.64629994e-002
      1.12250000e-001 1.70070007e-002 2.65309997e-002 3.46940011e-002
      1.36050005e-002 5.44220023e-003 1.02040004e-002 5.74150026e-001
      4.69300002e-001 2.85109997e-001 1.48920000e-001 6.36840016e-002
      2.90660001e-002 3.91899981e-003</_>
    <_>
      8.62739980e-002 9.98329997e-001 9.94520009e-001 9.88960028e-001
      9.81809974e-001 9.73190010e-001 9.63339984e-001 9.52570021e-001
      9.40949976e-001 9.29030001e-001 9.17259991e-001 9.05749977e-001
      8.94770026e-001 8.84400010e-001 8.74859989e-001 8.66540015e-001
      8.59640002e-001 8.54260027e-001 8.50269973e-001 8.47739995e-001
      8.46970022e-001 3.21389996e-002 8.65470022e-002 2.00599998e-001
      2.62320012e-001 2.62320012e-001 2.61440009e-001 9.36480016e-002
      3.41590010e-002 2.30679996e-002 2.56249998e-002 6.82490021e-002
      2.62320012e-001 2.62320012e-001 2.62320012e-001 1.58669993e-001
      5.27019985e-002 2.85909995e-002 1.87320001e-002 4.45780009e-002
      1.36040002e-001 2.62320012e-001 2.62320012e-001 2.62320012e-001
      1.75260007e-001 6.72399998e-002 3.55690010e-002 3.17410007e-002
      3.75269987e-002 1.40570000e-001 2.62320012e-001 2.62320012e-001
      2.28839993e-001 1.10859998e-001 3.65410000e-002 3.13050002e-002
      3.27039994e-002 3.02559996e+000 2.03130007e-001 8.71209979e-001 0.
      0. 0. 0. 0. 0. 0. 0. 0. 0. 0. 0. 0. 0. 0. 0. 0. 1.94630008e-002
      3.38079990e-003 6.85309991e-004 1.10109998e-002 0. 4.56870002e-005
      5.48249984e-004 2.85999998e-002 5.17630018e-002 9.22880042e-003
      6.53330004e-003 1.97369996e-002 2.44880002e-002 3.70069989e-003
      2.87369993e-002 7.92270005e-001 1.08589999e-001 5.90410009e-002
      9.65250016e-004 4.74580005e-002 0. 1.60869997e-004 4.82630014e-004
      7.80239999e-002 9.71679986e-002 3.68399993e-002 8.68729968e-003
      4.19880003e-002 2.57399995e-002 8.36549979e-003 2.73490008e-002
      4.59129989e-001 4.13120016e-002 2.05680002e-002 2.40939995e-003
      2.59150006e-002 5.87649993e-005 1.76290006e-004 8.22709990e-004
      4.96569984e-002 1.04719996e-001 2.09199991e-002 1.06950002e-002
      2.31529996e-002 3.73740010e-002 8.81469995e-003 6.54650033e-002
      5.87979972e-001 8.48770022e-001 1.37239993e-001 9.86639969e-003
      2.80479994e-003 1.12190004e-003 1.97989997e-004</_>
    <_>
      1.71509996e-001 9.97500002e-001 9.92009997e-001 9.83600020e-001
      9.72909987e-001 9.60449994e-001 9.46089983e-001 9.30320024e-001
      9.12959993e-001 8.94640028e-001 8.75869989e-001 8.56639981e-001
      8.37830007e-001 8.19819987e-001 8.03359985e-001 7.88550019e-001
      7.76019990e-001 7.66600013e-001 7.60039985e-001 7.56569982e-001
      7.55469978e-001 1.96360007e-001 1.49609998e-001 1.71729997e-001
      2.11809993e-001 2.11809993e-001 1.43120006e-001 6.29720017e-002
      6.12710007e-002 1.15120001e-001 2.04799995e-001 1.75129995e-001
      1.88850001e-001 2.11809993e-001 2.06129998e-001 7.06439987e-002
      5.66629991e-002 6.63309991e-002 1.40110001e-001 1.90439999e-001
      1.27039999e-001 1.60830006e-001 1.53880000e-001 2.11809993e-001
      2.10380003e-001 1.32520005e-001 2.11809993e-001 2.11809993e-001
      2.11809993e-001 1.51160002e-001 1.54699996e-001 1.58840001e-001
      1.61909997e-001 8.55730027e-002 1.16509996e-001 2.02979997e-001
      2.11809993e-001 2.11759996e+000 2.21049994e-001 8.91510010e-001 0.
      0. 0. 0. 0. 0. 0. 0. 0. 0. 0. 0. 0. 0. 0. 0. 0. 5.32709993e-002
      1.25340000e-002 1.56680006e-003 1.09679997e-002 0. 3.91700014e-004
      7.83390016e-004 2.31100004e-002 5.79710007e-002 1.95850004e-002
      2.27179993e-002 3.68189998e-002 4.11279984e-002 8.61729961e-003
      9.28319991e-002 6.17709994e-001 1.68400005e-001 6.01850003e-002
      8.10190011e-003 7.58100003e-002 1.15739997e-003 0. 5.20829996e-003
      8.62269998e-002 8.79629999e-002 1.44680003e-002 1.79399997e-002
      4.28240001e-002 3.64580005e-002 1.38889998e-002 4.68750000e-002
      3.34490001e-001 1.22989997e-001 3.68449986e-002 1.03789999e-003
      4.51480001e-002 5.18939982e-004 5.18939982e-004 5.18939982e-004
      1.11050002e-001 1.54650003e-001 2.23149993e-002 2.54280008e-002
      3.63259986e-002 2.28330009e-002 1.29739996e-002 2.28330009e-002
      3.84020001e-001 3.12420011e-001 2.92650014e-001 2.00690001e-001
      1.17530003e-001 6.59649968e-002 1.07429996e-002</_>
    <_>
      3.92160006e-002 9.96999979e-001 9.91930008e-001 9.83690023e-001
      9.73360002e-001 9.60479975e-001 9.46269989e-001 9.30499971e-001
      9.14179981e-001 8.97220016e-001 8.80349994e-001 8.63870025e-001
      8.47890019e-001 8.33199978e-001 8.19980025e-001 8.08939993e-001
      7.99260020e-001 7.92270005e-001 7.86379993e-001 7.83420026e-001
      7.82270014e-001 4.18940000e-002 8.16830024e-002 1.58089995e-001
      2.53329992e-001 2.83470005e-001 2.83470005e-001 1.23259999e-001
      3.52710001e-002 2.45379992e-002 3.67109999e-002 9.88290012e-002
      2.83470005e-001 2.83470005e-001 2.41109997e-001 6.80899993e-002
      1.76640004e-002 2.19589993e-002 2.58590002e-002 9.85310003e-002
      2.10800007e-001 2.83470005e-001 1.91589996e-001 2.29780003e-001
      1.54980004e-001 1.15900002e-001 8.42159986e-002 7.05230013e-002
      4.66170013e-002 1.82040006e-001 2.83470005e-001 2.83470005e-001
      1.07910000e-001 5.65680005e-002 2.23120004e-002 2.16559991e-002
      1.98979992e-002 2.81250000e+000 1.61170006e-001 8.91799986e-001 0.
      0. 0. 0. 0. 0. 0. 0. 0. 0. 0. 0. 0. 0. 0. 0. 0. 7.35130012e-002
      1.86490007e-002 5.40539972e-004 2.24319994e-002 5.40539972e-004 0.
      8.10810016e-004 3.94590013e-002 6.86490014e-002 2.02699993e-002
      1.51350005e-002 3.45950015e-002 3.67569998e-002 6.21620007e-003
      6.54049963e-002 5.97029984e-001 2.57499993e-001 1.02289997e-001
      1.76370004e-003 7.40740001e-002 0. 0. 0. 9.52380002e-002
      8.28920007e-002 2.82189995e-002 4.23280001e-002 5.11460006e-002
      7.05470005e-003 5.29100001e-003 7.05470005e-003 2.45150000e-001
      1.00649998e-001 8.49669985e-003 3.26799997e-003 2.09149998e-002
      9.80390003e-004 0. 3.92160006e-003 1.44439995e-001 2.51630008e-001
      1.40519999e-002 1.27450004e-002 3.30069996e-002 3.69280018e-002
      1.07840002e-002 2.90849991e-002 3.29089999e-001 4.57899988e-001
      3.86090010e-001 8.89149979e-002 3.72640006e-002 2.52359994e-002
      4.59909998e-003</_>
    <_>
      9.55590010e-002 9.97650027e-001 9.91410017e-001 9.81809974e-001
      9.69449997e-001 9.55009997e-001 9.39059973e-001 9.21580017e-001
      9.03110027e-001 8.84159982e-001 8.65260005e-001 8.46849978e-001
      8.29429984e-001 8.13019991e-001 7.98179984e-001 7.85210013e-001
      7.74659991e-001 7.66730011e-001 7.61520028e-001 7.58570015e-001
      7.57679999e-001 1.18749999e-001 2.14100003e-001 2.72720009e-001
      2.72720009e-001 2.72720009e-001 1.79020002e-001 6.89349994e-002
      7.29949996e-002 5.45720011e-002 3.73630002e-002 8.77069980e-002
      2.72720009e-001 2.72720009e-001 1.81909993e-001 5.14400005e-002
      1.65630002e-002 1.79639999e-002 1.34640001e-002 6.11659996e-002
      1.71430007e-001 2.72720009e-001 2.72720009e-001 2.72720009e-001
      1.50769994e-001 1.19159997e-001 6.50900006e-002 6.77819997e-002
      2.74379998e-002 9.89779979e-002 2.72720009e-001 2.72720009e-001
      1.05439998e-001 4.21309993e-002 1.60789993e-002 1.05769997e-002
      1.32309999e-002 2.25000000e+000 1.57680005e-001 8.92189980e-001 0.
      0. 0. 0. 0. 0. 0. 0. 0. 0. 0. 0. 0. 0. 0. 0. 0. 3.20859998e-002
      1.67110004e-003 1.67110004e-003 9.35829990e-003 0. 0. 0.
      1.83819998e-002 8.35559964e-002 1.10290004e-002 1.87170003e-002
      3.94390002e-002 5.88239990e-002 9.69250035e-003 5.71519993e-002
      6.58420026e-001 1.92499995e-001 6.58330023e-002 8.33329977e-004
      4.25000004e-002 0. 0. 8.33329977e-004 7.41669983e-002
      8.91669989e-002 2.41669994e-002 1.66669991e-002 5.58330007e-002
      1.75000001e-002 5.83329983e-003 2.41669994e-002 3.89999986e-001
      6.74799979e-002 8.94310046e-003 1.62600004e-003 1.99190006e-002
      1.21949997e-003 0. 2.43899995e-003 6.78860024e-002 1.87810004e-001
      2.52030008e-002 1.42280003e-002 4.30889986e-002 7.03250021e-002
      1.17889997e-002 5.32520004e-002 4.24800009e-001 7.82050014e-001
      1.53850004e-001 4.25209999e-002 1.58120003e-002 5.76920016e-003 0.</_>
    <_>
      1.57619998e-001 9.98359978e-001 9.95480001e-001 9.92150009e-001
      9.88910019e-001 9.86010015e-001 9.83550012e-001 9.81769979e-001
      9.80459988e-001 9.80040014e-001 9.80470002e-001 9.81580019e-001
      9.82710004e-001 9.83770013e-001 9.84740019e-001 9.85610008e-001
      9.86670017e-001 9.88139987e-001 9.89489973e-001 9.90379989e-001
      9.90639985e-001 1.09430000e-001 1.49169996e-001 2.13679999e-001
      2.46769994e-001 2.46769994e-001 2.46769994e-001 1.82980001e-001
      1.23669997e-001 8.22509974e-002 5.00440001e-002 8.03349987e-002
      9.52590033e-002 1.78220004e-001 2.33569995e-001 1.15160003e-001
      7.06870034e-002 5.39800003e-002 4.90319990e-002 2.41579995e-001
      2.05390006e-001 1.62829995e-001 2.46769994e-001 2.46769994e-001
      2.45150000e-001 1.84469998e-001 1.28570005e-001 1.53209999e-001
      8.04750025e-002 9.39249992e-002 1.28089994e-001 2.07680002e-001
      2.46769994e-001 1.39780000e-001 7.05230013e-002 6.42499998e-002
      6.44679964e-002 1.53450000e+000 5.62340021e-001 8.97019982e-001
      2.01620007e+000 3.20449993e-002 1.61179993e-002 2.85780011e-003
      3.06739993e-002 1.52420005e-004 1.14310002e-004 1.79090002e-003
      5.52879982e-002 3.95519994e-002 1.51650002e-002 8.64959974e-003
      2.36629993e-002 3.24649997e-002 7.39220018e-003 4.98009995e-002
      6.84270024e-001 3.48219983e-002 1.32879997e-002 2.52000010e-003
      2.56130006e-002 2.29090001e-004 9.16380013e-005 1.19129999e-003
      4.94839996e-002 8.50860029e-002 1.91980004e-002 1.05839996e-002
      2.63459999e-002 5.35620004e-002 1.04930000e-002 7.13850036e-002
      5.96080005e-001 4.55409996e-002 3.51679996e-002 3.60530009e-003
      6.19230010e-002 2.53000006e-004 2.53000006e-004 1.32829999e-003
      5.61669990e-002 5.23089990e-002 2.30870005e-002 1.06889997e-002
      3.58639993e-002 4.26950008e-002 1.11320000e-002 5.93929999e-002
      5.60549974e-001 3.10679991e-002 2.40070000e-002 3.14319995e-003
      6.68729991e-002 1.36660005e-004 9.11079987e-005 1.77660002e-003
      7.02439994e-002 6.41390011e-002 2.28230003e-002 1.01589998e-002
      3.50769982e-002 4.18640003e-002 9.97630041e-003 6.41390011e-002
      5.54530025e-001 8.11129987e-001 1.57580003e-001 2.34910008e-002
      6.32080017e-003 1.47799996e-003 0.</_>
    <_>
      1.45439997e-001 9.98210013e-001 9.93340015e-001 9.85889971e-001
      9.76100028e-001 9.64299977e-001 9.51020002e-001 9.36659992e-001
      9.21459973e-001 9.05740023e-001 8.89919996e-001 8.74419987e-001
      8.59619975e-001 8.45770001e-001 8.33400011e-001 8.22939992e-001
      8.14429998e-001 8.07730019e-001 8.02959979e-001 8.00199986e-001
      7.99340010e-001 1.73490003e-001 1.33809999e-001 1.38209999e-001
      1.75760001e-001 2.34359995e-001 2.34359995e-001 1.05640002e-001
      1.33540004e-001 2.34359995e-001 1.87380001e-001 1.56110004e-001
      2.34359995e-001 2.34359995e-001 2.34359995e-001 1.75679997e-001
      7.31230006e-002 7.19479993e-002 1.49090007e-001 1.45219997e-001
      1.30899996e-001 1.47520006e-001 1.06109999e-001 1.63029999e-001
      1.74899995e-001 1.60929993e-001 1.76719993e-001 2.23629996e-001
      1.17229998e-001 1.20150000e-001 2.34359995e-001 2.34359995e-001
      1.25090003e-001 7.95520023e-002 5.37020005e-002 7.17089996e-002
      1.20159999e-001 3.07999992e+000 2.93769985e-001 8.96000028e-001 0.
      0. 0. 0. 0. 0. 0. 0. 0. 0. 0. 0. 0. 0. 0. 0. 0. 3.16639990e-002
      7.63530005e-003 4.49129991e-004 8.75809975e-003 1.12280002e-004 0.
      2.24570002e-004 9.54409968e-003 2.80709993e-002 1.44849997e-002
      1.23509998e-002 2.62739994e-002 1.41479997e-002 3.70540004e-003
      5.28860018e-002 7.89740026e-001 9.58739966e-002 5.26780002e-002
      2.28270004e-003 5.21509983e-002 5.26779972e-004 0. 7.02370016e-004
      7.98949972e-002 7.79630020e-002 2.95000002e-002 1.47500001e-002
      3.82790007e-002 2.45830007e-002 5.09219989e-003 2.44069993e-002
      5.01320004e-001 7.51660019e-002 1.38429999e-002 1.52269995e-003
      2.24249996e-002 4.15279996e-004 0. 5.53709979e-004 8.11180025e-002
      1.47980005e-001 2.20100004e-002 7.61350011e-003 3.29460017e-002
      1.37040000e-002 6.92139985e-003 1.96570009e-002 5.54130018e-001
      7.33910024e-001 2.22589999e-001 3.11309993e-002 9.34650004e-003
      2.87580001e-003 1.43790006e-004</_>
    <_>
      7.48910010e-002 9.98009980e-001 9.94390011e-001 9.88870025e-001
      9.82150018e-001 9.74150002e-001 9.65160012e-001 9.55479980e-001
      9.44750011e-001 9.34059978e-001 9.23219979e-001 9.12989974e-001
      9.03400004e-001 8.94710004e-001 8.86860013e-001 8.79639983e-001
      8.73660028e-001 8.68749976e-001 8.65530014e-001 8.63529980e-001
      8.62950027e-001 6.39040023e-002 1.04780003e-001 1.36490002e-001
      2.56460011e-001 2.56460011e-001 2.55820006e-001 1.88510001e-001
      5.85660003e-002 4.86630015e-002 1.19259998e-001 1.91239998e-001
      2.45959997e-001 2.56460011e-001 2.32830003e-001 1.07869998e-001
      8.81190002e-002 4.33420017e-002 7.23619983e-002 5.58470003e-002
      1.16509996e-001 1.55149996e-001 1.66199997e-001 2.56460011e-001
      2.56460011e-001 2.20809996e-001 3.10919993e-002 2.94860005e-002
      1.10930003e-001 2.04640001e-001 2.56460011e-001 2.56460011e-001
      1.37850001e-001 8.25949982e-002 5.96430004e-002 2.28170007e-002
      3.86799984e-002 4.22219992e+000 1.53530002e-001 8.88890028e-001 0.
      0. 0. 0. 0. 0. 0. 0. 0. 0. 0. 0. 0. 0. 0. 0. 0. 5.27230017e-002
      7.77869998e-003 0. 6.91440003e-003 4.32150002e-004 8.64300004e-004
      0. 2.80900002e-002 1.36559993e-001 1.94470007e-002 2.59290002e-002
      3.75970006e-002 2.98190005e-002 5.61799994e-003 4.49439995e-002
      6.03280008e-001 1.90119997e-001 9.13579985e-002 0. 6.54319972e-002
      0. 0. 0. 1.14820004e-001 5.67900017e-002 2.34570000e-002
      3.45680006e-002 4.69140001e-002 9.87649988e-003 2.46910006e-003
      1.48149999e-002 3.49379987e-001 1.01709999e-001 4.70090006e-003
      1.28209998e-003 1.36749996e-002 0. 0. 1.28209998e-003
      7.64959976e-002 2.97010005e-001 1.15390001e-002 1.41030001e-002
      3.58970016e-002 1.88030005e-002 2.56410008e-003 1.96579993e-002
      4.01289999e-001 4.67799991e-001 3.40669990e-001 1.29449993e-001
      4.78399992e-002 1.10910004e-002 3.14519997e-003</_>
    <_>
      1.90060005e-001 9.97219980e-001 9.90190029e-001 9.79399979e-001
      9.65659976e-001 9.49490011e-001 9.31110024e-001 9.10939991e-001
      8.89469981e-001 8.67150009e-001 8.44399989e-001 8.21900010e-001
      7.99880028e-001 7.78930008e-001 7.59469986e-001 7.41900027e-001
      7.26760030e-001 7.14500010e-001 7.05399990e-001 6.99800014e-001
      6.97899997e-001 1.20990001e-001 9.37450007e-002 2.13780001e-001
      2.18579993e-001 2.14949995e-001 1.69139996e-001 2.46549994e-001
      2.46549994e-001 1.61100000e-001 8.68709981e-002 9.46500003e-002
      2.46549994e-001 2.46549994e-001 2.46549994e-001 8.04890022e-002
      6.36830032e-002 9.55459997e-002 5.20149991e-002 1.61980003e-001
      2.46549994e-001 2.46549994e-001 1.43769994e-001 1.41790003e-001
      7.93239996e-002 1.27020001e-001 1.70010000e-001 1.28639996e-001
      6.62819967e-002 2.07929999e-001 2.46549994e-001 2.43230000e-001
      7.44929984e-002 3.34650017e-002 4.62649986e-002 5.65540008e-002
      3.18149999e-002 2.25000000e+000 1.52940005e-001 8.97530019e-001 0.
      0. 0. 0. 0. 0. 0. 0. 0. 0. 0. 0. 0. 0. 0. 0. 0. 5.81770018e-002
      8.72659963e-003 2.26240000e-003 1.29279997e-002 0. 0.
      1.61599996e-003 3.58759984e-002 8.01550001e-002 1.61600001e-002
      2.48869993e-002 3.00580002e-002 4.75110002e-002 8.72659963e-003
      9.14670005e-002 5.81459999e-001 1.77359998e-001 6.08110018e-002
      8.44590017e-004 5.65880015e-002 4.22300014e-004 0. 2.53379997e-003
      9.62840021e-002 8.53039995e-002 2.28039995e-002 1.47799999e-002
      4.30740006e-002 2.44929995e-002 9.29049961e-003 4.18069996e-002
      3.63599986e-001 1.07089996e-001 1.41009996e-002 3.42989992e-003
      2.13409998e-002 0. 0. 2.28659995e-003 7.43139982e-002
      1.94360003e-001 1.63870007e-002 1.44819999e-002 3.73470001e-002
      1.41009996e-002 4.57319990e-003 1.86739992e-002 4.77519989e-001
      3.91609997e-001 3.12759995e-001 1.70750007e-001 9.04809982e-002
      3.00030001e-002 4.39839996e-003</_>
    <_>
      2.22599998e-001 9.95130002e-001 9.87649977e-001 9.76930022e-001
      9.62890029e-001 9.46640015e-001 9.28409994e-001 9.08299983e-001
      8.86619985e-001 8.64400029e-001 8.41560006e-001 8.18400025e-001
      7.95880020e-001 7.74720013e-001 7.55150020e-001 7.37770021e-001
      7.22850025e-001 7.10789979e-001 7.03050017e-001 6.98769987e-001
      6.97610021e-001 7.16260001e-002 1.50889993e-001 2.57349998e-001
      2.57349998e-001 2.57349998e-001 1.42089993e-001 8.51759985e-002
      3.63329984e-002 2.88169999e-002 7.44839981e-002 1.52400002e-001
      2.57349998e-001 2.57349998e-001 2.57349998e-001 1.01279996e-001
      7.41550028e-002 4.02240008e-002 3.25100012e-002 6.22019991e-002
      2.32500002e-001 2.57349998e-001 2.57349998e-001 2.57349998e-001
      1.77259997e-001 7.45199993e-002 4.52219993e-002 2.53720004e-002
      4.36160006e-002 1.48130000e-001 2.57349998e-001 2.57349998e-001
      1.84049994e-001 7.77229965e-002 4.41530012e-002 2.69399993e-002
      1.45790000e-002 3.04349995e+000 1.61090001e-001 8.98310006e-001 0.
      0. 0. 0. 0. 0. 0. 0. 0. 0. 0. 0. 0. 0. 0. 0. 0. 3.18799987e-002
      8.52710009e-003 1.84110005e-003 1.43409995e-002 0. 0.
      7.75190012e-004 1.90890003e-002 3.52710001e-002 1.06589999e-002
      9.39919986e-003 2.25779992e-002 1.82169992e-002 4.36049979e-003
      3.09110004e-002 7.92180002e-001 1.00419998e-001 4.26039994e-002
      2.29170010e-003 3.91670018e-002 2.08330006e-004 2.08330006e-004
      1.24999997e-003 5.43750003e-002 7.33330026e-002 2.14579999e-002
      8.02079961e-003 3.09379995e-002 2.60419995e-002 7.81250000e-003
      3.51039991e-002 5.56770027e-001 5.44539988e-002 1.28849996e-002
      2.01679999e-003 1.98320001e-002 2.24090007e-004 1.12050002e-004
      7.84309988e-004 4.35860008e-002 1.36690006e-001 2.68910006e-002
      1.33330002e-002 2.59939991e-002 3.19329984e-002 8.73950031e-003
      3.99999991e-002 5.82549989e-001 8.53739977e-001 1.36020005e-001
      8.20290018e-003 1.66199997e-003 3.75289994e-004 0.</_>
    <_>
      1.87069997e-001 9.97060001e-001 9.90960002e-001 9.81970012e-001
      9.70170021e-001 9.56139982e-001 9.39880013e-001 9.22349989e-001
      9.03500021e-001 8.84039998e-001 8.64149988e-001 8.44280005e-001
      8.24899971e-001 8.06559980e-001 7.89690018e-001 7.74680018e-001
      7.61969984e-001 7.51810014e-001 7.44700015e-001 7.40830004e-001
      7.39880025e-001 1.11270003e-001 1.48310006e-001 2.41129994e-001
      2.41129994e-001 2.41129994e-001 1.77780002e-001 2.35960007e-001
      1.79550007e-001 2.02250004e-001 7.40830004e-002 1.28069997e-001
      2.41129994e-001 2.41129994e-001 2.08499998e-001 1.40929997e-001
      9.17539969e-002 2.92419996e-002 6.95390031e-002 1.54029995e-001
      2.03400001e-001 2.41129994e-001 1.41240001e-001 9.48859975e-002
      8.34029987e-002 1.76100001e-001 1.80969998e-001 2.18889996e-001
      8.79279971e-002 1.60070002e-001 2.41129994e-001 2.05899999e-001
      5.82269989e-002 1.60760004e-002 2.16210000e-002 2.32079998e-002
      5.82010001e-002 2.18750000e+000 1.61829993e-001 8.57140005e-001 0.
      0. 0. 0. 0. 0. 0. 0. 0. 0. 0. 0. 0. 0. 0. 0. 0. 6.00120015e-002
      1.03979995e-002 2.67380010e-003 1.33689996e-002 1.18829997e-003 0.
      2.97089992e-003 2.70349998e-002 5.67440018e-002 1.81220006e-002
      2.25789994e-002 3.44620012e-002 3.44620012e-002 8.02140031e-003
      5.70410006e-002 6.50919974e-001 1.44520000e-001 5.95339984e-002
      2.58839992e-003 5.52200004e-002 4.31410008e-004 8.62810004e-004
      3.01979994e-003 7.72219971e-002 1.06559999e-001 3.23560014e-002
      2.20020004e-002 4.70229983e-002 2.24329997e-002 9.92230047e-003
      2.07080003e-002 3.95599991e-001 9.64910015e-002 1.44739999e-002
      2.19299993e-003 1.35960001e-002 0. 0. 8.77189974e-004
      6.53510019e-002 1.86839998e-001 2.36840006e-002 1.62279997e-002
      3.90349999e-002 3.02629992e-002 4.82460018e-003 2.89469995e-002
      4.77200001e-001 6.28910005e-001 2.08370000e-001 8.67459998e-002
      5.18650003e-002 2.01699995e-002 3.94299999e-003</_>
    <_>
      1.78780004e-001 9.96460021e-001 9.88659978e-001 9.77110028e-001
      9.62220013e-001 9.44890022e-001 9.26069975e-001 9.06080008e-001
      8.85500014e-001 8.64210010e-001 8.42809975e-001 8.21420014e-001
      7.99799979e-001 7.78330028e-001 7.58149981e-001 7.39830017e-001
      7.23699987e-001 7.10470021e-001 7.00559974e-001 6.94199979e-001
      6.91770017e-001 1.83819994e-001 9.90310013e-002 1.97290003e-001
      1.87329993e-001 2.00969994e-001 1.78120002e-001 2.41669998e-001
      2.41669998e-001 2.11659998e-001 9.42469984e-002 1.03079997e-001
      2.41669998e-001 2.41669998e-001 2.22069994e-001 1.55369997e-001
      1.49269998e-001 1.90899998e-001 1.95600003e-001 9.95220020e-002
      1.90479994e-001 2.41669998e-001 2.20670000e-001 1.52260005e-001
      1.06569998e-001 6.35190010e-002 6.58299997e-002 9.48700011e-002
      4.26580012e-002 1.44219995e-001 2.41669998e-001 1.96549997e-001
      9.35470015e-002 5.64320013e-002 3.45319994e-002 2.79639997e-002
      2.69779991e-002 2.05879998e+000 1.35529995e-001 8.91799986e-001 0.
      0. 0. 0. 0. 0. 0. 0. 0. 0. 0. 0. 0. 0. 0. 0. 0. 7.61770010e-002
      1.29410001e-002 2.94119993e-004 2.20589992e-002 2.94119993e-004 0.
      1.47060002e-003 4.64709997e-002 1.22649997e-001 1.97059996e-002
      1.61770005e-002 4.05879989e-002 6.11770004e-002 7.05880020e-003
      7.38240033e-002 4.99119997e-001 1.51240006e-001 4.64509986e-002
      4.08770004e-003 7.09770024e-002 2.22970010e-003 0. 2.97289994e-003
      8.95579979e-002 9.73619968e-002 2.48980001e-002 2.11820006e-002
      3.27019989e-002 3.19579989e-002 7.43220001e-003 4.27349992e-002
      3.74210000e-001 1.56250000e-001 1.17650004e-002 2.20589992e-003
      1.21320002e-002 7.35289999e-004 0. 7.35289999e-004 9.52209979e-002
      1.97060004e-001 1.83819998e-002 1.50739998e-002 3.71319987e-002
      2.64710002e-002 4.41179983e-003 1.98529996e-002 4.02570009e-001
      3.34100008e-001 3.26079994e-001 1.85100004e-001 9.76400003e-002
      4.73549999e-002 9.71770007e-003</_>
    <_>
      1.55469999e-001 9.98489976e-001 9.95949984e-001 9.92910028e-001
      9.89690006e-001 9.86500025e-001 9.82819974e-001 9.78439987e-001
      9.73330021e-001 9.67599988e-001 9.62100029e-001 9.57099974e-001
      9.52560008e-001 9.47979987e-001 9.43610013e-001 9.39580023e-001
      9.36280012e-001 9.34090018e-001 9.32860017e-001 9.32430029e-001
      9.32389975e-001 1.00950003e-001 1.24190003e-001 1.21250004e-001
      1.17229998e-001 1.28140002e-001 9.26299989e-002 1.09899998e-001
      1.04189999e-001 8.99560004e-002 9.05060023e-002 1.43460006e-001
      1.98359996e-001 2.32549995e-001 2.32549995e-001 1.04079999e-001
      8.43909979e-002 1.01319999e-001 6.42649978e-002 1.91379994e-001
      2.32549995e-001 1.98410004e-001 1.31200001e-001 1.14960000e-001
      1.71519995e-001 2.05569997e-001 1.97290003e-001 1.52500004e-001
      9.75869969e-002 1.83640003e-001 2.32549995e-001 2.32549995e-001
      2.32549995e-001 2.32549995e-001 2.32549995e-001 2.32549995e-001
      1.29999995e-001 2.89549994e+000 4.47369993e-001 8.96359980e-001
      1.87940001e-001 4.14949991e-002 5.55559993e-002 1.37169997e-003
      7.71609992e-002 0. 3.42940009e-004 2.40059989e-003 6.17280006e-002
      6.68720007e-002 3.63509990e-002 2.02329997e-002 4.97259982e-002
      8.91629979e-002 8.91629979e-003 4.93829995e-002 4.39300001e-001
      1.98700000e-002 1.46009997e-002 2.12670001e-003 2.67900005e-002
      3.17420017e-005 3.17420017e-005 7.93549989e-004 2.96790004e-002
      4.12649997e-002 2.04099994e-002 8.31640046e-003 3.01229991e-002
      3.40269990e-002 8.76079965e-003 6.39289990e-002 6.99379981e-001
      3.98540013e-002 3.99580002e-002 6.81579998e-003 9.10490006e-002
      2.08119993e-004 1.04059996e-004 2.70550000e-003 6.03529997e-002
      6.00930005e-002 3.02809998e-002 6.13939995e-003 3.74610014e-002
      5.41619994e-002 1.29030002e-002 9.51069966e-002 4.62830007e-001
      6.46869987e-002 7.29359984e-002 1.09970002e-002 1.25569999e-001
      8.64070025e-004 2.35660002e-004 6.63759978e-003 7.74530023e-002
      5.31009994e-002 2.47440003e-002 1.02899997e-002 2.66290009e-002
      6.81440011e-002 1.96380001e-002 1.01140000e-001 3.36970001e-001
      7.34520018e-001 2.00450003e-001 4.21870016e-002 1.60799995e-002
      6.53189979e-003 2.28820005e-004</_>
    <_>
      1.67199999e-001 9.97560024e-001 9.92259979e-001 9.84770000e-001
      9.75390017e-001 9.65049982e-001 9.54330027e-001 9.43390012e-001
      9.31949973e-001 9.19990003e-001 9.07580018e-001 8.94959986e-001
      8.82759988e-001 8.71879995e-001 8.62299979e-001 8.54700029e-001
      8.49569976e-001 8.45820010e-001 8.43429983e-001 8.42270017e-001
      8.41929972e-001 1.14770003e-001 1.61630005e-001 1.78780004e-001
      2.41870001e-001 2.41870001e-001 2.41870001e-001 2.41870001e-001
      1.01269998e-001 8.82309973e-002 1.02140002e-001 9.50649977e-002
      2.41870001e-001 2.41870001e-001 2.41870001e-001 1.46679997e-001
      1.23669997e-001 8.54479969e-002 8.85199979e-002 4.08530012e-002
      8.56999978e-002 1.06679998e-001 1.84990004e-001 1.62279993e-001
      2.20400006e-001 2.05080003e-001 1.27090007e-001 5.73799983e-002
      7.45299980e-002 1.31150007e-001 2.41870001e-001 2.41870001e-001
      2.26750001e-001 1.37529999e-001 1.18969999e-001 9.05440003e-002
      6.24619983e-002 2.40910006e+000 2.36520007e-001 8.95519972e-001
      8.90760005e-001 1.18290000e-001 1.65289994e-002 5.16530010e-004
      2.78929994e-002 2.06610002e-003 0. 3.09920008e-003 5.16530015e-002
      2.08680004e-001 2.99590006e-002 1.60119999e-002 4.95870002e-002
      5.16530015e-002 1.60119999e-002 4.28720005e-002 3.65189999e-001
      5.65330014e-002 1.00870002e-002 5.16070006e-003 2.01740004e-002 0.
      7.03729980e-004 3.98779986e-003 4.19889987e-002 8.21020007e-002
      2.67420001e-002 1.75930001e-002 2.97909994e-002 5.55949993e-002
      1.03209997e-002 6.80269971e-002 5.71200013e-001 1.32110000e-001
      4.82160002e-002 4.17870004e-003 4.91800010e-002 0. 3.21439991e-004
      1.28580001e-003 1.14430003e-001 8.16460028e-002 2.70009991e-002
      1.96080003e-002 2.92509999e-002 3.79300006e-002 8.67890008e-003
      3.34299989e-002 4.12730008e-001 1.03220001e-001 1.60820000e-002
      3.21640004e-003 2.86550000e-002 0. 0. 4.09359997e-003
      7.22220019e-002 1.65790007e-001 2.19299998e-002 1.08190002e-002
      3.53799984e-002 4.73689996e-002 1.43280001e-002 3.94739993e-002
      4.37420011e-001 4.10189986e-001 2.97039986e-001 1.54660001e-001
      8.36670026e-002 4.52359989e-002 9.20739956e-003</_>
    <_>
      1.72279999e-001 9.98430014e-001 9.94660020e-001 9.89560008e-001
      9.83709991e-001 9.77559984e-001 9.71589983e-001 9.65979993e-001
      9.60770011e-001 9.55929995e-001 9.50999975e-001 9.45510030e-001
      9.39480007e-001 9.33220029e-001 9.26810026e-001 9.20390010e-001
      9.14579988e-001 9.09889996e-001 9.06549990e-001 9.04699981e-001
      9.04179990e-001 2.15920005e-002 1.44760003e-002 7.37209991e-002
      1.57600001e-001 2.74949998e-001 2.74949998e-001 3.38959992e-002
      2.42219996e-002 1.90060008e-002 4.01180014e-002 3.26300003e-002
      1.64810002e-001 2.74949998e-001 2.74949998e-001 1.25259995e-001
      3.87759991e-002 3.65560018e-002 3.17910016e-002 6.31420016e-002
      2.60749996e-001 2.74949998e-001 2.12390006e-001 2.74949998e-001
      2.74949998e-001 5.10319993e-002 3.41789983e-002 3.45650017e-002
      5.35239987e-002 1.74089998e-001 2.74949998e-001 2.74949998e-001
      2.54500002e-001 8.69719982e-002 4.49069999e-002 4.86930013e-002
      4.99810018e-002 4. 2.96550006e-001 7.20000029e-001 0. 0. 0. 0. 0.
      0. 0. 0. 0. 0. 0. 0. 0. 0. 0. 0. 0. 8.50759968e-002
      9.21660010e-003 2.83590006e-003 1.41789997e-002 7.08970008e-004 0.
      1.41789997e-003 4.14750017e-002 8.22400004e-002 1.94969997e-002
      2.23329999e-002 4.50190008e-002 3.68660018e-002 8.15309957e-003
      4.89189997e-002 5.82069993e-001 1.56250000e-001 7.43239969e-002
      8.44590017e-004 6.75679967e-002 0. 8.44590017e-004 0.
      1.41049996e-001 8.86820033e-002 2.19599996e-002 1.52030000e-002
      6.50340021e-002 2.02699993e-002 9.29049961e-003 1.94259994e-002
      3.19260001e-001 1.07409999e-001 1.11109996e-002 1.85180001e-003
      1.41979996e-002 0. 0. 1.85180001e-003 9.13579985e-002
      2.24069998e-001 1.35800000e-002 1.41979996e-002 4.75310013e-002
      3.64199989e-002 8.02469999e-003 4.56789993e-002 3.82719994e-001
      3.83870006e-001 2.29829997e-001 1.67300001e-001 1.31290004e-001
      7.36330003e-002 1.40770003e-002</_>
    <_>
      1.63790002e-001 9.98870015e-001 9.95850027e-001 9.91060019e-001
      9.84799981e-001 9.77429986e-001 9.69210029e-001 9.60470021e-001
      9.51380014e-001 9.42229986e-001 9.33200002e-001 9.24449980e-001
      9.16180015e-001 9.08630013e-001 9.01910007e-001 8.96170020e-001
      8.91390026e-001 8.87679994e-001 8.84999990e-001 8.83379996e-001
      8.82849991e-001 5.08400016e-002 3.56290005e-002 2.74429992e-002
      5.18120006e-002 2.56029993e-001 2.66339988e-001 2.66339988e-001
      1.01039998e-001 7.92910010e-002 3.08439992e-002 5.40870018e-002
      1.93509996e-001 2.66339988e-001 2.66339988e-001 1.17540002e-001
      4.01370004e-002 2.98149996e-002 3.59219983e-002 6.89160004e-002
      1.18199997e-001 1.11479998e-001 8.42280015e-002 2.66339988e-001
      2.66339988e-001 2.36100003e-001 1.16279997e-001 1.03780001e-001
      7.24330023e-002 2.12960005e-001 2.66339988e-001 2.66339988e-001
      2.66339988e-001 1.67539999e-001 6.16949983e-002 6.81549981e-002
      7.24259987e-002 2.57139993e+000 2.89940000e-001 8.96279991e-001 0.
      0. 0. 0. 0. 0. 0. 0. 0. 0. 0. 0. 0. 0. 0. 0. 0. 2.55779997e-002
      4.93780011e-003 1.08630001e-003 5.13530010e-003 9.87559979e-005 0.
      6.91290013e-004 7.70290010e-003 4.73040007e-002 9.18429997e-003
      1.16529996e-002 2.05409992e-002 2.06400007e-002 6.12290017e-003
      4.92790006e-002 7.90090024e-001 8.73949975e-002 4.80390005e-002
      1.68069999e-003 4.21570018e-002 0. 2.80109991e-004 7.00280012e-004
      1.01960003e-001 5.18210009e-002 2.87120007e-002 1.27450004e-002
      3.44539993e-002 9.94400028e-003 4.20169998e-003 7.14290002e-003
      5.68799973e-001 6.64680004e-002 9.05259978e-003 3.72019992e-003
      2.10810006e-002 4.96030028e-004 0. 2.35620001e-003 6.32440001e-002
      1.51289999e-001 1.32689998e-002 6.94439979e-003 2.36859992e-002
      2.75299996e-002 7.06849992e-003 2.76539996e-002 5.76160014e-001
      7.38619983e-001 2.15790004e-001 3.23130004e-002 1.00819999e-002
      3.13109998e-003 6.26210021e-005</_>
    <_>
      7.91499987e-002 9.98640001e-001 9.95620012e-001 9.90790009e-001
      9.84520018e-001 9.77280021e-001 9.68980014e-001 9.59940016e-001
      9.50460017e-001 9.40970004e-001 9.31879997e-001 9.23389971e-001
      9.15750027e-001 9.08869982e-001 9.02700007e-001 8.97599995e-001
      8.93320024e-001 8.90169978e-001 8.88180017e-001 8.87019992e-001
      8.86699975e-001 1.35120004e-001 9.79939997e-002 1.12539999e-001
      1.53099999e-001 1.57460004e-001 2.67789990e-001 2.67789990e-001
      2.67789990e-001 1.94590002e-001 1.20829999e-001 1.13030002e-001
      2.67789990e-001 2.67789990e-001 1.05190001e-001 1.02959998e-001
      1.37899995e-001 1.13839999e-001 1.07819997e-001 7.35350028e-002
      1.10339999e-001 2.59829998e-001 2.24050000e-001 2.35850006e-001
      1.77739993e-001 1.19730003e-001 5.80720007e-002 5.62300012e-002
      4.62329984e-002 1.10220000e-001 2.67789990e-001 2.67789990e-001
      8.95820037e-002 6.48289993e-002 5.51300012e-002 4.49439995e-002
      3.33030000e-002 3.41669989e+000 1.85179994e-001 8.77550006e-001 0.
      0. 0. 0. 0. 0. 0. 0. 0. 0. 0. 0. 0. 0. 0. 0. 0. 5.59660010e-002
      8.55030026e-003 2.33189994e-003 1.63230002e-002 3.88649991e-004
      3.88649991e-004 1.16600003e-003 3.61450016e-002 4.58609983e-002
      1.43799996e-002 2.25419998e-002 3.38129997e-002 3.69220003e-002
      7.77299982e-003 4.70269993e-002 6.70409977e-001 1.67490005e-001
      7.88180009e-002 1.23149995e-003 8.86700004e-002 1.23149995e-003 0.
      1.23149995e-003 7.75860026e-002 2.58620009e-002 4.31040004e-002
      1.97039992e-002 6.65030032e-002 1.97039992e-002 7.38919992e-003
      7.38919992e-003 3.94089997e-001 6.64670020e-002 7.71869998e-003
      2.14409991e-003 9.43399966e-003 8.57629988e-004 0. 1.71530002e-003
      4.71699983e-002 1.88250005e-001 3.00169997e-002 2.18700003e-002
      2.74439994e-002 3.04460004e-002 6.43219985e-003 2.57290006e-002
      5.34309983e-001 7.22199976e-001 1.68919995e-001 5.45450002e-002
      3.08669992e-002 2.07189992e-002 2.74839997e-003</_>
    <_>
      8.39150026e-002 9.98300016e-001 9.95260000e-001 9.90909994e-001
      9.85360026e-001 9.78720009e-001 9.71409976e-001 9.63639975e-001
      9.55680013e-001 9.47459996e-001 9.39509988e-001 9.31959987e-001
      9.25189972e-001 9.19269979e-001 9.14049983e-001 9.09439981e-001
      9.05849993e-001 9.03119981e-001 9.01650012e-001 9.00629997e-001
      9.00020003e-001 1.50110006e-001 2.41390005e-001 1.94900006e-001
      1.23140000e-001 1.89319998e-001 2.52189994e-001 2.52189994e-001
      2.52189994e-001 1.48949996e-001 1.40459999e-001 2.15560004e-001
      2.52189994e-001 2.52189994e-001 1.70340002e-001 9.12450030e-002
      7.45930001e-002 6.80859983e-002 6.73879981e-002 6.70190006e-002
      1.18069999e-001 2.38079995e-001 2.05050007e-001 1.80380002e-001
      1.89089999e-001 9.33929980e-002 8.31170008e-002 7.89100006e-002
      6.31889999e-002 9.41860005e-002 2.52189994e-001 2.52189994e-001
      1.12680003e-001 6.47659972e-002 3.23599987e-002 4.03259993e-002
      4.78670001e-002 5. 1.90239996e-001 8.90829980e-001 0. 0. 0. 0. 0.
      0. 0. 0. 0. 0. 0. 0. 0. 0. 0. 0. 0. 7.94870034e-002
      1.53850000e-002 7.17950007e-003 2.25639995e-002 0. 5.12820028e-004
      1.53849996e-003 4.56410013e-002 4.20509987e-002 1.58970002e-002
      2.71790009e-002 3.99999991e-002 4.82049994e-002 6.66669989e-003
      5.64099997e-002 5.91279984e-001 1.56090006e-001 8.86240005e-002
      3.96829983e-003 8.20109993e-002 0. 0. 2.64550000e-003
      9.12699997e-002 4.62960005e-002 3.17460001e-002 3.83599997e-002
      5.55559993e-002 5.29100001e-003 1.19049996e-002 1.71959996e-002
      3.69049996e-001 6.65759966e-002 8.66390020e-003 1.82400004e-003
      1.00320000e-002 0. 0. 4.56000009e-004 2.82719992e-002
      1.68259993e-001 2.55360007e-002 2.37119999e-002 2.96400003e-002
      3.83040011e-002 7.75189977e-003 3.10079996e-002 5.59960008e-001
      7.08720028e-001 1.66449994e-001 7.69030005e-002 3.34470011e-002
      1.31679997e-002 1.31680002e-003</_>
    <_>
      1.73160002e-001 9.97560024e-001 9.91389990e-001 9.81649995e-001
      9.68559980e-001 9.52369988e-001 9.33799982e-001 9.13500011e-001
      8.91849995e-001 8.68990004e-001 8.45950007e-001 8.23109984e-001
      8.00899982e-001 7.79600024e-001 7.60089993e-001 7.42630005e-001
      7.27630019e-001 7.15349972e-001 7.06420004e-001 7.00969994e-001
      6.99240029e-001 9.95979980e-002 1.10090002e-001 1.63120002e-001
      1.41819999e-001 2.28489995e-001 2.28489995e-001 2.16089994e-001
      2.10759997e-001 1.19680002e-001 7.54949972e-002 1.56200007e-001
      2.28489995e-001 2.28489995e-001 2.28489995e-001 2.18669996e-001
      1.72380000e-001 1.52510002e-001 8.96959975e-002 9.59639996e-002
      5.96409999e-002 8.90000015e-002 8.07750002e-002 1.69469997e-001
      2.19170004e-001 1.61550000e-001 1.95639998e-001 1.40139997e-001
      8.92499983e-002 1.05200000e-001 2.28489995e-001 2.28489995e-001
      2.28489995e-001 1.39620006e-001 1.10990003e-001 1.44439995e-001
      8.51199999e-002 1.72730005e+000 1.76210001e-001 8.95259976e-001 0.
      0. 0. 0. 0. 0. 0. 0. 0. 0. 0. 0. 0. 0. 0. 0. 0. 3.56899984e-002
      1.37210004e-002 1.68350001e-004 1.24580003e-002 8.41750007e-005
      8.41750007e-005 2.52530008e-004 2.01180000e-002 3.13970000e-002
      5.30300010e-003 1.01009998e-002 1.47310002e-002 1.91079993e-002
      1.43099995e-003 3.15660015e-002 8.03699970e-001 9.15850028e-002
      2.20040008e-002 1.63540000e-003 4.01430018e-002 2.97349994e-004
      1.48680003e-004 1.18939998e-003 8.57859999e-002 1.27269998e-001
      1.48679996e-002 1.42729999e-002 2.27480009e-002 3.03300004e-002
      4.90629999e-003 4.19269986e-002 5.00909984e-001 6.09060004e-002
      1.34049999e-002 1.69179996e-003 2.49869991e-002 2.60280009e-004 0.
      1.30140001e-003 8.42000023e-002 1.68919995e-001 1.10619999e-002
      1.30139999e-002 2.12130006e-002 3.22749987e-002 4.42480016e-003
      3.39669995e-002 5.28379977e-001 7.50329971e-001 1.96239993e-001
      3.55510004e-002 1.32090002e-002 4.40309988e-003 2.71800003e-004</_>
    <_>
      1.19000003e-001 9.98459995e-001 9.94570017e-001 9.88600016e-001
      9.80599999e-001 9.70669985e-001 9.59450006e-001 9.47489977e-001
      9.34909999e-001 9.21999991e-001 9.09259975e-001 8.97000015e-001
      8.85439992e-001 8.74859989e-001 8.65480006e-001 8.57519984e-001
      8.50920022e-001 8.45849991e-001 8.42230022e-001 8.40129972e-001
      8.39420021e-001 6.46359995e-002 1.03629999e-001 2.89519995e-001
      2.89519995e-001 2.89519995e-001 1.18900001e-001 5.03510013e-002
      5.27999997e-002 4.09770012e-002 3.91919985e-002 6.16919994e-002
      2.89519995e-001 2.89519995e-001 1.79169998e-001 2.84449998e-002
      8.29039980e-003 1.45020001e-002 1.46890003e-002 5.53979985e-002
      8.65959972e-002 2.89519995e-001 2.80229986e-001 2.89519995e-001
      2.01769993e-001 9.64519978e-002 5.49429990e-002 3.44039984e-002
      2.53020003e-002 6.06870018e-002 2.89519995e-001 2.89519995e-001
      1.35330006e-001 2.84759998e-002 2.56680008e-002 1.84700005e-002
      1.16680004e-002 1.65219998e+000 2.12770000e-001 8.94739985e-001 0.
      0. 0. 0. 0. 0. 0. 0. 0. 0. 0. 0. 0. 0. 0. 0. 0. 3.43139991e-002
      7.35290023e-003 1.05039997e-003 1.54060004e-002 3.50140006e-004 0.
      0. 4.44680005e-002 1.11699998e-001 1.19049996e-002 1.57559998e-002
      3.99160013e-002 5.60219996e-002 6.65269978e-003 6.96780011e-002
      5.85439980e-001 2.31419995e-001 6.26929998e-002 1.54800003e-003
      4.79880013e-002 7.73990003e-004 1.54800003e-003 2.32199999e-003
      9.36530009e-002 6.65630028e-002 2.70900000e-002 2.94119995e-002
      3.71519998e-002 1.70280002e-002 7.73990015e-003 2.32200008e-002
      3.49849999e-001 1.11879997e-001 3.49950008e-002 7.42310006e-003
      4.29480001e-002 1.59070001e-003 5.30219986e-004 3.18129989e-003
      9.80909988e-002 1.83990002e-001 1.06039997e-002 2.65110005e-002
      2.65110005e-002 4.71899994e-002 5.83249982e-003 5.03709987e-002
      3.48360002e-001 5.48189998e-001 2.83930004e-001 8.33930001e-002
      4.94589992e-002 3.05049997e-002 4.51260014e-003</_>
    <_>
      1.21399999e-001 9.99159992e-001 9.97080028e-001 9.94080007e-001
      9.90339994e-001 9.86010015e-001 9.80970025e-001 9.75329995e-001
      9.69200015e-001 9.62809980e-001 9.56430018e-001 9.50250030e-001
      9.44450021e-001 9.39029992e-001 9.34069991e-001 9.29700017e-001
      9.25999999e-001 9.22969997e-001 9.20729995e-001 9.19369996e-001
      9.18889999e-001 1.13430001e-001 1.79409996e-001 2.62510002e-001
      2.62510002e-001 2.62510002e-001 2.17390001e-001 6.54560030e-002
      6.49269968e-002 9.65180025e-002 1.09810002e-001 1.94150001e-001
      2.62510002e-001 2.62510002e-001 2.62510002e-001 1.00790001e-001
      2.57229991e-002 2.84160003e-002 6.63029999e-002 4.14780006e-002
      1.11000001e-001 2.05589995e-001 2.62510002e-001 2.62510002e-001
      1.04910001e-001 5.19189984e-002 5.33780009e-002 3.84850018e-002
      4.08690013e-002 9.97589976e-002 2.62510002e-001 2.62510002e-001
      2.04710007e-001 5.92730008e-002 1.89149994e-002 1.62029993e-002
      1.88129991e-002 1.28179998e+001 2.83399999e-001 8.96359980e-001
      2.35929990e+000 7.59629980e-002 5.67520000e-002 8.81829998e-004
      4.85009998e-002 0. 2.51949998e-004 4.40920005e-004 6.72710016e-002
      5.92090003e-002 1.69440005e-002 9.38520022e-003 2.42509991e-002
      2.36840006e-002 4.66109999e-003 4.72409986e-002 5.64629972e-001
      1.64110009e-002 8.86869989e-003 4.18990006e-004 2.11590007e-002
      6.98320000e-005 0. 2.09499995e-004 1.80169996e-002 5.06279990e-002
      1.78769995e-002 1.07540004e-002 2.58380007e-002 2.36729998e-002
      4.67879977e-003 4.50409986e-002 7.56410003e-001 1.17890000e-001
      7.77439997e-002 7.62199983e-004 4.54780012e-002 0. 2.54059996e-004
      5.08130004e-004 6.79619983e-002 6.98679984e-002 2.75660008e-002
      1.29570002e-002 3.35370004e-002 1.46089997e-002 5.97049994e-003
      2.66769994e-002 4.98250008e-001 4.18279991e-002 3.45950015e-002
      1.68210000e-003 5.03499992e-002 0. 1.68209997e-004 8.97109974e-004
      4.01460007e-002 1.25939995e-001 2.05210000e-002 9.75610036e-003
      2.23159995e-002 5.45560010e-002 6.89650001e-003 8.34330022e-002
      5.06889999e-001 8.08319986e-001 1.51040003e-001 2.49990001e-002
      1.06750000e-002 4.81350021e-003 1.55269998e-004</_>
    <_>
      1.40959993e-001 9.97870028e-001 9.92590010e-001 9.84830022e-001
      9.74950016e-001 9.62790012e-001 9.48350012e-001 9.32290018e-001
      9.14979994e-001 8.97019982e-001 8.78820002e-001 8.60800028e-001
      8.43450010e-001 8.27220023e-001 8.12460005e-001 7.99440026e-001
      7.88309991e-001 7.79309988e-001 7.72700012e-001 7.68519998e-001
      7.67090023e-001 4.71009985e-002 3.70809995e-002 8.80879983e-002
      1.11160003e-001 2.74329990e-001 2.74329990e-001 1.77359998e-001
      5.68149984e-002 4.02350016e-002 8.14459994e-002 8.41239989e-002
      1.47410005e-001 2.74329990e-001 2.74329990e-001 1.71079993e-001
      1.67909995e-001 7.68430009e-002 5.44890016e-002 1.90329999e-002
      1.41899996e-002 6.51950017e-002 1.39740005e-001 2.74329990e-001
      2.74329990e-001 2.74329990e-001 5.06940000e-002 3.01549993e-002
      4.22840007e-002 4.50050011e-002 1.02930002e-001 2.74329990e-001
      2.74329990e-001 2.74329990e-001 1.90390006e-001 5.19360006e-002
      4.17039990e-002 1.60940003e+000 2.08199993e-001 8.95330012e-001
      1.00539994e+000 2.04700008e-002 7.20900018e-003 8.00999987e-004
      1.77110005e-002 0. 0. 0. 2.44750008e-002 1.24240004e-001
      7.83200003e-003 1.06800003e-002 1.77110005e-002 3.35530005e-002
      3.64900008e-003 4.26310003e-002 6.88989997e-001 2.82920003e-002
      1.44670000e-002 7.90009974e-004 2.81440001e-002 1.48129999e-004
      1.97500005e-004 3.95000010e-004 5.70279993e-002 1.33760005e-001
      1.36770001e-002 9.57879983e-003 2.16760002e-002 3.14520001e-002
      4.73999977e-003 4.44869995e-002 6.11169994e-001 3.37270014e-002
      1.50380004e-002 3.58040008e-004 3.48009989e-002 0. 0.
      3.58040008e-004 5.07699996e-002 1.26100004e-001 2.21270006e-002
      1.00969998e-002 2.80699991e-002 1.79740004e-002 3.93840019e-003
      1.86899994e-002 6.37950003e-001 2.69699991e-002 1.04860002e-002
      3.30629991e-004 2.06879992e-002 0. 0. 1.41700002e-004
      4.30760011e-002 1.13640003e-001 1.87979992e-002 7.84050021e-003
      2.52689999e-002 2.16799993e-002 3.77859990e-003 3.34409997e-002
      6.73799992e-001 8.35060000e-001 1.44769996e-001 1.71969999e-002
      2.62470008e-003 3.55419994e-004 0.</_>
    <_>
      1.46489993e-001 9.97669995e-001 9.91909981e-001 9.83269989e-001
      9.72180009e-001 9.59129989e-001 9.44610000e-001 9.28830028e-001
      9.12119985e-001 8.94800007e-001 8.77219975e-001 8.59570026e-001
      8.42320025e-001 8.25469971e-001 8.09610009e-001 7.95390010e-001
      7.83259988e-001 7.73580015e-001 7.66550004e-001 7.62319982e-001
      7.61020005e-001 8.85419995e-002 7.55150020e-002 1.66170001e-001
      1.44800007e-001 2.15859994e-001 1.97349995e-001 1.17109999e-001
      4.47649993e-002 6.68990016e-002 3.37000005e-002 1.44950002e-001
      2.74910003e-001 2.74910003e-001 2.66380012e-001 9.49930027e-002
      4.63850014e-002 6.76630018e-003 7.47929979e-003 1.75940007e-001
      1.99890003e-001 2.74910003e-001 1.86480001e-001 2.15269998e-001
      2.74910003e-001 2.26650000e-001 9.18050036e-002 1.19960003e-001
      4.19149995e-002 1.83459997e-001 2.74910003e-001 2.74910003e-001
      7.61059970e-002 4.56340015e-002 3.60849984e-002 2.01200005e-002
      1.87330004e-002 1.47619998e+000 2.23399997e-001 8.90479982e-001
      1.55760002e+000 1.49090007e-001 4.36509997e-002 3.40140006e-003
      4.53520007e-002 0. 0. 1.13380002e-003 1.03739999e-001
      4.36509997e-002 1.64400004e-002 2.60770004e-002 4.25169989e-002
      1.47390002e-002 5.10200020e-003 1.19049996e-002 4.93200004e-001
      4.31249999e-002 1.20179998e-002 1.41390006e-003 1.37860002e-002 0.
      0. 7.06959981e-004 1.73209999e-002 8.41289982e-002 1.94419995e-002
      2.40369998e-002 3.60549986e-002 3.28739993e-002 5.65569988e-003
      6.39799982e-002 6.45449996e-001 2.07090005e-001 5.81559986e-002
      3.54610011e-003 3.68800014e-002 0. 0. 1.41839997e-003
      8.01419988e-002 7.94330016e-002 2.05669999e-002 2.83690002e-002
      4.32620011e-002 1.06380004e-002 3.54610011e-003 9.92910005e-003
      4.17019993e-001 1.14129998e-001 1.82809997e-002 9.88140004e-004
      1.63039993e-002 0. 9.88140004e-004 2.47039995e-003 6.12649992e-002
      1.81319997e-001 2.51979996e-002 2.42090002e-002 3.01380008e-002
      2.86560003e-002 9.38730035e-003 2.61860006e-002 4.60469991e-001
      4.41639990e-001 2.82169998e-001 1.76009998e-001 6.91640005e-002
      2.73439996e-002 3.67649994e-003</_>
    <_>
      2.41319999e-001 9.94949996e-001 9.87330019e-001 9.77999985e-001
      9.65749979e-001 9.51680005e-001 9.35509980e-001 9.18309987e-001
      8.99959981e-001 8.80779982e-001 8.61299992e-001 8.41419995e-001
      8.22170019e-001 8.03219974e-001 7.85319984e-001 7.69140005e-001
      7.55379975e-001 7.43889987e-001 7.36570001e-001 7.32020020e-001
      7.29669988e-001 1.06040001e-001 2.32720003e-001 1.56639993e-001
      1.84269994e-001 2.13960007e-001 2.04779997e-001 1.43230006e-001
      7.25490004e-002 6.88790008e-002 7.05860034e-002 1.29490003e-001
      1.98290005e-001 2.35459998e-001 2.35459998e-001 2.16769993e-001
      1.77369997e-001 1.14900000e-001 7.42840022e-002 1.17100000e-001
      2.35459998e-001 2.35459998e-001 2.35459998e-001 2.35459998e-001
      1.53029993e-001 9.03360024e-002 6.77160025e-002 7.59060010e-002
      6.01200014e-002 1.62959993e-001 2.35459998e-001 2.35459998e-001
      2.09600002e-001 1.27110004e-001 6.69049993e-002 4.17080000e-002
      4.04830016e-002 2.59089994e+000 1.48719996e-001 8.98379982e-001 0.
      0. 0. 0. 0. 0. 0. 0. 0. 0. 0. 0. 0. 0. 0. 0. 0. 2.84289997e-002
      2.57140002e-003 2.00000009e-003 9.57139954e-003 7.14290014e-004
      2.85710004e-004 1.14289997e-003 2.11430006e-002 5.17139994e-002
      1.22860000e-002 1.24289999e-002 2.95720007e-002 2.38569994e-002
      5.85709978e-003 4.88569997e-002 7.49570012e-001 1.43279999e-001
      4.57770005e-002 5.52720018e-003 4.42180000e-002 2.12579989e-003
      8.50340002e-004 4.11000010e-003 8.48930031e-002 8.20579976e-002
      2.14000009e-002 1.45969996e-002 2.79200003e-002 2.94780005e-002
      8.50339979e-003 5.71149997e-002 4.28130001e-001 1.18409999e-001
      2.07620002e-002 6.44329982e-003 3.04979999e-002 8.59109976e-004
      2.86369992e-004 3.86600010e-003 7.64610022e-002 1.24710001e-001
      1.73250008e-002 1.38889998e-002 2.46280003e-002 3.66550013e-002
      1.07389996e-002 6.42900020e-002 4.50150013e-001 5.61389983e-001
      2.97749996e-001 6.98589981e-002 3.58770005e-002 2.96870004e-002
      5.43199992e-003</_>
    <_>
      1.59779996e-001 9.97259974e-001 9.91439998e-001 9.82890010e-001
      9.72050011e-001 9.58920002e-001 9.43780005e-001 9.27169979e-001
      9.09150004e-001 8.90060008e-001 8.70720029e-001 8.51589978e-001
      8.33190024e-001 8.15829992e-001 8.00010026e-001 7.86029994e-001
      7.74010003e-001 7.63599992e-001 7.55779982e-001 7.51129985e-001
      7.49490023e-001 3.07810004e-003 2.51230001e-002 1.72710001e-001
      2.93920010e-001 2.93920010e-001 1.13839999e-001 3.61220017e-002
      1.41099999e-002 2.20280001e-003 6.31910004e-003 3.82790007e-002
      2.93920010e-001 2.93920010e-001 2.38509998e-001 5.45339994e-002
      9.81330033e-003 8.48449999e-004 2.06109998e-003 2.01709997e-002
      1.95039995e-002 1.18900001e-001 2.93920010e-001 2.93920010e-001
      2.63709992e-001 1.61210001e-001 2.07870007e-001 5.25639988e-002
      1.52530000e-002 3.53469998e-002 1.65749997e-001 2.93920010e-001
      2.93920010e-001 9.78339985e-002 5.03589995e-002 3.68969999e-002
      2.61809994e-002 1.93330002e+000 2.41009995e-001 8.93549979e-001
      2.85730004e-001 1.76019996e-001 1.27550000e-002 0. 8.92859977e-003
      0. 0. 0. 2.67859995e-002 2.61480004e-001 2.29589995e-002
      2.16840003e-002 6.37750030e-002 3.44390012e-002 6.37760013e-003
      5.10200001e-002 3.13780010e-001 6.40420020e-002 1.25709996e-002
      2.37190002e-003 2.39560008e-002 2.37190005e-004 0. 9.48769972e-004
      1.15510002e-001 1.43739998e-001 8.77610035e-003 9.48769972e-003
      2.98859999e-002 4.95730005e-002 4.50660009e-003 3.10720000e-002
      5.03329992e-001 1.07369997e-001 3.19430009e-002 8.87310016e-004
      4.85059991e-002 0. 0. 5.91540011e-004 7.66049996e-002
      9.84919965e-002 4.64360006e-002 1.98170003e-002 5.35340011e-002
      1.39009999e-002 1.06480001e-002 1.30139999e-002 4.78249997e-001
      9.17870030e-002 2.98260003e-002 4.20080003e-004 1.47030000e-002 0.
      0. 4.20080003e-004 4.80990000e-002 1.05439998e-001 2.56249998e-002
      1.53329996e-002 2.70949993e-002 7.35139987e-003 6.09119982e-003
      9.03169997e-003 6.18789971e-001 6.33520007e-001 2.75629997e-001
      6.22060001e-002 2.15879995e-002 6.54800003e-003 5.11560007e-004</_>
    <_>
      1.60040006e-001 9.96819973e-001 9.90419984e-001 9.81270015e-001
      9.69609976e-001 9.55690026e-001 9.39599991e-001 9.21850026e-001
      9.02989984e-001 8.83369982e-001 8.63640010e-001 8.44210029e-001
      8.25200021e-001 8.07299972e-001 7.90690005e-001 7.76109993e-001
      7.63570011e-001 7.53009975e-001 7.44859993e-001 7.39340007e-001
      7.37420022e-001 9.89319980e-002 1.03000000e-001 1.38589993e-001
      2.21039996e-001 2.37959996e-001 1.98909998e-001 2.37959996e-001
      2.37959996e-001 1.61080003e-001 6.75889999e-002 1.35749996e-001
      2.37959996e-001 2.37959996e-001 2.37959996e-001 1.39809996e-001
      9.84769985e-002 1.08850002e-001 1.07560001e-001 8.53220001e-002
      8.98440033e-002 2.22420007e-001 2.37959996e-001 2.37959996e-001
      1.35830000e-001 1.58879995e-001 1.75630003e-001 1.45860001e-001
      4.02939990e-002 1.03749998e-001 2.37959996e-001 2.37959996e-001
      1.43920004e-001 5.33629991e-002 3.40059996e-002 3.89270000e-002
      4.99220006e-002 2.31820011e+000 1.65700004e-001 8.95560026e-001 0.
      0. 0. 0. 0. 0. 0. 0. 0. 0. 0. 0. 0. 0. 0. 0. 0. 4.27750014e-002
      6.85720006e-003 2.12249998e-003 8.00000038e-003 4.89800004e-004 0.
      8.16330023e-004 1.81230009e-002 3.86940017e-002 1.07760001e-002
      1.50199998e-002 2.62860004e-002 2.57959999e-002 7.02039991e-003
      5.74689992e-002 7.39740014e-001 1.33560002e-001 4.74539995e-002
      3.47219990e-003 5.20830005e-002 2.31479993e-004 2.31479993e-004
      2.08329991e-003 9.14350003e-002 9.46760029e-002 2.50000004e-002
      1.15740001e-002 4.88430001e-002 2.33800001e-002 6.71300013e-003
      3.24070007e-002 4.26840007e-001 1.01219997e-001 8.72210041e-003
      2.83979997e-003 2.12980006e-002 2.02840005e-004 0. 1.41989999e-003
      7.50510022e-002 2.02230006e-001 1.96749996e-002 1.56190004e-002
      2.51519997e-002 2.06899997e-002 7.91069958e-003 3.02230008e-002
      4.67739999e-001 6.40250027e-001 2.70779997e-001 5.98729998e-002
      2.14930009e-002 6.72559999e-003 8.77259998e-004</_>
    <_>
      1.81119993e-001 9.95010018e-001 9.85989988e-001 9.73900020e-001
      9.59749997e-001 9.43589985e-001 9.25700009e-001 9.06899989e-001
      8.87269974e-001 8.67630005e-001 8.47989976e-001 8.28310013e-001
      8.07650030e-001 7.86710024e-001 7.67329991e-001 7.49790013e-001
      7.34380007e-001 7.21369982e-001 7.10759997e-001 7.03880012e-001
      7.01439977e-001 9.41099972e-002 1.49649993e-001 1.89530000e-001
      2.14849994e-001 2.52420008e-001 2.52420008e-001 1.47929996e-001
      1.26130000e-001 8.27360004e-002 1.25689998e-001 2.15179995e-001
      2.52420008e-001 2.52420008e-001 2.48539999e-001 1.47489995e-001
      1.42780006e-001 1.68430001e-001 1.46420002e-001 6.32089972e-002
      2.52420008e-001 2.52420008e-001 1.81030005e-001 1.29800007e-001
      1.09470002e-001 8.13189968e-002 6.39280006e-002 4.75529991e-002
      4.50260006e-002 2.25759998e-001 2.52420008e-001 1.87570006e-001
      5.75990006e-002 4.35459986e-002 4.96169999e-002 4.70889993e-002
      3.24909985e-002 1.88240004e+000 1.55169994e-001 8.95349979e-001 0.
      0. 0. 0. 0. 0. 0. 0. 0. 0. 0. 0. 0. 0. 0. 0. 0. 5.35710007e-002
      1.01539996e-002 1.75069994e-003 1.19049996e-002 3.50140006e-004 0.
      1.40059995e-003 3.46640013e-002 6.86269999e-002 2.20589992e-002
      1.61060002e-002 4.51680012e-002 3.18630002e-002 1.08540002e-002
      6.47760034e-002 6.26749992e-001 1.64269999e-001 5.45979999e-002
      5.74709987e-003 4.26249988e-002 1.91570004e-003 4.78929986e-004
      2.39460007e-003 7.56710023e-002 6.80079982e-002 2.87360009e-002
      2.49039996e-002 3.78349982e-002 2.05940008e-002 6.70500007e-003
      3.59200016e-002 4.29600000e-001 1.35340005e-001 2.40599997e-002
      5.01250010e-003 4.76190001e-002 1.50380004e-003 1.00249995e-003
      2.50630011e-003 7.66920000e-002 1.67420000e-001 2.10529994e-002
      2.45609991e-002 3.00750006e-002 4.76190001e-002 1.10280002e-002
      4.11030017e-002 3.63409996e-001 4.70409989e-001 3.28940004e-001
      1.17559999e-001 5.20329997e-002 2.91060004e-002 1.95119996e-003</_>
    <_>
      1.94040000e-001 9.98030007e-001 9.93340015e-001 9.85899985e-001
      9.76109982e-001 9.64259982e-001 9.50510025e-001 9.35379982e-001
      9.19080019e-001 9.01960015e-001 8.84410024e-001 8.66720021e-001
      8.49680007e-001 8.33450019e-001 8.18319976e-001 8.05000007e-001
      7.93690026e-001 7.84919977e-001 7.78410017e-001 7.74500012e-001
      7.73159981e-001 9.85120013e-002 6.63150027e-002 2.30279997e-001
      1.97940007e-001 2.26710007e-001 1.73539996e-001 1.41969994e-001
      1.02650002e-001 1.69740006e-001 7.35369995e-002 5.38370013e-002
      2.07269996e-001 2.65179992e-001 2.65179992e-001 1.02980003e-001
      4.47969995e-002 4.06249985e-002 4.46400009e-002 1.12520002e-001
      1.95749998e-001 2.65179992e-001 2.65179992e-001 2.65179992e-001
      1.52869999e-001 1.23920001e-001 8.50680023e-002 1.62080005e-001
      6.76139966e-002 1.83190003e-001 2.65179992e-001 2.65179992e-001
      1.53160006e-001 4.28600013e-002 3.82919982e-002 3.41779999e-002
      3.13809998e-002 4. 1.82539999e-001 8.80699992e-001 0. 0. 0. 0. 0.
      0. 0. 0. 0. 0. 0. 0. 0. 0. 0. 0. 0. 5.61870001e-002
      1.26259997e-002 2.20960006e-003 1.57830007e-002 3.15660000e-004 0.
      9.46970016e-004 4.26140018e-002 6.02900013e-002 1.57830007e-002
      1.73610002e-002 3.91409993e-002 4.89270017e-002 9.46970005e-003
      8.42799991e-002 5.94070017e-001 1.56460002e-001 5.25319986e-002
      2.26760004e-003 5.85790016e-002 1.88959995e-003 7.55860005e-004
      2.64550000e-003 1.06950000e-001 1.05439998e-001 2.53209993e-002
      2.19199993e-002 3.89270000e-002 2.56990008e-002 6.04690006e-003
      3.06119993e-002 3.63940001e-001 8.99109989e-002 2.29920000e-002
      5.14760008e-003 3.74060012e-002 1.71590003e-003 0. 4.46119998e-003
      1.06729999e-001 2.06589997e-001 1.57859996e-002 1.99040007e-002
      2.74540000e-002 5.28480001e-002 6.17709989e-003 2.53950004e-002
      3.77490014e-001 4.94639993e-001 3.30170006e-001 9.36890021e-002
      4.23979983e-002 3.07020005e-002 8.40639975e-003</_>
    <_>
      1.26499996e-001 9.97009993e-001 9.89470005e-001 9.78510022e-001
      9.64929998e-001 9.48880017e-001 9.30660009e-001 9.10870016e-001
      8.89999986e-001 8.68529975e-001 8.46710026e-001 8.25049996e-001
      8.03879976e-001 7.83460021e-001 7.63970017e-001 7.46320009e-001
      7.31289983e-001 7.19179988e-001 7.09949970e-001 7.03909993e-001
      7.01770008e-001 2.24169999e-001 2.14100003e-001 2.00360000e-001
      1.54159993e-001 1.47569999e-001 7.26760030e-002 8.65340009e-002
      2.01030001e-001 2.27270007e-001 2.27270007e-001 2.27270007e-001
      2.27270007e-001 2.27270007e-001 2.15389997e-001 6.97069988e-002
      8.67730007e-002 2.07910001e-001 2.27270007e-001 1.39530003e-001
      1.23609997e-001 1.77110001e-001 1.54210001e-001 1.11740001e-001
      5.98040000e-002 6.84920028e-002 1.23580001e-001 1.83699995e-001
      1.28959998e-001 1.47349998e-001 2.27270007e-001 2.27270007e-001
      1.71340004e-001 5.19450009e-002 4.00249995e-002 6.81219995e-002
      1.05990000e-001 3.09999990e+000 1.96349993e-001 8.97119999e-001 0.
      0. 0. 0. 0. 0. 0. 0. 0. 0. 0. 0. 0. 0. 0. 0. 0. 6.96579963e-002
      1.23929996e-002 1.28209998e-003 1.70939993e-002 0. 0.
      4.27349994e-004 2.17950009e-002 5.21369986e-002 1.19660003e-002
      2.60680001e-002 4.40169983e-002 3.11970003e-002 5.55559993e-003
      6.75209984e-002 6.38899982e-001 1.65659994e-001 4.37709987e-002
      2.69360002e-003 5.65660000e-002 6.73400005e-004 0. 2.02020002e-003
      7.27270022e-002 1.06399998e-001 3.43430005e-002 2.69360002e-002
      4.10769992e-002 2.28959993e-002 8.08080006e-003 3.36700007e-002
      3.82490009e-001 1.17950000e-001 1.58510003e-002 1.39860006e-003
      1.95799991e-002 1.39860006e-003 0. 9.32399998e-004 1.12819999e-001
      1.52909994e-001 2.70399991e-002 2.28439998e-002 3.31000015e-002
      2.65730005e-002 6.06059982e-003 1.44520001e-002 4.47079986e-001
      4.49079990e-001 2.75860012e-001 1.38129994e-001 8.70089978e-002
      4.29029986e-002 7.01679988e-003</_>
    <_>
      1.51820004e-001 9.96179998e-001 9.88009989e-001 9.75780010e-001
      9.60399985e-001 9.42170024e-001 9.21829998e-001 8.99550021e-001
      8.75850022e-001 8.51149976e-001 8.25860023e-001 8.00530016e-001
      7.76090026e-001 7.52879977e-001 7.31519997e-001 7.12660015e-001
      6.96600020e-001 6.83870018e-001 6.74199998e-001 6.67800009e-001
      6.65050030e-001 7.43379965e-002 5.71889989e-002 4.09930013e-002
      1.01740003e-001 1.97459996e-001 2.39350006e-001 2.39350006e-001
      9.23089981e-002 8.69430006e-002 8.34740028e-002 6.58930019e-002
      7.01320022e-002 1.08269997e-001 1.73120007e-001 2.39350006e-001
      2.39350006e-001 1.82960004e-001 1.20750003e-001 2.26229995e-001
      1.28429994e-001 9.66140032e-002 1.22709997e-001 1.29120007e-001
      2.20670000e-001 2.39289999e-001 2.00010002e-001 1.98860005e-001
      1.40330002e-001 9.27250013e-002 9.12839994e-002 1.05679996e-001
      1.24090001e-001 2.39350006e-001 2.39350006e-001 2.39350006e-001
      2.39350006e-001 2.42860007e+000 2.11889997e-001 8.10920000e-001
      5.50939977e-001 5.81599995e-002 2.03990005e-002 2.60420004e-003
      4.81770001e-002 8.68059986e-004 0. 3.03820008e-003 7.55209997e-002
      5.55559993e-002 1.04170004e-002 1.43229999e-002 4.07989994e-002
      4.38369997e-002 7.37849995e-003 6.29339963e-002 5.55999994e-001
      7.09230006e-002 1.74289998e-002 2.41589989e-003 3.38220000e-002
      3.45130014e-004 6.90250017e-004 2.76100007e-003 7.48919994e-002
      1.59789994e-001 1.27699999e-002 1.62209999e-002 2.29509994e-002
      3.84819992e-002 6.55739987e-003 5.10790013e-002 4.88849998e-001
      4.91809994e-002 2.56890003e-002 1.85899995e-003 4.93489988e-002
      6.76019990e-004 1.69010003e-004 3.21109989e-003 1.16779998e-001
      1.14579998e-001 1.43649997e-002 1.63930003e-002 2.58579999e-002
      4.90120016e-002 6.42219977e-003 4.36029993e-002 4.82849985e-001
      8.72659981e-002 2.67169997e-002 3.19440011e-003 5.08200005e-002
      1.01640006e-003 0. 2.90399999e-003 1.08180001e-001 1.53909996e-001
      2.70070005e-002 1.33590000e-002 2.77330000e-002 3.86230014e-002
      6.96970010e-003 3.55740003e-002 4.16720003e-001 6.87330008e-001
      2.25030005e-001 5.45229986e-002 2.31740009e-002 9.17540025e-003
      7.64620025e-004</_>
    <_>
      1.83070004e-001 9.95549977e-001 9.87619996e-001 9.76400018e-001
      9.61960018e-001 9.45349991e-001 9.26760018e-001 9.06759977e-001
      8.85649979e-001 8.63900006e-001 8.41620028e-001 8.19710016e-001
      7.97469974e-001 7.76189983e-001 7.56449997e-001 7.38650024e-001
      7.23320007e-001 7.10820019e-001 7.02040017e-001 6.96839988e-001
      6.94949985e-001 8.70560035e-002 1.50380000e-001 2.42310002e-001
      2.60800004e-001 2.60800004e-001 2.60800004e-001 2.29910001e-001
      1.63939998e-001 1.02550000e-001 6.29350021e-002 1.39890000e-001
      2.60800004e-001 2.60800004e-001 1.68359995e-001 8.08729976e-002
      7.28510022e-002 7.04400018e-002 5.28010018e-002 7.25969970e-002
      2.28909999e-001 2.60800004e-001 1.94010004e-001 1.64250001e-001
      1.81020007e-001 9.45890024e-002 7.20330030e-002 6.51919991e-002
      5.16720004e-002 1.49389997e-001 2.60800004e-001 2.47669995e-001
      7.39720017e-002 4.81240004e-002 3.15210000e-002 3.08529995e-002
      3.37000005e-002 2.66669989e+000 1.58800006e-001 8.92310023e-001 0.
      0. 0. 0. 0. 0. 0. 0. 0. 0. 0. 0. 0. 0. 0. 0. 0. 5.19270003e-002
      8.51930026e-003 3.65109998e-003 1.33870002e-002 0. 0.
      1.62270002e-003 2.59639993e-002 5.55780008e-002 8.11360031e-003
      2.51519997e-002 3.73230018e-002 1.98780000e-002 2.83979997e-003
      5.07100001e-002 6.95320010e-001 1.30099997e-001 4.85569984e-002
      3.20659997e-003 3.52730006e-002 4.58090013e-004 0. 9.16170015e-004
      6.50480017e-002 8.33709985e-002 3.38979997e-002 2.33619995e-002
      4.03119996e-002 2.33619995e-002 8.24549980e-003 2.51950007e-002
      4.78700012e-001 9.14750025e-002 2.20309999e-002 3.83140007e-003
      1.38889998e-002 9.57850018e-004 9.57850018e-004 3.35250003e-003
      5.89080006e-002 1.94440007e-001 3.11299991e-002 2.72990000e-002
      3.44830006e-002 3.30459997e-002 1.38889998e-002 2.63410006e-002
      4.43960011e-001 8.36960018e-001 1.24080002e-001 2.21779998e-002
      7.19279982e-003 6.79320004e-003 2.79720011e-003</_>
    <_>
      1.03090003e-001 9.98090029e-001 9.95069981e-001 9.89889979e-001
      9.83410001e-001 9.75619972e-001 9.66769993e-001 9.57069993e-001
      9.46699977e-001 9.36500013e-001 9.26490009e-001 9.17370021e-001
      9.08659995e-001 9.01009977e-001 8.93970013e-001 8.88329983e-001
      8.83459985e-001 8.79989982e-001 8.77740026e-001 8.76259983e-001
      8.75720024e-001 8.48089978e-002 1.16410002e-001 2.71030009e-001
      2.71030009e-001 2.71030009e-001 2.22979993e-001 1.66040003e-001
      1.28570005e-001 1.95720002e-001 5.18399999e-002 1.09310001e-001
      2.71030009e-001 2.71030009e-001 1.77230000e-001 7.25160018e-002
      5.98109998e-002 4.19219993e-002 3.98939997e-002 4.36449982e-002
      1.05329998e-001 2.71030009e-001 2.71030009e-001 2.71030009e-001
      1.18460000e-001 6.18049987e-002 4.48339991e-002 3.32220010e-002
      2.69099995e-002 7.21509978e-002 2.71030009e-001 2.71030009e-001
      9.93970037e-002 2.77609993e-002 2.01730002e-002 2.01089997e-002
      1.61429998e-002 2.85710001e+000 3.15789998e-001 8.74170005e-001 0.
      0. 0. 0. 0. 0. 0. 0. 0. 0. 0. 0. 0. 0. 0. 0. 0. 3.74860018e-002
      2.88349995e-003 2.88349995e-003 1.55710001e-002 5.76700026e-004 0.
      2.30680010e-003 2.94119995e-002 7.61250034e-002 2.36450005e-002
      2.71049999e-002 4.26760018e-002 5.70929982e-002 1.03810001e-002
      4.95960005e-002 6.22259974e-001 1.62699997e-001 1.25660002e-001
      1.32269994e-003 7.27510005e-002 0. 1.32269994e-003 0.
      8.59789997e-002 3.70370001e-002 2.77779996e-002 3.57140005e-002
      5.42329997e-002 1.32269994e-003 6.61379984e-003 7.93650001e-003
      3.79629999e-001 1.12259999e-001 2.89260000e-002 4.82090004e-003
      3.58130001e-002 6.88700005e-004 6.88700005e-004 0. 5.71630001e-002
      1.97659999e-001 2.06610002e-002 2.75480002e-002 3.58130001e-002
      4.20110002e-002 4.82090004e-003 4.95870002e-002 3.81540000e-001
      7.27330029e-001 1.72370002e-001 5.54630011e-002 2.72339992e-002
      1.76020004e-002 0.</_>
    <_>
      9.52840000e-002 9.98480022e-001 9.95620012e-001 9.92060006e-001
      9.87519979e-001 9.82179999e-001 9.76589978e-001 9.70239997e-001
      9.64169979e-001 9.58720028e-001 9.53620017e-001 9.49199975e-001
      9.45450008e-001 9.41950023e-001 9.39019978e-001 9.36999977e-001
      9.35500026e-001 9.34800029e-001 9.34400022e-001 9.33860004e-001
      9.33399975e-001 1.33929998e-001 1.12939999e-001 2.33170003e-001
      2.33170003e-001 2.33170003e-001 2.33170003e-001 1.58859998e-001
      1.78399995e-001 1.16269998e-001 1.60520002e-001 2.29760006e-001
      2.33170003e-001 2.33170003e-001 1.72350004e-001 9.19609964e-002
      9.48200002e-002 1.11860000e-001 1.21200003e-001 1.80370003e-001
      1.56159997e-001 2.33170003e-001 2.33170003e-001 2.33170003e-001
      1.92399994e-001 1.06490001e-001 1.06360003e-001 9.57020000e-002
      9.29099992e-002 1.15809999e-001 1.55320004e-001 1.80910006e-001
      1.60530001e-001 7.99919963e-002 7.77300000e-002 6.67629987e-002
      8.29190016e-002 5.63640022e+000 3.48569989e-001 8.52940023e-001
      2.80730009e+000 1.32330000e-001 5.52930012e-002 1.27600003e-002
      6.09639995e-002 2.36289995e-003 2.83550005e-003 3.78070003e-003
      9.87709984e-002 9.12100002e-002 2.17390005e-002 2.59920005e-002
      3.59169990e-002 4.01699990e-002 1.65410005e-002 5.95460013e-002
      3.39789987e-001 1.13190003e-001 2.08330005e-002 3.47219990e-003
      1.87500007e-002 0. 6.94439979e-004 1.38889998e-003 2.95139998e-002
      7.29169995e-002 2.43059993e-002 1.42360004e-002 4.34029996e-002
      3.43750007e-002 1.07640000e-002 4.68750000e-002 5.65280020e-001
      1.57560006e-001 8.29830021e-002 1.15550002e-002 5.88239990e-002
      2.10079993e-003 6.30250014e-003 5.25210006e-003 9.55879986e-002
      7.35289976e-002 2.52100006e-002 1.68069992e-002 6.09240010e-002
      4.51680012e-002 1.36550004e-002 6.40759990e-002 2.80460000e-001
      1.23530000e-001 4.32550013e-002 5.13199996e-003 4.54550013e-002
      1.09969999e-003 1.46629999e-003 4.03229985e-003 8.17449987e-002
      1.22429997e-001 2.19940003e-002 1.20970001e-002 4.10559997e-002
      4.98530008e-002 1.42959999e-002 5.57180010e-002 3.76830012e-001
      4.48060006e-001 1.99919999e-001 1.33760005e-001 1.00780003e-001
      8.82110000e-002 2.92659998e-002</_>
    <_>
      1.63440004e-001 9.97640014e-001 9.91280019e-001 9.81260002e-001
      9.67779994e-001 9.51380014e-001 9.32470024e-001 9.11650002e-001
      8.89429986e-001 8.66289973e-001 8.42800021e-001 8.19410026e-001
      7.96639979e-001 7.75020003e-001 7.55020022e-001 7.37119973e-001
      7.21769989e-001 7.09370017e-001 7.00299978e-001 6.94689989e-001
      6.92809999e-001 2.09849998e-001 1.19470000e-001 1.35419995e-001
      1.11780003e-001 1.55169994e-001 1.81439996e-001 1.86539993e-001
      2.37590000e-001 2.37590000e-001 2.37590000e-001 1.86279997e-001
      2.37590000e-001 2.37590000e-001 1.85320005e-001 1.40860006e-001
      1.38099998e-001 2.35579997e-001 2.37590000e-001 1.04659997e-001
      1.59889996e-001 1.78080007e-001 9.43770036e-002 1.05679996e-001
      1.52129993e-001 1.09509997e-001 7.11449981e-002 1.18260004e-001
      8.08269978e-002 2.37590000e-001 2.37590000e-001 1.94570005e-001
      7.14830011e-002 3.71970013e-002 4.69489992e-002 3.88399996e-002
      6.74019977e-002 1.95650005e+000 1.52380005e-001 8.92040014e-001 0.
      0. 0. 0. 0. 0. 0. 0. 0. 0. 0. 0. 0. 0. 0. 0. 0. 2.91120000e-002
      7.93949980e-003 5.67110023e-004 9.82990023e-003 0. 0.
      3.78069992e-004 8.88470002e-003 4.04540002e-002 1.68239996e-002
      1.58789996e-002 3.04349996e-002 2.36300007e-002 3.78070003e-003
      4.34780009e-002 7.68769979e-001 9.36039984e-002 3.49770002e-002
      3.66419996e-003 5.32980002e-002 3.33109987e-004 0. 1.99869997e-003
      7.26180002e-002 1.02260001e-001 4.03070003e-002 2.23190002e-002
      4.26380001e-002 2.99800001e-002 7.32850004e-003 3.53100002e-002
      4.59360003e-001 1.06500000e-001 1.56849995e-002 2.20140000e-003
      9.90640000e-003 0. 2.75180006e-004 3.30210011e-003 8.72320011e-002
      1.85200006e-001 2.47660000e-002 1.87120009e-002 2.75180005e-002
      2.50410009e-002 8.80569965e-003 1.98129993e-002 4.65039998e-001
      7.85740018e-001 1.49670005e-001 3.84620018e-002 1.93349998e-002
      6.68899994e-003 1.04519997e-004</_>
    <_>
      1.39679998e-001 9.97160017e-001 9.92959976e-001 9.86249983e-001
      9.77379978e-001 9.66709971e-001 9.54509974e-001 9.41630006e-001
      9.28189993e-001 9.14430022e-001 9.00820017e-001 8.87889981e-001
      8.75790000e-001 8.64669979e-001 8.54860008e-001 8.46480012e-001
      8.39659989e-001 8.34559977e-001 8.31089973e-001 8.29010010e-001
      8.28350008e-001 1.50209993e-001 1.00000001e-001 1.61039993e-001
      1.30019993e-001 2.75819987e-001 2.67509997e-001 1.57000005e-001
      1.20150000e-001 7.90849999e-002 1.44999996e-001 9.89369974e-002
      1.69620007e-001 2.75819987e-001 2.75819987e-001 1.12850003e-001
      6.26650006e-002 4.90750000e-002 8.10690001e-002 7.76730031e-002
      6.90630004e-002 1.72969997e-001 1.68799996e-001 2.75819987e-001
      2.41239995e-001 1.00380003e-001 7.27389976e-002 5.25310002e-002
      7.58799985e-002 9.26389992e-002 2.75819987e-001 2.75819987e-001
      2.75819987e-001 1.43730000e-001 5.21170013e-002 3.99149992e-002
      4.81670015e-002 2.20000005e+000 3.07139993e-001 8.74610007e-001
      1.30379999e+000 4.29689996e-002 1.12300003e-002 6.59180013e-003
      3.10059991e-002 7.32420012e-004 0. 4.88279993e-003 6.49409965e-002
      1.10110000e-001 1.22069996e-002 1.14749996e-002 3.58889997e-002
      7.83689991e-002 1.09860003e-002 8.32519978e-002 4.95359987e-001
      4.32499982e-002 1.42980004e-002 4.17010020e-003 2.99059991e-002
      3.57440003e-004 1.19149998e-004 2.50210008e-003 5.55219986e-002
      7.26799965e-002 1.58459991e-002 1.42980004e-002 2.72850003e-002
      5.27819991e-002 9.41259973e-003 6.80330023e-002 5.89550018e-001
      1.02820002e-001 3.36019993e-002 1.60970003e-003 3.11869998e-002
      2.01210001e-004 4.02409991e-004 1.20720000e-003 9.21529979e-002
      4.42649983e-002 1.85109992e-002 1.56939998e-002 3.33999991e-002
      1.97180007e-002 4.82900022e-003 2.67609991e-002 5.73639989e-001
      5.43060005e-002 1.13279996e-002 3.99800017e-003 2.39879992e-002
      6.66329986e-004 3.33169999e-004 3.99800017e-003 7.06309974e-002
      1.02779999e-001 4.99750022e-003 1.41599998e-002 1.93240009e-002
      2.76529994e-002 5.99699980e-003 4.33119982e-002 6.12550020e-001
      5.51020026e-001 2.64880002e-001 9.58300009e-002 5.20580001e-002
      2.86410004e-002 7.56550021e-003</_>
    <_>
      1.83679998e-001 9.97399986e-001 9.90629971e-001 9.80660021e-001
      9.68370020e-001 9.54320014e-001 9.38859999e-001 9.22270000e-001
      9.04630005e-001 8.86300027e-001 8.67420018e-001 8.48659992e-001
      8.30590010e-001 8.13709974e-001 7.98810005e-001 7.86210001e-001
      7.76229978e-001 7.68859982e-001 7.64079988e-001 7.61520028e-001
      7.60710001e-001 6.17030002e-002 6.51779994e-002 1.07929997e-001
      2.36609995e-001 2.36609995e-001 1.40780002e-001 1.21849999e-001
      1.31449997e-001 1.33369997e-001 7.33100027e-002 8.58360007e-002
      1.00639999e-001 1.95050001e-001 2.35960007e-001 2.25659996e-001
      2.36609995e-001 2.36609995e-001 1.63020000e-001 1.06190003e-001
      7.64859989e-002 1.01209998e-001 2.26359993e-001 2.36609995e-001
      1.32039994e-001 1.10420004e-001 1.39210001e-001 1.75469995e-001
      9.28599983e-002 1.93079993e-001 2.36609995e-001 2.36609995e-001
      2.04380006e-001 1.46850005e-001 1.28059998e-001 1.53449997e-001
      1.21030003e-001 2.83330011e+000 1.87169999e-001 8.94230008e-001
      1.51830006e+000 1.40019998e-001 4.70519997e-002 2.26760004e-003
      4.59179990e-002 0. 0. 0. 8.21989998e-002 8.61679986e-002
      1.87069997e-002 2.43759993e-002 3.68480012e-002 2.83450000e-002
      4.53509996e-003 2.77779996e-002 4.55790013e-001 4.15779985e-002
      1.06610004e-002 5.33049984e-004 6.39660005e-003 0. 0.
      5.33049984e-004 2.23880000e-002 8.10230002e-002 1.70580000e-002
      2.77190004e-002 3.94460000e-002 3.51810008e-002 4.79739998e-003
      6.66309968e-002 6.46049976e-001 1.63949996e-001 5.38170002e-002
      1.87739998e-003 5.63200004e-002 0. 0. 1.25159998e-003
      8.69840011e-002 9.07379985e-002 1.25160003e-002 2.62829997e-002
      3.69209982e-002 4.13019992e-002 6.88359980e-003 2.69089993e-002
      3.94250005e-001 1.08560003e-001 1.74579993e-002 5.45550021e-004
      2.01849993e-002 1.09110004e-003 5.45550021e-004 1.09110004e-003
      7.47409984e-002 1.79490000e-001 1.25479996e-002 2.45500002e-002
      2.89140008e-002 3.27330008e-002 8.18329956e-003 2.56409999e-002
      4.63719994e-001 3.66070002e-001 2.90320009e-001 1.74909994e-001
      9.82080027e-002 5.30470014e-002 1.74429994e-002</_>
    <_>
      2.01670006e-001 9.95119989e-001 9.87339973e-001 9.76260006e-001
      9.62509990e-001 9.46690023e-001 9.29489970e-001 9.11379993e-001
      8.92000020e-001 8.71869981e-001 8.51260006e-001 8.30720007e-001
      8.10280025e-001 7.90650010e-001 7.72750020e-001 7.56839991e-001
      7.43390024e-001 7.32680023e-001 7.24799991e-001 7.20870018e-001
      7.19879985e-001 2.05479994e-001 2.00440004e-001 2.25350007e-001
      2.38769993e-001 2.38769993e-001 1.68709993e-001 1.75819993e-001
      1.52779996e-001 1.40059993e-001 1.87189996e-001 1.95899993e-001
      2.38769993e-001 2.38769993e-001 2.06180006e-001 7.04130009e-002
      6.31259978e-002 8.67500007e-002 1.07349999e-001 1.48330003e-001
      2.38539994e-001 2.38769993e-001 2.00760007e-001 1.32689998e-001
      8.60479996e-002 1.37510002e-001 1.40570000e-001 8.78110006e-002
      6.94179982e-002 1.24410003e-001 2.38769993e-001 2.33569995e-001
      8.29859972e-002 2.34949999e-002 2.00340003e-002 3.81629989e-002
      3.70300002e-002 2.12500000e+000 1.46550000e-001 8.95349979e-001 0.
      0. 0. 0. 0. 0. 0. 0. 0. 0. 0. 0. 0. 0. 0. 0. 0. 6.17559999e-002
      6.32440019e-003 2.60420004e-003 9.30059981e-003 0. 7.44050019e-004
      7.44050019e-004 1.22769997e-002 4.76190001e-002 1.48809999e-002
      1.74850002e-002 4.72470000e-002 2.71579996e-002 6.32440019e-003
      6.13839999e-002 6.84159994e-001 1.66229993e-001 5.39349988e-002
      2.65250006e-003 4.33249995e-002 4.42090008e-004 1.76829996e-003
      3.97880003e-003 9.19540003e-002 7.33859986e-002 1.85679998e-002
      2.12200005e-002 3.35990004e-002 2.21040007e-002 7.95760006e-003
      5.30500002e-002 4.05840009e-001 1.56859994e-001 2.94119995e-002
      3.61200003e-003 3.45720015e-002 5.15999971e-004 5.15999971e-004
      2.58000009e-003 9.80390012e-002 1.82659999e-001 2.21880004e-002
      2.42519993e-002 2.94119995e-002 3.50879990e-002 9.80389956e-003
      2.27039997e-002 3.47779989e-001 3.39309990e-001 3.70240003e-001
      1.55129999e-001 8.93559977e-002 4.08339985e-002 5.12559991e-003</_>
    <_>
      2.08969995e-001 9.96840000e-001 9.90390003e-001 9.80809987e-001
      9.68659997e-001 9.54200029e-001 9.37449992e-001 9.19170022e-001
      8.99869978e-001 8.79760027e-001 8.58669996e-001 8.37000012e-001
      8.15980017e-001 7.95930028e-001 7.77440012e-001 7.60839999e-001
      7.46450007e-001 7.35029995e-001 7.27169991e-001 7.22400010e-001
      7.20849991e-001 6.34799972e-002 9.59850028e-002 1.77540004e-001
      2.30179995e-001 2.44020000e-001 2.44020000e-001 1.35299996e-001
      5.43799996e-002 5.10069989e-002 6.93389997e-002 1.09339997e-001
      2.19600007e-001 2.44020000e-001 2.44020000e-001 2.05599993e-001
      1.34020001e-001 5.78080006e-002 6.20100014e-002 5.30500002e-002
      1.16329998e-001 2.15409994e-001 2.44020000e-001 2.44020000e-001
      2.44020000e-001 1.34780005e-001 4.95619997e-002 4.59319986e-002
      4.01909985e-002 1.28619999e-001 2.44020000e-001 2.44020000e-001
      2.44020000e-001 1.80749997e-001 9.62980017e-002 4.10289988e-002
      2.89929993e-002 2.53130007e+000 1.65089995e-001 8.96080017e-001 0.
      0. 0. 0. 0. 0. 0. 0. 0. 0. 0. 0. 0. 0. 0. 0. 0. 1.85369998e-002
      4.88180015e-003 2.83010013e-004 6.08460000e-003 0. 0.
      2.12250001e-004 1.30890002e-002 2.86539998e-002 6.50910009e-003
      1.01170000e-002 1.70510001e-002 1.16029996e-002 2.12249998e-003
      3.57999988e-002 8.45049977e-001 9.63570029e-002 4.27299999e-002
      3.31970002e-003 5.09870015e-002 4.25600010e-004 2.55360006e-004
      1.95780001e-003 8.23120028e-002 7.97580034e-002 1.91520005e-002
      7.15020020e-003 2.94519998e-002 3.11539993e-002 6.72460021e-003
      4.22200002e-002 5.06020010e-001 6.84460029e-002 1.40060000e-002
      2.11420003e-003 2.25510001e-002 4.40450007e-004 8.80899970e-005
      9.68989974e-004 6.80060014e-002 1.40499994e-001 1.67369992e-002
      7.39960000e-003 2.55459994e-002 3.36510018e-002 5.81400003e-003
      3.89360003e-002 5.54820001e-001 8.20190012e-001 1.54789999e-001
      1.79500002e-002 5.06679993e-003 1.92459999e-003 7.85550001e-005</_>
    <_>
      8.39369968e-002 9.98860002e-001 9.96230006e-001 9.92850006e-001
      9.89329994e-001 9.86220002e-001 9.84059989e-001 9.82959986e-001
      9.82729971e-001 9.83299971e-001 9.84570026e-001 9.86350000e-001
      9.88309979e-001 9.90119994e-001 9.91559982e-001 9.92269993e-001
      9.92250025e-001 9.91930008e-001 9.91419971e-001 9.90819991e-001
      9.90499973e-001 8.15029964e-002 1.30319998e-001 2.03899994e-001
      2.17050001e-001 2.17050001e-001 2.17050001e-001 1.99949995e-001
      1.99300006e-001 9.06590000e-002 1.12049997e-001 1.64279997e-001
      1.84520006e-001 1.83909997e-001 1.97840005e-001 1.38809994e-001
      1.31339997e-001 1.25699997e-001 9.52880010e-002 8.71220008e-002
