<?xml version="1.0"?>
<opencv_storage>
<my_svm type_id="opencv-ml-svm">
  <svm_type>C_SVC</svm_type>
  <kernel><type>RBF</type>
    <gamma>5.0625000000000009e-01</gamma></kernel>
  <C>6.2500000000000000e+01</C>
  <term_criteria><epsilon>2.2204460492503131e-16</epsilon>
    <iterations>3000</iterations></term_criteria>
  <var_all>131</var_all>
  <var_count>131</var_count>
  <class_count>2</class_count>
  <class_labels type_id="opencv-matrix">
    <rows>1</rows>
    <cols>2</cols>
    <dt>i</dt>
    <data>
      -1 1</data></class_labels>
  <class_weights type_id="opencv-matrix">
    <rows>1</rows>
    <cols>2</cols>
    <dt>d</dt>
    <data>
      1.3375947251915932e+01 4.9124054610729218e+01</data></class_weights>
  <sv_total>256</sv_total>
  <support_vectors>
    <_>
      3.72419995e-03 5.84209990e-03 1.02909999e-02 4.73900000e-03
      9.19799972e-03 1.11959996e-02 8.81869998e-03 1.09200003e-02
      1.02939997e-02 5.46150003e-03 1.41220000e-02 1.07349996e-02
      1.06319999e-02 1.08040003e-02 1.00429999e-02 1.01309996e-02
      1.28100002e-02 1.18610002e-02 6.75009983e-03 1.18020000e-02
      1.22779999e-02 1.27649996e-02 1.22729996e-02 1.28210001e-02
      1.22959996e-02 6.87280018e-03 4.63900017e-03 5.51469997e-03
      1.26670003e-02 1.17650004e-02 1.41300000e-02 9.02980007e-03
      3.89500009e-03 8.68729968e-03 9.18790046e-03 1.24049997e-02
      4.60419990e-03 1.08939996e-02 9.26509965e-03 9.80389956e-03
      9.14470013e-03 4.23109997e-03 8.81430041e-03 1.00520002e-02
      4.29349998e-03 8.82880017e-03 8.59070010e-03 8.11420009e-03
      8.90109967e-03 3.03320005e-03 5.82840014e-03 1.47690000e-02
      1.01920003e-02 1.46519998e-02 5.61170001e-03 1.24960002e-02
      1.31839998e-02 6.47100015e-03 1.21539999e-02 1.32660000e-02
      7.16379983e-03 1.36329997e-02 1.18920002e-02 1.26980003e-02
      1.52439997e-02 1.52489999e-02 1.49499997e-02 6.03380008e-03
      1.14869997e-02 1.14329997e-02 1.27539998e-02 3.79340001e-03
      1.20679997e-02 1.21860001e-02 1.19049996e-02 1.34699997e-02
      7.58360000e-03 6.90410007e-03 1.38410004e-02 1.27839996e-02
      5.96849993e-03 1.25129996e-02 1.49910003e-02 1.23939998e-02
      9.35029984e-03 8.51670001e-03 4.48000012e-03 1.22980000e-02
      5.34419995e-03 3.28799989e-03 7.57029979e-03 7.39700021e-03
      8.69840011e-03 1.00459997e-02 1.43100005e-02 1.15440004e-02
      1.62349995e-02 1.32649997e-02 1.57779995e-02 1.33940000e-02
      1.32750003e-02 1.12290001e-02 1.11849997e-02 1.11309998e-02
      1.29300002e-02 5.97930001e-03 1.04409996e-02 1.59370005e-02
      1.53419999e-02 1.43189998e-02 1.48010002e-02 1.43299997e-02
      1.60220005e-02 1.53850000e-02 1.47740003e-02 1.34549998e-02
      1.06109995e-02 9.83980019e-03 4.89699980e-03 1.01269996e-02
      6.24219980e-03 1.23190004e-02 1.22440001e-02 1.20540000e-02
      9.57109965e-03 3.88969993e-03 7.11019989e-03 6.24680007e-03
      6.98299985e-03 5.26880007e-03 1.30249998e-02</_>
    <_>
      4.73919988e-01 5.12019992e-01 4.24739987e-01 6.20689988e-01
      6.59169972e-01 4.24439996e-01 3.30249995e-01 4.52450007e-01
      4.24690008e-01 4.80069995e-01 4.06670004e-01 7.52489984e-01
      4.28880006e-01 4.92619991e-01 4.23819989e-01 4.80129987e-01
      3.67379993e-01 4.60099995e-01 6.12779975e-01 4.67500001e-01
      4.06769991e-01 5.04639983e-01 3.83040011e-01 6.05759978e-01
      3.80980015e-01 4.79809999e-01 3.89539987e-01 4.89840001e-01
      3.72079998e-01 6.46070004e-01 4.39999998e-01 6.15549982e-01
      4.54490006e-01 5.12250006e-01 6.79319978e-01 4.86759990e-01
      5.55040002e-01 6.93599999e-01 4.69909996e-01 6.93220019e-01
      4.32980001e-01 4.78379995e-01 4.62720007e-01 4.83440012e-01
      4.81209993e-01 6.38949990e-01 5.16849995e-01 4.79310006e-01
      6.50860012e-01 4.19270009e-01 5.08740008e-01 6.12410009e-01
      4.19349998e-01 4.78450000e-01 3.45539987e-01 6.50900006e-01
      4.45650011e-01 5.39179981e-01 4.35900003e-01 4.58790004e-01
      6.40160024e-01 4.98490006e-01 5.25730014e-01 5.13289988e-01
      5.57079971e-01 6.40230000e-01 4.71359998e-01 4.09469992e-01
      3.73389989e-01 4.09610003e-01 4.47849989e-01 5.44309974e-01
      4.76790011e-01 4.56470013e-01 4.09489989e-01 5.82499981e-01
      5.09259999e-01 4.74189997e-01 3.74489993e-01 4.79140013e-01
      4.09790009e-01 6.38719976e-01 3.79440010e-01 6.38409972e-01
      5.14609993e-01 4.79290009e-01 4.65570003e-01 5.59040010e-01
      4.79059994e-01 7.32150018e-01 5.49929976e-01 6.59850001e-01
      4.02579993e-01 7.07000017e-01 4.62680012e-01 5.25089979e-01
      4.90640014e-01 4.93189991e-01 7.72249997e-01 5.36180019e-01
      4.19250011e-01 3.87309998e-01 4.70039994e-01 5.04440010e-01
      5.69339991e-01 6.55770004e-01 5.49549997e-01 4.59089994e-01
      4.81709987e-01 6.88650012e-01 5.21300018e-01 4.95609999e-01
      4.85839993e-01 6.22780025e-01 4.20370013e-01 3.94739985e-01
      4.09909993e-01 5.24460018e-01 3.70829999e-01 4.71170008e-01
      3.13600004e-01 7.17480004e-01 4.65939999e-01 4.29069996e-01
      5.84309995e-01 5.86860001e-01 5.21170020e-01 3.92540008e-01
      3.88410002e-01 5.81619978e-01 4.48170006e-01</_>
    <_>
      3.94139998e-03 1.33039998e-02 6.60920003e-03 7.02429982e-03
      8.39919969e-03 5.58819994e-03 1.06380004e-02 7.47859990e-03
      8.47459957e-03 7.09220022e-03 1.07140001e-02 7.39920000e-03
      8.61200038e-03 6.08139997e-03 5.57410019e-03 8.65800027e-03
      7.84309953e-03 4.65120003e-03 6.03860011e-03 6.30800007e-03
      7.95449968e-03 9.72540025e-03 8.09460040e-03 5.28449984e-03
      7.25689996e-03 6.63350010e-03 5.83329983e-03 8.33330024e-03
      2.83610006e-03 4.44449997e-03 4.04610019e-03 9.10860021e-03
      8.95060040e-03 7.85630010e-03 8.44439957e-03 1.27330003e-02
      4.01070016e-03 5.65680023e-03 8.33330024e-03 1.02960002e-02
      8.69959965e-03 2.51380005e-03 4.80769994e-03 2.39120005e-03
      5.66889998e-03 6.28020009e-03 6.38299994e-03 1.01589998e-02
      6.95650000e-03 4.53509996e-03 1.21619999e-02 7.33140018e-03
      1.12290001e-02 2.35849991e-03 1.13239996e-02 1.05520003e-02
      7.54619995e-03 6.08969992e-03 5.15950006e-03 5.64969983e-03
      2.03639991e-03 4.99089994e-03 4.87329997e-03 7.24640023e-03
      7.35290023e-03 3.89609998e-03 6.00960013e-03 1.38889998e-02
      1.36360005e-02 8.00170004e-03 4.70960001e-03 6.52470021e-03
      7.69229978e-03 6.41709985e-03 7.58619979e-03 7.60870008e-03
      9.00360011e-03 4.09090007e-03 9.72220022e-03 5.90799982e-03
      7.00279977e-03 6.61160005e-03 4.00620000e-03 3.12500005e-03
      1.57830007e-02 9.87530034e-03 4.92209988e-03 5.66889998e-03
      6.49349997e-03 7.81250012e-04 8.13400000e-03 2.82489997e-03
      6.06059982e-03 1.16550000e-02 6.41509984e-03 5.88229997e-03
      5.81400003e-03 2.22219992e-03 5.58040012e-03 8.19000043e-03
      8.83840024e-03 1.43470000e-02 1.87549996e-03 3.08170007e-03
      5.46179991e-03 1.02519998e-02 7.54240016e-03 1.24319997e-02
      1.42860003e-02 6.17279997e-03 7.40739983e-03 8.33330024e-03
      5.43919997e-03 8.15219991e-03 5.81589993e-03 1.12990001e-02
      4.08159988e-03 6.86809979e-03 7.55740004e-03 9.74360015e-03
      9.39179957e-03 1.09090004e-02 9.21459962e-03 5.26320003e-03
      6.66880002e-03 6.52169995e-03 6.41029980e-03 6.34919992e-03
      8.16989969e-03 4.69039986e-03 5.84369991e-03</_>
    <_>
      1.80179998e-02 1.38889998e-02 2.08030008e-02 8.62719957e-03
      6.16330002e-03 7.44789978e-03 1.86390001e-02 2.32560001e-02
      5.59439994e-02 2.80419998e-02 1.00309998e-02 6.03169985e-02
      1.59719996e-02 1.85339991e-02 6.06880002e-02 1.89870000e-02
      2.54239999e-02 7.14290002e-03 1.62090007e-02 4.88529988e-02
      1.48719996e-02 3.35419998e-02 2.06060000e-02 1.84289999e-02
      3.08769997e-02 2.09589992e-02 5.09659983e-02 1.76279992e-02
      9.76189971e-02 1.38889998e-02 1.26639996e-02 1.97219998e-02
      1.32579999e-02 4.02490012e-02 1.05020003e-02 9.33330040e-03
      1.74289998e-02 1.06690004e-02 1.03900004e-02 9.95729957e-03
      6.40520006e-02 5.31920008e-02 1.13709997e-02 1.58370007e-02
      1.81549992e-02 1.68069992e-02 2.37809997e-02 4.13490012e-02
      1.72169991e-02 2.05559991e-02 1.46890003e-02 3.05790007e-02
      5.32490015e-02 6.14279993e-02 1.42609999e-02 2.56409999e-02
      2.13680007e-02 9.37500037e-03 7.20240027e-02 1.39859999e-02
      1.21170003e-02 4.92240004e-02 2.07490008e-02 2.41500009e-02
      3.32479998e-02 2.38189995e-02 3.87249999e-02 3.89610007e-02
      1.16839996e-02 2.07570009e-02 2.65379995e-02 2.25770008e-02
      3.74250002e-02 3.11500002e-02 1.64810009e-02 2.55100001e-02
      2.53079999e-02 4.30210009e-02 1.98439993e-02 7.05880001e-02
      1.66219994e-02 2.97020003e-02 3.77449989e-02 3.70520018e-02
      2.88369991e-02 2.74909995e-02 3.73740010e-02 3.93670015e-02
      2.86430009e-02 2.99699996e-02 3.01569998e-02 2.65190005e-02
      3.43640000e-02 1.94000006e-02 1.87500007e-02 1.94440000e-02
      2.10459996e-02 2.60869991e-02 2.64110006e-02 2.39690002e-02
      3.00520007e-02 2.51850002e-02 3.50520015e-02 2.05719993e-02
      2.08410006e-02 1.90869998e-02 2.92709991e-02 2.78469995e-02
      3.29010002e-02 3.15250009e-02 2.20960006e-02 2.07850002e-02
      2.98670009e-02 3.25709991e-02 1.52009996e-02 3.27510014e-02
      1.61979999e-02 1.75669994e-02 3.61450016e-02 3.53079997e-02
      2.64740009e-02 2.13239994e-02 2.49930006e-02 2.68169995e-02
      3.07759997e-02 2.53609996e-02 3.00030001e-02 2.03220006e-02
      3.28090005e-02 3.07509992e-02 2.43480001e-02</_>
    <_>
      4.21300009e-02 4.48860005e-02 3.24390009e-02 3.57140005e-02
      4.22389992e-02 2.75640003e-02 2.45990008e-02 2.93099992e-02
      3.69569995e-02 4.74190004e-02 2.90910006e-02 5.76389991e-02
      2.64299996e-02 2.96449997e-02 2.68600006e-02 2.21880004e-02
      1.06250003e-01 5.93440011e-02 4.78169993e-02 2.62509994e-02
      2.94790007e-02 2.20780000e-02 3.98439988e-02 4.25839983e-02
      2.25990005e-02 3.71210016e-02 4.89510000e-02 2.90569998e-02
      2.50979997e-02 3.64690013e-02 2.84439996e-02 2.97619998e-02
      5.48730008e-02 4.10350002e-02 5.38019985e-02 2.81319991e-02
      2.34210007e-02 3.07839997e-02 4.75299992e-02 3.07979994e-02
      4.66200002e-02 4.81479988e-02 2.81639993e-02 2.68079992e-02
      4.79170009e-02 3.36420015e-02 3.26090008e-02 2.44609993e-02
      4.89640012e-02 3.16330008e-02 2.33520009e-02 2.37520002e-02
      3.28209996e-02 3.44370008e-02 5.45450002e-02 3.15929987e-02
      2.52630003e-02 3.30259986e-02 2.48789992e-02 5.92949986e-02
      3.96829993e-02 3.13180014e-02 4.92499992e-02 3.06790005e-02
      2.99869999e-02 2.29589995e-02 2.30589993e-02 7.33330026e-02
      3.92160006e-02 2.84490008e-02 2.68399995e-02 3.34279984e-02
      2.74509992e-02 3.34349982e-02 2.72020008e-02 3.31819989e-02
      3.12270001e-02 3.12790014e-02 4.39019985e-02 2.64950003e-02
      3.22810002e-02 3.27779986e-02 2.82019991e-02 2.52069999e-02
      2.93499995e-02 2.52379999e-02 2.27760002e-02 3.29670012e-02
      4.95730005e-02 3.90629992e-02 2.73809992e-02 3.21680009e-02
      4.59179990e-02 2.66069993e-02 3.84620018e-02 3.02179996e-02
      2.17129998e-02 2.42049992e-02 2.10880004e-02 2.54490003e-02
      4.27689999e-02 2.92169992e-02 2.74860002e-02 1.90229993e-02
      2.22890005e-02 1.90600008e-02 2.63899993e-02 2.27349997e-02
      2.55389996e-02 2.70939991e-02 2.80850008e-02 2.91939992e-02
      2.31790002e-02 2.13619992e-02 2.17320006e-02 2.78239995e-02
      2.27910001e-02 2.87190005e-02 2.00389996e-02 1.99999996e-02
      2.80200001e-02 2.82569993e-02 2.66609993e-02 2.54810005e-02
      2.87800003e-02 3.84620018e-02 3.44670005e-02 2.52219997e-02
      2.36600004e-02 2.39129998e-02 2.58000009e-02</_>
    <_>
      1.06809996e-02 1.70070007e-02 1.75439995e-02 1.54060004e-02
      2.19940003e-02 1.46479998e-02 2.41810009e-02 1.72840003e-02
      1.21970000e-02 1.14940004e-02 3.67969982e-02 2.57670004e-02
      5.76919988e-02 3.40909995e-02 5.43369986e-02 5.12580015e-02
      4.34780009e-02 2.46149991e-02 7.66670033e-02 2.63839997e-02
      4.57860008e-02 3.15789990e-02 6.80000037e-02 2.14629993e-02
      4.03230004e-02 3.17460001e-02 2.94870008e-02 1.55750001e-02
      3.86359990e-02 4.14410010e-02 3.42589989e-02 2.77779996e-02
      1.89389996e-02 2.38099992e-02 3.69050018e-02 3.64370011e-02
      1.93939991e-02 4.44439985e-02 4.03140001e-02 4.88720015e-02
      4.65839989e-02 2.59259995e-02 3.24070007e-02 1.20770000e-02
      2.75860000e-02 2.15050001e-02 3.12500000e-02 2.63160001e-02
      4.44439985e-02 3.26090008e-02 2.28829999e-02 3.18370014e-02
      4.54550013e-02 4.36360016e-02 1.12849995e-02 2.74509992e-02
      2.95889992e-02 6.01169989e-02 5.85400015e-02 4.93060015e-02
      3.66009995e-02 4.07240018e-02 1.81409996e-02 6.82540014e-02
      9.37500000e-02 4.03079987e-02 6.03890009e-02 2.62819994e-02
      1.72930006e-02 3.36179994e-02 2.46910006e-02 3.42859998e-02
      2.46149991e-02 1.35469995e-02 3.14290002e-02 3.54459994e-02
      3.49019989e-02 2.05279998e-02 3.14170010e-02 3.98720019e-02
      3.99999991e-02 2.66670007e-02 3.48480009e-02 2.94119995e-02
      3.81890014e-02 2.04729997e-02 2.21050009e-02 4.44439985e-02
      3.50879990e-02 2.80970000e-02 4.06720005e-02 3.18729989e-02
      6.11700006e-02 4.03730012e-02 1.95339993e-02 3.63180004e-02
      3.37710008e-02 3.48839983e-02 1.81820001e-02 4.45670001e-02
      4.00969982e-02 4.74140011e-02 6.30540028e-02 1.80920009e-02
      4.13109995e-02 2.62599997e-02 4.15089987e-02 3.74150015e-02
      3.73779982e-02 3.63940001e-02 4.39219996e-02 2.00529993e-02
      3.89689989e-02 6.12250008e-02 3.38880010e-02 3.10420003e-02
      2.04479992e-02 2.88239997e-02 2.78489999e-02 3.27269994e-02
      2.40739994e-02 2.32200008e-02 2.38739997e-02 3.08880005e-02
      1.84330009e-02 3.93150002e-02 3.61110009e-02 1.56250000e-02
      4.13109995e-02 3.06850001e-02 2.54009999e-02</_>
    <_>
      4.40330012e-04 1.63510005e-04 5.70069999e-04 4.41690022e-03
      5.41580003e-03 1.90959999e-03 4.19460004e-03 4.28029988e-03
      1.18160003e-03 7.31199980e-04 1.84519996e-03 2.10690009e-03
      6.98850024e-04 6.45519991e-04 5.75120002e-03 6.54960005e-03
      6.12709997e-03 6.58580009e-03 8.57479987e-04 4.19409992e-03
      5.85230021e-03 2.34590005e-03 5.66430017e-03 1.15219997e-02
      6.03729999e-03 8.73040035e-03 2.55570002e-03 9.93910013e-04
      1.30789995e-03 5.00660017e-03 1.38399994e-03 8.55760009e-04 0.
      8.84830020e-04 1.13989995e-03 7.62359996e-04 1.49139995e-03
      6.72129972e-04 5.53000020e-04 2.46310001e-03 2.16050004e-03
      1.16610003e-03 2.30979989e-03 7.49319978e-03 6.58150017e-03
      8.09860043e-03 6.43579988e-03 5.06349979e-03 2.84729991e-03
      7.09620013e-04 1.74400001e-03 3.82510014e-04 1.93559995e-03
      3.00129992e-03 5.27640013e-03 3.44519992e-03 5.63210016e-03
      9.35829990e-03 8.49249959e-03 2.67169997e-03 4.71670006e-04
      3.33130010e-03 2.49870005e-03 6.07990008e-03 9.14719980e-03
      6.53530005e-03 1.48960005e-03 6.01440016e-03 0. 7.01980013e-03
      1.82430004e-03 2.52350001e-03 0. 1.60009996e-03 2.91569997e-03
      5.33099985e-03 5.08490019e-03 4.09279997e-03 1.19900005e-03
      3.13710014e-04 1.79909996e-03 0. 3.01160006e-04 9.29219997e-04
      1.23800000e-03 1.31750002e-03 9.85060004e-04 1.91570004e-03
      3.54909990e-03 3.41820007e-04 6.63829996e-05 2.00339989e-03
      6.43680012e-03 6.37800014e-03 1.57219998e-03 8.68959993e-04
      1.51089998e-03 6.22190023e-03 8.28079972e-03 1.21460005e-03
      4.96659987e-03 6.48480002e-03 3.71730013e-04 6.47050003e-03
      1.23599998e-03 3.62559990e-03 5.02250018e-03 8.81760009e-03
      4.85360017e-03 4.20460012e-03 1.47000002e-03 5.51829988e-04
      2.14019994e-04 4.90919978e-04 1.58170005e-03 8.39630025e-04
      2.55519990e-03 1.10899995e-03 2.81969993e-03 4.85789991e-04
      4.45879996e-03 2.47369986e-04 6.93499995e-03 2.25149997e-04
      6.14160020e-03 4.78830002e-03 3.35139991e-03 0. 0. 1.33959996e-03
      6.84059982e-04</_>
    <_>
      4.27349992e-02 1.57360006e-02 1.67110004e-02 7.57580018e-03
      3.97070013e-02 2.08730008e-02 1.64730009e-02 3.18779983e-02
      3.12500000e-02 2.09020004e-02 2.36109998e-02 3.29280011e-02
      2.70269997e-02 1.82349999e-02 5.03979996e-02 2.85710003e-02
      2.94119995e-02 1.85189992e-02 2.83979997e-02 2.09790003e-02
      1.83949992e-02 2.02699993e-02 6.63129985e-03 2.60610003e-02
      4.37440015e-02 3.58849987e-02 3.97850014e-02 2.06770003e-02
      6.78730011e-03 1.46519998e-02 2.91670002e-02 0. 1.79030001e-02
      1.96720008e-02 1.80110000e-02 1.80290006e-02 2.43900008e-02
      8.88890028e-03 1.38410004e-02 6.53589983e-03 2.61439998e-02
      4.84849997e-02 3.13390009e-02 5.00000007e-02 1.88679993e-02
      1.12060001e-02 2.31730007e-02 4.85830009e-02 3.96399982e-02
      3.26800011e-02 3.43139991e-02 2.97619998e-02 1.88410003e-02
      5.65430000e-02 1.53850000e-02 1.75439995e-02 4.03850004e-02
      2.11640000e-02 1.78130008e-02 1.50650004e-02 1.93179995e-02
      2.17540003e-02 1.05259996e-02 1.33330002e-02 9.52379964e-03
      2.40390003e-02 1.73610002e-02 2.38099992e-02 2.07039993e-02
      2.48450004e-02 3.20000015e-02 4.20169998e-03 1.42860003e-02
      1.27820000e-02 2.55420003e-02 2.71649994e-02 1.72630008e-02
      1.40249999e-02 9.86840017e-03 1.04170004e-02 1.17650004e-02
      3.04349996e-02 5.55559993e-03 3.25810015e-02 1.35129998e-02
      9.35550034e-03 5.05950004e-02 5.22730015e-02 8.15219991e-03
      2.52529997e-02 1.47059998e-02 3.10559999e-02 3.09090000e-02
      3.11110001e-02 1.95649993e-02 1.99999996e-02 1.90479998e-02
      2.39129998e-02 2.82610003e-02 9.15329996e-03 1.22550000e-02 0.
      1.36050005e-02 2.04600003e-02 3.14689986e-02 2.65250001e-02
      2.33330000e-02 3.51330005e-02 7.30770007e-02 1.83669999e-02
      6.06480017e-02 3.76549996e-02 6.02280013e-02 1.04170004e-02
      4.21819985e-02 6.41819984e-02 5.01819998e-02 4.44209985e-02
      4.53159995e-02 8.15630034e-02 5.00110015e-02 2.78910007e-02
      3.76299992e-02 3.34610008e-02 5.02680019e-02 5.26320003e-02
      6.20430000e-02 1.76170003e-02 3.55729982e-02 6.01640008e-02
      3.50489989e-02</_>
    <_>
      0. 3.42879997e-04 5.22800023e-03 0. 0. 2.14900007e-03 0. 0.
      2.43659993e-03 1.66870002e-03 0. 2.61400011e-04 0. 4.47959988e-04
      2.40890007e-03 0. 0. 1.26519997e-03 2.11320003e-03 5.49089978e-04
      1.00209995e-03 0. 6.58910023e-04 0. 2.11820006e-03 2.32909995e-04
      2.30730002e-04 1.82959996e-03 1.41639996e-03 0. 5.29100012e-04
      1.03689998e-03 0. 2.51149992e-03 2.50559999e-03 2.02309995e-04 0.
      1.31269998e-03 0. 0. 0. 0. 0. 1.64979999e-03 0. 7.02490006e-03 0.
      0. 3.79509991e-04 6.21369982e-04 2.03830001e-04 2.51889997e-03
      8.86660011e-04 0. 2.14209990e-03 2.08590005e-04 0. 0. 0. 0. 0. 0.
      5.00559981e-04 6.46980014e-03 1.86739999e-04 2.73329997e-03
      2.78309989e-03 0. 1.00940000e-03 0. 1.77120004e-04 0.
      9.61230020e-04 1.80410000e-03 0. 2.20160000e-03 3.97749990e-03 0.
      3.02070007e-03 6.94700005e-03 1.61630000e-04 2.84700003e-03 0.
      4.03509988e-03 0. 0. 5.52000012e-04 1.56520004e-03 1.18130003e-03
      0. 0. 2.07079996e-04 1.61239994e-04 2.81159999e-03 1.76140002e-03
      8.63310008e-04 0. 2.44640000e-03 3.47870006e-03 0. 3.80799989e-03
      5.77919977e-03 0. 3.01770004e-03 2.14860006e-03 0. 1.43710000e-03
      0. 0. 1.17980002e-03 0. 0. 0. 0. 0. 2.04690010e-03 1.68920006e-03
      0. 2.06229999e-03 7.37230014e-03 6.09999988e-04 0. 4.58860013e-04
      2.87269999e-04 5.03019989e-03 0. 2.32640002e-03 0. 5.15200023e-04
      1.92249997e-03 0.</_>
    <_>
      4.68490005e-04 1.58960000e-02 9.86209977e-03 1.50760002e-02 0.
      3.48510011e-03 3.86209995e-03 0. 9.70620010e-03 2.02810001e-02
      7.77899986e-03 1.13770002e-02 5.89939998e-03 2.13089995e-02
      1.21799996e-03 2.42330004e-02 6.26800023e-03 1.75390001e-02
      7.90950004e-03 0. 4.70840000e-03 0. 3.71750002e-03 2.93250009e-03
      3.55409994e-03 1.74170006e-02 0. 1.47460001e-02 0. 3.12440004e-02
      1.65400002e-03 3.55469994e-02 8.90989974e-03 3.19340006e-02
      1.35869998e-02 2.80750003e-02 4.86860005e-03 5.22050001e-02 0.
      9.32299998e-03 0. 2.30659992e-02 2.39160005e-03 1.66870002e-02
      2.92439992e-03 1.82739999e-02 0. 6.11399999e-04 0. 0.
      8.02570023e-03 0. 0. 3.28480010e-03 0. 7.60040013e-03 0.
      4.17539995e-04 0. 0. 9.75370035e-03 9.39850044e-03 0.
      2.03329995e-02 0. 1.69479996e-02 3.55209992e-03 2.01130006e-02 0.
      2.11239997e-02 3.98090016e-03 2.59770006e-02 2.36469996e-03
      3.28220017e-02 3.84099991e-03 3.00740004e-02 3.93059989e-03
      3.48250009e-02 0. 8.06159992e-03 1.62359998e-02 4.37190011e-02 0.
      2.51340009e-02 0. 1.58840008e-02 0. 2.04949994e-02 1.13410002e-03
      2.95509994e-02 0. 2.18170006e-02 9.63149965e-03 3.04760002e-02
      7.02319993e-03 3.55489999e-02 6.40190020e-03 2.76460010e-03
      9.26820002e-03 3.95630002e-02 0. 1.29479999e-02 0. 7.38789979e-03
      6.53420016e-03 1.06140003e-02 2.13530008e-03 3.04419994e-02
      3.20950011e-03 8.10480025e-03 0. 1.51110003e-02 1.19059999e-02
      1.03080003e-02 0. 4.49240021e-03 0. 9.37919971e-03 1.45699997e-02
      4.51239990e-03 3.37550009e-04 3.83559987e-02 6.12059981e-03
      3.57140005e-02 1.19000003e-02 1.21419998e-02 0. 2.76999995e-02 0.
      2.33510006e-02 4.24989994e-04</_>
    <_>
      7.63890008e-03 1.02500003e-02 1.25940004e-02 6.60840003e-03
      6.79010013e-03 2.15910003e-02 1.61290001e-02 1.20479995e-02
      1.62230004e-02 2.29269993e-02 1.11109996e-02 2.48230007e-02
      1.20369997e-02 1.09649999e-02 1.52030000e-02 9.67739988e-03
      1.73610002e-02 2.18610000e-02 1.60820000e-02 1.32830003e-02
      1.54330004e-02 2.48879995e-02 1.70610007e-02 1.65780000e-02
      1.98599994e-02 1.86439995e-02 2.26349998e-02 1.53919999e-02
      1.12159997e-02 2.38099992e-02 1.85940005e-02 1.44229997e-02
      1.69149991e-02 2.01159995e-02 1.48940003e-02 2.50000004e-02
      2.08160002e-02 2.79600006e-02 1.93750001e-02 1.44790001e-02
      1.88389998e-02 1.79089997e-02 1.70389991e-02 2.74170004e-02
      1.56939998e-02 2.19989996e-02 1.67759992e-02 1.83329992e-02
      8.83150008e-03 2.51460001e-02 1.15550002e-02 2.31580008e-02
      7.47859990e-03 2.48479992e-02 1.28070004e-02 2.40039993e-02
      1.56150004e-02 2.33769994e-02 1.90479998e-02 2.62519997e-02
      1.54590001e-02 2.47980002e-02 1.76490005e-02 1.34540005e-02
      2.15910003e-02 2.06439998e-02 2.66759992e-02 2.51749996e-02
      1.97560005e-02 1.26839997e-02 1.10400002e-02 2.19609998e-02
      2.68539991e-02 2.04590000e-02 1.69190001e-02 1.26259997e-02
      1.30660003e-02 2.02469993e-02 8.96519981e-03 9.13459994e-03
      9.17659979e-03 2.17020009e-02 2.07540002e-02 1.69229992e-02
      1.61169991e-02 1.83819998e-02 1.74240004e-02 2.40039993e-02
      2.50000004e-02 1.28549999e-02 2.23949999e-02 2.32459996e-02
      2.11769994e-02 1.56689994e-02 2.60160007e-02 2.94840001e-02
      1.57660004e-02 2.43900008e-02 1.12070004e-02 1.85189992e-02
      1.18580004e-02 1.14709996e-02 2.60049999e-02 1.06840003e-02
      1.95569992e-02 2.48230007e-02 2.55100001e-02 2.07180008e-02
      2.22900007e-02 1.74509995e-02 1.58309992e-02 1.73160005e-02
      1.93280000e-02 2.52490006e-02 1.69079993e-02 1.46570001e-02
      1.30679999e-02 2.40279995e-02 1.59820002e-02 1.34150004e-02
      1.85780004e-02 8.49920046e-03 1.66669991e-02 2.50000004e-02
      2.43900008e-02 2.56789997e-02 1.77400000e-02 1.85429994e-02
      1.11109996e-02 3.47919986e-02 2.26670001e-02</_>
    <_>
      2.66059991e-02 2.01420002e-02 2.21490003e-02 2.33299993e-02
      2.97810007e-02 2.48199999e-02 1.83910001e-02 2.10180003e-02
      2.02149991e-02 3.25360000e-02 2.76009999e-02 2.21909992e-02
      2.57610008e-02 2.56880000e-02 2.12919991e-02 2.82380003e-02
      1.89999994e-02 1.81680005e-02 1.33649996e-02 2.39020009e-02
      1.88369993e-02 2.89709996e-02 2.79179998e-02 1.94710009e-02
      2.15729997e-02 2.79360004e-02 3.30169983e-02 3.02510001e-02
      3.34799998e-02 2.90639997e-02 2.59460006e-02 2.73770001e-02
      3.46309990e-02 3.32259983e-02 3.81390005e-02 3.39899994e-02
      2.27690004e-02 2.13019997e-02 2.77859997e-02 2.83049997e-02
      2.41359994e-02 2.36559995e-02 2.32679993e-02 2.88149994e-02
      1.88170001e-02 3.67010012e-02 2.73969993e-02 2.58419998e-02
      3.09280008e-02 2.08110008e-02 2.56169997e-02 2.56340001e-02
      1.93830002e-02 2.00859997e-02 3.07730008e-02 1.94179993e-02
      2.35510003e-02 2.08240002e-02 1.73029993e-02 1.89750008e-02
      2.33650003e-02 2.28979997e-02 3.23229991e-02 2.43250001e-02
      3.05879992e-02 2.28860006e-02 3.45420018e-02 2.32880004e-02
      2.03360002e-02 2.11720001e-02 2.11520009e-02 2.20519993e-02
      2.31389999e-02 3.19969989e-02 2.25099996e-02 3.99550013e-02
      3.28480005e-02 3.67969982e-02 3.96240018e-02 3.51729989e-02
      3.36120017e-02 2.83140000e-02 2.65929997e-02 2.35879999e-02
      2.18219999e-02 2.04629991e-02 2.61739995e-02 2.55059991e-02
      3.54240015e-02 2.74810009e-02 3.17340009e-02 2.52509993e-02
      2.21200008e-02 3.03220004e-02 2.63310000e-02 1.70000009e-02
      1.67590007e-02 1.40789999e-02 2.05150004e-02 2.69419998e-02
      3.19189988e-02 2.53389999e-02 2.32490003e-02 2.33839992e-02
      3.41450013e-02 2.68750004e-02 3.40790004e-02 2.56849993e-02
      3.19610015e-02 2.97749992e-02 2.57920008e-02 2.46450007e-02
      2.07289997e-02 2.39540003e-02 1.86080001e-02 2.35459991e-02
      1.84349995e-02 2.26680003e-02 2.14269999e-02 2.59089991e-02
      3.35690007e-02 3.19299996e-02 3.35090011e-02 2.58159991e-02
      2.31279992e-02 2.66709998e-02 2.15380006e-02 1.91879999e-02
      1.82690006e-02 1.44929998e-02 1.93280000e-02</_>
    <_>
      3.60610008e-01 6.66830003e-01 5.15200019e-01 5.84940016e-01
      3.10240000e-01 2.35560000e-01 3.14880013e-01 3.10460001e-01
      2.54900008e-01 3.63640010e-01 3.91739994e-01 2.96000004e-01
      5.40390015e-01 5.55040002e-01 2.99470007e-01 2.73279995e-01
      2.97300011e-01 3.35790008e-01 3.42440009e-01 3.80360007e-01
      5.10150015e-01 4.01969999e-01 2.51920015e-01 3.26319993e-01
      4.00000006e-01 5.71959972e-01 6.18009984e-01 6.26259983e-01
      4.64769989e-01 6.39989972e-01 3.43860000e-01 2.71109998e-01
      3.19050014e-01 2.83650011e-01 3.40279996e-01 2.40480006e-01
      3.37480009e-01 4.16150004e-01 3.65999997e-01 3.23529989e-01
      5.28569996e-01 4.40600008e-01 3.83899987e-01 3.91339988e-01
      4.73780006e-01 7.03369975e-01 2.89469987e-01 2.50000000e-01
      3.02940011e-01 3.13039988e-01 3.44449997e-01 3.00749987e-01
      5.71420014e-01 5.94600022e-01 3.51190001e-01 4.54540014e-01
      3.15219998e-01 2.82830000e-01 2.94120014e-01 3.16769987e-01
      3.10909986e-01 3.57039988e-01 2.89130002e-01 3.16000015e-01
      2.54759997e-01 3.49999994e-01 3.80430013e-01 3.40959996e-01
      3.50490004e-01 2.97980011e-01 3.57140005e-01 3.81069988e-01
      4.61540014e-01 5.42439997e-01 4.71109986e-01 6.26230001e-01
      4.65380013e-01 5.99089980e-01 5.49070001e-01 6.03540003e-01
      4.87309992e-01 4.58810002e-01 4.16000009e-01 4.31160003e-01
      4.53099996e-01 6.26720011e-01 4.34430003e-01 5.56230009e-01
      6.26909971e-01 4.93189991e-01 5.93919992e-01 5.38280010e-01
      4.46810007e-01 6.49890006e-01 4.49979991e-01 4.32590008e-01
      5.13830006e-01 5.49650013e-01 4.51200008e-01 5.09809971e-01
      4.26939994e-01 5.00320017e-01 4.34920013e-01 5.66020012e-01
      5.31250000e-01 5.07359982e-01 4.29919988e-01 5.61730027e-01
      4.30189997e-01 5.54759979e-01 4.69130009e-01 5.57900012e-01
      4.40649986e-01 5.86839974e-01 4.22540009e-01 5.29269993e-01
      5.83209991e-01 5.34839988e-01 5.44470012e-01 4.79200006e-01
      4.62709993e-01 4.08809990e-01 6.49990022e-01 4.33560014e-01
      6.62310004e-01 4.92100000e-01 6.19639993e-01 6.39620006e-01
      5.76170027e-01 5.91719985e-01 6.19199991e-01</_>
    <_>
      6.24260008e-02 2.16010008e-02 5.39759994e-02 4.98949997e-02
      1.71959996e-02 4.25609984e-02 4.23589982e-02 4.25059982e-02
      4.40599993e-02 4.49469984e-02 3.19509991e-02 3.34770009e-02
      4.11540009e-02 4.71259989e-02 3.33979987e-02 4.66229990e-02
      5.03280014e-02 5.22559993e-02 5.34310006e-02 4.90359999e-02
      4.61630002e-02 5.15469983e-02 4.79470007e-02 5.30380011e-02
      6.63139969e-02 6.19379990e-02 6.64340034e-02 6.65180013e-02
      5.98509982e-02 3.36540006e-02 4.17280011e-02 4.01110016e-02
      4.30070013e-02 5.71429990e-02 3.34040001e-02 3.49950008e-02
      4.22779992e-02 4.12629992e-02 3.58479992e-02 3.47770005e-02
      3.05989999e-02 3.69209982e-02 4.53520007e-02 7.25390017e-02
      6.84999973e-02 6.20869994e-02 4.36219983e-02 3.94220017e-02
      6.26929998e-02 4.68010008e-02 4.15990017e-02 6.80119991e-02
      3.22079994e-02 2.97929998e-02 5.48000000e-02 4.64100018e-02
      3.33000012e-02 4.06850018e-02 4.33010012e-02 5.52809983e-02
      5.33460006e-02 6.01969995e-02 5.38059995e-02 4.70760018e-02
      5.81270009e-02 5.51350005e-02 5.87139986e-02 5.84920011e-02
      6.56500012e-02 6.69720024e-02 4.78679985e-02 4.08210009e-02
      5.17890006e-02 6.81739971e-02 4.29669991e-02 6.04670011e-02
      5.30459993e-02 6.11470006e-02 5.18330000e-02 4.18520011e-02
      5.14170006e-02 4.53770012e-02 4.70100008e-02 4.91049998e-02
      6.52000010e-02 6.24289997e-02 6.56339973e-02 5.42589985e-02
      6.90689981e-02 5.39069995e-02 5.38510010e-02 5.27179986e-02
      4.21020016e-02 5.13099991e-02 4.25329991e-02 2.19679996e-02
      6.57069981e-02 5.63969985e-02 5.43190017e-02 7.83530027e-02
      4.92709987e-02 2.66520008e-02 5.17509989e-02 7.04699978e-02
      6.49200007e-02 6.67769983e-02 5.92250004e-02 3.37550007e-02
      2.23009996e-02 5.85249998e-02 1.32440003e-02 7.98579976e-02
      6.92640021e-02 6.79930001e-02 6.26929998e-02 6.46110028e-02
      6.05570003e-02 7.53460005e-02 3.77079993e-02 3.58360000e-02
      4.27550003e-02 7.48049989e-02 5.46890013e-02 1.20160002e-02
      3.03240009e-02 3.39829996e-02 8.13350007e-02 7.43710026e-02
      5.89639992e-02 3.22300009e-02 3.16770002e-02</_>
    <_>
      8.62069987e-03 2.42090002e-02 1.20590003e-02 4.25530002e-02
      1.28210001e-02 1.36900004e-02 1.95039995e-02 3.36740017e-02
      1.40589997e-02 1.16520002e-02 1.24270003e-02 1.38240000e-02
      2.48920005e-02 2.26889998e-02 1.32889999e-02 1.81159992e-02
      1.44710001e-02 1.98860001e-02 1.54459998e-02 1.03780003e-02
      2.52030008e-02 1.48040000e-02 1.24380002e-02 1.91670004e-02
      1.22220004e-02 7.94100016e-03 4.34570014e-02 1.02709997e-02
      1.62649993e-02 1.51239997e-02 2.69360002e-02 1.95560008e-02
      3.22580002e-02 2.00529993e-02 2.13699993e-02 3.38229984e-02
      1.22269997e-02 2.70150006e-02 3.61989997e-02 1.97119992e-02
      1.38689997e-02 9.63720027e-03 1.20770000e-02 2.30500009e-02
      3.17460001e-02 1.08700003e-02 1.63269993e-02 4.39190008e-02
      3.07919998e-02 1.65490005e-02 7.54720019e-03 3.48430015e-02
      3.28730009e-02 1.84749998e-02 1.66669991e-02 2.72049997e-02
      1.84359998e-02 6.36370014e-03 2.72230003e-02 1.34830000e-02
      2.95889992e-02 1.47059998e-02 1.49349999e-02 1.36219999e-02
      1.62039995e-02 3.29539999e-02 1.23269996e-02 1.25590004e-02
      2.88459994e-02 2.05130000e-02 8.55620019e-03 2.89660003e-02
      2.06519999e-02 2.46099997e-02 1.86359994e-02 3.12500000e-02
      1.33710001e-02 8.63679964e-03 1.19829997e-02 6.16330002e-03
      3.12500000e-02 4.35610004e-02 3.84620018e-02 1.31259998e-02
      1.28499996e-02 1.21210003e-02 5.46870008e-03 4.44980003e-02
      9.10229981e-03 1.25000002e-02 2.44759992e-02 1.73579995e-02
      1.09799998e-02 2.00849995e-02 1.24439998e-02 9.67259984e-03
      3.60359997e-02 1.01009998e-02 2.43900008e-02 1.57539994e-02
      9.55319963e-03 1.53919999e-02 3.26189995e-02 3.07979994e-02
      1.63170006e-02 3.59789990e-02 1.50459995e-02 1.90479998e-02
      2.91670002e-02 1.06769996e-02 1.76630002e-02 1.07770003e-02
      2.91900001e-02 9.18370020e-03 1.62090007e-02 1.34950001e-02
      2.92310007e-02 1.56529993e-02 3.99999991e-02 2.19390001e-02
      1.05259996e-02 3.04860007e-02 1.35270003e-02 6.65059984e-02
      1.50790000e-02 1.87909994e-02 2.20449995e-02 1.09569998e-02
      2.52529997e-02 1.27550000e-02 1.27849998e-02</_>
    <_>
      2.17179999e-01 1.49770007e-01 2.47270003e-01 2.06900001e-01
      2.55809993e-01 1.63169995e-01 1.63489997e-01 2.05630004e-01
      2.19400004e-01 2.39580005e-01 1.39809996e-01 1.38589993e-01
      1.12729996e-01 1.89740002e-01 1.84009999e-01 1.49179995e-01
      1.89469993e-01 2.44100004e-01 2.33449996e-01 1.22419998e-01
      2.48359993e-01 2.50880003e-01 2.43249997e-01 1.67150006e-01
      1.84290007e-01 2.15079993e-01 2.12689996e-01 1.37899995e-01
      2.68079996e-01 1.40469998e-01 1.87639996e-01 1.18260004e-01
      1.81329995e-01 1.66119993e-01 2.44660005e-01 2.05190003e-01
      2.36839995e-01 2.11329997e-01 1.53490007e-01 1.16169997e-01
      1.56859994e-01 1.44520000e-01 2.18020007e-01 2.19510004e-01
      2.19589993e-01 2.75469989e-01 1.98890001e-01 2.52640009e-01
      1.90909997e-01 1.36690006e-01 1.66189998e-01 1.59639999e-01
      2.17950001e-01 2.14530006e-01 2.71880001e-01 2.34530002e-01
      1.25520006e-01 1.98339999e-01 2.46120006e-01 2.56579995e-01
      1.04369998e-01 1.13059998e-01 1.08010001e-01 1.11529998e-01
      1.02559999e-01 1.28199995e-01 1.40939996e-01 1.62509993e-01
      1.53569996e-01 1.20150000e-01 1.34130001e-01 1.11319996e-01
      1.60139993e-01 1.54149994e-01 1.13959998e-01 1.77289993e-01
      1.17040001e-01 1.28999993e-01 1.26809999e-01 1.27540007e-01
      1.31679997e-01 1.45229995e-01 1.49360001e-01 1.38310000e-01
      1.29869998e-01 1.28419995e-01 1.41570002e-01 1.43360004e-01
      1.33629993e-01 1.20559998e-01 7.01749995e-02 8.83269981e-02
      1.06440000e-01 1.26800001e-01 1.32609993e-01 1.60769999e-01
      1.69819996e-01 1.47550002e-01 1.81620002e-01 1.36449993e-01
      1.34599999e-01 1.52989998e-01 1.46430001e-01 1.45579994e-01
      7.44640008e-02 9.59279984e-02 8.78209993e-02 1.46799996e-01
      1.27829999e-01 8.20410028e-02 9.65550020e-02 8.35779980e-02
      1.49149999e-01 1.00780003e-01 9.16870013e-02 1.21840000e-01
      1.35769993e-01 1.59009993e-01 1.61620006e-01 1.73350006e-01
      1.73639998e-01 1.65560007e-01 8.46010000e-02 8.90159979e-02
      1.37419999e-01 1.51160002e-01 1.21440001e-01 7.35090002e-02
      7.62220025e-02 7.27130026e-02 5.33940010e-02</_>
    <_>
      5.44650018e-01 6.42390013e-01 5.66760004e-01 5.63820004e-01
      5.54130018e-01 5.76160014e-01 4.10629988e-01 5.86359978e-01
      3.82719994e-01 4.13190007e-01 3.41780007e-01 5.69400012e-01
      6.01490021e-01 7.14690030e-01 4.02570009e-01 3.67320001e-01
      3.84020001e-01 4.60469991e-01 4.00559992e-01 4.35860008e-01
      4.37420011e-01 3.78199995e-01 4.46889997e-01 4.45989996e-01
      3.44390005e-01 4.54210013e-01 3.98900002e-01 4.44579989e-01
      3.47779989e-01 3.93159986e-01 3.63409996e-01 3.71569991e-01
      3.07359993e-01 3.77490014e-01 4.47079986e-01 4.77519989e-01
      3.48360002e-01 4.24800009e-01 4.50150013e-01 5.21529973e-01
      6.00589991e-01 5.64779997e-01 4.62309986e-01 6.12550020e-01
      6.16240025e-01 3.65300000e-01 4.01289999e-01 4.16860014e-01
      4.17479992e-01 4.07359987e-01 4.63719994e-01 3.29089999e-01
      5.36689997e-01 5.09220004e-01 4.82650012e-01 6.11739993e-01
      5.39420009e-01 4.19550002e-01 4.97460008e-01 3.82730007e-01
      4.76480007e-01 5.44709980e-01 4.77200001e-01 4.43960011e-01
      4.68629986e-01 4.95889992e-01 5.34309983e-01 5.59960008e-01
      3.81540000e-01 4.39990014e-01 5.21849990e-01 5.74150026e-01
      5.63799977e-01 4.56580013e-01 3.76830012e-01 4.40180004e-01
      2.88989991e-01 4.26930010e-01 7.24919975e-01 3.47380012e-01
      2.61909992e-01 4.03510004e-01 3.46150011e-01 5.82400024e-01
      3.16610008e-01 3.79310012e-01 4.10629988e-01 6.58460021e-01
      3.26669991e-01 3.99610013e-01 3.69410008e-01 5.59650004e-01
      3.79999995e-01 3.61950010e-01 3.42739999e-01 3.94180000e-01
      4.41029996e-01 3.99569988e-01 3.56359988e-01 4.60359991e-01
      2.84260005e-01 3.44700009e-01 2.21589997e-01 2.80220002e-01
      6.00000024e-01 6.41700029e-01 4.81819987e-01 4.08160001e-01
      5.19029975e-01 4.43610013e-01 3.69560003e-01 5.40740013e-01
      5.60190022e-01 4.13040012e-01 3.76549989e-01 6.78399980e-01
      5.99699974e-01 6.33970022e-01 4.44440007e-01 6.04349971e-01
      2.98629999e-01 3.76329988e-01 3.39960009e-01 4.54540014e-01
      5.96520007e-01 6.00979984e-01 4.84169990e-01 3.78300011e-01
      3.25069994e-01 3.38889986e-01 3.49020004e-01</_>
    <_>
      3.57190007e-03 0. 1.01810005e-02 1.93140004e-03 0. 2.34499993e-03
      0. 3.18180001e-03 2.47459998e-03 0. 0. 8.43640009e-04
      1.96389994e-03 4.01279982e-03 2.61000008e-03 1.11360000e-02
      3.90550005e-04 0. 0. 1.09070004e-03 2.32199999e-03 5.38450014e-03
      0. 1.63550000e-03 9.20809980e-04 3.15840007e-03 3.44270002e-03 0.
      7.86470016e-04 0. 0. 1.18180003e-03 9.06069996e-04 1.94760005e-03
      0. 2.30189995e-03 0. 0. 0. 0. 0. 0. 0. 0. 0. 8.62629968e-05 0. 0.
      0. 0. 0. 0. 0. 0. 4.36939998e-04 5.72030025e-04 5.46330004e-04
      8.03919975e-05 1.43259997e-04 0. 0. 0. 1.28339999e-03
      1.54259999e-03 1.15849997e-03 7.24860001e-04 7.51479995e-04 0. 0.
      0. 9.39760008e-04 1.24110002e-03 0. 5.73620026e-04 4.89179976e-04
      0. 0. 0. 0. 0. 0. 1.56390003e-03 6.21079991e-04 9.05750028e-04
      1.23100006e-04 0. 3.01969994e-04 1.18030002e-03 1.01990001e-04 0.
      0. 0. 7.39859999e-04 0. 0. 0. 5.27010008e-04 0. 0. 0. 0. 0. 0. 0.
      0. 0. 4.47830011e-04 0. 0. 7.69940016e-05 1.07050000e-03
      6.87620020e-04 7.85309996e-04 2.44399998e-04 6.86580024e-04
      5.86220005e-04 0. 2.85379996e-04 0. 0. 0. 2.36260006e-04
      2.46079988e-04 5.99159976e-04 8.22709990e-04 0. 0. 0.
      3.12310003e-04 0. 0.</_>
    <_>
      3.03719997e-01 5.23299985e-02 3.46010000e-01 1.16710000e-01
      1.60610005e-01 2.82970011e-01 1.76209994e-02 1.01669997e-01
      3.34650010e-01 3.06910008e-01 4.25359994e-01 2.76849985e-01
      2.83769995e-01 2.08939999e-01 2.84449995e-01 1.43380001e-01
      2.40679994e-01 3.17600012e-01 2.09490001e-01 3.40689987e-01
      1.82940006e-01 3.69239986e-01 2.34919995e-01 1.45050004e-01
      1.49250001e-01 3.26579988e-01 2.88630009e-01 1.82860002e-01
      3.80739987e-01 1.19000003e-01 3.03469986e-01 2.10370004e-01
      1.96620002e-01 2.32600003e-01 9.01879966e-02 6.29170015e-02
      6.25440031e-02 7.57159963e-02 7.37980008e-02 5.36170006e-02
      8.82870033e-02 9.98449996e-02 1.10160001e-01 7.70530030e-02
      1.11520000e-01 8.69309977e-02 8.86199996e-02 8.76310021e-02
      8.23049992e-02 8.88350010e-02 7.93199986e-02 1.00280002e-01
      1.08350001e-01 1.15819998e-01 1.19620003e-01 1.03430003e-01
      1.05970003e-01 1.04029998e-01 9.41909999e-02 1.03370003e-01
      1.07409999e-01 1.05619997e-01 1.15249999e-01 1.06169999e-01
      1.31040007e-01 1.03340000e-01 1.04989998e-01 1.00369997e-01
      1.10689998e-01 7.55899996e-02 9.01660025e-02 9.04569998e-02
      1.09119996e-01 6.45280033e-02 7.96630010e-02 8.53959993e-02
      9.36949998e-02 1.22419998e-01 1.13459997e-01 1.08240001e-01
      1.05070002e-01 1.02729999e-01 8.99740010e-02 1.00589998e-01
      7.60790035e-02 7.29259998e-02 1.18450001e-01 9.56740007e-02
      1.02159999e-01 8.80440027e-02 1.27159998e-01 9.25579965e-02
      1.02860004e-01 1.02770001e-01 1.20410003e-01 1.10490002e-01
      4.68860008e-02 3.59830000e-02 5.99999987e-02 7.20980018e-02
      8.44099969e-02 6.84230030e-02 3.18889990e-02 4.03049998e-02
      2.74689998e-02 9.77329984e-02 8.89279991e-02 1.15419999e-01
      1.19350001e-01 8.83970037e-02 1.13969997e-01 1.26159996e-01
      1.15230002e-01 9.26769972e-02 1.19130000e-01 1.08250000e-01
      1.02320001e-01 1.09020002e-01 1.12300001e-01 1.06959999e-01
      1.21509999e-01 1.40479997e-01 9.77310017e-02 1.00690000e-01
      8.40749964e-02 1.15549996e-01 1.09940000e-01 9.00909975e-02
      1.06729999e-01 8.03890005e-02 1.14150003e-01</_>
    <_>
      2.06389993e-01 2.13220000e-01 1.87319994e-01 2.70590007e-01
      3.32780004e-01 2.00250000e-01 1.95280001e-01 2.01320007e-01
      1.88429996e-01 2.24730000e-01 2.74309993e-01 3.32239985e-01
      1.13640003e-01 2.79949993e-01 5.17240018e-02 2.02830002e-01
      6.50850013e-02 1.83809996e-01 1.81789994e-01 1.26660004e-01
      1.44989997e-01 3.36319990e-02 1.19050004e-01 1.13210000e-01
      2.45199993e-01 5.96919991e-02 2.48199999e-01 1.34480000e-01
      2.20630005e-01 0. 2.11669996e-01 2.20249996e-01 2.00389996e-01
      1.01080000e-01 2.36450002e-01 2.06420004e-01 2.72579998e-01
      2.38780007e-01 2.72460014e-01 1.67779997e-01 1.80710003e-01
      5.55099994e-02 1.51319996e-01 1.13440000e-01 2.41919994e-01
      4.43990007e-02 2.55540013e-01 9.65420008e-02 2.22829998e-01
      6.30529970e-02 1.59160003e-01 1.14050001e-01 2.75090009e-01
      2.10529998e-01 2.81619996e-01 1.25650004e-01 2.83820003e-01
      8.02330002e-02 2.28799999e-01 1.31740004e-01 3.10380012e-01
      2.73600012e-01 2.52829999e-01 1.83270007e-01 1.88730001e-01
      2.53019989e-01 1.59710005e-01 2.04659998e-01 4.59330007e-02
      1.24229997e-01 2.39170000e-01 0. 2.20870003e-01 2.04950005e-01
      2.94800013e-01 1.41269997e-01 2.32620001e-01 2.04129994e-01
      4.95329984e-02 1.87419996e-01 9.54990014e-02 1.93440005e-01
      1.82559997e-01 8.26610029e-02 1.76799998e-01 2.18889993e-02
      8.55019987e-02 1.37410000e-01 1.31150007e-01 2.02429995e-01
      5.84589988e-02 2.46940002e-01 1.02980003e-01 1.83349997e-01
      1.07179999e-01 1.53359994e-01 1.83860004e-01 2.20359996e-01
      1.24459997e-01 1.94849998e-01 1.10519998e-01 3.36560011e-01
      3.95479985e-02 4.75029983e-02 5.98720014e-02 2.02519998e-01
      2.06770003e-01 2.67399997e-01 1.18929997e-01 2.88879991e-01
      4.62119989e-02 1.11890003e-01 4.64089997e-02 4.92720008e-02
      1.22589998e-01 7.05469982e-04 3.49670015e-02 1.66899994e-01
      6.51919991e-02 1.95439994e-01 0. 2.09600002e-01 2.68019997e-02
      7.58899972e-02 2.02889994e-01 2.06139997e-01 1.17969997e-01
      2.27980003e-01 1.40210003e-01 2.22460002e-01 1.53129995e-01</_>
    <_>
      2.73920000e-02 6.83140010e-02 3.50329988e-02 3.47989984e-02
      2.75359992e-02 2.47850008e-02 3.64530012e-02 2.52190009e-02
      1.56689994e-02 2.78360005e-02 4.47439998e-02 4.76190001e-02
      7.53310025e-02 3.80740017e-02 1.76309999e-02 3.60959992e-02
      3.45689990e-02 2.99750008e-02 2.74940003e-02 1.82930008e-02
      3.33940014e-02 5.24079986e-02 3.57140005e-02 3.63639998e-03
      5.77780008e-02 5.18580005e-02 9.00899991e-03 1.00389998e-02
      5.76040009e-03 1.71370003e-02 5.55559993e-03 6.57900004e-03
      1.13960002e-02 1.10149998e-02 1.13639999e-02 7.57580018e-03
      1.14940004e-02 6.64140005e-03 8.72089993e-03 1.17809996e-02
      8.75000004e-03 1.02460003e-02 1.59719996e-02 1.57040004e-02
      1.35129998e-02 8.82350001e-03 1.72409993e-02 6.34919992e-03
      1.09440004e-02 6.34919992e-03 2.33270004e-02 1.16550000e-02
      1.56079996e-02 1.14869997e-02 6.63129985e-03 1.69699993e-02
      1.34410001e-02 9.56939999e-03 1.82799995e-02 5.63909998e-03
      4.52490011e-03 7.32599990e-03 1.04170004e-02 2.94120004e-03
      7.67259998e-03 6.55739987e-03 5.62850013e-03 1.28210001e-02
      5.85369999e-03 4.44439985e-03 2.07610000e-02 6.53589983e-03
      2.28760000e-02 1.81820001e-02 8.54699966e-03 1.60000008e-02
      8.70830007e-03 1.31839998e-02 7.13009993e-03 5.06069977e-03
      8.10809992e-03 1.06210001e-02 5.60220005e-03 1.01190004e-02
      5.79709979e-03 1.11109996e-02 1.92310009e-02 7.01749977e-03
      1.73080005e-02 4.76189982e-03 1.38550000e-02 8.60830024e-03
      1.19319996e-02 8.77190009e-03 3.50879994e-03 0. 1.42860003e-02
      2.40390003e-02 1.04170004e-02 9.52379964e-03 1.03519997e-02
      1.65630002e-02 1.60000008e-02 1.68069992e-02 5.88229997e-03
      6.76689995e-03 1.00619998e-02 1.18850004e-02 6.39390014e-03
      7.01260008e-03 6.57900004e-03 1.56250000e-02 8.82350001e-03
      2.17390005e-02 1.11109996e-02 5.01250010e-03 7.72200013e-03
      3.11850011e-03 2.97620008e-03 6.81820000e-03 1.35869998e-02
      5.05049992e-03 9.80389956e-03 8.28159973e-03 1.99999996e-02
      1.03700003e-02 1.08700003e-02 6.00000005e-03 7.14290002e-03
      2.60869991e-02 1.52169997e-02</_>
    <_>
      1.03170000e-01 7.79879987e-02 9.13579985e-02 5.43980002e-02
      8.05440024e-02 5.04940003e-02 5.73760010e-02 4.78399992e-02
      9.52209979e-02 1.19570002e-01 1.11050002e-01 6.12649992e-02
      8.41810033e-02 5.99349998e-02 7.22220019e-02 7.05130026e-02
      5.49449995e-02 9.12889987e-02 1.08700000e-01 7.03049973e-02
      7.61900023e-02 6.45930022e-02 9.80390012e-02 6.14320002e-02
      7.66920000e-02 7.54899979e-02 1.07740000e-01 1.06729999e-01
      1.12819999e-01 7.43139982e-02 9.80909988e-02 6.78860024e-02
      7.64610022e-02 7.20890015e-02 6.52799979e-02 9.64910015e-02
      7.66889974e-02 7.06309974e-02 5.15340008e-02 9.94649976e-02
      7.64959976e-02 8.58120024e-02 1.18699998e-01 7.47769997e-02
      7.47409984e-02 1.44439995e-01 7.72200003e-02 6.69640005e-02
      1.06119998e-01 8.55839998e-02 7.17810020e-02 5.85110001e-02
      6.54549971e-02 8.09530020e-02 5.30910008e-02 5.17450012e-02
      6.53510019e-02 5.89080006e-02 6.58439994e-02 4.98970002e-02
      4.71699983e-02 2.82719992e-02 5.71630001e-02 7.27899969e-02
      8.81770030e-02 5.64629994e-02 6.37959987e-02 5.08869998e-02
      8.17449987e-02 7.13609979e-02 8.50140005e-02 8.70369971e-02
      4.83390018e-02 1.08560003e-01 6.92640021e-02 7.89470002e-02
      5.28849997e-02 4.37499993e-02 9.71790031e-02 8.10810030e-02
      8.21259990e-02 2.46149991e-02 2.99999993e-02 6.17760010e-02
      1.10299997e-01 5.61399981e-02 5.06669991e-02 7.90240020e-02
      6.18279986e-02 1.04500003e-01 6.15390018e-02 1.20839998e-01
      8.72730017e-02 6.39640018e-02 1.37960002e-01 8.58590007e-02
      1.25000000e-01 1.55680001e-01 3.21430005e-02 1.61940008e-02
      4.18180004e-02 8.66210014e-02 5.43109998e-02 6.10900000e-02
      6.52170032e-02 7.40739983e-03 2.62349993e-02 3.86469997e-02
      9.37929973e-02 2.34600008e-02 3.27380002e-02 2.39230003e-02
      8.76540020e-02 3.47829983e-02 9.03889984e-02 1.01219997e-01
      6.81819990e-02 4.72729988e-02 7.88199976e-02 3.33329998e-02
      1.06729999e-01 6.89150020e-02 8.74660015e-02 9.79169980e-02
      1.03270002e-01 1.81000009e-02 1.06579997e-01 6.58729970e-02
      4.46429998e-02 1.03710003e-01 3.08279991e-02</_>
    <_>
      8.15830007e-02 7.20880032e-02 5.37620001e-02 6.68219998e-02
      4.85309996e-02 5.94250001e-02 4.32539992e-02 4.83880006e-02
      4.94749993e-02 4.52929996e-02 3.03320009e-02 3.55740003e-02
      4.09340002e-02 3.68769988e-02 4.39400002e-02 3.03509999e-02
      4.27079983e-02 8.11010003e-02 9.18650031e-02 7.83649981e-02
      1.01140000e-01 1.04889996e-01 5.94400018e-02 1.46100000e-02
      4.48540002e-02 4.31029983e-02 3.02230008e-02 9.03169997e-03
      2.02939995e-02 2.29059998e-02 2.28339992e-02 1.98129993e-02
      3.20510007e-02 1.92259997e-02 2.62720007e-02 3.43540013e-02
      1.96570009e-02 2.76539996e-02 4.57089990e-02 1.23910001e-02
      4.56789993e-02 2.31480002e-02 6.23130016e-02 3.70550007e-02
      3.12389992e-02 1.70709994e-02 1.98529996e-02 2.58949995e-02
      2.28330009e-02 2.61860006e-02 1.92089994e-02 3.31160016e-02
      3.94739993e-02 6.33900017e-02 1.19049996e-02 2.16029994e-02
      4.46220003e-02 3.39189991e-02 3.73630002e-02 3.50879990e-02
      2.27039997e-02 3.20510007e-02 4.11030017e-02 5.93140014e-02
      1.58730000e-02 2.53950004e-02 1.44520001e-02 1.86739992e-02
      5.03709987e-02 5.32520004e-02 6.42900020e-02 3.76389995e-02
      1.06380004e-02 1.28210001e-02 1.56859998e-02 4.33119982e-02
      3.41270007e-02 1.96250007e-02 1.96579993e-02 3.77570018e-02
      2.92680003e-02 2.60419995e-02 2.56409999e-02 2.90849991e-02
      2.56479997e-02 3.77979986e-02 3.08160000e-02 1.52559998e-02
      2.72599999e-02 2.19410006e-02 3.99999991e-02 6.75600022e-02
      3.56179997e-02 3.52110006e-02 2.89469995e-02 2.63410006e-02
      2.52059996e-02 3.34360003e-02 2.57290006e-02 3.10079996e-02
      4.95870002e-02 6.51680008e-02 1.93739999e-02 1.02040004e-02
      1.19620003e-02 4.48179990e-02 5.57180010e-02 5.08919992e-02
      5.97480014e-02 5.88890016e-02 1.94760002e-02 6.00260012e-02
      1.08230002e-02 4.87940013e-02 3.36540006e-02 4.03410010e-02
      1.35840001e-02 2.32989993e-02 2.73749996e-02 1.38459997e-02
      1.99999996e-02 5.14799990e-02 1.24869999e-02 2.45609991e-02
      1.06670000e-02 5.26829995e-02 1.88170001e-02 7.93650001e-03
      2.30769999e-02 3.59830000e-02 2.45450009e-02</_>
    <_>
      1.26019999e-01 1.06239997e-01 1.71969995e-01 1.70220003e-01
      1.87570006e-01 1.47389993e-01 1.15809999e-01 5.94159998e-02
      1.07179999e-01 7.54360035e-02 4.24880013e-02 1.67710006e-01
      1.11560002e-01 8.41519982e-02 1.34590000e-01 1.21770002e-01
      2.16120005e-01 6.87500015e-02 1.71200007e-01 1.12259999e-01
      1.15390003e-01 2.05620006e-01 7.38829970e-02 1.80089995e-01
      9.21719968e-02 1.60830006e-01 8.61049965e-02 1.07670002e-01
      1.95800006e-01 2.08710000e-01 1.83579996e-01 2.61720002e-01
      1.94340006e-01 1.29309997e-01 1.70949996e-01 2.49630004e-01
      1.39530003e-01 1.21880002e-01 1.03840001e-01 2.26280004e-01
      1.82970002e-01 1.74470007e-01 1.61890000e-01 1.10770002e-01
      1.84090003e-01 9.97750014e-02 1.77440003e-01 2.49819994e-01
      1.48880005e-01 1.02890000e-01 1.20269999e-01 5.79949990e-02
      1.27729997e-01 1.40100002e-01 1.63540006e-01 1.13169998e-01
      1.61119998e-01 1.52040005e-01 1.49000004e-01 2.14660004e-01
      6.30400032e-02 1.51120007e-01 1.84570000e-01 2.32590005e-01
      1.55090004e-01 1.64890006e-01 1.53600007e-01 1.27460003e-01
      8.88020024e-02 2.20080003e-01 1.60850003e-01 8.23090002e-02
      1.52930006e-01 2.14149997e-01 1.54719993e-01 1.03720002e-01
      1.99689999e-01 1.65940002e-01 1.54280007e-01 1.73930004e-01
      1.88889995e-01 1.54420003e-01 1.90060005e-01 1.29400000e-01
      1.46070004e-01 2.25480005e-01 1.45300001e-01 1.04999997e-01
      8.79530013e-02 2.46439993e-01 2.29059994e-01 1.59510002e-01
      1.63509995e-01 1.71859995e-01 1.37639999e-01 2.17309996e-01
      8.99500027e-02 1.57059997e-01 1.87230006e-01 1.50000006e-01
      1.86939999e-01 2.80429989e-01 2.09999993e-01 2.20080003e-01
      1.02389999e-01 1.62139997e-01 1.21619999e-01 1.32760003e-01
      1.42250001e-01 2.63990015e-01 1.49920002e-01 2.55829990e-01
      1.26249999e-01 2.04679996e-01 1.28720000e-01 2.51580000e-01
      1.36669993e-01 2.52119988e-01 6.26140013e-02 2.61860013e-01
      1.53679997e-01 2.89350003e-01 1.52590007e-01 2.02690005e-01
      1.49759993e-01 2.30189994e-01 1.56680003e-01 1.44199997e-01
      2.08710000e-01 1.69100001e-01 2.18879998e-01</_>
    <_>
      1.41550004e-02 1.05919996e-02 1.13460002e-02 1.04099996e-02
      1.35460002e-02 2.87190005e-02 1.71300005e-02 1.21649997e-02
      2.85069998e-02 2.18330007e-02 2.01469995e-02 2.46690009e-02
      1.82380006e-02 2.99549997e-02 1.44029995e-02 1.18190004e-02
      1.24589996e-02 1.33130001e-02 1.07110003e-02 1.24110002e-02
      1.10280002e-02 1.85710005e-02 2.69389991e-02 2.52369996e-02
      7.23259989e-03 1.02800000e-02 1.54700000e-02 2.04709992e-02
      1.31759997e-02 1.24960002e-02 9.48819984e-03 7.16379983e-03
      1.30329998e-02 1.45790000e-02 1.22550000e-02 1.33859999e-02
      1.18159996e-02 1.49870003e-02 1.76129993e-02 2.27199998e-02
      2.50000004e-02 1.05879996e-02 1.01669999e-02 1.15390001e-02
      1.64550003e-02 1.33640002e-02 1.08719999e-02 1.45319998e-02
      8.80429987e-03 1.12500004e-02 1.28210001e-02 1.21689998e-02
      9.54550039e-03 1.32459998e-02 1.52629996e-02 1.66669991e-02
      1.83210000e-02 8.71730037e-03 1.28020002e-02 6.23989990e-03
      9.18560009e-03 1.41399996e-02 9.88150015e-03 9.33710020e-03
      1.01450002e-02 1.50910001e-02 1.95349995e-02 2.38910001e-02
      1.97630003e-02 2.27300003e-02 1.77369993e-02 1.26790004e-02
      9.71230026e-03 6.37259986e-03 1.83889996e-02 2.02649999e-02
      1.77880004e-02 1.52300000e-02 2.03680005e-02 2.46980004e-02
      1.59150008e-02 1.69650000e-02 1.64470002e-02 1.46930004e-02
      1.32430000e-02 2.28969995e-02 2.06320006e-02 2.02229992e-02
      2.30500009e-02 2.19780002e-02 1.50149995e-02 1.79769993e-02
      2.12299991e-02 1.83949992e-02 1.78529993e-02 1.43240001e-02
      1.46209998e-02 1.38999997e-02 8.11689999e-03 1.28640002e-02
      1.46180000e-02 1.25780003e-02 2.75860000e-02 2.08039992e-02
      2.18790006e-02 1.15489997e-02 1.24070002e-02 1.40060000e-02
      2.28680000e-02 1.82189997e-02 1.91610008e-02 1.32099995e-02
      9.90710035e-03 1.54139996e-02 2.28230003e-02 2.99040005e-02
      2.72410009e-02 2.46500000e-02 2.74359994e-02 2.16780007e-02
      2.09599994e-02 1.84899997e-02 1.34859998e-02 1.98490005e-02
      2.05210000e-02 1.87979992e-02 1.54680004e-02 1.66710000e-02
      1.92060005e-02 1.78200006e-02 1.62060000e-02</_>
    <_>
      2.18740001e-01 2.58179996e-02 1.90510005e-01 1.46249995e-01
      1.89960003e-01 1.49069995e-01 2.89770007e-01 2.45660007e-01
      2.15820000e-01 1.86910003e-01 2.16319993e-01 4.36530001e-02
      1.74610004e-01 1.70179993e-01 1.46750003e-01 1.95280001e-01
      1.93700001e-01 6.04029978e-03 1.37070000e-01 1.10139996e-02
      1.30410001e-01 2.21619993e-01 1.71330005e-01 1.83990002e-01
      2.22760007e-01 1.37449995e-01 1.34029999e-01 1.07709996e-01
      2.80809999e-02 4.31150012e-02 2.60979999e-02 2.31509998e-01
      1.61060005e-01 3.11830007e-02 1.73030004e-01 8.36119987e-03
      1.16910003e-01 2.23710001e-01 1.09300002e-01 1.20810002e-01
      2.50620008e-01 2.48140007e-01 3.08400005e-01 2.65819997e-01
      6.31909966e-02 4.49689999e-02 6.02810010e-02 1.64020002e-01
      1.99849993e-01 1.80570006e-01 1.88449994e-01 1.75019994e-01
      1.73590004e-01 1.74109995e-01 2.11750001e-01 1.46709993e-01
      7.58910030e-02 1.80700004e-01 2.42890000e-01 2.61680007e-01
      1.48599997e-01 2.55670011e-01 2.54110008e-01 2.14090005e-01
      1.35769993e-01 2.33370006e-01 4.25000012e-01 3.63350004e-01
      3.78030002e-01 2.03740001e-01 2.51940012e-01 3.14139992e-01
      3.27509999e-01 2.92070001e-01 3.52109998e-01 2.41850004e-01
      2.25600004e-01 2.42119998e-01 2.40510002e-01 2.67430007e-01
      2.50800014e-01 2.62169987e-01 3.28330010e-01 3.83329988e-01
      3.07170004e-01 1.69990003e-01 3.00599992e-01 2.21949995e-01
      2.87750006e-01 1.19570002e-01 1.44520000e-01 1.90259993e-01
      3.04509997e-01 3.65559995e-01 2.82700002e-01 3.21280003e-01
      2.91009992e-01 2.68750012e-01 3.30689996e-01 2.80099988e-01
      2.92510003e-01 2.78580010e-01 2.62190014e-01 2.12679997e-01
      3.72970015e-01 3.06600004e-01 3.58220011e-01 3.35310012e-01
      2.76840001e-01 2.33319998e-01 1.79670006e-01 1.51519999e-02
      3.76360007e-02 1.56739994e-03 2.91290004e-02 2.49470002e-03
      2.21189999e-04 2.63669994e-02 1.96189992e-02 2.15939991e-02 0.
      2.48840004e-02 2.53989995e-02 4.41420004e-02 0. 4.26569991e-02
      1.78299993e-02 4.87940013e-02 0. 4.36699986e-02 2.42149998e-02</_>
    <_>
      1.37299998e-02 4.90200007e-03 5.05049992e-03 2.04080008e-02
      7.67259998e-03 1.92310009e-02 1.06100002e-02 1.11109996e-02
      8.45799968e-03 8.33330024e-03 3.62810004e-03 1.48149999e-02
      4.49289987e-03 1.28499996e-02 6.15529995e-03 1.01819998e-02
      7.24640023e-03 8.36359989e-03 9.98620037e-03 6.53589983e-03
      7.23939994e-03 1.06579997e-02 1.08840000e-02 7.69709982e-03
      8.30900017e-03 1.14970002e-02 9.15329996e-03 1.22480001e-02
      9.78710037e-03 6.58759987e-03 1.04970001e-02 5.32389991e-03
      3.85059998e-03 8.77579954e-03 8.47269967e-03 8.38259980e-03
      8.02979991e-03 1.19789997e-02 9.47370008e-03 1.52840000e-02
      7.15949992e-03 9.78820026e-03 6.19050022e-03 7.43670017e-03
      7.46570015e-03 9.59349982e-03 5.08720009e-03 1.01720002e-02
      1.03660002e-02 9.05799959e-03 5.47240023e-03 7.33100018e-03
      1.13709997e-02 8.69559962e-03 8.19670036e-03 6.94740005e-03
      6.92250021e-03 4.93609998e-03 9.83610004e-03 8.40179995e-03
      5.05049992e-03 9.18589998e-03 8.51059984e-03 4.43990016e-03
      5.42359985e-03 1.18760001e-02 1.06769996e-02 5.59520023e-03
      1.21950004e-02 1.20639997e-02 9.71319992e-03 5.18850004e-03
      8.88589956e-03 3.22320010e-03 7.91670009e-03 6.10220013e-03
      9.17810015e-03 7.97639973e-03 1.04409996e-02 9.00899991e-03
      9.85660031e-03 1.04350001e-02 1.12779997e-02 5.95240016e-03
      6.76689995e-03 7.72000011e-03 1.16069997e-02 8.54699966e-03
      6.82929996e-03 9.97729972e-03 1.00419996e-02 1.01570003e-02
      7.94310030e-03 4.28020023e-03 1.42219998e-02 8.69559962e-03
      1.61969997e-02 7.70970015e-03 9.48620029e-03 1.32470001e-02
      1.03770001e-02 8.38410016e-03 1.03449998e-02 4.94119991e-03
      8.35740007e-03 8.46389960e-03 7.10059982e-03 1.67800002e-02
      1.45300003e-02 8.44160002e-03 1.44039998e-02 8.71459953e-03
      9.54429992e-03 1.61460005e-02 1.04170004e-02 9.21379961e-03
      7.78640015e-03 7.54310004e-03 1.46519998e-02 1.11609995e-02
      8.15219991e-03 6.42859982e-03 9.61539987e-03 1.08700003e-02
      9.50470008e-03 7.97870010e-03 9.74150002e-03 7.45839998e-03
      1.25569999e-02 9.30439960e-03 1.01239998e-02</_>
    <_>
      4.26880002e-01 3.67529988e-01 3.96230012e-01 3.69899988e-01
      3.98860008e-01 5.07579982e-01 4.58009988e-01 3.90109986e-01
      4.27890003e-01 4.13190007e-01 4.44130003e-01 4.64489996e-01
      3.95559996e-01 3.56819987e-01 4.64590013e-01 4.83220011e-01
      5.84980011e-01 3.90489995e-01 6.24329984e-01 6.21879995e-01
      3.11239988e-01 4.13720012e-01 4.54059988e-01 4.71650004e-01
      3.90910000e-01 4.35939997e-01 3.68900001e-01 5.32339990e-01
      4.21970010e-01 4.15499985e-01 4.41879988e-01 4.79220003e-01
      4.36580002e-01 4.63110000e-01 5.26040018e-01 4.15230006e-01
      4.05930012e-01 5.78909993e-01 4.24600005e-01 5.71640015e-01
      4.09139991e-01 4.72510010e-01 3.76489997e-01 4.58429992e-01
      5.19050002e-01 4.53310013e-01 5.00540018e-01 3.33330005e-01
      5.95510006e-01 4.85509992e-01 6.66450024e-01 4.95770007e-01
      5.29590011e-01 6.20320022e-01 4.76660013e-01 3.27179998e-01
      3.86400014e-01 6.46059990e-01 3.77799988e-01 4.90869999e-01
      3.95370007e-01 5.05320013e-01 4.98400003e-01 3.16670001e-01
      4.19389993e-01 5.87230027e-01 4.01749998e-01 5.87130010e-01
      5.01990020e-01 6.42000020e-01 4.65330005e-01 5.21790028e-01
      3.98999989e-01 5.19919991e-01 4.72259998e-01 4.02619988e-01
      4.38190013e-01 5.83940029e-01 4.47219998e-01 5.07629991e-01
      4.15969998e-01 4.07319993e-01 4.20709997e-01 3.68719995e-01
      4.07779992e-01 3.38429987e-01 4.14460003e-01 4.61219996e-01
      4.29049999e-01 5.60230017e-01 3.83390009e-01 3.82050008e-01
      4.18229997e-01 3.77380013e-01 6.76909983e-01 4.45160002e-01
      3.92019987e-01 4.13459986e-01 6.35420024e-01 6.10090017e-01
      6.72930002e-01 6.27569973e-01 6.48450017e-01 6.49020016e-01
      6.42719984e-01 5.84890008e-01 6.23059988e-01 6.37679994e-01
      6.47629976e-01 6.88359976e-01 6.22619987e-01 5.97940028e-01
      5.73419988e-01 5.87639987e-01 5.42469978e-01 5.93970001e-01
      5.53049982e-01 5.60769975e-01 4.75769997e-01 5.91419995e-01
      5.84050000e-01 6.11880004e-01 6.11389995e-01 6.07879996e-01
      5.75569987e-01 5.78790009e-01 5.97199976e-01 6.02060020e-01
      6.84260011e-01 6.54129982e-01 6.41529977e-01</_>
    <_>
      7.43589997e-02 6.97669983e-02 8.88890028e-02 3.42929997e-02
      4.71430011e-02 6.76919967e-02 1.08369999e-01 5.99999987e-02
      9.91759971e-02 6.43140003e-02 5.27860001e-02 4.94650006e-02
      8.37320015e-02 3.99999991e-02 4.33330014e-02 2.34849993e-02
      2.15690006e-02 3.87340002e-02 8.33339989e-02 4.52629998e-02
      6.44449964e-02 5.82140014e-02 3.95909995e-02 5.18710017e-02
      8.00219998e-02 3.98939997e-02 4.45129983e-02 1.07249998e-01
      8.15920010e-02 6.45399988e-02 5.23260012e-02 1.02440000e-01
      1.07450001e-01 1.41550004e-01 5.60350008e-02 4.72909994e-02
      1.18419997e-01 8.97440016e-02 4.09660004e-02 6.68459982e-02
      6.63259998e-02 9.14319977e-02 3.13550010e-02 9.99070033e-02
      7.57580027e-02 8.48520026e-02 7.78060034e-02 1.27880007e-01
      9.42350030e-02 6.67880028e-02 1.19719997e-01 8.73730034e-02
      9.45449993e-02 5.11110015e-02 3.86999995e-02 1.02700002e-01
      1.59070000e-01 1.57830000e-01 2.06650004e-01 2.52779990e-01
      1.21710002e-01 1.85179994e-01 1.04640000e-01 1.47729993e-01
      1.51519999e-01 2.73770005e-01 2.57120013e-01 9.98060033e-02
      1.15039997e-01 1.09999999e-01 1.02870002e-01 1.17360003e-01
      8.61200020e-02 1.35810003e-01 1.26470000e-01 1.20690003e-01
      2.11640000e-01 1.90149993e-01 1.48149997e-01 1.18660003e-01
      1.25290006e-01 8.47269967e-02 1.41220003e-01 2.00269997e-01
      1.29700005e-01 1.72040001e-01 1.77029997e-01 1.83870003e-01
      1.71049997e-01 2.82799989e-01 3.26009989e-01 2.52079993e-01
      2.14709997e-01 2.19950005e-01 1.07189998e-01 2.25889996e-01
      8.73399973e-02 2.02930003e-01 2.04439998e-01 1.10730000e-01
      1.50330007e-01 1.99349999e-01 1.57580003e-01 1.70939997e-01
      1.00000001e-01 1.09339997e-01 8.04219991e-02 2.04990000e-01
      1.31579995e-01 1.24320000e-01 1.21730000e-01 1.43560007e-01
      1.29759997e-01 1.59419999e-01 1.67899996e-01 2.73079991e-01
      1.92980006e-01 1.28849998e-01 1.57140002e-01 9.20339972e-02
      9.39740017e-02 1.51140004e-01 9.89470035e-02 1.61400005e-01
      1.46669999e-01 1.33330002e-01 1.25000000e-01 1.56250000e-01
      2.21430004e-01 1.40790001e-01 1.24219999e-01</_>
    <_>
      6.89629972e-01 7.12490022e-01 6.90400004e-01 6.49640024e-01
      6.84509993e-01 6.87870026e-01 6.44400001e-01 6.17470026e-01
      6.58869982e-01 5.80449998e-01 6.11389995e-01 6.35119975e-01
      6.49990022e-01 6.21619999e-01 7.21310019e-01 6.09939992e-01
      6.63550019e-01 6.11310005e-01 6.08060002e-01 5.96700013e-01
      6.40339971e-01 6.20700002e-01 5.25479972e-01 5.71169972e-01
      6.65899992e-01 6.49779975e-01 6.22669995e-01 6.33700013e-01
      6.55640006e-01 7.17830002e-01 6.37199998e-01 6.23899996e-01
      5.92390001e-01 6.25859976e-01 5.73099971e-01 6.01520002e-01
      6.16620004e-01 6.07439995e-01 6.63240016e-01 3.77440006e-01
      3.99289995e-01 6.29869998e-01 5.20619988e-01 4.28570002e-01
      3.66849989e-01 4.00119990e-01 4.95799989e-01 4.92709994e-01
      4.06480014e-01 4.46049988e-01 3.90529990e-01 6.38719976e-01
      3.94030005e-01 5.54530025e-01 5.03600001e-01 5.09949982e-01
      5.64909995e-01 4.38360006e-01 3.98640007e-01 3.95550013e-01
      4.08980012e-01 5.24850011e-01 5.14360011e-01 5.06889999e-01
      6.73799992e-01 5.85579991e-01 5.44770002e-01 5.41909993e-01
      5.48200011e-01 5.17729998e-01 5.27970016e-01 5.24039984e-01
      5.28379977e-01 5.88930011e-01 5.32989979e-01 5.82549989e-01
      5.90719998e-01 5.36880016e-01 5.10619998e-01 5.99829972e-01
      5.69000006e-01 5.54820001e-01 5.69920003e-01 6.36560023e-01
      5.84159970e-01 5.86679995e-01 6.02310002e-01 5.87979972e-01
      6.20360017e-01 5.65450013e-01 6.41049981e-01 5.81860006e-01
      5.31289995e-01 5.09199977e-01 6.07609987e-01 6.01939976e-01
      4.26919997e-01 4.99870002e-01 3.79240006e-01 4.03420001e-01
      4.22870010e-01 5.41920006e-01 4.63719994e-01 5.78270018e-01
      4.78430003e-01 5.99529982e-01 5.82729995e-01 4.77539986e-01
      4.76390004e-01 4.25260007e-01 4.16720003e-01 4.23400015e-01
      4.99370009e-01 4.81629997e-01 5.15789986e-01 6.87189996e-01
      5.69029987e-01 3.78749996e-01 5.36230028e-01 3.36970001e-01
      4.06329989e-01 5.41180015e-01 5.65100014e-01 4.92749989e-01
      5.16690016e-01 4.67739999e-01 6.18789971e-01 4.39119995e-01
      5.13350010e-01 5.08199990e-01 4.65039998e-01</_>
    <_>
      1.64749995e-01 1.48019999e-01 1.54280007e-01 9.00000036e-02
      8.68880004e-02 1.08110003e-01 1.67799994e-01 1.27790004e-01
      9.52380002e-02 1.15800001e-01 1.31980002e-01 1.52940005e-01
      1.37109995e-01 8.34140033e-02 1.13839999e-01 6.41390011e-02
      1.14929996e-01 1.04350001e-01 1.19419999e-01 8.92719999e-02
      1.01350002e-01 1.26609996e-01 1.19010001e-01 1.23420000e-01
      1.06670000e-01 1.25939995e-01 1.13640003e-01 1.31259993e-01
      1.96190000e-01 1.26100004e-01 1.50429994e-01 1.20049998e-01
      1.41639993e-01 1.40589997e-01 1.68919995e-01 1.05580002e-01
      1.52710006e-01 1.36690006e-01 1.46339998e-01 1.72299996e-01
      1.71930000e-01 1.37850001e-01 1.44189999e-01 1.40499994e-01
      1.56790003e-01 1.14859998e-01 1.29549995e-01 1.22840002e-01
      1.36289999e-01 1.04719996e-01 1.08010001e-01 1.26159996e-01
      1.23170003e-01 9.66660008e-02 8.54820013e-02 1.19039997e-01
      8.51539969e-02 8.61520022e-02 9.32729989e-02 1.12000003e-01
      9.19009969e-02 1.17470004e-01 8.98360014e-02 8.87629986e-02
      1.00850001e-01 7.82900006e-02 1.00340001e-01 7.93989971e-02
      7.47670010e-02 9.70200002e-02 1.03050001e-01 1.42890006e-01
      1.53909996e-01 1.70450002e-01 1.01099998e-01 1.32220000e-01
      1.06490001e-01 6.27150014e-02 6.93219975e-02 6.41470030e-02
      6.74190000e-02 5.31009994e-02 6.73969984e-02 6.85520023e-02
      1.58549994e-01 1.80930004e-01 1.74569994e-01 2.02230006e-01
      1.05439998e-01 2.08529994e-01 1.48440003e-01 1.42269999e-01
      1.85200006e-01 2.10510001e-01 1.18239999e-01 1.44730002e-01
      1.15270004e-01 1.47980005e-01 1.51289999e-01 1.22199997e-01
      1.14430003e-01 2.24069998e-01 2.02549994e-01 1.07770003e-01
      9.95069966e-02 1.03739999e-01 7.97329992e-02 1.97060004e-01
      2.27300003e-01 1.54650003e-01 1.81319997e-01 2.40109995e-01
      1.71639994e-01 1.65790007e-01 1.23219997e-01 1.94140002e-01
      1.63760006e-01 2.13960007e-01 1.86859995e-01 2.04400003e-01
      1.74239993e-01 1.82659999e-01 1.95510000e-01 1.67420000e-01
      1.16180003e-01 2.28949994e-01 2.06589997e-01 1.52909994e-01
      1.94360003e-01 1.83990002e-01 1.87810004e-01</_>
    <_>
      5.12120008e-01 4.83000010e-01 3.54809999e-01 5.30529976e-01
      5.79100013e-01 4.20210004e-01 4.35719997e-01 4.12649989e-01
      3.95559996e-01 4.50940013e-01 4.08300012e-01 4.69199985e-01
      6.07299984e-01 4.67889994e-01 5.96689999e-01 5.54719985e-01
      3.69199991e-01 4.48520005e-01 3.99170011e-01 4.72579986e-01
      4.50870007e-01 5.59639990e-01 4.11049992e-01 5.40220022e-01
      3.83639991e-01 5.73800027e-01 4.38630015e-01 5.12700021e-01
      4.12990004e-01 4.54589993e-01 3.69349986e-01 5.03380001e-01
      4.35039997e-01 5.24820030e-01 5.37630022e-01 3.90529990e-01
      4.84219998e-01 4.80850011e-01 4.35889989e-01 4.66960013e-01
      4.37390000e-01 6.57419980e-01 4.55689996e-01 4.27749991e-01
      4.56090003e-01 5.51760018e-01 3.93940002e-01 5.64459980e-01
      3.91900003e-01 5.62240005e-01 6.41830027e-01 6.27479970e-01
      4.91059989e-01 4.65829998e-01 5.04880011e-01 4.42979991e-01
      4.07350004e-01 6.03789985e-01 3.90069991e-01 3.89129996e-01
      6.71100020e-01 3.91909987e-01 3.96050006e-01 4.45890009e-01
      3.73930007e-01 3.95119995e-01 3.44799995e-01 3.83450001e-01
      3.62749994e-01 4.68679994e-01 5.02870023e-01 4.51090008e-01
      5.05879998e-01 4.13709998e-01 4.62969989e-01 4.40679997e-01
      3.32150012e-01 5.41840017e-01 4.60599989e-01 4.13370013e-01
      4.99469995e-01 6.20280027e-01 3.83120000e-01 6.83489978e-01
      4.45179999e-01 4.51929986e-01 6.59380019e-01 3.84090006e-01
      3.42680007e-01 4.68650013e-01 6.42679989e-01 4.19739991e-01
      6.26460016e-01 3.24169993e-01 4.23889995e-01 3.98189992e-01
      3.99010003e-01 5.91040015e-01 4.56090003e-01 5.15429974e-01
      4.10769999e-01 5.03109992e-01 5.46689987e-01 3.34219992e-01
      3.55749995e-01 5.91170013e-01 4.53020006e-01 4.66120005e-01
      4.17800009e-01 4.11540002e-01 4.30409998e-01 3.28229994e-01
      4.52659994e-01 4.19510007e-01 5.14280021e-01 4.24789995e-01
      4.19950008e-01 5.44600010e-01 4.31089997e-01 3.58740002e-01
      5.00010014e-01 5.60109973e-01 5.43829978e-01 5.02470016e-01
      4.42310005e-01 4.09000009e-01 4.46339995e-01 7.69739985e-01
      5.91189981e-01 7.30159998e-01 5.36230028e-01</_>
    <_>
      8.32109988e-01 5.93079984e-01 6.53209984e-01 7.68360019e-01
      7.82320023e-01 6.55960023e-01 9.05460000e-01 5.60479999e-01
      7.49409974e-01 9.49079990e-01 6.86550021e-01 9.71360028e-01
      6.56229973e-01 6.72020018e-01 5.94120026e-01 9.97510016e-01
      6.22990012e-01 5.34189999e-01 5.50759971e-01 5.82440019e-01
      7.79209971e-01 6.92210019e-01 6.11429989e-01 7.62099981e-01
      8.91789973e-01 9.56160009e-01 6.18719995e-01 6.95949972e-01
      9.95930016e-01 6.66899979e-01 5.64029992e-01 6.43050015e-01
      6.73600018e-01 7.42160022e-01 7.25290000e-01 6.92340016e-01
      6.64610028e-01 5.48120022e-01 7.31639981e-01 7.61820018e-01
      6.59910023e-01 9.15000021e-01 6.67609990e-01 7.26440012e-01
      6.70710027e-01 9.72639978e-01 5.26170015e-01 7.76939988e-01
      6.74279988e-01 5.62439978e-01 8.93379986e-01 8.33079994e-01
      8.33509982e-01 5.88750005e-01 5.69230020e-01 6.05679989e-01
      5.05999982e-01 6.45449996e-01 9.94250000e-01 6.37780011e-01
      5.74760020e-01 6.63749993e-01 4.97489989e-01 7.66979992e-01
      6.48999989e-01 5.51280022e-01 6.46589994e-01 8.38169992e-01
      8.80119979e-01 8.60149980e-01 9.06040013e-01 5.53529978e-01
      5.40889978e-01 9.98669982e-01 8.07519972e-01 8.97319973e-01
      6.46430016e-01 5.57309985e-01 7.72369981e-01 5.90709984e-01
      7.16199994e-01 6.01740003e-01 9.75910008e-01 6.19599998e-01
      7.96000004e-01 1. 8.95280004e-01 7.37609982e-01 4.64419991e-01 1.
      9.28870022e-01 5.38860023e-01 7.78370023e-01 6.62190020e-01
      6.14080012e-01 5.36279976e-01 9.65489984e-01 5.84789991e-01
      9.73930001e-01 6.44169986e-01 6.80339992e-01 6.78950012e-01
      6.51269972e-01 7.54199982e-01 6.21129990e-01 5.12099981e-01
      6.40049994e-01 7.74559975e-01 7.48589993e-01 7.12790012e-01
      8.70940030e-01 7.61179984e-01 4.39469993e-01 7.96119988e-01
      7.16979980e-01 6.07309997e-01 4.43650007e-01 6.30829990e-01 1.
      6.88260019e-01 8.09899986e-01 6.20930016e-01 5.57009995e-01
      6.42750025e-01 6.31940007e-01 7.48589993e-01 5.54040015e-01
      7.83389986e-01 7.39109993e-01 5.39730012e-01 7.22980022e-01</_>
    <_>
      2.06530005e-01 2.07609996e-01 2.00080007e-01 1.02559999e-01
      2.12160006e-01 2.34650001e-01 2.35280007e-01 1.83329999e-01
      1.75249994e-01 1.68119997e-01 1.60260007e-01 1.36270002e-01
      1.12020001e-01 1.35910004e-01 1.40000001e-01 2.06900001e-01
      2.02050000e-01 1.68249995e-01 2.16910005e-01 1.48489997e-01
      2.40590006e-01 2.84779996e-01 9.61880013e-02 2.15330005e-01
      2.82020003e-01 2.00389996e-01 2.49290004e-01 2.61790007e-01
      2.59620011e-01 2.51130015e-01 2.19960004e-01 1.40799999e-01
      2.28290007e-01 2.02079996e-01 2.20290005e-01 2.01539993e-01
      1.59899995e-01 2.31749997e-01 2.35220000e-01 1.41839996e-01
      2.04219997e-01 1.77300006e-01 1.61819994e-01 1.33110002e-01
      1.77489996e-01 1.11199997e-01 2.34549999e-01 1.65460005e-01
      1.10569999e-01 2.18750000e-01 2.48860002e-01 2.01949999e-01
      1.43089995e-01 2.12770000e-01 1.65840000e-01 2.66669989e-01
      2.69439995e-01 1.76400006e-01 1.88639998e-01 1.84870005e-01
      2.07220003e-01 2.04940006e-01 1.57130003e-01 1.36439994e-01
      1.40070006e-01 2.53340006e-01 2.31930003e-01 1.42159998e-01
      2.13000000e-01 1.81779996e-01 2.21719995e-01 2.70669997e-01
      2.76899993e-01 2.93089986e-01 2.56040007e-01 1.91129997e-01
      1.77139997e-01 2.50000000e-01 2.21320003e-01 1.35140002e-01
      2.19209999e-01 2.97870010e-01 1.91039994e-01 1.66380003e-01
      1.10390000e-01 1.85790002e-01 1.76280007e-01 2.31240004e-01
      2.05770001e-01 8.41289982e-02 1.70139998e-01 9.94160026e-02
      1.70289993e-01 2.28760004e-01 2.90910006e-01 1.85900003e-01
      2.08800003e-01 2.10800007e-01 1.77330002e-01 2.09580004e-01
      1.79949999e-01 2.39099994e-01 1.58649996e-01 2.05170006e-01
      1.64859995e-01 1.97479993e-01 2.47730002e-01 1.80549994e-01
      1.83149993e-01 1.50330007e-01 2.26449996e-01 1.62100002e-01
      1.03119999e-01 2.32960001e-01 1.94910005e-01 2.10830003e-01
      1.94260001e-01 2.54979998e-01 2.74219990e-01 2.65069991e-01
      2.23480001e-01 1.15910001e-01 1.62009999e-01 2.07169995e-01
      2.17250004e-01 1.60150006e-01 1.72889993e-01 2.09820002e-01
      1.90830007e-01 2.77779996e-01 1.20520003e-01</_>
    <_>
      3.49860005e-02 4.33959998e-02 1.90549996e-02 3.44830006e-02
      1.52939996e-02 3.79300006e-02 4.04389985e-02 3.52069996e-02
      5.07940017e-02 4.08120006e-02 4.93509993e-02 3.00290007e-02
      5.50110005e-02 2.70939991e-02 4.68750000e-02 3.83060016e-02
      2.14990005e-02 7.00780004e-02 5.92669994e-02 4.63979989e-02
      3.66070010e-02 5.57060018e-02 4.63100001e-02 5.12819998e-02
      4.48370017e-02 3.35640013e-02 2.35559996e-02 3.75090018e-02
      3.32759991e-02 2.65820008e-02 2.21529994e-02 3.87649983e-02
      2.84090005e-02 5.37309982e-02 2.73889992e-02 5.51199988e-02
      1.97269991e-02 3.95219997e-02 3.16220000e-02 4.65120003e-02
      2.76090000e-02 2.11629998e-02 3.71799991e-02 5.84889986e-02
      3.19150016e-02 6.39860034e-02 3.10559999e-02 5.39619997e-02
      1.80050004e-02 5.58869988e-02 1.36839999e-02 3.68909985e-02
      2.43129991e-02 3.96860018e-02 1.89950000e-02 4.85289991e-02
      2.16249991e-02 6.76330030e-02 2.04179995e-02 4.28679995e-02
      3.31390016e-02 5.59380017e-02 4.27060015e-02 2.01880001e-02
      3.51589993e-02 4.94400002e-02 2.98459996e-02 3.14819999e-02
      3.92160006e-02 3.46960016e-02 2.35220008e-02 3.33329998e-02
      4.81059998e-02 5.53620011e-02 8.75080004e-03 3.37439999e-02
      2.58540008e-02 4.02779989e-02 2.88120005e-02 5.12350015e-02
      7.20029995e-02 6.02479987e-02 1.85480006e-02 5.41669987e-02
      1.72090009e-02 5.70180006e-02 1.75030008e-02 4.18299995e-02
      2.19010003e-02 3.13699991e-02 1.14940004e-02 4.75779995e-02
      2.10170001e-02 6.15659989e-02 1.21269999e-02 6.50549978e-02
      3.63640003e-02 6.71200007e-02 3.12500000e-02 7.06470013e-02
      1.27659999e-02 6.13479987e-02 4.46429998e-02 7.22450018e-02
      2.63160001e-02 4.21879999e-02 1.68919992e-02 5.31920008e-02
      7.99490046e-03 6.18880019e-02 1.15440004e-02 2.57549994e-02
      2.72599999e-02 4.63629998e-02 1.25000002e-02 4.35919985e-02
      1.87139995e-02 3.44949998e-02 1.47369998e-02 3.75710018e-02
      1.93939991e-02 3.60499993e-02 3.98249999e-02 3.50960009e-02
      2.38959994e-02 6.56090006e-02 5.98290004e-02 3.09180003e-02
      2.91109998e-02 3.11360005e-02 2.97810007e-02</_>
    <_>
      4.62119989e-02 5.34299985e-02 4.44599986e-02 2.79719997e-02
      1.32900001e-02 5.11460006e-02 2.88459994e-02 3.01959999e-02
      3.26090008e-02 1.51680000e-02 2.42420007e-02 3.48480009e-02
      1.17600001e-02 1.47559997e-02 8.45289975e-03 1.39420005e-02
      1.24009997e-02 5.36170006e-02 3.54410000e-02 2.61540003e-02
      5.86079992e-02 4.77939993e-02 1.28790000e-02 1.03660002e-02
      2.55440008e-02 2.26060003e-02 1.59350000e-02 1.79820005e-02
      4.54900004e-02 3.84620018e-02 2.11379994e-02 4.50449996e-02
      2.36489996e-02 2.97120009e-02 2.50000004e-02 3.48020010e-02
      1.28459996e-02 2.79409997e-02 3.01419999e-02 1.67379994e-02
      2.83569992e-02 1.59569997e-02 2.24489998e-02 1.70179997e-02
      6.23099990e-02 1.34849995e-02 2.05130000e-02 6.16879985e-02
      1.82070006e-02 1.52820004e-02 2.00479999e-02 1.87379997e-02
      9.09090042e-03 2.97480002e-02 3.71519998e-02 1.74800009e-02
      2.72860005e-02 2.28029992e-02 1.66669991e-02 3.33329998e-02
      6.80660009e-02 2.32100002e-02 1.36940004e-02 3.02540008e-02
      5.15430011e-02 6.84619993e-02 5.11110015e-02 2.29199994e-02
      1.67110004e-02 1.63419992e-02 2.20589992e-02 4.56890017e-02
      1.60259996e-02 9.55250021e-03 1.20190000e-02 2.48690005e-02
      1.36050005e-02 3.42990011e-02 2.51770001e-02 2.34919991e-02
      1.60869993e-02 2.90249996e-02 3.17570008e-02 2.19940003e-02
      3.30969989e-02 1.27360001e-02 1.82930008e-02 2.63800006e-02
      1.97759997e-02 6.92310035e-02 2.29829997e-02 2.28959993e-02
      7.63650006e-03 1.17969997e-02 1.67319998e-02 3.50239985e-02
      2.77779996e-02 2.53250003e-02 1.96310002e-02 2.54629999e-02
      3.86359990e-02 3.78459990e-02 2.74730008e-02 1.16760004e-02
      2.62819994e-02 6.41710013e-02 3.37929986e-02 5.94200008e-02
      2.22089998e-02 1.40910000e-02 3.40280011e-02 1.08829997e-02
      1.70399994e-02 1.36360005e-02 1.41759999e-02 3.12500005e-03
      2.33590007e-02 2.02699993e-02 1.27149997e-02 1.05820000e-02
      2.55410001e-02 1.01560000e-02 3.25360000e-02 1.19270002e-02
      6.47730008e-02 2.15620007e-02 1.32080000e-02 4.19609994e-02
      1.10990005e-02 9.77780018e-03 1.89730003e-02</_>
    <_>
      1.62719991e-02 1.50800003e-02 1.45830000e-02 3.15789990e-02
      1.62599999e-02 8.70740041e-03 1.58859994e-02 2.28569992e-02
      8.06959998e-03 6.75950013e-03 1.36590004e-02 2.10759994e-02
      1.70189999e-02 2.68290006e-02 1.33280000e-02 1.09449998e-02
      1.34020001e-02 1.94930006e-02 1.44929998e-02 9.56279971e-03
      6.52630022e-03 7.12030008e-03 1.36470003e-02 1.84799992e-02
      1.12960003e-02 1.35220001e-02 1.42540000e-02 1.14489999e-02
      1.55400001e-02 7.48969987e-03 1.88929997e-02 1.11980001e-02
      1.42770000e-02 2.75989994e-02 8.09520017e-03 2.12769993e-02
      1.90249998e-02 1.75439995e-02 1.47059998e-02 2.20829993e-02
      2.25019995e-02 2.46140007e-02 1.43919997e-02 2.18320005e-02
      1.57660004e-02 3.22580002e-02 1.64250005e-02 1.55079998e-02
      2.24360004e-02 2.85710003e-02 1.74989998e-02 3.03569995e-02
      1.65599994e-02 2.43900008e-02 2.44900007e-02 1.37419999e-02
      2.26220004e-02 1.46319997e-02 1.16919996e-02 2.40000002e-02
      1.76550001e-02 2.07320005e-02 1.70070007e-02 1.87090002e-02
      1.35869998e-02 2.20129993e-02 1.44819999e-02 2.10030004e-02
      1.30589996e-02 1.83220003e-02 2.00629998e-02 1.89350005e-02
      2.53970008e-02 1.92310009e-02 1.16879996e-02 1.17189996e-02
      1.96080003e-02 1.23150004e-02 1.61460005e-02 2.15050001e-02
      2.57980004e-02 3.44830006e-02 1.83189996e-02 3.66300009e-02
      1.51789999e-02 2.44560000e-02 6.90479996e-03 3.84620018e-02
      2.30979994e-02 8.20519961e-03 2.20369995e-02 9.74150002e-03
      1.58730000e-02 1.64710004e-02 1.61719993e-02 1.77779999e-02
      1.02270003e-02 1.99010000e-02 1.94770005e-02 1.80569999e-02
      7.35290023e-03 1.10290004e-02 1.33929998e-02 2.41679996e-02
      2.69360002e-02 6.67219982e-03 1.42630003e-02 2.14799996e-02
      2.25530006e-02 2.06289999e-02 2.32919995e-02 2.04920005e-02
      2.77570002e-02 1.42620001e-02 1.99999996e-02 1.61400009e-02
      1.58559997e-02 9.66960005e-03 1.04130004e-02 1.37040000e-02
      1.32839996e-02 1.48510002e-02 1.29789999e-02 2.88249999e-02
      1.27999997e-02 1.34009998e-02 2.00299993e-02 4.42760019e-03
      2.09599994e-02 2.63679996e-02 2.02399995e-02</_>
    <_>
      7.75189977e-03 4.82090004e-03 1.08610000e-02 8.19670036e-03
      5.44220023e-03 3.18980007e-03 1.12039996e-02 1.42959999e-02
      2.23469995e-02 3.12300008e-02 1.39509998e-02 7.47130020e-03
      1.91569999e-02 8.65800027e-03 1.15130004e-02 1.92310009e-02
      1.56250000e-02 1.14940004e-02 1.49109997e-02 1.77129991e-02
      9.23079997e-03 6.66669989e-03 7.07850000e-03 9.36520007e-03
      8.77190009e-03 1.73330009e-02 1.07319998e-02 1.07530002e-02
      2.64550000e-03 1.02559999e-02 9.13000014e-03 1.09090004e-02
      1.08110001e-02 1.29629998e-02 6.31309999e-03 1.32579999e-02
      7.32599990e-03 2.14290004e-02 1.01220002e-02 1.09090004e-02
      1.36050005e-02 1.34380003e-02 1.22180004e-02 1.55280000e-02
      1.48149999e-02 1.54320002e-02 1.44929998e-02 4.13790019e-03
      1.36850001e-02 1.04170004e-02 1.19620003e-02 1.35800000e-02
      6.52169995e-03 1.65899992e-02 1.22450003e-02 2.55679991e-02
      3.63640003e-02 6.07640017e-03 1.56859998e-02 8.00119992e-03
      1.31970001e-02 1.23969996e-02 6.94439979e-03 9.15030017e-03
      1.35749998e-02 6.80269999e-03 1.66669991e-02 4.46429988e-03
      1.31339999e-02 1.68919992e-02 1.60259996e-02 1.55039998e-02
      8.54699966e-03 1.09740002e-02 1.28570003e-02 1.07690003e-02
      7.38919992e-03 1.42860003e-02 1.75439995e-02 9.41179972e-03
      7.82009959e-03 1.20320003e-02 1.19620003e-02 8.88890028e-03
      6.66669989e-03 9.09090042e-03 1.50330001e-02 7.63770007e-03
      6.92040008e-03 1.47369998e-02 1.22220004e-02 1.43539999e-02
      1.14940004e-02 1.90099999e-02 1.31559996e-02 1.48179997e-02
      1.50100002e-02 1.31480005e-02 1.54229999e-02 1.53850000e-02
      8.72089993e-03 1.15299998e-02 9.76799987e-03 1.54590001e-02
      1.61639992e-02 1.57639999e-02 9.32020042e-03 7.12249987e-03
      1.36550004e-02 2.10239999e-02 1.30390003e-02 1.43759996e-02
      1.28779998e-02 9.58860014e-03 1.06950002e-02 1.38280001e-02
      1.72189996e-02 1.21480003e-02 8.31490010e-03 1.30669996e-02
      1.09730000e-02 6.80269999e-03 3.63639998e-03 1.25930002e-02
      1.47059998e-02 1.48649998e-02 2.54829992e-02 1.95850004e-02
      2.52020005e-02 1.25000002e-02 1.64470002e-02</_>
    <_>
      4.53479998e-02 1.50539996e-02 3.19430009e-02 0. 4.67020012e-02
      5.97140007e-02 6.94279969e-02 4.76030000e-02 1.46909997e-01
      1.89820006e-01 1.58800006e-01 1.34369999e-01 3.94949988e-02
      2.75439993e-02 3.41590010e-02 8.45680013e-02 1.40609995e-01
      9.02869999e-02 1.14000000e-01 9.27129984e-02 9.50480029e-02
      8.73000026e-02 9.18530002e-02 6.04100004e-02 1.90609992e-02
      1.43050000e-01 1.27480000e-01 1.34619996e-01 1.01340003e-01
      8.97789970e-02 1.03689998e-01 1.15549996e-01 6.36539981e-02
      1.27189994e-01 1.47060007e-01 2.10109994e-01 1.93859994e-01
      1.43169999e-01 1.25970006e-01 1.55320004e-01 1.67429999e-01
      1.53209999e-01 1.65169999e-01 1.55279994e-01 1.15280002e-01
      8.70520025e-02 9.80089977e-02 1.24360003e-01 1.23429999e-01
      1.24530002e-01 1.35000005e-01 1.20829999e-01 1.20679997e-01
      8.88210014e-02 1.38339996e-01 1.52740002e-01 1.19470000e-01
      6.85620010e-02 8.85780007e-02 9.89350006e-02 1.53380007e-01
      1.72209993e-01 1.30809993e-01 1.51940003e-01 1.69279993e-01
      1.44769996e-01 1.49130002e-01 1.32679999e-01 1.42729998e-01
      1.78670004e-01 1.11769997e-01 8.42370018e-02 1.88989997e-01
      1.26420006e-01 1.21930003e-01 1.33530006e-01 1.36219993e-01
      8.89659971e-02 9.13119987e-02 5.30300010e-03 9.70560033e-03 0.
      1.36730000e-02 2.21750000e-04 0. 9.00749955e-03 9.52109974e-03
      9.42589995e-03 0. 7.80679984e-03 1.23370001e-02 1.70060005e-02 0.
      1.42489998e-02 7.75829982e-03 2.21829992e-02 0. 2.18950007e-02
      4.05520014e-03 1.74339991e-02 1.24310004e-02 3.59559990e-02
      1.32499998e-02 4.48050015e-02 2.71939998e-03 4.09180000e-02
      1.86059996e-03 1.19589996e-02 0. 2.11789995e-03 3.54499999e-03
      1.16870003e-02 0. 1.55729996e-02 1.44509999e-02 1.53919999e-02 0.
      1.25350002e-02 0. 2.73230001e-02 1.16699999e-02 1.88710000e-02
      1.51800003e-03 1.96080003e-02 7.44190020e-03 1.97459999e-02
      4.23499988e-03 2.54350007e-02 4.45490004e-03 2.15429999e-02
      7.82530010e-03</_>
    <_>
      1.37019996e-03 1.37419999e-02 1.17509998e-02 1.37019996e-03
      8.29880033e-03 8.77350010e-03 0. 8.14369973e-03 0. 1.53939996e-04
      1.25350002e-02 3.34910001e-03 0. 0. 0. 0. 6.92800013e-03
      1.28800003e-02 3.66510008e-03 8.54360033e-03 1.31649999e-02
      2.74499995e-03 0. 3.97680001e-03 6.17640000e-03 9.77289956e-03
      1.26209995e-03 1.30639998e-02 0. 2.06080009e-03 7.52960006e-03 0.
      1.42879998e-02 0. 2.57719997e-02 9.77789983e-03 0. 1.22459996e-02
      0. 1.16670001e-02 1.01460004e-02 0. 0. 1.12490002e-02
      7.67719978e-03 1.33760003e-02 6.33860007e-03 1.91789996e-02
      6.93219993e-03 1.92740001e-03 1.82179996e-04 3.09040002e-03
      1.54799996e-02 1.56490002e-02 2.05229991e-03 4.67289984e-03
      3.91340023e-03 1.30850002e-02 9.41010006e-03 4.08909982e-03
      4.52220021e-03 1.44200004e-03 0. 8.46960023e-03 9.06070042e-03
      1.23939998e-02 5.45700022e-04 1.22769997e-02 0. 0. 0. 0. 0. 0. 0.
      6.25699991e-04 6.39149977e-04 2.54480005e-03 0. 0. 0.
      1.25620002e-03 7.32170010e-04 1.59240002e-03 0. 2.12369996e-04
      1.14700000e-03 2.47880002e-03 2.02140003e-03 1.44709996e-03
      7.16280018e-04 2.99359992e-04 0. 8.82769964e-05 5.71699999e-03
      6.65250001e-03 5.02029993e-03 4.45269980e-03 2.79120007e-03 0. 0.
      0. 3.38310003e-03 4.06179996e-03 6.52040006e-04 1.36240001e-03
      1.99749996e-03 4.62369993e-04 0. 0. 1.97519999e-04 0. 0.
      5.49890008e-03 5.25100017e-03 4.31559980e-03 1.16950006e-03 0.
      2.44929991e-03 5.11460006e-03 1.12190004e-03 2.55060010e-03
      2.91820010e-03 1.19390001e-03 3.25540011e-03 0. 0. 0.
      2.63500004e-03 0. 3.80340003e-04</_>
    <_>
      3.07999994e-03 6.17500022e-03 5.61589980e-03 6.18320005e-03
      2.55599990e-03 2.43229996e-02 0. 3.55160004e-03 0. 4.76700021e-03
      1.15959998e-03 8.41130037e-03 0. 9.07209981e-03 0. 1.22280006e-04
      0. 0. 6.82180002e-03 0. 0. 0. 0. 3.80020007e-03 0. 0. 0. 0.
      4.12649987e-03 5.63909998e-03 0. 1.56520009e-02 0. 8.60899966e-03
      9.86680039e-04 7.22299982e-03 0. 1.21520003e-02 0. 6.69710012e-03
      0. 1.12370001e-02 9.60250036e-05 1.34699997e-02 3.27549991e-04
      2.52480004e-02 0. 1.38369994e-03 2.01940001e-03 1.96850002e-02 0.
      1.59660000e-02 0. 8.67590029e-03 0. 7.31430016e-03 0.
      1.56500004e-02 0. 6.94670016e-03 3.14070005e-03 1.71579998e-02
      3.38470010e-04 1.92460008e-02 5.56689978e-04 3.94950010e-04
      6.00579986e-03 2.25269999e-02 0. 6.87590009e-03 0. 7.91559985e-04
      2.58639990e-03 5.59480023e-03 9.34210024e-04 1.12619996e-02
      1.28379994e-04 3.10790003e-03 0. 6.45980006e-03 3.22599988e-03
      3.32519994e-03 0. 6.41770021e-04 0. 6.25280011e-03 1.06710000e-02
      7.52069987e-04 0. 2.53199991e-02 3.60039994e-04 2.46399995e-02
      3.66150006e-03 3.69539997e-03 0. 1.40420003e-02 0. 8.29400029e-03
      0. 2.32239999e-02 0. 1.41810002e-02 0. 1.08530000e-02
      2.25890009e-03 1.07709998e-02 7.63060013e-03 1.50629999e-02 0.
      1.06220003e-02 0. 1.62669998e-02 1.43399998e-03 1.27919996e-02
      9.63389967e-03 2.02620006e-03 0. 1.78640001e-02 3.67580005e-03
      1.69750005e-02 0. 1.80190001e-02 1.71760004e-02 1.20980004e-02
      1.33779994e-03 1.00050000e-02 2.44720001e-03 8.89010029e-04
      1.11429999e-02 1.65860001e-02 0.</_>
    <_>
      1.24710001e-01 1.31420001e-01 1.61510006e-01 1.59920007e-01
      1.56859994e-01 1.02779999e-01 9.50519964e-02 2.16769993e-01
      2.97010005e-01 1.41880006e-01 1.41059995e-01 1.47320002e-01
      1.79490000e-01 2.51630008e-01 1.22720003e-01 1.61909997e-01
      7.16139972e-02 1.18840002e-01 1.56990007e-01 2.51329988e-01
      1.36000007e-01 1.35419995e-01 2.08330005e-01 1.48809999e-01
      1.86839998e-01 1.94440007e-01 2.13990003e-01 1.87759995e-01
      1.88250005e-01 1.68259993e-01 1.97659999e-01 1.46530002e-01
      1.46799996e-01 1.12250000e-01 1.38760000e-01 1.75999999e-01
      1.22429997e-01 1.38219997e-01 1.03009999e-01 9.61719975e-02
      5.56190014e-02 1.20049998e-01 1.73160002e-01 7.18199983e-02
      1.00960001e-01 7.72729963e-02 1.35839999e-01 8.76049995e-02
      1.25599995e-01 5.07690012e-02 1.50000006e-01 1.18400000e-01
      1.33200005e-01 1.08769998e-01 1.73329994e-01 1.55120000e-01
      1.88170001e-01 1.45500004e-01 1.29490003e-01 1.12250000e-01
      1.35910004e-01 1.17119998e-01 1.49069995e-01 1.79289997e-01
      2.91669995e-01 1.94140002e-01 4.40480001e-02 4.65589985e-02
      2.13939995e-01 1.34690002e-01 1.08060002e-01 1.49440005e-01
      1.84780002e-01 1.40740007e-01 4.16669995e-02 9.42030028e-02
      1.98620006e-01 2.73700003e-02 1.93450004e-02 2.15310007e-02
      1.11110002e-01 5.65220006e-02 1.08700000e-01 9.95920002e-02
      1.27839997e-01 3.99999991e-02 1.38720006e-01 8.03920031e-02
      1.04020000e-01 1.57619998e-01 1.78369999e-01 2.24309996e-01
      2.03270003e-01 9.04980004e-02 1.40589997e-01 1.52380005e-01
      1.38390005e-01 1.82520002e-01 2.01440006e-01 1.47440001e-01
      1.72330007e-01 2.09120005e-01 6.31000027e-02 1.38569996e-01
      2.69230008e-01 2.67239988e-01 2.22859994e-01 1.26029998e-01
      9.52939987e-02 1.17299996e-01 1.31689996e-01 1.02069996e-01
      1.30370006e-01 3.10000002e-01 1.36360005e-01 9.41179991e-02
      1.22749999e-01 9.71740037e-02 3.68419997e-02 1.06670000e-01
      1.14040002e-01 5.74709997e-02 8.31120014e-02 1.14200003e-01
      2.35180005e-01 5.79710007e-02 1.58429995e-01 1.15920000e-01
      1.50839999e-01 1.80960000e-01 2.37690002e-01</_>
    <_>
      2.25570006e-03 3.94299999e-03 2.79720011e-03 1.66319998e-03
      1.34019996e-03 2.74839997e-03 1.31680002e-03 0. 2.54340004e-03
      5.90529991e-03 3.91899981e-03 2.35760002e-03 1.52979996e-02
      2.92659998e-02 1.37379998e-02 7.62959989e-03 1.09829996e-02
      1.14930002e-02 1.47700002e-02 4.01460007e-02 1.64669994e-02 0.
      5.94099984e-03 7.37460004e-03 5.40539995e-03 0. 0. 0.
      4.99620009e-03 7.73200020e-03 1.50480000e-02 9.97340027e-03
      8.40749964e-03 3.98410019e-03 3.95030016e-03 1.08490000e-02
      4.49190009e-03 1.67939998e-03 4.60830005e-03 3.32839997e-03
      7.32220011e-03 7.04219984e-03 2.29010009e-03 1.96660007e-03 0. 0.
      1.96420006e-04 0. 0. 0. 0. 8.67049955e-03 3.49040003e-03 0.
      4.92129987e-03 1.20339997e-03 0. 0. 0. 1.90839998e-03 0. 0. 0.
      1.22570002e-03 0. 2.22719996e-03 6.92609977e-03 6.59519993e-03
      4.08940017e-03 4.47840011e-03 0. 0. 9.00899991e-03 0.
      1.40279997e-03 0. 1.89680001e-03 1.84839999e-03 2.55949999e-04 0.
      0. 0. 0. 0. 4.56470018e-03 2.27950001e-03 0. 0. 0. 0. 0. 0. 0. 0.
      0. 0. 5.31630008e-04 0. 0. 0. 0. 1.69489998e-03 0. 3.06909991e-04
      1.92289997e-03 8.03210016e-04 8.64300004e-04 5.27040008e-03
      6.07289979e-03 2.66960007e-03 5.29940007e-03 6.95829978e-03
      4.70899977e-03 1.52629996e-02 0. 7.93230021e-04 0. 0. 0.
      1.52279995e-03 2.61000008e-03 2.33209995e-03 2.39809998e-03
      5.01130009e-04 7.52630003e-04 2.95570004e-04 0. 7.90889972e-05 0.
      5.86970011e-04 0.</_>
    <_>
      5.05650009e-04 3.23420012e-04 1.55269998e-04 0. 1.45300000e-04
      3.69260015e-05 2.42880007e-04 2.40890004e-04 1.04780003e-04
      6.90730012e-05 1.55639995e-04 2.71800003e-04 1.45710001e-04 0. 0.
      0. 0. 0. 4.33759997e-05 0. 7.85550001e-05 0. 0. 3.70810012e-05 0.
      0. 1.97989997e-04 0. 0. 0. 1.67350005e-03 1.12709997e-04
      1.14319999e-04 5.35229978e-04 1.58080002e-04 3.76609998e-04
      5.16709988e-04 5.35350002e-04 2.45370000e-04 1.41799997e-03
      5.22150018e-04 2.46020005e-04 6.19039987e-04 1.51430001e-03
      4.36920003e-04 3.06189992e-04 3.68079985e-04 9.80330049e-04
      5.76840015e-04 7.64620025e-04 9.94579968e-05 1.62120006e-04
      1.07979999e-04 2.35090003e-04 1.19700002e-04 1.49209998e-04
      2.08319994e-04 1.99190006e-04 2.28820005e-04 2.10900005e-04
      3.08349991e-04 9.60530015e-04 1.04020000e-04 3.71309987e-04
      8.77259998e-04 5.11560007e-04 1.37850002e-03 1.20129995e-03
      3.57809989e-03 1.04519997e-04 0. 0. 0. 0. 1.43790006e-04
      6.26210021e-05 2.61679990e-03 2.93900003e-03 1.40770003e-02
      1.85509995e-02 8.10199976e-03 8.41309968e-03 1.29580004e-02
      1.01159997e-02 9.71770007e-03 2.38800002e-03 1.07429996e-02
      3.67649994e-03 7.95920007e-03 9.88159981e-03 9.20739956e-03
      2.10339995e-03 9.63720027e-03 6.35749986e-03 1.47100003e-03
      9.79310018e-04 2.79289996e-03 5.68589987e-03 5.12559991e-03
      1.01070001e-03 1.95119996e-03 1.76599994e-02 9.13009979e-03
      8.40639975e-03 7.01679988e-03 4.39839996e-03 4.51260014e-03 0.
      5.43199992e-03 2.85040005e-03 3.79289989e-03 5.10689989e-03
      4.99740010e-03 7.56550021e-03 7.69879995e-03 0. 3.14519997e-03
      9.08610038e-03 6.14299998e-03 1.15409996e-02 1.74429994e-02
      4.59909998e-03 1.34560000e-02 3.33769992e-03 7.00809993e-03
      7.95499980e-03 5.55519992e-03 2.64830003e-03 2.52310000e-03
      2.10059993e-02 8.30610003e-03</_>
    <_>
      6.80269999e-03 1.02300001e-02 2.62240004e-02 1.32630002e-02
      1.77779999e-02 1.26870004e-02 1.41030001e-02 1.06579997e-02
      2.40739994e-02 8.98590032e-03 2.29899995e-02 3.26699987e-02
      1.41820004e-02 2.07039993e-02 1.85449999e-02 3.58130001e-02
      2.48370003e-02 1.18239997e-02 1.40739996e-02 5.30610010e-02
      1.59380008e-02 1.27999997e-02 2.56680008e-02 3.08929998e-02
      2.44960003e-02 2.83829998e-02 1.01009998e-02 2.35539991e-02
      1.68590005e-02 1.61719993e-02 2.01839991e-02 2.74250004e-02
      2.41620000e-02 2.68309992e-02 1.82290003e-02 1.68420002e-02
      2.73170006e-02 1.41249998e-02 2.11810004e-02 1.47620002e-02
      1.81959998e-02 1.72520000e-02 1.88619997e-02 2.54360009e-02
      2.23009996e-02 1.89020000e-02 2.27739997e-02 2.30410006e-02
      2.34820005e-02 3.86620015e-02 2.02900004e-02 2.32239999e-02
      1.37900002e-02 1.83940008e-02 9.14630014e-03 1.72879994e-02
      1.56830009e-02 9.12350044e-03 1.20369997e-02 1.52989998e-02
      1.48569997e-02 1.38170002e-02 4.02159989e-02 2.44789999e-02
      1.06119998e-02 2.31069997e-02 1.98410004e-02 2.03520004e-02
      1.62569992e-02 2.96199992e-02 1.65190008e-02 1.83329992e-02
      2.70789992e-02 1.54360002e-02 2.32360009e-02 1.09160002e-02
      1.78130008e-02 3.04659996e-02 3.14970016e-02 3.00750006e-02
      2.01469995e-02 1.72930006e-02 1.64689999e-02 1.69639997e-02
      4.59400006e-02 1.56100001e-02 2.13149991e-02 2.37840004e-02
      2.72390004e-02 2.59199999e-02 1.19009996e-02 2.48889998e-02
      2.74039991e-02 2.36469992e-02 2.26760004e-02 1.13310004e-02
      3.77039984e-02 2.29560006e-02 3.50610018e-02 3.00939996e-02
      1.82349999e-02 3.34299989e-02 2.22570002e-02 1.77519992e-02
      3.94559987e-02 3.16240005e-02 1.88309997e-02 3.73530015e-02
      1.87909994e-02 2.98650004e-02 5.52080013e-02 1.61290001e-02
      4.23830003e-02 2.11350005e-02 6.25000000e-02 2.68619992e-02
      2.23210007e-02 2.71739997e-02 1.28570003e-02 2.24360004e-02
      2.49090008e-02 1.55940000e-02 1.93770006e-02 2.01490000e-02
      1.60639994e-02 3.31050009e-02 3.07930000e-02 1.23460004e-02
      2.72729993e-02 1.56720001e-02 2.43459996e-02</_>
    <_>
      3.80950011e-02 1.44929998e-02 2.89859995e-02 3.40000018e-02
      1.68069992e-02 2.26889998e-02 2.63160001e-02 2.63160001e-02
      2.03729998e-02 2.42970008e-02 8.41510016e-03 1.97369996e-02
      2.08330005e-02 1.76470000e-02 2.82610003e-02 1.66669991e-02
      3.25810015e-02 1.25479996e-02 1.45530002e-02 4.46429998e-02
      1.13639999e-02 3.80439982e-02 1.76769998e-02 1.47059998e-02
      2.27739997e-02 1.63640007e-02 1.33330002e-02 2.82610003e-02
      1.79999992e-02 2.85710003e-02 2.82610003e-02 3.04349996e-02
      2.51720008e-02 4.16669995e-02 1.01009998e-02 2.04080008e-02
      1.79030001e-02 1.74829997e-02 1.85679998e-02 1.99999996e-02
      2.50489991e-02 8.07690024e-02 1.61000006e-02 5.83329983e-02
      3.38039994e-02 4.05590013e-02 1.65720005e-02 5.23639992e-02
      7.91930035e-02 3.70909981e-02 2.37600002e-02 4.66229990e-02
      5.47779985e-02 2.62349993e-02 3.26530002e-02 2.89999992e-02
      4.69349995e-02 4.37610000e-02 2.51720008e-02 3.93770002e-02
      3.27869989e-02 5.44579998e-02 6.42599985e-02 4.12600003e-02
      1.65580008e-02 3.86140011e-02 3.50060016e-02 3.35309990e-02
      2.07599998e-02 4.32289988e-02 4.10530008e-02 4.08129990e-02
      5.82429990e-02 3.77090015e-02 3.80950011e-02 4.20890003e-02
      4.04560007e-02 5.34959994e-02 1.05379997e-02 7.17919990e-02
      4.93899994e-02 3.61029990e-02 3.62900011e-02 3.65410000e-02
      2.85899993e-02 3.82909998e-02 5.73769994e-02 1.89469997e-02
      4.68750000e-02 2.23580003e-02 3.27869989e-02 2.57660002e-02
      1.71070006e-02 3.15169990e-02 2.64439993e-02 1.60520002e-02
      4.59709987e-02 3.67069989e-02 5.00000007e-02 1.54350000e-02
      3.14510018e-02 3.23810019e-02 3.70029993e-02 3.35519984e-02
      4.21510004e-02 3.90809998e-02 4.70830016e-02 1.71629991e-02
      6.46639988e-02 4.94190007e-02 6.45470023e-02 4.05399986e-02
      5.01790009e-02 3.72949988e-02 4.51130010e-02 4.48720008e-02
      6.84209988e-02 3.42249982e-02 5.26789986e-02 1.76279992e-02
      5.31710014e-02 6.34920001e-02 5.07399999e-02 3.46259996e-02
      3.38630006e-02 2.62030009e-02 3.82220000e-02 3.13570015e-02
      3.56330015e-02 4.55779992e-02 2.50330009e-02</_>
    <_>
      1.15319997e-01 1.03390001e-01 4.43830013e-01 3.52030009e-01
      2.80099988e-01 3.08189988e-01 2.80000001e-01 2.30470002e-01
      2.88430005e-01 2.92219996e-01 3.52259994e-01 3.73679996e-01
      2.87649989e-01 3.29800010e-01 3.90450001e-01 2.84999996e-01
      2.46879995e-01 3.11390013e-01 4.15010005e-01 2.80959994e-01
      2.32600003e-01 2.52160013e-01 4.04680014e-01 3.52759987e-01
      3.02130014e-01 1.57140002e-01 1.49550006e-01 2.67439991e-01
      2.06159994e-01 2.58549988e-01 2.60580003e-01 2.72329986e-01
      2.90740013e-01 2.59030014e-01 2.55519986e-01 2.25209996e-01
      2.90239990e-01 1.15139998e-01 2.81129986e-01 2.27789998e-01
      2.40360007e-01 2.75579989e-01 3.54990005e-01 3.29609990e-01
      8.64009976e-01 6.69260025e-01 9.46709991e-01 7.45930016e-01
      9.32200015e-01 8.15970004e-01 7.81040013e-01 8.36989999e-01
      8.21940005e-01 9.66369987e-01 8.47039998e-01 8.43739986e-01
      6.82950020e-01 9.40310001e-01 6.88489974e-01 8.35990012e-01
      6.96229994e-01 1. 7.10179985e-01 7.50779986e-01 7.08570004e-01
      8.47769976e-01 6.09939992e-01 7.38510013e-01 5.41239977e-01
      7.42179990e-01 5.50300002e-01 8.19959998e-01 7.59500027e-01
      9.44490016e-01 8.38599980e-01 8.72870028e-01 7.02319980e-01
      9.55600023e-01 6.84849977e-01 8.63510013e-01 7.20939994e-01
      9.36950028e-01 7.93380022e-01 8.85950029e-01 6.13849998e-01
      7.28089988e-01 6.27950013e-01 8.65580022e-01 6.14579976e-01
      8.98370028e-01 6.78780019e-01 8.51870000e-01 5.56379974e-01
      7.00900018e-01 6.53190017e-01 7.79829979e-01 8.01360011e-01
      6.70790017e-01 8.00750017e-01 7.30639994e-01 9.53639984e-01
      8.55539978e-01 7.46420026e-01 1. 7.38380015e-01 7.21530020e-01
      6.53840005e-01 8.11200023e-01 7.15919971e-01 7.06070006e-01
      9.41940010e-01 7.05879986e-01 8.79599988e-01 7.35639989e-01
      7.78259993e-01 9.16329980e-01 7.92450011e-01 9.78110015e-01
      8.94980013e-01 8.50019991e-01 8.49189997e-01 7.13769972e-01
      9.41540003e-01 6.92830026e-01 8.95380020e-01 7.10380018e-01
      8.85209978e-01 7.40199983e-01 7.76430011e-01 6.79430008e-01
      8.24819982e-01</_>
    <_>
      6.81820000e-03 9.70149972e-03 6.99939998e-03 8.79069977e-03
      6.27689995e-03 9.19120014e-03 4.83629992e-03 1.27680004e-02
      7.40739983e-03 1.14679998e-02 7.69229978e-03 1.13869999e-02
      1.19150002e-02 8.74129962e-03 9.31680016e-03 8.53830017e-03
      7.50190020e-03 6.30179979e-03 4.56140004e-03 1.23520000e-02
      7.92810041e-03 1.22889997e-02 8.39329977e-03 9.80640016e-03
      3.70709994e-03 8.76719970e-03 5.22320019e-03 9.60830040e-03
      6.11579977e-03 7.74529995e-03 9.44820046e-03 7.37929996e-03
      8.45170021e-03 1.12060001e-02 4.80270013e-03 1.03010004e-02
      1.00269997e-02 7.90220033e-03 6.27239980e-03 8.90650041e-03
      8.33330024e-03 6.97469991e-03 4.31199977e-03 9.08499956e-03
      1.17070004e-02 6.94439979e-03 1.01950001e-02 9.56789963e-03
      6.57900004e-03 1.80179998e-02 7.25809997e-03 1.18060000e-02
      4.65120003e-03 1.38889998e-02 4.37569991e-03 9.20540001e-03
      9.45740007e-03 1.04569998e-02 7.73649989e-03 1.28769996e-02
      7.79660000e-03 3.16890003e-03 3.73129989e-03 1.34600000e-02
      9.09090042e-03 1.06579997e-02 8.17309972e-03 1.31339999e-02
      7.35010020e-03 7.44679989e-03 1.96429994e-02 6.12240005e-03
      5.75659983e-03 7.49999983e-03 8.20459984e-03 6.64889999e-03
      4.79689986e-03 1.05760004e-02 9.37949959e-03 8.24949984e-03
      5.73890004e-03 1.11330003e-02 5.83329983e-03 1.39269996e-02
