<?xml version="1.0"?>
<opencv_storage>
<my_svm type_id="opencv-ml-svm">
  <svm_type>C_SVC</svm_type>
  <kernel><type>RBF</type>
    <gamma>5.0625000000000009e-01</gamma></kernel>
  <C>6.2500000000000000e+01</C>
  <term_criteria><epsilon>2.2204460492503131e-16</epsilon>
    <iterations>3000</iterations></term_criteria>
  <var_all>131</var_all>
  <var_count>131</var_count>
  <class_count>2</class_count>
  <class_labels type_id="opencv-matrix">
    <rows>1</rows>
    <cols>2</cols>
    <dt>i</dt>
    <data>
      -1 1</data></class_labels>
  <class_weights type_id="opencv-matrix">
    <rows>1</rows>
    <cols>2</cols>
    <dt>d</dt>
    <data>
      5.5487204343080521e+01 7.0127951912581921e+00</data></class_weights>
  <sv_total>134</sv_total>
  <support_vectors>
    <_>
      1.43077448e-01 9.98269320e-01 9.95004058e-01 9.89752829e-01
      9.83131111e-01 9.75368738e-01 9.67294037e-01 9.59167719e-01
      9.51238453e-01 9.44154441e-01 9.38071370e-01 9.33095992e-01
      9.29377317e-01 9.26490068e-01 9.24595296e-01 9.23228860e-01
      9.22415257e-01 9.21849191e-01 9.21790838e-01 9.21721935e-01
      9.21516776e-01 2.32270434e-01 2.34329417e-01 1.86950997e-01
      1.16132215e-01 1.87828019e-01 2.07734555e-01 2.34329417e-01
      2.34329417e-01 2.34329417e-01 7.10835159e-02 1.28579691e-01
      2.14466915e-01 2.34329417e-01 2.34329417e-01 1.61899388e-01
      8.17239210e-02 6.18254319e-02 6.83566481e-02 5.13218939e-02
      4.36732583e-02 3.97668816e-02 4.31599729e-02 1.88672438e-01
      2.34329417e-01 1.99218377e-01 1.06977381e-01 7.95732141e-02
      2.93060280e-02 3.50315496e-02 1.82083309e-01 2.34329417e-01
      2.34329417e-01 2.34329417e-01 1.39858425e-01 4.78151478e-02
      2.51930933e-02 8.25000000e+00 4.03846145e-01 8.24000001e-01 0. 0.
      0. 0. 0. 0. 0. 0. 0. 0. 0. 0. 0. 0. 0. 0. 0. 8.95389542e-02
      2.65957438e-03 2.65957438e-03 7.09219929e-03 6.20567426e-03
      8.86524934e-03 4.43262421e-03 1.15248244e-02 3.01418342e-02
      1.15248244e-02 2.65957438e-03 2.39361655e-02 4.07801419e-02
      5.31914923e-03 7.71276429e-02 6.75528824e-01 4.10256423e-02
      4.48717959e-02 1.02564106e-02 5.76923080e-02 6.41025649e-03
      6.41025649e-03 8.97435937e-03 5.00000007e-02 8.97435918e-02
      6.53846189e-02 8.97435937e-03 5.89743592e-02 1.28205130e-02
      7.69230770e-03 3.46153863e-02 4.96156693e-01 8.21053162e-02
      1.78947318e-02 3.15789459e-03 5.68421260e-02 4.21052612e-03
      1.05263153e-03 3.15789459e-03 5.78947589e-02 1.17894836e-01
      2.10526250e-02 0. 1.68421008e-02 4.10526320e-02 1.15789454e-02
      5.36842272e-02 5.11575878e-01 9.44489777e-01 5.55102043e-02 0. 0.
      0. 0.</_>
    <_>
      1.63742691e-01 9.97899592e-01 9.92806613e-01 9.85073268e-01
      9.74991798e-01 9.62937534e-01 9.49274182e-01 9.34200525e-01
      9.18281198e-01 9.01885211e-01 8.85062456e-01 8.68193746e-01
      8.51749063e-01 8.35866332e-01 8.21283579e-01 8.08473229e-01
      7.97467411e-01 7.88707078e-01 7.82544553e-01 7.78837025e-01
      7.77639091e-01 5.71194068e-02 3.52839716e-02 1.29559755e-01
      1.44000888e-01 2.55914539e-01 7.01525584e-02 6.83278665e-02
      7.06585199e-02 9.25325379e-02 3.48681957e-02 1.61446139e-01
      2.85205811e-01 2.85205811e-01 2.00812072e-01 2.97548603e-02
      2.44881138e-02 6.86269905e-03 2.59141512e-02 1.55888945e-01
      2.09111780e-01 2.85205811e-01 2.38874093e-01 2.85205811e-01
      1.76393494e-01 1.25457987e-01 1.42480284e-01 1.95011020e-01
      5.95342107e-02 2.23001972e-01 2.85205811e-01 2.85205811e-01
      1.45823047e-01 3.08359973e-02 2.47022472e-02 1.93000194e-02
      4.32750918e-02 2.41666675e+00 2.09876537e-01 8.97222221e-01 0. 0.
      0. 0. 0. 0. 0. 0. 0. 0. 0. 0. 0. 0. 0. 0. 0. 6.92756251e-02
      6.59769261e-03 1.94931752e-03 9.59664397e-03 1.49947518e-04
      1.49947518e-04 1.79937005e-03 1.85934808e-02 5.17316945e-02
      1.88933741e-02 2.69905548e-03 2.23421473e-02 2.80401204e-02
      8.09716806e-03 6.55268654e-02 6.94563210e-01 1.41189158e-01
      5.47699891e-02 8.97867326e-03 4.57912944e-02 2.46913568e-03
      3.59147019e-03 2.69360258e-03 6.55443743e-02 5.27497828e-02
      2.37934925e-02 3.36700329e-03 2.15488188e-02 1.61616020e-02
      8.52974039e-03 3.16498503e-02 5.17178237e-01 1.27985716e-01
      2.96641123e-02 1.06343292e-02 4.53356802e-02 1.67910464e-03
      1.86567183e-03 8.58209003e-03 1.05037734e-01 1.23135023e-01
      2.10820641e-02 3.54477647e-03 1.32462699e-02 3.95521261e-02
      1.49253746e-02 4.64550778e-02 4.07269835e-01 3.84861410e-01
      3.49001735e-01 1.54681146e-01 7.50145391e-02 3.38243842e-02
      2.61678617e-03</_>
    <_>
      1.55052200e-01 9.96110737e-01 9.86189127e-01 9.72057819e-01
      9.55130279e-01 9.36750233e-01 9.18569148e-01 9.02461886e-01
      8.90272737e-01 8.83560121e-01 8.82448554e-01 8.86128783e-01
      8.94041479e-01 9.05707419e-01 9.20087159e-01 9.35626984e-01
      9.50620651e-01 9.63726997e-01 9.73972082e-01 9.80624497e-01
      9.83015120e-01 3.72281671e-02 4.51537967e-02 9.20357034e-02
      2.01060474e-01 2.82617301e-01 2.60559827e-01 6.63818419e-02
      6.32001534e-02 3.83790806e-02 8.43407810e-02 7.08695874e-02
      1.59739897e-01 2.42834195e-01 2.82617301e-01 1.31589219e-01
      4.20814753e-02 3.43206488e-02 5.43619283e-02 5.53396605e-02
      6.89622313e-02 1.53039664e-01 2.65821993e-01 2.82617301e-01
      2.82617301e-01 1.30268678e-01 9.35625061e-02 5.64646274e-02
      9.73799676e-02 1.30399376e-01 2.82617301e-01 2.82617301e-01
      2.82617301e-01 1.45534068e-01 6.16767108e-02 3.80050950e-02
      6.64324388e-02 2.19565225e+00 3.65448505e-01 8.95522416e-01
      4.94808167e-01 6.65679276e-02 2.10798867e-02 7.39645120e-03
      5.73223718e-02 7.39644980e-04 2.21893494e-03 1.03550320e-02
      7.32247680e-02 8.17307308e-02 1.07248547e-02 4.80769295e-03
      1.22041451e-02 7.35945925e-02 1.14644999e-02 9.24556404e-02
      4.74107474e-01 7.59214014e-02 3.39066721e-02 1.16707562e-02
      4.04176638e-02 9.82800964e-04 2.82555190e-03 4.66830423e-03
      6.42504022e-02 1.58967718e-01 1.51105514e-02 3.19410209e-03
      1.05651077e-02 7.54299909e-02 1.48648517e-02 7.54299909e-02
      4.11783099e-01 1.75337896e-01 4.70136888e-02 7.68775446e-03
      5.44057824e-02 1.18273206e-03 5.91366028e-04 3.84387793e-03
      1.00384600e-01 1.09255113e-01 2.27676239e-02 3.10467090e-03
      1.64104234e-02 3.66647579e-02 1.46363219e-02 4.42046933e-02
      3.62507612e-01 1.14443921e-01 5.56788072e-02 1.04938271e-02
      5.08640185e-02 4.81481384e-03 2.83950660e-03 5.55555336e-03
      8.77773985e-02 9.79008004e-02 1.91357937e-02 3.70370434e-03
      1.49382809e-02 3.99998799e-02 1.49382809e-02 5.93824908e-02
      4.17548925e-01 4.73414660e-01 2.79740214e-01 1.11779928e-01
      7.02782646e-02 5.38043194e-02 1.09826280e-02</_>
    <_>
      1.27695709e-01 9.99171555e-01 9.97122169e-01 9.94103312e-01
      9.90475655e-01 9.86652851e-01 9.82728660e-01 9.78910089e-01
      9.75086153e-01 9.71175134e-01 9.67175961e-01 9.63075399e-01
      9.58946347e-01 9.54981685e-01 9.51207757e-01 9.47780609e-01
      9.44815576e-01 9.42331195e-01 9.40497041e-01 9.39365983e-01
      9.38984990e-01 8.58791173e-03 7.14723440e-03 6.02753647e-02
      1.01258427e-01 2.52086699e-01 2.92902589e-01 7.80686140e-02
      1.83144063e-02 7.73322443e-03 4.73884912e-03 2.75646746e-02
      2.96365231e-01 2.96365231e-01 2.53768742e-01 9.34864767e-03
      1.32778264e-03 8.92853073e-04 3.62096773e-03 1.89211387e-02
      7.15854988e-02 2.96365231e-01 2.52408564e-01 2.96365231e-01
      2.96365231e-01 1.15997940e-01 6.34080693e-02 1.18852016e-02
      2.68726554e-02 1.29719302e-01 2.96365231e-01 2.96365231e-01
      2.05067873e-01 1.55650927e-02 1.10337781e-02 1.16690788e-02
      1.32297678e-02 5.35714293e+00 2.99798787e-01 8.96925867e-01 0. 0.
      0. 0. 0. 0. 0. 0. 0. 0. 0. 0. 0. 0. 0. 0. 0. 5.02745844e-02
      8.25081579e-03 2.25522625e-03 1.92519706e-02 1.65016507e-04
      5.50055011e-05 1.15511555e-03 3.01981196e-02 6.33655712e-02
      1.32563412e-02 2.36523733e-03 1.74367800e-02 3.50385010e-02
      7.86577538e-03 5.09896353e-02 6.98142409e-01 5.73118776e-02
      3.35966796e-02 3.85375577e-03 4.30827588e-02 6.81818323e-03
      1.38339947e-03 1.77865650e-03 9.08106640e-02 4.09088656e-02
      3.31026129e-02 3.75494151e-03 3.09287179e-02 1.67984124e-02
      9.09091067e-03 1.40316235e-02 6.12780213e-01 4.31687944e-02
      4.21674363e-03 2.42462661e-03 1.01201665e-02 2.63546273e-04
      2.10837024e-04 1.68669608e-03 3.77397537e-02 6.31983131e-02
      9.90932994e-03 1.26502209e-03 8.53889249e-03 2.06092838e-02
      7.59012811e-03 1.92915555e-02 7.69717395e-01 7.29115486e-01
      2.01902047e-01 4.78189029e-02 1.29481629e-02 6.87592104e-03
      1.33946515e-03</_>
    <_>
      1.43499374e-01 9.97617483e-01 9.93101656e-01 9.86348808e-01
      9.77574527e-01 9.67462659e-01 9.56200898e-01 9.44226086e-01
      9.31904078e-01 9.19503152e-01 9.07311082e-01 8.95182431e-01
      8.84209573e-01 8.74154925e-01 8.64995182e-01 8.57382715e-01
      8.50903451e-01 8.45841885e-01 8.42166305e-01 8.40236008e-01
      8.39549780e-01 4.99884002e-02 5.55244349e-02 5.27741909e-02
      6.91974163e-02 2.47829810e-01 2.55117506e-01 2.55117506e-01
      9.78225991e-02 5.89964241e-02 4.84657064e-02 4.53925505e-02
      8.56236517e-02 2.55117506e-01 2.55117506e-01 2.55117506e-01
      2.36912340e-01 1.19027533e-01 6.36459291e-02 4.71536778e-02
      4.34535556e-02 2.69791093e-02 3.38049121e-02 1.28605857e-01
      2.55117506e-01 2.55117506e-01 1.68459669e-01 1.01940729e-01
      7.00549185e-02 5.88074699e-02 7.35923201e-02 2.55117506e-01
      2.55117506e-01 2.55117506e-01 2.55117506e-01 1.55634329e-01
      9.22410190e-02 2.22222233e+00 2.93749988e-01 8.83333325e-01
      2.86995125e+00 6.68723956e-02 2.67489590e-02 4.11522621e-03
      3.49794067e-02 6.85871055e-04 2.40054866e-03 2.40054866e-03
      4.42386605e-02 1.02880605e-01 1.16598038e-02 3.08641978e-03
      1.64608993e-02 7.68175200e-02 1.09739332e-02 6.20712973e-02
      5.33610284e-01 7.62499422e-02 5.00000035e-03 4.16666677e-04
      9.58333258e-03 0. 8.33333354e-04 8.33333354e-04 3.49999778e-02
      8.70832652e-02 2.87499819e-02 8.75000004e-03 2.54166517e-02
      3.62499766e-02 9.58333258e-03 5.08332960e-02 6.25425041e-01
      1.01428702e-01 1.64285675e-02 2.14285706e-03 4.14285809e-02
      6.42857142e-03 1.35714253e-02 3.57142859e-03 9.71429795e-02
      1.24285892e-01 2.85714176e-02 4.99999989e-03 1.99999940e-02
      2.07142793e-02 6.42857142e-03 1.64285675e-02 4.96424347e-01
      1.26984134e-01 2.50305254e-02 4.27350448e-03 3.11355311e-02
      2.44200253e-03 6.10500632e-04 1.22100126e-03 1.09890111e-01
      1.33089140e-01 4.57875468e-02 5.49450563e-03 1.89255197e-02
      3.54090370e-02 1.03785107e-02 2.68620271e-02 4.22466427e-01
      7.22447157e-01 2.00179935e-01 4.40845713e-02 1.48448041e-02
      1.23706702e-02 6.07287465e-03</_>
    <_>
      3.92156877e-02 9.96999025e-01 9.91929412e-01 9.83686745e-01
      9.73363459e-01 9.60480928e-01 9.46268260e-01 9.30498898e-01
      9.14178491e-01 8.97216082e-01 8.80347013e-01 8.63872886e-01
      8.47891808e-01 8.33201230e-01 8.19983304e-01 8.08941901e-01
      7.99259901e-01 7.92272210e-01 7.86375999e-01 7.83421636e-01
      7.82274425e-01 4.18938622e-02 8.16828609e-02 1.58089221e-01
      2.53335476e-01 2.83473015e-01 2.83473015e-01 1.23257481e-01
      3.52713056e-02 2.45375056e-02 3.67113315e-02 9.88294110e-02
      2.83473015e-01 2.83473015e-01 2.41110027e-01 6.80903643e-02
      1.76642463e-02 2.19590608e-02 2.58592647e-02 9.85306203e-02
      2.10794687e-01 2.83473015e-01 1.91593871e-01 2.29779258e-01
      1.54978782e-01 1.15903445e-01 8.42160583e-02 7.05230311e-02
      4.66169044e-02 1.82035267e-01 2.83473015e-01 2.83473015e-01
      1.07906871e-01 5.65675795e-02 2.23118607e-02 2.16556862e-02
      1.98975541e-02 2.81250000e+00 1.61172166e-01 8.91803265e-01 0. 0.
      0. 0. 0. 0. 0. 0. 0. 0. 0. 0. 0. 0. 0. 0. 0. 1.22702509e-01
      1.86486300e-02 5.40540554e-04 2.24324074e-02 5.40540554e-04 0.
      8.10810830e-04 3.94594073e-02 6.86485469e-02 2.02702489e-02
      1.62162166e-03 1.16216149e-02 3.67567092e-02 6.21621637e-03
      6.54053092e-02 5.84326684e-01 2.92769343e-01 1.05820172e-01
      5.29100513e-03 8.28924403e-02 3.52733675e-03 0. 1.76366838e-03
      1.00529157e-01 8.99471268e-02 2.99823564e-02 5.29100513e-03
      1.58730131e-02 8.81834142e-03 8.81834142e-03 8.81834142e-03
      2.39859208e-01 1.07843138e-01 9.15032718e-03 4.57516359e-03
      2.51633991e-02 2.61437916e-03 9.80392215e-04 5.22875832e-03
      1.46405235e-01 2.53268123e-01 1.47058824e-02 2.94117653e-03
      1.17647061e-02 3.82352956e-02 1.07843140e-02 2.94117648e-02
      3.36932063e-01 4.57900941e-01 3.86084914e-01 8.89150947e-02
      3.72641496e-02 2.52358485e-02 4.59905667e-03</_>
    <_>
      1.83675528e-01 9.97397780e-01 9.90632296e-01 9.80656087e-01
      9.68371928e-01 9.54316854e-01 9.38864529e-01 9.22266483e-01
      9.04626250e-01 8.86298716e-01 8.67416322e-01 8.48655462e-01
      8.30590367e-01 8.13713849e-01 7.98806667e-01 7.86205113e-01
      7.76227832e-01 7.68862605e-01 7.64076114e-01 7.61515498e-01
      7.60706484e-01 6.17032759e-02 6.51779398e-02 1.07934423e-01
      2.36605123e-01 2.36605123e-01 1.40775830e-01 1.21850759e-01
      1.31444588e-01 1.33366942e-01 7.33095929e-02 8.58364031e-02
      1.00637607e-01 1.95051879e-01 2.35957906e-01 2.25663722e-01
      2.36605123e-01 2.36605123e-01 1.63017750e-01 1.06190287e-01
      7.64861032e-02 1.01210006e-01 2.26361021e-01 2.36605123e-01
      1.32041901e-01 1.10415764e-01 1.39207542e-01 1.75472796e-01
      9.28596854e-02 1.93083540e-01 2.36605123e-01 2.36605123e-01
      2.04376832e-01 1.46845356e-01 1.28055245e-01 1.53446004e-01
      1.21033333e-01 2.83333325e+00 1.87165782e-01 8.94230783e-01
      1.51829302e+00 1.60431072e-01 4.87528183e-02 5.10204071e-03
      4.93197106e-02 5.66893432e-04 5.66893432e-04 1.13378686e-03
      8.39001462e-02 8.84352848e-02 2.21088491e-02 2.26757373e-03
      1.64399073e-02 2.94784736e-02 5.10204071e-03 2.89115794e-02
      4.57486540e-01 6.39658570e-02 1.06609808e-02 4.79744142e-03
      1.06609808e-02 1.06609811e-03 1.59914722e-03 1.59914722e-03
      2.39872206e-02 8.26226696e-02 1.91897713e-02 5.33049041e-03
      1.97228212e-02 3.51812541e-02 5.86353941e-03 6.71641678e-02
      6.46584213e-01 1.87109500e-01 5.50688095e-02 3.75469332e-03
      6.25781938e-02 0. 1.87734677e-03 1.87734677e-03 9.01125893e-02
      9.26157162e-02 1.37672126e-02 3.12891114e-03 1.50187779e-02
      4.19273935e-02 8.13516881e-03 2.69086305e-02 3.96123081e-01
      1.27659559e-01 1.90943833e-02 2.18221499e-03 2.45499220e-02
      1.09110749e-03 1.63666124e-03 2.18221499e-03 7.69230872e-02
      1.81668654e-01 1.41843995e-02 3.81887658e-03 9.81996860e-03
      3.27332281e-02 9.27441474e-03 2.72776913e-02 4.65904236e-01
      3.66069287e-01 2.90322572e-01 1.74910396e-01 9.82078835e-02
      5.30465953e-02 1.74432490e-02</_>
    <_>
      1.63081363e-01 9.98626232e-01 9.95683432e-01 9.91000116e-01
      9.85112309e-01 9.77963805e-01 9.70078170e-01 9.61775541e-01
      9.53208447e-01 9.44765687e-01 9.36826348e-01 9.29785550e-01
      9.23357368e-01 9.17734087e-01 9.12854195e-01 9.08857703e-01
      9.05530632e-01 9.03145552e-01 9.01559889e-01 9.00727272e-01
      9.00461137e-01 4.71077934e-02 4.27372307e-02 4.19156030e-02
      1.51004136e-01 2.67251790e-01 2.26067767e-01 6.27377331e-02
      2.76924353e-02 5.67494966e-02 1.83486976e-02 2.92250142e-02
      2.44101033e-01 2.96831787e-01 2.93906659e-01 2.58791875e-02
      6.60097459e-03 6.03499450e-03 1.52133368e-02 6.69321939e-02
      7.43458420e-02 2.96831787e-01 2.38936171e-01 2.06047952e-01
      2.96831787e-01 2.96831787e-01 1.18242770e-01 9.05961394e-02
      3.45894396e-02 6.27352074e-02 2.96831787e-01 2.96831787e-01
      1.40985861e-01 3.64992432e-02 3.16492431e-02 3.29385437e-02
      3.18155549e-02 4.28571415e+00 2.94117659e-01 8.94308925e-01 0. 0.
      0. 0. 0. 0. 0. 0. 0. 0. 0. 0. 0. 0. 0. 0. 0. 5.58332279e-02
      1.94444449e-03 2.49999994e-03 1.44444508e-02 4.99999896e-03
      5.55555569e-04 1.38888892e-03 3.50000076e-02 7.86110982e-02
      1.19444476e-02 4.44444362e-03 1.41666727e-02 5.08332551e-02
      6.66666497e-03 6.27776384e-02 6.53884411e-01 1.13947280e-01
      3.44061852e-02 4.80947131e-03 6.43728301e-02 1.10987795e-03
      1.47983723e-03 5.91934985e-03 1.21346451e-01 5.17942384e-02
      2.55271792e-02 4.80947131e-03 3.21864337e-02 1.40584586e-02
      1.36884991e-02 1.88679248e-02 4.91682380e-01 4.45322879e-02
      1.08036911e-02 5.79710258e-03 2.58234572e-02 2.37154192e-03
      3.42556066e-03 3.16205597e-03 5.90250455e-02 9.01185945e-02
      1.34387380e-02 5.00658853e-03 1.23847192e-02 2.81949993e-02
      1.23847192e-02 1.84453260e-02 6.65094018e-01 4.80324298e-01
      3.36563170e-01 1.00652561e-01 5.22048660e-02 2.43227202e-02
      5.93237113e-03</_>
    <_>
      1.19999997e-01 9.95894253e-01 9.91709471e-01 9.87893999e-01
      9.83386636e-01 9.79309201e-01 9.75588322e-01 9.71475780e-01
      9.65703547e-01 9.60820675e-01 9.56789553e-01 9.50817764e-01
      9.47105348e-01 9.45340335e-01 9.43211257e-01 9.41551447e-01
      9.40766275e-01 9.40042317e-01 9.38761771e-01 9.38674033e-01
      9.39307153e-01 5.95773607e-02 9.29614380e-02 2.02351809e-01
      1.66109249e-01 2.86705971e-01 1.14636093e-01 4.84868884e-02
      3.00271343e-02 4.19982560e-02 4.18015458e-02 1.28284618e-01
      2.86705971e-01 2.86705971e-01 2.86705971e-01 1.19982004e-01
      5.05167283e-02 3.22483517e-02 3.98322307e-02 1.03673115e-01
      1.34292111e-01 2.86705971e-01 2.44653925e-01 1.92353308e-01
      1.67916700e-01 8.19540322e-02 7.07952231e-02 7.71765932e-02
      6.96946532e-02 1.25459716e-01 2.86705971e-01 2.86705971e-01
      2.77052671e-01 7.44874105e-02 4.69273403e-02 4.95253578e-02
      7.73903728e-02 1.53846157e+00 5.33333361e-01 7.09677398e-01 0. 0.
      0. 0. 0. 0. 0. 0. 0. 0. 0. 0. 0. 0. 0. 0. 0. 6.54762313e-02
      1.63690485e-02 1.19047621e-02 6.69643283e-02 4.46428591e-03
      4.46428591e-03 5.95238106e-03 6.25000373e-02 1.83035597e-01
      2.97619049e-02 5.95238106e-03 3.72023880e-02 6.54762313e-02
      1.48809524e-02 3.86904851e-02 3.86903882e-01 2.23958254e-01
      8.33333358e-02 2.08333340e-02 9.37500075e-02 5.20833349e-03
      1.04166670e-02 5.20833349e-03 7.29166642e-02 5.20833284e-02
      4.68749963e-02 1.56250000e-02 4.16666642e-02 1.04166670e-02
      3.12500000e-02 4.68749963e-02 2.39583239e-01 1.96363509e-01
      5.09090908e-02 3.63636366e-03 8.72727036e-02 0. 7.27272732e-03 0.
      1.01818144e-01 1.01818144e-01 3.27272713e-02 7.27272732e-03
      1.81818176e-02 7.27272732e-03 7.27272732e-03 2.18181815e-02
      3.56363356e-01 8.82521510e-01 1.10315189e-01 7.16332393e-03 0. 0.
      0.</_>
    <_>
      1.67205408e-01 9.97556150e-01 9.92256403e-01 9.84772563e-01
      9.75387335e-01 9.65049148e-01 9.54328716e-01 9.43386257e-01
      9.31946218e-01 9.19988751e-01 9.07584071e-01 8.94959450e-01
      8.82763088e-01 8.71877611e-01 8.62298429e-01 8.54699850e-01
      8.49566221e-01 8.45823288e-01 8.43433082e-01 8.42271566e-01
      8.41931701e-01 1.14769988e-01 1.61633641e-01 1.78777933e-01
      2.41868615e-01 2.41868615e-01 2.41868615e-01 2.41868615e-01
      1.01272255e-01 8.82307366e-02 1.02138855e-01 9.50649157e-02
      2.41868615e-01 2.41868615e-01 2.41868615e-01 1.46679044e-01
      1.23672217e-01 8.54483619e-02 8.85203928e-02 4.08530533e-02
      8.56998488e-02 1.06674686e-01 1.84991136e-01 1.62277430e-01
      2.20396966e-01 2.05081224e-01 1.27090365e-01 5.73796332e-02
      7.45298564e-02 1.31151050e-01 2.41868615e-01 2.41868615e-01
      2.26745039e-01 1.37532339e-01 1.18965954e-01 9.05439854e-02
      6.24619499e-02 2.40909100e+00 2.36514524e-01 8.95522416e-01
      8.90762091e-01 1.23450167e-01 1.85950398e-02 3.09917354e-03
      3.61570194e-02 2.58264458e-03 1.54958665e-03 4.64875996e-03
      5.32025136e-02 2.10227832e-01 3.09917182e-02 5.68181742e-03
      1.96280964e-02 5.21694534e-02 1.60123985e-02 4.39049713e-02
      3.78101319e-01 8.53857622e-02 1.03213703e-02 5.62983751e-03
      2.50996761e-02 2.34576582e-04 9.38306330e-04 4.22237907e-03
      4.22238074e-02 8.25708732e-02 2.69762836e-02 2.11118953e-03
      1.45437540e-02 5.60638979e-02 1.05559472e-02 6.84964284e-02
      5.64628839e-01 1.69076607e-01 4.82160486e-02 4.17872006e-03
      4.91803698e-02 7.71455932e-03 9.64320148e-04 1.60720025e-03
      1.15075648e-01 8.67888927e-02 2.86081843e-02 1.92864030e-03
      1.18932845e-02 3.79299559e-02 8.67888052e-03 3.34297903e-02
      3.94729257e-01 1.43274561e-01 1.66666768e-02 4.38596448e-03
      2.86549963e-02 0. 2.92397657e-04 4.09356691e-03 7.22222999e-02
      1.66081026e-01 2.19298415e-02 2.04678369e-03 1.05263181e-02
      4.73684706e-02 1.43274926e-02 3.94737236e-02 4.28647786e-01
      4.10194814e-01 2.97037631e-01 1.54657066e-01 8.36669356e-02
      4.52361889e-02 9.20736603e-03</_>
    <_>
      1.60266846e-01 9.98088717e-01 9.92844582e-01 9.84322190e-01
      9.72855449e-01 9.58859742e-01 9.42787707e-01 9.25036132e-01
      9.06041801e-01 8.86265695e-01 8.66194606e-01 8.46149564e-01
      8.26731265e-01 8.08311045e-01 7.91354358e-01 7.76156783e-01
      7.63236940e-01 7.52732396e-01 7.45074689e-01 7.40379989e-01
      7.38807082e-01 9.65048894e-02 1.13309622e-01 1.13329150e-01
      2.41922259e-01 2.49599367e-01 2.49599367e-01 2.43723929e-01
      1.32953510e-01 7.85626471e-02 1.22400545e-01 1.20310389e-01
      1.56267300e-01 2.49599367e-01 2.49599367e-01 1.96754083e-01
      1.22525916e-01 1.01911522e-01 9.49305817e-02 4.23116349e-02
      7.51488209e-02 9.31255668e-02 1.26035586e-01 1.67610154e-01
      2.49599367e-01 2.49599367e-01 1.64474338e-01 5.88269569e-02
      6.35149851e-02 1.10678785e-01 2.49599367e-01 2.49599367e-01
      2.22406834e-01 1.47246942e-01 1.04162626e-01 6.61396608e-02
      4.56152000e-02 1.78947365e+00 2.06185564e-01 8.89400899e-01 0. 0.
      0. 0. 0. 0. 0. 0. 0. 0. 0. 0. 0. 0. 0. 0. 0. 8.41362402e-02
      8.15418828e-03 0. 5.55967400e-03 0. 0. 0. 1.40845077e-02
      5.15195616e-02 1.48257976e-02 3.70644941e-03 2.29799692e-02
      3.78057323e-02 7.78354378e-03 3.40992920e-02 7.15337574e-01
      1.37415141e-01 5.10203838e-02 1.08843548e-02 7.55102336e-02
      3.40136047e-03 6.80272048e-03 4.08163248e-03 1.57142907e-01
      9.86395925e-02 3.46938670e-02 6.80272048e-03 2.85714213e-02
      1.08843548e-02 1.15646273e-02 2.04081628e-02 3.42175752e-01
      1.68859333e-01 2.79605165e-02 8.22368264e-03 4.00219448e-02
      2.74122809e-03 3.83771933e-03 6.03070110e-03 1.20613895e-01
      1.47477835e-01 1.91885903e-02 7.67543726e-03 1.91885903e-02
      2.52192896e-02 9.32017341e-03 4.93421480e-02 3.44297260e-01
      5.86174428e-01 3.33207756e-01 4.99152392e-02 1.43153137e-02
      1.16782822e-02 4.70898487e-03</_>
    <_>
      1.25367641e-01 9.97425616e-01 9.91040826e-01 9.80914354e-01
      9.67409551e-01 9.51046586e-01 9.32339668e-01 9.11274374e-01
      8.88868213e-01 8.65455627e-01 8.41596901e-01 8.17759156e-01
      7.94759452e-01 7.72829473e-01 7.52753019e-01 7.34772086e-01
      7.19417632e-01 7.06812203e-01 6.97798431e-01 6.92226708e-01
      6.90271616e-01 1.00634575e-01 7.58329406e-02 3.91604379e-02
      6.81041405e-02 1.46742582e-01 2.43412405e-01 2.43412405e-01
      2.43412405e-01 1.73638448e-01 1.24373220e-01 1.43687218e-01
      1.64379641e-01 9.08733532e-02 1.41154483e-01 1.53143615e-01
      1.95559263e-01 2.15831175e-01 1.19267188e-01 1.74005717e-01
      7.44790807e-02 4.16001230e-02 8.72508138e-02 2.43412405e-01
      2.43412405e-01 2.43412405e-01 2.43412405e-01 1.84820727e-01
      2.30324954e-01 1.39787838e-01 1.31508663e-01 7.24857226e-02
      1.36602774e-01 1.03624769e-01 1.76170722e-01 1.74552947e-01
      1.72903329e-01 2.12500000e+00 2.33333334e-01 8.89999986e-01 0. 0.
      0. 0. 0. 0. 0. 0. 0. 0. 0. 0. 0. 0. 0. 0. 0. 2.02205889e-02 0.
      5.51470602e-03 3.86029482e-02 5.51470602e-03 1.83823530e-03
      3.67647060e-03 1.47058824e-02 1.48897171e-01 2.02205889e-02
      1.83823530e-03 4.96323705e-02 5.69853187e-02 7.35294120e-03
      3.67647111e-02 5.88234365e-01 4.71014418e-02 1.81159414e-02
      1.08695654e-02 6.88405707e-02 1.08695654e-02 0. 1.08695654e-02
      1.19565196e-01 8.33333209e-02 6.52173832e-02 7.24637695e-03
      6.52173832e-02 5.79710044e-02 2.89855041e-02 4.71014418e-02
      3.58695596e-01 1.60173178e-01 8.65801126e-02 0. 4.32900377e-02 0.
      0. 0. 6.92640692e-02 1.73160166e-01 3.67965326e-02 2.16450216e-03
      1.51515137e-02 6.49350649e-03 8.65800865e-03 1.08225103e-02
      3.87446404e-01 5.14598548e-01 1.66970804e-01 1.49635032e-01
      7.29926974e-02 5.56569360e-02 4.01459858e-02</_>
    <_>
      9.17234123e-02 9.98903096e-01 9.95993495e-01 9.91620779e-01
      9.86019790e-01 9.79512334e-01 9.72516418e-01 9.65460360e-01
      9.58557487e-01 9.51997995e-01 9.46118295e-01 9.41117525e-01
      9.36955571e-01 9.33713853e-01 9.31419015e-01 9.30053294e-01
      9.29424345e-01 9.29273248e-01 9.29401278e-01 9.29580569e-01
      9.29655313e-01 6.76087141e-02 1.33789619e-02 2.26431172e-02
      4.26210426e-02 2.29527652e-01 3.07170004e-01 2.58277416e-01
      1.16904728e-01 7.30297714e-02 2.15365570e-02 5.75077906e-03
      7.11445361e-02 3.07170004e-01 2.80301869e-01 1.29306421e-01
      3.93048711e-02 1.97251905e-02 1.44405924e-02 3.35835405e-02
      2.48783063e-02 5.23419231e-02 9.64050144e-02 3.07170004e-01
      3.07170004e-01 1.86830178e-01 7.51508549e-02 2.72707343e-02
      4.44911607e-02 4.36020605e-02 2.07616508e-01 3.07170004e-01
      3.07170004e-01 2.65726119e-01 8.69363472e-02 4.00205329e-02
      2.27671023e-02 4.21052647e+00 2.40121573e-01 8.96174848e-01 0. 0.
      0. 0. 0. 0. 0. 0. 0. 0. 0. 0. 0. 0. 0. 0. 0. 4.49653529e-02
      3.53825791e-03 5.01253223e-03 1.91655420e-02 2.21141102e-03
      4.42282180e-04 2.21141102e-03 3.25813703e-02 8.19693804e-02
      1.44478874e-02 5.89709682e-03 1.93129685e-02 3.92156467e-02
      7.96108041e-03 6.35413006e-02 6.57510221e-01 1.55483738e-01
      4.29031961e-02 1.93548400e-03 6.87096268e-02 1.93548400e-03
      2.58064526e-03 6.45161315e-04 1.58064380e-01 4.93548028e-02
      2.35483740e-02 1.61290332e-03 2.22580526e-02 9.99999978e-03
      8.70967843e-03 1.25806425e-02 4.39677030e-01 4.99417260e-02
      9.14634485e-03 4.79094032e-03 1.87282339e-02 3.19395959e-03
      2.90360040e-04 2.46806000e-03 5.25549352e-02 1.17015496e-01
      1.08885067e-02 2.75841984e-03 6.67828228e-03 2.74390429e-02
      5.37166093e-03 3.60046104e-02 6.52727127e-01 5.56383491e-01
      3.10382515e-01 9.00149047e-02 2.54346747e-02 1.68902129e-02
      8.94187775e-04</_>
    <_>
      1.30308747e-01 9.96985257e-01 9.89160717e-01 9.77049589e-01
      9.60879982e-01 9.41475093e-01 9.19348240e-01 8.94890487e-01
      8.68706167e-01 8.41334522e-01 8.13481092e-01 7.85564363e-01
      7.58240044e-01 7.32324243e-01 7.08421826e-01 6.87067986e-01
      6.68770492e-01 6.54225826e-01 6.43636584e-01 6.37313128e-01
      6.35247707e-01 2.35741183e-01 2.02634543e-01 1.88693404e-01
      1.18761189e-01 1.02628872e-01 1.64305001e-01 1.55428201e-01
      2.30046496e-01 2.35741183e-01 1.99072272e-01 1.99875370e-01
      2.35741183e-01 2.24494845e-01 1.57136157e-01 1.08832434e-01
      9.35164541e-02 8.41282010e-02 2.35741183e-01 2.35741183e-01
      2.32774332e-01 2.35741183e-01 1.32895291e-01 8.53051171e-02
      1.06058441e-01 7.70305246e-02 1.26217172e-01 2.35741183e-01
      6.39609993e-02 1.48384854e-01 2.35741183e-01 1.37315601e-01
      5.28555475e-02 2.85394266e-02 2.68143937e-02 3.02950293e-02
      5.37836030e-02 2.35714293e+00 1.46245062e-01 8.93617034e-01
      1.13223135e+00 1.02623403e-01 4.70678806e-02 1.08024683e-02
      7.33024329e-02 2.31481483e-03 2.31481483e-03 6.17283955e-03
      9.49073583e-02 1.01080194e-01 3.85802314e-02 9.25925933e-03
      4.01234403e-02 2.62345579e-02 1.54320952e-02 4.78394851e-02
      3.81946683e-01 7.92427436e-02 1.36746112e-02 3.50631098e-03
      1.75315551e-02 1.05189346e-03 1.40252453e-03 2.10378668e-03
      4.38289382e-02 6.13605268e-02 1.75315551e-02 3.15567991e-03
      1.61290281e-02 4.41795699e-02 5.96072990e-03 7.43338987e-02
      6.15007460e-01 1.80889815e-01 5.70912994e-02 5.40865399e-03
      5.58893792e-02 1.20192312e-03 1.80288474e-03 1.02163479e-02
      7.75240362e-02 1.05168372e-01 3.60576957e-02 7.21153850e-03
      1.68269295e-02 3.06490548e-02 9.61538590e-03 4.20672968e-02
      3.62380892e-01 1.93842635e-01 3.55940387e-02 5.29100560e-03
      2.50120163e-02 4.81000490e-04 4.81000490e-04 3.84800369e-03
      1.08225346e-01 2.28955239e-01 3.31890285e-02 5.77200623e-03
      1.20250108e-02 3.31890285e-02 1.39490115e-02 1.58730131e-02
      2.84270674e-01 4.71662372e-01 2.53574491e-01 1.31093889e-01
      8.63049105e-02 4.82342802e-02 9.13006067e-03</_>
    <_>
      1.64214581e-01 9.97980595e-01 9.92961228e-01 9.85152423e-01
      9.74770248e-01 9.62297678e-01 9.48013961e-01 9.32238460e-01
      9.15255487e-01 8.97548437e-01 8.79437864e-01 8.61437857e-01
      8.44000518e-01 8.27679873e-01 8.12624991e-01 7.99325407e-01
      7.88113177e-01 7.79306829e-01 7.72837758e-01 7.68803418e-01
      7.67526925e-01 1.26284987e-01 6.58644661e-02 1.08044848e-01
      7.21879825e-02 6.38171509e-02 9.35334787e-02 1.54387206e-01
      2.40242660e-01 2.42653131e-01 1.06557988e-01 1.06555656e-01
      2.00443447e-01 2.42653131e-01 1.78421348e-01 8.86654407e-02
      1.02018133e-01 1.12880245e-01 1.23192459e-01 2.42653131e-01
      2.02797234e-01 2.42653131e-01 1.93667591e-01 1.08103685e-01
      1.34469569e-01 2.39020899e-01 2.42653131e-01 2.42653131e-01
      1.17496535e-01 1.99873880e-01 2.42653131e-01 2.42653131e-01
      1.07403636e-01 7.59260431e-02 6.70851693e-02 6.37633502e-02
      9.44661796e-02 1.87500000e+00 2.24999994e-01 8.93258452e-01 0. 0.
      0. 0. 0. 0. 0. 0. 0. 0. 0. 0. 0. 0. 0. 0. 0. 4.38871235e-02
      1.56739808e-03 2.61233002e-03 8.35945550e-03 1.56739808e-03
      1.56739808e-03 1.56739808e-03 5.74712548e-03 4.96342331e-02
      1.20167201e-02 2.61233002e-03 1.04493210e-02 2.97805760e-02
      4.17972775e-03 5.22465557e-02 7.72218168e-01 1.31249964e-01
      4.46428843e-02 5.35714300e-03 6.69643357e-02 0. 8.92857183e-03
      1.78571437e-02 5.80357686e-02 8.66071507e-02 4.19643074e-02
      6.25000009e-03 1.69642866e-02 3.12500000e-02 9.82142892e-03
      4.37500253e-02 4.30355936e-01 6.32478669e-02 5.04273511e-02
      1.02564106e-02 6.41025677e-02 2.56410264e-03 1.70940172e-03
      6.83760690e-03 8.37606862e-02 2.23076925e-01 3.33333351e-02
      6.83760690e-03 4.10256423e-02 2.47863252e-02 8.54700897e-03
      2.13675220e-02 3.58119667e-01 7.99332023e-01 1.82855546e-01
      1.47509044e-02 3.06150853e-03 0. 0.</_>
    <_>
      9.78246629e-02 9.99026239e-01 9.96663272e-01 9.93285716e-01
      9.88903105e-01 9.83482361e-01 9.77107644e-01 9.69994009e-01
      9.62375581e-01 9.54670668e-01 9.47142720e-01 9.39799845e-01
      9.32611048e-01 9.25871730e-01 9.19817209e-01 9.14638638e-01
      9.10426140e-01 9.07119393e-01 9.04596269e-01 9.02882457e-01
      9.02282715e-01 1.80608287e-01 1.99612767e-01 2.48141930e-01
      2.48141930e-01 2.48141930e-01 2.48141930e-01 6.44868761e-02
      7.89854005e-02 1.43514201e-01 1.30287737e-01 1.91428214e-01
      2.48141930e-01 2.48141930e-01 2.48141930e-01 1.04761861e-01
      5.08989878e-02 6.14408068e-02 9.94173884e-02 8.05891529e-02
      1.49313122e-01 2.48141930e-01 2.48141930e-01 2.36586913e-01
      7.87209496e-02 4.73549403e-02 4.74926904e-02 5.51726632e-02
      5.11142574e-02 1.12349965e-01 2.48141930e-01 2.48141930e-01
      1.39809564e-01 2.56118439e-02 1.58005022e-02 2.03187745e-02
      3.60170230e-02 7.61111116e+00 2.62042403e-01 8.97746980e-01
      2.30705547e+00 7.88238198e-02 7.29705691e-02 9.04006511e-03
      5.52157089e-02 1.95109271e-04 3.90218513e-04 1.04058266e-03
      6.04185984e-02 5.59311062e-02 1.74947605e-02 1.17065560e-03
      1.50884241e-02 2.66648531e-02 4.55254968e-03 4.74113747e-02
      5.53567052e-01 2.07612049e-02 1.95029820e-03 6.92041591e-04
      5.41050406e-03 2.32777582e-03 1.76155975e-03 1.06951874e-03
      1.23309018e-02 2.62346100e-02 4.90720244e-03 6.92041591e-04
      6.03963109e-03 1.27712907e-02 2.26486288e-03 2.68008243e-02
      8.74160469e-01 1.18563011e-01 9.49026123e-02 4.05228836e-03
      5.22877537e-02 8.88888910e-03 2.48366012e-03 2.48366012e-03
      6.58826753e-02 7.37259015e-02 2.83659566e-02 3.66013148e-03
      1.80391893e-02 2.94117052e-02 6.53595012e-03 4.10457961e-02
      4.49659377e-01 4.63156700e-02 3.55032384e-02 4.08821600e-03
      5.23943007e-02 2.68961827e-04 1.61377087e-04 1.93652546e-03
      4.54011858e-02 1.08285427e-01 2.02797670e-02 3.17374757e-03
      1.65680367e-02 4.82522249e-02 9.19848122e-03 8.64453912e-02
      5.21727860e-01 8.20648253e-01 1.37631163e-01 2.50107814e-02
      1.06727034e-02 5.71366958e-03 3.23415268e-04</_>
    <_>
      5.19790165e-02 9.96667325e-01 9.90884840e-01 9.84060884e-01
      9.74876583e-01 9.64267850e-01 9.53907430e-01 9.43597496e-01
      9.34735656e-01 9.27342415e-01 9.21371877e-01 9.18159544e-01
      9.16718721e-01 9.16143537e-01 9.17419493e-01 9.20686841e-01
      9.25324857e-01 9.29791033e-01 9.32862699e-01 9.35296595e-01
      9.36543882e-01 8.72235820e-02 9.47087631e-02 1.96955234e-01
      2.76951045e-01 2.76951045e-01 2.76951045e-01 2.25051939e-01
      1.02952808e-01 5.10103852e-02 4.31960188e-02 6.74842745e-02
      1.24440290e-01 2.35303074e-01 2.76951045e-01 1.98627859e-01
      1.10762097e-01 6.45628422e-02 4.35741507e-02 5.80542274e-02
      5.58742434e-02 1.09318495e-01 2.52097189e-01 2.76951045e-01
      2.76951045e-01 1.52938053e-01 6.04081638e-02 4.98714671e-02
      3.44922319e-02 2.65872460e-02 5.49021326e-02 1.40823409e-01
      2.76951045e-01 2.19727531e-01 1.24220036e-01 6.73307851e-02
      3.91281694e-02 2.79999995e+00 2.72727281e-01 8.75000000e-01 0. 0.
      0. 0. 0. 0. 0. 0. 0. 0. 0. 0. 0. 0. 0. 0. 0. 3.16205584e-02
      9.88142379e-03 1.18577089e-02 5.53359799e-02 3.95256933e-03
      3.95256933e-03 3.95256933e-03 3.75494137e-02 5.92885502e-02
      1.97628494e-02 1.38339940e-02 4.74308394e-02 4.34782691e-02
      1.97628494e-02 5.53359799e-02 5.83004355e-01 3.15789521e-01
      5.26315756e-02 0. 6.31578937e-02 0. 5.26315812e-03 5.26315812e-03
      1.10526308e-01 4.21052612e-02 1.05263162e-02 0. 2.10526325e-02
      1.57894753e-02 1.05263162e-02 5.26315756e-02 2.94736922e-01
      3.85714173e-02 2.14285683e-02 9.99999978e-03 4.42856997e-02
      7.14285718e-03 4.28571412e-03 4.28571412e-03 5.28571233e-02
      1.42857283e-01 4.28571291e-02 8.57142825e-03 3.42857055e-02
      8.42857361e-02 1.99999977e-02 6.28571212e-02 4.21429276e-01
      8.83877158e-01 9.11708251e-02 1.82341654e-02 6.71785045e-03 0. 0.</_>
    <_>
      1.88916162e-01 9.97796476e-01 9.93376255e-01 9.87442195e-01
      9.80657935e-01 9.73570228e-01 9.66072321e-01 9.57840204e-01
      9.49334562e-01 9.40642059e-01 9.31895733e-01 9.22979653e-01
      9.14498925e-01 9.06092942e-01 8.98202538e-01 8.91080201e-01
      8.84211004e-01 8.77531648e-01 8.72015059e-01 8.68003428e-01
      8.66401374e-01 6.76100329e-02 7.92687237e-02 1.17278092e-01
      1.75833583e-01 2.46124014e-01 2.46124014e-01 1.19715020e-01
      4.22743708e-02 3.47438641e-02 8.67845044e-02 1.02169700e-01
      1.81941763e-01 2.46124014e-01 2.46124014e-01 2.18859687e-01
      1.50936797e-01 6.21057414e-02 4.91932780e-02 4.27346043e-02
      2.46124014e-01 2.46124014e-01 2.06389084e-01 2.46124014e-01
      2.46124014e-01 8.92275572e-02 3.41501087e-02 2.78513301e-02
      6.32311031e-02 1.58878744e-01 2.46124014e-01 2.46124014e-01
      2.46124014e-01 1.77828103e-01 9.44915786e-02 6.09433539e-02
      4.97650951e-02 4.25000000e+00 2.94117659e-01 8.89473677e-01 0. 0.
      0. 0. 0. 0. 0. 0. 0. 0. 0. 0. 0. 0. 0. 0. 0. 1.17831260e-01
      1.47849433e-02 5.82437171e-03 1.88172068e-02 2.68817181e-03
      4.48028673e-04 3.13620036e-03 3.53942961e-02 1.14695080e-01
      2.86738556e-02 3.13620036e-03 1.56810004e-02 3.27061191e-02
      1.03046577e-02 3.85305025e-02 5.57345271e-01 1.11968949e-01
      8.88029784e-02 7.72200758e-03 7.59329945e-02 1.93050201e-03
      4.50450461e-03 5.79150580e-03 1.20977938e-01 9.52379704e-02
      3.53925414e-02 5.79150580e-03 3.41055430e-02 4.95495237e-02
      1.28700156e-02 4.37580310e-02 3.05663019e-01 1.17180206e-01
      1.40056023e-02 8.40336177e-03 2.80112047e-02 9.33706819e-04
      9.33706819e-04 5.13538765e-03 5.36881424e-02 1.77404299e-01
      1.58730168e-02 2.80112051e-03 1.58730168e-02 4.71521951e-02
      1.16713354e-02 4.57516350e-02 4.55182076e-01 4.88459468e-01
      1.70424044e-01 1.51100382e-01 1.11647882e-01 6.30703196e-02
      1.52979065e-02</_>
    <_>
      1.46863684e-01 9.97967005e-01 9.92713928e-01 9.84254479e-01
      9.72939432e-01 9.59215641e-01 9.43640828e-01 9.26330686e-01
      9.07884419e-01 8.88742507e-01 8.69203150e-01 8.49825799e-01
      8.31058323e-01 8.13314021e-01 7.97000289e-01 7.82694638e-01
      7.70542920e-01 7.61011839e-01 7.54014313e-01 7.49863625e-01
      7.48464167e-01 7.62494355e-02 9.93797109e-02 7.45357871e-02
      6.46182969e-02 2.47481152e-01 2.47481152e-01 2.47481152e-01
      1.32210523e-01 5.25485612e-02 1.66437417e-01 2.47481152e-01
      2.47481152e-01 1.72182694e-01 1.23741560e-01 1.30879104e-01
      1.24820985e-01 1.15794718e-01 7.28837699e-02 5.99124357e-02
      1.09660976e-01 7.39186257e-02 9.81986523e-02 2.36273110e-01
      2.47481152e-01 2.47481152e-01 1.23518117e-01 5.21502756e-02
      9.64267850e-02 2.11715907e-01 2.47481152e-01 2.47481152e-01
      2.02442870e-01 2.07810879e-01 1.45644531e-01 9.34834778e-02
      6.15344793e-02 1.82352936e+00 2.12643683e-01 8.91752601e-01 0. 0.
      0. 0. 0. 0. 0. 0. 0. 0. 0. 0. 0. 0. 0. 0. 0. 5.32212891e-02
      3.73482727e-03 2.33426713e-03 2.66106445e-02 1.40056026e-03
      4.66853427e-03 2.80112051e-03 1.77404303e-02 7.18954280e-02
      9.33706854e-03 2.80112051e-03 2.61437912e-02 2.66106445e-02
      9.80392192e-03 4.66853417e-02 6.94223404e-01 1.17554739e-01
      5.56426644e-02 8.62068869e-03 7.21003264e-02 1.56739808e-03
      3.91849503e-03 3.91849503e-03 1.16771042e-01 8.62068683e-02
      3.21316496e-02 5.48589323e-03 3.52664515e-02 3.52664515e-02
      1.25391819e-02 3.76175530e-02 3.75393361e-01 2.04902232e-01
      6.34820312e-02 8.79949797e-03 6.59961849e-02 1.88560656e-03
      6.28535519e-04 1.25707104e-03 8.48523378e-02 1.58390939e-01
      3.89691740e-02 1.88560656e-03 1.25707118e-02 3.45694311e-02
      1.38277831e-02 3.07982229e-02 2.77183294e-01 6.57416046e-01
      2.94309705e-01 2.98507456e-02 9.56156757e-03 6.52985089e-03
      2.33208947e-03</_>
    <_>
      1.26596257e-01 9.96562481e-01 9.88485277e-01 9.76339757e-01
      9.60913002e-01 9.42570925e-01 9.21662807e-01 8.98358226e-01
      8.73308420e-01 8.47132146e-01 8.20677280e-01 7.94565678e-01
      7.69219816e-01 7.45181561e-01 7.22810447e-01 7.02318132e-01
      6.84846461e-01 6.71055555e-01 6.61330819e-01 6.55514657e-01
      6.53772414e-01 3.82404476e-02 3.14440839e-02 4.86295670e-02
      6.63741082e-02 1.98864028e-01 2.31502578e-01 8.69986862e-02
      4.83519845e-02 3.42388526e-02 9.19833779e-02 1.03654444e-01
      1.50581867e-01 1.50027454e-01 2.31502578e-01 2.31502578e-01
      2.29097649e-01 1.38380602e-01 1.50962085e-01 2.31502578e-01
      1.92146674e-01 1.89113095e-01 1.65040463e-01 1.48977071e-01
      8.65553617e-02 1.14058562e-01 8.35070834e-02 1.93579778e-01
      2.31502578e-01 2.28270665e-01 2.31502578e-01 1.93245456e-01
      1.98217928e-01 1.78446084e-01 1.82750702e-01 1.51079983e-01
      2.31502578e-01 2.09375000e+00 2.18818381e-01 8.70229006e-01
      2.47524619e-01 5.96886203e-02 3.02768070e-02 6.05536345e-03
      5.62284067e-02 6.92041544e-03 4.32525948e-03 9.51557048e-03
      7.87197277e-02 1.46193787e-01 1.47058796e-02 6.92041544e-03
      2.16262918e-02 1.11591615e-01 1.38408281e-02 9.51556712e-02
      3.38234931e-01 8.04114044e-02 2.06489302e-02 3.93313449e-03
      4.05332148e-02 8.74030346e-04 8.74030346e-04 7.64776766e-03
      1.01934701e-01 1.55579060e-01 1.45307360e-02 3.60537344e-03
      1.03791049e-02 4.91643846e-02 9.17731691e-03 6.06361926e-02
      4.40079898e-01 9.45955068e-02 3.61927599e-02 2.11515836e-03
      4.62986678e-02 5.87544055e-04 2.70270184e-03 1.88014098e-03
      9.16577429e-02 9.55355912e-02 1.77438147e-02 3.52526270e-03
      1.05757844e-02 3.18448693e-02 5.99294528e-03 3.51351649e-02
      5.23620546e-01 1.30627990e-01 3.63560431e-02 4.01606644e-03
      4.47052754e-02 5.28429518e-04 5.28429518e-04 1.90234627e-03
      1.21962093e-01 1.42886758e-01 1.65926721e-02 9.51173133e-04
      1.08856438e-02 3.48764323e-02 7.92644825e-03 3.03319152e-02
      4.14904594e-01 6.44004941e-01 2.70251334e-01 5.69015257e-02
      2.03131437e-02 7.95220397e-03 5.76843857e-04</_>
    <_>
      1.72277644e-01 9.98433828e-01 9.94659662e-01 9.89560544e-01
      9.83704805e-01 9.77563083e-01 9.71590221e-01 9.65977311e-01
      9.60772395e-01 9.55931723e-01 9.51002836e-01 9.45505083e-01
      9.39483583e-01 9.33225036e-01 9.26806927e-01 9.20394719e-01
      9.14582908e-01 9.09887850e-01 9.06551123e-01 9.04704571e-01
      9.04175818e-01 2.15920079e-02 1.44761028e-02 7.37206936e-02
      1.57603979e-01 2.74950355e-01 2.74950355e-01 3.38960700e-02
      2.42216326e-02 1.90061927e-02 4.01180983e-02 3.26302275e-02
      1.64807990e-01 2.74950355e-01 2.74950355e-01 1.25260994e-01
      3.87762785e-02 3.65565270e-02 3.17910649e-02 6.31422848e-02
      2.60746896e-01 2.74950355e-01 2.12393403e-01 2.74950355e-01
      2.74950355e-01 5.10321595e-02 3.41793932e-02 3.45652178e-02
      5.35239317e-02 1.74092844e-01 2.74950355e-01 2.74950355e-01
      2.54505157e-01 8.69717523e-02 4.49065194e-02 4.86934148e-02
      4.99810800e-02 4. 2.96551734e-01 7.20000029e-01 0. 0. 0. 0. 0. 0.
      0. 0. 0. 0. 0. 0. 0. 0. 0. 0. 0. 1.03154801e-01 1.02800447e-02
      4.96277912e-03 1.66607667e-02 2.83587375e-03 7.08968437e-04
      3.89932632e-03 4.28925641e-02 8.54306147e-02 1.98511202e-02
      2.12690537e-03 2.76497621e-02 3.72208245e-02 9.21659078e-03
      4.96277548e-02 5.83487272e-01 1.27534002e-01 7.51689449e-02
      5.06756781e-03 9.12163034e-02 3.37837846e-03 4.22297325e-03
      3.37837846e-03 1.43581361e-01 9.29054990e-02 2.61824299e-02
      6.75675692e-03 4.89864722e-02 2.44932417e-02 1.18243266e-02
      2.19594594e-02 3.13345522e-01 1.55555084e-01 1.17283966e-02
      1.85185194e-03 1.41975340e-02 6.17283978e-04 0. 2.46913591e-03
      9.13579017e-02 2.24073231e-01 1.35802496e-02 3.08641978e-03
      1.11111123e-02 3.64197679e-02 8.02469067e-03 4.56790328e-02
      3.80248368e-01 3.83865714e-01 2.29832157e-01 1.67298317e-01
      1.31293997e-01 7.36329183e-02 1.40768811e-02</_>
    <_>
      1.78689525e-01 9.98390973e-01 9.94001985e-01 9.87029135e-01
      9.77876842e-01 9.66784418e-01 9.54143167e-01 9.40363586e-01
      9.25731838e-01 9.10620213e-01 8.95369947e-01 8.80308747e-01
      8.65734994e-01 8.51972520e-01 8.39385808e-01 8.28232288e-01
      8.18806946e-01 8.11322331e-01 8.05852711e-01 8.02518606e-01
      8.01325440e-01 7.93174356e-02 7.31618926e-02 1.48909360e-01
      1.06416442e-01 2.47707561e-01 2.47707561e-01 2.30712786e-01
      1.14912048e-01 1.19245000e-01 5.63413426e-02 4.95751500e-02
      1.63635075e-01 2.47707561e-01 2.42495701e-01 6.69346228e-02
      6.58098385e-02 5.34947328e-02 7.13021606e-02 1.32383034e-01
      1.27860904e-01 1.79433465e-01 1.29686713e-01 2.42671683e-01
      2.47707561e-01 2.47707561e-01 1.78058639e-01 2.03360915e-01
      1.11619189e-01 1.19294301e-01 2.47707561e-01 2.47707561e-01
      1.88543409e-01 1.37458265e-01 1.27920046e-01 9.36019942e-02
      1.14672534e-01 4.68421030e+00 2.20379144e-01 8.82599592e-01
      8.63091350e-02 6.59722462e-02 4.68750149e-02 1.56250000e-02
      9.54861492e-02 1.73611112e-03 0. 1.04166670e-02 1.38888881e-01
      5.90277985e-02 1.90972239e-02 1.38888890e-02 6.42361343e-02
      5.90277985e-02 1.90972239e-02 7.63889179e-02 3.14235449e-01
      5.64450100e-02 5.95702790e-03 1.85546908e-03 1.31836087e-02 0.
      9.76562515e-05 4.88281250e-04 2.05078553e-02 5.40036410e-02
      1.26953255e-02 4.98046633e-03 1.87500361e-02 2.22656745e-02
      9.37500037e-03 4.58982959e-02 7.33460605e-01 1.12969235e-01
      2.44805720e-02 2.74659623e-03 4.62146290e-02 0. 0. 8.35920742e-04
      1.05684742e-01 4.93194945e-02 1.56436469e-02 1.43300684e-03
      1.98232736e-02 1.25388056e-02 7.64270918e-03 1.95844378e-02
      5.81067145e-01 4.42754440e-02 1.14488238e-02 4.86322306e-03
      3.18134874e-02 4.76190588e-03 1.82370772e-03 5.26849180e-03
      8.16620216e-02 1.23102084e-01 1.75278280e-02 3.44478246e-03
      1.39817419e-02 2.87739839e-02 9.82775632e-03 3.37385051e-02
      5.83720148e-01 6.70791924e-01 2.53022999e-01 5.44422381e-02
      1.58955436e-02 4.71189339e-03 1.13539596e-03</_>
    <_>
      1.43339336e-01 9.98901784e-01 9.97454524e-01 9.95588660e-01
      9.93371844e-01 9.91035819e-01 9.88363147e-01 9.85443294e-01
      9.82764065e-01 9.79948282e-01 9.77144659e-01 9.74714935e-01
      9.72339988e-01 9.70128357e-01 9.68371451e-01 9.67116773e-01
      9.66421902e-01 9.66097593e-01 9.65790033e-01 9.65492487e-01
      9.65394735e-01 1.15507029e-01 1.67896315e-01 1.57177657e-01
      7.79781193e-02 1.01804748e-01 1.09875843e-01 1.25306562e-01
      9.92613584e-02 9.86700505e-02 1.38134584e-01 1.60989523e-01
      1.93010136e-01 1.93767220e-01 1.63331270e-01 9.82879922e-02
      1.01191759e-01 1.08193450e-01 1.33276120e-01 1.87146306e-01
      2.28419259e-01 2.28419259e-01 1.22726090e-01 1.52935848e-01
      1.47452429e-01 2.28419259e-01 2.28419259e-01 1.72368839e-01
      2.04312965e-01 2.28419259e-01 2.28419259e-01 2.28419259e-01
      1.86805382e-01 1.03130214e-01 1.61248073e-01 2.02363700e-01
      1.65670186e-01 2.20000005e+00 4.84210521e-01 8.79069746e-01
      1.19844115e+00 7.44169727e-02 5.79560734e-02 1.13168685e-02
      1.08024634e-01 2.05761311e-03 1.71467767e-03 2.74348422e-03
      1.04595281e-01 2.36625411e-02 1.68038346e-02 4.80109686e-03
      1.88614465e-02 2.36625411e-02 9.60219186e-03 5.82990088e-02
      4.81481224e-01 3.80208381e-02 5.72916679e-03 2.43055564e-03
      2.62153260e-02 1.73611112e-03 1.04166672e-03 1.04166672e-03
      2.03125328e-02 5.86803928e-02 2.25694831e-02 3.64583335e-03
      2.06597559e-02 3.83680575e-02 1.04166735e-02 6.26734197e-02
      6.86460972e-01 1.00259744e-01 5.87281808e-02 1.07073281e-02
      9.76640210e-02 1.29785854e-03 1.29785854e-03 1.62232318e-03
      1.00259744e-01 3.66645381e-02 1.71966199e-02 4.54250444e-03
      2.01168079e-02 2.53082532e-02 1.07073281e-02 5.61324582e-02
      4.57488447e-01 9.79613140e-02 2.70389803e-02 3.98936216e-03
      5.20834066e-02 1.10815605e-03 4.43262397e-04 4.21099318e-03
      9.08690766e-02 1.02393962e-01 1.26329819e-02 3.10283736e-03
      9.30850953e-03 5.45213632e-02 6.64893445e-03 7.77927637e-02
      4.55900371e-01 7.90165484e-01 1.55028746e-01 2.44102813e-02
      1.30266398e-02 1.27919260e-02 4.57692752e-03</_>
    <_>
      1.81121662e-01 9.95011687e-01 9.85985577e-01 9.73902702e-01
      9.59745586e-01 9.43594277e-01 9.25700366e-01 9.06901360e-01
      8.87268066e-01 8.67629826e-01 8.47990155e-01 8.28309059e-01
      8.07652473e-01 7.86711633e-01 7.67329752e-01 7.49786556e-01
      7.34379828e-01 7.21368670e-01 7.10764885e-01 7.03882992e-01
      7.01435328e-01 9.41102952e-02 1.49648294e-01 1.89533874e-01
      2.14853376e-01 2.52416611e-01 2.52416611e-01 1.47925243e-01
      1.26130745e-01 8.27360302e-02 1.25687107e-01 2.15180099e-01
      2.52416611e-01 2.52416611e-01 2.48536721e-01 1.47494912e-01
      1.42783031e-01 1.68429852e-01 1.46424159e-01 6.32087588e-02
      2.52416611e-01 2.52416611e-01 1.81029275e-01 1.29803851e-01
      1.09466739e-01 8.13187063e-02 6.39280304e-02 4.75532226e-02
      4.50257026e-02 2.25758240e-01 2.52416611e-01 1.87570661e-01
      5.75992540e-02 4.35462035e-02 4.96165417e-02 4.70888801e-02
      3.24913040e-02 1.88235295e+00 1.55172408e-01 8.95348847e-01 0. 0.
      0. 0. 0. 0. 0. 0. 0. 0. 0. 0. 0. 0. 0. 0. 0. 6.40756339e-02
      1.19047621e-02 4.20168089e-03 1.54061625e-02 1.05042022e-03
      1.40056026e-03 2.10084044e-03 3.57142873e-02 7.17787147e-02
      2.24089641e-02 2.45098048e-03 2.31092442e-02 3.18627469e-02
      1.26050422e-02 6.51260540e-02 6.34803236e-01 1.82471246e-01
      5.50766140e-02 1.00574698e-02 4.69348542e-02 4.31034481e-03
      1.43678160e-03 2.87356321e-03 7.80652314e-02 6.99234083e-02
      2.92145517e-02 4.31034481e-03 1.91570837e-02 2.20306460e-02
      8.14176165e-03 3.68773863e-02 4.29116756e-01 1.55388802e-01
      2.60651484e-02 6.51629083e-03 5.16290367e-02 5.01253130e-03
      3.00751883e-03 3.00751883e-03 7.86966830e-02 1.68421566e-01
      2.20551267e-02 4.01002495e-03 1.35338297e-02 4.86215204e-02
      1.10275662e-02 4.16039824e-02 3.61403406e-01 4.70406502e-01
      3.28943104e-01 1.17560975e-01 5.20325191e-02 2.91056912e-02
      1.95121951e-03</_>
    <_>
      1.32068008e-01 9.96232927e-01 9.90015626e-01 9.81002927e-01
      9.69763696e-01 9.56235349e-01 9.41235840e-01 9.23855424e-01
      9.05251265e-01 8.85844707e-01 8.66815150e-01 8.47932458e-01
      8.29297245e-01 8.11789334e-01 7.95691252e-01 7.81414092e-01
      7.69075334e-01 7.59444892e-01 7.51635492e-01 7.47140586e-01
      7.46081293e-01 1.22088820e-01 8.42682496e-02 1.04866862e-01
      1.53844804e-01 1.92926377e-01 1.75457373e-01 1.42609164e-01
      1.30935937e-01 1.55409813e-01 1.49157509e-01 1.59914374e-01
      2.08311588e-01 2.28299543e-01 2.28299543e-01 1.35435358e-01
      8.06518942e-02 1.04541846e-01 1.31219953e-01 1.35413647e-01
      8.80628154e-02 1.02311268e-01 1.21847011e-01 1.94815591e-01
      2.28299543e-01 2.28299543e-01 1.80668250e-01 1.49454519e-01
      1.78852558e-01 2.28299543e-01 2.28299543e-01 2.28299543e-01
      2.28299543e-01 1.45447701e-01 1.12222858e-01 1.24656864e-01
      1.56901121e-01 1.84615386e+00 2.67857134e-01 8.74015749e-01 0. 0.
      0. 0. 0. 0. 0. 0. 0. 0. 0. 0. 0. 0. 0. 0. 0. 1.64609049e-02
      9.60219465e-03 8.23045243e-03 3.42935435e-02 4.11522621e-03
      8.23045243e-03 4.11522621e-03 2.74348352e-02 1.41289368e-01
      1.92043874e-02 9.60219465e-03 4.25239913e-02 1.65980712e-01
      2.74348352e-02 9.46501642e-02 3.86831075e-01 1.33928671e-01
      2.67857146e-02 8.92857183e-03 5.17857149e-02 5.35714300e-03
      1.78571430e-03 7.14285718e-03 6.42857179e-02 9.28572044e-02
      3.39285731e-02 7.14285718e-03 2.32142862e-02 2.67857146e-02
      1.42857144e-02 1.07142860e-02 4.91072774e-01 1.67305127e-01
      5.10855466e-02 1.14942538e-02 4.98084091e-02 1.02171144e-02
      3.83141753e-03 8.93997494e-03 1.08556874e-01 1.20051146e-01
      1.14942538e-02 1.27713918e-03 1.27713932e-02 5.23626842e-02
      1.91570893e-02 6.00255094e-02 3.11621964e-01 6.71225369e-01
      1.83260396e-01 5.25164120e-02 4.15754914e-02 3.66520770e-02
      1.47702405e-02</_>
    <_>
      1.22217961e-01 9.98895645e-01 9.95956838e-01 9.91275132e-01
      9.84920323e-01 9.77212310e-01 9.68446076e-01 9.58890319e-01
      9.48888361e-01 9.38647985e-01 9.28558648e-01 9.18840945e-01
      9.09657896e-01 9.01247084e-01 8.93867612e-01 8.87459278e-01
      8.82157743e-01 8.77998233e-01 8.75069618e-01 8.73290062e-01
      8.72674346e-01 4.80109267e-02 5.17871976e-02 1.15932815e-01
      2.02209324e-01 2.69972891e-01 2.69972891e-01 2.26592243e-01
      9.00341347e-02 8.41098949e-02 5.62924705e-02 1.10528655e-01
      2.69972891e-01 2.69972891e-01 2.69972891e-01 2.22365439e-01
      1.35348111e-01 6.44310117e-02 6.41369522e-02 2.86789164e-02
      5.45946062e-02 1.29051968e-01 1.31041273e-01 2.46854216e-01
      2.69972891e-01 1.68295845e-01 1.06405295e-01 5.16830236e-02
      4.90946285e-02 1.32465988e-01 2.69972891e-01 2.69972891e-01
      1.21829651e-01 8.49913210e-02 7.46923834e-02 6.36139661e-02
      6.65632412e-02 5.77777767e+00 2.13389128e-01 8.94736826e-01 0. 0.
      0. 0. 0. 0. 0. 0. 0. 0. 0. 0. 0. 0. 0. 0. 0. 4.15785499e-02
      7.04721606e-04 2.46652565e-03 6.69485517e-03 1.40944321e-03
      3.52360803e-04 2.11416488e-03 1.55038843e-02 4.61592339e-02
      4.58069053e-03 2.81888642e-03 1.47991618e-02 2.07892898e-02
      5.99013362e-03 3.55884247e-02 7.98464775e-01 2.04374835e-01
      5.87499626e-02 3.12499981e-03 6.68749586e-02 0. 1.24999997e-03
      1.24999997e-03 1.27499908e-01 4.87499721e-02 1.56250019e-02
      6.24999986e-04 1.93749983e-02 7.49999890e-03 2.49999994e-03
      8.74999911e-03 4.33753997e-01 6.75924122e-02 8.64197779e-03
      3.08641954e-03 1.63580310e-02 9.25925968e-04 6.17283978e-04
      1.85185182e-03 4.99999151e-02 2.06482515e-01 1.63580310e-02
      4.01234534e-03 1.01851886e-02 5.21603972e-02 9.56790429e-03
      4.53703105e-02 5.06784379e-01 8.38171244e-01 1.32075474e-01
      2.21335273e-02 6.89404923e-03 7.25689402e-04 0.</_>
    <_>
      1.61621004e-01 9.97117758e-01 9.89398420e-01 9.77464557e-01
      9.61873353e-01 9.43057179e-01 9.21466172e-01 8.97633135e-01
      8.72357488e-01 8.46210122e-01 8.19789410e-01 7.93639064e-01
      7.68024027e-01 7.43643463e-01 7.21317470e-01 7.01550424e-01
      6.84912622e-01 6.71739101e-01 6.61904693e-01 6.55769110e-01
      6.53600276e-01 2.21089870e-01 2.21089870e-01 2.21089870e-01
      1.59106866e-01 1.30306602e-01 7.08784908e-02 6.45658746e-02
      1.64533213e-01 2.21089870e-01 1.80044740e-01 2.03138545e-01
      2.21089870e-01 2.21089870e-01 2.21089870e-01 8.32826570e-02
      4.38927449e-02 9.23994556e-02 1.20371312e-01 1.82675779e-01
      2.21089870e-01 2.21089870e-01 1.60019621e-01 1.72565714e-01
      1.00361101e-01 8.50705281e-02 9.28502083e-02 1.43298581e-01
      1.51137277e-01 2.21089870e-01 2.21089870e-01 2.21089870e-01
      2.08284169e-01 8.92149359e-02 6.43474981e-02 7.00137541e-02
      9.29780677e-02 2.66666675e+00 2.01058194e-01 8.31858397e-01 0. 0.
      0. 0. 0. 0. 0. 0. 0. 0. 0. 0. 0. 0. 0. 0. 0. 3.62318791e-02
      3.26086991e-02 7.97101576e-03 4.49275114e-02 2.89855083e-03
      5.79710212e-03 5.07246424e-03 2.89855134e-02 7.97100440e-02
      4.20289673e-02 9.42029152e-03 4.20289673e-02 2.24637724e-02
      2.02898588e-02 3.91304232e-02 5.80434859e-01 4.11347821e-02
      5.60284182e-02 6.38297852e-03 9.07802358e-02 2.83687934e-03
      2.12765951e-03 3.54609918e-03 5.10638729e-02 7.09220544e-02
      4.04255614e-02 1.06382975e-02 4.68085483e-02 2.26950422e-02
      1.91489384e-02 5.60284182e-02 4.79428381e-01 8.12875181e-02
      3.16421203e-02 2.72776885e-03 3.98254283e-02 1.63666124e-03
      2.18221499e-03 5.45553747e-04 4.09165360e-02 1.24386273e-01
      3.98254283e-02 4.90998430e-03 2.67321374e-02 4.20076437e-02
      8.18330701e-03 4.36443053e-02 5.09549141e-01 9.94254947e-01
      5.74506260e-03 0. 0. 0. 0.</_>
    <_>
      1.26496226e-01 9.98558700e-01 9.95186269e-01 9.90385890e-01
      9.84306812e-01 9.76888239e-01 9.68725920e-01 9.59940970e-01
      9.50719118e-01 9.41173553e-01 9.31836724e-01 9.23103988e-01
      9.15167451e-01 9.07778084e-01 9.01265800e-01 8.95805240e-01
      8.91254485e-01 8.87388527e-01 8.84631038e-01 8.83018672e-01
      8.82537782e-01 8.56861994e-02 7.10128918e-02 1.05679289e-01
      1.15134902e-01 3.03883612e-01 3.03883612e-01 1.45811021e-01
      6.35093004e-02 7.16422424e-02 2.58746818e-02 3.40602212e-02
      3.03883612e-01 3.03883612e-01 2.01835349e-01 8.01544636e-02
      3.59665453e-02 9.85244010e-03 1.36419125e-02 4.29951213e-02
      5.63670136e-02 1.31612375e-01 1.39428616e-01 3.03883612e-01
      3.03883612e-01 1.67763472e-01 5.87371029e-02 5.29850125e-02
      4.38474603e-02 7.11929426e-02 3.03883612e-01 3.03883612e-01
      1.71780571e-01 1.45929411e-01 5.64191230e-02 3.61833498e-02
      4.38116230e-02 2.89473677e+00 2.54716992e-01 8.94067824e-01 0. 0.
      0. 0. 0. 0. 0. 0. 0. 0. 0. 0. 0. 0. 0. 0. 0. 3.40548344e-02
      4.47331071e-02 5.77200553e-04 5.19480463e-03 2.88600277e-04
      2.88600277e-04 0. 2.59740278e-03 5.19481562e-02 9.23520606e-03
      1.15440111e-03 1.29870074e-02 2.04906110e-02 3.17460345e-03
      4.06926796e-02 7.72594810e-01 1.72757879e-01 5.75857721e-02
      3.87596921e-03 7.14285448e-02 1.66112953e-03 1.10741972e-03
      2.76854937e-03 1.72757879e-01 3.65448482e-02 2.15946846e-02
      2.76854937e-03 2.15946846e-02 4.98338882e-03 6.09080866e-03
      9.41306725e-03 4.13064599e-01 8.95104632e-02 9.79020726e-03
      2.44755251e-03 1.01398574e-02 1.04895106e-03 6.99300726e-04
      6.99300726e-04 3.98601666e-02 1.26573220e-01 5.24475472e-03
      1.04895106e-03 5.59440488e-03 1.50349597e-02 3.84615408e-03
      1.99300628e-02 6.68521821e-01 5.54532588e-01 3.03470254e-01
      1.00743629e-01 2.69121807e-02 1.23937679e-02 1.94759201e-03</_>
    <_>
      9.71638635e-02 9.98250186e-01 9.94513631e-01 9.89040971e-01
      9.82126653e-01 9.74134922e-01 9.64884818e-01 9.54444349e-01
      9.43619251e-01 9.32747483e-01 9.21958447e-01 9.11665618e-01
      9.02060986e-01 8.93352032e-01 8.85559559e-01 8.78687084e-01
      8.72920454e-01 8.68456900e-01 8.65770578e-01 8.64599168e-01
      8.64130199e-01 8.91475901e-02 8.35474357e-02 1.20536387e-01
      1.36791751e-01 2.62662262e-01 2.66265601e-01 2.16884017e-01
      1.42316073e-01 1.03289634e-01 1.02438301e-01 1.71334729e-01
      2.66265601e-01 2.66265601e-01 2.33208612e-01 6.34469688e-02
      5.58836274e-02 6.78986609e-02 6.55109659e-02 9.58784893e-02
      1.09491087e-01 1.61647081e-01 1.90351233e-01 2.32668340e-01
      2.66265601e-01 1.99566200e-01 1.11049555e-01 8.33562091e-02
      9.33138430e-02 1.63238481e-01 2.66265601e-01 2.66265601e-01
      1.54869750e-01 4.17179577e-02 6.20713532e-02 4.22122516e-02
      5.52078411e-02 2.53333330e+00 2.62068957e-01 8.88888896e-01 0. 0.
      0. 0. 0. 0. 0. 0. 0. 0. 0. 0. 0. 0. 0. 0. 0. 4.85991724e-02
      2.85877637e-03 2.28702114e-03 5.71755273e-03 2.28702114e-03
      5.71755285e-04 9.71984118e-03 1.65809095e-02 7.60434419e-02
      9.14808549e-03 3.43053159e-03 1.60091538e-02 4.17381264e-02
      5.14579751e-03 5.03144339e-02 7.09539890e-01 2.09230512e-01
      8.61538872e-02 6.15384616e-03 8.92308131e-02 4.61538462e-03
      1.53846154e-03 3.07692308e-03 1.69230670e-01 4.61538546e-02
      4.46153916e-02 3.07692308e-03 2.76923031e-02 6.15384616e-03
      9.23076924e-03 1.23076923e-02 2.81537920e-01 1.33190989e-01
      9.97150969e-03 4.27350448e-03 1.56695135e-02 2.13675201e-03
      7.12250709e-04 2.84900283e-03 8.97436365e-02 2.51423776e-01
      8.54700897e-03 3.56125366e-03 1.42450118e-02 3.91737856e-02
      4.27350448e-03 3.13390419e-02 3.88887197e-01 6.73600912e-01
      2.68678576e-01 4.10196297e-02 1.25988862e-02 4.10196325e-03 0.</_>
    <_>
      1.66173771e-01 9.99101818e-01 9.97075140e-01 9.94248211e-01
      9.90652561e-01 9.86598253e-01 9.81925309e-01 9.76594031e-01
      9.70901191e-01 9.64922190e-01 9.58720386e-01 9.52530742e-01
      9.46569920e-01 9.40961421e-01 9.35863256e-01 9.31311965e-01
      9.27323639e-01 9.23970819e-01 9.21256959e-01 9.19433475e-01
      9.18792248e-01 8.40779170e-02 9.02642682e-02 1.50376335e-01
      1.67780221e-01 2.61360377e-01 2.61360377e-01 2.61360377e-01
      1.33949563e-01 8.93167779e-02 1.89897027e-02 1.96247026e-02
      1.60741493e-01 1.98079243e-01 2.61360377e-01 3.37536000e-02
      2.99013667e-02 2.31803097e-02 2.12026406e-02 8.25936049e-02
      1.24192677e-01 1.06251106e-01 1.14607453e-01 2.61360377e-01
      2.61360377e-01 2.61360377e-01 1.84663683e-01 1.03536606e-01
      8.61901492e-02 2.06686944e-01 2.61360377e-01 2.61360377e-01
      2.61360377e-01 6.95646703e-02 5.59824295e-02 4.32972088e-02
      4.54973914e-02 7.04761887e+00 3.19702595e-01 8.96494150e-01
      1.65231913e-01 4.86767776e-02 2.17391308e-02 5.19848801e-03
      7.65596032e-02 9.45179607e-04 2.83553894e-03 5.67107787e-03
      1.15312010e-01 1.84309985e-02 6.14366774e-03 1.89035921e-03
      1.37050999e-02 1.46502787e-02 7.08884746e-03 3.07183471e-02
      6.30431652e-01 1.20464601e-02 1.48040866e-02 1.76584329e-02
      1.82873532e-02 2.08030944e-03 1.30624091e-03 1.74165459e-03
      2.31252015e-02 3.44458893e-02 2.05611419e-02 2.56410125e-03
      2.93660257e-02 1.79003254e-02 8.46638344e-03 4.31059711e-02
      7.52599657e-01 5.89486323e-02 3.25600766e-02 2.34092330e-03
      4.32715602e-02 1.20593049e-03 1.56061596e-03 2.55373423e-03
      7.57606998e-02 3.08575891e-02 1.95076726e-02 3.19216703e-03
      2.37638913e-02 1.05696134e-02 7.44838594e-03 1.61736347e-02
      6.70252502e-01 4.36248258e-02 3.59025672e-02 3.19299218e-03
      2.63608769e-02 1.18808937e-03 7.42555945e-04 2.19053961e-03
      6.23735785e-02 7.38827139e-02 1.55937262e-02 2.04202812e-03
      1.43313706e-02 3.35636139e-02 9.50471684e-03 4.16200086e-02
      6.33959949e-01 6.86623991e-01 2.27981612e-01 4.48123179e-02
      2.03333423e-02 1.56518798e-02 4.59685829e-03</_>
    <_>
      1.22391656e-01 9.98034358e-01 9.95287299e-01 9.90220368e-01
      9.84089017e-01 9.77103233e-01 9.69483852e-01 9.61205661e-01
      9.53067541e-01 9.44436789e-01 9.36494291e-01 9.28351939e-01
      9.20954645e-01 9.13212657e-01 9.05996263e-01 8.99001777e-01
      8.92795324e-01 8.87654126e-01 8.84061873e-01 8.81428003e-01
      8.81202161e-01 1.40388250e-01 1.03395857e-01 1.23423986e-01
      1.55222476e-01 2.34632894e-01 2.34632894e-01 1.97368518e-01
      2.30368763e-01 2.14612454e-01 3.37103345e-02 7.42604509e-02
      2.18444079e-01 2.27200359e-01 2.34632894e-01 2.34632894e-01
      1.55002356e-01 1.02210686e-01 6.09879568e-02 9.93245766e-02
      1.16916046e-01 1.36586249e-01 1.69597581e-01 2.34632894e-01
      2.34632894e-01 1.13238655e-01 8.29515159e-02 1.18167907e-01
      3.88122387e-02 9.29429531e-02 2.34632894e-01 2.34632894e-01
      2.34632894e-01 1.58729523e-01 7.34644234e-02 4.59114611e-02
      5.21969609e-02 2.59999990e+00 2.22222224e-01 8.92307699e-01 0. 0.
      0. 0. 0. 0. 0. 0. 0. 0. 0. 0. 0. 0. 0. 0. 0. 1.83441609e-01
      1.62337646e-02 0. 1.13636358e-02 0. 0. 1.62337662e-03
      1.46103883e-02 1.83441609e-01 1.78571418e-02 4.87012975e-03
      9.74025950e-03 6.33117035e-02 1.62337646e-02 5.51948175e-02
      4.22076464e-01 1.90082729e-01 5.16528971e-02 2.06611562e-03
      9.71074030e-02 0. 0. 1.44628100e-02 8.26446116e-02 8.67768377e-02
      5.99173643e-02 2.06611562e-03 2.68594995e-02 1.85950398e-02
      6.19834661e-03 2.68594995e-02 3.34710538e-01 6.78531453e-02
      1.44605134e-02 6.67408202e-03 4.11568359e-02 5.56173502e-03
      3.33704101e-03 7.78642902e-03 8.56507346e-02 1.42380431e-01
      3.22580710e-02 8.89877602e-03 4.78309095e-02 7.56395906e-02
      1.11234710e-02 5.67296743e-02 3.92657369e-01 7.61129200e-01
      1.95439741e-01 3.20303999e-02 7.60043412e-03 3.80021706e-03 0.</_>
    <_>
      1.17873304e-01 9.98783708e-01 9.96087968e-01 9.91780698e-01
      9.86120224e-01 9.79169309e-01 9.71191108e-01 9.62426186e-01
      9.52940822e-01 9.43109453e-01 9.32966650e-01 9.22894239e-01
      9.13257122e-01 9.04062808e-01 8.95576298e-01 8.87958825e-01
      8.81640792e-01 8.76564741e-01 8.73009562e-01 8.70824277e-01
      8.70065570e-01 1.06159799e-01 1.35631129e-01 1.64889455e-01
      2.37592429e-01 2.33088389e-01 2.44337067e-01 2.44337067e-01
      1.92920029e-01 1.35236546e-01 1.50196716e-01 2.24261910e-01
      2.44337067e-01 2.44337067e-01 2.44337067e-01 1.35069147e-01
      1.19118832e-01 1.11523516e-01 1.50778100e-01 9.81201753e-02
      6.62632063e-02 1.88457668e-02 2.02359073e-02 9.25942808e-02
      2.44337067e-01 2.44337067e-01 1.36431232e-01 8.37261453e-02
      1.76940039e-01 1.41069680e-01 1.49226144e-01 1.70051783e-01
      1.20963700e-01 9.77601036e-02 1.30991116e-01 9.81000885e-02
      1.17086038e-01 1.87096775e+00 2.71111101e-01 8.92430305e-01 0. 0.
      0. 0. 0. 0. 0. 0. 0. 0. 0. 0. 0. 0. 0. 0. 0. 1.04545370e-01
      2.93939207e-02 9.09090973e-03 3.42424028e-02 1.81818171e-03
      1.81818171e-03 1.51515147e-03 5.36363237e-02 1.73939243e-01
      1.30302999e-02 9.09090915e-04 1.45454500e-02 5.39393537e-02
      6.36363728e-03 7.78787285e-02 4.23332959e-01 1.04097567e-01
      7.36433938e-02 3.32225929e-03 8.52713510e-02 2.21483945e-03
      1.10741972e-03 2.76854937e-03 1.38427719e-01 1.10188402e-01
      3.48837227e-02 1.66112953e-03 2.60243677e-02 5.53709874e-03
      3.32225929e-03 3.87596921e-03 4.03651744e-01 1.08870625e-01
      6.04838785e-03 6.33640634e-03 3.74424015e-03 8.64055299e-04
      1.15207373e-03 1.44009222e-03 4.08985913e-02 2.06510529e-01
      2.36175153e-02 4.03225841e-03 9.21658892e-03 3.65783349e-02
      5.47235087e-03 1.81451552e-02 5.27067542e-01 7.28089631e-01
      2.10526317e-01 4.35290001e-02 1.16699729e-02 5.71828708e-03
      4.66798927e-04</_>
    <_>
      1.07722580e-01 9.97739792e-01 9.96022105e-01 9.92014825e-01
      9.88683641e-01 9.83579874e-01 9.78957355e-01 9.74207222e-01
      9.69777226e-01 9.65505540e-01 9.60680783e-01 9.56386745e-01
      9.51643884e-01 9.47243333e-01 9.42144930e-01 9.37316835e-01
      9.32812274e-01 9.28849876e-01 9.25785780e-01 9.23540056e-01
      9.22921360e-01 1.11681253e-01 1.91573337e-01 2.62997717e-01
      2.66815811e-01 2.66815811e-01 2.66815811e-01 1.54976934e-01
      7.03679100e-02 8.05428624e-02 3.22347246e-02 7.69321173e-02
      1.31673992e-01 2.66815811e-01 2.61199027e-01 1.56528562e-01
      7.80146196e-02 3.64786498e-02 2.38794126e-02 2.08134308e-01
      2.53755897e-01 2.43002310e-01 2.66815811e-01 1.24664612e-01
      1.19976044e-01 9.27011073e-02 9.03286561e-02 1.61747873e-01
      5.22415638e-02 1.24249868e-01 1.73452348e-01 2.45550975e-01
      1.04575723e-01 3.19565758e-02 3.43697667e-02 2.57772915e-02
      2.46939138e-02 2.18181825e+00 2.19047621e-01 8.88888896e-01 0. 0.
      0. 0. 0. 0. 0. 0. 0. 0. 0. 0. 0. 0. 0. 0. 0. 1.62907261e-02
      1.25313282e-03 8.77192989e-03 3.75939868e-02 7.51879672e-03
      6.26566401e-03 8.77192989e-03 1.50375934e-02 6.39097616e-02
      2.25563943e-02 7.51879672e-03 3.13283280e-02 6.01503588e-02
      2.25563943e-02 6.01503588e-02 6.30324006e-01 1.85294122e-01
      9.41176489e-02 1.47058824e-02 7.35294148e-02 0. 0. 5.88235306e-03
      1.00000001e-01 9.41176489e-02 3.82352956e-02 0. 2.35294122e-02
      2.35294122e-02 1.76470596e-02 4.11764719e-02 2.88235486e-01
      1.29807815e-01 2.40384620e-02 6.41025649e-03 2.72435900e-02
      3.20512825e-03 1.60256412e-03 8.01282097e-03 7.05128387e-02
      1.18589871e-01 2.24358980e-02 3.20512825e-03 2.56410260e-02
      5.28846160e-02 1.12179490e-02 5.92948720e-02 4.35896844e-01
      7.63157904e-01 2.06140354e-01 1.56641603e-02 9.39849578e-03
      5.63909765e-03 0.</_>
    <_>
      1.38843656e-01 9.97880340e-01 9.92594421e-01 9.84654725e-01
      9.73961890e-01 9.60970283e-01 9.46060061e-01 9.29502547e-01
      9.11848903e-01 8.93455267e-01 8.74800563e-01 8.56373131e-01
      8.38468909e-01 8.21513116e-01 8.05922210e-01 7.91917622e-01
      7.79907763e-01 7.70321190e-01 7.63236344e-01 7.59222031e-01
      7.58029997e-01 8.44937041e-02 1.13987565e-01 1.36975512e-01
      1.27451465e-01 2.48567566e-01 2.48567566e-01 1.75616741e-01
      1.01568431e-01 1.00475453e-01 1.56173587e-01 2.00187802e-01
      2.07156599e-01 2.17566267e-01 1.96480513e-01 1.04216613e-01
      8.17221776e-02 7.86261186e-02 1.19151972e-01 9.67154428e-02
      1.53671145e-01 1.42170131e-01 1.14273645e-01 2.48567566e-01
      2.48567566e-01 2.08855614e-01 8.11303109e-02 8.25837255e-02
      2.16704607e-01 2.48567566e-01 2.48567566e-01 2.48567566e-01
      1.98961794e-01 5.80589622e-02 4.77748886e-02 6.66566789e-02
      8.64906684e-02 2.09090900e+00 1.71597630e-01 8.93617034e-01 0. 0.
      0. 0. 0. 0. 0. 0. 0. 0. 0. 0. 0. 0. 0. 0. 0. 1.70764998e-02
      6.14754017e-03 1.02458997e-02 3.00546382e-02 1.36612018e-03
      2.73224036e-03 6.14754017e-03 1.43442592e-02 8.40165168e-02
      2.25409791e-02 8.87977984e-03 2.73223985e-02 2.32240390e-02
      8.19671992e-03 3.48360687e-02 7.02874064e-01 5.17676920e-02
      3.91414165e-02 8.83838348e-03 7.44949877e-02 3.78787890e-03
      6.31313119e-03 6.31313119e-03 5.55555746e-02 8.58586356e-02
      5.42929471e-02 1.26262633e-02 7.07071051e-02 2.14646459e-02
      2.27272715e-02 2.39898972e-02 4.62122142e-01 1.39682546e-01
      3.25396843e-02 3.17460322e-03 2.85714287e-02 0. 0. 0.
      6.58730194e-02 1.52380958e-01 6.82539716e-02 3.17460322e-03
      3.01587302e-02 3.65079381e-02 1.66666675e-02 2.22222228e-02
      4.00796473e-01 8.36756766e-01 7.85585567e-02 2.34234240e-02
      2.52252258e-02 2.70270277e-02 9.00900923e-03</_>
    <_>
      1.90985411e-01 9.98298883e-01 9.93911088e-01 9.86936748e-01
      9.77488220e-01 9.66037631e-01 9.52972114e-01 9.38425601e-01
      9.22958612e-01 9.06796515e-01 8.90379786e-01 8.74226153e-01
      8.58639240e-01 8.43958139e-01 8.30621123e-01 8.18760097e-01
      8.08621347e-01 8.00571144e-01 7.94667006e-01 7.90995121e-01
      7.89798319e-01 1.22699335e-01 1.53211683e-01 2.24836826e-01
      1.77431896e-01 2.24836826e-01 1.81170151e-01 1.95824444e-01
      2.24836826e-01 2.24836826e-01 5.57033457e-02 5.22596389e-02
      1.19193837e-01 2.24836826e-01 2.24836826e-01 1.33091614e-01
      7.78554007e-02 6.65314421e-02 7.77501315e-02 1.80914804e-01
      1.64142713e-01 2.24836826e-01 1.45771369e-01 1.97762460e-01
      1.72311768e-01 2.24836826e-01 2.24836826e-01 2.24836826e-01
      5.15233986e-02 7.97256529e-02 2.24836826e-01 2.19242945e-01
      1.61555886e-01 7.52846077e-02 5.64000085e-02 4.08120044e-02
      5.29172234e-02 2.42857146e+00 2.13872835e-01 8.91191721e-01 0. 0.
      0. 0. 0. 0. 0. 0. 0. 0. 0. 0. 0. 0. 0. 0. 0. 5.32514751e-02
      6.14439324e-03 2.04813108e-03 6.14439324e-03 1.53609831e-03
      2.04813108e-03 1.53609831e-03 9.21658985e-03 7.52689242e-02
      1.17767537e-02 3.58422939e-03 1.02406554e-02 3.37941945e-02
      5.12032770e-03 5.47875762e-02 7.23490596e-01 1.23579450e-01
      4.68749739e-02 9.94318351e-03 9.44601595e-02 2.84090918e-03
      1.42045459e-03 5.68181835e-03 1.00141972e-01 1.43465981e-01
      3.33806686e-02 4.97159082e-03 3.97727080e-02 3.55113484e-02
      1.49147762e-02 3.05397622e-02 3.12500358e-01 1.70333028e-01
      2.45128758e-02 2.51414208e-03 3.14267576e-02 2.51414208e-03
      2.51414208e-03 3.14267771e-03 1.01822875e-01 2.35071719e-01
      2.19987370e-02 1.88560656e-03 1.25707118e-02 1.63419247e-02
      6.91389153e-03 1.19421761e-02 3.54492605e-01 5.40890872e-01
      3.03794473e-01 1.10534996e-01 2.92246044e-02 1.39052561e-02
      1.64977612e-03</_>
    <_>
      1.58050850e-01 9.98038113e-01 9.93331730e-01 9.86264527e-01
      9.77070749e-01 9.66151476e-01 9.53762114e-01 9.40202296e-01
      9.25817132e-01 9.10875320e-01 8.95706713e-01 8.80880058e-01
      8.66598547e-01 8.53329897e-01 8.41332436e-01 8.30858350e-01
      8.22054982e-01 8.15022826e-01 8.09806943e-01 8.06388676e-01
      8.05279374e-01 1.84662879e-01 2.26101741e-01 2.26101741e-01
      2.26101741e-01 2.26101741e-01 1.80313274e-01 1.89585239e-01
      1.69197768e-01 2.16782212e-01 6.19799383e-02 9.36504975e-02
      1.40746936e-01 1.75361887e-01 1.24450095e-01 5.18280007e-02
      3.97700258e-02 4.75501940e-02 5.38976416e-02 2.26101741e-01
      2.26101741e-01 2.26101741e-01 2.26101741e-01 2.11726412e-01
      1.57787159e-01 1.65689290e-01 1.89382926e-01 2.06714854e-01
      6.22232743e-02 1.14684619e-01 2.26101741e-01 2.26101741e-01
      1.32724494e-01 5.52665517e-02 5.22498004e-02 4.27109264e-02
      4.71553914e-02 5.57142878e+00 2.20338985e-01 8.97959173e-01 0. 0.
      0. 0. 0. 0. 0. 0. 0. 0. 0. 0. 0. 0. 0. 0. 0. 5.52380495e-02
      6.34920609e-04 3.17460299e-03 9.52380989e-03 1.90476188e-03
      1.90476188e-03 2.53968243e-03 1.26984138e-02 6.79364800e-02
      2.47618947e-02 5.07936487e-03 2.66666543e-02 3.30158547e-02
      1.01587307e-02 5.14285304e-02 6.93325818e-01 7.30051175e-02
      5.94227724e-02 6.79117115e-03 6.53650463e-02 1.69779290e-03
      3.39558581e-03 2.54668947e-03 5.51782884e-02 9.42275375e-02
      5.34804948e-02 9.33786109e-03 5.09338044e-02 3.05602811e-02
      1.18845515e-02 2.71646939e-02 4.55005795e-01 1.26136273e-01
      2.32954528e-02 2.27272720e-03 3.46590802e-02 1.13636360e-03
      1.70454546e-03 6.24999963e-03 3.12499907e-02 2.11363465e-01
      3.40908989e-02 3.40909068e-03 1.30681852e-02 4.14772555e-02
      1.47727318e-02 5.51136062e-02 3.99999648e-01 7.54198492e-01
      1.45419851e-01 7.51908422e-02 2.29007639e-02 2.29007634e-03 0.</_>
    <_>
      1.21399365e-01 9.99157727e-01 9.97075081e-01 9.94082630e-01
      9.90344465e-01 9.86005068e-01 9.80967820e-01 9.75334942e-01
      9.69201028e-01 9.62807238e-01 9.56429720e-01 9.50252533e-01
      9.44448113e-01 9.39032078e-01 9.34069395e-01 9.29696262e-01
      9.26000655e-01 9.22974348e-01 9.20729399e-01 9.19368327e-01
      9.18892443e-01 1.13431022e-01 1.79408729e-01 2.62509704e-01
      2.62509704e-01 2.62509704e-01 2.17393339e-01 6.54558763e-02
      6.49270862e-02 9.65179726e-02 1.09812059e-01 1.94154710e-01
      2.62509704e-01 2.62509704e-01 2.62509704e-01 1.00789376e-01
      2.57226955e-02 2.84155477e-02 6.63034394e-02 4.14778218e-02
      1.10998914e-01 2.05589414e-01 2.62509704e-01 2.62509704e-01
      1.04906797e-01 5.19189052e-02 5.33775836e-02 3.84848826e-02
      4.08685245e-02 9.97588411e-02 2.62509704e-01 2.62509704e-01
      2.04709679e-01 5.92730045e-02 1.89148467e-02 1.62032470e-02
      1.88125577e-02 1.28181820e+01 2.83400804e-01 8.96363616e-01
      2.35931540e+00 7.02314302e-02 5.81378862e-02 1.00781047e-03
      4.96976003e-02 1.25976323e-04 2.51952646e-04 5.03905292e-04
      6.81528524e-02 6.09093234e-02 1.78886652e-02 1.51171559e-03
      1.68808401e-02 2.41875723e-02 4.66112280e-03 4.91307154e-02
      5.76788843e-01 4.32957821e-02 8.86871759e-03 4.88826772e-04
      2.11592242e-02 6.98324002e-05 0. 2.09497201e-04 1.80167649e-02
      5.06279916e-02 1.78771000e-02 1.74581050e-03 1.68994460e-02
      2.36731917e-02 4.67877230e-03 4.50415462e-02 7.47403264e-01
      1.42530367e-01 7.85060301e-02 1.39735767e-03 4.64938618e-02
      1.14329264e-03 2.54064985e-03 7.62195094e-04 6.83434382e-02
      7.01218918e-02 2.79471297e-02 2.03252025e-03 2.27388013e-02
      1.48627926e-02 6.35162182e-03 2.68038381e-02 4.87451166e-01
      5.94335236e-02 3.48190814e-02 1.68208638e-03 5.10791913e-02
      1.12139052e-04 8.97112361e-04 1.23352977e-03 4.02017385e-02
      1.26216337e-01 2.06896048e-02 2.91561708e-03 1.53069468e-02
      5.47797680e-02 7.06475275e-03 8.34886655e-02 5.00045121e-01
      8.08314919e-01 1.51042268e-01 2.49990299e-02 1.06750512e-02
      4.81347786e-03 1.55273476e-04</_>
    <_>
      5.70631959e-02 9.94980693e-01 9.89522755e-01 9.83389735e-01
      9.75701571e-01 9.68863249e-01 9.62089539e-01 9.55685198e-01
      9.49212372e-01 9.42907929e-01 9.37443316e-01 9.31604385e-01
      9.26798642e-01 9.23031509e-01 9.20575023e-01 9.19190228e-01
      9.18461204e-01 9.19194400e-01 9.19547379e-01 9.19095874e-01
      9.18995619e-01 4.31396440e-02 1.20248243e-01 3.41720313e-01
      3.41720313e-01 2.53558487e-01 7.56016523e-02 3.13789919e-02
      2.54713576e-02 3.54879722e-02 1.59728080e-02 7.00732321e-02
      3.41720313e-01 3.41720313e-01 9.45153311e-02 2.79054362e-02
      1.34824608e-02 8.27357452e-03 6.99780183e-03 8.01572353e-02
      1.76934600e-01 3.41720313e-01 2.61128575e-01 1.53748333e-01
      8.63319933e-02 4.44487408e-02 4.75941487e-02 5.19539416e-02
      2.97858994e-02 8.43863785e-02 3.41720313e-01 1.76609859e-01
      7.49417543e-02 4.09758501e-02 2.16328483e-02 2.01304741e-02
      1.52479364e-02 2.13333344e+00 1.47619054e-01 8.93162370e-01 0. 0.
      0. 0. 0. 0. 0. 0. 0. 0. 0. 0. 0. 0. 0. 0. 0. 6.89655468e-02
      9.98185109e-03 2.72232317e-03 1.13430135e-02 1.36116147e-03
      2.26860261e-03 2.72232317e-03 2.40471791e-02 8.93828571e-02
      1.90562606e-02 2.72232317e-03 1.99637003e-02 3.44827510e-02
      5.44464588e-03 4.26497422e-02 6.62877679e-01 1.46666661e-01
      1.61904708e-01 3.80952377e-03 1.04761951e-01 1.71428546e-02
      5.71428565e-03 5.71428565e-03 8.19047913e-02 4.19047624e-02
      3.04761846e-02 5.71428565e-03 2.47619003e-02 1.71428546e-02
      7.61904754e-03 1.52380932e-02 3.29523236e-01 1.24466240e-01
      2.88461540e-02 8.54700897e-03 3.25854719e-02 1.06837612e-03
      2.67094024e-03 3.73931625e-03 6.19658120e-02 1.98184699e-01
      2.29700860e-02 5.87606849e-03 1.81623939e-02 4.00641039e-02
      1.49572650e-02 3.25854719e-02 4.03310031e-01 5.43157458e-01
      3.22417617e-01 7.98463747e-02 3.71942595e-02 1.63735598e-02
      1.01071352e-03</_>
    <_>
      4.98524420e-02 9.95200932e-01 9.87337172e-01 9.76558924e-01
      9.63838458e-01 9.49926436e-01 9.35520709e-01 9.21661317e-01
      9.09479260e-01 8.98963153e-01 8.90755773e-01 8.86120498e-01
      8.83961737e-01 8.84093821e-01 8.86051238e-01 8.89537752e-01
      8.93988013e-01 8.98136139e-01 9.01532054e-01 9.03927624e-01
      9.04782474e-01 5.98347606e-03 8.10373295e-03 3.85304354e-02
      3.05581897e-01 3.05581897e-01 1.91112548e-01 2.20864899e-02
      5.85032720e-03 5.25907008e-03 9.95260198e-03 1.03251087e-02
      4.00526114e-02 3.05581897e-01 3.05581897e-01 1.68761715e-01
      4.11083326e-02 1.30257262e-02 1.31483926e-02 2.74761971e-02
      3.49140503e-02 1.12230271e-01 3.05581897e-01 3.05581897e-01
      3.05581897e-01 9.04000103e-02 5.00883348e-02 2.21775007e-02
      2.57820953e-02 3.37298922e-02 8.96406695e-02 3.05581897e-01
      3.05581897e-01 2.09017679e-01 7.42013156e-02 2.00343095e-02
      1.91166904e-02 2.87500000e+00 3.16758752e-01 8.97350967e-01 0. 0.
      0. 0. 0. 0. 0. 0. 0. 0. 0. 0. 0. 0. 0. 0. 0. 2.01187972e-02
      2.92375702e-02 1.66449521e-03 1.86351873e-02 2.53292819e-04
      1.80923438e-04 3.98031523e-04 3.35435383e-02 7.36362711e-02
      1.39311012e-02 9.40801692e-04 1.16152819e-02 3.92967537e-02
      5.46388654e-03 5.40959053e-02 6.96920037e-01 8.73327330e-02
      4.22239378e-02 2.22921604e-03 3.76343802e-02 9.17912403e-04
      5.24521398e-04 7.86782068e-04 1.08444698e-01 1.11985214e-01
      3.08156069e-02 9.17912403e-04 1.59978922e-02 2.79307421e-02
      6.29425561e-03 2.28166636e-02 5.03146708e-01 3.58577818e-02
      8.68985057e-03 1.00267364e-03 2.75975447e-02 1.05041999e-03
      6.20702805e-04 5.25210111e-04 5.61025292e-02 1.02748252e-01
      1.19365864e-02 7.16195500e-04 1.57085303e-02 3.91523279e-02
      2.96027400e-03 4.98954132e-02 6.45398855e-01 9.25357938e-01
      7.37978816e-02 8.44208407e-04 0. 0. 0.</_>
    <_>
      1.50122851e-01 9.95539248e-01 9.87653673e-01 9.76883769e-01
      9.62827921e-01 9.46451306e-01 9.28174794e-01 9.08313572e-01
      8.87134850e-01 8.65084708e-01 8.42421830e-01 8.19448829e-01
      7.96670496e-01 7.75040448e-01 7.55174994e-01 7.37600684e-01
      7.22669244e-01 7.10954905e-01 7.02610135e-01 6.97389305e-01
      6.95469081e-01 1.93435475e-01 1.30840182e-01 1.06508896e-01
      1.10746704e-01 1.05318651e-01 8.45065713e-02 1.43368781e-01
      2.29975089e-01 2.29975089e-01 1.16838008e-01 7.17587695e-02
      1.04121082e-01 1.69175893e-01 1.56535521e-01 1.07567132e-01
      1.22591816e-01 1.77143946e-01 2.29975089e-01 2.29975089e-01
      2.29975089e-01 2.29975089e-01 2.25497961e-01 1.87083334e-01
      9.85425189e-02 1.16446733e-01 2.23919302e-01 2.29975089e-01
      1.40207008e-01 1.77883580e-01 2.29975089e-01 2.29975089e-01
      1.24208428e-01 6.11630864e-02 5.25155067e-02 8.09981003e-02
      1.58046514e-01 1.93750000e+00 2.15189874e-01 8.62637341e-01 0. 0.
      0. 0. 0. 0. 0. 0. 0. 0. 0. 0. 0. 0. 0. 0. 0. 6.84524700e-02
      8.92857183e-03 5.45634935e-03 1.73611119e-02 2.48015882e-03
      1.98412710e-03 3.47222225e-03 5.05953096e-02 8.53174850e-02
      1.63690485e-02 6.94444450e-03 2.03373022e-02 4.91072088e-02
      6.94444450e-03 8.23413059e-02 5.73906898e-01 2.27885246e-01
      7.01923370e-02 2.88461545e-03 9.80770588e-02 9.61538462e-04
      9.61538462e-04 2.88461545e-03 5.86538464e-02 1.25000238e-01
      2.59615388e-02 1.92307692e-03 1.34615386e-02 4.90384623e-02
      1.92307692e-03 4.42307703e-02 2.75962353e-01 1.67582422e-01
      2.65567768e-02 7.32600736e-03 2.47252751e-02 1.83150184e-03
      4.57875477e-03 3.66300368e-03 5.49450554e-02 1.95054948e-01
      3.20512839e-02 4.57875477e-03 2.74725282e-03 4.21245433e-02
      3.66300368e-03 1.19047621e-02 4.16669369e-01 4.02777791e-01
      2.84580499e-01 1.64682537e-01 8.81519243e-02 5.01700677e-02
      9.63718817e-03</_>
    <_>
      1.50252029e-01 9.95491087e-01 9.86007154e-01 9.72772658e-01
      9.56035316e-01 9.35737312e-01 9.12158251e-01 8.85906398e-01
      8.57891381e-01 8.28702271e-01 7.98828006e-01 7.68667459e-01
      7.38885999e-01 7.10508585e-01 6.83447659e-01 6.59454465e-01
      6.39649570e-01 6.24374509e-01 6.13026619e-01 6.06095910e-01
      6.03607059e-01 2.02732846e-01 1.53255656e-01 1.20672122e-01
      1.39703512e-01 1.57338560e-01 1.31368667e-01 1.84332833e-01
      2.01437086e-01 2.20158026e-01 2.20158026e-01 1.66229784e-01
      1.38464496e-01 1.23838842e-01 1.26128346e-01 7.66885281e-02
      1.04164355e-01 1.46885291e-01 1.86945930e-01 2.20158026e-01
      2.20158026e-01 2.15906844e-01 1.89987674e-01 1.24298289e-01
      1.18986621e-01 1.44021764e-01 1.86876655e-01 2.20158026e-01
      2.20158026e-01 2.20158026e-01 1.98935226e-01 1.24298893e-01
      1.27996445e-01 8.00581649e-02 9.55812186e-02 1.23096988e-01
      1.47926077e-01 4.19999981e+00 1.53846160e-01 8.90804589e-01 0. 0.
      0. 0. 0. 0. 0. 0. 0. 0. 0. 0. 0. 0. 0. 0. 0. 2.96052545e-02
      8.77192989e-03 1.31578930e-02 4.38596345e-02 5.48245618e-03
      5.48245618e-03 4.38596494e-03 2.96052545e-02 8.44298676e-02
      2.52192914e-02 8.77192989e-03 5.48245423e-02 4.93420884e-02
      2.52192914e-02 5.15350699e-02 5.60305536e-01 1.30904317e-01
      1.48448022e-02 2.69905524e-03 3.37381884e-02 0. 0. 2.69905524e-03
      5.26315719e-02 3.37381884e-02 2.83400770e-02 1.88933853e-02
      3.37381884e-02 2.15924401e-02 9.44669265e-03 4.18353528e-02
      5.74899554e-01 8.10526833e-02 2.21052561e-02 7.36842072e-03
      4.73684296e-02 5.26315765e-03 0. 2.10526306e-03 4.94736955e-02
      3.89473662e-02 2.21052561e-02 8.42105225e-03 3.26315686e-02
      2.42105182e-02 1.57894697e-02 4.42105308e-02 5.98943174e-01
      9.39588666e-01 5.52699231e-02 3.85604124e-03 1.28534704e-03 0. 0.</_>
    <_>
      1.46455511e-01 9.97921407e-01 9.92374480e-01 9.83616829e-01
      9.72137511e-01 9.58245695e-01 9.42271352e-01 9.24474716e-01
      9.05285060e-01 8.85260642e-01 8.64961922e-01 8.44860017e-01
      8.25489879e-01 8.07262719e-01 7.90540516e-01 7.75627673e-01
      7.62819052e-01 7.52588511e-01 7.45192826e-01 7.40822971e-01
      7.39304960e-01 8.92904773e-02 8.83597210e-02 1.17777951e-01
      1.49123773e-01 2.64099151e-01 2.64099151e-01 2.05697849e-01
      1.39373928e-01 1.13550052e-01 7.65399486e-02 1.57169327e-01
      2.64099151e-01 2.64099151e-01 1.92075253e-01 9.89390835e-02
      6.47077858e-02 5.68339452e-02 6.07589185e-02 7.79713467e-02
      1.48743093e-01 1.64225906e-01 1.09404214e-01 2.64099151e-01
      2.64099151e-01 1.93391770e-01 1.23954602e-01 6.80985972e-02
      8.08768943e-02 2.64099151e-01 2.64099151e-01 2.64099151e-01
      9.81109515e-02 6.75581098e-02 5.94146550e-02 5.38407266e-02
      5.52122407e-02 1.69230771e+00 2.06896558e-01 8.78048778e-01 0. 0.
      0. 0. 0. 0. 0. 0. 0. 0. 0. 0. 0. 0. 0. 0. 0. 1.48148099e-02
      8.75420775e-03 8.08080751e-03 2.82828156e-02 4.04040376e-03
      2.69360258e-03 4.71380446e-03 2.35690139e-02 9.62962285e-02
      2.62626149e-02 6.73400657e-03 3.56902294e-02 4.78114672e-02
      1.01010082e-02 5.18518798e-02 6.30309522e-01 7.12530762e-02
      6.01965450e-02 7.37100700e-03 4.17690426e-02 7.37100700e-03
      1.22850118e-02 2.45700241e-03 8.72236267e-02 1.09336697e-01
      7.98526034e-02 9.82800964e-03 6.01965450e-02 1.96560211e-02
      1.84275191e-02 1.84275191e-02 3.94349724e-01 1.91666961e-01
      4.72222082e-02 4.62962966e-03 5.18518314e-02 0. 4.62962966e-03
      2.59259306e-02 1.39814973e-01 1.50926113e-01 3.61111127e-02
      1.85185182e-03 1.94444451e-02 2.12962981e-02 1.75925922e-02
      1.94444451e-02 2.67593086e-01 7.00443804e-01 1.95266277e-01
      6.47189319e-02 2.21893489e-02 1.40532544e-02 3.32840229e-03</_>
    <_>
      1.52838111e-01 9.98181045e-01 9.93928969e-01 9.86925840e-01
      9.77876246e-01 9.66932952e-01 9.54440832e-01 9.40588355e-01
      9.25716281e-01 9.09969926e-01 8.93792391e-01 8.77557218e-01
      8.61696362e-01 8.46777201e-01 8.32926691e-01 8.20611835e-01
      8.10158849e-01 8.01881731e-01 7.95681298e-01 7.92167604e-01
      7.90753245e-01 2.29485020e-01 2.27185607e-01 1.88871190e-01
      1.44943744e-01 1.45154059e-01 1.61065310e-01 1.77161977e-01
      2.29485020e-01 2.29485020e-01 8.86975229e-02 7.29994476e-02
      1.35565192e-01 1.87237769e-01 2.05534786e-01 1.37647048e-01
      1.42739415e-01 2.01180413e-01 2.02881142e-01 2.29485020e-01
      1.97677150e-01 1.60300270e-01 9.37438533e-02 1.07104994e-01
      1.46010131e-01 1.32733569e-01 2.03845114e-01 2.29485020e-01
      7.81743452e-02 1.10188447e-01 2.29485020e-01 1.82276919e-01
      1.01415887e-01 7.52449557e-02 7.65054524e-02 1.02462687e-01
      1.26110092e-01 2.22222233e+00 2.78688520e-01 8.87804866e-01
      1.19056094e+00 1.49999887e-01 4.99999709e-02 6.24999916e-03
      7.49999508e-02 1.87499996e-03 1.87499996e-03 4.99999942e-03
      1.31874904e-01 6.87499568e-02 1.68750007e-02 1.24999997e-03
      2.06249971e-02 1.99999977e-02 8.74999911e-03 2.49999929e-02
      4.16878611e-01 4.79744598e-02 3.90902674e-03 3.55366059e-03
      1.35039054e-02 1.06609811e-03 7.10732071e-04 7.10732071e-04
      1.70575660e-02 8.35108981e-02 2.09665988e-02 4.26439289e-03
      2.38095317e-02 4.54868935e-02 1.10163456e-02 6.32552132e-02
      6.59198821e-01 1.93675980e-01 5.92885502e-02 1.25164716e-02
      6.65349066e-02 2.63504665e-02 6.58761535e-04 5.92885446e-03
      1.19894303e-01 1.08695418e-01 1.77865643e-02 3.29380762e-03
      1.38339950e-02 3.68906520e-02 7.90513959e-03 2.96442751e-02
      2.97101080e-01 9.67167094e-02 1.46406414e-02 3.99290165e-03
      2.12954804e-02 7.54214590e-03 3.99290165e-03 3.10559012e-03
      1.01153232e-01 1.61933601e-01 1.86335444e-02 7.98580144e-03
      1.68589205e-02 5.32387123e-02 1.10913934e-02 3.81544083e-02
      4.39666301e-01 6.09939754e-01 2.36445785e-01 1.04480423e-01
      3.59563269e-02 1.14834337e-02 1.69427716e-03</_>
    <_>
      1.39002606e-01 9.97931957e-01 9.92851675e-01 9.84652996e-01
      9.73746657e-01 9.60455537e-01 9.45301890e-01 9.28558826e-01
      9.10735667e-01 8.91929626e-01 8.72915268e-01 8.53838146e-01
      8.35706174e-01 8.18390489e-01 8.02720904e-01 7.88881540e-01
      7.77004302e-01 7.67384708e-01 7.60425270e-01 7.55994380e-01
      7.54654348e-01 7.56295249e-02 6.85841516e-02 1.07574888e-01
      1.73796982e-01 2.15043530e-01 2.15043530e-01 1.85879424e-01
      1.58769295e-01 1.52567104e-01 1.49994075e-01 1.67624369e-01
      2.15043530e-01 2.15043530e-01 1.83680058e-01 1.19949684e-01
      9.96647775e-02 1.04799375e-01 1.83955073e-01 1.39778689e-01
      1.29178122e-01 1.23973049e-01 1.95511311e-01 2.15043530e-01
      2.15043530e-01 1.60352021e-01 1.60363421e-01 1.83233604e-01
      1.79318935e-01 2.15043530e-01 2.15043530e-01 1.89068988e-01
      1.72994733e-01 1.39534250e-01 1.01395130e-01 9.13302600e-02
      1.68646351e-01 2.23076916e+00 2.33333334e-01 8.88059676e-01
      2.72523689e+00 4.24382538e-02 1.15740728e-02 6.94444450e-03
      5.01542985e-02 2.31481483e-03 4.62962966e-03 7.71604944e-03
      4.93826941e-02 7.71604553e-02 3.24073955e-02 3.85802472e-03
      4.47530672e-02 5.24691120e-02 1.31172817e-02 7.09876195e-02
      5.30094981e-01 5.94405271e-02 5.24475519e-03 4.37062932e-03
      2.18531545e-02 8.74125864e-04 8.74125864e-04 3.49650346e-03
      1.74825229e-02 5.33216558e-02 1.92307755e-02 3.49650346e-03
      3.67132910e-02 2.88461652e-02 8.74125957e-03 4.02097888e-02
      6.95801318e-01 8.83332863e-02 2.00000014e-02 4.99999989e-03
      2.16666684e-02 1.66666671e-03 1.66666671e-03 1.66666671e-03
      3.83333303e-02 6.66666403e-02 4.33333255e-02 4.99999989e-03
      5.66666462e-02 8.33333377e-03 1.16666676e-02 2.00000014e-02
      6.09999478e-01 2.55427863e-02 2.68199258e-02 1.02171144e-02
      6.76883534e-02 5.10855671e-03 6.38569612e-03 6.38569612e-03
      3.95913087e-02 6.51340708e-02 3.57598960e-02 6.38569612e-03
      6.25797883e-02 2.80970652e-02 2.04342287e-02 4.34227213e-02
      5.50448775e-01 9.53031600e-01 3.41588371e-02 8.53970926e-03
      2.56191287e-03 1.70794188e-03 0.</_>
    <_>
      2.07645968e-01 9.97951269e-01 9.93773460e-01 9.87746358e-01
      9.80462253e-01 9.71867323e-01 9.62436020e-01 9.51533079e-01
      9.39473987e-01 9.26842690e-01 9.14220691e-01 9.01446044e-01
      8.89115870e-01 8.77243876e-01 8.66077363e-01 8.55680704e-01
      8.47376347e-01 8.41096938e-01 8.37041199e-01 8.34839225e-01
      8.34479451e-01 3.80882397e-02 7.91903287e-02 1.19746946e-01
      2.02159196e-01 2.22453699e-01 1.60674036e-01 2.22453699e-01
      9.50084776e-02 4.88944724e-02 5.90967499e-02 1.65725648e-01
      2.20019192e-01 2.22453699e-01 2.22453699e-01 1.19007319e-01
      6.53039142e-02 5.00518493e-02 2.89069824e-02 1.17026582e-01
      1.22905053e-01 1.84617996e-01 2.22453699e-01 2.22453699e-01
      1.68972611e-01 2.22453699e-01 2.09538057e-01 1.45150989e-01
      1.50566354e-01 1.60504743e-01 2.15318874e-01 2.22453699e-01
      1.93322361e-01 1.64535195e-01 1.35683805e-01 1.81169227e-01
      1.83606341e-01 2.86666656e+00 2.44791672e-01 8.23275864e-01 0. 0.
      0. 0. 0. 0. 0. 0. 0. 0. 0. 0. 0. 0. 0. 0. 0. 1.14558078e-01
      1.25921359e-02 2.76412768e-03 1.59705132e-02 6.14250603e-04 0.
      1.84275175e-03 4.02334109e-02 6.01964779e-02 1.50491362e-02
      2.14987714e-03 1.53562613e-02 4.33046520e-02 5.52825630e-03
      6.29606023e-02 6.06877029e-01 1.38889149e-01 5.97222783e-02
      5.09259244e-03 9.12038386e-02 4.62962955e-04 4.62962955e-04
      2.31481483e-03 1.06481656e-01 1.00926086e-01 2.36111041e-02
      2.31481483e-03 2.49999911e-02 3.00925765e-02 7.87036959e-03
      2.82407273e-02 3.77311587e-01 8.31720158e-02 1.16054192e-02
      2.90135411e-03 1.45067759e-02 9.67118016e-04 9.67118016e-04
      1.93423603e-03 6.76981732e-02 1.62475467e-01 5.80270821e-03
      2.41779513e-03 9.67118144e-03 1.54738948e-02 7.73694413e-03
      1.16054192e-02 6.01072967e-01 3.85988384e-01 2.64390886e-01
      2.01695666e-01 1.08656846e-01 3.54752354e-02 3.79294949e-03</_>
    <_>
      1.98440015e-01 9.96450663e-01 9.88480330e-01 9.77776110e-01
      9.65276241e-01 9.52182233e-01 9.39450502e-01 9.27971005e-01
      9.17306960e-01 9.08384264e-01 9.01852846e-01 8.97155464e-01
      8.93843114e-01 8.90988469e-01 8.88128757e-01 8.84124517e-01
      8.79369617e-01 8.75293016e-01 8.72354150e-01 8.70311260e-01
      8.69523644e-01 7.52718449e-02 1.05633035e-01 1.21138334e-01
      2.64160156e-01 2.77281255e-01 2.77281255e-01 1.70412302e-01
      1.66008532e-01 1.19164519e-01 3.87356840e-02 8.53239000e-02
      1.13207318e-01 1.53079838e-01 2.32902929e-01 1.12234741e-01
      6.04512058e-02 4.43215854e-02 3.97935696e-02 7.45286196e-02
      1.13675348e-01 1.97837338e-01 2.77281255e-01 2.77281255e-01
      2.77281255e-01 2.60749042e-01 1.60415217e-01 9.94625166e-02
      5.38144968e-02 1.03953391e-01 1.38888463e-01 1.81298941e-01
      2.44730055e-01 1.46909311e-01 8.70609283e-02 5.58087602e-02
      4.88936827e-02 2.90909100e+00 2.29299366e-01 8.29787254e-01
      1.75783908e+00 8.72933194e-02 2.53099073e-02 6.19834615e-03
      3.35743688e-02 5.16528904e-04 2.58264458e-03 2.58264458e-03
      5.88843450e-02 1.26549348e-01 2.01446246e-02 2.58264458e-03
      1.96280964e-02 4.64876220e-02 1.23966951e-02 3.82231399e-02
      5.17048895e-01 9.33671892e-02 1.83673427e-02 4.08163248e-03
      2.85714343e-02 1.53061212e-03 2.55102036e-03 1.53061212e-03
      7.04081506e-02 7.04081506e-02 1.68367289e-02 4.08163248e-03
      1.83673427e-02 5.61224818e-02 1.02040796e-02 7.34693557e-02
      5.30107260e-01 6.64286315e-02 3.71428579e-02 7.14285718e-03
      8.14286619e-02 3.57142859e-03 1.42857141e-03 7.14285718e-03
      9.78572667e-02 1.62857398e-01 2.64285617e-02 5.71428565e-03
      4.14285809e-02 4.50000167e-02 1.64285675e-02 3.71428579e-02
      3.62855434e-01 5.84045202e-02 3.63247879e-02 1.13960104e-02
      6.90882951e-02 1.42450142e-03 5.69800613e-03 2.13675201e-03
      7.19373077e-02 1.29629761e-01 3.13390419e-02 8.54700897e-03
      4.05982845e-02 8.33333582e-02 2.49287803e-02 6.76637888e-02
      3.57548386e-01 7.33774066e-01 1.77283660e-01 4.53725979e-02
      2.61418261e-02 1.53245190e-02 2.10336549e-03</_>
    <_>
      1.90060645e-01 9.97219563e-01 9.90189254e-01 9.79397535e-01
      9.65655029e-01 9.49489117e-01 9.31113541e-01 9.10940468e-01
      8.89469743e-01 8.67151678e-01 8.44400108e-01 8.21898580e-01
      7.99882174e-01 7.78932333e-01 7.59471118e-01 7.41902411e-01
      7.26755440e-01 7.14499772e-01 7.05400050e-01 6.99803650e-01
      6.97902977e-01 1.20989501e-01 9.37449187e-02 2.13780209e-01
      2.18580663e-01 2.14952558e-01 1.69139445e-01 2.46549532e-01
      2.46549532e-01 1.61102161e-01 8.68705809e-02 9.46495831e-02
      2.46549532e-01 2.46549532e-01 2.46549532e-01 8.04884806e-02
      6.36830404e-02 9.55457464e-02 5.20151630e-02 1.61977381e-01
      2.46549532e-01 2.46549532e-01 1.43771246e-01 1.41786203e-01
      7.93237686e-02 1.27016351e-01 1.70006633e-01 1.28637031e-01
      6.62818849e-02 2.07934216e-01 2.46549532e-01 2.43230522e-01
      7.44927898e-02 3.34650725e-02 4.62648645e-02 5.65537885e-02
      3.18146273e-02 2.25000000e+00 1.52941182e-01 8.97526503e-01 0. 0.
      0. 0. 0. 0. 0. 0. 0. 0. 0. 0. 0. 0. 0. 0. 0. 7.43374303e-02
      9.04977415e-03 4.52488707e-03 1.77763421e-02 1.93923723e-03
      6.46412431e-04 2.26244354e-03 3.78151275e-02 8.17711726e-02
      1.74531359e-02 6.78733038e-03 1.35746608e-02 4.81577255e-02
      9.04977415e-03 9.17905644e-02 5.83071649e-01 1.79054603e-01
      6.16555102e-02 2.11148662e-03 5.91217168e-02 1.68918923e-03
      1.26689195e-03 2.95608118e-03 9.71286148e-02 8.95272344e-02
      2.36486420e-02 3.37837846e-03 1.85810775e-02 2.57601272e-02
      9.71283857e-03 4.39189561e-02 3.80491167e-01 1.04039550e-01
      1.63871888e-02 6.47865934e-03 2.40091328e-02 1.52439019e-03
      1.52439019e-03 4.57317103e-03 7.77438432e-02 1.98551655e-01
      1.71493832e-02 3.81097570e-03 1.29573131e-02 1.41006047e-02
      5.33536635e-03 1.90548692e-02 4.92768168e-01 3.91611695e-01
      3.12755257e-01 1.70750871e-01 9.04806778e-02 3.00031416e-02
      4.39836644e-03</_>
    <_>
      1.70509383e-01 9.98363197e-01 9.94247019e-01 9.87770319e-01
      9.79496658e-01 9.69700038e-01 9.58610177e-01 9.46371675e-01
      9.33126569e-01 9.19050097e-01 9.04481649e-01 8.89793336e-01
      8.75492990e-01 8.61753821e-01 8.49301636e-01 8.38063776e-01
      8.28698456e-01 8.21220577e-01 8.15818131e-01 8.12501729e-01
      8.11413109e-01 2.21819475e-01 2.05876842e-01 1.46660596e-01
      1.39229804e-01 1.73034266e-01 2.21819475e-01 2.21819475e-01
      1.95967034e-01 2.21819475e-01 5.67493960e-02 6.65803477e-02
      9.72031876e-02 1.39934599e-01 1.53906211e-01 2.13394433e-01
      1.74963355e-01 8.15833136e-02 8.91669691e-02 2.21819475e-01
      2.21819475e-01 2.05213711e-01 1.61307141e-01 1.60085902e-01
      1.75908223e-01 2.08141267e-01 1.50511816e-01 2.21819475e-01
      9.88105312e-02 1.48078471e-01 2.21819475e-01 1.88295200e-01
      1.18383810e-01 1.11424103e-01 8.56642723e-02 6.11476414e-02
      7.78977647e-02 1.81250000e+00 2.37410069e-01 8.84615362e-01 0. 0.
      0. 0. 0. 0. 0. 0. 0. 0. 0. 0. 0. 0. 0. 0. 0. 4.99683432e-02
      4.42757737e-03 3.16255516e-03 1.01201776e-02 1.26502209e-03
      1.89753319e-03 3.79506615e-03 1.20177120e-02 7.77987689e-02
      1.70778036e-02 2.53004418e-03 1.26502234e-02 5.88234775e-02
      1.26502234e-02 5.18658720e-02 6.79957986e-01 1.46031722e-01
      6.34920895e-02 4.23280429e-03 9.20634493e-02 4.23280429e-03
      1.05820107e-03 4.23280429e-03 9.62962434e-02 1.17460214e-01
      2.53968220e-02 4.23280429e-03 1.58730187e-02 2.22222209e-02
      8.46560951e-03 2.96296235e-02 3.65078747e-01 1.67857334e-01
      2.58928575e-02 0. 3.21428590e-02 1.07142860e-02 9.82142892e-03
      2.67857150e-03 9.64285582e-02 1.46428630e-01 1.78571437e-02
      1.78571430e-03 1.60714295e-02 5.26786149e-02 1.16071431e-02
      5.44643328e-02 3.53571028e-01 7.13769317e-01 2.02431813e-01
      5.65231666e-02 1.74170230e-02 8.54420010e-03 1.31449231e-03</_>
    <_>
      6.67723715e-02 9.98999536e-01 9.97160375e-01 9.94391382e-01
      9.91587043e-01 9.88573849e-01 9.85822499e-01 9.83117700e-01
      9.80611622e-01 9.77936506e-01 9.75288212e-01 9.72659945e-01
      9.70171392e-01 9.68124568e-01 9.66204941e-01 9.64802206e-01
      9.63463783e-01 9.62491989e-01 9.61412966e-01 9.60828006e-01
      9.60419178e-01 4.90965396e-02 1.24243997e-01 2.21844494e-01
      2.48274684e-01 2.73470134e-01 2.58929878e-01 1.00145273e-01
      3.73243392e-02 3.86220738e-02 5.13057671e-02 1.10842653e-01
      2.73470134e-01 2.73470134e-01 2.15403378e-01 1.64257154e-01
      5.94751388e-02 3.36076505e-02 2.67334860e-02 6.02915250e-02
      1.30984366e-01 2.73470134e-01 2.73470134e-01 2.73470134e-01
      1.85853973e-01 7.51974955e-02 4.89102565e-02 4.98284586e-02
      2.06199680e-02 8.36853459e-02 2.73470134e-01 2.73470134e-01
      1.37656212e-01 6.19805604e-02 1.55649586e-02 1.28731523e-02
      1.22243930e-02 3.69230771e+00 1.90283403e-01 8.81720424e-01
      4.33246899e+00 1.15752503e-01 1.40306083e-02 3.82653088e-03
      2.96556018e-02 9.56632663e-04 6.37755089e-04 4.14540851e-03
      6.53698742e-02 6.76020160e-02 1.72193833e-02 3.18877562e-03
      1.91326477e-02 2.55101956e-02 1.17984666e-02 4.71938588e-02
      5.73989809e-01 7.23808408e-02 1.28571447e-02 6.66666543e-03
      2.80952509e-02 1.90476188e-03 3.33333295e-03 2.85714259e-03
      7.76189193e-02 1.50000036e-01 9.52380896e-03 5.71428472e-03
      2.09523886e-02 3.33333425e-02 9.04761814e-03 5.23809008e-02
      5.13329685e-01 8.97296295e-02 1.27567410e-01 4.32432443e-03
      1.00540422e-01 5.40540554e-03 7.56756775e-03 3.24324332e-03
      1.23243086e-01 3.35135087e-02 2.48648655e-02 6.48648664e-03
      5.62161729e-02 1.40540544e-02 1.29729733e-02 2.91891899e-02
      3.61080527e-01 8.23252052e-02 2.55376194e-02 5.37634408e-03
      4.03225534e-02 2.68817181e-03 1.68010755e-03 5.71236573e-03
      7.09004849e-02 1.12567112e-01 1.68010686e-02 4.70430078e-03
      1.78091321e-02 3.89784686e-02 1.10887075e-02 5.34273796e-02
      5.10081053e-01 8.09479117e-01 1.66901305e-01 2.03347411e-02
      3.28484271e-03 0. 0.</_>
    <_>
      1.66074529e-01 9.92069423e-01 9.81301010e-01 9.68904674e-01
      9.55788255e-01 9.43164527e-01 9.30931330e-01 9.19884741e-01
      9.09734607e-01 9.02285814e-01 8.97959590e-01 8.97659421e-01
      9.00070071e-01 9.04770017e-01 9.11673188e-01 9.20088291e-01
      9.29711819e-01 9.38833714e-01 9.45843101e-01 9.49531734e-01
      9.50915575e-01 1.97266173e-02 2.00322866e-01 3.23055238e-01
      3.23055238e-01 4.96356972e-02 1.46210650e-02 2.38842494e-03
      2.14134948e-03 4.87231230e-03 9.36568156e-02 3.23055238e-01
      3.23055238e-01 2.11200953e-01 3.24883573e-02 7.37779308e-03
      1.81709824e-03 1.26283793e-02 4.39950936e-02 3.12212240e-02
      3.23055238e-01 3.23055238e-01 2.12273851e-01 3.49128731e-02
      1.26594109e-02 6.55786926e-03 7.61024421e-03 9.76758264e-03
      8.76790583e-02 3.23055238e-01 3.23055238e-01 5.12304455e-02
      1.28144389e-02 3.93444113e-03 2.77604652e-03 1.84142143e-02
      5.99154308e-02 1.87755108e+00 3.64548504e-01 8.58789623e-01 0. 0.
      0. 0. 0. 0. 0. 0. 0. 0. 0. 0. 0. 0. 0. 0. 0. 4.29760898e-03
      4.83481074e-03 5.37201180e-04 1.97421592e-02 0. 0. 1.34300295e-04
      4.09616269e-02 1.30135536e-01 7.92372040e-03 1.07440248e-03
