<?xml version="1.0"?>
<opencv_storage>
<my_svm type_id="opencv-ml-svm">
  <svm_type>C_SVC</svm_type>
  <kernel><type>RBF</type>
    <gamma>5.0625000000000009e-01</gamma></kernel>
  <C>3.1250000000000000e+02</C>
  <term_criteria><epsilon>2.2204460492503131e-16</epsilon>
    <iterations>3000</iterations></term_criteria>
  <var_all>131</var_all>
  <var_count>131</var_count>
  <class_count>2</class_count>
  <class_labels type_id="opencv-matrix">
    <rows>1</rows>
    <cols>2</cols>
    <dt>i</dt>
    <data>
      -1 1</data></class_labels>
  <class_weights type_id="opencv-matrix">
    <rows>1</rows>
    <cols>2</cols>
    <dt>d</dt>
    <data>
      2.6503697037696838e+02 4.7463038936257362e+01</data></class_weights>
  <sv_total>144</sv_total>
  <support_vectors>
    <_>
      1.43830791e-01 9.98331308e-01 9.94630873e-01 9.89439368e-01
      9.83343661e-01 9.76426363e-01 9.68774140e-01 9.60515857e-01
      9.51379836e-01 9.41765368e-01 9.32440758e-01 9.23354685e-01
      9.14734483e-01 9.06498611e-01 8.98879170e-01 8.91728640e-01
      8.85248661e-01 8.79943073e-01 8.76072466e-01 8.73567820e-01
      8.72712255e-01 9.75107476e-02 8.65858048e-02 1.33225426e-01
      2.29799554e-01 2.43199542e-01 1.13377281e-01 1.21808767e-01
      1.16103634e-01 1.11908026e-01 1.69131696e-01 2.16106519e-01
      2.26270676e-01 2.43199542e-01 2.43199542e-01 1.51973844e-01
      1.51019126e-01 1.01089299e-01 1.18401162e-01 8.52673575e-02
      1.32877275e-01 1.15903474e-01 1.72583058e-01 2.43199542e-01
      1.34836584e-01 1.42510325e-01 1.13685288e-01 7.64857009e-02
      1.35486826e-01 2.20459029e-01 2.43199542e-01 2.43199542e-01
      2.43199542e-01 1.28803626e-01 1.54998869e-01 8.75269398e-02
      7.06990808e-02 2.11111116e+00 3.48837197e-01 8.88888896e-01
      1.85312903e+00 2.35456955e-02 1.80055331e-02 6.92520756e-03
      5.54016307e-02 3.46260378e-03 3.46260378e-03 7.61772832e-03
      6.09417930e-02 2.07756143e-02 1.93905737e-02 4.15512454e-03
      2.56232563e-02 2.00830940e-02 9.00276937e-03 1.01800703e-01
      6.19808495e-01 7.11331293e-02 2.06782464e-02 1.40612079e-02
      5.04549220e-02 2.81224158e-02 1.65425974e-03 1.65425974e-03
      2.97766756e-02 1.28204867e-01 8.27129837e-03 1.65425974e-03
      6.61703898e-03 8.35400224e-02 4.13564919e-03 6.36889935e-02
      4.86353725e-01 1.61616188e-02 3.03030317e-03 1.11111132e-02
      3.33333388e-02 5.05050551e-03 5.05050551e-03 2.02020211e-03
      1.51515184e-02 2.52525304e-02 3.93939465e-02 9.09091067e-03
      6.96969554e-02 1.51515184e-02 1.81818213e-02 2.32323278e-02
      7.09092379e-01 3.12499870e-02 9.90853738e-03 3.04878037e-03
      3.12499870e-02 3.04878037e-03 7.62195094e-04 1.52439019e-03
      1.06707327e-02 5.79267927e-02 3.81097384e-02 6.09756075e-03
      4.80182655e-02 2.51524318e-02 1.14329280e-02 3.27743776e-02
      6.89031124e-01 9.40128267e-01 5.98717034e-02 0. 0. 0. 0.</_>
    <_>
      1.39072850e-01 9.95876253e-01 9.87753928e-01 9.75235820e-01
      9.59330618e-01 9.40565109e-01 9.19304907e-01 8.95937383e-01
      8.70881438e-01 8.44866395e-01 8.18151295e-01 7.91486382e-01
      7.65387475e-01 7.40356266e-01 7.16961861e-01 6.95840776e-01
      6.77176356e-01 6.61477625e-01 6.49580777e-01 6.42044604e-01
      6.39602482e-01 2.27844909e-01 2.27844909e-01 2.23961622e-01
      1.51856571e-01 1.01861611e-01 5.66232353e-02 5.32701574e-02
      8.54921266e-02 1.46653906e-01 2.27844909e-01 2.27844909e-01
      2.27844909e-01 1.67411283e-01 1.76368341e-01 6.79977462e-02
      5.52501492e-02 7.97253475e-02 1.18775971e-01 2.27844909e-01
      2.27844909e-01 1.61234096e-01 1.15846775e-01 1.61122650e-01
      9.75608304e-02 6.97050840e-02 1.19430050e-01 2.24719837e-01
      2.14634880e-01 2.27844909e-01 2.27844909e-01 2.27844909e-01
      2.27844909e-01 7.32628927e-02 5.67810759e-02 8.64388049e-02
      1.19583949e-01 2.36363626e+00 1.88235298e-01 8.75647664e-01 0. 0.
      0. 0. 0. 0. 0. 0. 0. 0. 0. 0. 0. 0. 0. 0. 0. 9.34912935e-02
      4.73372778e-03 1.18343194e-03 1.77514786e-03 0. 0. 0.
      1.47928968e-02 7.04143047e-02 1.53846126e-02 2.36686389e-03
      9.46745463e-03 1.71597600e-02 5.32544358e-03 5.62130809e-02
      7.07687914e-01 8.62403437e-02 1.45348869e-02 1.16279088e-02
      5.32945953e-02 0. 0. 0. 1.93798505e-02 8.62403437e-02
      4.55426537e-02 9.68992244e-04 4.36046682e-02 3.00387703e-02
      8.72093067e-03 1.93798505e-02 5.80426574e-01 3.10245454e-02
      1.08225122e-02 5.77200577e-03 4.61760312e-02 1.44300144e-03
      2.16450216e-03 6.49350649e-03 4.76190299e-02 1.39970943e-01
      3.03030442e-02 6.49350649e-03 4.61760312e-02 1.51515193e-02
      1.73160229e-02 1.94805264e-02 5.73598683e-01 9.38847125e-01
      6.11528829e-02 0. 0. 0. 0.</_>
    <_>
      1.60894871e-01 9.97806787e-01 9.92240131e-01 9.84332383e-01
      9.75085318e-01 9.65237558e-01 9.54901159e-01 9.44092989e-01
      9.32733595e-01 9.20955420e-01 9.09188926e-01 8.97867441e-01
      8.87368500e-01 8.77871156e-01 8.69606614e-01 8.62945616e-01
      8.58100891e-01 8.55041087e-01 8.53548229e-01 8.53051901e-01
      8.52993786e-01 6.22410737e-02 3.34166884e-02 1.45479575e-01
      2.19514981e-01 2.63852447e-01 2.39908159e-01 1.58921212e-01
      7.74660707e-02 7.77117088e-02 4.69214432e-02 2.95534525e-02
      1.63575962e-01 2.63852447e-01 2.63852447e-01 1.33475319e-01
      5.83330765e-02 3.43624130e-02 4.97932285e-02 5.33396825e-02
      3.88149545e-02 9.23303217e-02 1.63303375e-01 2.60778487e-01
      2.63852447e-01 2.63852447e-01 8.30039755e-02 5.86062931e-02
      4.18226495e-02 4.79443371e-02 2.60457009e-01 2.63852447e-01
      2.63852447e-01 2.63852447e-01 1.55110642e-01 4.13244553e-02
      3.14125195e-02 3.42424250e+00 3.45814973e-01 8.71153831e-01 0. 0.
      0. 0. 0. 0. 0. 0. 0. 0. 0. 0. 0. 0. 0. 0. 0. 3.70236970e-02
      1.55408438e-02 4.97714663e-03 9.80192609e-03 1.01574406e-04
      1.01574406e-04 6.09446433e-04 2.10258272e-02 6.10966794e-02
      1.30014997e-02 1.26968045e-03 1.16302539e-02 2.61553023e-02
      6.09446829e-03 3.81917953e-02 7.53331184e-01 9.40629616e-02
      3.39911357e-02 1.48809550e-03 4.42511216e-02 1.25313294e-03
      7.83208001e-04 8.61528795e-04 8.34896937e-02 9.11651030e-02
      2.60807648e-02 1.95802050e-03 2.10682526e-02 2.16164961e-02
      4.54260688e-03 2.00500861e-02 5.53334415e-01 1.69459656e-02
      2.12766603e-02 8.22192244e-03 3.48963812e-02 1.31801888e-03
      7.53153814e-04 9.41442268e-04 6.03156760e-02 1.11907430e-01
      1.06696701e-02 1.12973060e-03 1.36822825e-02 3.88504937e-02
      3.20090167e-03 5.43531254e-02 6.21548593e-01 9.20192540e-01
      7.57160038e-02 3.65824299e-03 4.33212990e-04 0. 0.</_>
    <_>
      1.70076728e-01 9.97988999e-01 9.93204176e-01 9.85791087e-01
      9.76174712e-01 9.64528322e-01 9.51563656e-01 9.37052250e-01
      9.21320081e-01 9.05036688e-01 8.88314724e-01 8.71591151e-01
      8.55460465e-01 8.40047479e-01 8.25662196e-01 8.12813044e-01
      8.02131712e-01 7.93481588e-01 7.87435591e-01 7.83763945e-01
      7.82701254e-01 9.99773741e-02 1.00080818e-01 1.30433276e-01
      1.64582103e-01 2.21774876e-01 2.65944809e-01 2.65944809e-01
      1.63746729e-01 9.96947438e-02 8.27872157e-02 1.20032042e-01
      2.65944809e-01 2.65944809e-01 2.42761180e-01 8.87977555e-02
      6.95800334e-02 5.40831275e-02 6.12580590e-02 1.40609473e-01
      1.88089192e-01 2.25838348e-01 1.21457659e-01 1.21809877e-01
      2.22614050e-01 2.07228437e-01 1.34108126e-01 1.18755929e-01
      9.00075436e-02 2.03211397e-01 2.65944809e-01 2.65944809e-01
      8.37775022e-02 3.66289206e-02 3.07327751e-02 3.50433886e-02
      5.54729663e-02 2.46153855e+00 2.26993859e-01 8.85245919e-01 0. 0.
      0. 0. 0. 0. 0. 0. 0. 0. 0. 0. 0. 0. 0. 0. 0. 5.72222695e-02
      6.66666590e-03 5.55555522e-03 1.33333299e-02 1.11111114e-03
      2.77777785e-03 1.11111114e-03 1.05555533e-02 5.88889383e-02
      1.49999959e-02 3.88888898e-03 1.77777763e-02 2.22222265e-02
      6.11111056e-03 4.38889191e-02 7.33893037e-01 1.39372602e-01
      8.01393539e-02 1.04529606e-02 7.49128908e-02 3.48432059e-03
      3.48432059e-03 6.09756075e-03 1.07142746e-01 1.06271669e-01
      4.52961922e-02 8.71080067e-03 4.18118685e-02 2.00348459e-02
      1.04529606e-02 1.91637650e-02 3.23171139e-01 1.29841909e-01
      1.43472059e-02 6.45624101e-03 2.94117760e-02 2.86944048e-03
      2.86944048e-03 5.73888095e-03 7.67574981e-02 2.81204849e-01
      1.36298453e-02 3.58680054e-03 2.51076128e-02 2.29555313e-02
      1.14777638e-02 2.86944155e-02 3.45050931e-01 6.01334035e-01
      3.40687543e-01 4.84864041e-02 7.43971253e-03 2.05233460e-03 0.</_>
    <_>
      9.17234123e-02 9.98903096e-01 9.95993495e-01 9.91620779e-01
      9.86019790e-01 9.79512334e-01 9.72516418e-01 9.65460360e-01
      9.58557487e-01 9.51997995e-01 9.46118295e-01 9.41117525e-01
      9.36955571e-01 9.33713853e-01 9.31419015e-01 9.30053294e-01
      9.29424345e-01 9.29273248e-01 9.29401278e-01 9.29580569e-01
      9.29655313e-01 6.76087141e-02 1.33789619e-02 2.26431172e-02
      4.26210426e-02 2.29527652e-01 3.07170004e-01 2.58277416e-01
      1.16904728e-01 7.30297714e-02 2.15365570e-02 5.75077906e-03
      7.11445361e-02 3.07170004e-01 2.80301869e-01 1.29306421e-01
      3.93048711e-02 1.97251905e-02 1.44405924e-02 3.35835405e-02
      2.48783063e-02 5.23419231e-02 9.64050144e-02 3.07170004e-01
      3.07170004e-01 1.86830178e-01 7.51508549e-02 2.72707343e-02
      4.44911607e-02 4.36020605e-02 2.07616508e-01 3.07170004e-01
      3.07170004e-01 2.65726119e-01 8.69363472e-02 4.00205329e-02
      2.27671023e-02 4.21052647e+00 2.40121573e-01 8.96174848e-01 0. 0.
      0. 0. 0. 0. 0. 0. 0. 0. 0. 0. 0. 0. 0. 0. 0. 4.49653529e-02
      3.53825791e-03 5.01253223e-03 1.91655420e-02 2.21141102e-03
      4.42282180e-04 2.21141102e-03 3.25813703e-02 8.19693804e-02
      1.44478874e-02 5.89709682e-03 1.93129685e-02 3.92156467e-02
      7.96108041e-03 6.35413006e-02 6.57510221e-01 1.55483738e-01
      4.29031961e-02 1.93548400e-03 6.87096268e-02 1.93548400e-03
      2.58064526e-03 6.45161315e-04 1.58064380e-01 4.93548028e-02
      2.35483740e-02 1.61290332e-03 2.22580526e-02 9.99999978e-03
      8.70967843e-03 1.25806425e-02 4.39677030e-01 4.99417260e-02
      9.14634485e-03 4.79094032e-03 1.87282339e-02 3.19395959e-03
      2.90360040e-04 2.46806000e-03 5.25549352e-02 1.17015496e-01
      1.08885067e-02 2.75841984e-03 6.67828228e-03 2.74390429e-02
      5.37166093e-03 3.60046104e-02 6.52727127e-01 5.56383491e-01
      3.10382515e-01 9.00149047e-02 2.54346747e-02 1.68902129e-02
      8.94187775e-04</_>
    <_>
      1.80142000e-01 9.98269677e-01 9.93633151e-01 9.86199558e-01
      9.76068139e-01 9.63599205e-01 9.49076951e-01 9.33044970e-01
      9.15718496e-01 8.97654891e-01 8.79250884e-01 8.60888362e-01
      8.43134105e-01 8.26385140e-01 8.11035156e-01 7.97355771e-01
      7.85886645e-01 7.76783228e-01 7.70110190e-01 7.66071677e-01
      7.64689922e-01 1.53292015e-01 1.01844504e-01 1.52695864e-01
      1.29568696e-01 2.07571730e-01 1.84764996e-01 1.92749545e-01
      2.23924920e-01 2.23924920e-01 8.07052776e-02 7.77963325e-02
      1.19880699e-01 2.03808635e-01 1.84586719e-01 1.49407670e-01
      1.60482809e-01 1.66911826e-01 1.11570656e-01 2.23924920e-01
      1.88388720e-01 1.53863281e-01 9.96861532e-02 1.65618569e-01
      1.88676670e-01 1.81202948e-01 2.23924920e-01 2.23924920e-01
      8.55340585e-02 1.07341237e-01 2.23924920e-01 2.23924920e-01
      1.29298851e-01 1.55426234e-01 1.28071740e-01 1.31446347e-01
      9.55149755e-02 3.29999995e+00 2.22222224e-01 8.84615362e-01
      1.93328774e+00 6.86983690e-02 2.89256051e-02 3.61570250e-03
      4.49380316e-02 1.03305781e-03 2.58264458e-03 2.06611562e-03
      6.35331050e-02 8.31611082e-02 3.61570194e-02 1.03305781e-03
      2.68594921e-02 2.68594921e-02 6.71487488e-03 2.63429638e-02
      5.77483356e-01 5.98765723e-02 5.55555522e-03 3.08641978e-03
      1.04938280e-02 1.85185194e-03 3.08641978e-03 1.23456796e-03
      2.34567989e-02 5.67901507e-02 3.70370364e-03 3.70370364e-03
      1.54321026e-02 2.28395145e-02 4.32098750e-03 4.87654544e-02
      7.35799193e-01 6.81245029e-02 4.45752740e-02 7.56938616e-03
      7.14886785e-02 4.20521433e-03 2.52312864e-03 5.88730024e-03
      8.66274685e-02 1.29520670e-01 5.63498884e-02 2.52312864e-03
      4.20521423e-02 4.70984057e-02 1.42977294e-02 4.20521423e-02
      3.75105530e-01 9.65279490e-02 2.50000004e-02 6.94444450e-03
      4.58333716e-02 5.55555569e-03 2.77777785e-03 5.55555569e-03
      1.29861310e-01 2.41665959e-01 3.68055701e-02 5.55555569e-03
      3.40277851e-02 1.94444451e-02 1.18055558e-02 1.11111114e-02
      3.21527958e-01 7.09049881e-01 2.02988446e-01 6.68170303e-02
      1.74795594e-02 3.66506912e-03 0.</_>
    <_>
      1.48107007e-01 9.96473789e-01 9.89603221e-01 9.80980098e-01
      9.71023560e-01 9.60290194e-01 9.49070215e-01 9.37385261e-01
      9.24887538e-01 9.12185788e-01 8.99559796e-01 8.87157202e-01
      8.75498950e-01 8.63951445e-01 8.53229403e-01 8.44266415e-01
      8.37425113e-01 8.32752585e-01 8.30197811e-01 8.28855157e-01
      8.28430414e-01 2.18861580e-01 1.69464380e-01 2.08171621e-01
      1.66899443e-01 2.18861580e-01 1.86955035e-01 1.89400330e-01
      2.18861580e-01 2.18861580e-01 9.79004279e-02 2.18861580e-01
      1.98910147e-01 2.05460474e-01 1.49967074e-01 8.52380022e-02
      1.26087055e-01 1.01550274e-01 7.51064792e-02 2.11894467e-01
      1.58359632e-01 2.18861580e-01 2.18861580e-01 2.18861580e-01
      1.34103894e-01 9.87863168e-02 1.50548294e-01 2.11555555e-01
      6.21446222e-02 6.79421127e-02 2.07712933e-01 2.18861580e-01
      1.34326696e-01 5.22014946e-02 4.13590446e-02 3.67439762e-02
      4.91147451e-02 2.34615374e+00 2.72321433e-01 8.74509811e-01
      2.50958657e+00 2.61224024e-02 3.34693268e-02 4.28571412e-03
      4.22448777e-02 8.97959154e-03 4.89795906e-03 2.44897953e-03
      4.53061163e-02 3.59183177e-02 2.10203845e-02 3.06122447e-03
      2.63264831e-02 2.51019988e-02 6.12244895e-03 4.48979512e-02
      6.69807613e-01 4.70218658e-02 7.10553909e-03 1.50470082e-02
      5.01567451e-03 6.26959256e-04 0. 4.17972828e-04 7.73249846e-03
      3.88714485e-02 1.52559942e-02 1.04493205e-03 7.52351200e-03
      1.48380222e-02 3.76175600e-03 5.74711189e-02 7.78235674e-01
      5.35715483e-02 5.80358580e-02 3.43406596e-03 6.07831255e-02
      1.37362641e-03 1.37362641e-03 1.71703298e-03 5.73490411e-02
      5.46017736e-02 2.64423080e-02 2.06043967e-03 3.12500000e-02
      2.98763737e-02 4.46428591e-03 5.46017736e-02 5.59067667e-01
      1.55467754e-02 1.68642979e-02 6.58761663e-03 4.74308394e-02
      2.37154192e-03 3.42556066e-03 3.42556066e-03 5.08564003e-02
      8.16864446e-02 2.95125227e-02 3.95256979e-03 2.71409806e-02
      3.45191099e-02 1.15942052e-02 6.37681261e-02 6.01324081e-01
      8.24818850e-01 1.24456525e-01 3.09782606e-02 1.35869561e-02
      5.61594218e-03 5.43478236e-04</_>
    <_>
      1.81649491e-01 9.98001158e-01 9.93170083e-01 9.85568464e-01
      9.75671291e-01 9.64131534e-01 9.51097906e-01 9.37053382e-01
      9.22123194e-01 9.07023966e-01 8.91703665e-01 8.76789510e-01
      8.62431884e-01 8.48980129e-01 8.36918235e-01 8.26231778e-01
      8.17458928e-01 8.10714483e-01 8.06155264e-01 8.03602457e-01
      8.02739739e-01 9.54964161e-02 9.28594843e-02 1.37370571e-01
      1.20673098e-01 1.13474086e-01 2.28065819e-01 2.42480323e-01
      2.08562821e-01 1.16631731e-01 6.12395406e-02 6.90743253e-02
      2.42480323e-01 2.42480323e-01 1.48935229e-01 9.67538059e-02
      1.16955072e-01 1.13555819e-01 7.28259310e-02 1.55993834e-01
      2.15009838e-01 2.42480323e-01 1.50133654e-01 1.63865164e-01
      2.42480323e-01 2.42480323e-01 2.42480323e-01 1.92411378e-01
      6.96207508e-02 1.55580670e-01 2.42480323e-01 2.42480323e-01
      1.30451947e-01 9.89846587e-02 6.87857792e-02 5.84655255e-02
      4.79855537e-02 2.83333325e+00 1.93181813e-01 8.92857134e-01 0. 0.
      0. 0. 0. 0. 0. 0. 0. 0. 0. 0. 0. 0. 0. 0. 0. 6.36161417e-02
      9.48660728e-03 2.23214296e-03 1.33928554e-02 1.67410728e-03
      1.11607148e-03 1.67410728e-03 8.92857183e-03 2.34374944e-02
      5.58035774e-03 4.46428591e-03 1.72991045e-02 2.17633881e-02
      4.46428591e-03 5.46875559e-02 7.66179979e-01 8.12671483e-02
      5.50964400e-02 6.88705174e-03 7.92010427e-02 2.75482098e-03
      2.75482098e-03 4.13223123e-03 9.50411856e-02 6.74931109e-02
      3.37465666e-02 4.13223123e-03 4.13223282e-02 3.58126834e-02
      1.30854016e-02 3.65013890e-02 4.40769523e-01 6.71095550e-02
      1.86046530e-02 7.97342043e-03 4.25248966e-02 2.65780720e-03
      3.32225906e-03 4.65116231e-03 8.23919103e-02 2.39867896e-01
      1.66112967e-02 5.31561393e-03 2.65780780e-02 2.12624613e-02
      9.96677671e-03 2.72425301e-02 4.23918784e-01 8.33504617e-01
      1.40544713e-01 2.33812947e-02 2.56937300e-03 0. 0.</_>
    <_>
      1.64155766e-01 9.98209655e-01 9.93475139e-01 9.86160815e-01
      9.76445913e-01 9.64904726e-01 9.51653242e-01 9.36897218e-01
      9.20973778e-01 9.04006481e-01 8.86610150e-01 8.69250536e-01
      8.52409482e-01 8.36595476e-01 8.21984828e-01 8.08972061e-01
      7.97845125e-01 7.88695872e-01 7.82058835e-01 7.77947128e-01
      7.76460946e-01 2.23213315e-01 1.56249031e-01 1.56920657e-01
      1.42343923e-01 1.75139278e-01 1.52748898e-01 1.72244206e-01
      2.23213315e-01 2.23213315e-01 1.65421665e-01 1.17080070e-01
      1.46332875e-01 2.23213315e-01 2.23213315e-01 1.48960128e-01
      1.04456797e-01 1.02397278e-01 1.18697703e-01 1.95923790e-01
      1.31534919e-01 1.34605065e-01 1.17876060e-01 1.44075677e-01
      1.28177091e-01 9.54417959e-02 2.03788891e-01 2.23213315e-01
      1.43562898e-01 2.23213315e-01 2.23213315e-01 2.23213315e-01
      2.11795658e-01 1.21036157e-01 5.42257763e-02 6.99761361e-02
      1.12854213e-01 1.90476191e+00 2.10784316e-01 8.94273102e-01 0. 0.
      0. 0. 0. 0. 0. 0. 0. 0. 0. 0. 0. 0. 0. 0. 0. 7.08636940e-02
      5.60316397e-03 1.31839153e-03 1.45023065e-02 6.59195764e-04
      6.59195764e-04 9.88793676e-04 1.91166867e-02 5.70205450e-02
      2.10942794e-02 3.62557662e-03 2.63678599e-02 3.03230453e-02
      1.08767301e-02 5.76797426e-02 6.79299831e-01 1.36678621e-01
      5.01729921e-02 6.92041405e-03 8.93888324e-02 3.46020749e-03
      1.73010374e-03 1.26874242e-02 8.70820135e-02 1.04383156e-01
      1.96078364e-02 3.46020749e-03 2.01845374e-02 4.84428890e-02
      1.26874242e-02 5.19030951e-02 3.51212770e-01 1.06666505e-01
      2.79999916e-02 5.33333281e-03 4.17777970e-02 2.66666664e-03
      1.77777780e-03 2.66666664e-03 8.66666138e-02 1.20888650e-01
      2.53333282e-02 6.22222153e-03 2.00000014e-02 3.86666767e-02
      1.46666719e-02 5.82222901e-02 4.40442473e-01 6.79428399e-01
      2.20359921e-01 6.19266070e-02 3.19336616e-02 6.17501745e-03
      1.76429079e-04</_>
    <_>
      9.23076943e-02 9.98339593e-01 9.94727910e-01 9.89145696e-01
      9.81409967e-01 9.72350955e-01 9.61880803e-01 9.50401485e-01
      9.38584983e-01 9.26264644e-01 9.14318502e-01 9.02825952e-01
      8.91977549e-01 8.82271826e-01 8.73367310e-01 8.65652859e-01
      8.59544218e-01 8.54467273e-01 8.51092756e-01 8.49216819e-01
      8.48449349e-01 2.24156380e-01 1.97071195e-01 1.82732910e-01
      1.17040135e-01 2.24156380e-01 2.24156380e-01 2.12774515e-01
      1.74806938e-01 2.24156380e-01 1.32531896e-01 1.44547611e-01
      2.24156380e-01 2.24156380e-01 2.24156380e-01 1.57888398e-01
      1.23631850e-01 8.64028260e-02 9.37207341e-02 6.07696250e-02
      5.57539389e-02 4.88313437e-02 6.31204769e-02 1.80175245e-01
      2.24156380e-01 1.96106613e-01 8.26662034e-02 8.41110349e-02
      1.28090858e-01 1.56253532e-01 2.24156380e-01 2.24156380e-01
      2.24156380e-01 1.71677798e-01 1.02620170e-01 6.27876222e-02
      7.48720691e-02 3.09090900e+00 2.41134748e-01 8.97435904e-01 0. 0.
      0. 0. 0. 0. 0. 0. 0. 0. 0. 0. 0. 0. 0. 0. 0. 2.50544678e-02
      4.35729837e-03 5.44662308e-03 2.61437930e-02 3.26797366e-03
      5.44662308e-03 2.17864919e-03 1.30718937e-02 1.14379168e-01
      2.61437930e-02 9.80392098e-03 3.81263569e-02 7.18954131e-02
      1.74291916e-02 4.79302667e-02 5.89327216e-01 8.64197165e-02
      4.78394888e-02 1.38888890e-02 9.56789702e-02 1.54320989e-03
      3.08641978e-03 9.25925933e-03 8.02468807e-02 8.64197165e-02
      3.70370261e-02 1.38888890e-02 4.47530709e-02 2.77777724e-02
      2.00617276e-02 2.62345634e-02 4.05865461e-01 1.00000113e-01
      2.18045078e-02 3.00751883e-03 5.41353077e-02 3.30826938e-02 0.
      2.25563906e-03 8.19549263e-02 1.59398854e-01 1.87969916e-02
      5.26315765e-03 1.80451125e-02 6.91729188e-02 1.20300762e-02
      4.13533635e-02 3.79700512e-01 8.50020945e-01 1.37410983e-01
      9.63552576e-03 2.93255132e-03 0. 0.</_>
    <_>
      1.66173771e-01 9.99101818e-01 9.97075140e-01 9.94248211e-01
      9.90652561e-01 9.86598253e-01 9.81925309e-01 9.76594031e-01
      9.70901191e-01 9.64922190e-01 9.58720386e-01 9.52530742e-01
      9.46569920e-01 9.40961421e-01 9.35863256e-01 9.31311965e-01
      9.27323639e-01 9.23970819e-01 9.21256959e-01 9.19433475e-01
      9.18792248e-01 8.40779170e-02 9.02642682e-02 1.50376335e-01
      1.67780221e-01 2.61360377e-01 2.61360377e-01 2.61360377e-01
      1.33949563e-01 8.93167779e-02 1.89897027e-02 1.96247026e-02
      1.60741493e-01 1.98079243e-01 2.61360377e-01 3.37536000e-02
      2.99013667e-02 2.31803097e-02 2.12026406e-02 8.25936049e-02
      1.24192677e-01 1.06251106e-01 1.14607453e-01 2.61360377e-01
      2.61360377e-01 2.61360377e-01 1.84663683e-01 1.03536606e-01
      8.61901492e-02 2.06686944e-01 2.61360377e-01 2.61360377e-01
      2.61360377e-01 6.95646703e-02 5.59824295e-02 4.32972088e-02
      4.54973914e-02 7.04761887e+00 3.19702595e-01 8.96494150e-01
      1.65231913e-01 4.86767776e-02 2.17391308e-02 5.19848801e-03
      7.65596032e-02 9.45179607e-04 2.83553894e-03 5.67107787e-03
      1.15312010e-01 1.84309985e-02 6.14366774e-03 1.89035921e-03
      1.37050999e-02 1.46502787e-02 7.08884746e-03 3.07183471e-02
      6.30431652e-01 1.20464601e-02 1.48040866e-02 1.76584329e-02
      1.82873532e-02 2.08030944e-03 1.30624091e-03 1.74165459e-03
      2.31252015e-02 3.44458893e-02 2.05611419e-02 2.56410125e-03
      2.93660257e-02 1.79003254e-02 8.46638344e-03 4.31059711e-02
      7.52599657e-01 5.89486323e-02 3.25600766e-02 2.34092330e-03
      4.32715602e-02 1.20593049e-03 1.56061596e-03 2.55373423e-03
      7.57606998e-02 3.08575891e-02 1.95076726e-02 3.19216703e-03
      2.37638913e-02 1.05696134e-02 7.44838594e-03 1.61736347e-02
      6.70252502e-01 4.36248258e-02 3.59025672e-02 3.19299218e-03
      2.63608769e-02 1.18808937e-03 7.42555945e-04 2.19053961e-03
      6.23735785e-02 7.38827139e-02 1.55937262e-02 2.04202812e-03
      1.43313706e-02 3.35636139e-02 9.50471684e-03 4.16200086e-02
      6.33959949e-01 6.86623991e-01 2.27981612e-01 4.48123179e-02
      2.03333423e-02 1.56518798e-02 4.59685829e-03</_>
    <_>
      1.65870175e-01 9.98463750e-01 9.94661152e-01 9.88495290e-01
      9.80753839e-01 9.71285999e-01 9.60759103e-01 9.49114978e-01
      9.37075019e-01 9.24535096e-01 9.12006974e-01 8.99495125e-01
      8.87666404e-01 8.76567662e-01 8.66755843e-01 8.58089387e-01
      8.51070762e-01 8.45489442e-01 8.41685414e-01 8.39282632e-01
      8.38614404e-01 5.39084710e-02 4.89032567e-02 6.22211955e-02
      1.60906583e-01 2.63714045e-01 2.63714045e-01 1.85403332e-01
      1.21465757e-01 1.06606178e-01 8.38334188e-02 8.32921639e-02
      2.44162142e-01 2.63714045e-01 2.63714045e-01 1.93582967e-01
      1.18689127e-01 1.03485525e-01 1.08670808e-01 6.78920820e-02
      9.04194787e-02 1.36392862e-01 2.21867219e-01 2.63714045e-01
      1.95859298e-01 1.64945170e-01 1.07716829e-01 1.04500249e-01
      5.90344518e-02 1.61560759e-01 2.63714045e-01 2.63714045e-01
      1.93386376e-01 1.08542390e-01 9.16936919e-02 7.64973611e-02
      7.48637021e-02 3.20000005e+00 2.12669685e-01 8.90688241e-01 0. 0.
      0. 0. 0. 0. 0. 0. 0. 0. 0. 0. 0. 0. 0. 0. 0. 6.63997009e-02
      6.00600475e-03 6.67334010e-04 8.00800603e-03 2.66933604e-03
      7.00700516e-03 2.66933604e-03 2.30230130e-02 5.60560264e-02
      1.43476753e-02 3.33667011e-03 2.50250138e-02 2.43576802e-02
      7.67433876e-03 3.77043523e-02 7.15048015e-01 1.26245990e-01
      4.60370220e-02 5.22069307e-03 7.35643655e-02 1.89843378e-03
      9.49216890e-04 1.42382528e-03 1.03939369e-01 6.92928806e-02
      2.84764841e-02 4.27147606e-03 2.99003068e-02 1.51874712e-02
      9.01756063e-03 2.80018765e-02 4.56568986e-01 1.53090134e-01
      1.78181920e-02 2.18181801e-03 2.80000214e-02 1.09090912e-03
      3.63636354e-04 3.63636320e-03 8.83634537e-02 1.73089951e-01
      1.41818244e-02 2.18181801e-03 7.63636269e-03 5.23636825e-02
      1.01818200e-02 4.21818532e-02 4.03639585e-01 7.81035066e-01
      1.81788400e-01 2.63675079e-02 9.00753401e-03 1.80150673e-03 0.</_>
    <_>
      1.57105356e-01 9.98032868e-01 9.94256377e-01 9.88685548e-01
      9.82012272e-01 9.74666238e-01 9.66913939e-01 9.59221482e-01
      9.51784551e-01 9.44656372e-01 9.37695801e-01 9.30683076e-01
      9.24054742e-01 9.17655408e-01 9.11955059e-01 9.06963408e-01
      9.02475476e-01 8.98619831e-01 8.95834148e-01 8.94237459e-01
      8.93423498e-01 1.09821752e-01 9.78080779e-02 1.14650913e-01
      1.39947563e-01 2.27194577e-01 1.76016450e-01 2.05842912e-01
      1.56248108e-01 1.34296909e-01 1.39288306e-01 1.86012834e-01
      2.34040424e-01 2.34040424e-01 2.34040424e-01 7.21916556e-02
      9.56808999e-02 1.21358469e-01 1.15959294e-01 1.11952238e-01
      1.16462231e-01 1.46945223e-01 2.20021173e-01 2.34040424e-01
      1.53534204e-01 1.61793232e-01 1.23678446e-01 1.17726684e-01
      1.86632231e-01 2.34040424e-01 2.34040424e-01 2.34040424e-01
      2.34040424e-01 5.17549254e-02 6.01280853e-02 9.20674056e-02
      1.28588453e-01 2.05263162e+00 3.00000012e-01 8.92215550e-01 0. 0.
      0. 0. 0. 0. 0. 0. 0. 0. 0. 0. 0. 0. 0. 0. 0. 3.95833552e-02
      1.45833334e-02 6.25000009e-03 3.81944627e-02 2.08333344e-03
      2.08333344e-03 7.63888890e-03 4.86111566e-02 1.50694475e-01
      1.11111114e-02 5.55555569e-03 3.47222313e-02 7.29167759e-02
      1.52777778e-02 6.52778670e-02 4.85419035e-01 1.34952748e-02
      9.44669265e-03 6.07287372e-03 4.04858477e-02 4.72334633e-03
      2.69905524e-03 5.39811002e-03 1.75438579e-02 3.44129577e-02
      3.98110822e-02 4.04858263e-03 5.60054556e-02 8.77192896e-03
      9.44669265e-03 1.34952748e-02 7.34147489e-01 6.32678717e-02
      1.28992656e-02 6.14250591e-03 4.23833095e-02 1.84275187e-03
      6.14250603e-04 1.22850121e-03 3.19410264e-02 8.66093040e-02
      4.36118133e-02 2.45700241e-03 3.25552784e-02 2.21130215e-02
      9.82801057e-03 3.00982725e-02 6.12406194e-01 9.33623075e-01
      6.51916265e-02 1.18530227e-03 0. 0. 0.</_>
    <_>
      2.03342617e-01 9.96768475e-01 9.89669323e-01 9.79410291e-01
      9.66503859e-01 9.50684726e-01 9.32315350e-01 9.12308514e-01
      8.90714645e-01 8.67879331e-01 8.44525576e-01 8.20880830e-01
      7.97755420e-01 7.75751650e-01 7.55590081e-01 7.37673938e-01
      7.22310901e-01 7.10917950e-01 7.03061104e-01 6.98438168e-01
      6.96864188e-01 1.68164521e-01 2.11183697e-01 1.57710478e-01
      1.91691935e-01 1.72455221e-01 2.10333347e-01 1.72516167e-01
      1.71870559e-01 1.45459861e-01 1.59033582e-01 2.11183697e-01
      1.86643139e-01 1.69214800e-01 1.50078043e-01 1.93874270e-01
      1.64553419e-01 1.93496227e-01 1.36377290e-01 1.16483837e-01
      1.46443605e-01 1.58111796e-01 1.45851105e-01 1.79108679e-01
      2.11183697e-01 2.10336849e-01 1.30891755e-01 1.02555156e-01
      1.07059754e-01 1.79488257e-01 2.11183697e-01 1.70646727e-01
      1.37919292e-01 1.78217798e-01 1.49009481e-01 8.47438574e-02
      7.03041404e-02 2.09999990e+00 1.39240503e-01 8.48648667e-01 0. 0.
      0. 0. 0. 0. 0. 0. 0. 0. 0. 0. 0. 0. 0. 0. 0. 1.61841989e-01
      1.31578939e-02 1.31578953e-03 1.31578939e-02 0. 1.31578953e-03
      1.31578953e-03 2.10526306e-02 2.71052569e-01 3.42105292e-02
      5.26315812e-03 1.71052627e-02 3.81579027e-02 7.89473671e-03
      4.34210673e-02 3.69737744e-01 6.59999549e-02 4.79999743e-02
      9.00000054e-03 6.59999549e-02 6.00000052e-03 5.00000035e-03
      6.00000052e-03 8.59999955e-02 9.70000178e-02 3.29999998e-02
      7.00000068e-03 4.59999777e-02 7.19999671e-02 2.80000027e-02
      4.79999743e-02 3.76998693e-01 1.17216118e-01 2.44200248e-02
      9.76801012e-03 5.49450554e-02 4.88400506e-03 1.09890113e-02
      3.66300391e-03 6.22710623e-02 2.21001223e-01 3.66300382e-02
      4.88400506e-03 3.66300382e-02 5.61660565e-02 2.31990237e-02
      1.83150191e-02 3.15018326e-01 7.85386205e-01 2.09603339e-01
      4.59290203e-03 4.17536532e-04 0. 0.</_>
    <_>
      1.17706530e-01 9.94401813e-01 9.84379292e-01 9.71579254e-01
      9.57663953e-01 9.41834211e-01 9.24226046e-01 9.03178036e-01
      8.80833864e-01 8.57732832e-01 8.35347831e-01 8.13238263e-01
      7.90802062e-01 7.68591404e-01 7.47040093e-01 7.28777409e-01
      7.13165522e-01 6.99754238e-01 6.88323379e-01 6.80981636e-01
      6.77771151e-01 1.34254813e-01 1.74042821e-01 1.33275330e-01
      2.03665376e-01 2.19841585e-01 1.48862094e-01 1.05795428e-01
      1.27188921e-01 1.34113804e-01 1.62717178e-01 1.50400102e-01
      2.18535900e-01 2.19841585e-01 2.19841585e-01 1.41471416e-01
      7.99884126e-02 1.46350205e-01 1.16680138e-01 2.19841585e-01
      2.19841585e-01 1.49317265e-01 1.64181903e-01 1.79214090e-01
      1.40173033e-01 1.20936967e-01 8.75873938e-02 1.56428531e-01
      1.81423485e-01 2.09369615e-01 2.19841585e-01 2.19841585e-01
      2.19841585e-01 1.55397221e-01 1.17321402e-01 8.18577558e-02
      9.29448605e-02 2.54545450e+00 1.92307696e-01 8.90804589e-01 0. 0.
      0. 0. 0. 0. 0. 0. 0. 0. 0. 0. 0. 0. 0. 0. 0. 5.68421558e-02
      2.80701765e-03 4.21052659e-03 4.91228094e-03 3.50877200e-03
      1.40350882e-03 3.50877200e-03 2.10526329e-03 6.31579533e-02
      1.19298249e-02 1.40350882e-03 1.61403511e-02 1.96491275e-02
      4.21052659e-03 4.35088053e-02 7.60691643e-01 1.39354751e-01
      1.67741925e-02 2.58064526e-03 4.38709632e-02 2.58064526e-03 0. 0.
      2.83871014e-02 7.99999610e-02 4.51612845e-02 0. 3.74193564e-02
      2.70967782e-02 1.16129033e-02 2.96774246e-02 5.35483420e-01
      8.06451887e-02 1.18845515e-02 5.09337848e-03 3.56536619e-02
      2.54668947e-03 4.24448214e-03 3.39558581e-03 3.82003523e-02
      1.41765609e-01 3.39558683e-02 2.54668947e-03 3.82003523e-02
      2.37691067e-02 1.27334483e-02 1.95246227e-02 5.45836985e-01
      9.06036735e-01 9.29133892e-02 1.04986876e-03 0. 0. 0.</_>
    <_>
      1.17873304e-01 9.98783708e-01 9.96087968e-01 9.91780698e-01
      9.86120224e-01 9.79169309e-01 9.71191108e-01 9.62426186e-01
      9.52940822e-01 9.43109453e-01 9.32966650e-01 9.22894239e-01
      9.13257122e-01 9.04062808e-01 8.95576298e-01 8.87958825e-01
      8.81640792e-01 8.76564741e-01 8.73009562e-01 8.70824277e-01
      8.70065570e-01 1.06159799e-01 1.35631129e-01 1.64889455e-01
      2.37592429e-01 2.33088389e-01 2.44337067e-01 2.44337067e-01
      1.92920029e-01 1.35236546e-01 1.50196716e-01 2.24261910e-01
      2.44337067e-01 2.44337067e-01 2.44337067e-01 1.35069147e-01
      1.19118832e-01 1.11523516e-01 1.50778100e-01 9.81201753e-02
      6.62632063e-02 1.88457668e-02 2.02359073e-02 9.25942808e-02
      2.44337067e-01 2.44337067e-01 1.36431232e-01 8.37261453e-02
      1.76940039e-01 1.41069680e-01 1.49226144e-01 1.70051783e-01
      1.20963700e-01 9.77601036e-02 1.30991116e-01 9.81000885e-02
      1.17086038e-01 1.87096775e+00 2.71111101e-01 8.92430305e-01 0. 0.
      0. 0. 0. 0. 0. 0. 0. 0. 0. 0. 0. 0. 0. 0. 0. 1.04545370e-01
      2.93939207e-02 9.09090973e-03 3.42424028e-02 1.81818171e-03
      1.81818171e-03 1.51515147e-03 5.36363237e-02 1.73939243e-01
      1.30302999e-02 9.09090915e-04 1.45454500e-02 5.39393537e-02
      6.36363728e-03 7.78787285e-02 4.23332959e-01 1.04097567e-01
      7.36433938e-02 3.32225929e-03 8.52713510e-02 2.21483945e-03
      1.10741972e-03 2.76854937e-03 1.38427719e-01 1.10188402e-01
      3.48837227e-02 1.66112953e-03 2.60243677e-02 5.53709874e-03
      3.32225929e-03 3.87596921e-03 4.03651744e-01 1.08870625e-01
      6.04838785e-03 6.33640634e-03 3.74424015e-03 8.64055299e-04
      1.15207373e-03 1.44009222e-03 4.08985913e-02 2.06510529e-01
      2.36175153e-02 4.03225841e-03 9.21658892e-03 3.65783349e-02
      5.47235087e-03 1.81451552e-02 5.27067542e-01 7.28089631e-01
      2.10526317e-01 4.35290001e-02 1.16699729e-02 5.71828708e-03
      4.66798927e-04</_>
    <_>
      9.02086794e-02 9.98176217e-01 9.95463908e-01 9.92196798e-01
      9.88408744e-01 9.84517634e-01 9.80758607e-01 9.76948857e-01
      9.73258436e-01 9.69857574e-01 9.66779947e-01 9.64279592e-01
      9.62388515e-01 9.61413980e-01 9.61002290e-01 9.61242557e-01
      9.61616099e-01 9.61614132e-01 9.61466432e-01 9.61183131e-01
      9.61222649e-01 2.98041832e-02 3.57732810e-02 2.68390626e-02
      2.50837263e-02 2.39589602e-01 2.89916992e-01 1.96011290e-01
      7.30044022e-02 3.27767991e-02 2.49415133e-02 2.23845001e-02
      2.44867038e-02 2.63049692e-01 2.89916992e-01 2.89916992e-01
      1.40787467e-01 3.68021280e-02 2.18043439e-02 1.92855019e-02
      1.66998692e-02 1.17758159e-02 1.41018350e-02 8.42892751e-02
      2.89916992e-01 2.64363915e-01 1.21950433e-01 3.23448367e-02
      4.17557098e-02 4.53071967e-02 1.08402893e-01 2.89916992e-01
      2.89916992e-01 2.89916992e-01 2.89916992e-01 1.24901399e-01
      3.64250392e-02 2.28260875e+00 4.46351945e-01 8.95752907e-01 0. 0.
      0. 0. 0. 0. 0. 0. 0. 0. 0. 0. 0. 0. 0. 0. 0. 4.51645181e-02
      1.22729500e-04 7.36377027e-04 3.68188485e-04 1.22729500e-04 0.
      3.68188485e-04 8.83653015e-03 2.78596319e-02 7.36377027e-04
      6.13647513e-04 1.22729491e-03 1.85321756e-02 1.22729491e-03
      3.08051445e-02 8.63256335e-01 8.32740664e-02 5.20906448e-02
      3.18922778e-03 1.31821126e-01 1.06307585e-03 0. 3.18922778e-03
      1.52728632e-01 7.26433545e-02 2.69312691e-02 1.41743443e-03
      2.76399869e-02 9.56768263e-03 7.79588846e-03 9.56768263e-03
      4.17077541e-01 5.20524792e-02 1.51067246e-02 1.31362875e-03
      5.68143763e-02 9.85221751e-03 1.47783232e-03 6.56814431e-04
      5.99342398e-02 1.16091788e-01 1.36288945e-02 1.97044318e-03
      1.41215045e-02 4.36781086e-02 4.59770160e-03 4.81115989e-02
      5.60609996e-01 9.01572466e-01 8.23049396e-02 1.14450641e-02
      3.08519113e-03 1.59235671e-03 0.</_>
    <_>
      1.43806040e-01 9.97875988e-01 9.92384553e-01 9.83800530e-01
      9.72253859e-01 9.57951069e-01 9.41688359e-01 9.23845768e-01
      9.04717863e-01 8.84759426e-01 8.64687264e-01 8.44679117e-01
      8.25390458e-01 8.07160795e-01 7.90458918e-01 7.75529683e-01
      7.62789011e-01 7.52520800e-01 7.44988620e-01 7.40402520e-01
      7.38960207e-01 4.94313762e-02 8.47727284e-02 1.48279205e-01
      1.65446475e-01 2.69570440e-01 1.40402198e-01 1.23198211e-01
      9.29843783e-02 4.14432026e-02 4.72500585e-02 1.55318215e-01
      2.87726253e-01 2.87726253e-01 2.87726253e-01 1.81132644e-01
      9.79916900e-02 4.99598794e-02 3.28888632e-02 6.31500557e-02
      8.56909975e-02 1.66646212e-01 2.29411036e-01 2.54970133e-01
      1.46538243e-01 1.19450577e-01 9.92801785e-02 6.46176934e-02
      6.92409202e-02 1.73710719e-01 2.87726253e-01 2.87726253e-01
      2.62867182e-01 1.05995156e-01 7.30048642e-02 5.71790151e-02
      5.93117960e-02 1.92307687e+00 2.13740453e-01 8.33333313e-01 0. 0.
      0. 0. 0. 0. 0. 0. 0. 0. 0. 0. 0. 0. 0. 0. 0. 1.05458952e-01
      1.24069480e-02 6.20347401e-03 7.44416891e-03 2.48138956e-03
      6.20347401e-03 0. 1.73697267e-02 1.35235652e-01 2.48138960e-02
      1.24069478e-03 1.61290318e-02 3.72208357e-02 9.92555823e-03
      3.97022218e-02 5.78163803e-01 2.59740315e-02 1.29870130e-02
      1.01010101e-02 3.31890434e-02 5.77200577e-03 7.21500721e-03
      2.88600288e-03 1.44300144e-02 1.31313026e-01 7.35930800e-02
      5.77200577e-03 5.33910766e-02 1.73160173e-02 2.88600288e-03
      5.77200577e-03 5.97403586e-01 1.81818176e-02 9.69696883e-03
      9.69696883e-03 2.90909149e-02 6.06060587e-03 4.84848488e-03
      1.21212122e-03 1.69696957e-02 1.24848403e-01 5.21211997e-02
      3.63636366e-03 4.72727194e-02 2.66666710e-02 1.45454528e-02
      1.81818176e-02 6.16969168e-01 9.96098816e-01 3.90117033e-03 0. 0.
      0. 0.</_>
    <_>
      1.25165120e-01 9.97537076e-01 9.91400599e-01 9.82385993e-01
      9.70991731e-01 9.57471490e-01 9.42174911e-01 9.25700009e-01
      9.08398211e-01 8.90792847e-01 8.73267949e-01 8.55775774e-01
      8.38010788e-01 8.20686579e-01 8.04494500e-01 7.89960265e-01
      7.77292848e-01 7.66648650e-01 7.58607864e-01 7.53395915e-01
      7.51529276e-01 7.72255138e-02 6.60919845e-02 6.37461469e-02
      8.13212469e-02 1.18383199e-01 2.49476403e-01 2.62578338e-01
      1.87225774e-01 9.81989801e-02 9.46255699e-02 1.41112715e-01
      2.62578338e-01 2.62578338e-01 2.03072965e-01 8.97419527e-02
      1.32901698e-01 1.06989846e-01 1.06965393e-01 1.40519589e-01
      2.39326090e-01 2.62578338e-01 1.80026203e-01 1.16531827e-01
      1.63104638e-01 2.18905404e-01 1.19319968e-01 1.05090424e-01
      1.04112424e-01 2.37199277e-01 2.62578338e-01 2.62578338e-01
      1.26813293e-01 6.01271056e-02 7.23777041e-02 4.93963435e-02
      7.56901726e-02 3.16666675e+00 1.64000005e-01 8.89285743e-01 0. 0.
      0. 0. 0. 0. 0. 0. 0. 0. 0. 0. 0. 0. 0. 0. 0. 5.92567362e-02
      4.55820467e-03 2.80504883e-03 7.71388644e-03 1.05189346e-03
      1.40252453e-03 1.75315561e-03 1.29733495e-02 7.60870576e-02
      7.36325514e-03 2.45441776e-03 1.29733495e-02 3.61150391e-02
      6.66199252e-03 5.43478914e-02 7.12489307e-01 1.71717569e-01
      6.89244792e-02 8.91265739e-03 4.81283069e-02 5.94177051e-04 0.
      2.37670820e-03 1.06951766e-01 9.32857096e-02 2.31729001e-02
      1.18835410e-03 1.78253129e-02 2.19845474e-02 3.56506230e-03
      3.32738981e-02 3.98097873e-01 1.21905066e-01 1.68792233e-02
      2.62565631e-03 3.48837115e-02 2.62565631e-03 7.50187552e-04
      4.50112578e-03 1.16278686e-01 2.19053909e-01 1.65041294e-02
      1.87546888e-03 1.23780975e-02 9.00225248e-03 3.00075021e-03
      1.20030036e-02 4.25729632e-01 5.50030768e-01 3.71151477e-01
      7.21982792e-02 6.46551745e-03 1.53940884e-04 0.</_>
    <_>
      9.27433595e-02 9.98105168e-01 9.94305909e-01 9.89161491e-01
      9.82434869e-01 9.74513054e-01 9.65138257e-01 9.54874098e-01
      9.44566190e-01 9.34355974e-01 9.24014628e-01 9.13876355e-01
      9.04396176e-01 8.95891428e-01 8.88547659e-01 8.81963968e-01
      8.76381397e-01 8.71765018e-01 8.68631721e-01 8.66958141e-01
      8.66225362e-01 1.27582073e-01 1.11144617e-01 1.08852692e-01
      2.16738418e-01 2.62243032e-01 2.62243032e-01 2.54996836e-01
      1.76906496e-01 1.51216149e-01 8.95077959e-02 1.10187180e-01
      2.40062803e-01 2.62243032e-01 2.62243032e-01 2.40817890e-01
      8.45673680e-02 7.47224689e-02 1.00530513e-01 5.21152131e-02
      3.86265479e-02 7.96794072e-02 1.32815391e-01 2.51693279e-01
      2.11546555e-01 1.11882448e-01 7.65719935e-02 6.53520301e-02
      4.45486233e-02 6.39363006e-02 2.62243032e-01 2.62243032e-01
      2.15722203e-01 6.22049198e-02 2.89282929e-02 3.75042446e-02
      4.26751450e-02 4.90000010e+00 2.60869563e-01 8.92682910e-01
      1.94251144e+00 9.56789628e-02 3.47222090e-02 4.62962966e-03
      6.55863881e-02 7.71604944e-04 5.40123461e-03 6.17283955e-03
      8.95061269e-02 1.18827097e-01 3.08641847e-02 3.08641978e-03
      4.24382538e-02 3.39506045e-02 1.00308638e-02 2.54629534e-02
      4.32873070e-01 8.50295424e-02 1.35685212e-03 4.52284032e-04
      2.26142025e-03 0. 0. 0. 7.68883014e-03 7.23654926e-02
      1.40208034e-02 1.80913613e-03 1.35685196e-02 1.99004933e-02
      4.97512473e-03 2.80416012e-02 7.48525023e-01 1.53333291e-01
      4.66666780e-02 1.11111114e-03 5.44444658e-02 3.33333341e-03
      1.11111104e-02 2.22222228e-03 5.55555783e-02 9.33334008e-02
      4.33333404e-02 3.33333341e-03 3.22222151e-02 1.66666638e-02
      4.44444455e-03 1.44444425e-02 4.64445591e-01 9.37776864e-02
      1.64444502e-02 7.11111026e-03 3.77777852e-02 4.44444449e-04
      1.77777780e-03 2.66666664e-03 5.51111698e-02 1.38666332e-01
      2.04444453e-02 3.99999972e-03 1.42222270e-02 5.15556037e-02
      8.88888910e-03 4.48889174e-02 5.02220035e-01 8.60153258e-01
      1.14623241e-01 1.88378040e-02 6.06641127e-03 3.19284794e-04 0.</_>
    <_>
      1.83584869e-01 9.98096526e-01 9.94248688e-01 9.88875866e-01
      9.82465148e-01 9.75009382e-01 9.66749549e-01 9.58027363e-01
      9.48766351e-01 9.39203739e-01 9.29751277e-01 9.20463264e-01
      9.11591232e-01 9.03607965e-01 8.96402836e-01 8.90212417e-01
      8.85303020e-01 8.81824136e-01 8.79932582e-01 8.79157305e-01
      8.78970444e-01 8.10735747e-02 7.28709921e-02 5.95605411e-02
      7.20904171e-02 1.15644552e-01 1.59982830e-01 1.79619282e-01
      1.69184148e-01 1.36154056e-01 1.03435889e-01 8.99593234e-02
      1.07788317e-01 1.52785033e-01 1.81645140e-01 1.24681138e-01
      1.50303096e-01 1.51312143e-01 1.50483936e-01 1.65890232e-01
      2.16181323e-01 2.16181323e-01 1.93092570e-01 1.85747847e-01
      2.16181323e-01 2.16181323e-01 2.02830732e-01 1.92408130e-01
      1.55098617e-01 2.16181323e-01 2.16181323e-01 2.16181323e-01
      1.66122645e-01 1.78111568e-01 1.64331466e-01 1.68439776e-01
      2.12208927e-01 3.41176462e+00 2.72300482e-01 8.65306139e-01 0. 0.
      0. 0. 0. 0. 0. 0. 0. 0. 0. 0. 0. 0. 0. 0. 0. 2.87581384e-02
      1.07189575e-02 5.75163448e-03 2.32679583e-02 9.67320520e-03
      5.22875809e-04 1.56862731e-03 5.25489189e-02 7.94771835e-02
      2.24836469e-02 6.79738680e-03 2.58823298e-02 6.58822581e-02
      1.04575194e-02 7.52941296e-02 5.80901921e-01 7.20164254e-02
      2.26337351e-02 7.20164413e-03 6.55006543e-02 2.05761311e-03
      1.37174211e-03 3.77229089e-03 7.20164254e-02 5.65843321e-02
      2.05761231e-02 5.14403218e-03 2.64060237e-02 4.01234366e-02
      1.16598038e-02 5.52125908e-02 5.37725866e-01 4.62264493e-02
      2.29559671e-02 3.45911970e-03 4.21383828e-02 1.57232699e-03
      2.20125774e-03 9.43396240e-04 5.62893823e-02 1.04088314e-01
      2.32704319e-02 4.40251594e-03 2.13836432e-02 4.37107161e-02
      1.03773596e-02 4.96855825e-02 5.67302227e-01 9.23862398e-01
      4.75027747e-02 1.53163150e-02 9.32297483e-03 3.55160935e-03
      4.43951169e-04</_>
    <_>
      9.81023386e-02 9.98631299e-01 9.95278597e-01 9.90064204e-01
      9.83287036e-01 9.75210249e-01 9.66134965e-01 9.56128538e-01
      9.45690930e-01 9.34962273e-01 9.24304008e-01 9.13822234e-01
      9.04091895e-01 8.95013511e-01 8.87022197e-01 8.80133867e-01
      8.74423206e-01 8.70005965e-01 8.67088377e-01 8.65305901e-01
      8.64784896e-01 5.86389378e-02 6.54563233e-02 1.08651169e-01
      2.18172878e-01 2.60136187e-01 2.60136187e-01 1.28429219e-01
      9.93269980e-02 6.76281750e-02 7.31051490e-02 1.70110837e-01
      2.60136187e-01 2.60136187e-01 2.60136187e-01 2.43083134e-01
      9.77523848e-02 8.76443908e-02 4.90181819e-02 3.61674689e-02
      6.36516139e-02 8.36611167e-02 1.14210851e-01 2.60136187e-01
      2.60136187e-01 1.51501402e-01 7.67724589e-02 4.92924154e-02
      4.79059964e-02 1.43832311e-01 2.60136187e-01 2.60136187e-01
      2.55290657e-01 1.48500621e-01 6.67888597e-02 6.06990047e-02
      4.75151353e-02 4.71428585e+00 2.36363634e-01 8.81028950e-01 0. 0.
      0. 0. 0. 0. 0. 0. 0. 0. 0. 0. 0. 0. 0. 0. 0. 6.76616505e-02
      5.30680036e-03 3.98009969e-03 1.59203950e-02 1.99004984e-03
      9.95024922e-04 1.32669986e-03 7.13101029e-02 1.66168943e-01
      1.39303459e-02 3.98009969e-03 8.95522535e-03 3.44942138e-02
      6.96517620e-03 3.61525826e-02 5.60861766e-01 1.37878790e-01
      5.60605265e-02 5.05050598e-03 7.77777359e-02 1.01010106e-03
      3.53535404e-03 4.54545533e-03 1.46464556e-01 5.90908192e-02
      2.27272771e-02 3.03030340e-03 2.67676823e-02 8.58586002e-03
      5.55555662e-03 1.71717200e-02 4.24749523e-01 6.83538020e-02
      1.16807315e-02 5.19143464e-03 3.20137925e-02 1.51416834e-03
      1.94678793e-03 2.59571709e-03 8.45772550e-02 1.54445246e-01
      1.38438307e-02 3.89357517e-03 1.38438307e-02 3.67725901e-02
      1.03828721e-02 5.10489829e-02 5.07888079e-01 7.08601177e-01
      2.45843500e-01 3.19219679e-02 1.03081353e-02 3.32520506e-03 0.</_>
    <_>
      1.77285552e-01 9.97832000e-01 9.91949677e-01 9.82674539e-01
      9.70336914e-01 9.55378115e-01 9.38235223e-01 9.19396698e-01
      8.99366498e-01 8.78451824e-01 8.57059896e-01 8.35757971e-01
      8.15145493e-01 7.95670390e-01 7.77725279e-01 7.61799514e-01
      7.48319924e-01 7.37596095e-01 7.29659498e-01 7.24763691e-01
      7.23084629e-01 1.35454133e-01 8.56648684e-02 9.02735144e-02
      8.90691504e-02 1.71128571e-01 2.30602100e-01 2.30602100e-01
      2.30602100e-01 2.25936413e-01 1.07676722e-01 1.10930823e-01
      2.10815847e-01 2.30602100e-01 2.30602100e-01 1.55930743e-01
      1.23575792e-01 1.37489513e-01 1.21982507e-01 1.30791321e-01
      1.32515401e-01 1.23720370e-01 1.17762432e-01 1.52025387e-01
      2.13831931e-01 2.09563285e-01 2.30602100e-01 1.32862702e-01
      1.26500875e-01 2.08957866e-01 2.30602100e-01 2.30602100e-01
      1.66026890e-01 9.01798755e-02 7.00073317e-02 9.60859731e-02
      6.87068030e-02 2.75000000e+00 1.51785716e-01 8.95582318e-01 0. 0.
      0. 0. 0. 0. 0. 0. 0. 0. 0. 0. 0. 0. 0. 0. 0. 4.93827723e-02
      4.40917094e-04 2.64550233e-03 7.93650653e-03 1.76366838e-03
      8.81834188e-04 4.40917094e-04 9.25925747e-03 8.11288580e-02
      1.27865933e-02 3.08641931e-03 1.67548489e-02 2.29276996e-02
      7.05467211e-03 3.88007425e-02 7.44700015e-01 7.03782067e-02
      3.04621849e-02 5.77731105e-03 5.09453788e-02 3.15126055e-03
      1.57563039e-03 2.62605050e-03 7.61555582e-02 1.31828114e-01
      5.14705889e-02 4.20168089e-03 4.20168079e-02 2.57352944e-02
      8.40336177e-03 2.78361347e-02 4.67434973e-01 8.05193558e-02
      1.71428565e-02 4.15584398e-03 1.76623370e-02 1.55844144e-03
      1.55844144e-03 2.07792199e-03 5.40259741e-02 2.91948825e-01
      3.68831158e-02 2.59740255e-03 2.33766232e-02 2.49350648e-02
      1.14285713e-02 1.71428565e-02 4.12988663e-01 8.45963776e-01
      1.50535420e-01 3.50082363e-03 0. 0. 0.</_>
    <_>
      1.26925588e-01 9.98778939e-01 9.95986640e-01 9.91823912e-01
      9.86544490e-01 9.80404258e-01 9.73510206e-01 9.66220260e-01
      9.58784163e-01 9.51082408e-01 9.43289101e-01 9.35452223e-01
      9.27771866e-01 9.20738280e-01 9.14206028e-01 9.08460200e-01
      9.03630495e-01 8.99789512e-01 8.97048652e-01 8.95456672e-01
      8.94895673e-01 1.08518586e-01 6.60689026e-02 1.51674166e-01
      1.43405244e-01 2.68687218e-01 2.68687218e-01 1.36085242e-01
      7.14111179e-02 1.21795394e-01 5.34500293e-02 9.38283205e-02
      2.68687218e-01 2.68687218e-01 2.18811199e-01 2.36625731e-01
      1.21733710e-01 7.63140321e-02 1.04570627e-01 8.05612579e-02
      6.84140995e-02 9.19264108e-02 7.66004547e-02 2.68687218e-01
      2.68687218e-01 1.44120678e-01 9.69906226e-02 9.11583304e-02
      7.61994049e-02 1.60874233e-01 2.68687218e-01 2.68687218e-01
      1.66529432e-01 1.84276924e-01 8.54925290e-02 7.31659755e-02
      6.69618323e-02 4.11111116e+00 2.19512194e-01 7.40909100e-01 0. 0.
      0. 0. 0. 0. 0. 0. 0. 0. 0. 0. 0. 0. 0. 0. 0. 8.04918781e-02
      3.17208515e-03 1.18953211e-03 1.22918291e-02 4.75812750e-03
      3.96510703e-04 6.34416984e-03 2.81522535e-02 9.71454009e-02
      1.62569359e-02 1.98255340e-03 2.49801688e-02 3.09278276e-02
      9.51625500e-03 2.93417852e-02 6.53049588e-01 1.56666607e-01
      6.77778125e-02 5.55555569e-03 7.00000376e-02 1.11111114e-03
      4.44444455e-03 1.11111114e-03 1.12222314e-01 2.33333278e-02
      1.66666638e-02 4.44444455e-03 3.11111026e-02 8.88888910e-03
      9.99999978e-03 2.33333278e-02 4.63334471e-01 6.85897470e-02
      1.79487187e-02 5.76923089e-03 3.33333351e-02 1.92307704e-03
      6.41025661e-04 5.12820529e-03 6.85897470e-02 1.16025642e-01
      1.66666675e-02 5.12820529e-03 1.66666675e-02 8.14102590e-02
      8.33333377e-03 7.30769262e-02 4.80767965e-01 8.64015162e-01
      1.13636367e-01 1.51515156e-02 5.30303037e-03 1.89393945e-03 0.</_>
    <_>
      1.96972713e-01 9.97705162e-01 9.91912544e-01 9.82578039e-01
      9.70633984e-01 9.56192076e-01 9.39650416e-01 9.21450317e-01
      9.01823282e-01 8.81529748e-01 8.60624671e-01 8.40025485e-01
      8.19804966e-01 8.00869703e-01 7.83464909e-01 7.68155515e-01
      7.55326748e-01 7.45038271e-01 7.37670720e-01 7.33021259e-01
      7.31603861e-01 1.68182820e-01 1.17626220e-01 1.03223123e-01
      1.55910641e-01 1.80018559e-01 2.25116923e-01 2.25116923e-01
      2.25116923e-01 2.25116923e-01 1.06631994e-01 1.19568139e-01
      1.91213980e-01 2.25116923e-01 2.25116923e-01 1.25964239e-01
      1.06757164e-01 1.17572136e-01 1.38488904e-01 1.29318520e-01
      1.44030541e-01 1.53342471e-01 2.03004122e-01 1.78966224e-01
      2.25116923e-01 2.17346936e-01 1.14603780e-01 9.44326371e-02
      1.15107641e-01 1.98386043e-01 2.25116923e-01 2.25116923e-01
      1.94396019e-01 7.83790126e-02 6.82713613e-02 4.19335254e-02
      5.64963855e-02 4. 1.65829152e-01 8.95927608e-01 0. 0. 0. 0. 0. 0.
      0. 0. 0. 0. 0. 0. 0. 0. 0. 0. 0. 8.38947594e-02 3.67421890e-03
      3.06184916e-03 1.22473957e-02 3.06184916e-03 1.83710956e-03
      2.44947942e-03 8.57317727e-03 6.06246740e-02 9.79791675e-03
      4.28658864e-03 1.59216151e-02 1.83710977e-02 6.73606759e-03
      3.79669592e-02 7.27500618e-01 1.10967658e-01 6.58064112e-02
      9.67741944e-03 8.58063921e-02 3.87096801e-03 2.58064526e-03
      7.09677394e-03 8.25805888e-02 1.22580551e-01 3.09677310e-02
      3.87096801e-03 4.32257839e-02 4.25806232e-02 8.38709623e-03
      3.29032131e-02 3.47096473e-01 1.53333217e-01 6.66666590e-03
      4.84848442e-03 1.09090917e-02 3.03030293e-03 1.81818183e-03
      1.81818183e-03 1.11515068e-01 2.52727062e-01 2.06060596e-02
      2.42424244e-03 7.87878688e-03 2.06060596e-02 3.03030293e-03
      1.39393965e-02 3.84848148e-01 5.86429358e-01 2.49388203e-01
      1.26362622e-01 3.53726372e-02 2.44716345e-03 0.</_>
    <_>
      2.00239405e-01 9.98586833e-01 9.94960129e-01 9.89244938e-01
      9.81719375e-01 9.72545028e-01 9.61969316e-01 9.50400829e-01
      9.37938690e-01 9.24796164e-01 9.11249757e-01 8.97664785e-01
      8.84485185e-01 8.72071326e-01 8.60676706e-01 8.50493073e-01
      8.41930509e-01 8.35120022e-01 8.30104768e-01 8.26991975e-01
      8.25857997e-01 1.59581289e-01 1.56556174e-01 2.23727807e-01
      2.23727807e-01 1.79097086e-01 1.68381557e-01 1.63940892e-01
      1.47087187e-01 1.48065925e-01 1.29201129e-01 1.60012439e-01
      2.23727807e-01 2.23727807e-01 1.66049302e-01 1.25288323e-01
      9.88727883e-02 9.51219574e-02 1.08328380e-01 9.23956409e-02
      9.30885896e-02 2.23727807e-01 1.97790980e-01 2.23727807e-01
      1.80372939e-01 1.87081695e-01 2.04449102e-01 2.06977680e-01
      9.46311876e-02 1.08701080e-01 2.23727807e-01 2.23727807e-01
      1.63712814e-01 9.69908983e-02 1.02136910e-01 1.12612680e-01
      1.08516805e-01 3. 2.17054263e-01 8.82758617e-01 0. 0. 0. 0. 0. 0.
      0. 0. 0. 0. 0. 0. 0. 0. 0. 0. 0. 2.19941381e-02 1.02639291e-02
      8.79765395e-03 2.78592426e-02 1.46627566e-03 5.86510263e-03
      2.93255132e-03 1.61290336e-02 1.24633349e-01 4.54545394e-02
      8.79765395e-03 5.27859107e-02 8.79764929e-02 2.93255188e-02
      6.15835562e-02 4.94134486e-01 2.35690307e-02 1.68350209e-02
      1.01010110e-02 5.16273715e-02 7.85634108e-03 5.61167253e-03
      2.24466901e-03 3.59147079e-02 4.48933728e-02 7.18293712e-02
      8.97867605e-03 8.19303691e-02 2.02020258e-02 2.02020258e-02
      3.36700417e-02 5.64534068e-01 3.87930982e-02 2.26293113e-02
      2.15517241e-03 3.55603434e-02 2.15517241e-03 3.23275849e-03
      1.07758620e-03 4.09482680e-02 1.30387858e-01 7.00430647e-02
      4.31034481e-03 6.14223816e-02 6.89654797e-02 1.40086189e-02
      3.77155133e-02 4.66596663e-01 1. 0. 0. 0. 0. 0.</_>
    <_>
      1.20788381e-01 9.97742176e-01 9.93066847e-01 9.86724973e-01
      9.78755355e-01 9.69742954e-01 9.60375488e-01 9.51070905e-01
      9.41991925e-01 9.33144629e-01 9.24387634e-01 9.15708125e-01
      9.07815576e-01 9.00947034e-01 8.95161867e-01 8.90461266e-01
      8.87288868e-01 8.85454535e-01 8.84461939e-01 8.83868873e-01
      8.83806705e-01 4.82514389e-02 6.59174174e-02 6.75350279e-02
      6.91254959e-02 1.36070445e-01 2.43457079e-01 2.43457079e-01
      1.43640652e-01 3.86662818e-02 7.40718469e-02 7.48353228e-02
      1.28070310e-01 2.43457079e-01 2.43457079e-01 2.43457079e-01
      2.43457079e-01 1.58986479e-01 8.55790526e-02 5.22710569e-02
      5.22430390e-02 7.37087503e-02 9.17302668e-02 1.79072708e-01
      2.43457079e-01 2.43457079e-01 1.87993497e-01 5.32774888e-02
      9.72903296e-02 1.27137288e-01 2.43457079e-01 2.43457079e-01
      2.43457079e-01 2.02020794e-01 2.22287238e-01 1.31962955e-01
      7.75458291e-02 2.78787875e+00 2.57534236e-01 8.50467265e-01 0. 0.
      0. 0. 0. 0. 0. 0. 0. 0. 0. 0. 0. 0. 0. 0. 0. 5.57287447e-02
      1.89051474e-03 8.21962822e-05 1.72612211e-03 0. 0. 0.
      1.52063416e-02 2.53987275e-02 3.37004638e-03 5.75373939e-04
      3.86322360e-03 2.38369908e-02 1.31514051e-03 4.70160954e-02
      8.19976091e-01 7.36213475e-02 2.17731744e-02 9.39849589e-04
      4.15099412e-02 3.13283206e-04 0. 1.56641603e-04 7.37779886e-02
      6.03068620e-02 2.94485837e-02 9.39849589e-04 3.08583528e-02
      8.77192989e-03 4.54260688e-03 2.70989686e-02 6.25937581e-01
      5.55054545e-02 1.06526185e-02 0. 9.41915438e-03 0. 0. 0.
      4.76562679e-02 1.62590787e-01 2.19780616e-02 3.36398312e-04
      1.98475327e-02 1.16618164e-02 2.91545270e-03 1.23346150e-02
      6.45105422e-01 9.25093651e-01 6.36704117e-02 9.63081885e-03
      1.60513644e-03 0. 0.</_>
    <_>
      1.43077448e-01 9.98269320e-01 9.95004058e-01 9.89752829e-01
      9.83131111e-01 9.75368738e-01 9.67294037e-01 9.59167719e-01
      9.51238453e-01 9.44154441e-01 9.38071370e-01 9.33095992e-01
      9.29377317e-01 9.26490068e-01 9.24595296e-01 9.23228860e-01
      9.22415257e-01 9.21849191e-01 9.21790838e-01 9.21721935e-01
      9.21516776e-01 2.32270434e-01 2.34329417e-01 1.86950997e-01
      1.16132215e-01 1.87828019e-01 2.07734555e-01 2.34329417e-01
      2.34329417e-01 2.34329417e-01 7.10835159e-02 1.28579691e-01
      2.14466915e-01 2.34329417e-01 2.34329417e-01 1.61899388e-01
      8.17239210e-02 6.18254319e-02 6.83566481e-02 5.13218939e-02
      4.36732583e-02 3.97668816e-02 4.31599729e-02 1.88672438e-01
      2.34329417e-01 1.99218377e-01 1.06977381e-01 7.95732141e-02
      2.93060280e-02 3.50315496e-02 1.82083309e-01 2.34329417e-01
      2.34329417e-01 2.34329417e-01 1.39858425e-01 4.78151478e-02
      2.51930933e-02 8.25000000e+00 4.03846145e-01 8.24000001e-01 0. 0.
      0. 0. 0. 0. 0. 0. 0. 0. 0. 0. 0. 0. 0. 0. 0. 8.95389542e-02
      2.65957438e-03 2.65957438e-03 7.09219929e-03 6.20567426e-03
      8.86524934e-03 4.43262421e-03 1.15248244e-02 3.01418342e-02
      1.15248244e-02 2.65957438e-03 2.39361655e-02 4.07801419e-02
      5.31914923e-03 7.71276429e-02 6.75528824e-01 4.10256423e-02
      4.48717959e-02 1.02564106e-02 5.76923080e-02 6.41025649e-03
      6.41025649e-03 8.97435937e-03 5.00000007e-02 8.97435918e-02
      6.53846189e-02 8.97435937e-03 5.89743592e-02 1.28205130e-02
      7.69230770e-03 3.46153863e-02 4.96156693e-01 8.21053162e-02
      1.78947318e-02 3.15789459e-03 5.68421260e-02 4.21052612e-03
      1.05263153e-03 3.15789459e-03 5.78947589e-02 1.17894836e-01
      2.10526250e-02 0. 1.68421008e-02 4.10526320e-02 1.15789454e-02
      5.36842272e-02 5.11575878e-01 9.44489777e-01 5.55102043e-02 0. 0.
      0. 0.</_>
    <_>
      1.40763879e-01 9.93460715e-01 9.86209333e-01 9.79709804e-01
      9.71141517e-01 9.62875247e-01 9.55009937e-01 9.47207272e-01
      9.39181268e-01 9.31506693e-01 9.23580170e-01 9.16804790e-01
      9.09220159e-01 9.02808249e-01 8.96582246e-01 8.89587760e-01
      8.83490384e-01 8.77309859e-01 8.72338474e-01 8.68937075e-01
      8.67778718e-01 4.17525358e-02 7.82367438e-02 1.91644639e-01
      2.21382022e-01 2.86292344e-01 1.84073284e-01 1.25930980e-01
      5.29378913e-02 3.97467390e-02 2.70208698e-02 8.80300850e-02
      2.91221708e-01 2.91221708e-01 2.91153878e-01 7.71653429e-02
      3.72748338e-02 2.59380676e-02 2.35244390e-02 2.87875198e-02
      7.98621178e-02 1.38690457e-01 1.74248576e-01 2.91221708e-01
      2.49639079e-01 1.45844504e-01 5.37209027e-02 3.86685133e-02
      3.35205421e-02 1.23353131e-01 2.91221708e-01 2.91221708e-01
      2.49688655e-01 1.15714826e-01 5.34644872e-02 3.02404575e-02
      3.01276352e-02 2.66666675e+00 4.00000006e-01 8.85714293e-01
      3.90822697e+00 4.45815958e-02 9.25925653e-03 3.42935533e-03
      9.94512718e-03 6.85871055e-04 2.05761311e-03 1.37174211e-03
      4.59533371e-02 1.30315438e-01 1.61179639e-02 3.77229089e-03
      1.33744804e-02 5.52125908e-02 8.91632121e-03 4.69821431e-02
      6.08033717e-01 7.35787004e-02 9.47603211e-03 2.78706802e-03
      8.91861878e-03 1.67224091e-03 2.78706802e-03 6.13155030e-03
      3.51170562e-02 1.29320160e-01 1.11482721e-02 1.67224091e-03
      1.22630987e-02 9.81049687e-02 1.11482721e-02 5.18395118e-02
      5.44039369e-01 1.28136337e-01 8.24373588e-02 7.16845784e-03
      6.45161793e-02 4.48028650e-03 8.06451496e-03 1.79211469e-03
      1.33512646e-01 5.28674163e-02 1.88172013e-02 7.16845784e-03
      4.12186496e-02 3.94265316e-02 1.43369148e-02 4.30107675e-02
      3.53046983e-01 1.16005145e-01 3.03970017e-02 1.86104211e-03
      9.55335870e-02 3.10173701e-03 1.24069478e-03 1.86104211e-03
      1.06079541e-01 1.29032493e-01 1.24069480e-02 6.20347389e-04
      9.92555823e-03 4.52853180e-02 8.06451589e-03 4.83870506e-02
      3.90196562e-01 7.77186573e-01 1.84569344e-01 1.96208842e-02
      1.46325240e-02 3.99068836e-03 0.</_>
    <_>
      1.47354200e-01 9.98390675e-01 9.95110154e-01 9.90248501e-01
      9.83963251e-01 9.76107061e-01 9.67202008e-01 9.57677364e-01
      9.47706521e-01 9.37651098e-01 9.27604973e-01 9.17957008e-01
      9.08946037e-01 9.00723517e-01 8.93407762e-01 8.87090206e-01
      8.81842673e-01 8.77634287e-01 8.74593973e-01 8.72676253e-01
      8.72189820e-01 6.51574209e-02 7.59006739e-02 7.67188147e-02
      1.43925071e-01 2.91515112e-01 2.91515112e-01 1.03451028e-01
      4.84996550e-02 3.72656807e-02 4.10875529e-02 5.20559624e-02
      1.60826251e-01 2.91515112e-01 2.91515112e-01 2.00426728e-01
      7.58976340e-02 2.01610122e-02 2.11099237e-02 2.04664972e-02
      3.21795344e-02 6.20129779e-02 8.94044414e-02 2.91515112e-01
      2.91515112e-01 1.43521175e-01 5.81778623e-02 3.95779610e-02
      4.32712696e-02 8.96280333e-02 2.91515112e-01 2.91515112e-01
      2.91515112e-01 2.04520300e-01 9.03411210e-02 5.15408404e-02
      5.25984690e-02 2.40740752e+00 2.99610883e-01 8.91986072e-01 0. 0.
      0. 0. 0. 0. 0. 0. 0. 0. 0. 0. 0. 0. 0. 0. 0. 1.97806060e-02
      1.82845735e-03 1.99468085e-03 5.65159554e-03 6.31648907e-03
      1.82845735e-03 1.66223396e-03 8.64361692e-03 4.57114354e-02
      9.64095723e-03 4.15558508e-03 1.13031911e-02 3.34109738e-02
      5.65159554e-03 3.98936495e-02 8.02571774e-01 1.68399215e-01
      6.04154430e-02 1.36686710e-03 5.44012375e-02 0. 0. 1.09349366e-03
      1.22198552e-01 5.87752052e-02 1.64023917e-02 2.46036076e-03
      1.47621538e-02 1.50355268e-02 7.38108251e-03 2.24165972e-02
      4.54898000e-01 9.23650041e-02 1.76028591e-02 2.96677207e-03
      5.30061647e-02 2.17563310e-03 2.57120258e-03 3.56012629e-03
      1.00276329e-01 1.33899465e-01 1.93829238e-02 1.18670892e-03
      1.28560197e-02 4.80615869e-02 7.31804036e-03 7.27844760e-02
      4.29994345e-01 8.51868927e-01 1.31743699e-01 9.94291995e-03
      4.23494773e-03 2.11747386e-03 9.20640741e-05</_>
    <_>
      2.09171593e-01 9.95549560e-01 9.88125145e-01 9.76642430e-01
      9.62160945e-01 9.45785761e-01 9.26885962e-01 9.06509042e-01
      8.84795904e-01 8.61681521e-01 8.38382363e-01 8.15212607e-01
      7.92217553e-01 7.71409690e-01 7.51434267e-01 7.33726978e-01
      7.18195856e-01 7.05161691e-01 6.95457578e-01 6.88955545e-01
      6.86658144e-01 2.16173097e-01 1.44127682e-01 1.20106488e-01
      1.02082580e-01 1.16333529e-01 1.04413487e-01 2.19205737e-01
      2.19205737e-01 2.19205737e-01 1.34167999e-01 1.02877617e-01
      1.90991282e-01 2.19205737e-01 2.19205737e-01 1.17355391e-01
      1.65644556e-01 2.19205737e-01 1.50086448e-01 1.57400027e-01
      9.47438926e-02 8.37867707e-02 5.06475940e-02 1.44066408e-01
      7.39293396e-02 2.04379439e-01 2.19205737e-01 2.07323417e-01
      1.40409812e-01 1.43514544e-01 2.19205737e-01 2.19205737e-01
      2.19205737e-01 1.12934254e-01 1.53816268e-01 1.52604654e-01
      1.31866008e-01 2.12500000e+00 1.72413796e-01 8.98437500e-01 0. 0.
      0. 0. 0. 0. 0. 0. 0. 0. 0. 0. 0. 0. 0. 0. 0. 9.46915746e-02
      1.29124820e-02 4.30416083e-03 1.14777619e-02 0. 1.43472024e-03
      2.86944048e-03 2.15208065e-02 9.32568535e-02 1.57819223e-02
      7.17360107e-03 2.00860854e-02 3.58680151e-02 1.43472021e-02
      4.01721783e-02 6.24103665e-01 2.90381089e-02 9.07441042e-03
      1.08892927e-02 4.71869372e-02 1.08892927e-02 1.08892927e-02
      3.62976408e-03 3.26678716e-02 7.62250423e-02 7.44101629e-02
      5.44464588e-03 6.35208860e-02 1.81488208e-02 1.63339395e-02
      3.62976380e-02 5.55353403e-01 4.46428582e-02 2.67857146e-02
      7.14285718e-03 5.00000007e-02 7.14285718e-03 5.35714300e-03
      5.35714300e-03 4.46428582e-02 1.60714328e-01 5.89285716e-02
      5.35714300e-03 6.96428716e-02 5.17857149e-02 2.14285720e-02
      2.85714287e-02 4.12500858e-01 1. 0. 0. 0. 0. 0.</_>
    <_>
      2.23225504e-01 9.98455107e-01 9.94573772e-01 9.88976002e-01
      9.81911421e-01 9.73515391e-01 9.63928878e-01 9.53111589e-01
      9.41110253e-01 9.28168595e-01 9.14773822e-01 9.01515484e-01
      8.88660908e-01 8.76443028e-01 8.65153193e-01 8.55180264e-01
      8.46591890e-01 8.39663208e-01 8.34764063e-01 8.31919909e-01
      8.30963731e-01 6.67390823e-02 7.23859742e-02 1.26207203e-01
      2.43936345e-01 2.43936345e-01 2.43936345e-01 1.97588712e-01
      1.21676542e-01 7.32172951e-02 1.07884392e-01 1.31988630e-01
      1.53706476e-01 1.77403182e-01 2.43936345e-01 2.40946785e-01
      1.38272107e-01 1.42777875e-01 1.09244756e-01 6.59752414e-02
      6.81090429e-02 1.04131229e-01 2.43936345e-01 2.43936345e-01
      2.43936345e-01 2.01208353e-01 1.19591922e-01 5.79923280e-02
      1.24337152e-01 1.46132067e-01 1.34118572e-01 1.69569090e-01
      2.43936345e-01 2.16209576e-01 1.37471572e-01 1.03585228e-01
      7.15907738e-02 4.09999990e+00 2.18274117e-01 8.82882893e-01 0. 0.
      0. 0. 0. 0. 0. 0. 0. 0. 0. 0. 0. 0. 0. 0. 0. 5.13513945e-02
      8.10810830e-03 2.70270277e-03 5.85585600e-03 2.25225231e-03
      1.80180185e-03 1.80180185e-03 9.45946015e-03 4.72973362e-02
      1.62162241e-02 2.25225231e-03 1.39639694e-02 1.17117148e-02
      4.05405415e-03 3.10811047e-02 7.90083528e-01 1.12179490e-02
      1.01495730e-02 5.87606849e-03 2.99145300e-02 1.22863250e-02
      3.73931625e-03 1.60256424e-03 3.04487180e-02 5.28846160e-02
      2.83119660e-02 5.34188049e-03 4.70085479e-02 4.54059839e-02
      2.13675220e-02 3.25854719e-02 6.61851645e-01 9.16100144e-02
      2.53968369e-02 2.26757373e-03 2.58503519e-02 0. 0. 4.53514745e-04
      3.58276628e-02 1.52834788e-01 4.03627940e-02 4.53514792e-03
      2.63038669e-02 5.48752137e-02 1.72335673e-02 3.80952284e-02
      4.84347910e-01 9.53787684e-01 4.62123416e-02 0. 0. 0. 0.</_>
    <_>
      1.74287200e-01 9.99161243e-01 9.97169197e-01 9.94385123e-01
      9.91241157e-01 9.88008797e-01 9.84939039e-01 9.81832206e-01
      9.78670299e-01 9.75151598e-01 9.71302807e-01 9.67199028e-01
      9.63178515e-01 9.59516943e-01 9.56596613e-01 9.54302847e-01
      9.52745497e-01 9.51774538e-01 9.51297343e-01 9.51060176e-01
      9.51056719e-01 1.70273662e-01 1.44391954e-01 1.03982873e-01
      6.93693087e-02 1.18008979e-01 1.33183330e-01 2.22108170e-01
      2.04035863e-01 1.70251563e-01 2.22108170e-01 1.98972255e-01
      1.55386463e-01 2.06417978e-01 2.22108170e-01 1.74917355e-01
      1.18215613e-01 1.67519346e-01 2.22108170e-01 9.76647213e-02
      1.02839977e-01 6.30987659e-02 5.09029143e-02 7.96908736e-02
      1.20299116e-01 2.22108170e-01 2.22108170e-01 1.62376091e-01
      1.83452621e-01 1.58411220e-01 1.59911394e-01 2.16748610e-01
      1.61417261e-01 7.61930943e-02 1.70302272e-01 2.22108170e-01
      1.99228182e-01 2.36666656e+00 3.52678567e-01 8.07971001e-01 0. 0.
      0. 0. 0. 0. 0. 0. 0. 0. 0. 0. 0. 0. 0. 0. 0. 5.48748821e-02
      5.31045627e-03 5.44662296e-04 5.71895251e-03 6.80827885e-04
      4.08496708e-04 6.80827885e-04 1.66122094e-02 2.50544362e-02
      6.80827582e-03 1.08932459e-03 6.80827582e-03 3.07733640e-02
      3.81263671e-03 7.63892382e-02 7.64382243e-01 6.70290291e-02
      2.58799493e-02 3.62318847e-03 8.33331719e-02 1.03519671e-03
      1.03519671e-03 2.07039341e-03 8.35919678e-02 8.38507637e-02
      3.49379368e-02 3.10559012e-03 2.66563483e-02 2.69151479e-02
      9.83437151e-03 8.15216005e-02 4.65584546e-01 6.28508106e-02
      3.18743177e-02 1.12233439e-03 1.95286125e-02 2.69360258e-03
      6.73400646e-04 6.73400646e-04 5.85859343e-02 1.12008348e-01
      2.89562419e-02 1.79573509e-03 2.53647640e-02 1.07744047e-02
      4.48933756e-03 1.50392670e-02 6.23577535e-01 9.46383655e-01
      5.15723266e-02 2.04402511e-03 0. 0. 0.</_>
    <_>
      1.95400715e-01 9.98239756e-01 9.93857086e-01 9.87171113e-01
      9.78462756e-01 9.67759550e-01 9.55284655e-01 9.41263556e-01
      9.26016390e-01 9.09788787e-01 8.93197715e-01 8.76798928e-01
      8.60782504e-01 8.45557868e-01 8.31581235e-01 8.19165528e-01
      8.08508396e-01 7.99864769e-01 7.93433487e-01 7.89544404e-01
      7.88219094e-01 2.13329300e-01 1.99498042e-01 1.62026793e-01
      1.50595456e-01 1.82413563e-01 1.51610285e-01 1.33374706e-01
      1.03320912e-01 1.65213868e-01 2.11374372e-01 2.09860817e-01
      2.14218050e-01 2.14218050e-01 2.14218050e-01 8.98346752e-02
      8.80185813e-02 9.05110613e-02 1.49484634e-01 2.14218050e-01
      1.70813203e-01 1.08623631e-01 9.90289822e-02 1.27586558e-01
      9.53222737e-02 1.09321348e-01 1.65344670e-01 2.14218050e-01
      2.04457343e-01 1.68129757e-01 2.02701002e-01 2.14218050e-01
      1.77250668e-01 5.50371371e-02 1.10276140e-01 1.48637474e-01
      2.14218050e-01 2.45454550e+00 2.17687070e-01 8.84848475e-01 0. 0.
      0. 0. 0. 0. 0. 0. 0. 0. 0. 0. 0. 0. 0. 0. 0. 2.92022880e-02
      7.12250778e-03 7.83475861e-03 2.56410316e-02 1.42450142e-03
      1.42450142e-03 6.41025696e-03 1.63817648e-02 5.62677719e-02
      1.63817648e-02 4.27350448e-03 2.84900367e-02 2.99145393e-02
      1.28205111e-02 7.90598392e-02 6.77354097e-01 4.98960577e-02
      2.49480288e-02 8.31600931e-03 8.41995254e-02 3.11850314e-03
      6.23700675e-03 6.23700675e-03 3.63825411e-02 9.56339985e-02
      3.84615436e-02 9.35551059e-03 5.09355590e-02 2.28690263e-02
      1.87110212e-02 4.26195487e-02 5.02080202e-01 5.97870834e-02
      3.11220363e-02 6.55200658e-03 6.71580732e-02 1.63800165e-03
      4.09500394e-03 3.27600329e-03 9.09090042e-02 1.95740700e-01
      4.34070565e-02 4.91400482e-03 4.66830619e-02 2.21130215e-02
      1.39230108e-02 1.80180147e-02 3.90662134e-01 7.66330719e-01
      1.97088465e-01 3.54609936e-02 1.11982087e-03 0. 0.</_>
    <_>
      1.01377785e-01 9.98643816e-01 9.96105313e-01 9.92226183e-01
      9.87366438e-01 9.81659174e-01 9.75083232e-01 9.67844546e-01
      9.60278332e-01 9.52644825e-01 9.45375443e-01 9.38682616e-01
      9.32641864e-01 9.27049339e-01 9.22214568e-01 9.18232620e-01
      9.14960623e-01 9.12490249e-01 9.10831749e-01 9.09729660e-01
      9.09698904e-01 6.56474829e-02 6.43999875e-02 8.30970183e-02
      1.17229633e-01 2.83416599e-01 2.83416599e-01 1.78342253e-01
      6.57198280e-02 4.41759117e-02 1.68979149e-02 3.57029773e-02
      9.19037089e-02 2.83416599e-01 2.83416599e-01 2.83416599e-01
      9.74168479e-02 2.33055335e-02 1.29242130e-02 2.03451514e-02
      3.56241725e-02 3.56310941e-02 5.94950020e-02 2.60249227e-01
      2.83416599e-01 1.89096242e-01 5.12315072e-02 1.26698539e-02
      4.75793257e-02 1.09146327e-01 2.05050468e-01 2.83416599e-01
      2.83416599e-01 2.83416599e-01 1.21995196e-01 4.83525544e-02
      2.54450981e-02 2.63157892e+00 2.69230783e-01 8.91625643e-01
      2.10845137e+00 7.31249526e-02 1.99999977e-02 5.62499929e-03
      4.62499745e-02 1.24999997e-03 2.49999994e-03 4.37499955e-03
      1.47499889e-01 3.18749882e-02 3.74999968e-03 1.87499996e-03
      9.99999978e-03 2.56249923e-02 7.49999890e-03 3.56249847e-02
      5.83132386e-01 3.86002511e-02 2.16450216e-03 2.16450216e-03
      8.65801144e-03 2.52525252e-03 1.44300144e-03 1.44300144e-03
      1.40692703e-02 4.76189926e-02 9.37951263e-03 3.24675324e-03
      1.51515221e-02 3.86002511e-02 5.77200670e-03 5.26694879e-02
      7.56483912e-01 1.79629892e-01 5.64814545e-02 0. 5.18518314e-02 0.
      2.77777761e-03 2.77777761e-03 1.55555755e-01 8.88889208e-02
      2.68518571e-02 1.38888871e-02 1.48148127e-02 1.01851849e-02
      6.48148172e-03 7.40740774e-03 3.82408202e-01 7.37947002e-02
      3.22851054e-02 7.96645507e-03 4.90566604e-02 4.19287215e-04
      1.67714886e-03 2.51572323e-03 7.84068778e-02 1.38365179e-01
      9.22431611e-03 3.77358496e-03 1.17400382e-02 5.32495491e-02
      5.03144599e-03 7.67297223e-02 4.55766857e-01 8.19600642e-01
      1.45053938e-01 1.46890059e-02 7.80353462e-03 9.41014476e-03
      3.44273588e-03</_>
    <_>
      1.62107587e-01 9.98372018e-01 9.94153440e-01 9.87472713e-01
      9.78703618e-01 9.68098819e-01 9.56110060e-01 9.43022251e-01
      9.29297686e-01 9.15051341e-01 9.00694788e-01 8.86531293e-01
      8.72792959e-01 8.59970987e-01 8.48355591e-01 8.38293552e-01
      8.29878509e-01 8.23324323e-01 8.18660140e-01 8.16046536e-01
      8.15131664e-01 3.79263796e-02 2.35982724e-02 7.64663443e-02
      8.89746994e-02 2.80758262e-01 2.80758262e-01 7.15160668e-02
      8.52192268e-02 5.01662605e-02 3.37497517e-02 3.02281957e-02
      2.15021625e-01 2.80758262e-01 2.22685322e-01 5.98407499e-02
      9.76437926e-02 4.68697622e-02 5.78139946e-02 9.53904241e-02
      1.23975821e-01 2.80758262e-01 8.04682598e-02 2.80758262e-01
      2.80758262e-01 2.13708982e-01 1.76740944e-01 9.19910967e-02
      6.25684038e-02 1.82384416e-01 2.80758262e-01 2.80758262e-01
      1.50289997e-01 1.27840847e-01 1.39404342e-01 5.74059486e-02
      6.52394667e-02 3.50000000e+00 2.21498370e-01 8.81844401e-01 0. 0.
      0. 0. 0. 0. 0. 0. 0. 0. 0. 0. 0. 0. 0. 0. 0. 6.79509342e-02
      1.01419876e-03 1.69033126e-04 3.88776278e-03 1.69033126e-04 0.
      1.69033126e-04 1.82555821e-02 6.30490258e-02 6.42326055e-03
      2.19743093e-03 1.08181229e-02 4.14130166e-02 4.39486234e-03
      6.65986836e-02 7.13507473e-01 1.50023997e-01 4.28309068e-02
      6.87127816e-04 3.32111418e-02 0. 0. 6.87127816e-04 1.03985801e-01
      4.58084531e-02 2.33623348e-02 1.14521303e-03 2.74850912e-02
      5.26797818e-03 7.10031809e-03 8.93266033e-03 5.49466729e-01
      8.86821747e-02 7.97773618e-03 1.29870127e-03 1.24304267e-02
      1.85528756e-04 0. 9.27643792e-04 5.97399771e-02 1.10574350e-01
      1.44712431e-02 1.29870127e-03 9.64749511e-03 1.87384039e-02
      6.30797772e-03 2.18923930e-02 6.45832002e-01 5.69232583e-01
      3.03016186e-01 9.39792693e-02 2.73669492e-02 6.17212057e-03
      2.32910214e-04</_>
    <_>
      1.64214581e-01 9.97980595e-01 9.92961228e-01 9.85152423e-01
      9.74770248e-01 9.62297678e-01 9.48013961e-01 9.32238460e-01
      9.15255487e-01 8.97548437e-01 8.79437864e-01 8.61437857e-01
      8.44000518e-01 8.27679873e-01 8.12624991e-01 7.99325407e-01
      7.88113177e-01 7.79306829e-01 7.72837758e-01 7.68803418e-01
      7.67526925e-01 1.26284987e-01 6.58644661e-02 1.08044848e-01
      7.21879825e-02 6.38171509e-02 9.35334787e-02 1.54387206e-01
      2.40242660e-01 2.42653131e-01 1.06557988e-01 1.06555656e-01
      2.00443447e-01 2.42653131e-01 1.78421348e-01 8.86654407e-02
      1.02018133e-01 1.12880245e-01 1.23192459e-01 2.42653131e-01
      2.02797234e-01 2.42653131e-01 1.93667591e-01 1.08103685e-01
      1.34469569e-01 2.39020899e-01 2.42653131e-01 2.42653131e-01
      1.17496535e-01 1.99873880e-01 2.42653131e-01 2.42653131e-01
      1.07403636e-01 7.59260431e-02 6.70851693e-02 6.37633502e-02
      9.44661796e-02 1.87500000e+00 2.24999994e-01 8.93258452e-01 0. 0.
      0. 0. 0. 0. 0. 0. 0. 0. 0. 0. 0. 0. 0. 0. 0. 4.38871235e-02
      1.56739808e-03 2.61233002e-03 8.35945550e-03 1.56739808e-03
      1.56739808e-03 1.56739808e-03 5.74712548e-03 4.96342331e-02
      1.20167201e-02 2.61233002e-03 1.04493210e-02 2.97805760e-02
      4.17972775e-03 5.22465557e-02 7.72218168e-01 1.31249964e-01
      4.46428843e-02 5.35714300e-03 6.69643357e-02 0. 8.92857183e-03
      1.78571437e-02 5.80357686e-02 8.66071507e-02 4.19643074e-02
      6.25000009e-03 1.69642866e-02 3.12500000e-02 9.82142892e-03
      4.37500253e-02 4.30355936e-01 6.32478669e-02 5.04273511e-02
      1.02564106e-02 6.41025677e-02 2.56410264e-03 1.70940172e-03
      6.83760690e-03 8.37606862e-02 2.23076925e-01 3.33333351e-02
      6.83760690e-03 4.10256423e-02 2.47863252e-02 8.54700897e-03
      2.13675220e-02 3.58119667e-01 7.99332023e-01 1.82855546e-01
      1.47509044e-02 3.06150853e-03 0. 0.</_>
    <_>
      1.57918155e-01 9.97877359e-01 9.92159426e-01 9.83465374e-01
      9.72389758e-01 9.59175944e-01 9.43949640e-01 9.27006662e-01
      9.08983648e-01 8.90446126e-01 8.71721387e-01 8.53060842e-01
      8.34625125e-01 8.17032218e-01 8.00942123e-01 7.86834717e-01
      7.74970055e-01 7.65389502e-01 7.58253813e-01 7.53698111e-01
      7.52177954e-01 2.07198665e-01 1.09742396e-01 7.01938719e-02
      5.68594672e-02 1.00461893e-01 9.97111574e-02 1.74372509e-01
      1.63414896e-01 2.01779872e-01 1.57091036e-01 1.36362284e-01
      2.12563679e-01 2.11459637e-01 1.54265612e-01 1.05677582e-01
      1.76468045e-01 1.48719087e-01 1.45592377e-01 2.28265449e-01
      2.28265449e-01 1.65724322e-01 1.38743430e-01 1.24149248e-01
      1.22547358e-01 2.05482498e-01 2.28265449e-01 2.28265449e-01
      1.34529144e-01 1.95861995e-01 2.28265449e-01 2.28265449e-01
      1.71773046e-01 1.04823187e-01 1.25872955e-01 1.29926786e-01
      1.11596763e-01 6.19999981e+00 1.84782609e-01 8.63207519e-01 0. 0.
      0. 0. 0. 0. 0. 0. 0. 0. 0. 0. 0. 0. 0. 0. 0. 7.59329945e-02
      1.73745230e-02 5.14800521e-03 2.18790304e-02 3.86100379e-03
      6.43500651e-04 1.93050201e-03 2.38095336e-02 2.76705399e-02
      1.93050262e-02 3.86100379e-03 1.41570177e-02 2.57400367e-02
      2.57400260e-03 3.15315463e-02 7.24576175e-01 3.14842574e-02
      2.54872572e-02 8.24587699e-03 6.07196428e-02 2.24887556e-03
      5.24737639e-03 2.99850083e-03 4.57271375e-02 7.42128938e-02
      4.27286364e-02 1.04947528e-02 3.89805101e-02 2.09895056e-02
      1.19940033e-02 4.87256385e-02 5.69713533e-01 4.63491715e-02
      1.71428565e-02 6.98412722e-03 4.44444120e-02 1.90476188e-03
      4.44444409e-03 6.34920644e-03 5.96824884e-02 1.79048106e-01
      3.55555341e-02 3.17460299e-03 3.74602936e-02 2.60317344e-02
      1.58730168e-02 2.03174558e-02 4.95234281e-01 9.75915194e-01
      2.40847785e-02 0. 0. 0. 0.</_>
    <_>
      1.13070995e-01 9.97460842e-01 9.91820395e-01 9.83342886e-01
      9.72744167e-01 9.60264206e-01 9.46912229e-01 9.33237374e-01
      9.19388890e-01 9.06075656e-01 8.93436372e-01 8.81811380e-01
      8.71272027e-01 8.62064660e-01 8.54182780e-01 8.47577870e-01
      8.42209756e-01 8.38090718e-01 8.35209310e-01 8.33771884e-01
      8.33287954e-01 5.45201115e-02 5.98131828e-02 2.00688794e-01
      2.83903748e-01 2.83903748e-01 2.83903748e-01 2.83903748e-01
      4.80167195e-02 4.48362716e-02 5.74327335e-02 6.72930628e-02
      1.80376351e-01 2.83903748e-01 2.57902056e-01 4.96800356e-02
      4.54778150e-02 4.13515046e-02 6.18116111e-02 5.67027740e-02
      5.24780154e-02 1.40769795e-01 2.83903748e-01 2.83903748e-01
      2.68483371e-01 2.03770414e-01 6.42210692e-02 4.64318395e-02
      4.80365716e-02 4.91363779e-02 1.24628238e-01 2.62083203e-01
      1.52925000e-01 3.53083760e-02 3.55943143e-02 4.16120142e-02
      5.12320772e-02 1.96296299e+00 2.84615397e-01 7.19444454e-01
      6.96390748e-01 5.74999638e-02 1.37500018e-02 6.24999916e-03
      4.62499745e-02 1.24999997e-03 1.87499996e-03 3.74999968e-03
      5.99999614e-02 1.04374923e-01 1.68750007e-02 1.87499996e-03
      3.18749882e-02 5.12499698e-02 1.81249995e-02 8.06249455e-02
      5.04380584e-01 3.67063843e-02 8.68055597e-03 6.44841278e-03
      3.07540242e-02 2.72817467e-03 2.48015882e-03 4.46428591e-03
      4.68749963e-02 8.77974629e-02 2.48016212e-02 6.94444450e-03
      2.62897220e-02 6.47320747e-02 1.90972351e-02 7.44046569e-02
      5.56793690e-01 1.13497533e-01 2.61248369e-02 2.90275761e-03
      3.19303609e-02 1.74165459e-03 8.70827236e-04 2.03193026e-03
      8.44700709e-02 1.13497533e-01 4.55732681e-02 4.06386051e-03
      3.36720087e-02 2.67053898e-02 8.70826934e-03 1.74165424e-02
      4.86790717e-01 1.00000449e-01 1.74479112e-02 4.16666688e-03
      3.17708142e-02 2.86458340e-03 4.16666688e-03 3.38541670e-03
      1.02865070e-01 1.78645790e-01 2.49999873e-02 3.38541670e-03
      1.48437461e-02 5.05207963e-02 1.09374998e-02 3.30728963e-02
      4.16923404e-01 8.55536819e-01 1.24227092e-01 1.56267565e-02
      3.48510407e-03 1.12422707e-03 0.</_>
    <_>
      1.21863797e-01 9.97315526e-01 9.90954757e-01 9.80642736e-01
      9.66891825e-01 9.50231373e-01 9.31039453e-01 9.10026133e-01
      8.87262642e-01 8.63567293e-01 8.39318156e-01 8.15136909e-01
      7.91723251e-01 7.69404829e-01 7.48929203e-01 7.30376482e-01
      7.14585423e-01 7.01588929e-01 6.91849470e-01 6.85992479e-01
      6.83739483e-01 4.18781973e-02 4.35735211e-02 5.35900928e-02
      1.48878515e-01 2.43989870e-01 2.43989870e-01 2.43989870e-01
      9.03389603e-02 5.92367686e-02 5.99370636e-02 1.46826923e-01
      2.26714224e-01 2.43989870e-01 2.43989870e-01 1.96256712e-01
      1.05859019e-01 9.02181193e-02 7.52139390e-02 5.40296845e-02
      7.47330561e-02 9.78422388e-02 1.74267292e-01 2.43989870e-01
      2.43989870e-01 2.42326289e-01 1.23176806e-01 7.11744577e-02
      7.89568275e-02 2.43989870e-01 2.43989870e-01 2.43989870e-01
      2.43989870e-01 1.22010879e-01 8.36685076e-02 6.38940707e-02
      5.17767668e-02 2.36363626e+00 2.14876026e-01 8.75912428e-01 0. 0.
      0. 0. 0. 0. 0. 0. 0. 0. 0. 0. 0. 0. 0. 0. 0. 2.54872572e-02
      1.04947528e-02 1.04947528e-02 2.84857582e-02 7.49625219e-03
      7.49625219e-03 5.99700166e-03 2.39880066e-02 1.81409299e-01
      2.09895056e-02 8.99550226e-03 4.49775122e-02 6.74662665e-02
      1.94902550e-02 4.79760133e-02 4.88753289e-01 1.04838639e-01
      3.42741907e-02 6.04838692e-03 2.62096766e-02 1.41129028e-02
      4.03225794e-03 2.01612897e-03 3.42741907e-02 1.61290199e-01
      6.45160973e-02 6.04838692e-03 3.42741907e-02 2.01612897e-02
      2.01612897e-02 2.21774187e-02 4.45564121e-01 1.38666600e-01
      2.80000027e-02 3.99999972e-03 1.60000008e-02 0. 0. 3.99999972e-03
      5.60000055e-02 1.81333035e-01 6.80000037e-02 5.33333328e-03
      3.86666693e-02 9.33333393e-03 8.00000038e-03 1.20000010e-02
      4.30665016e-01 9.76714909e-01 1.76211447e-02 5.03461296e-03
      6.29326620e-04 0. 0.</_>
    <_>
      1.09712519e-01 9.98668253e-01 9.96080816e-01 9.92419004e-01
      9.87740040e-01 9.82250333e-01 9.76350367e-01 9.70338166e-01
      9.64011610e-01 9.57253933e-01 9.50496376e-01 9.44179893e-01
      9.38251019e-01 9.32730317e-01 9.27883744e-01 9.24068570e-01
      9.21009600e-01 9.18439031e-01 9.16464925e-01 9.15565908e-01
      9.15366173e-01 6.47657588e-02 5.94800264e-02 7.85494670e-02
      5.85966222e-02 1.28363982e-01 2.42488697e-01 2.42488697e-01
      1.98134020e-01 1.31790787e-01 1.19465262e-01 1.46838278e-01
      1.47139758e-01 2.42488697e-01 2.42488697e-01 1.74319625e-01
      1.82600692e-01 1.65990695e-01 1.58048451e-01 4.16344106e-02
      4.57047112e-02 7.53136724e-02 7.55219460e-02 1.55306607e-01
      2.42488697e-01 2.42488697e-01 2.28908524e-01 1.01955831e-01
      1.10789731e-01 1.42532602e-01 2.01890528e-01 2.42488697e-01
      1.79360151e-01 1.70416072e-01 1.80033311e-01 1.92297325e-01
      1.25387043e-01 2.73529410e+00 3.71093750e-01 7.87037015e-01 0. 0.
      0. 0. 0. 0. 0. 0. 0. 0. 0. 0. 0. 0. 0. 0. 0. 2.97348239e-02
      3.21969599e-03 1.98863656e-03 5.11363382e-03 5.96590573e-03
      1.98863656e-03 9.46969725e-04 5.39772445e-03 2.41477080e-02
      6.24999637e-03 2.93560536e-03 5.96590573e-03 2.33901329e-02
      2.65151472e-03 4.41287495e-02 8.36265683e-01 4.78954650e-02
      2.64151134e-02 9.57909599e-03 7.37299100e-02 0. 5.22496272e-03
      2.90275755e-04 8.30186978e-02 5.05079366e-02 2.67053898e-02
      9.86937154e-03 3.25109102e-02 7.54716713e-03 5.22496272e-03
      4.96371128e-02 5.71841180e-01 6.41468316e-02 1.57093611e-02
      3.27278685e-04 1.78366676e-02 3.60006629e-03 8.18196684e-04
      1.30911462e-03 5.58011867e-02 1.04565196e-01 2.40549482e-02
      1.63639325e-03 1.93094183e-02 1.63639169e-02 4.74554207e-03
      3.37096751e-02 6.36056960e-01 9.29590225e-01 6.45746887e-02
      3.50103737e-03 2.07468891e-03 2.59336113e-04 0.</_>
    <_>
      1.68720827e-01 9.97782946e-01 9.91941929e-01 9.82623994e-01
      9.70343947e-01 9.55422521e-01 9.38171208e-01 9.19269025e-01
      8.99103403e-01 8.78266096e-01 8.57143342e-01 8.36169839e-01
      8.15949559e-01 7.96842933e-01 7.79595435e-01 7.64288127e-01
      7.51329362e-01 7.40973711e-01 7.33409822e-01 7.28962600e-01
      7.27471948e-01 1.62101209e-01 8.26799944e-02 1.31442919e-01
      1.44874930e-01 1.01137854e-01 1.34240195e-01 2.40101382e-01
      2.40101382e-01 2.40101382e-01 1.08932398e-01 9.37127173e-02
      2.05658630e-01 2.40101382e-01 2.40101382e-01 9.10273641e-02
      1.42454505e-01 1.68901995e-01 1.13544039e-01 1.24389939e-01
      1.98862731e-01 2.04593748e-01 1.69935003e-01 1.41887575e-01
      1.83139086e-01 2.01171055e-01 1.68756858e-01 8.63983408e-02
      9.65542793e-02 2.06751630e-01 2.40101382e-01 2.40101382e-01
      1.89880610e-01 6.52016923e-02 7.31512159e-02 7.63444826e-02
      4.57469523e-02 2.35714293e+00 1.94029853e-01 8.88888896e-01 0. 0.
      0. 0. 0. 0. 0. 0. 0. 0. 0. 0. 0. 0. 0. 0. 0. 7.01014847e-02
      3.80067574e-03 3.80067574e-03 9.29054152e-03 1.68918923e-03
      1.68918923e-03 2.11148662e-03 1.73141863e-02 5.32095321e-02
      2.32263450e-02 4.22297325e-03 1.98479686e-02 2.61824243e-02
      6.75675832e-03 5.15203364e-02 7.05238998e-01 1.03731662e-01
      5.12333624e-02 5.06008836e-03 6.38835579e-02 1.26502209e-03
      2.53004418e-03 5.06008836e-03 8.15938264e-02 1.32827103e-01
      3.22580747e-02 3.16255516e-03 2.53004525e-02 3.54206227e-02
      6.95762131e-03 2.02403609e-02 4.29478317e-01 1.31578997e-01
      1.15789436e-02 4.73684166e-03 9.47368145e-03 2.10526306e-03
      1.57894730e-03 2.10526306e-03 9.68421996e-02 2.52630085e-01
      1.99999996e-02 2.63157883e-03 1.15789436e-02 1.47368368e-02
      7.36841932e-03 1.78947337e-02 4.13154334e-01 6.54403567e-01
      2.11371243e-01 1.02564104e-01 3.03233005e-02 1.33779261e-03 0.</_>
    <_>
      7.46756643e-02 9.98611808e-01 9.95116651e-01 9.89780545e-01
      9.82715011e-01 9.74207699e-01 9.64371145e-01 9.53529119e-01
      9.42075610e-01 9.30061221e-01 9.17882085e-01 9.05819356e-01
      8.94277751e-01 8.83562207e-01 8.73736024e-01 8.65164399e-01
      8.58087242e-01 8.52453768e-01 8.48473370e-01 8.46009254e-01
      8.45098197e-01 5.63797355e-02 7.87643641e-02 1.26752064e-01
      2.00322583e-01 2.40413144e-01 2.40413144e-01 2.40413144e-01
      2.27895483e-01 9.89048406e-02 8.86295810e-02 1.67557612e-01
      2.40413144e-01 2.40413144e-01 2.40413144e-01 2.09638268e-01
      1.80684492e-01 1.20732166e-01 8.83978084e-02 2.61474196e-02
      4.07292731e-02 4.54368517e-02 9.18312371e-02 1.37078762e-01
      1.89145699e-01 2.33989134e-01 1.72214776e-01 7.67720491e-02
      4.51045930e-02 1.00679204e-01 1.23723671e-01 2.26928577e-01
      2.06728786e-01 2.12158889e-01 1.85990065e-01 1.50317773e-01
      8.35081413e-02 2.71875000e+00 2.60606050e-01 8.89189184e-01 0. 0.
      0. 0. 0. 0. 0. 0. 0. 0. 0. 0. 0. 0. 0. 0. 0. 6.89022020e-02
      1.26793403e-02 4.83817002e-03 2.16883440e-02 1.00100099e-03
      2.50250218e-03 1.83516857e-03 3.57023515e-02 8.44177082e-02
      2.55255122e-02 3.33666918e-03 2.03536768e-02 3.98731865e-02
      8.17483850e-03 5.18851914e-02 6.17283642e-01 9.55278352e-02
      4.60269116e-02 3.90794547e-03 6.99088648e-02 1.08554037e-02 0.
      1.73686491e-03 1.32002294e-01 9.98700336e-02 3.21319960e-02
      1.73686491e-03 2.51845364e-02 2.99609136e-02 8.25010706e-03
      2.43161041e-02 4.18587387e-01 8.17191750e-02 2.11214554e-02
      7.54337711e-03 2.13729013e-02 1.88584393e-03 1.50867505e-03
      1.38295209e-03 6.49982691e-02 1.28738865e-01 1.99899487e-02
      3.26879648e-03 1.38295246e-02 5.00374585e-02 1.05607277e-02
      3.25622261e-02 5.39494634e-01 6.80194318e-01 2.07380131e-01
      6.16577864e-02 3.04763392e-02 1.71576310e-02 3.13381385e-03</_>
    <_>
      1.65860400e-01 9.97804821e-01 9.91713524e-01 9.82194304e-01
      9.69473660e-01 9.53984737e-01 9.36109304e-01 9.16242838e-01
      8.95129383e-01 8.73279274e-01 8.50899041e-01 8.28526080e-01
      8.06836963e-01 7.86317229e-01 7.67552972e-01 7.50968575e-01
      7.36698806e-01 7.25264549e-01 7.17103422e-01 7.12226391e-01
      7.10583925e-01 1.10795766e-01 9.26902592e-02 8.09465498e-02
      8.37957263e-02 1.43382773e-01 2.40642548e-01 2.40642548e-01
      2.40642548e-01 1.63037404e-01 1.00748256e-01 1.66299656e-01
      2.37071514e-01 2.40642548e-01 2.27126077e-01 1.49854854e-01
      1.54152289e-01 1.36884451e-01 9.28874388e-02 1.41863942e-01
      1.35729268e-01 1.53069466e-01 1.31730497e-01 1.24618515e-01
      1.75740868e-01 2.40642548e-01 2.20420644e-01 1.43970609e-01
      7.24328831e-02 2.28810728e-01 2.40642548e-01 2.40642548e-01
      1.13468647e-01 1.02969669e-01 9.83302891e-02 6.42375946e-02
      3.92441638e-02 3.27272725e+00 1.65876776e-01 8.86075974e-01 0. 0.
      0. 0. 0. 0. 0. 0. 0. 0. 0. 0. 0. 0. 0. 0. 0. 5.41309863e-02 0.
      3.32383672e-03 8.07217509e-03 2.84900283e-03 9.49667592e-04
      9.49667592e-04 9.02184285e-03 5.84044829e-02 7.59734167e-03
      2.84900283e-03 1.47198495e-02 2.13675126e-02 7.12250778e-03
      4.84329909e-02 7.60201216e-01 1.55203894e-01 4.13877070e-02
      4.26049856e-03 4.26049903e-02 6.08642702e-04 4.26049856e-03
      5.47778374e-03 1.03469409e-01 1.04686700e-01 3.65185738e-02
      2.43457081e-03 2.55630054e-02 2.98235100e-02 7.91235454e-03
      2.19111443e-02 4.13879037e-01 1.28102958e-01 1.78748723e-02
      2.97914608e-03 2.48262007e-02 3.97219462e-03 1.98609731e-03
      2.48262170e-03 9.23533961e-02 2.48757705e-01 1.58887785e-02
      2.48262170e-03 1.24131087e-02 7.44786533e-03 5.95829217e-03
      2.33366303e-02 4.09138948e-01 6.50315225e-01 2.70882577e-01
      6.63908571e-02 9.06225387e-03 3.34909372e-03 0.</_>
    <_>
      1.74110696e-01 9.93768811e-01 9.84902203e-01 9.73660529e-01
      9.61278319e-01 9.46099758e-01 9.26639318e-01 9.04916704e-01
      8.82252395e-01 8.59185219e-01 8.36028397e-01 8.12864959e-01
      7.89765298e-01 7.66788006e-01 7.44966984e-01 7.25792229e-01
      7.11589158e-01 7.00379908e-01 6.89427376e-01 6.80676579e-01
      6.77448511e-01 1.27324447e-01 1.68619826e-01 1.79371044e-01
      1.24683425e-01 1.16866969e-01 1.31102309e-01 1.74331114e-01
      1.81390807e-01 1.58301175e-01 1.28389880e-01 2.05895320e-01
      2.27638677e-01 2.27638677e-01 2.27638677e-01 1.35813981e-01
      1.29432499e-01 1.51175469e-01 1.52485669e-01 8.96890834e-02
      1.12736493e-01 1.53643906e-01 8.02217647e-02 1.21665865e-01
      1.78936332e-01 2.27638677e-01 2.27638677e-01 1.71708971e-01
      8.40067640e-02 2.27638677e-01 2.27638677e-01 2.27638677e-01
      2.12979242e-01 1.07921556e-01 1.22198828e-01 1.30151242e-01
      9.15918648e-02 2.92857146e+00 1.77358493e-01 8.85906041e-01 0. 0.
      0. 0. 0. 0. 0. 0. 0. 0. 0. 0. 0. 0. 0. 0. 0. 6.81819171e-02
      4.76992270e-03 1.12233451e-03 8.13692715e-03 1.68350176e-03
      2.80583627e-04 2.80583627e-04 1.20650930e-02 4.48934287e-02
      6.73400890e-03 1.96408527e-03 7.01459264e-03 2.16049254e-02
      2.24466901e-03 4.23681624e-02 7.76637912e-01 7.10677207e-02
      3.71572524e-02 4.32900432e-03 3.78787518e-02 3.60750360e-03
      1.80375180e-03 1.80375180e-03 4.07647491e-02 8.29724595e-02
      3.10245082e-02 2.52525252e-03 2.81385109e-02 1.15440162e-02
      6.85425848e-03 3.71572524e-02 6.01371169e-01 1.21843711e-01
      7.26009998e-03 2.20959587e-03 1.73611194e-02 0. 9.46969725e-04
      3.15656565e-04 6.72347471e-02 1.40467212e-01 2.52525415e-02
      2.20959587e-03 1.23106092e-02 1.45202074e-02 3.15656583e-03
      1.54671781e-02 5.69452405e-01 8.81947935e-01 1.16708651e-01
      1.34340895e-03 0. 0. 0.</_>
    <_>
      1.62885234e-01 9.98199046e-01 9.93287504e-01 9.85484898e-01
      9.75068450e-01 9.62446749e-01 9.47983384e-01 9.32140946e-01
      9.15204942e-01 8.97687674e-01 8.79908621e-01 8.62362564e-01
      8.45466256e-01 8.29491317e-01 8.14800322e-01 8.01656663e-01
      7.90425599e-01 7.81390309e-01 7.74747074e-01 7.70664155e-01
      7.69264221e-01 1.72934949e-01 1.50677040e-01 2.05506250e-01
      1.81557491e-01 2.22669825e-01 2.31849596e-01 1.29840255e-01
      1.10002175e-01 1.42183021e-01 1.54612422e-01 1.46504894e-01
      2.44944721e-01 2.44944721e-01 2.26172164e-01 1.86359406e-01
      1.35567173e-01 1.12784795e-01 1.28375351e-01 9.79254693e-02
      8.81660357e-02 1.51933864e-01 1.88571125e-01 2.22289115e-01
      2.27696344e-01 1.14661857e-01 6.98826462e-02 9.73342061e-02
      9.30901915e-02 1.73969701e-01 2.44944721e-01 2.44944721e-01
      1.72649220e-01 1.14417173e-01 8.14164802e-02 3.23002487e-02
      6.43500164e-02 4.50000000e+00 2.29729727e-01 8.94949496e-01
      2.23757505e-01 6.64819777e-02 4.43213060e-02 9.69528966e-03
      7.89474100e-02 1.38504151e-03 5.54016605e-03 4.15512454e-03
      8.72576982e-02 9.07203183e-02 3.39335017e-02 8.31024908e-03
      3.73961031e-02 4.08587046e-02 1.66204926e-02 4.84764278e-02
      4.25898701e-01 5.68787232e-02 2.46031266e-02 2.91005336e-03
      3.20987180e-02 3.52733681e-04 1.05820119e-03 1.14638463e-03
      2.93650199e-02 4.24163714e-02 2.29276456e-02 5.20281959e-03
      3.73016372e-02 2.38094777e-02 1.56084383e-02 5.35276905e-02
      6.50754213e-01 6.51901588e-02 5.69319017e-02 5.75575372e-03
      4.14163955e-02 5.38037857e-03 2.25225231e-03 2.00200221e-03
      5.94344027e-02 7.06956610e-02 2.80280132e-02 3.62862786e-03
      2.72772629e-02 2.07707603e-02 1.12612564e-02 3.25325169e-02
      5.67463815e-01 9.17828456e-02 3.69755551e-02 3.23426467e-03
      5.02624735e-02 1.04895106e-03 9.61538521e-04 3.05943959e-03
      7.16784969e-02 9.56288949e-02 2.44755056e-02 4.54545300e-03
      2.20279675e-02 4.09091823e-02 1.33741489e-02 6.05773181e-02
      4.79447156e-01 9.32198703e-01 6.50848225e-02 2.49473331e-03
      2.21754075e-04 0. 0.</_>
    <_>
      1.23344608e-01 9.98207033e-01 9.93891418e-01 9.87221777e-01
      9.78515804e-01 9.67675984e-01 9.55756485e-01 9.42919075e-01
      9.29294407e-01 9.14988458e-01 9.00745451e-01 8.86780143e-01
      8.73176157e-01 8.60442638e-01 8.49002182e-01 8.39057624e-01
      8.30511510e-01 8.23952317e-01 8.19156170e-01 8.16283643e-01
      8.15176189e-01 1.99931547e-01 1.93897069e-01 1.66063040e-01
      2.30537996e-01 2.30537996e-01 2.30537996e-01 2.06841290e-01
      1.46029025e-01 1.23141408e-01 4.82890457e-02 8.48275349e-02
      1.72689214e-01 2.30537996e-01 2.10132003e-01 9.53935236e-02
      7.26046786e-02 5.92569262e-02 4.65006642e-02 1.85963929e-01
      1.99166432e-01 1.99409500e-01 2.30537996e-01 2.01645955e-01
      2.15467975e-01 2.07779229e-01 1.82325602e-01 1.24855660e-01
      5.41473068e-02 9.72847119e-02 2.30537996e-01 2.30537996e-01
      1.47947654e-01 5.77020980e-02 4.68743183e-02 4.98611778e-02
      4.78721522e-02 7.83333349e+00 2.14611873e-01 8.97119343e-01
      1.58245838e+00 1.19047470e-01 4.42176796e-02 4.53514745e-03
      3.51474024e-02 1.13378686e-03 5.66893432e-04 3.96825420e-03
      7.42629766e-02 6.06575571e-02 2.15419549e-02 2.26757373e-03
      1.87074840e-02 1.92743782e-02 5.66893397e-03 1.92743782e-02
      5.69732666e-01 5.81501834e-02 4.12087934e-03 2.74725282e-03
      6.86813192e-03 2.28937739e-03 1.37362641e-03 2.74725282e-03
      1.19047621e-02 6.45604432e-02 1.78571437e-02 4.12087934e-03
      2.06043962e-02 2.15201471e-02 2.28937739e-03 2.74725277e-02
      7.51383781e-01 1.11627720e-01 5.84717020e-02 9.96677671e-03
      5.91361523e-02 3.98671068e-03 3.32225906e-03 5.31561393e-03
      8.30563605e-02 8.30563605e-02 2.92358864e-02 6.64451718e-03
      3.72092947e-02 2.65780780e-02 1.12956809e-02 2.12624613e-02
      4.49832052e-01 1.21590808e-01 2.65151355e-02 7.57575873e-03
      3.40908878e-02 3.78787867e-04 7.57575734e-04 4.16666688e-03
      7.72726685e-02 2.10227087e-01 1.81818102e-02 3.40909092e-03
      1.43939340e-02 4.73484509e-02 1.28787840e-02 3.06817982e-02
      3.90529960e-01 7.68364727e-01 1.60760432e-01 4.81727570e-02
      1.71650052e-02 5.53709874e-03 0.</_>
    <_>
      1.33258462e-01 9.98155951e-01 9.93415236e-01 9.86524045e-01
      9.78135467e-01 9.68480647e-01 9.57784832e-01 9.46377993e-01
      9.34583843e-01 9.22824919e-01 9.11027074e-01 8.99093449e-01
      8.87004495e-01 8.75087142e-01 8.63857746e-01 8.53816092e-01
      8.45352054e-01 8.38436782e-01 8.33220243e-01 8.29988241e-01
      8.28909278e-01 8.95673335e-02 1.01776674e-01 1.70698538e-01
      2.06464663e-01 2.51148671e-01 2.42402196e-01 1.66153774e-01
      7.73215145e-02 7.29263276e-02 9.14287120e-02 1.44155994e-01
      2.51148671e-01 2.51148671e-01 2.51148671e-01 1.91052556e-01
      1.34412140e-01 7.66434297e-02 7.83848837e-02 1.04986243e-01
      1.04023874e-01 1.58965677e-01 1.51771232e-01 2.51148671e-01
      2.34339684e-01 1.34427562e-01 1.07960999e-01 9.47194174e-02
      5.63319176e-02 1.62051886e-01 2.51148671e-01 2.51148671e-01
      2.24310160e-01 1.08037300e-01 8.40096548e-02 7.24091381e-02
      7.03002289e-02 3.88888884e+00 1.58139542e-01 8.80658448e-01 0. 0.
      0. 0. 0. 0. 0. 0. 0. 0. 0. 0. 0. 0. 0. 0. 0. 5.58024980e-02
      4.44444502e-03 2.46913591e-03 1.62962973e-02 3.95061774e-03
      2.46913591e-03 1.48148148e-03 1.97530817e-02 5.72839826e-02
      1.87654290e-02 2.96296319e-03 2.56789979e-02 2.61728242e-02
      1.72839500e-02 4.34567928e-02 7.01725006e-01 7.28910565e-02
      5.40540740e-02 9.00900830e-03 5.97870834e-02 4.91400482e-03
      1.63800165e-03 8.19000788e-03 7.78050423e-02 4.17690538e-02
      2.94840336e-02 3.27600329e-03 4.25880551e-02 1.63800120e-02
      1.22850100e-02 2.78460309e-02 5.38083076e-01 1.04629800e-01
      1.57407448e-02 3.70370387e-03 2.68518403e-02 9.25925910e-04 0.
      4.62962955e-04 4.62963171e-02 9.16668028e-02 2.40740664e-02
      3.24074086e-03 2.08333302e-02 5.83333857e-02 1.48148183e-02
      6.06482066e-02 5.27770102e-01 9.46708441e-01 5.17241396e-02
      1.56739808e-03 0. 0. 0.</_>
    <_>
      6.67723715e-02 9.98999536e-01 9.97160375e-01 9.94391382e-01
      9.91587043e-01 9.88573849e-01 9.85822499e-01 9.83117700e-01
      9.80611622e-01 9.77936506e-01 9.75288212e-01 9.72659945e-01
      9.70171392e-01 9.68124568e-01 9.66204941e-01 9.64802206e-01
      9.63463783e-01 9.62491989e-01 9.61412966e-01 9.60828006e-01
      9.60419178e-01 4.90965396e-02 1.24243997e-01 2.21844494e-01
      2.48274684e-01 2.73470134e-01 2.58929878e-01 1.00145273e-01
      3.73243392e-02 3.86220738e-02 5.13057671e-02 1.10842653e-01
      2.73470134e-01 2.73470134e-01 2.15403378e-01 1.64257154e-01
      5.94751388e-02 3.36076505e-02 2.67334860e-02 6.02915250e-02
      1.30984366e-01 2.73470134e-01 2.73470134e-01 2.73470134e-01
      1.85853973e-01 7.51974955e-02 4.89102565e-02 4.98284586e-02
      2.06199680e-02 8.36853459e-02 2.73470134e-01 2.73470134e-01
      1.37656212e-01 6.19805604e-02 1.55649586e-02 1.28731523e-02
      1.22243930e-02 3.69230771e+00 1.90283403e-01 8.81720424e-01
      4.33246899e+00 1.15752503e-01 1.40306083e-02 3.82653088e-03
      2.96556018e-02 9.56632663e-04 6.37755089e-04 4.14540851e-03
      6.53698742e-02 6.76020160e-02 1.72193833e-02 3.18877562e-03
      1.91326477e-02 2.55101956e-02 1.17984666e-02 4.71938588e-02
      5.73989809e-01 7.23808408e-02 1.28571447e-02 6.66666543e-03
      2.80952509e-02 1.90476188e-03 3.33333295e-03 2.85714259e-03
      7.76189193e-02 1.50000036e-01 9.52380896e-03 5.71428472e-03
      2.09523886e-02 3.33333425e-02 9.04761814e-03 5.23809008e-02
      5.13329685e-01 8.97296295e-02 1.27567410e-01 4.32432443e-03
      1.00540422e-01 5.40540554e-03 7.56756775e-03 3.24324332e-03
      1.23243086e-01 3.35135087e-02 2.48648655e-02 6.48648664e-03
      5.62161729e-02 1.40540544e-02 1.29729733e-02 2.91891899e-02
      3.61080527e-01 8.23252052e-02 2.55376194e-02 5.37634408e-03
      4.03225534e-02 2.68817181e-03 1.68010755e-03 5.71236573e-03
      7.09004849e-02 1.12567112e-01 1.68010686e-02 4.70430078e-03
      1.78091321e-02 3.89784686e-02 1.10887075e-02 5.34273796e-02
      5.10081053e-01 8.09479117e-01 1.66901305e-01 2.03347411e-02
      3.28484271e-03 0. 0.</_>
    <_>
      8.98766369e-02 9.98422325e-01 9.95145202e-01 9.90361571e-01
      9.84786749e-01 9.78497028e-01 9.72207129e-01 9.65888023e-01
      9.59567547e-01 9.53204572e-01 9.47298765e-01 9.42290425e-01
      9.38116431e-01 9.34758186e-01 9.32132840e-01 9.30400074e-01
      9.29156005e-01 9.28561568e-01 9.28199112e-01 9.28319752e-01
      9.28254724e-01 1.04185283e-01 9.11855027e-02 1.28966436e-01
      1.43494889e-01 2.76357472e-01 2.76357472e-01 2.00070873e-01
      9.37064886e-02 1.18726775e-01 5.37750088e-02 1.08777218e-01
      2.76357472e-01 2.76357472e-01 2.56231546e-01 1.15266673e-01
      6.22940883e-02 2.51926910e-02 3.53172868e-02 2.29626633e-02
      3.81559655e-02 2.19166651e-01 2.06549898e-01 2.76357472e-01
      2.76357472e-01 1.29610449e-01 4.70707603e-02 2.38119885e-02
      3.78918946e-02 6.91605285e-02 2.76357472e-01 2.76357472e-01
      1.79214746e-01 1.17213763e-01 4.77215387e-02 2.30072103e-02
      1.95154101e-02 6.08333349e+00 3.18584085e-01 8.92857134e-01
      1.97119534e+00 8.50692540e-02 4.99131344e-02 3.47222225e-03
      4.16666381e-02 1.73611112e-03 1.73611112e-03 3.47222225e-03
      6.29339218e-02 3.25520895e-02 1.51909776e-02 2.17013899e-03
      1.86632015e-02 3.55902724e-02 3.90625000e-03 3.94965075e-02
      6.02440476e-01 2.20550094e-02 5.70835499e-03 2.07576551e-03
      9.60041769e-03 7.26517895e-03 1.81629474e-03 1.81629474e-03
      6.74623763e-03 1.73845459e-02 1.45303691e-02 2.33523617e-03
      1.68656055e-02 1.79034863e-02 5.96782565e-03 3.29527594e-02
      8.34952652e-01 1.17753424e-01 8.93719047e-02 3.62318824e-03
      5.07246554e-02 2.41545890e-03 0. 6.03864726e-04 6.82367310e-02
      3.50241438e-02 1.93236694e-02 7.85024185e-03 3.50241438e-02
      8.45410675e-03 4.22705291e-03 1.87198054e-02 5.38643301e-01
      1.97876617e-02 2.50965506e-02 6.03281753e-03 3.98166515e-02
      3.61969066e-03 2.17181467e-03 2.41312734e-03 6.29827008e-02
      9.12159011e-02 1.44787738e-02 4.58494155e-03 1.68919042e-02
      6.03282675e-02 1.27895819e-02 8.51831660e-02 5.52605987e-01
      8.43734860e-01 1.13207549e-01 2.53991298e-02 1.23367198e-02
      5.07982587e-03 2.41896472e-04</_>
    <_>
      1.61762089e-01 9.96608257e-01 9.89314616e-01 9.78470266e-01
      9.64153409e-01 9.46898222e-01 9.27529871e-01 9.06136453e-01
      8.83122623e-01 8.59304190e-01 8.34887743e-01 8.10683191e-01
      7.86985219e-01 7.64735579e-01 7.43904471e-01 7.25069582e-01
      7.09129572e-01 6.96138382e-01 6.86850250e-01 6.81176662e-01
      6.79620206e-01 1.90009564e-01 2.38595799e-01 1.45947665e-01
      1.06539838e-01 1.63706735e-01 1.25744268e-01 9.42005217e-02
      1.04391374e-01 1.23030223e-01 1.12387545e-01 1.47287577e-01
      2.34222874e-01 2.38595799e-01 2.34365165e-01 1.23046495e-01
      8.08214843e-02 1.14896618e-01 1.30383968e-01 2.15083241e-01
      2.38595799e-01 1.82771012e-01 1.62584171e-01 1.95817918e-01
      1.16319686e-01 1.03187397e-01 1.25392184e-01 1.53776601e-01
