<?xml version="1.0"?>
<opencv_storage>
<my_svm type_id="opencv-ml-svm">
  <svm_type>C_SVC</svm_type>
  <kernel><type>RBF</type>
    <gamma>2.2500000000000003e-003</gamma></kernel>
  <C>3.1250000000000000e+002</C>
  <term_criteria><epsilon>2.2204460492503131e-016</epsilon>
    <iterations>3000</iterations></term_criteria>
  <var_all>131</var_all>
  <var_count>131</var_count>
  <class_count>2</class_count>
  <class_labels type_id="opencv-matrix">
    <rows>1</rows>
    <cols>2</cols>
    <dt>i</dt>
    <data>
      -1 1</data></class_labels>
  <class_weights type_id="opencv-matrix">
    <rows>1</rows>
    <cols>2</cols>
    <dt>d</dt>
    <data>
      1.8206521868705750e+002 1.3043478131294250e+002</data></class_weights>
  <sv_total>46</sv_total>
  <support_vectors>
    <_>
      1.34360000e-001 9.98049974e-001 9.93600011e-001 9.86720026e-001
      9.77289975e-001 9.66109991e-001 9.53220010e-001 9.39209998e-001
      9.24229980e-001 9.08640027e-001 8.93280029e-001 8.78059983e-001
      8.63489985e-001 8.49799991e-001 8.37390006e-001 8.26740026e-001
      8.17510009e-001 8.10490012e-001 8.05580020e-001 8.02429974e-001
      8.01349998e-001 9.06630009e-002 7.43239969e-002 8.68699998e-002
      9.14330035e-002 2.21110001e-001 2.51859993e-001 2.32779995e-001
      1.81180000e-001 8.82290006e-002 8.10780004e-002 1.09169997e-001
      2.42219999e-001 2.51859993e-001 2.31629997e-001 1.09250002e-001
      9.67459977e-002 1.09070003e-001 8.44940022e-002 7.19759986e-002
      9.02310014e-002 1.37580007e-001 1.47369996e-001 2.51859993e-001
      2.51859993e-001 2.42070004e-001 1.51740000e-001 8.34119990e-002
      7.60260001e-002 1.92019999e-001 2.51859993e-001 2.51859993e-001
      2.44169995e-001 8.65409970e-002 6.84949979e-002 9.04980004e-002
      8.49680007e-002 2.27270007e+000 2.50000000e-001 7.92590022e-001 0.
      0. 0. 0. 0. 0. 0. 0. 0. 0. 0. 0. 0. 0. 0. 0. 0. 4.02580015e-002
      1.61030004e-003 8.05150019e-004 3.22060008e-003 0. 0. 0.
      2.41550002e-002 1.15139998e-001 5.63610019e-003 3.14010009e-002
      3.94529998e-002 2.17390005e-002 5.63610019e-003 3.70370001e-002
      6.73910022e-001 1.02689996e-001 3.03029995e-002 3.36700003e-003
      3.03029995e-002 1.68350001e-003 0. 1.68350001e-003 8.58590007e-002
      6.90239966e-002 2.18850002e-002 3.87200005e-002 6.39730021e-002
      2.18850002e-002 6.73400005e-003 3.70370001e-002 4.84849989e-001
      1.56700000e-001 6.26780018e-002 4.27349983e-003 1.15390003e-001 0.
      0. 1.42450002e-003 8.97440016e-002 1.09690003e-001 4.13109995e-002
      3.98860015e-002 5.41310012e-002 1.56689994e-002 7.12249987e-003
      4.27349983e-003 2.97719985e-001 5.90529978e-001 2.05789998e-001
      9.73680019e-002 4.78949994e-002 4.31579985e-002 1.52629996e-002</_>
    <_>
      1.90029994e-001 9.99000013e-001 9.97120023e-001 9.94120002e-001
      9.90190029e-001 9.85530019e-001 9.80250001e-001 9.74489987e-001
      9.68360007e-001 9.61929977e-001 9.55240011e-001 9.48650002e-001
      9.42330003e-001 9.36389983e-001 9.30930018e-001 9.26100016e-001
      9.22070026e-001 9.18699980e-001 9.16440010e-001 9.14900005e-001
      9.14370000e-001 1.36460006e-001 1.21579997e-001 1.40560001e-001
      1.56529993e-001 2.20809996e-001 2.31800005e-001 2.10610002e-001
      1.51730001e-001 9.42099988e-002 1.17660001e-001 1.86849996e-001
      2.33030006e-001 2.33030006e-001 2.33030006e-001 1.81459993e-001
      9.31869969e-002 6.57450035e-002 6.52220026e-002 1.38689995e-001
      1.00830004e-001 1.49550006e-001 1.32459998e-001 2.23409995e-001
      2.33030006e-001 2.16370001e-001 1.70120001e-001 1.26819998e-001
      1.32709995e-001 1.52840003e-001 2.33030006e-001 2.33030006e-001
      1.86399996e-001 9.84340012e-002 7.66950026e-002 8.33309963e-002
      8.48309994e-002 1.29030001e+000 3.23529989e-001 8.88159990e-001 0.
      0. 0. 0. 0. 0. 0. 0. 0. 0. 0. 0. 0. 0. 0. 0. 0. 2.64410004e-002
      7.11859995e-003 0. 6.44070003e-003 0. 0. 6.77970005e-004
      1.11860000e-002 3.52540016e-002 1.25420000e-002 2.03389991e-002
      3.76270004e-002 4.77969982e-002 6.10170001e-003 6.81359991e-002
      7.20319986e-001 4.52490002e-002 2.86580008e-002 2.26240000e-003
      6.78730011e-002 0. 0. 2.26240000e-003 7.23979995e-002
      4.90199998e-002 6.41029999e-002 2.86580008e-002 8.89889970e-002
      1.58370007e-002 6.78730011e-003 1.88539997e-002 5.09050012e-001
      4.39390019e-002 1.66669991e-002 7.57579983e-004 1.81820001e-002 0.
      0. 0. 2.34849993e-002 1.36360005e-001 3.48480009e-002
      3.03029995e-002 5.07569984e-002 6.13639988e-002 9.09090042e-003
      9.62119997e-002 4.78029996e-001 9.94329989e-001 5.66769997e-003 0.
      0. 0. 0.</_>
    <_>
      1.22450002e-001 9.97799993e-001 9.92860019e-001 9.84579980e-001
      9.73510027e-001 9.60120022e-001 9.44159985e-001 9.26689982e-001
      9.07959998e-001 8.88459980e-001 8.68749976e-001 8.49229991e-001
      8.30380023e-001 8.12659979e-001 7.96490014e-001 7.82050014e-001
      7.70190001e-001 7.60540009e-001 7.53509998e-001 7.49319971e-001
      7.47550011e-001 1.11050002e-001 8.33190009e-002 1.29460007e-001
      1.76679999e-001 2.53710002e-001 2.53710002e-001 1.84650004e-001
      1.22709997e-001 1.21050000e-001 8.49509984e-002 1.67549998e-001
      2.53710002e-001 2.53710002e-001 2.38409996e-001 7.73200020e-002
      6.35609999e-002 6.53240010e-002 6.59079999e-002 7.12189972e-002
      1.28020003e-001 2.13430002e-001 1.84420004e-001 2.53710002e-001
      2.53710002e-001 1.77849993e-001 1.11529998e-001 6.49740025e-002
      5.30599989e-002 2.00790003e-001 2.53710002e-001 2.53710002e-001
      1.96309999e-001 6.42590001e-002 5.34499995e-002 3.36199999e-002
      4.00899984e-002 2.55559993e+000 2.01680005e-001 8.80599976e-001 0.
      0. 0. 0. 0. 0. 0. 0. 0. 0. 0. 0. 0. 0. 0. 0. 0. 4.88639995e-002
      1.13640004e-003 2.27269996e-003 4.54550004e-003 0. 0. 0.
      3.40910000e-003 8.97729993e-002 1.25000002e-002 3.06819994e-002
      5.90910017e-002 4.43180017e-002 1.13639999e-002 4.54550013e-002
      6.46589994e-001 7.47860000e-002 1.28210001e-002 0. 2.77779996e-002
      0. 0. 0. 4.48720008e-002 8.54699984e-002 9.40169990e-002
      4.70089987e-002 8.97440016e-002 6.41029980e-003 4.27349983e-003
      1.06840003e-002 5.02139986e-001 1.19999997e-001 3.20000015e-002
      1.33330002e-003 2.66670007e-002 0. 0. 0. 5.06669991e-002
      1.73329994e-001 6.80000037e-002 3.59999985e-002 6.80000037e-002
      1.60000008e-002 1.73330009e-002 1.06670000e-002 3.79999995e-001
      6.55579984e-001 2.02130005e-001 7.18080029e-002 2.39359997e-002
      3.65689993e-002 9.97340027e-003</_>
    <_>
      1.38510004e-001 9.98229980e-001 9.95989978e-001 9.91729975e-001
      9.86699998e-001 9.80400026e-001 9.74030018e-001 9.67090011e-001
      9.60150003e-001 9.53079998e-001 9.46519971e-001 9.40020025e-001
      9.34010029e-001 9.28290009e-001 9.22969997e-001 9.17980015e-001
      9.13839996e-001 9.10390019e-001 9.08110023e-001 9.06319976e-001
      9.06369984e-001 2.35510007e-001 2.35510007e-001 1.51339993e-001
      1.05370000e-001 2.35510007e-001 2.35510007e-001 2.35510007e-001
      1.70800000e-001 1.59649998e-001 2.35510007e-001 2.35510007e-001
      1.92240000e-001 1.80739999e-001 2.35510007e-001 2.14739993e-001
      2.20060006e-001 1.93560004e-001 2.35510007e-001 7.41550028e-002
      6.77810013e-002 8.01260024e-002 6.81129992e-002 6.08600006e-002
      1.28590003e-001 2.09069997e-001 1.00050002e-001 4.86720018e-002
      8.49329978e-002 1.35079995e-001 1.73610002e-001 1.46200001e-001
      7.47250021e-002 7.55570009e-002 1.13440000e-001 7.09500015e-002
      6.70839995e-002 2.87500000e+000 2.79069990e-001 8.33329976e-001 0.
      0. 0. 0. 0. 0. 0. 0. 0. 0. 0. 0. 0. 0. 0. 0. 0. 7.89470002e-002
      2.63160001e-003 0. 5.26320003e-003 0. 0. 0. 3.42100002e-002
      1.10529996e-001 2.10529994e-002 3.42100002e-002 9.73680019e-002
      5.78950010e-002 1.84209999e-002 7.10529983e-002 4.68419999e-001
      1.20300002e-001 8.27070028e-002 2.50630011e-003 6.26569986e-002 0.
      0. 2.50630011e-003 1.25310004e-001 9.27319974e-002 5.76439984e-002
      5.51379994e-002 6.01500012e-002 5.01250010e-003 7.51879998e-003
      1.50380004e-002 3.10779989e-001 1.75819993e-001 2.93039996e-002 0.
      1.64839998e-002 0. 0. 0. 1.55680001e-001 1.94140002e-001
      2.38099992e-002 4.02930006e-002 5.12819998e-002 1.64839998e-002
      7.32599990e-003 9.15750023e-003 2.80220002e-001 5.93129992e-001
      2.80149996e-001 7.02290013e-002 3.20609994e-002 2.21369993e-002
      2.29010009e-003</_>
    <_>
      1.70139998e-001 9.98080015e-001 9.93250012e-001 9.85780001e-001
      9.76220012e-001 9.64829981e-001 9.52130020e-001 9.38440025e-001
      9.24080014e-001 9.09370005e-001 8.94479990e-001 8.79899979e-001
      8.65670025e-001 8.52530003e-001 8.40579987e-001 8.30020010e-001
      8.21070015e-001 8.14100027e-001 8.09220016e-001 8.06289971e-001
      8.05329978e-001 2.26150006e-001 1.47400007e-001 1.07539997e-001
      9.15540010e-002 9.22859982e-002 1.07670002e-001 1.61170006e-001
      1.59830004e-001 1.80590004e-001 1.53880000e-001 1.01779997e-001
      9.64070037e-002 8.07709992e-002 1.08779997e-001 1.55829996e-001
      2.26030007e-001 1.38370007e-001 1.16729997e-001 2.26150006e-001
      1.68329999e-001 1.13789998e-001 1.04999997e-001 1.28959998e-001
      1.38830006e-001 2.16869995e-001 2.26150006e-001 2.26150006e-001
      2.26150006e-001 1.39540002e-001 1.25149995e-001 1.54339999e-001
      2.13929996e-001 2.26150006e-001 2.26150006e-001 1.89050004e-001
      2.19689995e-001 2.54550004e+000 2.42420003e-001 8.79190028e-001 0.
      0. 0. 0. 0. 0. 0. 0. 0. 0. 0. 0. 0. 0. 0. 0. 0. 6.97119981e-002
      1.08169997e-002 2.40379991e-003 1.92310009e-002 0. 0. 0.
      2.40390003e-002 1.21390000e-001 1.08169997e-002 2.16349997e-002
      5.40870018e-002 2.16349997e-002 7.21149985e-003 6.12980016e-002
      5.75720012e-001 8.50820020e-002 4.54550013e-002 0. 8.04200023e-002
      0. 0. 1.16550003e-003 9.09089968e-002 1.16549999e-001
      4.19580005e-002 3.26340012e-002 5.82749993e-002 4.07930017e-002
      1.04900002e-002 4.77860011e-002 3.48479986e-001 1.14579998e-001
      7.38639981e-002 1.89389999e-003 3.97729985e-002 0. 0. 0.
      6.81819990e-002 1.27839997e-001 4.54550013e-002 2.08330005e-002
      7.00760037e-002 3.31440009e-002 2.55679991e-002 3.88259999e-002
      3.39960009e-001 7.73320019e-001 1.94030002e-001 2.61189993e-002
      6.06339984e-003 4.66419995e-004 0.</_>
    <_>
      1.15800001e-001 9.97409999e-001 9.91069973e-001 9.81450021e-001
      9.68750000e-001 9.53289986e-001 9.35509980e-001 9.15830016e-001
      8.94379973e-001 8.72139990e-001 8.49820018e-001 8.27899992e-001
      8.06810021e-001 7.86939979e-001 7.68809974e-001 7.52600014e-001
      7.38699973e-001 7.27729976e-001 7.20109999e-001 7.15709984e-001
      7.14070022e-001 8.54030028e-002 6.51929975e-002 1.41450003e-001
      1.39880002e-001 2.13919997e-001 1.82050005e-001 1.26839995e-001
      1.34639993e-001 1.30180001e-001 7.50560015e-002 1.06009997e-001
      2.76259989e-001 2.76259989e-001 1.45400003e-001 7.72249997e-002
      8.84810016e-002 1.51580006e-001 1.33819997e-001 4.78070006e-002
      1.47520006e-001 2.76259989e-001 2.76259989e-001 2.76259989e-001
      2.29870006e-001 9.47450027e-002 5.58420010e-002 5.07090017e-002
      4.91839983e-002 2.07420006e-001 2.76259989e-001 2.76259989e-001
      2.05440000e-001 6.53050020e-002 3.70349996e-002 4.89149988e-002
      4.34430018e-002 2.79999995e+000 2.43059993e-001 8.82719994e-001
      2.69070005e+000 6.09420016e-002 1.93910003e-002 1.38499995e-003
      3.80889997e-002 0. 0. 3.46260006e-003 3.67040001e-002
      8.44879970e-002 2.21609995e-002 2.83930004e-002 3.80889997e-002
      6.23270012e-002 1.45429997e-002 7.27149993e-002 5.17310023e-001
      3.13390009e-002 2.13679997e-003 7.12250010e-004 7.12249987e-003 0.
      0. 0. 1.63819995e-002 9.18800011e-002 2.35040002e-002
      3.27639990e-002 4.27349992e-002 3.48999985e-002 1.13960002e-002
      5.19939996e-002 6.53140008e-001 1.47729993e-001 2.27269996e-002 0.
      2.27269996e-002 0. 0. 0. 5.80810010e-002 1.02270000e-001
      2.02019997e-002 2.27269996e-002 6.56569973e-002 2.65149996e-002
      3.78790009e-003 3.03029995e-002 4.77270007e-001 8.65300000e-002
      7.18370005e-002 2.44900002e-003 7.02039972e-002 0. 8.16330023e-004
      0. 1.01219997e-001 9.95920002e-002 3.18370014e-002 2.93879993e-002
      5.30610010e-002 2.85710003e-002 1.22450003e-002 3.59180011e-002
      3.76329988e-001 7.45169997e-001 2.11370006e-001 3.52899991e-002
      5.94349997e-003 2.22879997e-003 0.</_>
    <_>
      1.66270003e-001 9.97619987e-001 9.91940022e-001 9.82540011e-001
      9.69959974e-001 9.54639971e-001 9.37099993e-001 9.17500019e-001
      8.96719992e-001 8.74890029e-001 8.52800012e-001 8.30810010e-001
      8.09289992e-001 7.88919985e-001 7.69990027e-001 7.53139973e-001
      7.38820016e-001 7.26939976e-001 7.18469977e-001 7.13100016e-001
      7.11199999e-001 1.42470002e-001 1.21250004e-001 1.25589997e-001
      1.69229999e-001 2.11659998e-001 2.12950006e-001 1.88769996e-001
      1.69949993e-001 1.40849993e-001 1.77469999e-001 1.74600005e-001
      2.12950006e-001 1.98339999e-001 2.06870005e-001 1.40719995e-001
      1.19199999e-001 1.25890002e-001 1.40269995e-001 1.25220001e-001
      1.37639999e-001 1.44789994e-001 9.23030004e-002 1.78979993e-001
      2.12950006e-001 2.07749993e-001 1.82689995e-001 1.37410000e-001
      2.10140005e-001 2.12950006e-001 2.12950006e-001 2.12950006e-001
      1.56250000e-001 9.88920033e-002 7.74430037e-002 1.14299998e-001
      1.20810002e-001 2. 1.79100007e-001 8.98649991e-001 0. 0. 0. 0. 0.
      0. 0. 0. 0. 0. 0. 0. 0. 0. 0. 0. 0. 4.05270010e-002
      1.01320003e-003 1.01320003e-003 5.06589981e-003 0. 0. 0.
      1.62109993e-002 1.17530003e-001 1.82370003e-002 3.85009982e-002
      4.66060005e-002 5.97769991e-002 8.10540002e-003 3.85009982e-002
      6.08910024e-001 9.28789973e-002 2.32200008e-002 1.54800003e-003
      2.63160001e-002 0. 0. 0. 5.10840006e-002 9.90710035e-002
      5.72759993e-002 4.48919982e-002 7.12070018e-002 3.56040001e-002
      7.73990015e-003 3.25080007e-002 4.56660002e-001 1.47729993e-001
      5.30299991e-002 0. 3.15660015e-002 0. 0. 0. 8.58590007e-002
      1.79289997e-001 2.77779996e-002 3.91409993e-002 5.17680012e-002
      1.64139997e-002 6.31309999e-003 1.64139997e-002 3.44700009e-001
      6.57429993e-001 2.48950005e-001 4.55019996e-002 1.56900007e-002
      2.51049995e-002 7.32220011e-003</_>
    <_>
      1.86639994e-001 9.97439981e-001 9.92980003e-001 9.84770000e-001
      9.75070000e-001 9.62419987e-001 9.48689997e-001 9.32860017e-001
      9.16620016e-001 8.99429977e-001 8.82219970e-001 8.64939988e-001
      8.48029971e-001 8.32249999e-001 8.17629993e-001 8.05280030e-001
      7.94359982e-001 7.86310017e-001 7.79940009e-001 7.76750028e-001
      7.75009990e-001 1.45779997e-001 2.43460000e-001 2.39570007e-001
      1.00280002e-001 1.66099995e-001 1.09399997e-001 9.43949968e-002
      1.17059998e-001 1.07740000e-001 1.76860005e-001 2.43460000e-001
      2.43460000e-001 2.43460000e-001 2.14680001e-001 1.92120001e-002
      5.50820008e-002 5.34159988e-002 7.13220015e-002 1.08900003e-001
      2.43460000e-001 2.43460000e-001 1.66030005e-001 2.11640000e-001
      1.69039994e-001 1.01930000e-001 1.09760001e-001 7.84889981e-002
      1.55300006e-001 2.43460000e-001 2.43460000e-001 2.43460000e-001
      1.77719995e-001 6.59999996e-002 6.43419996e-002 4.17700000e-002
      7.48530030e-002 2.50000000e+000 2.09089994e-001 8.71999979e-001 0.
      0. 0. 0. 0. 0. 0. 0. 0. 0. 0. 0. 0. 0. 0. 0. 0. 5.42329997e-002
      5.29100001e-003 0. 3.96829983e-003 0. 0. 1.32269994e-003
      1.32280001e-002 1.00529999e-001 2.24869996e-002 4.10050005e-002
      6.08460009e-002 4.62960005e-002 1.71959996e-002 3.04230005e-002
      6.03169978e-001 7.14289993e-002 1.96429994e-002 1.78569998e-003
      2.67859995e-002 0. 1.78569998e-003 0. 3.75000015e-002
      6.96429983e-002 6.07139990e-002 2.67859995e-002 1.12499997e-001
      1.25000002e-002 1.25000002e-002 1.96429994e-002 5.26790023e-001
      6.48149997e-002 1.85189992e-002 1.54319999e-003 2.16049999e-002 0.
      0. 3.08639999e-003 2.62349993e-002 4.16669995e-002 3.24070007e-002
      4.93829995e-002 9.10490006e-002 2.16049999e-002 1.54320002e-002
      5.24690002e-002 5.60190022e-001 8.52599978e-001 9.82659981e-002
      1.30059998e-002 8.67049955e-003 1.87860001e-002 8.67049955e-003</_>
    <_>
      1.45789996e-001 9.97739971e-001 9.92110014e-001 9.82720017e-001
      9.70089972e-001 9.54659998e-001 9.36699986e-001 9.17050004e-001
      8.95860016e-001 8.73849988e-001 8.51599991e-001 8.29429984e-001
      8.07990015e-001 7.87710011e-001 7.68970013e-001 7.52399981e-001
      7.38070011e-001 7.26650000e-001 7.18270004e-001 7.13090003e-001
      7.11470008e-001 1.31329998e-001 1.09959997e-001 1.66960001e-001
      1.17449999e-001 1.87340006e-001 2.26070002e-001 1.69049993e-001
      1.61770001e-001 1.83200002e-001 1.35399997e-001 1.69049993e-001
      2.31429994e-001 2.31429994e-001 2.04899997e-001 1.01269998e-001
      7.51470029e-002 5.08720018e-002 9.23369974e-002 6.50629997e-002
      7.95859993e-002 2.01079994e-001 2.31429994e-001 2.31429994e-001
      2.31429994e-001 1.92519993e-001 1.82040006e-001 9.97370034e-002
      1.41509995e-001 1.65680006e-001 2.31429994e-001 2.31429994e-001
      2.31429994e-001 1.28230006e-001 7.61099979e-002 5.71929999e-002
      6.04319982e-002 2.33330011e+000 1.86989993e-001 8.97059977e-001 0.
      0. 0. 0. 0. 0. 0. 0. 0. 0. 0. 0. 0. 0. 0. 0. 0. 4.03920002e-002
      1.22400001e-003 0. 4.89600003e-003 0. 0. 0. 1.10160001e-002
      1.24849997e-001 1.22400001e-002 3.91680002e-002 4.65120003e-002
      2.69280002e-002 1.34640001e-002 2.81520002e-002 6.51160002e-001
      6.80999979e-002 8.96060001e-003 1.79210003e-003 1.61290001e-002
      1.79210003e-003 0. 0. 4.12189998e-002 1.09320000e-001
      6.09319992e-002 4.30109985e-002 7.34770000e-002 1.79210007e-002
      1.61290001e-002 1.61290001e-002 5.25089979e-001 1.30380005e-001
      4.70429994e-002 4.03229985e-003 2.55379993e-002 0. 0. 0.
      6.18279986e-002 1.88170001e-001 4.03230004e-002 3.76340002e-002
      7.25810006e-002 2.01609991e-002 1.07530002e-002 1.88170001e-002
      3.42739999e-001 6.53389990e-001 2.09160000e-001 8.83129984e-002
      3.45290005e-002 1.06239999e-002 3.98410019e-003</_>
    <_>
      5.19790016e-002 9.96670008e-001 9.90890026e-001 9.84059989e-001
      9.74879980e-001 9.64269996e-001 9.53909993e-001 9.43599999e-001
      9.34740007e-001 9.27339971e-001 9.21370029e-001 9.18160021e-001
      9.16719973e-001 9.16140020e-001 9.17420030e-001 9.20690000e-001
      9.25320029e-001 9.29790020e-001 9.32860017e-001 9.35299993e-001
      9.36540008e-001 8.72239992e-002 9.47090015e-002 1.96950004e-001
      2.76950002e-001 2.76950002e-001 2.76950002e-001 2.25050002e-001
      1.02949999e-001 5.10100015e-002 4.31960002e-002 6.74839988e-002
      1.24439999e-001 2.35300004e-001 2.76950002e-001 1.98630005e-001
      1.10760003e-001 6.45629987e-002 4.35740016e-002 5.80540001e-002
      5.58740012e-002 1.09320000e-001 2.52099991e-001 2.76950002e-001
      2.76950002e-001 1.52940005e-001 6.04079999e-002 4.98710014e-002
      3.44920009e-002 2.65870001e-002 5.49019985e-002 1.40819997e-001
      2.76950002e-001 2.19730005e-001 1.24219999e-001 6.73310012e-002
      3.91280018e-002 2.79999995e+000 2.72729993e-001 8.75000000e-001 0.
      0. 0. 0. 0. 0. 0. 0. 0. 0. 0. 0. 0. 0. 0. 0. 0. 5.33600003e-002
      7.90509954e-003 0. 2.76679993e-002 0. 0. 0. 3.35969999e-002
      4.94070016e-002 9.88139957e-003 4.54550013e-002 6.12649992e-002
      3.55729982e-002 9.88139957e-003 4.34780009e-002 6.22529984e-001
      1.05260000e-001 5.26320003e-002 0. 6.31579980e-002 0.
      5.26320003e-003 5.26320003e-003 1.10529996e-001 4.21050005e-002
      1.05259996e-002 6.84209988e-002 8.94740000e-002 1.57900006e-002
      1.05259996e-002 5.26320003e-002 3.68420005e-001 5.99999987e-002
      1.57140009e-002 4.28570015e-003 1.28570003e-002 0. 0. 0.
      4.71430011e-002 1.38569996e-001 3.42859998e-002 4.14290018e-002
      4.57139984e-002 7.57139996e-002 1.28570003e-002 5.85709997e-002
      4.52859998e-001 8.83880019e-001 9.11709964e-002 1.82339996e-002
      6.71789981e-003 0. 0.</_>
    <_>
      1.43500000e-001 9.97619987e-001 9.93099988e-001 9.86350000e-001
      9.77569997e-001 9.67459977e-001 9.56200004e-001 9.44230020e-001
      9.31900024e-001 9.19499993e-001 9.07310009e-001 8.95179987e-001
      8.84209991e-001 8.74159992e-001 8.64989996e-001 8.57379973e-001
      8.50899994e-001 8.45839977e-001 8.42170000e-001 8.40240002e-001
      8.39550018e-001 4.99880016e-002 5.55239990e-002 5.27740009e-002
      6.91969991e-002 2.47830003e-001 2.55120009e-001 2.55120009e-001
      9.78230014e-002 5.89959994e-002 4.84660007e-002 4.53930013e-002
      8.56240019e-002 2.55120009e-001 2.55120009e-001 2.55120009e-001
      2.36910000e-001 1.19029999e-001 6.36460036e-002 4.71539982e-002
      4.34539989e-002 2.69789994e-002 3.38050015e-002 1.28610000e-001
      2.55120009e-001 2.55120009e-001 1.68459997e-001 1.01939999e-001
      7.00550005e-002 5.88070005e-002 7.35919997e-002 2.55120009e-001
      2.55120009e-001 2.55120009e-001 2.55120009e-001 1.55630007e-001
      9.22409967e-002 2.22219992e+000 2.93749988e-001 8.83329988e-001
      2.86989999e+000 5.07539995e-002 2.50339992e-002 2.40059989e-003
      3.29219997e-002 0. 3.42940009e-004 1.37169997e-003 4.25239988e-002
      1.01510003e-001 1.02880001e-002 2.02329997e-002 3.12070008e-002
      7.68169984e-002 1.02880001e-002 6.13849983e-002 5.32920003e-001
      5.45829982e-002 4.58330009e-003 4.16669995e-004 9.58329998e-003 0.
      4.16669995e-004 0. 3.37500013e-002 8.62499997e-002 1.83329992e-002
      1.54170003e-002 4.79170009e-002 3.50000001e-002 8.33330024e-003
      4.95829992e-002 6.35839999e-001 7.28569999e-002 1.64289996e-002
      2.14289990e-003 4.14290018e-002 0. 0. 0. 9.57140028e-002
      1.21430002e-001 2.50000004e-002 1.64289996e-002 5.42859994e-002
      2.07139999e-002 6.42859982e-003 1.64289996e-002 5.10710001e-001
      1.05619997e-001 2.44200006e-002 1.83149998e-003 2.56409999e-002 0.
      0. 0. 1.07450001e-001 1.30649999e-001 4.45670001e-002
      2.80830003e-002 4.02930006e-002 3.47989984e-002 9.76799987e-003
      2.56409999e-002 4.21240002e-001 7.22450018e-001 2.00179994e-001
      4.40849997e-002 1.48449996e-002 1.23709999e-002 6.07289979e-003</_>
    <_>
      1.53390005e-001 9.97979999e-001 9.92500007e-001 9.83569980e-001
      9.71549988e-001 9.56889987e-001 9.39859986e-001 9.21100020e-001
      9.00960028e-001 8.79939973e-001 8.58529985e-001 8.37189972e-001
      8.16609979e-001 7.97119975e-001 7.79160023e-001 7.63279974e-001
      7.49700010e-001 7.38889992e-001 7.31019974e-001 7.26149976e-001
      7.24569976e-001 5.37969992e-002 6.33059964e-002 1.18730001e-001
      1.54850006e-001 2.65240014e-001 2.65240014e-001 2.26809993e-001
      9.16950032e-002 5.98150007e-002 4.65570018e-002 1.18629999e-001
      2.65240014e-001 2.65240014e-001 2.65240014e-001 1.36350006e-001
      4.57499996e-002 4.42840010e-002 3.23139988e-002 8.23739991e-002
      1.09750003e-001 1.25060007e-001 1.02009997e-001 2.09720001e-001
      2.65240014e-001 2.52510011e-001 7.21599981e-002 6.37639984e-002
      9.22700018e-002 2.45560005e-001 2.65240014e-001 2.65240014e-001
      1.72330007e-001 1.37189999e-001 6.16279989e-002 3.11639998e-002
      4.67870012e-002 3. 1.80989996e-001 8.90690029e-001 0. 0. 0. 0. 0.
      0. 0. 0. 0. 0. 0. 0. 0. 0. 0. 0. 0. 4.30109985e-002
      8.36320035e-003 1.19470002e-003 8.76150001e-003 3.98250006e-004 0.
      3.98250006e-004 1.03540001e-002 5.17719984e-002 1.87180005e-002
      2.42929999e-002 4.54000011e-002 8.36320035e-003 6.37200009e-003
      3.66390012e-002 7.35939980e-001 1.11110002e-001 5.29409982e-002
      2.61439988e-003 3.46399993e-002 0. 0. 6.53590017e-004
      1.07189998e-001 1.20260000e-001 4.11759987e-002 2.94119995e-002
      5.09800017e-002 1.56859998e-002 8.49669985e-003 2.35290006e-002
      4.01309997e-001 8.33700001e-002 2.12859996e-002 1.77380000e-003
      3.37029994e-002 0. 0. 0. 1.02440000e-001 2.37690002e-001
      1.81820001e-002 2.43900008e-002 3.32590006e-002 3.50329988e-002
      1.15299998e-002 2.08429992e-002 3.76500010e-001 7.38820016e-001
      1.75479993e-001 5.01659997e-002 1.77630000e-002 1.24930004e-002
      5.27040008e-003</_>
    <_>
      1.29500002e-001 9.98719990e-001 9.95790005e-001 9.91010010e-001
      9.84679997e-001 9.77060020e-001 9.68400002e-001 9.58949983e-001
      9.49159980e-001 9.38979983e-001 9.28789973e-001 9.18959975e-001
      9.09539998e-001 9.00789976e-001 8.92960012e-001 8.86160016e-001
      8.80400002e-001 8.75930011e-001 8.72590005e-001 8.70700002e-001
      8.70079994e-001 8.53089988e-002 6.43569976e-002 7.05659986e-002
      7.77219981e-002 2.29670003e-001 2.62309998e-001 2.15430006e-001
      1.57150000e-001 1.00500003e-001 1.31349996e-001 1.56069994e-001
      2.62309998e-001 2.62309998e-001 2.10240006e-001 1.48920000e-001
      8.12269971e-002 9.18129981e-002 1.07670002e-001 8.79419968e-002
      9.34159979e-002 1.08659998e-001 8.35580006e-002 2.18970001e-001
      2.62309998e-001 2.62309998e-001 1.26550004e-001 7.35670030e-002
      1.27189994e-001 1.76269993e-001 2.62309998e-001 2.62309998e-001
      1.92509994e-001 1.29700005e-001 8.15619975e-002 7.08620027e-002
      8.54180008e-002 2.61109996e+000 2.54049987e-001 8.88890028e-001 0.
      0. 0. 0. 0. 0. 0. 0. 0. 0. 0. 0. 0. 0. 0. 0. 0. 3.19849998e-002
      2.94120004e-003 7.35289999e-004 1.06619997e-002 0. 0.
      3.67650006e-004 8.45589954e-003 6.98530003e-002 1.25000002e-002
      1.47059998e-002 4.70589995e-002 2.97790002e-002 7.35290023e-003
      4.85300012e-002 7.15059996e-001 1.08190000e-001 5.84799983e-002
      3.65499989e-003 7.23680034e-002 0. 0. 7.30990025e-004
      1.27920002e-001 5.55559993e-002 2.99709998e-002 2.92399991e-002
      4.97080013e-002 1.82750002e-002 1.31580001e-002 2.11989991e-002
      4.11549985e-001 1.26809999e-001 5.57060018e-002 6.79349992e-003
      5.25359996e-002 0. 9.05800029e-004 1.35869998e-003 1.03710003e-001
      1.82520002e-001 4.03079987e-002 2.30979994e-002 3.94020006e-002
      3.12500000e-002 1.31339999e-002 1.22280000e-002 3.10240000e-001
      7.10850000e-001 2.46010005e-001 2.91080009e-002 7.71520007e-003
      4.90969978e-003 1.40279997e-003</_>
    <_>
      1.57529995e-001 9.97780025e-001 9.94400024e-001 9.89799976e-001
      9.83489990e-001 9.76459980e-001 9.68630016e-001 9.59959984e-001
      9.50990021e-001 9.41070020e-001 9.30890024e-001 9.21019971e-001
      9.11580026e-001 9.03199971e-001 8.95340025e-001 8.88800025e-001
      8.83350015e-001 8.78300011e-001 8.74719977e-001 8.72560024e-001
      8.71209979e-001 1.91990003e-001 2.28680000e-001 1.94370002e-001
      1.09800003e-001 2.28680000e-001 2.28680000e-001 1.80570006e-001
      1.74199998e-001 2.28680000e-001 1.17959999e-001 1.06129996e-001
      1.13949999e-001 1.32210001e-001 2.28680000e-001 2.28680000e-001
      1.83270007e-001 1.97650000e-001 2.28680000e-001 9.26769972e-002
      1.17009997e-001 1.14990003e-001 6.85739964e-002 9.57920030e-002
      1.78939998e-001 2.28680000e-001 1.79350004e-001 1.50010005e-001
      9.97480005e-002 1.68060005e-001 1.59999996e-001 1.37329996e-001
      1.36500001e-001 1.22019999e-001 1.29830003e-001 1.13609999e-001
      1.39369994e-001 2. 2.75860012e-001 8.77550006e-001 0. 0. 0. 0. 0.
      0. 0. 0. 0. 0. 0. 0. 0. 0. 0. 0. 0. 7.85709992e-002
      2.38099997e-003 2.38099997e-003 9.52379964e-003 0. 2.38099997e-003
      2.38099997e-003 7.14290002e-003 1.59520000e-001 1.90479998e-002
      2.38099992e-002 7.61900023e-002 6.90480024e-002 7.14290002e-003
      5.23810014e-002 4.88099992e-001 1.32039994e-001 6.92640021e-002
      8.65800027e-003 7.57580027e-002 0. 0. 2.16450007e-003
      1.06059998e-001 1.23379998e-001 2.81390008e-002 4.54550013e-002
      5.62769994e-002 4.11260016e-002 6.49349997e-003 5.19479997e-002
      2.53250003e-001 1.62880003e-001 1.13639999e-002 0. 1.32579999e-002
      0. 0. 0. 1.25000000e-001 2.91669995e-001 1.89389996e-002
      4.35610004e-002 5.30299991e-002 2.84090005e-002 1.32579999e-002
      1.70460008e-002 2.21589997e-001 5.82939982e-001 2.74650007e-001
      5.86850010e-002 5.24259992e-002 2.42570005e-002 7.04219984e-003</_>
    <_>
      1.32070005e-001 9.96230006e-001 9.90019977e-001 9.81000006e-001
      9.69760001e-001 9.56229985e-001 9.41240013e-001 9.23850000e-001
      9.05250013e-001 8.85839999e-001 8.66819978e-001 8.47930014e-001
      8.29299986e-001 8.11789989e-001 7.95690000e-001 7.81409979e-001
      7.69070029e-001 7.59450018e-001 7.51640022e-001 7.47139990e-001
      7.46079981e-001 1.22089997e-001 8.42680037e-002 1.04869999e-001
      1.53850004e-001 1.92929998e-001 1.75459996e-001 1.42609999e-001
      1.30940005e-001 1.55410007e-001 1.49159998e-001 1.59909993e-001
      2.08309993e-001 2.28300005e-001 2.28300005e-001 1.35440007e-001
      8.06519985e-002 1.04539998e-001 1.31219998e-001 1.35409996e-001
      8.80630016e-002 1.02310002e-001 1.21849999e-001 1.94820002e-001
      2.28300005e-001 2.28300005e-001 1.80669993e-001 1.49460003e-001
      1.78849995e-001 2.28300005e-001 2.28300005e-001 2.28300005e-001
      2.28300005e-001 1.45449996e-001 1.12219997e-001 1.24660000e-001
      1.56900004e-001 1.84619999e+000 2.67859995e-001 8.74019980e-001 0.
      0. 0. 0. 0. 0. 0. 0. 0. 0. 0. 0. 0. 0. 0. 0. 0. 4.25239988e-002
      1.37169997e-003 2.74350005e-003 9.60220024e-003 0. 0. 0.
      2.46910006e-002 1.31689996e-001 1.23460004e-002 3.84089984e-002
      5.21260016e-002 1.59119993e-001 1.92040000e-002 8.50479975e-002
      4.21130002e-001 1.17859997e-001 2.67859995e-002 3.57139995e-003
      4.28569987e-002 0. 0. 5.35710016e-003 6.25000000e-002
      8.74999985e-002 3.21430005e-002 2.85710003e-002 7.50000030e-002
      2.50000004e-002 1.42860003e-002 1.07140001e-002 4.67860013e-001
      8.94000009e-002 4.59770001e-002 1.02169998e-002 4.85309996e-002
      1.27709995e-003 1.27709995e-003 2.55430001e-003 1.08560003e-001
      1.20049998e-001 1.14940004e-002 3.57600003e-002 4.59770001e-002
      5.23630008e-002 1.91569999e-002 6.00260012e-002 3.47380012e-001
      6.71220005e-001 1.83259994e-001 5.25159985e-002 4.15760018e-002
      3.66519988e-002 1.47700002e-002</_>
    <_>
      1.60530001e-001 9.98109996e-001 9.94069993e-001 9.87010002e-001
      9.78230000e-001 9.67249990e-001 9.55079973e-001 9.41320002e-001
      9.26810026e-001 9.11589980e-001 8.96239996e-001 8.81089985e-001
      8.66289973e-001 8.52559984e-001 8.39659989e-001 8.28440011e-001
      8.18570018e-001 8.10970008e-001 8.05019975e-001 8.01829994e-001
      8.00409973e-001 1.20909996e-001 1.45809993e-001 1.72240004e-001
      1.55340001e-001 2.24659994e-001 2.24659994e-001 1.97369993e-001
      1.74270004e-001 1.77770004e-001 1.14739999e-001 1.74429998e-001
      1.96640000e-001 2.03710005e-001 2.24659994e-001 1.13480002e-001
      7.00429976e-002 8.75039995e-002 1.10849999e-001 1.05250001e-001
      1.25440001e-001 1.10420004e-001 8.81939977e-002 1.94549993e-001
      2.24659994e-001 2.24659994e-001 1.65910006e-001 1.74429998e-001
      1.92059994e-001 2.24659994e-001 2.24659994e-001 2.24659994e-001
      1.77939996e-001 8.47150013e-002 5.97289987e-002 6.26389980e-002
      1.26790002e-001 2.09089994e+000 2.28070006e-001 8.75970006e-001 0.
      0. 0. 0. 0. 0. 0. 0. 0. 0. 0. 0. 0. 0. 0. 0. 0. 3.64000015e-002
      3.03340005e-003 0. 2.02220003e-003 0. 0. 0. 5.05559985e-003
      9.80790034e-002 1.21339997e-002 3.33670005e-002 4.95450012e-002
      2.42669992e-002 7.07790023e-003 2.83109993e-002 7.00709999e-001
      7.38919973e-002 1.64199993e-002 1.64200005e-003 3.44830006e-002 0.
      0. 0. 7.71759972e-002 9.85220000e-002 4.43350002e-002
      4.76190001e-002 8.70279968e-002 1.31360004e-002 3.28409998e-003
      2.79150009e-002 4.74550009e-001 1.20370001e-001 4.23280001e-002
      2.64550000e-003 4.10050005e-002 0. 0. 1.32269994e-003
      1.04500003e-001 1.45500004e-001 3.17460001e-002 1.98410004e-002
      7.14289993e-002 1.45500004e-002 2.64550000e-003 7.93650001e-003
      3.94180000e-001 7.37020016e-001 1.57450005e-001 5.47400005e-002
      2.76519991e-002 1.91869996e-002 3.95030016e-003</_>
    <_>
      1.89980000e-001 9.95180011e-001 9.86490011e-001 9.75510001e-001
      9.63680029e-001 9.51610029e-001 9.39819992e-001 9.28179979e-001
      9.16100025e-001 9.03620005e-001 8.90399992e-001 8.77820015e-001
      8.66159976e-001 8.54740024e-001 8.42679977e-001 8.30940008e-001
      8.21080029e-001 8.13859999e-001 8.08709979e-001 8.06039989e-001
      8.05549979e-001 2.49419995e-002 3.14619988e-002 7.10259974e-002
      3.02800000e-001 3.02800000e-001 1.61200002e-001 9.60929990e-002
      3.01309992e-002 3.46519984e-002 2.97570005e-002 6.83429986e-002
      1.53080001e-001 3.02800000e-001 3.02800000e-001 1.00539997e-001
      4.73899990e-002 2.08299998e-002 2.58970000e-002 4.60699983e-002
      4.62040007e-002 6.77369982e-002 3.02800000e-001 3.02800000e-001
      2.51839995e-001 1.93709999e-001 1.35299996e-001 7.62849972e-002
      3.85879986e-002 5.51000014e-002 1.08759999e-001 3.02800000e-001
      3.02800000e-001 1.25349998e-001 8.47920030e-002 4.91890013e-002
      3.76660004e-002 2.92309999e+000 2.21619993e-001 8.84620011e-001 0.
      0. 0. 0. 0. 0. 0. 0. 0. 0. 0. 0. 0. 0. 0. 0. 0. 3.21560018e-002
      3.17030004e-003 4.52900014e-004 1.13220001e-002 0. 0. 0.
      1.08700003e-002 6.02350011e-002 1.08700003e-002 2.58150008e-002
      3.94020006e-002 1.85690001e-002 8.60510021e-003 3.80439982e-002
      7.40480006e-001 7.78530017e-002 3.33659984e-002 1.93419994e-003
      6.43130019e-002 4.83559998e-004 0. 4.83559998e-004 8.41389969e-002
      8.22049975e-002 3.19150016e-002 2.32110005e-002 5.27079999e-002
      1.25730000e-002 8.22050031e-003 1.59569997e-002 5.10649979e-001
      1.21260002e-001 3.71979997e-002 9.66180000e-004 4.97579984e-002
      4.83090000e-004 0. 1.44929998e-003 1.41550004e-001 1.44439995e-001
      4.00969982e-002 2.41550002e-002 3.86469997e-002 2.75359992e-002
      1.54590001e-002 1.88410003e-002 3.38160008e-001 7.02780008e-001
      2.57169992e-001 2.06899997e-002 7.56399985e-003 9.12120007e-003
      2.66960007e-003</_>
    <_>
      2.01260000e-001 9.98139977e-001 9.93319988e-001 9.85899985e-001
      9.76379991e-001 9.65170026e-001 9.52340007e-001 9.38470006e-001
      9.23910022e-001 9.09210026e-001 8.95009995e-001 8.81489992e-001
      8.69019985e-001 8.57519984e-001 8.47019970e-001 8.37790012e-001
      8.29919994e-001 8.23849976e-001 8.19580019e-001 8.17099988e-001
      8.16389978e-001 9.92989987e-002 1.09159999e-001 1.65189996e-001
      2.57629991e-001 2.59000003e-001 1.61420003e-001 6.89229965e-002
      6.15309998e-002 8.92150030e-002 8.66819993e-002 1.26929998e-001
      2.59000003e-001 2.59000003e-001 2.57910013e-001 1.04130000e-001
      5.80409989e-002 2.47479994e-002 5.47670014e-002 1.17109999e-001
      2.59000003e-001 2.59000003e-001 2.59000003e-001 2.59000003e-001
      8.19989964e-002 5.06599993e-002 5.50480001e-002 7.75500014e-002
      1.02720000e-001 2.59000003e-001 2.59000003e-001 2.59000003e-001
      1.16789997e-001 3.90859991e-002 2.47150008e-002 2.20650006e-002
      4.23870012e-002 3.66669989e+000 2.11449996e-001 8.86280000e-001 0.
      0. 0. 0. 0. 0. 0. 0. 0. 0. 0. 0. 0. 0. 0. 0. 0. 2.99319997e-002
      3.06120003e-003 0. 8.84350017e-003 3.40139988e-004 0.
      6.80270023e-004 2.04080008e-002 8.57139975e-002 9.18370020e-003
      1.63269993e-002 3.84350009e-002 2.34689992e-002 8.16330034e-003
      3.94559987e-002 7.16000021e-001 7.73530006e-002 7.69539997e-002
      6.37960015e-003 6.89790025e-002 3.98720003e-004 0. 2.39229994e-003
      5.22329994e-002 9.96809974e-002 4.10690010e-002 2.27269996e-002
      4.90429997e-002 2.59169992e-002 1.87400002e-002 2.59169992e-002
      4.32220012e-001 1.32119998e-001 5.04829995e-002 6.44470006e-003
      5.11990003e-002 3.58040008e-004 0. 7.16080016e-004 9.91759971e-002
      1.26029998e-001 3.54459994e-002 2.00500004e-002 3.93840000e-002
      2.61369999e-002 1.75439995e-002 2.11239997e-002 3.73800009e-001
      6.68299973e-001 2.74560004e-001 3.17840017e-002 1.01439999e-002
      1.06509998e-002 4.56470018e-003</_>
    <_>
      1.60270005e-001 9.98090029e-001 9.92839992e-001 9.84319985e-001
      9.72859979e-001 9.58859980e-001 9.42789972e-001 9.25040007e-001
      9.06040013e-001 8.86269987e-001 8.66199970e-001 8.46149981e-001
      8.26730013e-001 8.08309972e-001 7.91350007e-001 7.76160002e-001
      7.63239980e-001 7.52730012e-001 7.45079994e-001 7.40379989e-001
      7.38810003e-001 9.65050012e-002 1.13310002e-001 1.13329999e-001
      2.41919994e-001 2.49599993e-001 2.49599993e-001 2.43719995e-001
      1.32949993e-001 7.85629973e-002 1.22400001e-001 1.20310001e-001
      1.56269997e-001 2.49599993e-001 2.49599993e-001 1.96750000e-001
      1.22529998e-001 1.01910003e-001 9.49309990e-002 4.23119999e-002
      7.51489997e-002 9.31259990e-002 1.26039997e-001 1.67610005e-001
      2.49599993e-001 2.49599993e-001 1.64470002e-001 5.88270016e-002
      6.35150000e-002 1.10679999e-001 2.49599993e-001 2.49599993e-001
      2.22409993e-001 1.47249997e-001 1.04160003e-001 6.61400035e-002
      4.56149988e-002 1.78950000e+000 2.06190005e-001 8.89400005e-001 0.
      0. 0. 0. 0. 0. 0. 0. 0. 0. 0. 0. 0. 0. 0. 0. 0. 2.66859997e-002
      8.15420039e-003 0. 5.55970008e-003 0. 0. 0. 1.40850004e-002
      5.15200011e-002 1.48259997e-002 2.33510006e-002 4.26240005e-002
      3.78060006e-002 7.78350001e-003 3.40990014e-002 7.33500004e-001
      1.56460002e-001 4.82989997e-002 3.40140006e-003 5.85029982e-002 0.
      2.72110011e-003 6.80270023e-004 1.53060004e-001 9.59189981e-002
      2.44900007e-002 2.92520002e-002 3.46940011e-002 7.48299994e-003
      6.80269999e-003 1.36050005e-002 3.64620000e-001 1.73250005e-001
      2.68639997e-002 4.38599987e-003 3.45400013e-002 5.48249984e-004
      5.48249984e-004 2.19299993e-003 1.18419997e-001 1.44189999e-001
      1.80920009e-002 1.91890001e-002 5.04390001e-002 2.52190009e-002
      9.32020042e-003 4.87940013e-002 3.24010015e-001 5.86170018e-001
      3.33209991e-001 4.99150008e-002 1.43149998e-002 1.16780000e-002
      4.70899977e-003</_>
    <_>
      1.79020002e-001 9.97309983e-001 9.92540002e-001 9.85069990e-001
      9.75589991e-001 9.65290010e-001 9.53490019e-001 9.40599978e-001
      9.26800013e-001 9.12090003e-001 8.97400022e-001 8.82730007e-001
      8.68650019e-001 8.55459988e-001 8.43039989e-001 8.31879973e-001
      8.21929991e-001 8.13549995e-001 8.07389975e-001 8.03520024e-001
      8.02190006e-001 6.25189990e-002 5.00090010e-002 7.43080005e-002
      1.27739996e-001 2.38499999e-001 2.67800003e-001 2.49219999e-001
      1.39819995e-001 6.95919991e-002 7.31529966e-002 7.90920034e-002
      2.44920000e-001 2.67800003e-001 2.67800003e-001 2.23419994e-001
      1.63729995e-001 8.73529986e-002 5.56139983e-002 7.71970004e-002
      6.16800003e-002 7.35699981e-002 1.09070003e-001 1.80710003e-001
      2.18920007e-001 2.56110013e-001 1.49660006e-001 7.65969977e-002
      4.55470011e-002 4.12140004e-002 1.09449998e-001 2.67800003e-001
      2.67800003e-001 2.23509997e-001 1.72690004e-001 8.79789963e-002
      5.72090000e-002 2.25000000e+000 2.39999995e-001 8.85710001e-001 0.
      0. 0. 0. 0. 0. 0. 0. 0. 0. 0. 0. 0. 0. 0. 0. 0. 3.92980017e-002
      8.36119987e-004 1.67220004e-003 8.36119987e-004 0. 0. 0.
      5.01669990e-003 8.36120024e-002 1.50499996e-002 3.17730010e-002
      4.26420011e-002 3.59530002e-002 2.50840001e-003 3.26090008e-002
      7.08199978e-001 1.06030002e-001 1.45089999e-002 4.46429988e-003
      5.58039993e-002 0. 0. 0. 9.82140005e-002 1.16070002e-001
      3.01339999e-002 2.00890005e-002 8.03570002e-002 1.45089999e-002
      1.00450004e-002 1.67410001e-002 4.33039993e-001 1.14459999e-001
      4.89070006e-002 1.04060001e-003 4.26639989e-002 0. 0.
      1.04060001e-003 1.10299997e-001 1.33200005e-001 4.57860008e-002
      3.32989991e-002 5.93129992e-002 1.87309999e-002 9.36520007e-003
      1.24869999e-002 3.69410008e-001 7.06189990e-001 2.17350006e-001
      2.44839992e-002 1.88999996e-002 2.53439993e-002 7.73200020e-003</_>
    <_>
      1.27990007e-001 9.98220026e-001 9.93789971e-001 9.87299979e-001
      9.78929996e-001 9.68699992e-001 9.57019985e-001 9.44299996e-001
      9.30909991e-001 9.17289972e-001 9.03729975e-001 8.90609980e-001
      8.78329992e-001 8.67060006e-001 8.57020020e-001 8.48389983e-001
      8.41170013e-001 8.35560024e-001 8.31740022e-001 8.29760015e-001
      8.29159975e-001 2.11670008e-002 3.10609993e-002 5.51309995e-002
      1.61510006e-001 2.76749998e-001 2.76749998e-001 1.08400002e-001
      1.21780001e-002 6.72970014e-003 3.67729999e-002 5.73639981e-002
      8.35940018e-002 2.76749998e-001 2.76749998e-001 1.61620006e-001
      2.72330008e-002 8.50369968e-003 7.24430010e-003 9.62240025e-002
      1.06650002e-001 1.55689999e-001 2.63579994e-001 2.76749998e-001
      2.76749998e-001 1.82530001e-001 1.05850004e-001 8.35879967e-002
      1.16329998e-001 1.56719998e-001 2.26170003e-001 2.76749998e-001
      2.76749998e-001 1.80629998e-001 8.44670013e-002 6.54319972e-002
      6.53830022e-002 2.85710001e+000 3.33330005e-001 8.95430028e-001 0.
      0. 0. 0. 0. 0. 0. 0. 0. 0. 0. 0. 0. 0. 0. 0. 0. 3.57140005e-002
      1.13380002e-003 1.70070003e-003 5.66889998e-003 5.66889998e-004 0.
      1.13380002e-003 1.41719999e-002 5.04529998e-002 9.63720027e-003
      2.66440008e-002 3.57140005e-002 4.30839993e-002 5.10200020e-003
      9.46710035e-002 6.74610019e-001 1.51150003e-001 4.33179997e-002
      5.52990008e-003 5.43779992e-002 1.84329995e-003 0. 9.21659986e-004
      1.40090004e-001 8.11059996e-002 2.48850007e-002 3.50230001e-002
      5.43779992e-002 1.29030002e-002 1.19820004e-002 6.45160023e-003
      3.76040012e-001 8.42249990e-002 5.34760021e-003 0. 8.68980028e-003
      6.68450026e-004 6.68450026e-004 6.68450026e-004 9.82619971e-002
      1.47729993e-001 2.00529993e-002 2.54009999e-002 3.54279988e-002
      1.20320003e-002 1.13639999e-002 1.67110004e-002 5.32750010e-001
      5.52160025e-001 2.15880007e-001 1.49069995e-001 5.98799996e-002
      2.08010003e-002 2.20609992e-003</_>
    <_>
      1.65000007e-001 9.98560011e-001 9.95019972e-001 9.89480019e-001
      9.82089996e-001 9.73129988e-001 9.62960005e-001 9.52030003e-001
      9.40289974e-001 9.28179979e-001 9.16050017e-001 9.04200017e-001
      8.92870009e-001 8.82449985e-001 8.73099983e-001 8.65029991e-001
      8.58319998e-001 8.53079975e-001 8.49309981e-001 8.46970022e-001
      8.46279979e-001 2.33419999e-001 1.78360000e-001 9.19319987e-002
      1.10179998e-001 1.55200005e-001 1.20920002e-001 5.94139993e-002
      7.28269964e-002 1.97819993e-001 2.33419999e-001 2.33419999e-001
      2.27599993e-001 2.19840005e-001 1.29629999e-001 6.69739991e-002
      4.56960015e-002 6.13440014e-002 2.32380003e-001 2.33419999e-001
      2.33419999e-001 2.33419999e-001 1.70780003e-001 1.11879997e-001
      9.48150009e-002 8.52549970e-002 1.11759998e-001 1.59170002e-001
      2.33419999e-001 2.26129994e-001 2.33419999e-001 2.33419999e-001
      1.10090002e-001 4.06449996e-002 4.19740006e-002 6.57079965e-002
      1.42179996e-001 2.28570008e+000 2.93229997e-001 8.85909975e-001
      2.15630007e+000 9.12699997e-002 4.42180000e-002 7.36959977e-003
      4.93200012e-002 0. 1.13380002e-003 1.13380002e-003 7.36960024e-002
      7.99319968e-002 1.75739992e-002 2.66440008e-002 3.79819982e-002
      2.49429997e-002 1.07709998e-002 5.27210012e-002 4.81299996e-001
      4.84689996e-002 1.27550000e-002 3.82649992e-003 1.40310004e-002 0.
      0. 0. 3.38010006e-002 6.50509968e-002 1.27550000e-002
      2.67859995e-002 4.33669984e-002 4.46429998e-002 8.29080027e-003
      7.84439966e-002 6.07789993e-001 1.10780001e-001 6.86269999e-002
      1.07840002e-002 6.76470026e-002 0. 1.96080003e-003 1.96080003e-003
      7.84310028e-002 6.76470026e-002 1.56859998e-002 3.62749994e-002
      4.21570018e-002 2.94119995e-002 1.17650004e-002 6.86269999e-002
      3.88240010e-001 1.26790002e-001 1.99360009e-002 4.78470000e-003
      2.47210003e-002 0. 0. 2.39229994e-003 8.93139988e-002
      1.77029997e-001 2.55180001e-002 2.79110000e-002 3.90749983e-002
      5.66189997e-002 9.56939999e-003 3.58849987e-002 3.60450000e-001
      7.37600029e-001 2.17160001e-001 2.80809999e-002 1.15440004e-002
      4.99220006e-003 6.24020002e-004</_>
    <_>
      1.55520007e-001 9.98080015e-001 9.93749976e-001 9.87010002e-001
      9.77890015e-001 9.66759980e-001 9.54339981e-001 9.40769970e-001
      9.26500022e-001 9.11889970e-001 8.97400022e-001 8.83369982e-001
      8.70039999e-001 8.57739985e-001 8.46809983e-001 8.37080002e-001
      8.29060018e-001 8.22719991e-001 8.18130016e-001 8.15199971e-001
      8.14369977e-001 2.24659994e-001 1.58240005e-001 9.47529972e-002
      8.84020030e-002 1.57930002e-001 1.18979998e-001 1.25070006e-001
      1.01070002e-001 1.85800001e-001 2.33439997e-001 2.33439997e-001
      2.16330007e-001 1.69320002e-001 1.14929996e-001 7.35889971e-002
      7.41270036e-002 7.50960037e-002 2.25700006e-001 2.33439997e-001
      2.33439997e-001 2.06719995e-001 1.29170001e-001 1.30989999e-001
      9.14539993e-002 1.31730005e-001 8.95209983e-002 1.96020007e-001
      2.33439997e-001 2.33439997e-001 2.33439997e-001 2.03769997e-001
      1.15079999e-001 6.05400018e-002 7.36460015e-002 7.71259964e-002
      2.22990006e-001 1.92309999e+000 2.54099995e-001 8.76810014e-001 0.
      0. 0. 0. 0. 0. 0. 0. 0. 0. 0. 0. 0. 0. 0. 0. 0. 5.87759987e-002
      7.24640023e-003 8.05150019e-004 1.12720001e-002 0. 0.
      1.61030004e-003 3.62319984e-002 5.95810004e-002 2.09340006e-002
      3.05959992e-002 4.50889990e-002 4.26729992e-002 1.04670003e-002
      5.55559993e-002 6.19159997e-001 1.09679997e-001 7.22580031e-002
      3.87099991e-003 6.70970008e-002 2.58060009e-003 0. 2.58060009e-003
      7.99999982e-002 7.22580031e-002 2.06450000e-002 3.87100019e-002
      4.90319990e-002 2.32260004e-002 1.54839996e-002 7.48390034e-002
      3.67740005e-001 1.07529998e-001 3.44090015e-002 3.22580012e-003
      2.47310009e-002 0. 0. 3.22580012e-003 6.55910000e-002
      1.83870003e-001 3.01070008e-002 3.33329998e-002 4.73119989e-002
      4.40860018e-002 1.82799995e-002 3.97850014e-002 3.64520013e-001
      6.81039989e-001 2.48569995e-001 4.31150012e-002 1.67180002e-002
      6.15929998e-003 4.39949986e-003</_>
    <_>
      7.52260014e-002 9.97489989e-001 9.94140029e-001 9.89780009e-001
      9.83770013e-001 9.77020025e-001 9.68980014e-001 9.59379971e-001
      9.49240029e-001 9.39740002e-001 9.29830015e-001 9.20340002e-001
      9.12029982e-001 9.03599977e-001 8.95950019e-001 8.89900029e-001
      8.84790003e-001 8.80270004e-001 8.77610028e-001 8.75999987e-001
      8.74589980e-001 6.16240017e-002 8.61599967e-002 1.12570003e-001
      1.77169994e-001 2.75680006e-001 2.75680006e-001 2.75680006e-001
      9.24339965e-002 4.30970006e-002 7.25120008e-002 1.67970002e-001
      2.75680006e-001 2.75680006e-001 2.75680006e-001 1.65800005e-001
      1.34639993e-001 3.72200012e-002 2.71150004e-002 3.96189988e-002
      3.79819982e-002 6.20150007e-002 8.91780034e-002 2.04150006e-001
      2.75680006e-001 2.33600006e-001 6.44130036e-002 2.54590008e-002
      5.73260002e-002 7.60539994e-002 2.24680007e-001 2.75680006e-001
      1.81150004e-001 1.45730004e-001 1.01829998e-001 4.37549986e-002
      2.45229993e-002 2.55559993e+000 1.77420005e-001 8.42469990e-001 0.
      0. 0. 0. 0. 0. 0. 0. 0. 0. 0. 0. 0. 0. 0. 0. 0. 8.77190009e-002
      7.01749977e-003 1.75439997e-003 3.50879994e-003 0. 0.
      3.50879994e-003 4.38599996e-002 2.31580004e-001 3.50879994e-003
      4.03509997e-002 4.38599996e-002 2.80699991e-002 5.26320003e-003
      1.75439995e-002 4.82459992e-001 2.90439993e-001 8.08819979e-002 0.
      4.41179983e-002 3.67649994e-003 0. 0. 1.80150002e-001
      3.30879986e-002 1.47059998e-002 2.94119995e-002 9.19120014e-002
      3.67649994e-003 3.67649994e-003 3.67649994e-003 2.20589995e-001
      1.08700000e-001 8.69559962e-003 0. 1.44929998e-002 2.89859995e-003
      0. 1.44929998e-003 6.95649981e-002 1.59419999e-001 2.89859995e-003
      3.76809984e-002 3.91299985e-002 2.02900004e-002 5.79709979e-003
      1.88410003e-002 5.10150015e-001 3.46280009e-001 4.11540002e-001
      1.46709993e-001 6.04100004e-002 2.80479994e-002 7.01190019e-003</_>
    <_>
      1.83369994e-001 9.98290002e-001 9.94040012e-001 9.87550020e-001
      9.79160011e-001 9.68810022e-001 9.56770003e-001 9.43499982e-001
      9.29329991e-001 9.14659977e-001 8.99730027e-001 8.84930015e-001
      8.70480001e-001 8.56959999e-001 8.44479978e-001 8.33310008e-001
      8.23520005e-001 8.15620005e-001 8.09970021e-001 8.06670010e-001
      8.05620015e-001 1.30700007e-001 1.11769997e-001 2.27259994e-001
      2.27259994e-001 2.27259994e-001 2.27259994e-001 1.93480000e-001
      1.85990006e-001 2.01350003e-001 9.69809964e-002 1.06590003e-001
      2.25319996e-001 2.08880007e-001 1.58429995e-001 1.28199995e-001
      1.04000002e-001 7.48459995e-002 8.12759995e-002 1.28900006e-001
      1.37689993e-001 2.27259994e-001 2.26689994e-001 2.27259994e-001
      1.81160003e-001 1.46310002e-001 1.74500003e-001 2.27259994e-001
      9.88319963e-002 1.17519997e-001 2.27259994e-001 1.64189994e-001
      1.25510007e-001 6.93430007e-002 5.64609990e-002 7.24629983e-002
      1.07380003e-001 2.70000005e+000 2.31879994e-001 8.83870006e-001 0.
      0. 0. 0. 0. 0. 0. 0. 0. 0. 0. 0. 0. 0. 0. 0. 0. 5.49019985e-002
      1.96080003e-002 4.70589986e-003 2.74509992e-002 0. 0.
      7.84309988e-004 2.74509992e-002 7.92160034e-002 2.98040006e-002
      3.29409987e-002 5.09800017e-002 3.92160006e-002 1.09799998e-002
      5.96080013e-002 5.62349975e-001 1.72529995e-001 6.48349971e-002
      3.29670007e-003 5.71429990e-002 0. 3.29670007e-003 3.29670007e-003
      1.02200001e-001 9.23079997e-002 2.19780002e-002 3.51650007e-002
      4.50549982e-002 2.85710003e-002 1.53850000e-002 4.06589992e-002
      3.14289987e-001 1.26190007e-001 8.53889994e-003 9.48769972e-004
      4.74380003e-003 0. 0. 9.48769972e-004 6.26190007e-002
      2.57120013e-001 3.03600002e-002 3.32069993e-002 4.17460017e-002
      4.26950008e-002 6.64140005e-003 2.08730008e-002 3.63380015e-001
      4.33899999e-001 2.71189988e-001 2.15820000e-001 4.97170016e-002
      2.29749996e-002 6.40300009e-003</_>
    <_>
      8.57269987e-002 9.97259974e-001 9.92749989e-001 9.87150013e-001
      9.81589973e-001 9.76230025e-001 9.71570015e-001 9.67130005e-001
      9.63339984e-001 9.60359991e-001 9.58899975e-001 9.58559990e-001
      9.58829999e-001 9.58750010e-001 9.58580017e-001 9.58350003e-001
      9.58649993e-001 9.58000004e-001 9.57780004e-001 9.57140028e-001
      9.56879973e-001 5.52590005e-002 1.35839999e-001 1.41719997e-001
      2.56449997e-001 2.56449997e-001 2.10840002e-001 7.54679963e-002
      3.82659994e-002 7.09690005e-002 8.33759978e-002 1.35260001e-001
      1.18249997e-001 1.20789997e-001 2.56449997e-001 2.22110003e-001
      1.21660000e-002 6.41290024e-002 1.20420001e-001 1.32369995e-001
      2.56449997e-001 2.56449997e-001 6.34350032e-002 1.60999998e-001
      2.36129999e-001 1.92149997e-001 1.05400003e-001 1.74879998e-001
      1.46039993e-001 2.51300007e-001 2.19620004e-001 1.01910003e-001
      1.94419995e-001 7.61699975e-002 1.89500004e-002 1.26169994e-001
      2.52260000e-001 1.94739997e+000 2.53520012e-001 8.86789978e-001 0.
      0. 0. 0. 0. 0. 0. 0. 0. 0. 0. 0. 0. 0. 0. 0. 0. 4.38029990e-002
      6.94439979e-003 2.67089996e-003 1.38889998e-002 0. 0.
      5.87610016e-003 4.70089987e-002 3.73930000e-002 1.01500005e-002
      1.81620009e-002 4.54059988e-002 6.35680035e-002 9.08119977e-003
      1.06299996e-001 5.89739978e-001 8.31919983e-002 9.16810036e-002
      3.39560001e-003 1.78269997e-001 1.69780001e-003 1.69780001e-003
      3.39560001e-003 7.13070035e-002 1.22239999e-001 1.86759997e-002
      4.07470018e-002 5.77250011e-002 1.86759997e-002 1.01870000e-002
      6.79120002e-003 2.90320009e-001 1.11970000e-001 1.08110001e-002
      1.54440000e-003 1.00389998e-002 0. 0. 1.54440000e-003
      7.95369968e-002 1.59070000e-001 1.38999997e-002 3.08880005e-002
      4.09270003e-002 2.62550004e-002 1.00389998e-002 2.54829992e-002
      4.77999985e-001 5.97410023e-001 2.39639997e-001 1.02059998e-001
      4.62360010e-002 1.26870004e-002 1.97350001e-003</_>
    <_>
      1.19790003e-001 9.97940004e-001 9.93290007e-001 9.86590028e-001
      9.78259981e-001 9.69089985e-001 9.59039986e-001 9.48119998e-001
      9.37560022e-001 9.27460015e-001 9.18250024e-001 9.10179973e-001
      9.03169990e-001 8.97230029e-001 8.92620027e-001 8.89159977e-001
      8.86919975e-001 8.85479987e-001 8.84840012e-001 8.84599984e-001
      8.84490013e-001 3.45049985e-002 1.58929992e-002 2.19390001e-002
      1.88020006e-001 2.86749989e-001 2.86749989e-001 1.24240004e-001
      2.59719994e-002 4.00310010e-002 5.03179990e-002 3.24040018e-002
      4.81939986e-002 2.86749989e-001 2.86749989e-001 1.41399994e-001
      5.95480017e-002 2.79370006e-002 3.53720002e-002 9.26479995e-002
      9.63649973e-002 1.21440001e-001 2.86749989e-001 2.86749989e-001
      2.86749989e-001 2.26420000e-001 9.45649967e-002 9.92550030e-002
      9.03979987e-002 9.11390036e-002 1.69450000e-001 2.86749989e-001
      2.75050014e-001 1.06389999e-001 1.05030000e-001 5.70239983e-002
      6.11060001e-002 2.88240004e+000 3.18749994e-001 8.78449976e-001
      2.89930010e+000 8.76479968e-002 4.06809989e-003 6.65679993e-003
      1.40530001e-002 1.84909999e-003 1.10949995e-003 4.43790015e-003
      6.87870011e-002 6.43490031e-002 1.59019995e-002 1.44229997e-002
      4.21600007e-002 4.43789996e-002 1.51629997e-002 7.65530020e-002
      5.38460016e-001 4.50280011e-002 3.12689994e-003 1.25079998e-003
      5.62850013e-003 6.25389977e-004 0. 1.87619997e-003 3.50220017e-002
      1.80109993e-001 7.50470022e-003 2.87679993e-002 3.37710008e-002
      4.56539989e-002 1.62599999e-002 4.50280011e-002 5.50350010e-001
      1.17729999e-001 3.17460001e-002 5.29100001e-003 8.59789997e-002
      1.32269994e-003 6.61380007e-004 2.64550000e-003 1.58730000e-001
      6.54760003e-002 1.91799998e-002 1.65340006e-002 5.42329997e-002
      2.77779996e-002 1.32280001e-002 3.50529999e-002 3.64419997e-001
      8.85339975e-002 1.49980001e-002 3.38650006e-003 2.37060003e-002
      4.83790005e-004 4.83790005e-004 0. 8.95019993e-002 1.09339997e-001
      1.78999994e-002 2.27380004e-002 3.28980014e-002 2.80600004e-002
      8.70830007e-003 1.88679993e-002 5.40390015e-001 4.96100008e-001
      2.17069998e-001 1.64020002e-001 8.45680013e-002 3.47429998e-002
      3.50119988e-003</_>
    <_>
      1.98980004e-001 9.96949971e-001 9.90530014e-001 9.81060028e-001
      9.68680024e-001 9.53719974e-001 9.36810017e-001 9.18110013e-001
      8.97970021e-001 8.77179980e-001 8.56019974e-001 8.34469974e-001
      8.13870013e-001 7.94499993e-001 7.76560009e-001 7.60550022e-001
      7.47290015e-001 7.36570001e-001 7.28820026e-001 7.24129975e-001
      7.22840011e-001 1.36470005e-001 2.12559998e-001 1.83469996e-001
      1.61669999e-001 1.87099993e-001 1.20240003e-001 8.38709995e-002
      9.45120007e-002 9.96560007e-002 1.59219995e-001 1.62770003e-001
      2.31419995e-001 2.31419995e-001 2.31419995e-001 1.21359996e-001
      1.00110002e-001 1.05549999e-001 1.24789998e-001 2.31419995e-001
      2.31419995e-001 2.31419995e-001 1.93299994e-001 1.52590007e-001
      9.56270024e-002 1.26279995e-001 1.71220005e-001 1.73179999e-001
      1.36759996e-001 2.31419995e-001 2.31419995e-001 2.31419995e-001
      1.52940005e-001 7.39599988e-002 7.04379976e-002 8.13369974e-002
      9.61190015e-002 2.37500000e+000 1.73230007e-001 8.87319982e-001 0.
      0. 0. 0. 0. 0. 0. 0. 0. 0. 0. 0. 0. 0. 0. 0. 0. 4.95169982e-002
      4.83090011e-003 2.41550012e-003 1.32849999e-002 0. 0. 0.
      3.14010009e-002 5.55559993e-002 1.32849999e-002 3.86469997e-002
      5.43479994e-002 4.22709994e-002 1.08700003e-002 8.45410004e-002
      5.99030018e-001 1.73299998e-001 6.81819990e-002 2.84090010e-003
      7.10230023e-002 2.84090010e-003 1.42049999e-003 5.68180019e-003
      7.10230023e-002 5.82390018e-002 1.70460008e-002 2.41480004e-002
      5.68180010e-002 2.69889999e-002 7.10229995e-003 3.83520015e-002
      3.75000000e-001 1.33750007e-001 2.62499992e-002 3.74999992e-003
      2.37499997e-002 1.24999997e-003 1.24999997e-003 1.24999997e-003
      5.49999997e-002 1.09999999e-001 9.99999978e-003 2.12500002e-002
      5.75000010e-002 1.99999996e-002 8.75000004e-003 3.12500000e-002
      4.95000005e-001 6.27189994e-001 3.16610008e-001 4.36530001e-002
      1.05370004e-002 2.00699992e-003 0.</_>
    <_>
      1.57089993e-001 9.97280002e-001 9.92229998e-001 9.84200001e-001
      9.73720014e-001 9.61290002e-001 9.47250009e-001 9.31640029e-001
      9.15539980e-001 8.99020016e-001 8.82250011e-001 8.65679979e-001
      8.49730015e-001 8.35020006e-001 8.21699977e-001 8.10220003e-001
      8.00539970e-001 7.93099999e-001 7.87630022e-001 7.84940004e-001
      7.83860028e-001 2.36070007e-001 2.38159999e-001 2.38159999e-001
      1.29040003e-001 7.46999979e-002 4.99190018e-002 6.41549975e-002
      7.49149993e-002 1.83090001e-001 2.05259994e-001 2.38159999e-001
      2.38159999e-001 2.16370001e-001 1.49130002e-001 6.31090030e-002
      7.86610022e-002 9.95569974e-002 1.69870004e-001 2.38159999e-001
      2.38159999e-001 2.38159999e-001 1.84440002e-001 1.10639997e-001
      7.95689970e-002 1.14589997e-001 1.81840003e-001 2.19349995e-001
      1.56179994e-001 2.38159999e-001 1.66150004e-001 1.40310004e-001
      1.00610003e-001 5.47569990e-002 8.53400007e-002 1.09909996e-001
      9.45530012e-002 1.53849995e+000 2.36359999e-001 8.65079999e-001 0.
      0. 0. 0. 0. 0. 0. 0. 0. 0. 0. 0. 0. 0. 0. 0. 0. 6.88370019e-002
      6.51160022e-003 3.72090004e-003 1.30230002e-002 0. 9.30230017e-004
      4.65120003e-003 4.18610014e-002 7.44189993e-002 4.65120003e-003
      3.25580016e-002 3.72090004e-002 4.93020006e-002 1.11630000e-002
      9.58139971e-002 5.55350006e-001 1.64289996e-001 8.74999985e-002
      1.07140001e-002 6.07139990e-002 0. 5.35710016e-003 0.
      7.14289993e-002 4.64290008e-002 2.14290004e-002 3.03569995e-002
      7.14289993e-002 5.00000007e-002 1.60709992e-002 5.35710007e-002
      3.10719997e-001 1.42450005e-001 4.13109995e-002 2.84900004e-003
      4.55840006e-002 0. 0. 1.42450002e-003 8.26210007e-002
      1.85179994e-001 2.27920003e-002 4.13109995e-002 5.41310012e-002
      2.42160000e-002 1.13960002e-002 4.27349992e-002 3.01990002e-001
      5.87599993e-001 2.00519994e-001 1.46249995e-001 5.16799986e-002
      1.24030001e-002 1.55040005e-003</_>
    <_>
      1.90410003e-001 9.98179972e-001 9.93789971e-001 9.86999989e-001
      9.78060007e-001 9.67190027e-001 9.54460025e-001 9.40249979e-001
      9.25059974e-001 9.09150004e-001 8.92799973e-001 8.76349986e-001
      8.60549986e-001 8.45780015e-001 8.32310021e-001 8.20370018e-001
      8.10079992e-001 8.01720023e-001 7.95580029e-001 7.91840017e-001
      7.90570021e-001 5.22040017e-002 1.59380004e-001 2.23309994e-001
      2.23309994e-001 2.23309994e-001 2.23309994e-001 1.36769995e-001
      1.49880007e-001 1.00620002e-001 8.11119974e-002 1.55630007e-001
      2.23309994e-001 2.13660002e-001 2.16289997e-001 9.90929976e-002
      9.36880037e-002 7.18870014e-002 6.10820018e-002 1.31650001e-001
      1.38449997e-001 2.23309994e-001 2.17529997e-001 2.23309994e-001
      2.23309994e-001 2.16600001e-001 2.23309994e-001 1.60600007e-001
      1.06349997e-001 1.10809997e-001 1.91520005e-001 1.60970002e-001
      1.89860001e-001 1.15139998e-001 1.01620004e-001 9.07789990e-002
      9.07289982e-002 2.77780008e+000 2.13740006e-001 8.84350002e-001 0.
      0. 0. 0. 0. 0. 0. 0. 0. 0. 0. 0. 0. 0. 0. 0. 0. 7.95449987e-002
      1.60990003e-002 1.89389999e-003 1.98860001e-002 9.46970016e-004 0.
      5.68180019e-003 2.74620000e-002 7.48109967e-002 1.42050004e-002
      2.55679991e-002 6.15530014e-002 3.78790013e-002 9.46970005e-003
      6.06059991e-002 5.64390004e-001 1.88130006e-001 3.91409993e-002
      7.57580018e-003 5.30299991e-002 3.78790009e-003 3.78790009e-003
      6.31309999e-003 9.97480005e-002 1.14900000e-001 1.51519999e-002
      3.53539996e-002 4.54550013e-002 1.89389996e-002 1.38889998e-002
      2.65149996e-002 3.28280002e-001 1.27480000e-001 1.88090000e-002
      3.13479989e-003 1.25390003e-002 0. 0. 5.22470009e-003
      8.77740011e-002 2.73770005e-001 2.82129999e-002 3.44830006e-002
      4.07520011e-002 3.65730003e-002 1.14940004e-002 3.97070013e-002
      2.80039996e-001 4.01320010e-001 2.41540000e-001 2.45660007e-001
      7.22540021e-002 3.30310017e-002 6.19320013e-003</_>
    <_>
      1.62619993e-001 9.97539997e-001 9.92160022e-001 9.83099997e-001
      9.71329987e-001 9.57159996e-001 9.41139996e-001 9.23879981e-001
      9.05049980e-001 8.85670006e-001 8.65639985e-001 8.45539987e-001
      8.25540006e-001 8.06699991e-001 7.89030015e-001 7.73500025e-001
      7.60209978e-001 7.49670029e-001 7.41980016e-001 7.37160027e-001
      7.35769987e-001 4.35400009e-002 8.41870010e-002 8.95349979e-002
      2.64499992e-001 2.98880011e-001 2.98880011e-001 1.86770007e-001
      1.26029998e-001 3.43700014e-002 3.90099995e-002 8.71760026e-002
      1.30050004e-001 2.98880011e-001 2.98880011e-001 1.85749993e-001
      3.88789997e-002 3.86289991e-002 2.32759994e-002 7.98780024e-002
      1.32019997e-001 1.20880000e-001 1.43930003e-001 2.34660000e-001
      1.96439996e-001 2.81049997e-001 2.05300003e-001 7.96009973e-002
      8.89860019e-002 1.51620001e-001 1.85959995e-001 1.87360004e-001
      1.60459995e-001 9.43740010e-002 8.34930018e-002 9.77070034e-002
      6.83450028e-002 1.30770004e+000 1.48149997e-001 8.84299994e-001 0.
      0. 0. 0. 0. 0. 0. 0. 0. 0. 0. 0. 0. 0. 0. 0. 0. 6.87500015e-002
      6.25000009e-003 2.49999994e-003 2.49999994e-003 0. 0.
      1.24999997e-003 2.99999993e-002 7.87499994e-002 1.37499999e-002
      2.62499992e-002 5.49999997e-002 2.99999993e-002 6.25000009e-003
      5.37500009e-002 6.25000000e-001 1.24179997e-001 1.74289998e-002
      2.17860006e-003 2.39649992e-002 0. 0. 0. 1.30720004e-001
      1.72110006e-001 2.39649992e-002 4.79299985e-002 6.75380006e-002
      2.39649992e-002 1.08930003e-002 6.53589983e-003 3.48580003e-001
      1.44800007e-001 9.04980022e-003 2.26240000e-003 0. 0. 0. 0.
      9.50229988e-002 2.82799989e-001 2.94119995e-002 4.75110002e-002
      4.97739986e-002 3.84620018e-002 4.52490011e-003 6.78730011e-003
      2.89590001e-001 4.79449987e-001 2.64380008e-001 2.31509998e-001
      2.39729993e-002 6.84930012e-004 0.</_>
    <_>
      5.68419993e-002 9.97300029e-001 9.94499981e-001 9.91500020e-001
      9.86389995e-001 9.81180012e-001 9.75160003e-001 9.67859983e-001
      9.60739970e-001 9.52549994e-001 9.44519997e-001 9.36129987e-001
      9.28319991e-001 9.20830011e-001 9.13209975e-001 9.07199979e-001
      9.02490020e-001 8.97560000e-001 8.94429982e-001 8.91879976e-001
      8.90389979e-001 1.28969997e-001 1.14100002e-001 9.80309993e-002
      8.53279978e-002 1.70619994e-001 2.49939993e-001 2.49939993e-001
      2.49939993e-001 2.49939993e-001 1.61249995e-001 1.51480004e-001
      2.49939993e-001 2.49939993e-001 2.25470006e-001 8.68640020e-002
      8.90220031e-002 1.14450000e-001 9.91050005e-002 9.14210007e-002
      8.22099969e-002 5.87159991e-002 6.39019981e-002 1.39660001e-001
      2.09399998e-001 2.49939993e-001 1.91249996e-001 1.06490001e-001
      1.35729998e-001 1.82339996e-001 2.49939993e-001 2.49939993e-001
      7.75870010e-002 6.79579973e-002 1.24509998e-001 7.71429986e-002
      6.14020005e-002 2. 1.30679995e-001 8.70649993e-001 0. 0. 0. 0. 0.
      0. 0. 0. 0. 0. 0. 0. 0. 0. 0. 0. 0. 3.95260006e-002 0.
      1.31750002e-003 2.63500004e-003 0. 0. 1.31750002e-003
      6.45589978e-002 7.04870000e-002 2.63500004e-003 3.03029995e-002
      3.82080004e-002 2.63500009e-002 4.61129984e-003 4.54550013e-002
      6.72590017e-001 2.07609996e-001 1.07270002e-001 3.46020004e-003
      1.38410002e-001 0. 0. 3.46020004e-003 1.31490007e-001
      2.07610000e-002 1.03810001e-002 5.53629994e-002 5.88239990e-002
      3.46020004e-003 6.92040008e-003 2.76820008e-002 2.24910006e-001
      1.39530003e-001 5.81400003e-003 2.90700002e-003 4.84499987e-003 0.
      0. 9.68989974e-004 6.39529973e-002 9.98060033e-002 7.75189977e-003
      3.97289991e-002 3.68219987e-002 1.55039998e-002 8.72089993e-003
      1.64730009e-002 5.57169974e-001 3.40939999e-001 2.91610003e-001
      1.86910003e-001 1.28859997e-001 4.83219996e-002 3.35570006e-003</_>
    <_>
      1.75569996e-001 9.97460008e-001 9.92850006e-001 9.85379994e-001
      9.76700008e-001 9.65789974e-001 9.54079986e-001 9.40890014e-001
      9.27410007e-001 9.12970006e-001 8.98840010e-001 8.84270012e-001
      8.70010018e-001 8.56100023e-001 8.43609989e-001 8.31690013e-001
      8.21990013e-001 8.13759983e-001 8.08820009e-001 8.05379987e-001
      8.04740012e-001 2.24910006e-001 1.44150004e-001 1.35440007e-001
      2.24910006e-001 2.24910006e-001 1.78900003e-001 2.24910006e-001
      2.24910006e-001 2.24910006e-001 9.55130011e-002 1.33860007e-001
      2.24910006e-001 2.24910006e-001 2.24910006e-001 1.32359996e-001
      1.30140007e-001 8.82140025e-002 7.32650012e-002 1.98620006e-001
      2.24649996e-001 1.25750005e-001 1.94110006e-001 2.13019997e-001
      1.20490000e-001 1.13229997e-001 1.13169998e-001 1.73390001e-001
      8.33870023e-002 1.66549996e-001 1.86749995e-001 2.19479993e-001
      1.13150001e-001 5.32899983e-002 5.02839983e-002 1.85959991e-002
      3.83949988e-002 2.20000005e+000 2.11009994e-001 8.85249972e-001 0.
      0. 0. 0. 0. 0. 0. 0. 0. 0. 0. 0. 0. 0. 0. 0. 0. 5.87499999e-002
      9.99999978e-003 0. 4.99999989e-003 0. 0. 0. 1.37499999e-002
      1.11249998e-001 3.75000015e-002 2.50000004e-002 5.99999987e-002
      5.00000007e-002 9.99999978e-003 4.50000018e-002 5.73750019e-001
      1.74999997e-001 8.39290023e-002 1.25000002e-002 6.42860010e-002 0.
      0. 0. 9.64289978e-002 6.42860010e-002 1.96429994e-002
      2.50000004e-002 6.25000000e-002 2.50000004e-002 7.14290002e-003
      3.39290015e-002 3.30359995e-001 1.29629999e-001 3.56119983e-002
      4.27349983e-003 3.98860015e-002 1.42450002e-003 0. 1.42450002e-003
      6.55269995e-002 1.70939997e-001 1.42449997e-002 3.70370001e-002
      4.13109995e-002 2.70649996e-002 8.54699966e-003 3.13390009e-002
      3.91739994e-001 6.50929987e-001 2.37210006e-001 4.49689999e-002
      2.75439993e-002 3.03540006e-002 8.99379980e-003</_>
    <_>
      1.53999999e-001 9.97470021e-001 9.92730021e-001 9.86320019e-001
      9.78389978e-001 9.68729973e-001 9.57759976e-001 9.45969999e-001
      9.33749974e-001 9.21259999e-001 9.09089983e-001 8.97509992e-001
      8.86529982e-001 8.76259983e-001 8.67200017e-001 8.60220015e-001
      8.54250014e-001 8.49650025e-001 8.46019983e-001 8.44150007e-001
      8.43720019e-001 2.49680001e-002 3.78409997e-002 7.61630014e-002
      2.85010010e-001 2.85010010e-001 1.79399997e-001 7.95530006e-002
      3.11060008e-002 1.80089995e-002 1.95090007e-002 3.95400003e-002
      1.08309999e-001 2.85010010e-001 2.85010010e-001 3.61480005e-002
      1.31000001e-002 1.07739996e-002 1.07509997e-002 1.07610002e-001
      1.87470004e-001 2.69300014e-001 2.85010010e-001 2.85010010e-001
      2.55719990e-001 1.83229998e-001 7.95980021e-002 6.81840032e-002
      5.37789986e-002 1.50399998e-001 2.23749995e-001 2.85010010e-001
      2.38519996e-001 4.77910005e-002 3.07299998e-002 1.51519999e-002
      1.96700003e-002 2.91669989e+000 2.90600002e-001 8.92310023e-001 0.
      0. 0. 0. 0. 0. 0. 0. 0. 0. 0. 0. 0. 0. 0. 0. 0. 8.67350027e-002
      3.82649992e-003 5.10200020e-003 5.10200020e-003 1.27550005e-003 0.
      1.27550005e-003 3.44390012e-002 1.90050006e-001 1.02040004e-002
      1.91329997e-002 5.86740002e-002 4.71940003e-002 2.29589995e-002
      3.82650010e-002 4.75760013e-001 1.74710006e-001 5.97699992e-002
      8.04600026e-003 5.40230013e-002 2.29880004e-003 1.14940002e-003
      1.14940002e-003 1.04599997e-001 6.32179976e-002 2.64369994e-002
      3.56319994e-002 5.28730005e-002 1.37930000e-002 2.29880009e-002
      1.83910001e-002 3.60920012e-001 1.09530002e-001 2.23120004e-002
      1.01420004e-003 1.41989999e-002 0. 0. 0. 7.30220005e-002
      1.18660003e-001 2.23120004e-002 3.95539999e-002 4.86820005e-002
      1.52129997e-002 2.33270004e-002 2.83979997e-002 4.83770013e-001
      4.83040005e-001 1.84980005e-001 2.21619993e-001 8.00540000e-002
      2.66849995e-002 3.61829996e-003</_>
    <_>
      1.81410000e-001 9.97709990e-001 9.94539976e-001 9.89520013e-001
      9.83519971e-001 9.76790011e-001 9.70080018e-001 9.62610006e-001
      9.55420017e-001 9.47809994e-001 9.39689994e-001 9.32879984e-001
      9.26020026e-001 9.19759989e-001 9.14210021e-001 9.09739971e-001
      9.05569971e-001 9.02540028e-001 8.99680018e-001 8.98230016e-001
      8.97719979e-001 1.28450006e-001 1.72610000e-001 2.61889994e-001
      2.61889994e-001 2.61889994e-001 2.18419999e-001 1.49460003e-001
      1.37380004e-001 1.66419998e-001 5.01030013e-002 1.41670004e-001
      2.61889994e-001 2.61889994e-001 2.29670003e-001 7.49119967e-002
      4.06560004e-002 3.95479985e-002 3.77650000e-002 5.36619984e-002
      2.19929993e-001 2.61889994e-001 2.61889994e-001 1.74500003e-001
      5.80580011e-002 4.87000011e-002 6.13150001e-002 6.85779974e-002
      2.42069997e-002 1.57670006e-001 2.61889994e-001 2.61889994e-001
      9.60910022e-002 1.85349993e-002 1.25829997e-002 1.47569999e-002
      1.72429997e-002 1.76919997e+000 3.04879993e-001 8.90110016e-001 0.
      0. 0. 0. 0. 0. 0. 0. 0. 0. 0. 0. 0. 0. 0. 0. 0. 4.88509983e-002
      7.18390010e-003 2.87359999e-003 2.72990000e-002 0. 0.
      1.43680000e-003 3.16089988e-002 7.47129992e-002 1.58050004e-002
      3.87930013e-002 4.45399992e-002 6.89650029e-002 2.87359999e-003
      1.06320001e-001 5.28729975e-001 1.88409999e-001 1.20080002e-001
      4.14079987e-003 3.93370017e-002 0. 0. 0. 6.21119998e-002
      7.03930035e-002 2.69150008e-002 4.34780009e-002 5.79710007e-002
      3.10559999e-002 1.03519997e-002 3.72669995e-002 3.08490008e-001
      1.72000006e-001 5.20000011e-002 8.00000038e-003 7.59999976e-002 0.
      0. 2.00000009e-003 8.39999989e-002 1.00000001e-001 1.20000001e-002
      1.99999996e-002 7.19999969e-002 3.99999991e-002 1.60000008e-002
      5.00000007e-002 2.96000004e-001 6.63089991e-001 2.00269997e-001
      6.02810010e-002 3.41590010e-002 3.34899984e-002 8.70729983e-003</_>
    <_>
      1.91980004e-001 9.97950017e-001 9.93369997e-001 9.85970020e-001
      9.76790011e-001 9.65749979e-001 9.53540027e-001 9.40240026e-001
      9.26349998e-001 9.12289977e-001 8.98469985e-001 8.84930015e-001
      8.71800005e-001 8.59120011e-001 8.47109973e-001 8.36319983e-001
      8.26940000e-001 8.19369972e-001 8.13780010e-001 8.10360014e-001
      8.09249997e-001 1.46270007e-001 1.28999993e-001 1.62420005e-001
      2.48820007e-001 2.48820007e-001 2.48820007e-001 2.48820007e-001
      1.78279996e-001 9.97089967e-002 1.18249997e-001 1.31040007e-001
      1.17420003e-001 1.31760001e-001 2.04300001e-001 1.50000006e-001
      1.38540000e-001 7.17710033e-002 6.15639985e-002 1.49279997e-001
      1.15640000e-001 1.51060000e-001 2.48820007e-001 2.48820007e-001
      2.40630001e-001 2.41290003e-001 1.99670002e-001 1.40139997e-001
      7.45109990e-002 8.78669992e-002 1.36529997e-001 2.09000006e-001
      1.79710001e-001 9.11839977e-002 7.80889988e-002 6.34649992e-002
      6.91919997e-002 2.50000000e+000 1.79240003e-001 8.89829993e-001 0.
      0. 0. 0. 0. 0. 0. 0. 0. 0. 0. 0. 0. 0. 0. 0. 0. 4.93419990e-002 0.
      1.64469995e-003 6.57900004e-003 0. 0. 0. 4.93420009e-003
      1.00330003e-001 4.93420009e-003 4.60529998e-002 5.42760007e-002
      3.78290005e-002 9.86840017e-003 4.44080010e-002 6.39800012e-001
      1.62959993e-001 5.00000007e-002 7.40739983e-003 4.81479988e-002
      3.70369991e-003 1.85180001e-003 1.85180001e-003 1.18519999e-001
      1.24070004e-001 2.03699991e-002 4.25929986e-002 5.18519990e-002
      4.81479988e-002 1.66669991e-002 2.03699991e-002 2.81480014e-001
      1.15390003e-001 1.83149998e-003 0. 5.49450004e-003 0.
      1.83149998e-003 0. 4.76190001e-002 3.26009989e-001 1.28210001e-002
      4.02930006e-002 4.57880013e-002 2.93039996e-002 7.32599990e-003
      1.46519998e-002 3.51650000e-001 5.83270013e-001 1.84520006e-001
      1.61060005e-001 4.53479998e-002 2.26739999e-002 3.12740006e-003</_>
    <_>
      1.81270003e-001 9.98300016e-001 9.93830025e-001 9.86930013e-001
      9.77660000e-001 9.66229975e-001 9.53069985e-001 9.38300014e-001
      9.22320008e-001 9.05579984e-001 8.88540030e-001 8.71649981e-001
      8.55350018e-001 8.39890003e-001 8.25550020e-001 8.12839985e-001
      8.02020013e-001 7.93410003e-001 7.87180007e-001 7.83519983e-001
      7.82280028e-001 1.20320000e-001 8.95019993e-002 8.04340020e-002
      1.55579999e-001 2.44639993e-001 2.69349992e-001 1.52649999e-001
      1.11280002e-001 8.45469981e-002 2.28979997e-002 2.29930002e-002
      9.01129991e-002 2.81709999e-001 2.81709999e-001 1.21519998e-001
      3.50489989e-002 2.54449993e-002 2.88490001e-002 1.78230003e-001
      1.71399996e-001 1.58329993e-001 2.28780001e-001 1.91090003e-001
      2.03219995e-001 2.62120008e-001 2.44340003e-001 1.33139998e-001
      5.50180003e-002 8.29790011e-002 2.81709999e-001 2.81709999e-001
      2.12760001e-001 5.82089983e-002 3.27950008e-002 3.50759998e-002
      3.65319997e-002 1.95650005e+000 2.28569999e-001 8.97000015e-001 0.
      0. 0. 0. 0. 0. 0. 0. 0. 0. 0. 0. 0. 0. 0. 0. 0. 3.27540003e-002
      1.36230001e-002 2.89859995e-003 1.65219996e-002 2.89860007e-004
      2.89860007e-004 1.73909997e-003 8.40579998e-003 2.20289994e-002
      7.24640023e-003 2.02900004e-002 3.53620015e-002 4.14489992e-002
      6.08700002e-003 1.09849997e-001 6.81159973e-001 1.20949998e-001
      3.96710001e-002 6.28930004e-003 6.28930032e-002 4.83790005e-004 0.
      4.83789993e-003 1.10789999e-001 5.32170013e-002 2.37060003e-002
      2.75759995e-002 4.74120006e-002 1.78999994e-002 1.69329997e-002
      3.87029983e-002 4.28640008e-001 9.69550014e-002 1.24199996e-002
      8.01280024e-004 1.12180002e-002 8.01280024e-004 4.00640012e-004
      1.20189996e-003 8.53359997e-002 8.73399973e-002 1.40220001e-002
      1.36219999e-002 4.12660018e-002 1.88299995e-002 1.28210001e-002
      1.80290006e-002 5.84940016e-001 5.21780014e-001 2.65650004e-001
      1.09300002e-001 6.94279969e-002 3.05330008e-002 3.30609991e-003</_>
    <_>
      2.69729998e-002 9.97539997e-001 9.93460000e-001 9.88080025e-001
      9.80490029e-001 9.71819997e-001 9.62490022e-001 9.52390015e-001
      9.41569984e-001 9.30050015e-001 9.17400002e-001 9.04179990e-001
      8.91080022e-001 8.78650010e-001 8.67179990e-001 8.56909990e-001
      8.49129975e-001 8.43500018e-001 8.39030027e-001 8.36700022e-001
      8.36549997e-001 1.06570004e-002 7.91690033e-003 2.94889993e-004
      8.98330018e-006 4.90319990e-002 2.87200004e-001 2.87200004e-001
      2.23049998e-001 2.99769994e-002 1.97870001e-001 2.49320000e-001
      8.93110037e-002 3.66920009e-002 2.21129991e-002 2.83589989e-001
      2.87200004e-001 2.14059994e-001 1.41389996e-001 1.77650005e-002
      1.33330002e-002 7.44530000e-003 1.10440003e-003 4.48059998e-002
      2.33700007e-001 2.87200004e-001 1.77520007e-001 4.36119996e-002
      1.61070004e-001 1.38630003e-001 6.90329969e-002 1.02340002e-002
      8.53510015e-003 1.01870000e-001 2.87200004e-001 2.87200004e-001
      2.01440006e-001 1.70829999e+000 2.32559994e-001 8.90630007e-001
      8.49969959e+000 7.87980035e-002 1.19049996e-002 1.13380002e-003
      1.75739992e-002 1.13380002e-003 0. 3.96829983e-003 4.87530008e-002
      8.61679986e-002 1.53059997e-002 2.66440008e-002 3.68480012e-002
      4.36509997e-002 1.41719999e-002 7.82309994e-002 5.35719991e-001
      1.53929994e-001 3.15609984e-002 4.98339999e-003 2.87929997e-002
      1.66109996e-003 1.10740005e-003 4.42969985e-003 3.76520008e-002
      8.80400017e-002 2.87929997e-002 2.65779998e-002 4.15280014e-002
      3.10079996e-002 1.49499997e-002 3.04540005e-002 4.74519998e-001
      1.36720002e-001 1.56250000e-001 0. 4.41410005e-001 0. 0. 0.
      6.25000000e-002 0. 0. 1.56250000e-002 1.32809997e-001 0. 0. 0.
      5.46879992e-002 3.49210016e-002 1.58729998e-003 5.29100012e-004
      2.64550000e-003 5.29100012e-004 0. 1.58729998e-003 1.17990002e-001
      1.57140002e-001 6.87830010e-003 2.32800003e-002 2.80419998e-002
      2.69840006e-002 4.76189982e-003 2.11640000e-002 5.71959972e-001
      3.76289994e-001 2.47160003e-001 1.48599997e-001 1.01340003e-001
      9.55270007e-002 3.10839992e-002</_>
    <_>
      1.73360005e-001 9.97210026e-001 9.91569996e-001 9.83309984e-001
      9.73219991e-001 9.61199999e-001 9.47250009e-001 9.32259977e-001
      9.16159987e-001 8.99869978e-001 8.83010030e-001 8.66609991e-001
      8.50709975e-001 8.35950017e-001 8.22629988e-001 8.10620010e-001
      8.00329983e-001 7.91899979e-001 7.85799980e-001 7.82199979e-001
      7.80910015e-001 6.30649999e-002 2.78169990e-001 3.05960000e-001
      3.05960000e-001 1.17969997e-001 7.66199976e-002 4.68280017e-002
      5.50890006e-002 6.18470013e-002 3.94750014e-002 1.56959996e-001
      3.05960000e-001 3.05960000e-001 1.71709999e-001 6.21760003e-002
      5.04049994e-002 3.23030017e-002 3.83649990e-002 1.47220001e-001
      3.05960000e-001 3.05960000e-001 1.72629997e-001 6.54020011e-002
      6.32160008e-002 4.76940013e-002 5.25799990e-002 7.43229985e-002
      4.84139994e-002 1.88439995e-001 3.05960000e-001 2.37670004e-001
      3.54410000e-002 1.40079996e-002 8.50609969e-003 1.14850001e-002
      2.39519998e-002 2.57139993e+000 2.39130005e-001 8.92679989e-001 0.
      0. 0. 0. 0. 0. 0. 0. 0. 0. 0. 0. 0. 0. 0. 0. 0. 7.68250003e-002
      5.07939979e-003 2.53969990e-003 5.07939979e-003 0. 0.
      6.34920027e-004 4.44439985e-002 2.01269999e-001 8.88890028e-003
      3.17460001e-002 3.30159999e-002 4.50790003e-002 7.61900004e-003
      5.26980013e-002 4.85080004e-001 1.58390000e-001 8.88200030e-002
      2.48449994e-003 5.71429990e-002 6.21119980e-004 2.48449994e-003
      2.48449994e-003 7.26710036e-002 4.22360003e-002 1.80120002e-002
      3.10559999e-002 4.96889986e-002 9.31680016e-003 6.83230022e-003
      2.91930009e-002 4.28570002e-001 7.83070028e-002 9.52379964e-003
      5.29100012e-004 1.95770003e-002 5.29100012e-004 1.05820002e-003
      2.64550000e-003 9.31219980e-002 1.48149997e-001 1.74599998e-002
      2.48680003e-002 3.59789990e-002 1.79890003e-002 6.34919992e-003
      1.85189992e-002 5.25399983e-001 5.10380030e-001 2.88709998e-001
      1.30410001e-001 4.95240018e-002 1.90309994e-002 1.94640004e-003</_>
    <_>
      1.36810005e-001 9.99069989e-001 9.97309983e-001 9.94669974e-001
      9.91310000e-001 9.87429976e-001 9.83560026e-001 9.79499996e-001
      9.75700021e-001 9.72140014e-001 9.68859971e-001 9.66059983e-001
      9.63840008e-001 9.62029994e-001 9.60720003e-001 9.60070014e-001
      9.59840000e-001 9.59829986e-001 9.59959984e-001 9.60179985e-001
      9.60219979e-001 9.05949995e-003 2.67709997e-002 4.58250009e-002
      1.15520000e-001 2.79740006e-001 2.79740006e-001 1.55970007e-001
      1.92430001e-002 1.04740001e-002 1.43449996e-002 8.67239982e-002
      1.94299996e-001 2.79740006e-001 2.79740006e-001 1.88020006e-001
      4.65000011e-002 9.09459963e-003 7.61040021e-003 5.54590002e-002
      9.06099975e-002 7.75400028e-002 1.58480003e-001 2.79740006e-001
      2.79740006e-001 1.94930002e-001 1.17810003e-001 4.95719984e-002
      5.72809987e-002 1.54899999e-001 2.41980001e-001 2.79740006e-001
      2.79740006e-001 2.21080005e-001 9.05290022e-002 7.75699988e-002
      3.64190005e-002 5.59999990e+000 3.94560009e-001 8.95709991e-001 0.
      0. 0. 0. 0. 0. 0. 0. 0. 0. 0. 0. 0. 0. 0. 0. 0. 4.65589985e-002
      1.11339996e-002 3.03640007e-003 1.66999996e-002 0. 0.
      1.01220002e-003 2.32790001e-002 4.70650010e-002 1.26520004e-002
      1.56880002e-002 5.36440015e-002 2.37850007e-002 1.56880002e-002
      7.18619972e-002 6.57890022e-001 1.43169999e-001 6.03200011e-002
      2.18020007e-003 8.57559964e-002 0. 7.26739992e-004 1.45350001e-003
      1.30809993e-001 3.56109999e-002 3.05230003e-002 1.23549998e-002
      7.48549998e-002 7.26740016e-003 9.44770034e-003 1.16280001e-002
      3.93889993e-001 9.72969979e-002 2.11709999e-002 2.70269997e-003
      1.62160005e-002 9.00899991e-004 4.50449996e-004 9.00899991e-004
      7.07210004e-002 1.02700002e-001 3.19820009e-002 2.38739997e-002
      4.18919995e-002 1.53150000e-002 9.00899991e-003 1.48649998e-002
      5.50000012e-001 5.76179981e-001 2.35039994e-001 1.25229999e-001
      4.70619984e-002 1.40920002e-002 2.39300006e-003</_>
    <_>
      1.58240005e-001 9.97380018e-001 9.91999984e-001 9.83259976e-001
      9.72289979e-001 9.59389985e-001 9.44830000e-001 9.29040015e-001
      9.11790013e-001 8.94240022e-001 8.76219988e-001 8.58519971e-001
      8.41769993e-001 8.26070011e-001 8.11890006e-001 7.99189985e-001
      7.88160026e-001 7.78859973e-001 7.72040009e-001 7.67499983e-001
      7.65999973e-001 5.75110018e-002 1.46100000e-001 9.64460000e-002
      1.21909998e-001 2.16100007e-001 2.16100007e-001 2.15580001e-001
      1.12219997e-001 5.97480014e-002 6.50570020e-002 1.91029996e-001
      1.96569994e-001 1.82139993e-001 2.16100007e-001 1.76050007e-001
      1.05920002e-001 8.93760026e-002 5.20120002e-002 1.16310000e-001
      1.67569995e-001 1.86169997e-001 1.44999996e-001 2.16100007e-001
      2.16100007e-001 2.09040001e-001 2.16100007e-001 1.60620004e-001
      1.36800006e-001 2.16100007e-001 2.16100007e-001 1.96799994e-001
      1.62420005e-001 1.24880001e-001 1.27880007e-001 2.16100007e-001
      1.34519994e-001 1.83329999e+000 2.11860001e-001 8.79700005e-001 0.
      0. 0. 0. 0. 0. 0. 0. 0. 0. 0. 0. 0. 0. 0. 0. 0. 1.86340004e-001
      9.31680016e-003 1.55279995e-003 1.55280000e-002 1.55279995e-003 0.
      3.10559990e-003 5.90060018e-002 2.12730005e-001 1.86340008e-002
      2.32919995e-002 6.36650026e-002 4.34780009e-002 9.31680016e-003
      1.55280000e-002 3.36959988e-001 1.51669994e-001 5.16670011e-002
      1.66670000e-003 4.33330014e-002 1.66670000e-003 0. 1.66670000e-003
      1.21670000e-001 1.26670003e-001 2.33330000e-002 4.16669995e-002
      5.33329993e-002 4.83330004e-002 1.16670001e-002 1.83329992e-002
      3.03330004e-001 1.96290001e-001 1.32630002e-002 0. 1.98940001e-002
      0. 0. 0. 9.41639990e-002 2.00269997e-001 3.05039994e-002
      3.58089991e-002 4.24400009e-002 2.65250001e-002 6.63129985e-003
      6.63129985e-003 3.27589989e-001 4.95559990e-001 3.06679994e-001
      1.37449995e-001 4.11409996e-002 1.68299992e-002 2.33749999e-003</_>
    <_>
      1.97730005e-001 9.98120010e-001 9.93470013e-001 9.85989988e-001
      9.76220012e-001 9.64219987e-001 9.50349987e-001 9.34979975e-001
      9.18479979e-001 9.01319981e-001 8.83840024e-001 8.66439998e-001
      8.49550009e-001 8.33599985e-001 8.18989992e-001 8.06129992e-001
      7.95120001e-001 7.86459982e-001 7.80089974e-001 7.76149988e-001
      7.74770021e-001 2.34229993e-002 2.20710002e-002 8.49409997e-002
      2.25060001e-001 2.81520009e-001 2.81520009e-001 1.44030005e-001
      7.85380006e-002 2.20309999e-002 1.24700004e-002 1.50560001e-002
      1.75679997e-001 2.81520009e-001 2.81520009e-001 3.88429984e-002
      2.22679991e-002 1.50509998e-002 1.15120001e-002 7.42639974e-002
      1.27279997e-001 1.64430007e-001 8.16150010e-002 2.39710003e-001
      2.81520009e-001 2.81520009e-001 1.69780001e-001 5.39680012e-002
      9.18179974e-002 1.72179997e-001 2.81520009e-001 2.81520009e-001
      1.89640000e-001 8.25759992e-002 9.20270011e-002 7.90589973e-002
      5.53740002e-002 2.77780008e+000 1.74830005e-001 8.81990016e-001 0.
      0. 0. 0. 0. 0. 0. 0. 0. 0. 0. 0. 0. 0. 0. 0. 0. 4.90569994e-002
      2.83019990e-003 0. 1.88680005e-003 0. 0. 0. 1.03770001e-002
      9.71700028e-002 1.22640003e-002 3.39620002e-002 4.71699983e-002
      1.79239996e-002 3.77360010e-003 4.52830009e-002 6.78309977e-001
      1.36749998e-001 4.27349992e-002 5.34190005e-003 3.63250002e-002 0.
      2.13679997e-003 2.13679997e-003 1.43160000e-001 6.83759972e-002
      2.13680007e-002 2.56409999e-002 5.87610006e-002 7.47859990e-003
      7.47859990e-003 1.49569996e-002 4.27350014e-001 1.18890002e-001
      1.44440001e-002 3.33329989e-003 1.55560002e-002 1.11109996e-003
      1.11109996e-003 3.33329989e-003 6.77779987e-002 1.45559996e-001
      1.77779999e-002 2.44440008e-002 6.11109994e-002 1.99999996e-002
      1.11109996e-002 2.33330000e-002 4.71109986e-001 3.54990005e-001
      2.74309993e-001 2.33319998e-001 8.89659971e-002 3.61969993e-002
      1.22109996e-002</_>
    <_>
      1.69699997e-001 9.97280002e-001 9.91599977e-001 9.83009994e-001
      9.71970022e-001 9.58790004e-001 9.43539977e-001 9.26680028e-001
      9.08789992e-001 8.90559971e-001 8.72200012e-001 8.54080021e-001
      8.36549997e-001 8.19989979e-001 8.04700017e-001 7.90920019e-001
      7.79219985e-001 7.69890010e-001 7.63180017e-001 7.59339988e-001
      7.57790029e-001 7.14180022e-002 9.70790014e-002 2.64820009e-001
      2.70740002e-001 2.35220000e-001 2.07190007e-001 1.01389997e-001
      4.88509983e-002 5.44149987e-002 1.98190007e-002 4.66840006e-002
      2.70740002e-001 2.70740002e-001 2.70740002e-001 5.75600006e-002
      2.58959997e-002 1.06109995e-002 1.24720000e-002 1.39190003e-001
      2.40769997e-001 2.70740002e-001 2.70740002e-001 1.96539998e-001
      2.06660002e-001 1.03820004e-001 6.64549991e-002 8.59370008e-002
      4.21190001e-002 1.25469998e-001 2.70740002e-001 2.70740002e-001
      6.98610023e-002 2.82930005e-002 2.14660000e-002 1.38999997e-002
      2.03649998e-002 2.53329992e+000 1.49189994e-001 8.91700029e-001 0.
      0. 0. 0. 0. 0. 0. 0. 0. 0. 0. 0. 0. 0. 0. 0. 0. 2.95330007e-002
      1.71700004e-003 3.43410007e-004 7.55500002e-003 0. 0.
      1.71700004e-003 1.61400009e-002 4.91070002e-002 5.49450004e-003
      2.36949995e-002 3.53710018e-002 1.20190000e-002 3.43409996e-003
      3.12500000e-002 7.82609999e-001 1.28790006e-001 4.59600016e-002
      3.03029991e-003 3.93939987e-002 5.05050004e-004 2.02020002e-003
      2.02020002e-003 9.79800001e-002 3.83840017e-002 2.12120004e-002
      2.87880003e-002 5.40399998e-002 1.16160000e-002 9.59600043e-003
      3.03029995e-002 4.86369997e-001 9.05739963e-002 5.73770003e-003
      1.22950005e-003 1.02460003e-002 4.09839995e-004 4.09839995e-004
      2.86890008e-003 5.36889993e-002 1.02870002e-001 1.59840006e-002
      2.37709992e-002 4.13939990e-002 1.76229998e-002 1.02460003e-002
      2.09020004e-002 6.02060020e-001 4.75609988e-001 2.41439998e-001
      1.74610004e-001 8.52570012e-002 2.25239992e-002 5.58450003e-004</_>
    <_>
      1.67270005e-001 9.97749984e-001 9.91410017e-001 9.81389999e-001
      9.68060017e-001 9.51879978e-001 9.33269978e-001 9.12710011e-001
      8.90749991e-001 8.67839992e-001 8.44500005e-001 8.21269989e-001
      7.98650026e-001 7.77140021e-001 7.57309973e-001 7.39639997e-001
      7.24600017e-001 7.12629974e-001 7.03909993e-001 6.98650002e-001
      6.96910024e-001 8.10550004e-002 8.44400004e-002 7.82980025e-002
      9.94030014e-002 1.51659995e-001 1.96480006e-001 1.56749994e-001
      9.36470032e-002 7.07409978e-002 2.18840003e-001 1.93330005e-001
      2.21689999e-001 2.21689999e-001 2.11329997e-001 1.31490007e-001
      1.16279997e-001 1.20209999e-001 1.09779999e-001 1.63790002e-001
      1.47469997e-001 1.14680000e-001 1.03979997e-001 1.79539993e-001
      2.21689999e-001 2.21689999e-001 2.21689999e-001 1.92049995e-001
      2.21689999e-001 2.21689999e-001 2.21689999e-001 2.21689999e-001
      1.46329999e-001 9.91199985e-002 1.06069997e-001 1.56360000e-001
      1.73109993e-001 1.71430004e+000 1.55300006e-001 8.94559979e-001 0.
      0. 0. 0. 0. 0. 0. 0. 0. 0. 0. 0. 0. 0. 0. 0. 0. 3.51560004e-002
      1.04170002e-003 7.81250012e-004 1.56250002e-003 2.60419998e-004 0.
      7.81250012e-004 1.56250000e-002 8.33339989e-002 9.89579968e-003
      1.40629997e-002 3.25520001e-002 3.75000015e-002 6.25000009e-003
      6.51040003e-002 6.96089983e-001 1.39479995e-001 3.78790013e-002
      3.56510002e-003 3.74329984e-002 4.45629994e-004 1.33690005e-003
      2.67380010e-003 1.22550003e-001 1.18539996e-001 1.82709992e-002
      2.45099999e-002 4.23349999e-002 2.40640007e-002 1.24779996e-002
      2.80750003e-002 3.86370003e-001 8.93059969e-002 3.00189992e-003
      3.75239993e-004 6.00379985e-003 0. 0. 3.75239993e-004
      5.74110001e-002 2.25889996e-001 1.05069997e-002 2.17640009e-002
      2.81429999e-002 1.83869991e-002 5.62850013e-003 1.80110000e-002
      5.15200019e-001 3.91889989e-001 2.88470000e-001 2.23710001e-001
      5.97140007e-002 2.90740002e-002 7.13790022e-003</_>
    <_>
      1.92580000e-001 9.98669982e-001 9.95410025e-001 9.90400016e-001
      9.83879983e-001 9.76230025e-001 9.67530012e-001 9.58180010e-001
      9.48480010e-001 9.38750029e-001 9.29189980e-001 9.20189977e-001
      9.12039995e-001 9.04690027e-001 8.98270011e-001 8.92629981e-001
      8.87989998e-001 8.84419978e-001 8.81749988e-001 8.80119979e-001
      8.79540026e-001 1.93220004e-002 1.38419997e-002 1.62850004e-002
      2.63340008e-002 2.82169998e-001 2.82169998e-001 7.94190019e-002
      1.69810001e-002 1.35369999e-002 7.72150010e-002 6.60530031e-002
      9.80440006e-002 2.82169998e-001 2.82169998e-001 1.15220003e-001
      2.72860005e-002 1.49560003e-002 6.13380000e-002 7.09379986e-002
      6.15249984e-002 1.34369999e-001 8.47629979e-002 2.56799996e-001
      2.82169998e-001 2.82169998e-001 1.10100001e-001 4.14090008e-002
      1.45219997e-001 1.60319999e-001 2.82169998e-001 2.82169998e-001
      2.82169998e-001 1.77300006e-001 1.57450005e-001 8.78449976e-002
      9.90250036e-002 3.50000000e+000 2.56099999e-001 8.94159973e-001 0.
      0. 0. 0. 0. 0. 0. 0. 0. 0. 0. 0. 0. 0. 0. 0. 0. 3.27720009e-002
      3.51119996e-003 2.34079990e-003 1.17039997e-002 4.68159997e-004 0.
      1.87270006e-003 2.13019997e-002 5.71160018e-002 7.49059999e-003
      1.73220001e-002 2.59830002e-002 3.74529995e-002 5.14979986e-003
      5.82860000e-002 7.17230022e-001 8.14649984e-002 2.87040006e-002
      3.55380005e-003 4.40130010e-002 5.46749972e-004 0. 1.09349994e-003
      1.27120003e-001 5.13940006e-002 2.73369998e-002 1.80430003e-002
      3.96389998e-002 1.17549999e-002 7.65450019e-003 1.99560001e-002
      5.37729979e-001 5.77550009e-002 5.29630017e-003 1.76550006e-003
      8.82720016e-003 2.52210011e-004 5.04410011e-004 5.04410011e-004
      4.06050012e-002 1.07189998e-001 1.74020007e-002 1.66459996e-002
      2.74909995e-002 2.26990003e-002 6.55739987e-003 1.96720008e-002
      6.66830003e-001 5.35099983e-001 2.78539985e-001 1.16910003e-001
      4.67020012e-002 1.98630001e-002 2.88100005e-003</_>
    <_>
      1.80999994e-001 9.97139990e-001 9.91569996e-001 9.81700003e-001
      9.68490005e-001 9.52570021e-001 9.33300018e-001 9.12329972e-001
      8.89299989e-001 8.65369976e-001 8.40879977e-001 8.16320002e-001
      7.92249978e-001 7.69259989e-001 7.48310030e-001 7.29110003e-001
      7.13379979e-001 7.00370014e-001 6.90680027e-001 6.85310006e-001
      6.82659984e-001 5.28119989e-002 3.61960009e-002 7.89119974e-002
      1.48580000e-001 2.22000003e-001 2.22000003e-001 8.53919983e-002
      9.30380002e-002 8.95129964e-002 7.95150027e-002 4.49919999e-002
      6.39910027e-002 9.05840024e-002 1.52490005e-001 1.13810003e-001
      8.74089971e-002 1.26690000e-001 1.18989997e-001 2.04720005e-001
      1.11249998e-001 1.79360002e-001 2.22000003e-001 2.22000003e-001
      2.22000003e-001 2.22000003e-001 2.04860002e-001 2.22000003e-001
      2.22000003e-001 1.77379996e-001 2.22000003e-001 2.01849997e-001
      2.22000003e-001 1.98730007e-001 1.52270004e-001 2.03130007e-001
      2.22000003e-001 2.09089994e+000 1.94690004e-001 8.88890028e-001 0.
      0. 0. 0. 0. 0. 0. 0. 0. 0. 0. 0. 0. 0. 0. 0. 0. 6.87830001e-002
      8.81830044e-003 0. 2.11640000e-002 0. 0. 0. 3.52730006e-002
      1.86949998e-001 1.94000006e-002 4.23280001e-002 5.29100001e-002
      6.87830001e-002 1.05820000e-002 5.82010001e-002 4.26809996e-001
      1.35780007e-001 4.52589989e-002 0. 2.80169994e-002 0. 0. 0.
      9.91379991e-002 1.76719993e-001 6.46550022e-003 4.74140011e-002
      5.17240018e-002 5.81899993e-002 0. 2.80169994e-002 3.23280007e-001
      1.14660002e-001 1.87970009e-002 0. 2.25559995e-002 0. 0. 0.
      1.12779997e-001 1.71049997e-001 1.50380004e-002 2.63160001e-002
      6.95490018e-002 9.39850044e-003 5.63909998e-003 2.06770003e-002
      4.13529992e-001 7.35840023e-001 2.12599993e-001 2.60979999e-002
      1.08209997e-002 1.14580002e-002 3.18269990e-003</_></support_vectors>
  <decision_functions>
    <_>
      <sv_count>46</sv_count>
      <rho>3.1321801157732700e+000</rho>
      <alpha>
        1.8206521868705750e+002 4.2134340554143520e+001
        1.8206521868705750e+002 1.8206521868705750e+002
        1.8066114829880934e+002 1.8206521868705750e+002
        1.8206521868705750e+002 1.8206521868705750e+002
        1.8206521868705750e+002 1.8064992677583643e+002
        6.1742125284973007e+001 9.7238132465279065e+001
        1.8206521868705750e+002 1.8206521868705750e+002
        1.8206521868705750e+002 1.8206521868705750e+002
        1.8206521868705750e+002 1.8206521868705750e+002
        1.8206521868705750e+002 2.5747730303264532e+001
        -1.3043478131294250e+002 -1.3043478131294250e+002
        -1.3043478131294250e+002 -1.3043478131294250e+002
        -1.3043478131294250e+002 -1.3043478131294250e+002
        -1.3043478131294250e+002 -1.3043478131294250e+002
        -1.3043478131294250e+002 -1.3043478131294250e+002
        -1.3043478131294250e+002 -4.5559488488256918e+001
        -1.3043478131294250e+002 -9.1009037923934883e+001
        -1.3043478131294250e+002 -1.3043478131294250e+002
        -1.3043478131294250e+002 -5.1796869123404010e-001
        -1.3043478131294250e+002 -1.3043478131294250e+002
        -1.3043478131294250e+002 -1.3043478131294250e+002
        -1.3043478131294250e+002 -1.3043478131294250e+002
        -1.3043478131294250e+002 -1.3043478131294250e+002</alpha>
      <index>
        0 1 2 3 4 5 6 7 8 9 10 11 12 13 14 15 16 17 18 19 20 21 22 23 24
        25 26 27 28 29 30 31 32 33 34 35 36 37 38 39 40 41 42 43 44 45</index></_></decision_functions></my_svm>
</opencv_storage>
